svm_type c_svc
kernel_type rbf
gamma 0.05
nr_class 2
total_sv 932
rho -0.18705051881657433
label 1 -1
nr_sv 500 432
SV
0.8131130088343202 12:120239.0 
0.813113270041298 3:915.0 5:27.0 9:15.0 12:29177.0 14:251.0 
0.8131146382622298 3:48.0 12:19715.0 
0.8131146382622298 1:318.0 4:20.0 5:15.0 12:13212.0 14:46.0 18:2.0 
0.8131155639942033 4:17.0 8:10.0 12:10796.0 13:3646.0 14:509.0 18:24.0 
0.8131160191441659 3:317.0 5:5.0 12:39147.0 14:2816.0 
0.8131034076190047 5:10.0 12:15716.0 
0.8131091409526872 4:1.0 7:6262.0 12:6101.0 14:2170.0 20:32.0 
0.8131018043868387 8:8.0 12:44781.0 14:271.0 18:48.0 
0.8131053530296573 12:3825.0 14:7578.0 
0.8130975968624747 5:314.0 12:11316.0 14:70.0 18:47.0 
0.8130978016170554 3:5.0 4:4.0 5:409.0 12:17973.0 14:259.0 
0.8130972928704931 3:10.0 5:1.0 7:1547.0 8:41.0 9:11.0 12:14522.0 14:12.0 
0.8130972928704931 4:465.0 12:6116.0 13:91208.0 14:83.0 20:1.0 
0.813094580825973 3:2.0 5:48.0 12:16051.0 14:317.0 16:8.0 18:1.0 
0.8130968771400511 5:23.0 8:13.0 12:11849.0 14:92.0 
0.8130798335297507 8:432.0 12:13418.0 
0.8130941489869558 12:26734.0 14:69.0 
0.8130620868744339 4:6.0 12:29323.0 18:6.0 
0.8130721180325176 5:140.0 12:10586.0 14:138.0 16:4.0 
0.8130457649396997 12:13240.0 14:134.0 
0.8130524702161197 8:2.0 12:13637.0 14:90.0 16:39.0 
0.8130357857117405 4:451.0 8:42.0 9:19.0 12:18922.0 14:14.0 
0.8130365482195792 4:8.0 12:31065.0 14:54.0 
0.813030549947689 5:1.0 12:11947.0 14:1041.0 
0.8130326142484461 4:91.0 12:108716.0 14:339.0 
0.8130209552424454 8:18.0 12:16458.0 14:54.0 
0.8130226753682602 12:12031.0 14:68.0 16:34.0 
0.8124951107974206 12:8578.0 14:2085.0 
0.8124951107974206 12:11932.0 14:44.0 
0.8124963590438121 3:138.0 12:11841.0 14:13.0 16:10.0 
0.8124963590438121 5:215.0 12:36795.0 14:84.0 
0.8124966543471522 8:66.0 12:17399.0 14:4.0 
0.8124966543471522 8:3130.0 12:1465.0 14:7962.0 
0.8124967794399285 3:644.0 12:18438.0 14:3.0 
0.8124967794399285 5:115.0 8:59.0 12:15592.0 14:306.0 
0.812497900173861 12:11913.0 
0.812497900173861 12:15824.0 
0.8124981621949203 4:3.0 5:750.0 12:14560.0 14:192.0 
0.8124981621949203 12:31145.0 
0.8124983740877951 1:169.0 2:6.0 3:1.0 4:28.0 7:9.0 8:62.0 12:10132.0 13:614.0 14:270.0 
0.8124983740877951 1:1.0 3:39828.0 12:1995.0 14:1918.0 
0.8124984533825595 3:1.0 4:865.0 5:452.0 12:21002.0 13:250.0 14:94.0 16:8.0 18:9.0 
0.8124984533825595 5:5.0 12:6645.0 14:17907.0 
0.8124989632725601 1:1.0 7:1360.0 12:13414.0 14:166.0 
0.8124989632725601 3:238.0 4:27.0 5:1964.0 8:100.0 12:15140.0 14:512.0 18:32.0 
0.8124991508258811 12:36176.0 14:31.0 
0.8124991508258811 3:3.0 5:95.0 12:17258.0 13:628.0 14:91.0 
0.8124991864251713 12:6107.0 14:8972.0 16:2.0 18:22.0 
0.8124991864251713 3:197.0 5:903.0 7:72.0 8:4.0 9:13.0 12:12916.0 14:139.0 
0.8124993389534069 3:5.0 4:5.0 12:12436.0 14:138.0 18:25.0 
0.8124993389534069 12:22508.0 14:169.0 16:35.0 
0.8124995341683526 9:16.0 12:15152.0 14:333.0 
0.8124995341683526 1:136.0 8:7.0 12:13390.0 14:2109.0 
0.8124996875219263 8:280.0 12:22348.0 14:2.0 
0.8124996875219263 8:48.0 12:13271.0 14:53.0 
0.8128811789403538 12:13081.0 14:8.0 
0.8124997126978413 1:7.0 3:339.0 5:232.0 12:2461.0 13:76080.0 14:1185.0 16:22.0 18:6.0 
0.8124997126978413 1:1.0 3:198.0 5:6.0 8:12.0 12:18105.0 14:141.0 
0.8124997906883481 12:42040.0 
0.8124997906883481 12:11783.0 18:11.0 
0.8124998163651274 1:97.0 4:138.0 8:4.0 9:21.0 12:6183.0 13:20989.0 14:2256.0 16:46.0 
0.8124998163651274 5:213.0 12:16854.0 14:186.0 
0.812499866252255 12:17726.0 14:14.0 
0.812499866252255 12:11591.0 14:22.0 
0.8124998977699959 8:10.0 12:13756.0 14:156.0 
0.8124998977699959 3:13459.0 
0.8124999190505946 12:15662.0 
0.7892969369543554 3:5.0 12:11344.0 
0.8128952094289165 8:1686.0 12:8072.0 14:1279.0 
0.8128528985530173 7:182.0 12:22729.0 14:245.0 
0.8129917099522777 4:16.0 5:168.0 12:12321.0 14:282.0 
0.8128499756113927 1:125.0 5:55.0 8:2.0 12:21878.0 14:189.0 18:795.0 
0.8128820917997208 5:56.0 12:103364.0 13:1.0 14:212.0 
0.8129012415503385 1:144.0 12:24805.0 
0.8128496310538481 3:1.0 4:25.0 5:76.0 12:15161.0 13:1.0 14:269.0 16:18.0 
0.8130442541029413 3:98.0 5:21.0 8:42.0 12:31243.0 14:519.0 18:36.0 
0.8133632093311376 4:79.0 5:57.0 9:7.0 12:22251.0 14:375.0 
0.8132952024729678 12:11211.0 
0.813046541329659 4:102.0 7:668.0 8:2.0 12:21458.0 13:108.0 14:117.0 
0.8131247778324815 1:3.0 3:799.0 4:2.0 7:2.0 12:9416.0 14:331.0 18:10.0 
0.8128440417506195 12:12480.0 14:3.0 
0.8130316568284748 12:21894.0 16:8.0 
0.8130790022217488 1:4.0 3:29.0 4:12.0 5:173.0 9:5.0 12:14017.0 14:655.0 16:1.0 
0.8131239903193123 3:2.0 5:2399.0 12:10146.0 13:4.0 14:572.0 18:109.0 
0.8130436139188054 1:28.0 7:3378.0 9:22.0 12:5203.0 13:1682.0 14:168.0 
0.8128972219102193 4:2.0 12:21340.0 14:51.0 
0.8128817533344855 1:4.0 4:12.0 5:300.0 7:2234.0 9:9.0 12:14711.0 14:2.0 
0.8128755473292983 5:358.0 12:10589.0 14:348.0 
0.8128880124421436 5:507.0 12:42075.0 14:2.0 
0.8133648193933162 1:60.0 12:14085.0 14:420.0 
0.8130967986066999 12:11829.0 
0.8130983820446289 1:1.0 3:1562.0 4:5.0 12:9041.0 14:92.0 
0.8110047240839776 12:13130.0 
0.8132574498489 12:34108.0 16:28.0 
0.8130419543736706 12:13784.0 14:217.0 
0.8128817533344855 12:30177.0 
0.8130785700477123 12:747.0 13:12707.0 14:178.0 16:30.0 18:19.0 
0.8129974101625366 3:1305.0 4:56.0 5:211.0 12:10349.0 14:158.0 
0.8133799529765591 8:17048.0 12:39.0 
0.8128817533344855 1:5.0 3:22.0 7:214.0 12:21869.0 14:147.0 
0.8129741022006034 12:39269.0 16:6.0 
0.8131275914395062 3:49.0 4:5.0 12:20264.0 13:1733.0 14:2080.0 18:36.0 
0.8133711025421195 5:74.0 12:21300.0 14:1932.0 
0.8134636143727375 5:71.0 9:13.0 12:13247.0 14:75.0 18:7.0 
0.8133786019686504 12:10633.0 
0.8128835969022024 5:223.0 12:11583.0 16:10.0 
0.8130316513233848 3:24.0 4:1.0 12:20885.0 14:11849.0 16:4.0 
0.8128560237778046 12:18807.0 
0.8130987181590126 1:35.0 7:785.0 9:5.0 12:16625.0 14:219.0 
0.8130971156583661 1:2.0 9:4.0 12:11174.0 14:24.0 
0.8128791280822865 1:105.0 3:42210.0 4:3.0 5:501.0 9:24.0 12:4812.0 14:18.0 
0.8128765371755455 3:415.0 4:66.0 8:24.0 12:14135.0 14:546.0 18:24.0 
0.8134129863851622 5:36.0 8:1.0 12:12387.0 14:55.0 
0.8130941489869558 7:14979.0 12:1847.0 
0.8131160191441659 3:1172.0 8:3.0 12:15744.0 14:109.0 
0.8130983820446289 1:11.0 4:1884.0 5:1922.0 9:45.0 12:10340.0 14:236.0 
0.8130528576533003 8:99.0 12:10609.0 
0.8128972203342402 5:695.0 8:7.0 12:10352.0 
0.8128962257247699 12:13148.0 14:262.0 
0.8132952024729678 3:47.0 5:114.0 12:618.0 13:11220.0 14:26.0 18:10.0 
0.8129166687381142 3:3335.0 12:9690.0 14:407.0 
0.8129974101542519 5:49267.0 12:3439.0 14:31.0 18:10.0 
0.8130941489869558 4:3.0 5:176.0 12:10652.0 14:160.0 
0.8129143580368281 8:1900.0 12:4.0 14:11541.0 
0.8129741022006033 4:49.0 8:2.0 12:13066.0 14:235.0 
0.8130781604851185 3:1.0 12:37691.0 14:21.0 
0.8131032339360366 5:127.0 12:23547.0 14:2344.0 
0.8131194025241442 3:107.0 5:26.0 12:12625.0 14:2213.0 
0.8130798335297507 5:1774.0 12:14716.0 14:36.0 
0.8130310605058162 8:3.0 12:17426.0 14:14.0 
0.8134636143727375 3:1.0 4:25.0 5:36.0 12:14950.0 14:227.0 16:26.0 
0.8133711025421195 5:4018.0 9:20.0 12:11110.0 18:77.0 
0.813362095869919 5:8433.0 9:1.0 12:2344.0 14:25.0 
0.8133140846331977 4:48.0 8:4.0 12:12499.0 14:63.0 
0.8130365191526343 4:3.0 5:131.0 8:89.0 12:17748.0 14:261.0 
0.8131943944268643 5:1.0 8:1.0 12:14003.0 14:34.0 
0.8128660743084732 12:13232.0 14:35.0 
0.8128937911006382 5:5.0 9:13.0 12:7543.0 14:3091.0 
0.8128360517868451 1:2.0 3:159.0 4:9.0 5:193.0 7:46.0 12:16124.0 14:98.0 
0.8128499756113927 3:1.0 4:9927.0 5:415.0 8:8.0 9:13.0 12:1051.0 14:21.0 
0.812850113341452 12:30199.0 14:211.0 
0.8126452589020927 8:17281.0 14:3.0 
0.8127514738223509 12:11071.0 
0.8128247780367269 3:66.0 4:1.0 5:321.0 12:15765.0 14:377.0 
0.8128440417506195 4:4.0 5:52.0 12:12436.0 14:330.0 
0.8128560237778046 5:19200.0 12:2575.0 14:74.0 
0.8128972219102193 8:1144.0 12:10371.0 
0.8129143580368281 12:10874.0 14:29.0 
0.8129711845096939 9:19.0 12:45106.0 14:242.0 
0.8129893505669881 5:751.0 8:178.0 12:15627.0 18:87.0 
0.8129930909537361 4:3848.0 12:6908.0 14:1.0 
0.8130400645656288 1:1.0 5:17.0 12:36256.0 14:53.0 
0.8130419543736706 12:29547.0 
0.8130436139188054 1:4.0 2:10.0 3:228.0 4:362.0 5:39.0 6:2663.0 7:5316.0 8:1131.0 9:1383.0 12:991.0 13:237.0 15:272.0 18:631.0 
0.813075807206536 5:15.0 7:1206.0 12:16457.0 14:309.0 
0.8130781604851185 5:1.0 12:11357.0 14:7570.0 16:6.0 
0.8130967986066999 4:11827.0 9:5.0 12:110.0 14:40.0 
0.8130971156583755 1:33.0 4:1.0 7:48.0 9:2.0 12:13775.0 14:54.0 20:6.0 
0.8130990664616999 4:92.0 5:137.0 12:26075.0 13:52.0 14:79.0 
0.8131313973622358 5:374.0 12:13166.0 14:353.0 16:14.0 
0.8131223983448698 12:20082.0 14:23.0 
0.8131233846323651 3:51.0 4:1.0 12:17856.0 16:27.0 
0.8131197113068503 12:13085.0 14:23.0 16:5.0 
0.5660079305184785 12:11374.0 14:2.0 
0.813113270041298 12:10468.0 13:1.0 14:617.0 
0.8131146382622298 3:112.0 4:3.0 12:15740.0 
0.8131160191441659 4:9.0 12:22681.0 
0.8131092232231141 12:18288.0 14:5.0 
0.813105872266694 4:4.0 7:966.0 12:11623.0 14:626.0 
0.8131018741287926 1:3.0 3:94.0 12:11365.0 14:22.0 
0.8130983820446289 3:2.0 12:48527.0 
0.8130987181590126 12:104726.0 
0.8130941489869558 3:6.0 4:6.0 5:17.0 12:26825.0 
0.6041061706973809 12:11378.0 
0.8130721180325176 3:21.0 12:21282.0 14:304.0 
0.8130528576533003 3:119.0 4:4.0 7:6326.0 8:24.0 12:4019.0 
0.8130365482195792 12:13383.0 16:16.0 
0.8130331927084897 1:192.0 4:3.0 12:36099.0 14:605.0 
0.8130253010637738 3:1.0 4:1.0 5:843.0 12:9617.0 14:227.0 
0.8124951107974206 12:14532.0 14:201.0 
0.8124963590438121 3:7.0 5:381.0 8:12.0 12:27929.0 14:208.0 
0.8124966543471522 5:14.0 12:15370.0 14:19.0 
0.8124967794399285 8:568.0 12:102768.0 14:3.0 
0.812497900173861 1:2.0 3:21.0 4:43.0 8:357.0 12:12287.0 
0.8124981621949203 3:31.0 4:2.0 5:55.0 9:3.0 12:19088.0 14:30.0 
0.8124983740877951 3:242.0 4:123.0 5:91.0 8:2.0 12:10324.0 14:40.0 18:4.0 
0.8124984533825595 3:48.0 5:33.0 9:4.0 12:13623.0 14:93.0 16:4.0 
0.8124989632725601 8:4.0 12:23608.0 
0.8124991508258811 7:2.0 12:45165.0 14:63.0 
0.8124991864251713 7:2122.0 8:8.0 12:184.0 13:11464.0 14:21.0 
0.8124993389534069 5:7.0 12:21044.0 14:8.0 
0.8124995341683526 12:13197.0 
0.8124996875219263 1:9.0 8:3.0 9:2.0 12:12185.0 14:172.0 
0.8124997126978413 3:33.0 4:87.0 5:500.0 7:11652.0 8:2.0 9:3.0 12:5207.0 14:179.0 16:8.0 
0.8124997906883481 4:38.0 12:6274.0 14:7755.0 
0.8124998163651274 1:543.0 4:35.0 5:11.0 12:38609.0 13:202.0 14:105.0 16:14.0 
0.812499866252255 5:4.0 12:11523.0 14:134.0 
0.8124998977699959 1:15.0 5:537.0 12:10004.0 14:76.0 16:29.0 18:6.0 
0.8124999190505946 4:1.0 9:3.0 12:15528.0 14:60.0 
0.8124999363845031 4:146.0 7:108.0 12:12874.0 14:365.0 16:9.0 17:1.0 
0.812499942945272 4:31.0 12:19837.0 14:203.0 
0.7890316134974108 12:11341.0 14:6.0 
0.812959486743285 4:4.0 12:11479.0 14:1272.0 
0.8128816919721051 3:4.0 5:147.0 7:1103.0 12:10452.0 14:5.0 
0.8128852385162303 3:7.0 4:103.0 5:28.0 7:265.0 8:128.0 9:15.0 11:20.0 12:13371.0 13:42.0 14:44.0 
0.8131277542699504 7:361.0 12:18336.0 14:131.0 
0.8130457280912371 3:14.0 5:2359.0 12:14127.0 14:113.0 
0.8127662949031694 8:16922.0 12:15.0 14:5.0 
0.8128852385162303 5:336.0 7:394.0 12:12258.0 14:107.0 
0.8128528985530173 8:29.0 12:19016.0 
0.8128660743084732 3:76.0 5:71.0 12:18141.0 14:620.0 
0.8131159536741539 8:2.0 12:32132.0 
0.7529874168558366 4:1.0 12:11359.0 
0.812886115258287 1:117.0 4:43.0 5:41.0 12:13689.0 13:3256.0 14:11.0 
0.8128791280822865 4:18.0 12:20820.0 14:11.0 
0.8130326142484461 12:21056.0 14:37.0 
0.813115425538507 1:19079.0 4:3793.0 9:2.0 12:329.0 14:14.0 16:6.0 
0.8131242273164382 12:13664.0 14:189.0 
0.8130980419929019 5:15.0 9:25.0 12:13153.0 14:214.0 
0.8128247780367269 1:18.0 8:6.0 12:17941.0 14:27.0 
0.8130987181590126 4:71.0 7:8.0 12:7561.0 14:5844.0 20:29.0 
0.813105872266694 12:13111.0 14:75.0 
0.8131155765960486 4:71.0 5:15.0 8:8.0 12:10214.0 13:403.0 14:13.0 16:9.0 
0.813097115658376 1:167.0 3:1.0 4:48.0 5:439.0 9:91.0 12:10107.0 14:240.0 
0.8131092232231141 8:18037.0 12:281.0 
0.8130467553961299 8:57.0 12:37852.0 14:47.0 18:57.0 
0.8130457280912371 3:27.0 5:3.0 12:23575.0 
0.8132582431774856 2:3.0 4:2.0 5:339.0 8:2.0 12:10691.0 14:91.0 
0.812871661022584 3:47.0 5:173.0 12:12810.0 14:214.0 
0.7322398358999841 12:11366.0 
0.8130365482195792 12:14889.0 14:3017.0 
0.8132582431719317 8:3.0 12:11366.0 14:23.0 
0.8133755863247982 12:58808.0 
0.8131277542699504 12:28452.0 16:22.0 
0.8133140846331977 5:383.0 7:1063.0 12:9233.0 14:162.0 
0.8133632093311376 4:34.0 12:544.0 13:9832.0 14:66.0 18:4.0 20:23.0 
0.8128801486083795 1:212.0 4:27.0 7:3902.0 12:8068.0 14:209.0 
0.8130299277675601 3:18.0 4:22.0 12:105247.0 
0.8128972203342402 2:3.0 4:6.0 12:5940.0 13:4330.0 14:259.0 16:7.0 18:4.0 
0.8126990252318954 4:197.0 12:30795.0 14:3.0 
0.8130975487896828 12:11144.0 14:6.0 
0.8127997409642479 4:1.0 12:15799.0 14:3884.0 
0.8131130088343202 12:6803.0 14:8976.0 
0.8130316568284748 12:15390.0 14:56.0 
0.8128952094289165 1:4.0 6:35.0 12:56391.0 14:70.0 
0.812871661022584 3:127.0 5:29.0 12:31443.0 14:21.0 
0.8128560237778046 12:24101.0 18:1.0 
0.8130976375314032 5:195.0 12:16956.0 14:16.0 
0.8126452589020927 3:4.0 12:17151.0 14:39.0 
0.812871661022584 3:46.0 4:7.0 5:2952.0 12:19420.0 14:266.0 18:6.0 
0.8130975487897095 1:1.0 4:48.0 5:2366.0 12:9520.0 14:335.0 18:8.0 
0.8132481655815009 12:22118.0 
0.8131166771691685 12:18675.0 
0.813113270041298 3:14.0 5:63.0 7:1299.0 8:16.0 12:10476.0 13:190.0 14:26.0 
0.8129741022005471 12:10726.0 
0.8130365191526343 4:32.0 5:108.0 8:12.0 9:80.0 12:14140.0 14:226.0 
0.8130975968624747 12:29027.0 
0.8130721180325176 1:1.0 9:2.0 12:17674.0 
0.8132574498489 1:173.0 4:262.0 7:11848.0 11:1.0 12:3322.0 13:933.0 14:601.0 
0.8128141698634359 1:7.0 4:866.0 12:16223.0 14:10944.0 
0.8129917086310703 1:66.0 4:4.0 5:1325.0 9:5.0 12:9831.0 14:310.0 18:12.0 
0.813075807206536 7:6.0 12:17207.0 14:177.0 
0.8130419543728349 12:5701.0 14:7569.0 
0.8128498199002363 3:36.0 12:15441.0 
0.8127563351392643 4:325.0 8:24.0 12:61451.0 14:10.0 
0.8127631824979816 3:22.0 4:6.0 5:98.0 12:12658.0 14:78.0 
0.8128440417506195 4:8.0 5:89.0 12:11066.0 13:2613.0 14:525.0 16:6.0 18:144.0 
0.8128528985530173 12:16056.0 14:245.0 
0.8129917099522777 12:26737.0 14:1.0 
0.8130457280912371 3:40.0 4:1.0 8:5.0 12:15364.0 14:68.0 
0.8130419543728349 1:4.0 4:3.0 7:5196.0 9:23.0 12:12758.0 14:1931.0 
0.8130967986066999 5:9236.0 12:7361.0 14:65.0 
0.8130976375314032 8:12.0 12:26148.0 
0.8129974101325884 5:1.0 12:10748.0 14:11.0 
0.8130997630095627 4:2.0 12:21386.0 13:1931.0 14:54.0 
0.8130967986066999 3:14.0 4:6.0 5:1553.0 12:10783.0 14:79.0 
0.8131223983448698 8:17864.0 12:1197.0 
0.8131223983448697 4:47.0 5:623.0 8:7.0 12:11450.0 14:413.0 
0.8131242273164382 5:49.0 7:7952.0 8:3.0 9:2.0 12:2462.0 13:6.0 14:127.0 
0.8124999190505946 12:11091.0 14:510.0 
0.8124999363845031 12:10792.0 14:257.0 
0.8124999363845031 1:121.0 3:463.0 4:270.0 7:3540.0 9:182.0 12:6593.0 14:217.0 18:50.0 
0.812499942945272 3:12147.0 5:119.0 12:493.0 14:46.0 
0.8130463068028894 8:11592.0 14:5.0 
0.8129317591271012 12:13878.0 
0.8129349018530063 3:52.0 4:4.0 5:562.0 6:2.0 12:10041.0 14:214.0 
0.8130419543728349 12:80796.0 14:65.0 
0.813075807206536 5:469.0 8:2.0 12:19129.0 14:113.0 
0.8129711845096939 3:147.0 4:3.0 5:19.0 12:20060.0 14:431.0 
0.8129974101542496 12:10522.0 14:241.0 
0.8126452589020927 1:3.0 4:2.0 5:56.0 12:13630.0 13:424.0 14:261.0 16:12.0 
0.813362095869919 8:13394.0 12:5.0 14:1.0 
0.8131032339360366 4:241.0 5:154.0 12:21557.0 14:209.0 
0.8128880124421436 1:2.0 4:10.0 9:3.0 12:13732.0 14:16.0 
0.8133075710756765 12:71399.0 
0.8126728619307726 12:139687.0 14:236.0 
0.813060631148752 4:6.0 12:36081.0 14:5.0 
0.8128432488214774 3:4.0 12:15432.0 
0.8131146382622298 4:41.0 5:307.0 7:4621.0 8:36.0 12:4414.0 13:1257.0 14:2210.0 
0.8128852385162303 3:1.0 4:158.0 8:19.0 12:11221.0 14:315.0 
0.8131275914395061 4:2.0 9:2.0 12:28468.0 
0.812959486743285 3:178.0 5:85.0 7:4797.0 9:2.0 12:6574.0 14:96.0 20:4481.0 
0.8131160191441659 4:3.0 12:14300.0 14:120.0 
0.8126990252318954 3:1.0 12:36333.0 14:189.0 
0.8128816919721051 12:32401.0 14:175.0 
0.8131336388229041 1:119.0 3:358.0 4:3.0 9:7.0 12:8935.0 14:2815.0 18:50.0 
0.8128955624298475 1:496.0 4:11.0 7:10517.0 12:1667.0 
0.8134445379330553 1:47.0 4:4.0 8:92.0 12:4357.0 14:7628.0 
0.8130249924827123 3:19.0 12:17939.0 
0.8128825393761028 4:2.0 5:25.0 9:15.0 12:29595.0 14:13.0 
0.8127548129342611 8:2.0 12:14934.0 14:425.0 18:41.0 
0.8129012415503385 12:33795.0 16:14.0 
0.8128498199002363 12:28542.0 
0.8131275914395061 4:18.0 5:692.0 9:5.0 12:13967.0 13:1172.0 14:172.0 
0.8128962257247699 8:1.0 9:8.0 12:12873.0 14:792.0 
0.8131223983448698 8:9.0 12:11415.0 14:1.0 
0.812871661022584 4:4.0 5:18.0 9:2.0 12:16699.0 14:1262.0 
0.8130442541019982 8:34.0 12:13732.0 14:337.0 
0.8131313973622358 5:881.0 12:10093.0 14:929.0 18:8.0 
0.8130781604851185 1:8.0 4:9.0 5:656.0 7:2433.0 8:197.0 9:12.0 12:8394.0 
0.8130419543528804 8:2.0 12:10767.0 
0.8131057804735355 5:166.0 12:15113.0 14:129.0 
0.8130365482195792 4:9.0 5:647.0 8:2.0 12:25299.0 13:5310.0 14:316.0 16:42.0 18:50.0 
0.8127703521285756 12:16656.0 14:135.0 
0.8128360517868451 5:1529.0 8:3.0 12:14080.0 14:2974.0 
0.8131111464771725 1:219.0 12:12433.0 14:50.0 
0.8130209552424454 4:451.0 12:92203.0 14:155.0 16:2.0 
0.8129146752682213 5:14861.0 12:854.0 14:75.0 
0.8130400645656288 12:34361.0 14:1.0 
0.8131233846323651 2:3.0 5:31.0 8:19.0 12:13667.0 14:668.0 
0.8125794653595998 3:3813.0 9:9.0 12:6697.0 14:32.0 16:1.0 20:2.0 
0.8134636143727375 3:2997.0 4:2.0 5:59.0 8:2.0 12:50796.0 14:132.0 
0.813113270041298 3:91.0 12:9862.0 14:652.0 18:6.0 
0.8131223983448698 8:56726.0 12:123.0 14:30.0 
0.8132952024729678 8:1064.0 12:10047.0 14:9.0 
0.8128801486083795 12:68876.0 
0.8128820917997208 12:26665.0 14:26.0 18:30.0 
0.8131146382622298 4:4.0 5:47.0 7:918.0 9:16.0 12:12396.0 14:528.0 18:44.0 
0.8130972928704931 5:45.0 12:18235.0 14:39.0 
0.8130248202645913 3:4.0 4:1.0 5:889.0 12:13741.0 14:121.0 
0.8131313973622358 12:2890.0 14:10359.0 
0.8129945089894138 4:649.0 5:18988.0 12:21587.0 14:44.0 
0.8130425473945038 12:13822.0 14:25.0 16:10.0 
0.8130744884908621 4:1893.0 5:56.0 12:15732.0 14:69.0 16:19.0 
0.813362095869919 5:259.0 7:7431.0 9:11.0 12:8188.0 14:4.0 18:47.0 
0.8130954873892215 12:10742.0 14:238.0 
0.8130990664616999 5:186.0 12:24611.0 14:103.0 
0.8131334183045044 3:27.0 4:54.0 5:528.0 8:2.0 12:17082.0 14:943.0 
0.8130861753746975 5:1089.0 9:24.0 12:19435.0 14:3580.0 
0.8128955624298475 1:5.0 3:40.0 4:49.0 5:565.0 12:14680.0 13:947.0 14:267.0 18:10.0 
0.8130400645656288 3:4.0 5:18.0 12:28518.0 
0.8129974101625366 8:81.0 12:28850.0 14:14.0 
0.8130972928704931 8:30.0 12:14514.0 
0.8131018043868387 12:45022.0 
0.8131223983448697 12:1068.0 14:10352.0 
0.8131091409526872 12:27882.0 
0.8131313973622339 12:12540.0 
0.8128852385162303 8:96.0 12:9668.0 14:718.0 
0.8128440417506195 12:42539.0 14:25.0 
0.813133638822904 5:503.0 9:18.0 12:18786.0 14:247.0 
0.8130627139485493 12:16430.0 
0.8128272858231318 5:5820.0 12:7886.0 14:9.0 18:3.0 
0.812959486743285 5:424.0 12:8992.0 13:3056.0 14:267.0 18:92.0 
0.8130758072065174 8:307.0 12:31360.0 14:6.0 
0.8129711845096939 4:17.0 5:525.0 12:25348.0 14:139.0 16:2.0 18:10.0 
0.8130971156583755 5:78.0 12:24751.0 14:9.0 
0.813105872266694 3:105.0 5:2247.0 12:21114.0 
0.8131140738057554 1:275.0 4:7.0 5:2070.0 8:2.0 12:16664.0 14:316.0 
0.8128435093904409 7:24447.0 12:29183.0 14:121.0 
0.8131053530296573 8:2.0 12:14256.0 14:306.0 18:94.0 
0.8130331927084897 12:35500.0 
0.8130357857117405 1:18.0 4:2.0 12:15594.0 13:537.0 14:113.0 
0.8131146382622298 5:3.0 12:21142.0 
0.8128765371755455 8:445.0 12:30276.0 14:4.0 
0.8129930909537361 12:47798.0 13:1.0 14:1876.0 
0.8133786019686504 5:756.0 7:865.0 9:5.0 12:25584.0 14:504.0 
0.8133799529765591 5:18431.0 12:5768.0 14:141.0 
0.8133736868576065 5:293.0 12:22470.0 14:251.0 16:18.0 18:13.0 
0.813138218032011 12:26613.0 14:8.0 
0.8132952024729678 3:669.0 4:42.0 5:1006.0 12:9816.0 14:86.0 
0.812900539192384 5:3343.0 12:7240.0 14:521.0 18:18.0 
0.8131155639942033 4:1.0 5:20780.0 9:21.0 12:22552.0 14:36.0 
0.8129012415503385 12:25733.0 14:441.0 
0.8130620868744339 12:22794.0 14:2.0 
0.812856002045222 5:3145.0 12:27269.0 14:41.0 
0.8128972203342402 12:24019.0 14:253.0 
0.8128783936818144 3:3.0 4:18.0 5:7199.0 12:10374.0 14:178.0 18:10.0 
0.8126588195248428 3:38.0 5:198.0 12:33248.0 14:78.0 
0.8133902803958931 3:129.0 12:12015.0 14:350.0 
0.813030549947689 8:136.0 12:15048.0 
0.8128872319394582 12:35187.0 
0.8127703521285756 8:4461.0 12:1937.0 14:10328.0 
0.8134041770239553 1:6.0 3:46.0 4:2.0 5:1074.0 12:37989.0 14:84.0 18:24.0 
0.8127662949031694 5:46.0 7:270.0 12:2413.0 14:10957.0 
0.8128733316755901 3:2.0 4:3.0 5:508.0 8:2.0 12:8996.0 13:1537.0 14:130.0 
0.8129166687381142 4:3.0 12:11469.0 
0.8110024380811851 12:13119.0 
0.8128528985530173 4:132.0 8:25.0 12:10413.0 14:48.0 
0.8129711845096939 5:31.0 12:60983.0 14:68.0 16:4.0 
0.8130442541029413 5:78.0 12:15422.0 14:20.0 
0.8129893505669881 12:45707.0 
0.8128801486083795 1:17.0 4:19.0 5:291.0 8:36.0 12:4267.0 13:11075.0 14:192.0 
0.8131336388229022 12:12563.0 14:12.0 
0.8130316513233848 4:1.0 5:590.0 8:2.0 12:10798.0 14:113.0 18:1481.0 
0.8128972203342402 3:1.0 4:4.0 5:166.0 9:87.0 12:14356.0 14:579.0 
0.812919321093412 1:9.0 3:3267.0 4:7.0 12:8450.0 
0.8129741022006034 3:2.0 5:721.0 8:8.0 12:13584.0 14:206.0 
0.813094580825973 1:17.0 5:21.0 8:4.0 12:147645.0 13:203.0 18:7.0 
0.8129917086310703 12:15304.0 
0.813078178188577 4:3.0 12:11168.0 
0.8129974101542496 8:12.0 12:19843.0 14:1.0 
0.8130457280912371 1:14.0 3:11.0 4:4.0 9:15.0 12:25194.0 14:1212.0 16:54.0 
0.8128272858231318 12:12806.0 14:2572.0 
0.8130419543728349 4:37.0 8:14.0 12:11412.0 14:178.0 
0.8130467553961299 3:2588.0 4:3.0 7:24.0 9:12.0 12:8842.0 14:331.0 20:1962.0 
0.8130758072065174 1:5.0 4:22.0 9:6.0 12:21504.0 14:36.0 
0.8130790022217488 3:2.0 12:16275.0 14:2157.0 
0.8130785700477123 1:28216.0 4:2265.0 12:2526.0 14:3404.0 
0.8131068509382422 3:142.0 4:51.0 12:18328.0 14:66.0 
0.8130980419929019 4:84.0 12:20354.0 14:151.0 
0.8133755863247982 1:6.0 7:4989.0 12:9019.0 14:79.0 
0.8128880124421436 5:3660.0 7:1374.0 12:4618.0 14:1250.0 20:10.0 
0.813138218032011 8:356.0 12:13283.0 14:6.0 
0.8130442541019982 4:65.0 12:29687.0 14:10.0 
0.8132481655815009 5:176.0 8:2.0 12:14988.0 14:103.0 
0.8128115621764669 12:44667.0 
0.8130331927084897 1:265.0 3:19.0 4:13.0 5:16869.0 9:5.0 12:3962.0 14:634.0 18:8.0 
0.8128247780367269 3:282.0 12:66887.0 14:2.0 
0.8128247780367269 1:1.0 3:136.0 4:3.0 5:28.0 12:19040.0 14:93.0 15:72.0 18:1.0 
0.8128560237778046 1:47.0 4:34.0 7:6413.0 9:14.0 12:7025.0 14:202.0 
0.8131032339360366 1:2.0 5:39851.0 12:13919.0 14:5890.0 
0.8131245789384947 8:10008.0 12:9.0 14:17448.0 
0.8130976375314032 3:9.0 4:203.0 8:9.0 12:10655.0 
0.8131032339360366 12:10868.0 
0.8130997630095627 5:86.0 12:11852.0 14:61.0 
0.8134636143727375 1:34.0 5:526.0 12:12387.0 14:158.0 
0.8134129863851622 8:901.0 12:23966.0 14:6.0 
0.813133638822904 12:28896.0 14:2562.0 
0.8130976375314032 3:8.0 5:37.0 12:10740.0 14:209.0 18:17.0 
0.8128068230955799 12:15417.0 
0.8131262989102519 5:83.0 12:11187.0 14:445.0 
0.8131247778324815 7:10636.0 8:3.0 12:3927.0 18:2418.0 
0.8131275914395062 5:74.0 12:10758.0 18:33.0 
0.8130293246887339 2:1.0 4:49.0 5:1121.0 7:6271.0 12:5714.0 13:2422.0 14:243.0 16:10.0 18:33.0 
0.8131194025241442 3:10.0 4:3.0 5:5403.0 12:5170.0 14:228.0 18:14.0 
0.8128801486083795 3:12.0 4:6.0 5:356.0 12:11655.0 14:45.0 
0.8128880124421436 1:22.0 12:92551.0 14:348.0 
0.813115425538507 12:104746.0 14:72.0 
0.8130968771400511 8:63.0 12:17140.0 
0.8131166771691685 5:972.0 12:12395.0 13:16719.0 14:603.0 16:19.0 
0.8131159536741539 4:8.0 5:346.0 12:10496.0 14:132.0 
0.8132153365782034 4:1.0 5:392.0 12:13282.0 14:152.0 
0.8129863528847882 3:10.0 12:10676.0 
0.813105872266694 12:19375.0 
0.8131057804735355 3:8.0 12:14850.0 
0.8130983820446289 1:8.0 12:12482.0 14:82.0 
0.8130987181590126 1:110.0 4:3.0 5:61.0 12:42740.0 14:256.0 20:102.0 
0.813075807206536 4:5.0 12:17280.0 
0.8130954873892215 1:162.0 4:12.0 8:2.0 12:11012.0 13:3023.0 14:335.0 
0.8130744884908621 5:296.0 12:26629.0 14:272.0 
0.8130781604851185 3:204.0 5:154.0 9:7.0 12:75589.0 14:54.0 18:1.0 
0.813362095869919 3:3.0 5:16.0 8:15.0 12:23005.0 14:97.0 
0.8130614524171781 3:6.0 4:12.0 5:10.0 12:13063.0 14:310.0 18:1.0 
0.8130425473945038 3:3.0 4:14.0 12:17259.0 14:167.0 
0.8130331927084897 12:17735.0 14:257.0 
0.8133648193933162 5:158.0 12:16521.0 14:86.0 
0.8130310605058162 3:1.0 4:4452.0 5:12.0 12:7758.0 14:157.0 
0.8129982066645768 8:93.0 12:21060.0 14:1.0 
0.8124963590438121 8:186.0 12:13844.0 14:1.0 
0.8124966543471522 3:885.0 12:16058.0 14:258.0 
0.8124967794399285 5:21.0 12:4855.0 14:2341.0 18:21.0 20:5258.0 
0.812497900173861 4:26.0 5:40.0 8:7.0 12:13338.0 14:146.0 
0.8124981621949203 4:112.0 8:7.0 9:101.0 12:11058.0 14:10.0 
0.8130400645656288 3:49.0 12:12382.0 14:172.0 18:3.0 
0.8124983740877951 1:3.0 7:17992.0 12:446.0 14:8226.0 
0.8128835969022024 4:47.0 5:22708.0 12:578.0 14:40.0 
0.8129043371600343 3:203.0 4:17.0 5:943.0 12:16598.0 14:675.0 
0.8124984533825595 12:13956.0 14:83.0 
0.8129012415503385 1:80.0 2:2.0 3:290.0 4:576.0 8:2.0 9:52.0 12:11022.0 14:296.0 
0.8129945089894138 4:1.0 5:387.0 12:23976.0 14:277.0 
0.8124989632725601 12:24787.0 
0.8131210724708613 4:233.0 5:666.0 9:1130.0 12:9289.0 14:494.0 18:9.0 
0.8124991508258811 1:22.0 4:567.0 12:6244.0 14:389.0 20:4505.0 
0.8124991864251713 1:26.0 4:124.0 5:6773.0 12:3895.0 14:271.0 18:133.0 
0.8124993389534069 1:260.0 4:41.0 5:234.0 9:10.0 12:6721.0 13:5173.0 14:94.0 
0.8124995341683526 3:603.0 4:13.0 5:1270.0 12:15828.0 14:122.0 18:39.0 
0.8124996875219263 4:22.0 12:8626.0 14:4007.0 
0.8128656407486039 3:217.0 12:33649.0 14:276.0 
0.8124997126978413 1:9.0 9:3.0 12:12495.0 14:30.0 
0.8126452589020927 4:4.0 9:1.0 12:16899.0 14:3853.0 
0.8124997906883481 8:2.0 12:10388.0 14:99.0 
0.8124998163651274 3:344.0 4:59.0 12:6020.0 14:8914.0 
0.812499866252255 4:3.0 9:28.0 12:34177.0 14:813.0 
0.8124998977699959 3:21136.0 5:23.0 12:2698.0 14:258.0 
0.8124999190505946 4:36.0 5:840.0 9:20.0 12:18717.0 14:217.0 
0.8128817533344855 4:2302.0 12:15378.0 
0.812959486743285 3:36.0 4:1.0 5:293.0 9:51.0 12:12489.0 14:204.0 18:6.0 
0.8124999363845031 1:181.0 3:76.0 4:10.0 7:31.0 9:31.0 12:10267.0 14:160.0 
0.8130299277675601 12:13449.0 14:321.0 
-0.5788546109907766 1:1.0 8:2.0 12:110.0 14:8.0 
-1.0 3:78.0 12:583.0 14:17.0 
-1.0 12:74.0 14:83.0 
-1.0 8:75.0 12:8.0 14:4.0 
-1.0 5:2.0 12:400.0 14:7.0 
-1.0 12:313.0 
-1.0 5:124.0 12:131.0 14:19.0 
-0.8989512772303055 12:63.0 14:15.0 
-1.0 3:41.0 12:226.0 14:106.0 16:16.0 
-1.0 12:446.0 
-1.0 9:1.0 12:17.0 14:55.0 
-0.013588446906847629 12:108.0 
-1.0 7:10.0 9:2.0 12:141.0 14:2.0 
-1.0 5:70.0 12:404.0 13:168.0 14:90.0 
-1.0 5:38.0 8:11.0 12:565.0 14:92.0 
-1.0 5:2.0 12:213.0 14:5.0 
-1.0 4:32.0 8:2.0 12:46.0 
-1.0 3:34.0 12:165.0 14:29.0 
-1.0 1:1.0 12:1068.0 14:121.0 16:4.0 
-1.0 3:4.0 4:210.0 12:361.0 14:19.0 
-1.0 3:52.0 8:395.0 12:1876.0 14:226.0 
-1.0 12:565.0 14:28.0 
-1.0 12:1494.0 
-0.5675039365966036 12:85.0 14:12.0 
-1.0 5:1.0 12:122.0 14:106.0 
-1.0 1:1.0 4:2.0 8:4.0 9:11.0 12:48.0 14:12.0 16:6.0 
-1.0 8:9.0 12:248.0 14:4.0 
-1.0 12:662.0 14:18.0 16:23.0 
-1.0 12:683.0 14:58.0 
-1.0 2:1.0 5:1.0 9:2.0 12:1985.0 14:86.0 
-1.0 8:22.0 12:214.0 14:23.0 
-1.0 1:10.0 12:162.0 
-1.0 8:746.0 12:104.0 14:1.0 
-1.0 12:257.0 14:24.0 
-1.0 8:16.0 14:93.0 
-0.27669459523487366 12:308.0 
-0.617844297863001 12:137.0 14:13.0 
-1.0 3:219.0 4:26.0 12:1252.0 14:72.0 
-1.0 4:1.0 8:4.0 12:215.0 14:219.0 
-1.0 1:30.0 4:3.0 7:13.0 12:1149.0 14:5.0 18:2.0 
-0.8385707383465997 12:137.0 14:9.0 
-1.0 7:24.0 12:256.0 14:70.0 
-1.0 7:100.0 8:7.0 12:119.0 14:14.0 
-1.0 8:13.0 12:1927.0 14:47.0 
-1.0 4:2.0 12:230.0 14:33.0 
-1.0 4:3.0 7:441.0 12:579.0 14:27.0 
-1.0 4:35.0 12:97.0 14:22.0 
-1.0 12:109.0 
-1.0 3:22.0 12:104.0 
-1.0 8:2.0 12:509.0 13:2.0 14:91.0 
-1.0 5:2.0 12:920.0 13:74.0 14:74.0 
-1.0 4:33.0 8:21.0 12:109.0 14:52.0 
-1.0 1:3.0 5:9.0 12:85.0 14:14.0 
-1.0 4:1.0 5:35.0 8:45.0 12:1647.0 14:152.0 
-1.0 4:13.0 5:21.0 9:1.0 12:309.0 14:12.0 16:15.0 
-1.0 1:8.0 12:83.0 14:13.0 20:1.0 
-1.0 4:21.0 12:2878.0 14:171.0 
-1.0 3:327.0 5:4.0 8:6.0 12:904.0 14:1.0 
-1.0 12:471.0 13:3.0 14:130.0 
-0.8035697407965889 8:2.0 12:68.0 14:10.0 
-0.9726904945259196 12:180.0 
-1.0 12:367.0 14:44.0 
-1.0 5:66.0 8:7.0 12:56.0 14:26.0 
-1.0 1:31.0 9:10.0 12:2078.0 14:41.0 
-1.0 4:1.0 12:100.0 14:33.0 
-0.7676877715013238 4:3.0 12:103.0 
-1.0 12:325.0 14:81.0 
-0.8566118784321605 12:88.0 14:14.0 
-1.0 8:248.0 12:53.0 14:1.0 
-0.20966170258379882 12:49.0 14:8.0 
-1.0 5:11.0 7:1.0 8:6.0 12:169.0 14:47.0 18:18.0 
-1.0 3:1.0 8:2.0 12:276.0 13:1.0 14:31.0 18:3.0 
-1.0 4:6.0 12:150.0 14:11.0 
-1.0 8:32.0 12:837.0 14:19.0 
-1.0 12:40.0 13:1.0 14:13.0 
-0.968063839842647 8:22.0 12:32.0 
-1.0 1:12.0 8:3.0 12:218.0 14:25.0 
-1.0 8:6.0 12:44.0 14:14.0 
-1.0 12:269.0 
-1.0 12:196.0 14:6.0 16:2.0 
-1.0 12:539.0 14:132.0 
-1.0 5:61.0 8:27.0 12:49.0 14:2.0 
-0.44542807198204587 12:70.0 
-1.0 1:272.0 12:1346.0 14:581.0 
-1.0 12:296.0 14:12.0 
-1.0 1:10.0 5:35.0 8:6.0 9:5.0 12:660.0 14:54.0 
-1.0 8:46.0 12:3.0 14:3.0 
-1.0 2:10.0 3:5.0 12:1270.0 
-1.0 5:97.0 8:37.0 12:741.0 14:32.0 
-0.8454827695683551 12:159.0 
-1.0 7:30.0 12:18.0 14:9.0 
-0.9809226805615935 12:167.0 14:4.0 
-0.8531962775454471 12:133.0 
-1.0 1:31.0 3:6.0 4:168.0 8:45.0 9:11.0 12:299.0 13:12.0 14:46.0 
-1.0 4:4.0 12:141.0 14:53.0 
-0.23133591545395152 12:46.0 14:5.0 
-1.0 4:8.0 5:10.0 9:3.0 12:148.0 14:27.0 
-1.0 8:2.0 12:23.0 14:79.0 
-1.0 3:58.0 12:358.0 14:32.0 
-1.0 3:2.0 8:25.0 12:116.0 14:16.0 16:2.0 
-1.0 12:184.0 14:22.0 
-1.0 12:223.0 14:39.0 
-1.0 12:23.0 14:67.0 
-1.0 3:8.0 12:5728.0 13:8.0 14:446.0 16:6.0 
-1.0 5:531.0 9:4.0 12:799.0 
-1.0 5:1.0 12:91.0 14:31.0 
-1.0 3:2.0 7:3.0 12:152.0 14:28.0 
-1.0 1:2.0 7:6.0 8:44.0 12:329.0 14:19.0 16:6.0 
-1.0 8:36.0 12:226.0 14:39.0 20:1.0 
-1.0 3:835.0 8:4.0 12:275.0 
-1.0 1:37.0 5:25.0 9:2.0 12:222.0 14:87.0 
-1.0 1:2.0 5:3.0 8:3.0 12:80.0 14:12.0 
-1.0 5:9.0 12:62.0 14:5.0 
-1.0 8:111.0 12:91.0 14:4.0 
-0.7912579468381635 7:1.0 8:4.0 12:51.0 
-1.0 8:22.0 12:77.0 14:5.0 
-1.0 12:397.0 14:91.0 
-1.0 12:990.0 
-1.0 9:16.0 12:189.0 14:89.0 16:2.0 
-1.0 12:1031.0 14:83.0 
-1.0 1:9.0 4:5.0 8:8.0 12:128.0 14:13.0 
-1.0 8:36.0 12:2197.0 14:444.0 
-0.5612392474174164 8:3.0 12:106.0 14:9.0 
-0.5714111793034283 12:140.0 14:45.0 
-0.6873370397801318 12:148.0 
-1.0 5:44.0 8:309.0 12:204.0 14:30.0 
-1.0 5:265.0 12:395.0 
-1.0 8:21.0 12:44.0 14:2.0 
-1.0 12:278.0 14:7.0 
-0.47407353226549875 12:162.0 14:1.0 
-0.6711894013281203 12:112.0 14:22.0 
-1.0 12:243.0 
-1.0 3:354.0 12:509.0 14:1018.0 
-1.0 4:29.0 12:851.0 14:146.0 
-0.9672200750637319 12:118.0 14:8.0 
-1.0 5:20.0 12:105.0 14:8.0 
-1.0 8:131.0 12:137.0 14:79.0 
-0.6273882583886508 12:55.0 
-1.0 8:4.0 9:5.0 12:3075.0 14:82.0 
-1.0 8:10.0 12:24.0 14:186.0 
-1.0 1:75.0 9:5.0 12:412.0 14:100.0 
-1.0 12:2356.0 14:33.0 
-1.0 8:93.0 12:409.0 14:19.0 
-1.0 12:126.0 
-1.0 12:24.0 14:45.0 
-1.0 4:4.0 5:8.0 9:1.0 12:354.0 18:32.0 
-1.0 12:140.0 
-1.0 5:46.0 8:2.0 12:428.0 
-1.0 12:69.0 14:56.0 
-1.0 12:348.0 
-1.0 9:13.0 12:174.0 14:23.0 
-1.0 5:81.0 9:4.0 12:485.0 14:40.0 
-1.0 9:1.0 12:43.0 14:22.0 
-1.0 8:2.0 12:550.0 14:9.0 18:7.0 
-1.0 1:6.0 12:650.0 14:7.0 
-1.0 12:88.0 14:1.0 
-1.0 12:1075.0 14:139.0 
-0.6864004891413853 12:114.0 14:5.0 
-1.0 12:656.0 
-1.0 9:14.0 12:3330.0 14:144.0 
-1.0 4:37.0 12:42.0 
-1.0 12:514.0 14:11.0 16:19.0 
-1.0 1:1.0 3:523.0 9:2.0 12:427.0 14:69.0 
-1.0 5:96.0 12:2106.0 14:13.0 
-1.0 5:6.0 12:169.0 18:1.0 
-1.0 3:24.0 12:688.0 16:2.0 
-1.0 9:1.0 12:145.0 14:10.0 
-0.9054914730526437 12:55.0 14:14.0 
-0.4883496789993844 12:57.0 14:6.0 
-1.0 12:252.0 14:10.0 16:6.0 18:9.0 
-1.0 5:4.0 12:607.0 13:50.0 14:22.0 
-1.0 3:70.0 5:9.0 7:51.0 12:253.0 14:18.0 
-1.0 12:20.0 14:34.0 
-1.0 5:27.0 12:346.0 14:40.0 
-1.0 8:108.0 12:24.0 14:8.0 
-1.0 5:67.0 12:91.0 14:10.0 
-1.0 3:56.0 4:1.0 7:138.0 12:482.0 14:54.0 
-1.0 1:2.0 12:124.0 13:2.0 14:17.0 
-1.0 7:59.0 12:39.0 14:24.0 
-1.0 7:23.0 12:337.0 14:51.0 
-1.0 3:27.0 4:3.0 12:270.0 14:11.0 
-1.0 8:8.0 12:73.0 
-1.0 3:2.0 8:2.0 12:239.0 14:77.0 
-1.0 8:253.0 12:1162.0 14:35.0 
-1.0 1:13.0 3:4.0 4:1.0 12:71.0 
-1.0 8:1.0 12:30.0 14:43.0 
-1.0 4:3.0 12:1372.0 
-1.0 1:97.0 5:10.0 7:37.0 12:801.0 14:237.0 18:8.0 20:265.0 
-1.0 8:4.0 12:146.0 14:18.0 
-1.0 8:63.0 12:1535.0 14:3.0 
-1.0 12:232.0 14:65.0 
-1.0 8:39.0 9:4.0 12:200.0 14:6.0 
-1.0 12:51.0 14:11.0 18:8.0 
-1.0 3:2.0 5:35.0 12:2121.0 14:253.0 
-1.0 12:134.0 14:33.0 
-1.0 5:6.0 8:2.0 12:634.0 14:57.0 
-0.9302441967234808 8:2.0 12:306.0 
-1.0 5:29.0 12:12287.0 18:9.0 
-1.0 3:21.0 4:47.0 5:51.0 9:4.0 12:5407.0 14:16.0 18:17.0 
-1.0 12:14.0 14:152.0 
-1.0 4:21.0 8:57.0 12:660.0 14:28.0 18:14.0 
-1.0 1:6.0 3:130.0 5:19.0 8:5.0 12:1126.0 13:30.0 14:59.0 
-1.0 5:23.0 9:3.0 12:125.0 14:20.0 
-0.9590696626540426 12:350.0 14:7.0 
-1.0 1:9.0 5:44.0 8:2.0 12:493.0 14:5.0 
-0.43936685776989437 4:2.0 12:69.0 14:3.0 
-1.0 3:54.0 5:28.0 8:26.0 9:2.0 12:1292.0 14:156.0 
-1.0 5:3.0 8:19.0 12:86.0 14:33.0 
-1.0 1:6.0 9:3.0 12:454.0 14:328.0 
-1.0 8:59.0 12:267.0 14:69.0 
-1.0 3:99.0 12:695.0 14:218.0 18:7.0 
-1.0 3:3.0 8:58.0 12:19.0 
-1.0 3:62.0 4:2.0 9:62.0 12:1263.0 14:87.0 18:15.0 
-0.07595929646700904 8:1.0 12:56.0 14:1.0 
-1.0 5:96.0 12:366.0 14:11.0 16:4.0 
-1.0 8:6.0 12:32.0 14:17.0 
-1.0 4:8.0 12:43.0 14:7.0 
-1.0 3:1.0 4:1.0 8:18.0 12:158.0 14:6.0 
-1.0 3:55.0 12:1636.0 14:25.0 
-0.7800543871048575 1:1.0 9:1.0 12:106.0 14:11.0 
-1.0 1:10.0 3:2.0 4:2.0 7:115.0 12:623.0 
-1.0 3:2.0 5:6.0 12:175.0 14:14.0 
-1.0 4:14.0 5:29.0 12:267.0 14:97.0 16:10.0 
-1.0 1:3.0 12:388.0 14:26.0 
-1.0 1:20.0 3:162.0 12:1950.0 14:79.0 
-1.0 12:149.0 14:37.0 
-1.0 8:199.0 12:143.0 14:23.0 
-1.0 12:123.0 14:29.0 
-1.0 1:6.0 12:700.0 14:14.0 
-1.0 12:271.0 14:493.0 
-1.0 4:1.0 5:30272.0 9:5.0 12:1193.0 14:73.0 
-0.6089914972782697 12:50.0 14:1.0 16:2.0 
-1.0 5:3.0 12:734.0 14:34.0 
-1.0 3:97.0 12:292.0 
-1.0 3:436.0 5:36.0 12:2067.0 14:122.0 
-1.0 4:66.0 5:27.0 8:4.0 12:1818.0 14:192.0 
-1.0 12:108.0 14:130.0 
-0.1319684044462017 12:244.0 
-1.0 12:486.0 
-1.0 8:357.0 12:102.0 14:7.0 
-1.0 4:1.0 5:477.0 9:7.0 12:1664.0 14:97.0 
-0.6085805751912079 12:869.0 
-1.0 4:5.0 5:12.0 12:308.0 
-1.0 3:22.0 12:748.0 14:47.0 
-1.0 7:305.0 12:147.0 14:30.0 
-0.09635164378821147 12:101.0 
-1.0 5:40.0 8:117.0 12:819.0 14:16.0 
-0.01894333633102037 12:62.0 14:2.0 
-1.0 3:6842.0 4:9.0 5:14.0 8:22.0 12:432.0 14:28.0 17:4.0 
-1.0 12:1173.0 14:139.0 18:1.0 
-1.0 3:15.0 12:210.0 
-1.0 4:4.0 5:234.0 12:68.0 
-1.0 1:17.0 12:138.0 14:94.0 
-0.6196906630085548 12:81.0 
-0.1797734054721596 12:131.0 
-1.0 5:14.0 12:394.0 14:2.0 
-1.0 3:8.0 4:34.0 12:734.0 14:36.0 20:15.0 
-1.0 1:19.0 4:3.0 5:37.0 8:1.0 9:1.0 12:709.0 14:53.0 18:2.0 20:102.0 
-1.0 5:67.0 12:848.0 14:27.0 
-1.0 1:1.0 5:3.0 8:16.0 12:94.0 13:1.0 14:8.0 
-1.0 8:2.0 12:305.0 14:36.0 
-1.0 12:63.0 14:12.0 18:6.0 
-1.0 3:38.0 12:299.0 14:128.0 
-1.0 1:22.0 4:1.0 5:6.0 8:34.0 9:5.0 12:418.0 14:99.0 
-1.0 5:3.0 8:47.0 12:17799.0 
-1.0 5:25.0 12:32.0 
-1.0 5:12.0 12:183.0 14:2.0 
-1.0 8:4.0 12:40.0 14:28.0 
-1.0 8:33.0 12:225.0 14:9.0 
-1.0 1:4.0 3:15.0 8:258.0 9:3.0 12:907.0 
-1.0 8:39.0 12:20.0 13:3.0 14:4.0 
-1.0 1:19.0 12:203.0 14:12.0 
-1.0 1:6.0 12:181.0 14:5.0 
-0.5771450489860518 3:2.0 12:74.0 
-1.0 4:2.0 8:2.0 9:1.0 12:291.0 14:78.0 
-1.0 3:86.0 4:2.0 5:106.0 8:15.0 12:714.0 14:84.0 
-1.0 4:7.0 12:702.0 
-1.0 1:1.0 4:39.0 5:251.0 12:4792.0 14:82.0 18:2.0 
-1.0 1:3.0 8:4.0 12:174.0 14:30.0 
-1.0 1:31.0 3:2.0 4:10.0 8:4.0 12:100.0 14:6.0 
-1.0 3:40.0 5:18.0 8:6.0 12:619.0 14:112.0 
-1.0 8:95.0 12:849.0 14:6.0 18:2.0 
-1.0 12:631.0 14:17.0 
-1.0 7:12.0 12:69.0 14:8.0 
-1.0 3:8.0 8:127.0 12:24.0 14:18.0 
-1.0 3:38.0 4:1.0 5:1.0 8:44.0 12:390.0 
-1.0 1:198.0 3:1.0 4:26.0 5:91.0 8:14.0 12:1855.0 14:29.0 
-1.0 5:40.0 8:31.0 12:867.0 14:7.0 
-1.0 8:21.0 12:428.0 14:58.0 
-0.6282452266350483 12:139.0 14:45.0 
-0.9663445099163717 12:275.0 
-1.0 5:71.0 12:186.0 14:36.0 
-1.0 3:566.0 12:167.0 14:14.0 
-1.0 12:1192.0 14:65.0 
-1.0 4:22.0 5:142.0 8:17.0 12:595.0 14:30.0 16:3.0 18:8.0 
-0.6080204441902031 12:868.0 
-1.0 8:306.0 12:861.0 14:8.0 
-1.0 5:123.0 9:1.0 12:456.0 14:15.0 
-1.0 8:14.0 12:45.0 14:6.0 
-1.0 5:107.0 12:1167.0 14:29.0 
-1.0 8:19.0 12:3137.0 
-1.0 5:104.0 12:32.0 
-1.0 3:10.0 8:11.0 12:564.0 
-1.0 8:24.0 9:11.0 12:6704.0 14:120.0 16:2.0 
-1.0 4:14.0 5:49.0 8:13.0 12:1361.0 14:8.0 
-1.0 5:18.0 12:2478.0 14:12.0 
-0.2361823744253731 12:101.0 14:3.0 
-0.2528540032644472 12:58.0 14:10.0 
-1.0 12:9855.0 14:11.0 18:6.0 
-1.0 1:8.0 7:290.0 8:140.0 12:2653.0 14:1037.0 
-1.0 12:471.0 14:69.0 
-1.0 4:19.0 5:32.0 12:155.0 
-0.9591508454658888 8:1.0 12:174.0 14:8.0 
-1.0 8:41.0 12:292.0 14:31.0 
-1.0 12:980.0 
-1.0 1:42.0 4:83.0 8:9.0 9:14.0 12:113.0 14:23.0 
-1.0 12:217.0 14:18.0 
-0.8914236324317008 12:219.0 
-1.0 12:3484.0 14:513.0 
-1.0 3:6.0 5:60.0 12:92.0 14:3.0 
-1.0 3:18.0 12:1004.0 14:62.0 
-0.7083979480762694 8:3.0 12:98.0 
-1.0 1:2.0 3:2.0 4:85.0 5:553.0 8:26.0 12:7489.0 14:128.0 
-1.0 5:3.0 7:329.0 8:102.0 12:531.0 14:19.0 
-1.0 8:24.0 12:74.0 14:29.0 
-1.0 1:72.0 4:10.0 12:164.0 14:76.0 
-0.8353039811614691 8:21.0 12:31.0 14:5.0 
-1.0 5:10.0 8:3.0 12:256.0 14:26.0 
-1.0 9:1.0 12:250.0 14:3.0 
-0.9699602409479066 1:1.0 3:4.0 12:81.0 14:6.0 
-1.0 12:479.0 
-1.0 8:22.0 12:34.0 14:11.0 
-1.0 4:73.0 5:10.0 8:46.0 12:165.0 14:14.0 
-1.0 1:8.0 12:127.0 14:30.0 
-1.0 7:198.0 12:408.0 14:98.0 
-1.0 1:7.0 12:191.0 14:6.0 
-0.7092608697764001 12:151.0 
-1.0 3:13.0 8:5.0 12:1079.0 
-0.504236273475519 12:52.0 14:9.0 
-0.2512750294118783 12:67.0 14:11.0 
-1.0 1:2.0 3:8.0 12:214.0 14:18.0 
-0.4315751209840327 4:2.0 12:82.0 14:2.0 
-1.0 12:98.0 14:22.0 
-1.0 12:1070.0 14:75.0 
-0.7962831512879679 8:2.0 12:45.0 14:4.0 
-1.0 5:80.0 8:46.0 9:2.0 12:136.0 14:11.0 
-1.0 4:4.0 5:11.0 8:40.0 12:1019.0 14:41.0 
-1.0 12:1421.0 
-1.0 5:47.0 12:167.0 14:17.0 
-1.0 4:1.0 8:8.0 9:1.0 12:103.0 14:23.0 
-1.0 4:10.0 5:188.0 12:5787.0 14:100.0 
-0.7055852502240152 4:3.0 12:46.0 14:12.0 
-1.0 5:15.0 12:229.0 14:46.0 
-1.0 5:104.0 12:952.0 14:40.0 
-1.0 8:223.0 12:10.0 14:4.0 
-0.6061071734827281 12:61.0 14:7.0 
-1.0 12:674.0 14:46.0 
-1.0 5:17.0 12:122.0 
-1.0 8:8.0 12:90.0 14:7.0 
-1.0 4:448.0 12:42.0 
-1.0 8:3.0 12:411.0 
-0.6932757268551866 12:215.0 16:2.0 
-1.0 8:4.0 12:264.0 14:61.0 
-1.0 4:1.0 5:73.0 8:83.0 12:345.0 14:156.0 
-1.0 3:7.0 4:116.0 5:559.0 7:1.0 12:3844.0 14:275.0 
-1.0 8:11.0 12:601.0 14:9.0 
-1.0 4:1.0 5:37.0 12:856.0 14:204.0 
-1.0 12:52.0 14:23.0 
-1.0 3:23.0 4:3.0 12:88.0 
-1.0 8:5.0 12:270.0 14:136.0 
-0.6408423277314569 5:3.0 12:70.0 14:4.0 
-1.0 1:76.0 4:6.0 5:59.0 8:4.0 9:2.0 12:633.0 14:18.0 
-1.0 3:20.0 5:55.0 12:37.0 14:41.0 
-1.0 4:1.0 8:8.0 12:84.0 13:34.0 
-1.0 12:532.0 14:79.0 
-0.6609751455553722 12:113.0 14:20.0 
-1.0 1:2.0 4:1.0 12:189.0 14:11.0 
-1.0 9:1.0 12:265.0 14:8.0 
-1.0 1:6.0 12:291.0 13:38.0 14:9.0 
-1.0 5:17.0 8:4.0 12:459.0 14:576.0 
-1.0 12:1756.0 14:176.0 
-1.0 4:5.0 5:23.0 8:176.0 12:2226.0 14:131.0 16:2.0 18:64.0 
-1.0 12:133.0 14:17.0 16:2.0 
-1.0 5:14.0 8:213.0 9:5.0 12:453.0 14:55.0 
-1.0 4:1.0 12:1248.0 
-1.0 1:26.0 5:22.0 12:108.0 13:8.0 14:12.0 
-0.2880362249578641 12:48.0 14:11.0 
-1.0 5:25.0 8:2.0 12:39.0 14:5.0 
-0.6920727413923103 8:2.0 12:176.0 14:3.0 
-1.0 8:68.0 12:25.0 14:59.0 18:4.0 
-0.7126135057049942 12:95.0 14:3.0 
-1.0 5:174.0 12:1416.0 14:125.0 18:1.0 
-1.0 7:51.0 8:1.0 12:55.0 14:12.0 
-1.0 12:77.0 14:98.0 
-1.0 5:7.0 12:281.0 14:68.0 
-1.0 3:3.0 4:39.0 5:15.0 12:184.0 14:4.0 
-1.0 5:33.0 8:82.0 12:34.0 14:10.0 
-1.0 12:1812.0 14:15.0 
-1.0 5:51.0 12:977.0 14:31.0 
-1.0 7:76.0 12:15.0 
-1.0 8:8.0 12:215.0 14:7.0 
-0.9241317420755136 12:62.0 
-1.0 1:2.0 9:4.0 12:410.0 14:14.0 
-1.0 12:205.0 
-1.0 8:157.0 12:630.0 14:132.0 
-1.0 1:22.0 3:2.0 8:4.0 12:344.0 
-1.0 5:103.0 8:2.0 12:280.0 14:7.0 
-1.0 3:7.0 12:59.0 
-1.0 1:60.0 12:272.0 14:103.0 16:2.0 
-1.0 1:20.0 3:4.0 9:11.0 12:119.0 14:18.0 
-1.0 8:149.0 12:225.0 14:479.0 
-1.0 5:784.0 12:266.0 14:11.0 
-1.0 9:19.0 12:2985.0 
-1.0 12:506.0 14:10.0 
-1.0 4:2.0 8:108.0 12:147.0 14:4.0 
-1.0 3:44.0 4:1.0 12:126.0 
-1.0 3:599.0 4:19.0 8:19.0 12:1177.0 14:161.0 
-1.0 1:2.0 12:298.0 14:52.0 
-1.0 3:41.0 8:25.0 12:438.0 14:69.0 
-1.0 4:11.0 8:126.0 12:1148.0 14:84.0 
-0.43615386498387904 4:2.0 12:99.0 14:4.0 
-1.0 3:7.0 4:5.0 12:138.0 
-1.0 12:1043.0 14:7.0 
-1.0 4:4.0 12:281.0 13:74.0 14:32.0 
-0.5313806952631954 12:76.0 14:3.0 
-1.0 8:129.0 12:76.0 13:147.0 14:7.0 
-1.0 12:344.0 14:8.0 
-1.0 4:16.0 8:171.0 12:255.0 14:79.0 18:42.0 
-1.0 5:87.0 12:686.0 14:8.0 
-1.0 12:43.0 14:42.0 
-1.0 1:2.0 3:140.0 12:3411.0 13:1.0 14:41.0 
-1.0 12:293.0 14:526.0 
