svm_type c_svc
kernel_type rbf
gamma 0.05
nr_class 2
total_sv 930
rho -0.19318567749782858
label 1 -1
nr_sv 500 430
SV
0.8072354567785147 12:120239.0 
0.8070996929144449 3:915.0 5:27.0 9:15.0 12:29177.0 14:251.0 
0.8067684239001303 3:48.0 12:19715.0 
0.8065674474014439 1:318.0 4:20.0 5:15.0 12:13212.0 14:46.0 18:2.0 
0.8065674474014439 4:17.0 8:10.0 12:10796.0 13:3646.0 14:509.0 18:24.0 
0.8066191795114852 3:317.0 5:5.0 12:39147.0 14:2816.0 
0.8066191795114852 5:10.0 12:15716.0 
0.8066445606437729 4:1.0 7:6262.0 12:6101.0 14:2170.0 20:32.0 
0.8066445606437729 8:8.0 12:44781.0 14:271.0 18:48.0 
0.8067820230668117 12:3825.0 14:7578.0 
0.8068811135377383 5:314.0 12:11316.0 14:70.0 18:47.0 
0.8071036954272832 3:5.0 4:4.0 5:409.0 12:17973.0 14:259.0 
0.8071036954272832 3:10.0 5:1.0 7:1547.0 8:41.0 9:11.0 12:14522.0 14:12.0 
0.8071567587971096 4:465.0 12:6116.0 13:91208.0 14:83.0 20:1.0 
0.8071566448172041 3:2.0 5:48.0 12:16051.0 14:317.0 16:8.0 18:1.0 
0.807239912536232 5:23.0 8:13.0 12:11849.0 14:92.0 
0.8072354567785147 8:432.0 12:13418.0 
0.8067866655986075 12:26734.0 14:69.0 
0.8067845272856145 4:6.0 12:29323.0 18:6.0 
0.8067919563316198 5:140.0 12:10586.0 14:138.0 16:4.0 
0.806785998965275 12:13240.0 14:134.0 
0.8067866875585668 8:2.0 12:13637.0 14:90.0 16:39.0 
0.8067893886752111 4:451.0 8:42.0 9:19.0 12:18922.0 14:14.0 
0.8067702909341066 4:8.0 12:31065.0 14:54.0 
0.8067869608274876 5:1.0 12:11947.0 14:1041.0 
0.806768605124602 4:91.0 12:108716.0 14:339.0 
0.8067874377062165 8:18.0 12:16458.0 14:54.0 
0.8067605353267366 12:12031.0 14:68.0 16:34.0 
0.8067192480360068 12:8578.0 14:2085.0 
0.8067222874393615 12:11932.0 14:44.0 
0.8067216890832987 3:138.0 12:11841.0 14:13.0 16:10.0 
0.8067244128967466 5:215.0 12:36795.0 14:84.0 
0.8067138259699207 8:66.0 12:17399.0 14:4.0 
0.8066903818240057 8:3130.0 12:1465.0 14:7962.0 
0.8066134138248311 3:644.0 12:18438.0 14:3.0 
0.806621646974897 5:115.0 8:59.0 12:15592.0 14:306.0 
0.8065678485653197 12:11913.0 
0.8065674527560894 12:15824.0 
0.8065984876217097 4:3.0 5:750.0 12:14560.0 14:192.0 
0.8065984876217097 12:31145.0 
0.8067490093361126 1:169.0 2:6.0 3:1.0 4:28.0 7:9.0 8:62.0 12:10132.0 13:614.0 14:270.0 
0.8067490093361126 1:1.0 3:39828.0 12:1995.0 14:1918.0 
0.8067517864699664 3:1.0 4:865.0 5:452.0 12:21002.0 13:250.0 14:94.0 16:8.0 18:9.0 
0.8067467523985996 5:5.0 12:6645.0 14:17907.0 
0.8067899008369117 1:1.0 7:1360.0 12:13414.0 14:166.0 
0.8067878494868668 3:238.0 4:27.0 5:1964.0 8:100.0 12:15140.0 14:512.0 18:32.0 
0.8067602345047787 12:36176.0 14:31.0 
0.8067602345047787 3:3.0 5:95.0 12:17258.0 13:628.0 14:91.0 
0.8067684239001303 12:6107.0 14:8972.0 16:2.0 18:22.0 
0.8067657586776659 3:197.0 5:903.0 7:72.0 8:4.0 9:13.0 12:12916.0 14:139.0 
0.8067495903361617 3:5.0 4:5.0 12:12436.0 14:138.0 18:25.0 
0.8067354029992838 12:22508.0 14:169.0 16:35.0 
0.8067555864750986 9:16.0 12:15152.0 14:333.0 
0.8067833913529623 1:136.0 8:7.0 12:13390.0 14:2109.0 
0.8067833913529623 8:280.0 12:22348.0 14:2.0 
0.8067920933602577 8:48.0 12:13271.0 14:53.0 
0.8068195535232943 12:13081.0 14:8.0 
0.8067920933602577 1:7.0 3:339.0 5:232.0 12:2461.0 13:76080.0 14:1185.0 16:22.0 18:6.0 
0.8073524949239148 1:1.0 3:198.0 5:6.0 8:12.0 12:18105.0 14:141.0 
0.8073524949239148 12:42040.0 
0.8068209023428736 12:11783.0 18:11.0 
0.8068232709309515 1:97.0 4:138.0 8:4.0 9:21.0 12:6183.0 13:20989.0 14:2256.0 16:46.0 
0.8068222459367 5:213.0 12:16854.0 14:186.0 
0.8073589018004954 12:17726.0 14:14.0 
0.8073589018004954 12:11591.0 14:22.0 
0.8072439977670693 8:10.0 12:13756.0 14:156.0 
0.8071842931738981 3:13459.0 
0.8071842931738981 12:15662.0 
0.8071717355446151 3:5.0 12:11344.0 
0.8071656146033966 8:1686.0 12:8072.0 14:1279.0 
0.8071547142187088 7:182.0 12:22729.0 14:245.0 
0.8071545198891148 4:16.0 5:168.0 12:12321.0 14:282.0 
0.8071544743992948 1:125.0 5:55.0 8:2.0 12:21878.0 14:189.0 18:795.0 
0.8070996929144449 5:56.0 12:103364.0 13:1.0 14:212.0 
0.8070996929144449 1:144.0 12:24805.0 
0.8067803799628391 3:1.0 4:25.0 5:76.0 12:15161.0 13:1.0 14:269.0 16:18.0 
0.8070898413866185 3:98.0 5:21.0 8:42.0 12:31243.0 14:519.0 18:36.0 
0.8069037828115191 4:79.0 5:57.0 9:7.0 12:22251.0 14:375.0 
0.8071510208607366 12:11211.0 
0.8067544373637207 4:102.0 7:668.0 8:2.0 12:21458.0 13:108.0 14:117.0 
0.8067671276110713 1:3.0 3:799.0 4:2.0 7:2.0 12:9416.0 14:331.0 18:10.0 
0.8067871021136979 12:12480.0 14:3.0 
0.8067889061764366 12:21894.0 16:8.0 
0.8065684592136573 1:4.0 3:29.0 4:12.0 5:173.0 9:5.0 12:14017.0 14:655.0 16:1.0 
0.8068605786365705 3:2.0 5:2399.0 12:10146.0 13:4.0 14:572.0 18:109.0 
0.8071338880702675 1:28.0 7:3378.0 9:22.0 12:5203.0 13:1682.0 14:168.0 
0.8066386261046878 4:2.0 12:21340.0 14:51.0 
0.8067889061764366 1:4.0 4:12.0 5:300.0 7:2234.0 9:9.0 12:14711.0 14:2.0 
0.8068297147683122 5:358.0 12:10589.0 14:348.0 
0.8067279756375281 5:507.0 12:42075.0 14:2.0 
0.8067333566539996 1:60.0 12:14085.0 14:420.0 
0.8046712324227356 12:11829.0 
0.8071558543258897 1:1.0 3:1562.0 4:5.0 12:9041.0 14:92.0 
0.805004584193995 12:13130.0 
0.806621646974897 12:34108.0 16:28.0 
0.8067333566540005 12:13784.0 14:217.0 
0.8069847526620503 12:30177.0 
0.8067495903361617 12:747.0 13:12707.0 14:178.0 16:30.0 18:19.0 
0.8067488862890628 3:1305.0 4:56.0 5:211.0 12:10349.0 14:158.0 
0.8072439977670693 8:17048.0 12:39.0 
0.8064227284921918 3:9.0 12:20966.0 
0.8071014255831578 3:47.0 9:59.0 12:10283.0 14:225.0 
0.8067888516265836 12:11447.0 14:19.0 
0.8067684239001303 1:23.0 4:2.0 5:566.0 12:11102.0 14:212.0 16:37.0 
0.8071547142187088 12:117662.0 
0.8067916642376642 12:21811.0 
0.8067680819820897 12:21353.0 14:283.0 
0.8067949318243185 4:101.0 12:452697.0 14:498.0 
0.8067206395338105 12:19117.0 
0.8067867467622358 4:50.0 5:11.0 8:21.0 12:24857.0 13:4220.0 14:323.0 18:105.0 
0.8072173276452712 12:66258.0 
0.8067881593185006 4:1.0 8:2.0 12:16141.0 14:2229.0 
0.8067603338515845 5:50.0 12:22034.0 14:358.0 18:4.0 
0.8067889061764366 12:29840.0 14:5.0 16:2.0 
0.8071842931738981 4:1.0 12:12687.0 14:98.0 
0.8068208798761418 1:938.0 4:92.0 8:22.0 9:9.0 12:10276.0 
0.8066199717966968 12:53901.0 
0.8069504562522387 5:23.0 12:68050.0 14:11830.0 
0.8066161625599295 3:15514.0 4:5.0 12:595.0 
0.8072354500061387 4:1.0 12:11619.0 14:60.0 
0.8067874377062165 7:297.0 8:2.0 12:20175.0 18:4.0 
0.8067740112263737 4:5.0 12:26059.0 
0.8066159723929799 1:204.0 4:150.0 8:19.0 9:23.0 12:20106.0 14:198.0 
0.8067869608274876 12:14500.0 14:1614.0 
0.8065847048154235 5:33.0 12:10841.0 13:167.0 14:286.0 16:4.0 
0.8067279756375281 3:73.0 12:14992.0 14:148.0 
0.8067435603381163 12:3962.0 14:9523.0 
0.806785998965275 3:181.0 12:23878.0 
0.8067657586776659 4:1044.0 5:12.0 9:3.0 12:10072.0 14:36.0 16:4.0 
0.8067555926274051 3:18.0 7:163.0 12:31804.0 14:130.0 16:20.0 
0.8071728362231576 1:2.0 8:1.0 9:8.0 12:27133.0 14:51.0 
0.8073589018004954 1:32.0 8:46.0 12:17656.0 14:306.0 
0.8073524949239148 5:1816.0 12:23679.0 14:6.0 
0.8067861490003 12:14832.0 
0.8068472270746643 12:19809.0 
0.8065545623724377 1:18.0 7:216.0 12:10559.0 14:7774.0 18:62.0 
0.8065799607015045 1:45.0 4:2.0 12:45221.0 14:34.0 
0.8065948045636155 12:12431.0 
0.8066915740139441 4:1.0 12:119066.0 14:31.0 
0.8068180491286951 1:176.0 4:3.0 9:25.0 12:9798.0 14:2224.0 
0.8072748479308728 4:4.0 5:18.0 12:16311.0 14:33.0 
0.8065545624777621 3:7.0 5:37.0 12:13781.0 14:167.0 
0.8066161625599295 4:3.0 5:61.0 8:664.0 12:27508.0 
0.8066399475018657 4:2.0 12:18674.0 14:227.0 
0.8071014255831578 12:15184.0 14:4.0 
0.8072354567785147 12:13511.0 
0.8067885469263621 3:2.0 4:74.0 5:110.0 8:1.0 9:19.0 12:34928.0 13:4.0 14:314.0 16:6.0 18:10.0 20:47.0 
0.8067889557596587 1:5.0 3:17.0 4:6.0 12:6459.0 14:4096.0 
0.8067881593185006 12:34789.0 14:163.0 
0.8067874377062165 3:8.0 12:10626.0 13:1.0 14:353.0 
0.8066611812807067 5:48.0 9:7.0 12:11608.0 14:963.0 18:5.0 
0.8065974499482418 2:5.0 10:1.0 12:21379.0 14:310.0 18:7.0 
0.8065906242824464 8:6.0 12:12939.0 14:1.0 
0.8067740112263737 7:410.0 12:147.0 14:10119.0 18:80.0 
0.8067671276110713 1:7.0 3:1414.0 12:18526.0 14:1069.0 
0.8067544373637207 12:12281.0 14:86.0 
0.8068543557556451 3:1.0 4:1.0 5:1506.0 12:12563.0 14:163.0 
0.8067998395975846 12:9396.0 14:5330.0 18:14.0 
0.8073519125664791 3:119.0 12:11561.0 14:54.0 
0.8068462293001928 12:11881.0 14:187.0 16:12.0 
0.8073586131807278 8:442.0 12:10575.0 14:19.0 
0.8071544743992948 1:102.0 5:89.0 12:9735.0 14:488.0 16:50.0 18:16.0 
0.8070779125643094 8:36.0 12:16942.0 14:97.0 
0.8070898413866185 1:184.0 3:22.0 5:2.0 9:10.0 12:27286.0 13:79.0 14:258.0 16:41.0 
0.806846193212675 1:311.0 3:3.0 4:41.0 12:24191.0 13:1180.0 14:210.0 18:14.0 
0.8067657586776659 5:190.0 12:10097.0 14:465.0 
0.8067555162429008 1:93.0 4:15.0 12:16007.0 14:92.0 
0.8067867079419145 5:1324.0 12:42331.0 14:121.0 
0.8066268598290132 3:868.0 5:29.0 8:7.0 9:34.0 12:22201.0 14:75.0 
0.8068454585953232 5:35.0 7:1841.0 12:15228.0 14:1.0 
0.8067998395975846 8:104087.0 12:2017.0 
0.8067916642376642 4:44.0 7:2343.0 9:12.0 12:12383.0 13:77.0 14:177.0 16:1.0 20:703.0 
0.8067887905299838 3:169.0 4:206.0 8:2.0 12:8446.0 14:1832.0 
0.8067866458184465 1:4.0 3:22.0 7:7442.0 9:10.0 12:53094.0 14:66.0 
0.8067872054473776 3:38.0 7:4032.0 12:6716.0 14:10.0 18:675.0 
0.8067888516265836 4:29232.0 5:145.0 9:5.0 12:1005.0 14:38.0 
0.806768605124602 1:1958.0 9:15.0 12:10246.0 14:26.0 
0.8067603338515845 1:3.0 3:203.0 8:551.0 9:85.0 10:24.0 11:331.0 12:1546.0 13:17419.0 15:62.0 17:6.0 
0.8067467523985996 1:404.0 4:64.0 12:10036.0 14:2390.0 
0.80675002139733 1:2.0 12:51680.0 14:27.0 
0.8067229063396937 5:34.0 12:19539.0 
0.806721528680758 5:222.0 12:10707.0 14:148.0 16:2.0 
0.8049560920438985 12:11818.0 
0.8066205114585576 4:112.0 9:23.0 12:20549.0 14:5.0 
0.8066151325196806 12:36.0 14:13526.0 
0.8065906242824464 1:2.0 4:10.0 5:60.0 12:12058.0 14:12.0 
0.8066191795114852 3:12.0 5:304.0 12:20652.0 
0.8066399475018657 5:123.0 7:2126.0 9:2.0 12:8432.0 14:43.0 
0.8069199822624504 12:26697.0 14:5734.0 
0.8071006070085305 8:641.0 12:14768.0 
0.8068074485188577 1:2.0 12:19262.0 14:9.0 
0.8067867467622358 4:14.0 5:86.0 7:549.0 12:25483.0 14:29.0 20:107.0 
0.8067430379416557 8:15.0 12:16923.0 
0.8065678485653197 4:6.0 5:38.0 12:12635.0 14:14.0 18:17.0 
0.8067661439352332 4:36.0 8:25.0 9:25.0 12:12067.0 14:166.0 
0.8071547142187088 5:27.0 9:1.0 12:53584.0 14:7.0 
0.8071728362231576 12:22441.0 
0.8071717355446151 12:16307.0 14:132.0 
0.8067603338515845 1:224.0 3:90.0 5:68.0 9:77.0 12:5571.0 14:4086.0 20:699.0 
0.8067888516265836 1:1.0 4:1.0 5:4.0 8:2.0 12:12403.0 14:34.0 
0.8067453372087033 1:5.0 3:22.0 7:214.0 12:21869.0 14:147.0 
0.8067229063396937 12:39269.0 16:6.0 
0.8067216887915386 3:49.0 4:5.0 12:20264.0 13:1733.0 14:2080.0 18:36.0 
0.8067208936634289 5:74.0 12:21300.0 14:1932.0 
0.8067752825528307 5:71.0 9:13.0 12:13247.0 14:75.0 18:7.0 
0.8071558543258897 12:10633.0 
0.806687784522415 5:223.0 12:11583.0 16:10.0 
0.8067354029992838 3:24.0 4:1.0 12:20885.0 14:11849.0 16:4.0 
0.8067416383997459 12:18807.0 
0.8067216887915386 1:35.0 7:785.0 9:5.0 12:16625.0 14:219.0 
0.8072748479308637 1:2.0 9:4.0 12:11174.0 14:24.0 
0.8067484881259436 1:105.0 3:42210.0 4:3.0 5:501.0 9:24.0 12:4812.0 14:18.0 
0.8067861520294501 3:415.0 4:66.0 8:24.0 12:14135.0 14:546.0 18:24.0 
0.8067920933602577 5:36.0 8:1.0 12:12387.0 14:55.0 
0.8068452438572105 7:14979.0 12:1847.0 
0.8070779125643094 3:1172.0 8:3.0 12:15744.0 14:109.0 
0.8067850488769603 1:11.0 4:1884.0 5:1922.0 9:45.0 12:10340.0 14:236.0 
0.8067916642376642 8:99.0 12:10609.0 
0.8065974499482418 5:695.0 8:7.0 12:10352.0 
0.8065674527560894 12:13148.0 14:262.0 
0.8066611812807067 3:47.0 5:114.0 12:618.0 13:11220.0 14:26.0 18:10.0 
0.8067889557596587 3:3335.0 12:9690.0 14:407.0 
0.8067776041843089 5:49267.0 12:3439.0 14:31.0 18:10.0 
0.806768605124602 4:3.0 5:176.0 12:10652.0 14:160.0 
0.8067874377062165 8:1900.0 12:4.0 14:11541.0 
0.8064623176589104 4:49.0 8:2.0 12:13066.0 14:235.0 
0.8067776041869685 3:1.0 12:37691.0 14:21.0 
0.8070815611263715 5:127.0 12:23547.0 14:2344.0 
0.8068559436380219 3:107.0 5:26.0 12:12625.0 14:2213.0 
0.8068605786365705 5:1774.0 12:14716.0 14:36.0 
0.8066268598290132 8:3.0 12:17426.0 14:14.0 
0.8067898401190157 3:1.0 4:25.0 5:36.0 12:14950.0 14:227.0 16:26.0 
0.8067544373637207 5:4018.0 9:20.0 12:11110.0 18:77.0 
0.8067589457182976 5:8433.0 9:1.0 12:2344.0 14:25.0 
0.8068209023428736 4:48.0 8:4.0 12:12499.0 14:63.0 
0.8067866458184465 4:3.0 5:131.0 8:89.0 12:17748.0 14:261.0 
0.8067839828834 5:1.0 8:1.0 12:14003.0 14:34.0 
0.8067869608274876 12:13232.0 14:35.0 
0.8067602345047787 5:5.0 9:13.0 12:7543.0 14:3091.0 
0.806621646974897 1:2.0 3:159.0 4:9.0 5:193.0 7:46.0 12:16124.0 14:98.0 
0.8069764497336975 3:1.0 4:9927.0 5:415.0 8:8.0 9:13.0 12:1051.0 14:21.0 
0.8071558543258897 12:30199.0 14:211.0 
0.8067845272856145 8:17281.0 14:3.0 
0.8066131296733549 12:11071.0 
0.8067912241769417 3:66.0 4:1.0 5:321.0 12:15765.0 14:377.0 
0.8065967401921044 4:4.0 5:52.0 12:12436.0 14:330.0 
0.8067247271575081 5:19200.0 12:2575.0 14:74.0 
0.8068202501759979 8:1144.0 12:10371.0 
0.8068467188354544 12:10874.0 14:29.0 
0.8065754716376115 9:19.0 12:45106.0 14:242.0 
0.8067354029992838 5:751.0 8:178.0 12:15627.0 18:87.0 
0.8065799607014936 4:3848.0 12:6908.0 14:1.0 
0.8068180491286951 1:1.0 5:17.0 12:36256.0 14:53.0 
0.8065948045525682 12:29547.0 
0.8067389988967161 1:4.0 2:10.0 3:228.0 4:362.0 5:39.0 6:2663.0 7:5316.0 8:1131.0 9:1383.0 12:991.0 13:237.0 15:272.0 18:631.0 
0.8071036954272832 5:15.0 7:1206.0 12:16457.0 14:309.0 
0.8067867481790187 5:1.0 12:11357.0 14:7570.0 16:6.0 
0.8066611812807067 4:11827.0 9:5.0 12:110.0 14:40.0 
0.8071566448172041 1:33.0 4:1.0 7:48.0 9:2.0 12:13775.0 14:54.0 20:6.0 
0.8067791035101102 4:92.0 5:137.0 12:26075.0 13:52.0 14:79.0 
0.8067432393071488 5:374.0 12:13166.0 14:353.0 16:14.0 
0.8067657586776659 12:20082.0 14:23.0 
0.8067627575017582 3:51.0 4:1.0 12:17856.0 16:27.0 
0.8073505606083805 12:13085.0 14:23.0 16:5.0 
0.5899964690284745 12:11374.0 14:2.0 
0.806746757591537 12:10468.0 13:1.0 14:617.0 
0.806753010098416 3:112.0 4:3.0 12:15740.0 
0.8066975504820392 4:9.0 12:22681.0 
0.8066386261046878 12:18288.0 14:5.0 
0.8065684592136573 4:4.0 7:966.0 12:11623.0 14:626.0 
0.8064623176589104 1:3.0 3:94.0 12:11365.0 14:22.0 
0.8064623176589104 3:2.0 12:48527.0 
0.8068209054263225 12:104726.0 
0.8068232709309515 3:6.0 4:6.0 5:17.0 12:26825.0 
0.5896859299643968 12:11378.0 
0.8067885469263621 3:21.0 12:21282.0 14:304.0 
0.8067885469263621 3:119.0 4:4.0 7:6326.0 8:24.0 12:4019.0 
0.8067912241769417 12:13383.0 16:16.0 
0.8067920933602577 1:192.0 4:3.0 12:36099.0 14:605.0 
0.8067833913529623 3:1.0 4:1.0 5:843.0 12:9617.0 14:227.0 
0.8067894703487258 12:14532.0 14:201.0 
0.8067889061764366 3:7.0 5:381.0 8:12.0 12:27929.0 14:208.0 
0.8067874377062165 5:14.0 12:15370.0 14:19.0 
0.8067881593185006 8:568.0 12:102768.0 14:3.0 
0.8067881593185006 1:2.0 3:21.0 4:43.0 8:357.0 12:12287.0 
0.8067869608274876 3:31.0 4:2.0 5:55.0 9:3.0 12:19088.0 14:30.0 
0.8067898401190157 3:242.0 4:123.0 5:91.0 8:2.0 12:10324.0 14:40.0 18:4.0 
0.8067702909341066 3:48.0 5:33.0 9:4.0 12:13623.0 14:93.0 16:4.0 
0.8067684239001303 8:4.0 12:23608.0 
0.8067602198884798 7:2.0 12:45165.0 14:63.0 
0.8067602345047787 7:2122.0 8:8.0 12:184.0 13:11464.0 14:21.0 
0.8067467523985996 5:7.0 12:21044.0 14:8.0 
0.8067488862890628 12:13197.0 
0.8067430379416557 1:9.0 8:3.0 9:2.0 12:12185.0 14:172.0 
0.8067452564496606 3:33.0 4:87.0 5:500.0 7:11652.0 8:2.0 9:3.0 12:5207.0 14:179.0 16:8.0 
0.8067216887915386 4:38.0 12:6274.0 14:7755.0 
0.8067216887915386 1:543.0 4:35.0 5:11.0 12:38609.0 13:202.0 14:105.0 16:14.0 
0.8067192480360068 5:4.0 12:11523.0 14:134.0 
0.8066611812807067 1:15.0 5:537.0 12:10004.0 14:76.0 16:29.0 18:6.0 
0.806621646974897 4:1.0 9:3.0 12:15528.0 14:60.0 
0.8066131296733549 3:1.0 4:158.0 8:19.0 12:11221.0 14:315.0 
0.8065974499482418 4:2.0 9:2.0 12:28468.0 
0.8065984876217097 3:178.0 5:85.0 7:4797.0 9:2.0 12:6574.0 14:96.0 20:4481.0 
0.8065678485653197 4:3.0 12:14300.0 14:120.0 
0.8065678485653197 3:1.0 12:36333.0 14:189.0 
0.8066161625599295 12:32401.0 14:175.0 
0.8066081346742806 1:119.0 3:358.0 4:3.0 9:7.0 12:8935.0 14:2815.0 18:50.0 
0.8066399475018657 1:496.0 4:11.0 7:10517.0 12:1667.0 
0.8067820230668117 1:47.0 4:4.0 8:92.0 12:4357.0 14:7628.0 
0.8071036954272832 3:19.0 12:17939.0 
0.8071558543258897 4:2.0 5:25.0 9:15.0 12:29595.0 14:13.0 
0.8072106567981719 8:2.0 12:14934.0 14:425.0 18:41.0 
0.8073544053878416 12:33795.0 16:14.0 
0.806785998965275 12:28542.0 
0.8067872054473776 4:18.0 5:692.0 9:5.0 12:13967.0 13:1172.0 14:172.0 
0.8067603011367546 8:1.0 9:8.0 12:12873.0 14:792.0 
0.8067208936634289 8:9.0 12:11415.0 14:1.0 
0.8066611812807067 4:4.0 5:18.0 9:2.0 12:16699.0 14:1262.0 
0.8066131296733549 8:34.0 12:13732.0 14:337.0 
0.8065974499482418 5:881.0 12:10093.0 14:929.0 18:8.0 
0.8065847048154235 1:8.0 4:9.0 5:656.0 7:2433.0 8:197.0 9:12.0 12:8394.0 
0.8067887905299838 8:2.0 12:10767.0 
0.8065847048154235 5:166.0 12:15113.0 14:129.0 
0.8067752825528307 4:9.0 5:647.0 8:2.0 12:25299.0 13:5310.0 14:316.0 16:42.0 18:50.0 
0.8067866655986075 12:16656.0 14:135.0 
0.8067893886752111 5:1529.0 8:3.0 12:14080.0 14:2974.0 
0.8067866458184465 1:219.0 12:12433.0 14:50.0 
0.8067848384131914 4:451.0 12:92203.0 14:155.0 16:2.0 
0.8067453372087033 5:14861.0 12:854.0 14:75.0 
0.8067752825528307 12:34361.0 14:1.0 
0.8067885469263621 2:3.0 5:31.0 8:19.0 12:13667.0 14:668.0 
0.8067881593185006 3:3813.0 9:9.0 12:6697.0 14:32.0 16:1.0 20:2.0 
0.8067680819820897 3:2997.0 4:2.0 5:59.0 8:2.0 12:50796.0 14:132.0 
0.8067467523985996 3:91.0 12:9862.0 14:652.0 18:6.0 
0.8064623176589104 8:56726.0 12:123.0 14:30.0 
0.80675002139733 8:1064.0 12:10047.0 14:9.0 
0.8067354029992838 12:68876.0 
0.8067898965226971 12:26665.0 14:26.0 18:30.0 
0.8067059848074773 4:4.0 5:47.0 7:918.0 9:16.0 12:12396.0 14:528.0 18:44.0 
0.8067333566540005 5:45.0 12:18235.0 14:39.0 
0.8071298150459477 3:4.0 4:1.0 5:889.0 12:13741.0 14:121.0 
0.8067850488769603 12:2890.0 14:10359.0 
0.8067881593185006 4:649.0 5:18988.0 12:21587.0 14:44.0 
0.8067899008369117 12:13822.0 14:25.0 16:10.0 
0.8067602198884798 4:1893.0 5:56.0 12:15732.0 14:69.0 16:19.0 
0.8067603011367546 5:259.0 7:7431.0 9:11.0 12:8188.0 14:4.0 18:47.0 
0.8067490093361126 12:10742.0 14:238.0 
0.8066131296733549 5:186.0 12:24611.0 14:103.0 
0.8067661439352332 3:27.0 4:54.0 5:528.0 8:2.0 12:17082.0 14:943.0 
0.8068452438572105 5:1089.0 9:24.0 12:19435.0 14:3580.0 
0.8065674474014439 1:5.0 3:40.0 4:49.0 5:565.0 12:14680.0 13:947.0 14:267.0 18:10.0 
0.8071567587971096 3:4.0 5:18.0 12:28518.0 
0.8067208936634289 8:81.0 12:28850.0 14:14.0 
0.806768605124602 8:30.0 12:14514.0 
0.8066213096698226 12:45022.0 
0.8067206395338105 12:1068.0 14:10352.0 
0.8067845272856145 12:27882.0 
0.8065984876217077 12:12540.0 
0.8067871021136979 8:96.0 12:9668.0 14:718.0 
0.8067192480360068 12:42539.0 14:25.0 
0.8067244128967466 5:503.0 9:18.0 12:18786.0 14:247.0 
0.8067919563316198 12:16430.0 
0.8067867467622358 5:5820.0 12:7886.0 14:9.0 18:3.0 
0.8067544373637207 5:424.0 12:8992.0 13:3056.0 14:267.0 18:92.0 
0.8065847048154235 8:307.0 12:31360.0 14:6.0 
0.8067138259699207 4:17.0 5:525.0 12:25348.0 14:139.0 16:2.0 18:10.0 
0.8066611812807067 5:78.0 12:24751.0 14:9.0 
0.8065984876217097 3:105.0 5:2247.0 12:21114.0 
0.8066445606437729 1:275.0 4:7.0 5:2070.0 8:2.0 12:16664.0 14:316.0 
0.8067216887915386 7:24447.0 12:29183.0 14:121.0 
0.8067495903361617 8:2.0 12:14256.0 14:306.0 18:94.0 
0.8071330869128082 12:35500.0 
0.8067920933602577 1:18.0 4:2.0 12:15594.0 13:537.0 14:113.0 
0.8073524949239148 5:3.0 12:21142.0 
0.8067916642376642 8:445.0 12:30276.0 14:4.0 
0.8067627575017582 12:47798.0 13:1.0 14:1876.0 
0.8067517864699664 5:756.0 7:865.0 9:5.0 12:25584.0 14:504.0 
0.8067416383997459 5:18431.0 12:5768.0 14:141.0 
0.8066134138248311 5:293.0 12:22470.0 14:251.0 16:18.0 18:13.0 
0.8067920933602577 12:26613.0 14:8.0 
0.8070996929144449 3:669.0 4:42.0 5:1006.0 12:9816.0 14:86.0 
0.8071544743992948 5:3343.0 12:7240.0 14:521.0 18:18.0 
0.8068537390187593 4:1.0 5:20780.0 9:21.0 12:22552.0 14:36.0 
0.8071717355446151 12:25733.0 14:441.0 
0.8067490093361126 12:22794.0 14:2.0 
0.8071547142187088 5:3145.0 12:27269.0 14:41.0 
0.8068074485188577 12:24019.0 14:253.0 
0.8073586131807278 3:3.0 4:18.0 5:7199.0 12:10374.0 14:178.0 18:10.0 
0.8073519094554451 3:38.0 5:198.0 12:33248.0 14:78.0 
0.8068185132464314 3:129.0 12:12015.0 14:350.0 
0.8067335066820396 8:136.0 12:15048.0 
0.8068462293001928 12:35187.0 
0.8067833913529623 8:4461.0 12:1937.0 14:10328.0 
0.8066611812807067 1:6.0 3:46.0 4:2.0 5:1074.0 12:37989.0 14:84.0 18:24.0 
0.8071842931738981 5:46.0 7:270.0 12:2413.0 14:10957.0 
0.8065980863503053 3:2.0 4:3.0 5:508.0 8:2.0 12:8996.0 13:1537.0 14:130.0 
0.8067820230668118 4:3.0 12:11469.0 
0.804826637472064 12:13119.0 
0.8066134138248311 4:132.0 8:25.0 12:10413.0 14:48.0 
0.8066492983132747 5:31.0 12:60983.0 14:68.0 16:4.0 
0.8066386261046878 5:78.0 12:15422.0 14:20.0 
0.8065799607014936 12:45707.0 
0.8065948045525682 1:17.0 4:19.0 5:291.0 8:36.0 12:4267.0 13:11075.0 14:192.0 
0.8072748479308706 12:12563.0 14:12.0 
0.8066915740139122 4:1.0 5:590.0 8:2.0 12:10798.0 14:113.0 18:1481.0 
0.8068180491286949 3:1.0 4:4.0 5:166.0 9:87.0 12:14356.0 14:579.0 
0.8065692077703837 1:9.0 3:3267.0 4:7.0 12:8450.0 
0.8072748479308726 3:2.0 5:721.0 8:8.0 12:13584.0 14:206.0 
0.8065545623724377 1:17.0 5:21.0 8:4.0 12:147645.0 13:203.0 18:7.0 
0.8067603338515845 12:15304.0 
0.8066915740139025 4:3.0 12:11168.0 
0.8066161625599295 8:12.0 12:19843.0 14:1.0 
0.8067867467622358 1:14.0 3:11.0 4:4.0 9:15.0 12:25194.0 14:1212.0 16:54.0 
0.8066399475018657 12:12806.0 14:2572.0 
0.8071728362231576 4:37.0 8:14.0 12:11412.0 14:178.0 
0.8067192480360068 3:2588.0 4:3.0 7:24.0 9:12.0 12:8842.0 14:331.0 20:1962.0 
0.8071338880702675 1:5.0 4:22.0 9:6.0 12:21504.0 14:36.0 
0.8071728362231576 3:2.0 12:16275.0 14:2157.0 
0.8067888516265836 1:28216.0 4:2265.0 12:2526.0 14:3404.0 
0.8071441070129912 3:142.0 4:51.0 12:18328.0 14:66.0 
0.8070898413866185 4:84.0 12:20354.0 14:151.0 
0.8065799607015045 1:6.0 7:4989.0 12:9019.0 14:79.0 
0.8071717355446151 5:3660.0 7:1374.0 12:4618.0 14:1250.0 20:10.0 
0.8070779125643094 8:356.0 12:13283.0 14:6.0 
0.8071006070085305 4:65.0 12:29687.0 14:10.0 
0.8072354500061387 5:176.0 8:2.0 12:14988.0 14:103.0 
0.8067216887915386 12:44667.0 
0.8067949318243185 1:265.0 3:19.0 4:13.0 5:16869.0 9:5.0 12:3962.0 14:634.0 18:8.0 
0.8067857927834621 3:282.0 12:66887.0 14:2.0 
0.807239912536232 1:1.0 3:136.0 4:3.0 5:28.0 12:19040.0 14:93.0 15:72.0 18:1.0 
0.8067881593185006 1:47.0 4:34.0 7:6413.0 9:14.0 12:7025.0 14:202.0 
0.8067847130607926 1:2.0 5:39851.0 12:13919.0 14:5890.0 
0.8066431337812716 8:10008.0 12:9.0 14:17448.0 
0.8071545198891148 3:9.0 4:203.0 8:9.0 12:10655.0 
0.8065967401921044 12:10868.0 
0.8067222874393615 5:86.0 12:11852.0 14:61.0 
0.8066151325196806 1:34.0 5:526.0 12:12387.0 14:158.0 
0.8067894703487258 8:901.0 12:23966.0 14:6.0 
0.8066191795114852 12:28896.0 14:2562.0 
0.8066312898540771 3:8.0 5:37.0 12:10740.0 14:209.0 18:17.0 
0.8067818547643363 12:15417.0 
0.8066500652601134 5:83.0 12:11187.0 14:445.0 
0.8067882010046874 7:10636.0 8:3.0 12:3927.0 18:2418.0 
0.8067866458184465 5:74.0 12:10758.0 18:33.0 
0.8068454585953232 2:1.0 4:49.0 5:1121.0 7:6271.0 12:5714.0 13:2422.0 14:243.0 16:10.0 18:33.0 
0.8072980916177646 3:10.0 4:3.0 5:5403.0 12:5170.0 14:228.0 18:14.0 
0.806714600099676 3:12.0 4:6.0 5:356.0 12:11655.0 14:45.0 
0.8073519094554451 1:22.0 12:92551.0 14:348.0 
0.8068208798761418 12:104746.0 14:72.0 
0.8073498433151942 8:63.0 12:17140.0 
0.8067845272856145 5:972.0 12:12395.0 13:16719.0 14:603.0 16:19.0 
0.8070975753160875 4:8.0 5:346.0 12:10496.0 14:132.0 
0.8067495903361617 4:1.0 5:392.0 12:13282.0 14:152.0 
0.8071330869128082 3:10.0 12:10676.0 
0.8072354567785147 12:19375.0 
0.8065545594503633 3:8.0 12:14850.0 
0.8070779125643094 1:8.0 12:12482.0 14:82.0 
0.8067857927834621 1:110.0 4:3.0 5:61.0 12:42740.0 14:256.0 20:102.0 
0.8067555926274051 4:5.0 12:17280.0 
0.806687784522415 1:162.0 4:12.0 8:2.0 12:11012.0 13:3023.0 14:335.0 
0.8067627575017582 5:296.0 12:26629.0 14:272.0 
0.8068180491286949 3:204.0 5:154.0 9:7.0 12:75589.0 14:54.0 18:1.0 
0.8073552972411158 3:3.0 5:16.0 8:15.0 12:23005.0 14:97.0 
0.806721528680758 3:6.0 4:12.0 5:10.0 12:13063.0 14:310.0 18:1.0 
0.8067752825528307 3:3.0 4:14.0 12:17259.0 14:167.0 
0.8066386261046878 12:17735.0 14:257.0 
0.8068472270746643 5:158.0 12:16521.0 14:86.0 
0.8067848384131914 3:1.0 4:4452.0 5:12.0 12:7758.0 14:157.0 
0.8068222459367 8:93.0 12:21060.0 14:1.0 
0.806785998965275 8:186.0 12:13844.0 14:1.0 
0.8066915740139441 3:885.0 12:16058.0 14:258.0 
0.8067847130607926 5:21.0 12:4855.0 14:2341.0 18:21.0 20:5258.0 
0.8067216890832987 4:26.0 5:40.0 8:7.0 12:13338.0 14:146.0 
0.8067882010046874 4:112.0 8:7.0 9:101.0 12:11058.0 14:10.0 
0.8067874377062165 3:49.0 12:12382.0 14:172.0 18:3.0 
0.8066159723929799 1:3.0 7:17992.0 12:446.0 14:8226.0 
0.8071544743992948 4:47.0 5:22708.0 12:578.0 14:40.0 
0.8067482208650507 3:203.0 4:17.0 5:943.0 12:16598.0 14:675.0 
0.8067867481790187 12:13956.0 14:83.0 
0.8067776041869685 1:80.0 2:2.0 3:290.0 4:576.0 8:2.0 9:52.0 12:11022.0 14:296.0 
0.8067605353267366 4:1.0 5:387.0 12:23976.0 14:277.0 
0.8067589457182976 12:24787.0 
0.8067890183780972 4:233.0 5:666.0 9:1130.0 12:9289.0 14:494.0 18:9.0 
0.8067555864750986 1:22.0 4:567.0 12:6244.0 14:389.0 20:4505.0 
0.8070898413866185 1:26.0 4:124.0 5:6773.0 12:3895.0 14:271.0 18:133.0 
0.8067279756375281 1:260.0 4:41.0 5:234.0 9:10.0 12:6721.0 13:5173.0 14:94.0 
0.8067208936634289 3:603.0 4:13.0 5:1270.0 12:15828.0 14:122.0 18:39.0 
0.8067803799628391 4:22.0 12:8626.0 14:4007.0 
0.8066611812807067 3:217.0 12:33649.0 14:276.0 
0.8065948045636155 1:9.0 9:3.0 12:12495.0 14:30.0 
0.8067627575017582 4:4.0 9:1.0 12:16899.0 14:3853.0 
0.8066134138248311 8:2.0 12:10388.0 14:99.0 
0.8067890183780972 3:344.0 4:59.0 12:6020.0 14:8914.0 
0.8067881593185006 4:3.0 9:28.0 12:34177.0 14:813.0 
0.8065984876217097 3:21136.0 5:23.0 12:2698.0 14:258.0 
0.8065674474014439 4:36.0 5:840.0 9:20.0 12:18717.0 14:217.0 
0.8069037828115191 4:2302.0 12:15378.0 
0.8066445606437729 3:36.0 4:1.0 5:293.0 9:51.0 12:12489.0 14:204.0 18:6.0 
0.8068811135377383 1:181.0 3:76.0 4:10.0 7:31.0 9:31.0 12:10267.0 14:160.0 
0.8067279756375281 12:13449.0 14:321.0 
-0.651527520467844 1:1.0 8:2.0 12:110.0 14:8.0 
-1.0 3:78.0 12:583.0 14:17.0 
-1.0 12:74.0 14:83.0 
-1.0 8:75.0 12:8.0 14:4.0 
-1.0 5:2.0 12:400.0 14:7.0 
-1.0 12:313.0 
-1.0 5:124.0 12:131.0 14:19.0 
-0.9762896099722286 12:63.0 14:15.0 
-1.0 3:41.0 12:226.0 14:106.0 16:16.0 
-1.0 12:446.0 
-1.0 9:1.0 12:17.0 14:55.0 
-0.16933806354450667 12:108.0 
-1.0 7:10.0 9:2.0 12:141.0 14:2.0 
-1.0 5:70.0 12:404.0 13:168.0 14:90.0 
-1.0 5:38.0 8:11.0 12:565.0 14:92.0 
-1.0 5:2.0 12:213.0 14:5.0 
-1.0 4:32.0 8:2.0 12:46.0 
-1.0 3:34.0 12:165.0 14:29.0 
-1.0 1:1.0 12:1068.0 14:121.0 16:4.0 
-1.0 3:4.0 4:210.0 12:361.0 14:19.0 
-1.0 3:52.0 8:395.0 12:1876.0 14:226.0 
-1.0 12:565.0 14:28.0 
-1.0 12:1494.0 
-0.5281248890821163 12:85.0 14:12.0 
-1.0 5:1.0 12:122.0 14:106.0 
-1.0 1:1.0 4:2.0 8:4.0 9:11.0 12:48.0 14:12.0 16:6.0 
-1.0 8:9.0 12:248.0 14:4.0 
-1.0 12:662.0 14:18.0 16:23.0 
-1.0 12:683.0 14:58.0 
-1.0 2:1.0 5:1.0 9:2.0 12:1985.0 14:86.0 
-1.0 8:22.0 12:214.0 14:23.0 
-1.0 1:10.0 12:162.0 
-1.0 8:746.0 12:104.0 14:1.0 
-1.0 12:257.0 14:24.0 
-1.0 8:16.0 14:93.0 
-0.62224510655237 12:137.0 14:13.0 
-1.0 3:219.0 4:26.0 12:1252.0 14:72.0 
-1.0 4:1.0 8:4.0 12:215.0 14:219.0 
-1.0 1:30.0 4:3.0 7:13.0 12:1149.0 14:5.0 18:2.0 
-0.8414612884133152 12:137.0 14:9.0 
-1.0 7:24.0 12:256.0 14:70.0 
-1.0 7:100.0 8:7.0 12:119.0 14:14.0 
-1.0 8:13.0 12:1927.0 14:47.0 
-1.0 4:2.0 12:230.0 14:33.0 
-1.0 4:3.0 7:441.0 12:579.0 14:27.0 
-1.0 4:35.0 12:97.0 14:22.0 
-0.7324209599590037 12:109.0 
-1.0 3:22.0 12:104.0 
-1.0 8:2.0 12:509.0 13:2.0 14:91.0 
-1.0 5:2.0 12:920.0 13:74.0 14:74.0 
-1.0 4:33.0 8:21.0 12:109.0 14:52.0 
-0.07366724865274422 12:98.0 
-1.0 1:3.0 5:9.0 12:85.0 14:14.0 
-1.0 4:1.0 5:35.0 8:45.0 12:1647.0 14:152.0 
-1.0 4:13.0 5:21.0 9:1.0 12:309.0 14:12.0 16:15.0 
-1.0 1:8.0 12:83.0 14:13.0 20:1.0 
-1.0 4:21.0 12:2878.0 14:171.0 
-1.0 3:327.0 5:4.0 8:6.0 12:904.0 14:1.0 
-1.0 12:471.0 13:3.0 14:130.0 
-0.3666861454467513 8:2.0 12:68.0 14:10.0 
-1.0 12:180.0 
-1.0 12:367.0 14:44.0 
-1.0 5:66.0 8:7.0 12:56.0 14:26.0 
-1.0 1:31.0 9:10.0 12:2078.0 14:41.0 
-1.0 4:1.0 12:100.0 14:33.0 
-0.8056149802506333 4:3.0 12:103.0 
-1.0 12:325.0 14:81.0 
-0.7611964120845324 12:88.0 14:14.0 
-1.0 8:248.0 12:53.0 14:1.0 
-0.3653814279765547 12:49.0 14:8.0 
-1.0 5:11.0 7:1.0 8:6.0 12:169.0 14:47.0 18:18.0 
-1.0 3:1.0 8:2.0 12:276.0 13:1.0 14:31.0 18:3.0 
-1.0 4:6.0 12:150.0 14:11.0 
-1.0 8:32.0 12:837.0 14:19.0 
-1.0 12:40.0 13:1.0 14:13.0 
-0.9729074290986506 8:22.0 12:32.0 
-1.0 1:12.0 8:3.0 12:218.0 14:25.0 
-1.0 8:6.0 12:44.0 14:14.0 
-1.0 12:269.0 
-1.0 12:196.0 14:6.0 16:2.0 
-1.0 12:539.0 14:132.0 
-1.0 5:61.0 8:27.0 12:49.0 14:2.0 
-0.5253555767190765 12:70.0 
-1.0 1:272.0 12:1346.0 14:581.0 
-1.0 12:296.0 14:12.0 
-1.0 1:10.0 5:35.0 8:6.0 9:5.0 12:660.0 14:54.0 
-1.0 8:46.0 12:3.0 14:3.0 
-1.0 2:10.0 3:5.0 12:1270.0 
-1.0 5:97.0 8:37.0 12:741.0 14:32.0 
-0.42339988858848315 12:159.0 
-1.0 7:30.0 12:18.0 14:9.0 
-0.9730109207700354 12:167.0 14:4.0 
-1.0 12:133.0 
-1.0 1:31.0 3:6.0 4:168.0 8:45.0 9:11.0 12:299.0 13:12.0 14:46.0 
-1.0 4:4.0 12:141.0 14:53.0 
-0.3157748075167711 12:46.0 14:5.0 
-1.0 4:8.0 5:10.0 9:3.0 12:148.0 14:27.0 
-1.0 8:2.0 12:23.0 14:79.0 
-0.44613801237158557 12:79.0 14:1.0 
-0.021279188090268825 12:60.0 14:4.0 
-0.9164603490426546 12:125.0 
-1.0 3:451.0 4:16.0 12:82.0 14:24.0 16:4.0 
-1.0 8:19.0 9:2.0 12:31.0 14:111.0 
-1.0 3:2.0 5:1.0 12:1020.0 14:12.0 
-1.0 5:75.0 12:169.0 14:5.0 
-1.0 5:4.0 12:1584.0 
-1.0 5:17.0 12:129.0 14:7.0 
-1.0 12:64.0 14:36.0 
-1.0 3:18.0 12:527.0 14:7.0 
-1.0 8:87.0 12:90.0 14:8.0 
-0.7687305810952783 8:4.0 12:67.0 14:6.0 
-1.0 5:189.0 12:271.0 14:20.0 
-1.0 8:32.0 12:248.0 14:229.0 
-1.0 8:2.0 12:285.0 14:5.0 
-1.0 8:56.0 12:217.0 
-1.0 12:132.0 14:63.0 
-0.9625161290284419 12:116.0 
-1.0 1:7.0 3:559.0 8:23.0 9:26.0 12:1353.0 14:119.0 
-1.0 1:1.0 3:14.0 12:152.0 14:44.0 16:2.0 
-0.8971988356399804 1:1.0 9:1.0 12:994.0 14:2.0 
-1.0 8:36.0 12:169.0 14:27.0 
-0.8360911083287186 12:1252.0 
-1.0 8:10.0 12:213.0 14:40.0 
-1.0 8:28.0 12:223.0 13:577.0 14:106.0 
-1.0 8:16.0 12:40.0 14:17.0 18:25.0 
-1.0 12:604.0 14:16.0 
-1.0 7:1523.0 12:262.0 14:2211.0 
-0.5938653897303087 12:100.0 13:1.0 14:4.0 16:2.0 
-0.8660209393656361 8:4.0 12:158.0 
-0.8718409163372344 8:2.0 12:475.0 
-1.0 3:5.0 12:251.0 14:81.0 
-0.502298008417769 8:2.0 12:87.0 14:1.0 
-0.3900711270057634 12:307.0 
-1.0 12:725.0 14:140.0 
-1.0 3:3.0 5:92.0 12:1836.0 14:62.0 18:15.0 
-1.0 5:168.0 12:332.0 14:19.0 
-1.0 1:27.0 12:75.0 14:1.0 
-1.0 12:1462.0 14:334.0 
-1.0 12:135.0 16:8.0 
-0.779353579716073 8:5.0 12:106.0 14:4.0 
-1.0 8:10.0 12:578.0 13:83.0 14:14.0 
-1.0 1:2.0 8:4.0 12:115.0 14:47.0 
-1.0 1:9.0 7:567.0 8:2.0 12:1524.0 14:114.0 16:20.0 
-1.0 4:4.0 5:30.0 8:18.0 12:372.0 14:146.0 
-1.0 8:2.0 12:64.0 13:26.0 14:4.0 
-0.6527687425723702 3:2.0 12:87.0 14:6.0 
-1.0 12:171.0 14:42.0 
-1.0 8:16.0 12:742.0 
-1.0 8:77.0 12:1.0 14:4.0 
-0.3335434491858545 12:77.0 14:4.0 
-1.0 3:9.0 7:104.0 12:908.0 14:180.0 
-1.0 8:14.0 12:161.0 14:3.0 
-1.0 5:9.0 7:19.0 8:4.0 12:92.0 13:37.0 14:61.0 
-0.6887261017615403 12:49.0 14:15.0 
-1.0 1:6.0 3:23.0 4:3.0 12:292.0 14:11.0 
-1.0 1:127.0 4:1.0 8:2.0 12:362.0 13:23.0 14:51.0 16:4.0 
-1.0 3:4.0 7:15.0 8:4.0 12:138.0 14:11.0 
-1.0 5:8.0 12:376.0 14:11.0 
-1.0 1:6.0 8:2.0 12:88.0 14:23.0 
-1.0 3:1.0 12:1088.0 
-1.0 8:19.0 12:632.0 14:79.0 
-1.0 12:133.0 14:26.0 
-1.0 12:441.0 14:4.0 
-1.0 5:6.0 12:132.0 14:32.0 
-0.5815019927842658 12:349.0 14:1.0 
-1.0 1:3.0 4:1.0 12:210.0 13:2.0 14:16.0 
-1.0 8:40.0 12:25.0 14:5.0 
-1.0 12:366.0 16:36.0 
-1.0 12:190.0 14:17.0 
-1.0 12:457.0 14:328.0 
-1.0 4:7.0 12:105.0 14:26.0 16:12.0 
-1.0 8:68.0 12:581.0 14:155.0 
-1.0 5:9.0 12:53.0 14:8.0 
-1.0 9:4.0 12:372.0 14:29.0 
-1.0 8:6.0 12:157.0 13:1.0 14:20.0 
-1.0 8:26.0 12:854.0 14:45.0 
-1.0 4:103.0 8:5.0 12:1152.0 14:4.0 
-1.0 5:5.0 12:833.0 14:10.0 
-1.0 8:2.0 12:100.0 14:83.0 
-0.9469169521171399 8:2.0 12:93.0 14:10.0 
-1.0 5:245.0 12:1725.0 14:104.0 
-1.0 1:9.0 12:245.0 14:15.0 
-1.0 9:3.0 12:429.0 14:30.0 
-1.0 5:57.0 12:249.0 14:12.0 
-1.0 4:12.0 8:32.0 12:205.0 14:33.0 
-1.0 5:81.0 8:2.0 12:287.0 14:49.0 
-1.0 1:1.0 12:358.0 13:9.0 14:8.0 16:2.0 
-1.0 7:98.0 12:87.0 14:70.0 
-1.0 12:279.0 
-1.0 8:809.0 9:1.0 12:102.0 14:12.0 
-1.0 5:39.0 12:608.0 14:85.0 16:14.0 18:3.0 
-1.0 7:658.0 8:1.0 12:9.0 18:2.0 
-1.0 4:1.0 12:237.0 14:4.0 
-0.9570466010134493 4:2.0 8:4.0 12:110.0 14:23.0 
-1.0 3:58.0 12:358.0 14:32.0 
-1.0 3:2.0 8:25.0 12:116.0 14:16.0 16:2.0 
-1.0 12:184.0 14:22.0 
-1.0 12:223.0 14:39.0 
-1.0 12:23.0 14:67.0 
-1.0 3:8.0 12:5728.0 13:8.0 14:446.0 16:6.0 
-1.0 5:531.0 9:4.0 12:799.0 
-1.0 5:1.0 12:91.0 14:31.0 
-1.0 3:2.0 7:3.0 12:152.0 14:28.0 
-1.0 1:2.0 7:6.0 8:44.0 12:329.0 14:19.0 16:6.0 
-1.0 8:36.0 12:226.0 14:39.0 20:1.0 
-1.0 3:835.0 8:4.0 12:275.0 
-1.0 1:37.0 5:25.0 9:2.0 12:222.0 14:87.0 
-1.0 1:2.0 5:3.0 8:3.0 12:80.0 14:12.0 
-1.0 5:9.0 12:62.0 14:5.0 
-1.0 8:111.0 12:91.0 14:4.0 
-0.8978555792285752 7:1.0 8:4.0 12:51.0 
-1.0 8:22.0 12:77.0 14:5.0 
-1.0 12:397.0 14:91.0 
-0.8879129576234583 12:990.0 
-1.0 9:16.0 12:189.0 14:89.0 16:2.0 
-1.0 12:1031.0 14:83.0 
-1.0 1:9.0 4:5.0 8:8.0 12:128.0 14:13.0 
-1.0 8:36.0 12:2197.0 14:444.0 
-0.724424212635433 8:3.0 12:106.0 14:9.0 
-1.0 12:140.0 14:45.0 
-0.7055515384466791 12:148.0 
-1.0 5:44.0 8:309.0 12:204.0 14:30.0 
-1.0 5:265.0 12:395.0 
-1.0 8:21.0 12:44.0 14:2.0 
-1.0 12:278.0 14:7.0 
-0.5715708824453568 12:162.0 14:1.0 
-0.2583839591442795 12:112.0 14:22.0 
-1.0 12:243.0 
-1.0 3:354.0 12:509.0 14:1018.0 
-1.0 4:29.0 12:851.0 14:146.0 
-1.0 12:118.0 14:8.0 
-1.0 5:20.0 12:105.0 14:8.0 
-1.0 8:131.0 12:137.0 14:79.0 
-0.5342683519343899 12:55.0 
-1.0 8:4.0 9:5.0 12:3075.0 14:82.0 
-1.0 8:10.0 12:24.0 14:186.0 
-1.0 1:75.0 9:5.0 12:412.0 14:100.0 
-1.0 12:2356.0 14:33.0 
-1.0 8:93.0 12:409.0 14:19.0 
-0.22605051412508742 12:126.0 
-1.0 12:24.0 14:45.0 
-1.0 4:4.0 5:8.0 9:1.0 12:354.0 18:32.0 
-1.0 12:140.0 
-1.0 5:46.0 8:2.0 12:428.0 
-1.0 12:69.0 14:56.0 
-0.6490134057308168 12:348.0 
-1.0 9:13.0 12:174.0 14:23.0 
-1.0 5:81.0 9:4.0 12:485.0 14:40.0 
-1.0 9:1.0 12:43.0 14:22.0 
-1.0 8:2.0 12:550.0 14:9.0 18:7.0 
-1.0 1:6.0 12:650.0 14:7.0 
-0.5129327614052328 12:88.0 14:1.0 
-1.0 12:1075.0 14:139.0 
-0.4488558940657887 12:114.0 14:5.0 
-1.0 12:656.0 
-1.0 9:14.0 12:3330.0 14:144.0 
-1.0 4:37.0 12:42.0 
-1.0 12:514.0 14:11.0 16:19.0 
-1.0 1:1.0 3:523.0 9:2.0 12:427.0 14:69.0 
-1.0 5:96.0 12:2106.0 14:13.0 
-1.0 5:6.0 12:169.0 18:1.0 
-1.0 3:24.0 12:688.0 16:2.0 
-1.0 9:1.0 12:145.0 14:10.0 
-0.8031742780468589 12:55.0 14:14.0 
-0.4955948783168345 12:57.0 14:6.0 
-1.0 12:252.0 14:10.0 16:6.0 18:9.0 
-1.0 5:4.0 12:607.0 13:50.0 14:22.0 
-1.0 3:70.0 5:9.0 7:51.0 12:253.0 14:18.0 
-1.0 12:20.0 14:34.0 
-1.0 5:27.0 12:346.0 14:40.0 
-1.0 8:108.0 12:24.0 14:8.0 
-1.0 5:67.0 12:91.0 14:10.0 
-1.0 3:56.0 4:1.0 7:138.0 12:482.0 14:54.0 
-1.0 1:2.0 12:124.0 13:2.0 14:17.0 
-1.0 7:59.0 12:39.0 14:24.0 
-1.0 7:23.0 12:337.0 14:51.0 
-1.0 3:27.0 4:3.0 12:270.0 14:11.0 
-1.0 8:8.0 12:73.0 
-1.0 3:2.0 8:2.0 12:239.0 14:77.0 
-1.0 8:253.0 12:1162.0 14:35.0 
-1.0 1:13.0 3:4.0 4:1.0 12:71.0 
-1.0 8:1.0 12:30.0 14:43.0 
-1.0 4:3.0 12:1372.0 
-1.0 1:97.0 5:10.0 7:37.0 12:801.0 14:237.0 18:8.0 20:265.0 
-1.0 8:4.0 12:146.0 14:18.0 
-1.0 8:63.0 12:1535.0 14:3.0 
-1.0 12:232.0 14:65.0 
-1.0 8:39.0 9:4.0 12:200.0 14:6.0 
-1.0 12:51.0 14:11.0 18:8.0 
-1.0 3:2.0 5:35.0 12:2121.0 14:253.0 
-0.9800340349344429 12:134.0 14:33.0 
-1.0 5:6.0 8:2.0 12:634.0 14:57.0 
-0.81877494729494 8:2.0 12:306.0 
-1.0 5:29.0 12:12287.0 18:9.0 
-1.0 8:306.0 12:861.0 14:8.0 
-1.0 5:123.0 9:1.0 12:456.0 14:15.0 
-1.0 8:14.0 12:45.0 14:6.0 
-1.0 5:107.0 12:1167.0 14:29.0 
-1.0 8:19.0 12:3137.0 
-1.0 5:104.0 12:32.0 
-1.0 3:10.0 8:11.0 12:564.0 
-1.0 8:24.0 9:11.0 12:6704.0 14:120.0 16:2.0 
-1.0 4:14.0 5:49.0 8:13.0 12:1361.0 14:8.0 
-1.0 5:18.0 12:2478.0 14:12.0 
-0.33223575036433006 12:58.0 14:10.0 
-1.0 12:9855.0 14:11.0 18:6.0 
-1.0 1:8.0 7:290.0 8:140.0 12:2653.0 14:1037.0 
-1.0 12:471.0 14:69.0 
-1.0 4:19.0 5:32.0 12:155.0 
-0.9890754612607017 8:1.0 12:174.0 14:8.0 
-1.0 8:41.0 12:292.0 14:31.0 
-1.0 12:980.0 
-1.0 1:42.0 4:83.0 8:9.0 9:14.0 12:113.0 14:23.0 
-1.0 12:217.0 14:18.0 
-0.896006976452689 12:219.0 
-1.0 12:3484.0 14:513.0 
-1.0 3:6.0 5:60.0 12:92.0 14:3.0 
-1.0 3:18.0 12:1004.0 14:62.0 
-0.7081906782295748 8:3.0 12:98.0 
-1.0 1:2.0 3:2.0 4:85.0 5:553.0 8:26.0 12:7489.0 14:128.0 
-1.0 5:3.0 7:329.0 8:102.0 12:531.0 14:19.0 
-1.0 8:24.0 12:74.0 14:29.0 
-1.0 1:72.0 4:10.0 12:164.0 14:76.0 
-0.8404297953608517 8:21.0 12:31.0 14:5.0 
-1.0 5:10.0 8:3.0 12:256.0 14:26.0 
-1.0 9:1.0 12:250.0 14:3.0 
-0.8466656412820637 1:1.0 3:4.0 12:81.0 14:6.0 
-0.8726183446170543 12:479.0 
-1.0 8:22.0 12:34.0 14:11.0 
-1.0 4:73.0 5:10.0 8:46.0 12:165.0 14:14.0 
-1.0 1:8.0 12:127.0 14:30.0 
-1.0 7:198.0 12:408.0 14:98.0 
-1.0 1:7.0 12:191.0 14:6.0 
-0.6876485973401293 12:151.0 
-1.0 3:13.0 8:5.0 12:1079.0 
-0.4461290743942187 12:52.0 14:9.0 
-0.5490909743135852 12:67.0 14:11.0 
-1.0 1:2.0 3:8.0 12:214.0 14:18.0 
-0.5208223720578333 4:2.0 12:82.0 14:2.0 
-1.0 12:98.0 14:22.0 
-1.0 12:1070.0 14:75.0 
-0.8084838055324655 8:2.0 12:45.0 14:4.0 
-1.0 5:80.0 8:46.0 9:2.0 12:136.0 14:11.0 
-1.0 4:4.0 5:11.0 8:40.0 12:1019.0 14:41.0 
-1.0 12:1421.0 
-1.0 5:47.0 12:167.0 14:17.0 
-1.0 4:1.0 8:8.0 9:1.0 12:103.0 14:23.0 
-1.0 4:10.0 5:188.0 12:5787.0 14:100.0 
-0.6998239340934933 4:3.0 12:46.0 14:12.0 
-1.0 5:15.0 12:229.0 14:46.0 
-1.0 5:104.0 12:952.0 14:40.0 
-1.0 8:223.0 12:10.0 14:4.0 
-0.5575732020226633 12:61.0 14:7.0 
-1.0 12:674.0 14:46.0 
-1.0 5:17.0 12:122.0 
-1.0 8:8.0 12:90.0 14:7.0 
-1.0 4:448.0 12:42.0 
-1.0 8:3.0 12:411.0 
-0.33549499125856497 12:53.0 
-0.6976815923820737 12:215.0 16:2.0 
-1.0 8:4.0 12:264.0 14:61.0 
-1.0 4:1.0 5:73.0 8:83.0 12:345.0 14:156.0 
-1.0 3:7.0 4:116.0 5:559.0 7:1.0 12:3844.0 14:275.0 
-1.0 8:11.0 12:601.0 14:9.0 
-1.0 4:1.0 5:37.0 12:856.0 14:204.0 
-1.0 12:52.0 14:23.0 
-1.0 3:23.0 4:3.0 12:88.0 
-1.0 8:5.0 12:270.0 14:136.0 
-0.7114661146387261 5:3.0 12:70.0 14:4.0 
-1.0 1:76.0 4:6.0 5:59.0 8:4.0 9:2.0 12:633.0 14:18.0 
-1.0 3:20.0 5:55.0 12:37.0 14:41.0 
-1.0 4:1.0 8:8.0 12:84.0 13:34.0 
-1.0 12:532.0 14:79.0 
-0.8473622062176623 12:113.0 14:20.0 
-0.9905497645302135 1:2.0 4:1.0 12:189.0 14:11.0 
-1.0 9:1.0 12:265.0 14:8.0 
-1.0 1:6.0 12:291.0 13:38.0 14:9.0 
-1.0 5:17.0 8:4.0 12:459.0 14:576.0 
-1.0 12:1756.0 14:176.0 
-1.0 4:5.0 5:23.0 8:176.0 12:2226.0 14:131.0 16:2.0 18:64.0 
-1.0 12:133.0 14:17.0 16:2.0 
-1.0 5:14.0 8:213.0 9:5.0 12:453.0 14:55.0 
-0.8356514305405482 4:1.0 12:1248.0 
-1.0 1:26.0 5:22.0 12:108.0 13:8.0 14:12.0 
-1.0 5:25.0 8:2.0 12:39.0 14:5.0 
-0.7176396793839795 8:2.0 12:176.0 14:3.0 
-1.0 8:68.0 12:25.0 14:59.0 18:4.0 
-0.636568101148032 12:95.0 14:3.0 
-1.0 5:174.0 12:1416.0 14:125.0 18:1.0 
-1.0 7:51.0 8:1.0 12:55.0 14:12.0 
-1.0 12:77.0 14:98.0 
-1.0 5:7.0 12:281.0 14:68.0 
-1.0 3:3.0 4:39.0 5:15.0 12:184.0 14:4.0 
-1.0 5:33.0 8:82.0 12:34.0 14:10.0 
-1.0 12:1812.0 14:15.0 
-0.3212820855164153 12:71.0 
-1.0 5:51.0 12:977.0 14:31.0 
-1.0 7:76.0 12:15.0 
-1.0 8:8.0 12:215.0 14:7.0 
-0.9496569302419773 12:62.0 
-1.0 1:2.0 9:4.0 12:410.0 14:14.0 
-1.0 12:205.0 
-1.0 8:157.0 12:630.0 14:132.0 
-1.0 1:22.0 3:2.0 8:4.0 12:344.0 
-1.0 5:103.0 8:2.0 12:280.0 14:7.0 
-1.0 3:7.0 12:59.0 
-1.0 1:60.0 12:272.0 14:103.0 16:2.0 
-1.0 1:20.0 3:4.0 9:11.0 12:119.0 14:18.0 
-1.0 8:149.0 12:225.0 14:479.0 
-1.0 5:784.0 12:266.0 14:11.0 
-1.0 9:19.0 12:2985.0 
-1.0 12:506.0 14:10.0 
-1.0 4:2.0 8:108.0 12:147.0 14:4.0 
-1.0 3:44.0 4:1.0 12:126.0 
-1.0 3:599.0 4:19.0 8:19.0 12:1177.0 14:161.0 
-1.0 1:2.0 12:298.0 14:52.0 
-1.0 3:41.0 8:25.0 12:438.0 14:69.0 
-1.0 4:11.0 8:126.0 12:1148.0 14:84.0 
-0.22429537931018265 4:2.0 12:99.0 14:4.0 
-1.0 3:7.0 4:5.0 12:138.0 
-1.0 12:1043.0 14:7.0 
-1.0 4:4.0 12:281.0 13:74.0 14:32.0 
-0.3134517838134352 12:76.0 14:3.0 
-1.0 8:129.0 12:76.0 13:147.0 14:7.0 
-1.0 12:344.0 14:8.0 
-1.0 4:16.0 8:171.0 12:255.0 14:79.0 18:42.0 
-1.0 5:87.0 12:686.0 14:8.0 
-1.0 12:43.0 14:42.0 
-1.0 1:2.0 3:140.0 12:3411.0 13:1.0 14:41.0 
-1.0 12:293.0 14:526.0 
