svm_type c_svc
kernel_type rbf
gamma 0.05
nr_class 2
total_sv 929
rho -0.18590943030974807
label 1 -1
nr_sv 500 429
SV
0.8141106911741327 12:120239.0 
0.8141106911741327 3:915.0 5:27.0 9:15.0 12:29177.0 14:251.0 
0.8141106397417772 3:48.0 12:19715.0 
0.8141106397417772 1:318.0 4:20.0 5:15.0 12:13212.0 14:46.0 18:2.0 
0.814109682151213 4:17.0 8:10.0 12:10796.0 13:3646.0 14:509.0 18:24.0 
0.814109682151213 3:317.0 5:5.0 12:39147.0 14:2816.0 
0.8141092240122283 5:10.0 12:15716.0 
0.8141092240122283 4:1.0 7:6262.0 12:6101.0 14:2170.0 20:32.0 
0.814103249751366 8:8.0 12:44781.0 14:271.0 18:48.0 
0.814103249751366 12:3825.0 14:7578.0 
0.814099660424237 5:314.0 12:11316.0 14:70.0 18:47.0 
0.814099660424237 3:5.0 4:4.0 5:409.0 12:17973.0 14:259.0 
0.8140974624966479 3:10.0 5:1.0 7:1547.0 8:41.0 9:11.0 12:14522.0 14:12.0 
0.8140974624966479 4:465.0 12:6116.0 13:91208.0 14:83.0 20:1.0 
0.8140846010625941 3:2.0 5:48.0 12:16051.0 14:317.0 16:8.0 18:1.0 
0.8140910573621662 5:23.0 8:13.0 12:11849.0 14:92.0 
0.8140787598330144 8:432.0 12:13418.0 
0.8140787598330144 12:26734.0 14:69.0 
0.8140792553230474 4:6.0 12:29323.0 18:6.0 
0.8140792553230474 5:140.0 12:10586.0 14:138.0 16:4.0 
0.8140741473027847 12:13240.0 14:134.0 
0.8140771739075343 8:2.0 12:13637.0 14:90.0 16:39.0 
0.8140732064733667 4:451.0 8:42.0 9:19.0 12:18922.0 14:14.0 
0.8140740640747413 4:8.0 12:31065.0 14:54.0 
0.8140673148882112 5:1.0 12:11947.0 14:1041.0 
0.8140724430042958 4:91.0 12:108716.0 14:339.0 
0.8140553449524007 8:18.0 12:16458.0 14:54.0 
0.8140616761592585 12:12031.0 14:68.0 16:34.0 
0.8140111611330056 12:8578.0 14:2085.0 
0.8140204652352765 12:11932.0 14:44.0 
0.8139866596622038 3:138.0 12:11841.0 14:13.0 16:10.0 
0.8139889014262638 5:215.0 12:36795.0 14:84.0 
0.8139679514474119 8:66.0 12:17399.0 14:4.0 
0.8139679514474119 8:3130.0 12:1465.0 14:7962.0 
0.8139386324477551 3:644.0 12:18438.0 14:3.0 
0.8139520271723795 5:115.0 8:59.0 12:15592.0 14:306.0 
0.8139330550823516 12:11913.0 
0.8139330550823516 12:15824.0 
0.8138971404601698 4:3.0 5:750.0 12:14560.0 14:192.0 
0.813913476657019 12:31145.0 
0.8138714673972642 1:169.0 2:6.0 3:1.0 4:28.0 7:9.0 8:62.0 12:10132.0 13:614.0 14:270.0 
0.8138714673972642 1:1.0 3:39828.0 12:1995.0 14:1918.0 
0.8138566458668506 3:1.0 4:865.0 5:452.0 12:21002.0 13:250.0 14:94.0 16:8.0 18:9.0 
0.8138566458668506 5:5.0 12:6645.0 14:17907.0 
0.8138478139712608 1:1.0 7:1360.0 12:13414.0 14:166.0 
0.8138497639119607 3:238.0 4:27.0 5:1964.0 8:100.0 12:15140.0 14:512.0 18:32.0 
0.813817252936273 12:36176.0 14:31.0 
0.813821806320622 3:3.0 5:95.0 12:17258.0 13:628.0 14:91.0 
0.8137952669432376 12:6107.0 14:8972.0 16:2.0 18:22.0 
0.8138104101063335 3:197.0 5:903.0 7:72.0 8:4.0 9:13.0 12:12916.0 14:139.0 
0.8137947216814689 3:5.0 4:5.0 12:12436.0 14:138.0 18:25.0 
0.813795263233017 12:22508.0 14:169.0 16:35.0 
0.8137914259029931 9:16.0 12:15152.0 14:333.0 
0.8137914259029931 1:136.0 8:7.0 12:13390.0 14:2109.0 
0.813774650703534 8:280.0 12:22348.0 14:2.0 
0.8137753723376727 8:48.0 12:13271.0 14:53.0 
0.8143079454591569 12:13081.0 14:8.0 
0.8142856147657686 1:7.0 3:339.0 5:232.0 12:2461.0 13:76080.0 14:1185.0 16:22.0 18:6.0 
0.81428216057905 1:1.0 3:198.0 5:6.0 8:12.0 12:18105.0 14:141.0 
0.813965607556965 12:42040.0 
0.8140632081050844 12:11783.0 18:11.0 
0.8143810111194419 1:97.0 4:138.0 8:4.0 9:21.0 12:6183.0 13:20989.0 14:2256.0 16:46.0 
0.8146758820770725 5:213.0 12:16854.0 14:186.0 
0.8141390903433253 12:17726.0 14:14.0 
0.8140627232505443 12:11591.0 14:22.0 
0.8140621718185175 8:10.0 12:13756.0 14:156.0 
0.8141263321343689 3:13459.0 
0.813990942370724 12:15662.0 
0.790089002624794 3:5.0 12:11344.0 
0.8139623334384611 8:1686.0 12:8072.0 14:1279.0 
0.8140794147673123 7:182.0 12:22729.0 14:245.0 
0.8141177161468517 4:16.0 5:168.0 12:12321.0 14:282.0 
0.8141118066286437 1:125.0 5:55.0 8:2.0 12:21878.0 14:189.0 18:795.0 
0.8140554494811896 5:56.0 12:103364.0 13:1.0 14:212.0 
0.8139522688565988 1:144.0 12:24805.0 
0.813990942370724 3:1.0 4:25.0 5:76.0 12:15161.0 13:1.0 14:269.0 16:18.0 
0.8139386341776356 3:98.0 5:21.0 8:42.0 12:31243.0 14:519.0 18:36.0 
0.8141089080385707 4:79.0 5:57.0 9:7.0 12:22251.0 14:375.0 
0.8142350022256495 12:11211.0 
0.8140812830710089 4:102.0 7:668.0 8:2.0 12:21458.0 13:108.0 14:117.0 
0.8140996817146264 1:3.0 3:799.0 4:2.0 7:2.0 12:9416.0 14:331.0 18:10.0 
0.8139331301401359 12:12480.0 14:3.0 
0.8140456140702121 12:21894.0 16:8.0 
0.8139623334384611 1:4.0 3:29.0 4:12.0 5:173.0 9:5.0 12:14017.0 14:655.0 16:1.0 
0.8146725965863404 3:2.0 5:2399.0 12:10146.0 13:4.0 14:572.0 18:109.0 
0.814061198960566 1:28.0 7:3378.0 9:22.0 12:5203.0 13:1682.0 14:168.0 
0.814111173511342 4:2.0 12:21340.0 14:51.0 
0.8142229202228976 1:4.0 4:12.0 5:300.0 7:2234.0 9:9.0 12:14711.0 14:2.0 
0.8142046504119598 5:358.0 12:10589.0 14:348.0 
0.814113921094815 5:507.0 12:42075.0 14:2.0 
0.8143061929600697 1:60.0 12:14085.0 14:420.0 
0.8127912224675657 12:11829.0 
0.814100149943445 1:1.0 3:1562.0 4:5.0 12:9041.0 14:92.0 
0.8141121652667508 12:13130.0 
0.8142028787577151 12:34108.0 16:28.0 
0.8138982601717306 12:13784.0 14:217.0 
0.8140910573621662 12:30177.0 
0.8143810111194419 12:747.0 13:12707.0 14:178.0 16:30.0 18:19.0 
0.8141252388925806 3:1305.0 4:56.0 5:211.0 12:10349.0 14:158.0 
0.8141111990226519 8:17048.0 12:39.0 
0.8141010690858113 3:9.0 12:20966.0 
0.8140499477951151 3:47.0 9:59.0 12:10283.0 14:225.0 
0.8141070226350142 12:11447.0 14:19.0 
0.8140616427006235 1:23.0 4:2.0 5:566.0 12:11102.0 14:212.0 16:37.0 
0.814113921094815 12:117662.0 
0.8141125290790285 12:21811.0 
0.8141054564345784 12:21353.0 14:283.0 
0.8140483260318923 4:101.0 12:452697.0 14:498.0 
0.8141019528647102 12:19117.0 
0.8140917259563112 4:50.0 5:11.0 8:21.0 12:24857.0 13:4220.0 14:323.0 18:105.0 
0.8140974624966479 12:66258.0 
0.8140553449524007 4:1.0 8:2.0 12:16141.0 14:2229.0 
0.8142831247412878 5:50.0 12:22034.0 14:358.0 18:4.0 
0.814280967519233 12:29840.0 14:5.0 16:2.0 
0.8146270352807596 4:1.0 12:12687.0 14:98.0 
0.8142046504119598 1:938.0 4:92.0 8:22.0 9:9.0 12:10276.0 
0.813990942370724 12:53901.0 
0.81391469295696 5:23.0 12:68050.0 14:11830.0 
0.8139511806154089 3:15514.0 4:5.0 12:595.0 
0.8139256835279645 4:1.0 12:11619.0 14:60.0 
0.8139330550823516 7:297.0 8:2.0 12:20175.0 18:4.0 
0.8141111990226519 4:5.0 12:26059.0 
0.8140734724592111 1:204.0 4:150.0 8:19.0 9:23.0 12:20106.0 14:198.0 
0.814109682151213 12:14500.0 14:1614.0 
0.8141019528647102 5:33.0 12:10841.0 13:167.0 14:286.0 16:4.0 
0.8146821934392905 3:73.0 12:14992.0 14:148.0 
0.8140875485161319 12:3962.0 14:9523.0 
0.8138104101063335 3:181.0 12:23878.0 
0.8142028825431198 4:1044.0 5:12.0 9:3.0 12:10072.0 14:36.0 16:4.0 
0.8137853932842749 3:18.0 7:163.0 12:31804.0 14:130.0 16:20.0 
0.81428216057905 1:2.0 8:1.0 9:8.0 12:27133.0 14:51.0 
0.8141104617897789 1:32.0 8:46.0 12:17656.0 14:306.0 
0.8140616426421144 5:1816.0 12:23679.0 14:6.0 
0.8140604345738471 12:14832.0 
0.8141010690858113 12:19809.0 
0.8140741023340698 1:18.0 7:216.0 12:10559.0 14:7774.0 18:62.0 
0.8140771739075343 1:45.0 4:2.0 12:45221.0 14:34.0 
0.8140648478074254 12:12431.0 
0.8139679514474119 4:1.0 12:119066.0 14:31.0 
0.8138566458668506 1:176.0 4:3.0 9:25.0 12:9798.0 14:2224.0 
0.8138173105651734 4:4.0 5:18.0 12:16311.0 14:33.0 
0.8137914259029931 3:7.0 5:37.0 12:13781.0 14:167.0 
0.8139571170947009 4:3.0 5:61.0 8:664.0 12:27508.0 
0.8141241854658381 4:2.0 12:18674.0 14:227.0 
0.81428216057905 12:15184.0 14:4.0 
0.8143271762164219 12:13511.0 
0.8142643796261217 3:2.0 4:74.0 5:110.0 8:1.0 9:19.0 12:34928.0 13:4.0 14:314.0 16:6.0 18:10.0 20:47.0 
0.8141188354285614 1:5.0 3:17.0 4:6.0 12:6459.0 14:4096.0 
0.8140511891096083 12:34789.0 14:163.0 
0.8140411109961562 3:8.0 12:10626.0 13:1.0 14:353.0 
0.8140430068087681 5:48.0 9:7.0 12:11608.0 14:963.0 18:5.0 
0.8140485248193672 2:5.0 10:1.0 12:21379.0 14:310.0 18:7.0 
0.8140616427006235 8:6.0 12:12939.0 14:1.0 
0.8140702402894195 7:410.0 12:147.0 14:10119.0 18:80.0 
0.8140860748082757 1:7.0 3:1414.0 12:18526.0 14:1069.0 
0.8140872226806031 12:12281.0 14:86.0 
0.8140996817146264 3:1.0 4:1.0 5:1506.0 12:12563.0 14:163.0 
0.8141010690858113 12:9396.0 14:5330.0 18:14.0 
0.8140995992135118 3:119.0 12:11561.0 14:54.0 
0.8141054564345784 12:11881.0 14:187.0 16:12.0 
0.814107448689917 8:442.0 12:10575.0 14:19.0 
0.8141069169028188 1:102.0 5:89.0 12:9735.0 14:488.0 16:50.0 18:16.0 
0.8141104617897766 8:36.0 12:16942.0 14:97.0 
0.8141114871795051 1:184.0 3:22.0 5:2.0 9:10.0 12:27286.0 13:79.0 14:258.0 16:41.0 
0.814113921094815 1:311.0 3:3.0 4:41.0 12:24191.0 13:1180.0 14:210.0 18:14.0 
0.8141130851838513 5:190.0 12:10097.0 14:465.0 
0.8141177161468512 1:93.0 4:15.0 12:16007.0 14:92.0 
0.8141153857319956 5:1324.0 12:42331.0 14:121.0 
0.814111173511342 3:868.0 5:29.0 8:7.0 9:34.0 12:22201.0 14:75.0 
0.8141111990226519 5:35.0 7:1841.0 12:15228.0 14:1.0 
0.8141111058168885 8:104087.0 12:2017.0 
0.8141102122750667 4:44.0 7:2343.0 9:12.0 12:12383.0 13:77.0 14:177.0 16:1.0 20:703.0 
0.8141108661861399 3:169.0 4:206.0 8:2.0 12:8446.0 14:1832.0 
0.8141092786297394 1:4.0 3:22.0 7:7442.0 9:10.0 12:53094.0 14:66.0 
0.8141019528647102 3:38.0 7:4032.0 12:6716.0 14:10.0 18:675.0 
0.8140974624966479 4:29232.0 5:145.0 9:5.0 12:1005.0 14:38.0 
0.8140910573621662 1:1958.0 9:15.0 12:10246.0 14:26.0 
0.8140812830710089 1:3.0 3:203.0 8:551.0 9:85.0 10:24.0 11:331.0 12:1546.0 13:17419.0 15:62.0 17:6.0 
0.8140794147673123 1:404.0 4:64.0 12:10036.0 14:2390.0 
0.8140771739075343 1:2.0 12:51680.0 14:27.0 
0.8140740640747413 5:34.0 12:19539.0 
0.8140724430042958 5:222.0 12:10707.0 14:148.0 16:2.0 
0.8121452266556449 12:11818.0 
0.8140621718185175 4:112.0 9:23.0 12:20549.0 14:5.0 
0.8140538677895733 12:36.0 14:13526.0 
0.8140049784676152 1:2.0 4:10.0 5:60.0 12:12058.0 14:12.0 
0.8139679514474119 3:12.0 5:304.0 12:20652.0 
0.8139564674028212 5:123.0 7:2126.0 9:2.0 12:8432.0 14:43.0 
0.8139330550823516 12:26697.0 14:5734.0 
0.81391469295696 8:641.0 12:14768.0 
0.8138820467267527 1:2.0 12:19262.0 14:9.0 
0.8138599164590491 4:14.0 5:86.0 7:549.0 12:25483.0 14:29.0 20:107.0 
0.8138497639119607 8:15.0 12:16923.0 
0.8138238001330174 4:6.0 5:38.0 12:12635.0 14:14.0 18:17.0 
0.8138104101063335 4:36.0 8:25.0 9:25.0 12:12067.0 14:166.0 
0.813795263233017 5:27.0 9:1.0 12:53584.0 14:7.0 
0.8137916472011402 12:22441.0 
0.8137853932842749 12:16307.0 14:132.0 
0.81428216057905 1:224.0 3:90.0 5:68.0 9:77.0 12:5571.0 14:4086.0 20:699.0 
0.8140611989321987 1:1.0 4:1.0 5:4.0 8:2.0 12:12403.0 14:34.0 
0.8140547718024064 1:5.0 3:22.0 7:214.0 12:21869.0 14:147.0 
0.8144622451005309 12:39269.0 16:6.0 
0.8147149751417799 3:49.0 4:5.0 12:20264.0 13:1733.0 14:2080.0 18:36.0 
0.8139642952500601 5:74.0 12:21300.0 14:1932.0 
0.8142134194673757 5:71.0 9:13.0 12:13247.0 14:75.0 18:7.0 
0.8142844456186037 12:10633.0 
0.8141055296304736 5:223.0 12:11583.0 16:10.0 
0.8141092786297394 3:24.0 4:1.0 12:20885.0 14:11849.0 16:4.0 
0.8140862210826592 12:18807.0 
0.8140974624966479 1:35.0 7:785.0 9:5.0 12:16625.0 14:219.0 
0.8141177161468418 1:2.0 9:4.0 12:11174.0 14:24.0 
0.8141069169028188 1:105.0 3:42210.0 4:3.0 5:501.0 9:24.0 12:4812.0 14:18.0 
0.8140451425696065 3:415.0 4:66.0 8:24.0 12:14135.0 14:546.0 18:24.0 
0.8141111058168885 5:36.0 8:1.0 12:12387.0 14:55.0 
0.8140732064733667 7:14979.0 12:1847.0 
0.8141106397417772 3:1172.0 8:3.0 12:15744.0 14:109.0 
0.8143271762164219 1:11.0 4:1884.0 5:1922.0 9:45.0 12:10340.0 14:236.0 
0.8141177161468512 8:99.0 12:10609.0 
0.8139623334384611 5:695.0 8:7.0 12:10352.0 
0.8142379687236659 12:13148.0 14:262.0 
0.8139386324477551 3:47.0 5:114.0 12:618.0 13:11220.0 14:26.0 18:10.0 
0.8138714673972642 3:3335.0 12:9690.0 14:407.0 
0.8137746546045557 5:49267.0 12:3439.0 14:31.0 18:10.0 
0.8137914259029931 4:3.0 5:176.0 12:10652.0 14:160.0 
0.814109682151213 8:1900.0 12:4.0 14:11541.0 
0.8141102122750667 4:49.0 8:2.0 12:13066.0 14:235.0 
0.8139679514474119 3:1.0 12:37691.0 14:21.0 
0.8141054304723465 5:127.0 12:23547.0 14:2344.0 
0.8140724430042958 3:107.0 5:26.0 12:12625.0 14:2213.0 
0.8138566458668506 5:1774.0 12:14716.0 14:36.0 
0.8142856147657686 8:3.0 12:17426.0 14:14.0 
0.8142350022256495 3:1.0 4:25.0 5:36.0 12:14950.0 14:227.0 16:26.0 
0.814099660424237 5:4018.0 9:20.0 12:11110.0 18:77.0 
0.8140604376246339 5:8433.0 9:1.0 12:2344.0 14:25.0 
0.8141106911741327 4:48.0 8:4.0 12:12499.0 14:63.0 
0.8140862210826592 4:3.0 5:131.0 8:89.0 12:17748.0 14:261.0 
0.814045139916517 5:1.0 8:1.0 12:14003.0 14:34.0 
0.8140974624966479 12:13232.0 14:35.0 
0.8138982601717306 5:5.0 9:13.0 12:7543.0 14:3091.0 
0.8142688037000335 1:2.0 3:159.0 4:9.0 5:193.0 7:46.0 12:16124.0 14:98.0 
0.8140411109961562 3:1.0 4:9927.0 5:415.0 8:8.0 9:13.0 12:1051.0 14:21.0 
0.8138714673972642 12:30199.0 14:211.0 
0.8139866596622038 8:17281.0 14:3.0 
0.8139911255619381 12:11071.0 
0.8142134194673757 3:66.0 4:1.0 5:321.0 12:15765.0 14:377.0 
0.8139642952500601 4:4.0 5:52.0 12:12436.0 14:330.0 
0.8142932395471204 5:19200.0 12:2575.0 14:74.0 
0.8139330550823516 8:1144.0 12:10371.0 
0.8140611990808607 12:10874.0 14:29.0 
0.8141115802938556 9:19.0 12:45106.0 14:242.0 
0.8141177161468511 5:751.0 8:178.0 12:15627.0 18:87.0 
0.8144622451005309 4:3848.0 12:6908.0 14:1.0 
0.814103249751366 1:1.0 5:17.0 12:36256.0 14:53.0 
0.8141177161468511 12:29547.0 
0.814061198960566 1:4.0 2:10.0 3:228.0 4:362.0 5:39.0 6:2663.0 7:5316.0 8:1131.0 9:1383.0 12:991.0 13:237.0 15:272.0 18:631.0 
0.8142139961470256 5:15.0 7:1206.0 12:16457.0 14:309.0 
0.8143657674961792 5:1.0 12:11357.0 14:7570.0 16:6.0 
0.8140974624966479 4:11827.0 9:5.0 12:110.0 14:40.0 
0.8142794236951545 1:33.0 4:1.0 7:48.0 9:2.0 12:13775.0 14:54.0 20:6.0 
0.8144837394165367 4:92.0 5:137.0 12:26075.0 13:52.0 14:79.0 
0.8145282011578545 5:374.0 12:13166.0 14:353.0 16:14.0 
0.8142779687983861 12:20082.0 14:23.0 
0.814280967519233 3:51.0 4:1.0 12:17856.0 16:27.0 
0.8147084736764773 12:13085.0 14:23.0 16:5.0 
0.5672268053148409 12:11374.0 14:2.0 
0.8140616426421144 12:10468.0 13:1.0 14:617.0 
0.8140862210826592 3:112.0 4:3.0 12:15740.0 
0.8140862210826592 4:9.0 12:22681.0 
0.8141055296304736 12:18288.0 14:5.0 
0.8141104617897766 4:4.0 7:966.0 12:11623.0 14:626.0 
0.814113921094815 1:3.0 3:94.0 12:11365.0 14:22.0 
0.8141139210948148 3:2.0 12:48527.0 
0.8141153857319956 12:104726.0 
0.8141164371312386 3:6.0 4:6.0 5:17.0 12:26825.0 
0.604980368386752 12:11378.0 
0.8141143253231401 3:21.0 12:21282.0 14:304.0 
0.8139459414659869 3:119.0 4:4.0 7:6326.0 8:24.0 12:4019.0 
0.8138104101063335 12:13383.0 16:16.0 
0.8140740640747413 1:192.0 4:3.0 12:36099.0 14:605.0 
0.8141108661861399 3:1.0 4:1.0 5:843.0 12:9617.0 14:227.0 
0.814103249751366 12:14532.0 14:201.0 
0.8147149751417799 3:7.0 5:381.0 8:12.0 12:27929.0 14:208.0 
0.8140547718024064 5:14.0 12:15370.0 14:19.0 
0.8142134194673757 8:568.0 12:102768.0 14:3.0 
0.8141153857319956 1:2.0 3:21.0 4:43.0 8:357.0 12:12287.0 
0.8140451425696065 3:31.0 4:2.0 5:55.0 9:3.0 12:19088.0 14:30.0 
0.8141055296304736 3:242.0 4:123.0 5:91.0 8:2.0 12:10324.0 14:40.0 18:4.0 
0.8141006535129834 3:48.0 5:33.0 9:4.0 12:13623.0 14:93.0 16:4.0 
0.8140611989321987 8:4.0 12:23608.0 
0.8141092786297394 7:2.0 12:45165.0 14:63.0 
0.8141130851838524 7:2122.0 8:8.0 12:184.0 13:11464.0 14:21.0 
0.8141106911741327 5:7.0 12:21044.0 14:8.0 
0.8141164371312386 12:13197.0 
0.8141143253231401 1:9.0 8:3.0 9:2.0 12:12185.0 14:172.0 
0.813795263233017 3:33.0 4:87.0 5:500.0 7:11652.0 8:2.0 9:3.0 12:5207.0 14:179.0 16:8.0 
0.8141011834935448 4:38.0 12:6274.0 14:7755.0 
0.8140910573621662 1:543.0 4:35.0 5:11.0 12:38609.0 13:202.0 14:105.0 16:14.0 
0.8140787598330144 5:4.0 12:11523.0 14:134.0 
0.8141077209435882 1:15.0 5:537.0 12:10004.0 14:76.0 16:29.0 18:6.0 
0.8140742604822924 4:1.0 9:3.0 12:15528.0 14:60.0 
0.8138318353064817 4:146.0 7:108.0 12:12874.0 14:365.0 16:9.0 17:1.0 
0.8141106397417772 4:31.0 12:19837.0 14:203.0 
0.7901542774203214 12:11341.0 14:6.0 
0.8140862210826592 4:4.0 12:11479.0 14:1272.0 
0.8140771739075343 3:4.0 5:147.0 7:1103.0 12:10452.0 14:5.0 
0.814367450773716 3:7.0 4:103.0 5:28.0 7:265.0 8:128.0 9:15.0 11:20.0 12:13371.0 13:42.0 14:44.0 
0.8140792553230474 7:361.0 12:18336.0 14:131.0 
0.813795263233017 3:14.0 5:2359.0 12:14127.0 14:113.0 
0.8140897006054011 8:16922.0 12:15.0 14:5.0 
0.8140792553230474 5:336.0 7:394.0 12:12258.0 14:107.0 
0.8140740640747413 8:29.0 12:19016.0 
0.8141133895684172 3:76.0 5:71.0 12:18141.0 14:620.0 
0.8144900187631379 8:2.0 12:32132.0 
0.7543848251986173 4:1.0 12:11359.0 
0.8141111058168885 1:117.0 4:43.0 5:41.0 12:13689.0 13:3256.0 14:11.0 
0.8140547718024064 4:18.0 12:20820.0 14:11.0 
0.8140529189700346 12:21056.0 14:37.0 
0.8142844456186037 1:19079.0 4:3793.0 9:2.0 12:329.0 14:14.0 16:6.0 
0.8141092240122283 12:13664.0 14:189.0 
0.8141133895684172 5:15.0 9:25.0 12:13153.0 14:214.0 
0.8140529189700346 1:18.0 8:6.0 12:17941.0 14:27.0 
0.8140724430042958 4:71.0 7:8.0 12:7561.0 14:5844.0 20:29.0 
0.8141153857319956 12:13111.0 14:75.0 
0.8141933497049609 4:71.0 5:15.0 8:8.0 12:10214.0 13:403.0 14:13.0 16:9.0 
0.8141108661861399 1:167.0 3:1.0 4:48.0 5:439.0 9:91.0 12:10107.0 14:240.0 
0.8141104617897766 8:18037.0 12:281.0 
0.8140049784676152 8:57.0 12:37852.0 14:47.0 18:57.0 
0.8140015372687058 3:27.0 5:3.0 12:23575.0 
0.8142134194673757 2:3.0 4:2.0 5:339.0 8:2.0 12:10691.0 14:91.0 
0.8140792829685166 3:47.0 5:173.0 12:12810.0 14:214.0 
0.7325543560107641 12:11366.0 
0.8143061929600697 12:14889.0 14:3017.0 
0.8141054564289381 8:3.0 12:11366.0 14:23.0 
0.8140673148882112 12:58808.0 
0.814136176128603 12:28452.0 16:22.0 
0.8140204652352765 5:383.0 7:1063.0 12:9233.0 14:162.0 
0.814280967519233 4:34.0 12:544.0 13:9832.0 14:66.0 18:4.0 20:23.0 
0.8141070226350073 1:212.0 4:27.0 7:3902.0 12:8068.0 14:209.0 
0.814107448689917 3:18.0 4:22.0 12:105247.0 
0.8140860748082757 2:3.0 4:6.0 12:5940.0 13:4330.0 14:259.0 16:7.0 18:4.0 
0.8138971552334284 4:197.0 12:30795.0 14:3.0 
0.8141130851838256 12:11144.0 14:6.0 
0.8141102122750667 4:1.0 12:15799.0 14:3884.0 
0.8141133895684172 12:6803.0 14:8976.0 
0.8142108274695632 12:15390.0 14:56.0 
0.8141130851838513 1:4.0 6:35.0 12:56391.0 14:70.0 
0.814099660424237 3:127.0 5:29.0 12:31443.0 14:21.0 
0.8142028825431198 12:24101.0 18:1.0 
0.8140486263931666 5:195.0 12:16956.0 14:16.0 
0.8140730401717692 3:4.0 12:17151.0 14:39.0 
0.8140872226806031 3:46.0 4:7.0 5:2952.0 12:19420.0 14:266.0 18:6.0 
0.8141092240122283 1:1.0 4:48.0 5:2366.0 12:9520.0 14:335.0 18:8.0 
0.8141074512269078 12:22118.0 
0.8139571170947009 12:18675.0 
0.8140995992135118 3:14.0 5:63.0 7:1299.0 8:16.0 12:10476.0 13:190.0 14:26.0 
0.8141104617897225 12:10726.0 
0.8142856147657686 4:32.0 5:108.0 8:12.0 9:80.0 12:14140.0 14:226.0 
0.8138497639119607 12:29027.0 
0.813965607556965 1:1.0 9:2.0 12:17674.0 
0.8139511806154089 1:173.0 4:262.0 7:11848.0 11:1.0 12:3322.0 13:933.0 14:601.0 
0.814105456434504 1:7.0 4:866.0 12:16223.0 14:10944.0 
0.8141139210948148 1:66.0 4:4.0 5:1325.0 9:5.0 12:9831.0 14:310.0 18:12.0 
0.8140483260318923 7:6.0 12:17207.0 14:177.0 
0.8140730401276792 12:5701.0 14:7569.0 
0.8140730401717692 3:36.0 12:15441.0 
0.8140730401276792 4:325.0 8:24.0 12:61451.0 14:10.0 
0.8140485248193672 3:22.0 4:6.0 5:98.0 12:12658.0 14:78.0 
0.8141011834935448 4:8.0 5:89.0 12:11066.0 13:2613.0 14:525.0 16:6.0 18:144.0 
0.8140996817146264 12:16056.0 14:245.0 
0.8140995992135118 12:26737.0 14:1.0 
0.8142844456186037 3:40.0 4:1.0 8:5.0 12:15364.0 14:68.0 
0.8141143253231401 1:4.0 4:3.0 7:5196.0 9:23.0 12:12758.0 14:1931.0 
0.8140812830710089 5:9236.0 12:7361.0 14:65.0 
0.8140702402894195 8:12.0 12:26148.0 
0.814107022634951 5:1.0 12:10748.0 14:11.0 
0.8139675228706111 4:2.0 12:21386.0 13:1931.0 14:54.0 
0.813817252936273 3:14.0 4:6.0 5:1553.0 12:10783.0 14:79.0 
0.8139520271723795 8:17864.0 12:1197.0 
0.8140444535706925 4:47.0 5:623.0 8:7.0 12:11450.0 14:413.0 
0.8138497639119607 5:49.0 7:7952.0 8:3.0 9:2.0 12:2462.0 13:6.0 14:127.0 
0.813821806320622 12:11091.0 14:510.0 
0.813795263233017 12:10792.0 14:257.0 
0.8140430068087681 1:121.0 3:463.0 4:270.0 7:3540.0 9:182.0 12:6593.0 14:217.0 18:50.0 
0.813990942370724 3:12147.0 5:119.0 12:493.0 14:46.0 
0.8140483260318923 8:11592.0 14:5.0 
0.8142687675411066 12:13878.0 
0.8140896928033579 3:52.0 4:4.0 5:562.0 6:2.0 12:10041.0 14:214.0 
0.8144704659332003 12:80796.0 14:65.0 
0.8141104617897766 5:469.0 8:2.0 12:19129.0 14:113.0 
0.814280967519233 3:147.0 4:3.0 5:19.0 12:20060.0 14:431.0 
0.8141993943308011 12:10522.0 14:241.0 
0.8137916472011402 1:3.0 4:2.0 5:56.0 12:13630.0 13:424.0 14:261.0 16:12.0 
0.8141070226350142 8:13394.0 12:5.0 14:1.0 
0.8140896928033579 4:241.0 5:154.0 12:21557.0 14:209.0 
0.8140483260318923 1:2.0 4:10.0 9:3.0 12:13732.0 14:16.0 
0.8139679514474119 12:71399.0 
0.814045139916517 12:139687.0 14:236.0 
0.8140486263642625 4:6.0 12:36081.0 14:5.0 
0.8141981225137509 3:4.0 12:15432.0 
0.8140627232505443 4:41.0 5:307.0 7:4621.0 8:36.0 12:4414.0 13:1257.0 14:2210.0 
0.8137916472011402 5:78.0 12:15422.0 14:20.0 
0.8139889014262638 12:45707.0 
0.8140734724592111 1:17.0 4:19.0 5:291.0 8:36.0 12:4267.0 13:11075.0 14:192.0 
0.8141074512269078 12:12563.0 14:12.0 
0.8140787598330144 4:1.0 5:590.0 8:2.0 12:10798.0 14:113.0 18:1481.0 
0.8140632081050844 3:1.0 4:4.0 5:166.0 9:87.0 12:14356.0 14:579.0 
0.8140862210826592 1:9.0 3:3267.0 4:7.0 12:8450.0 
0.8141234104527743 3:2.0 5:721.0 8:8.0 12:13584.0 14:206.0 
0.8140875484725836 1:17.0 5:21.0 8:4.0 12:147645.0 13:203.0 18:7.0 
0.8140741473027847 12:15304.0 
0.8141121652667144 4:3.0 12:11168.0 
0.8141011834935448 8:12.0 12:19843.0 14:1.0 
0.8141054304723465 1:14.0 3:11.0 4:4.0 9:15.0 12:25194.0 14:1212.0 16:54.0 
0.8140486263642625 12:12806.0 14:2572.0 
0.8141139210948148 4:37.0 8:14.0 12:11412.0 14:178.0 
0.814100149943445 3:2588.0 4:3.0 7:24.0 9:12.0 12:8842.0 14:331.0 20:1962.0 
0.8141055296304736 1:5.0 4:22.0 9:6.0 12:21504.0 14:36.0 
0.8139911255619381 3:2.0 12:16275.0 14:2157.0 
0.8141074512265745 1:28216.0 4:2265.0 12:2526.0 14:3404.0 
0.814636769597773 3:142.0 4:51.0 12:18328.0 14:66.0 
0.8139632277062884 4:84.0 12:20354.0 14:151.0 
0.8141054304723465 1:6.0 7:4989.0 12:9019.0 14:79.0 
0.814100149943445 5:3660.0 7:1374.0 12:4618.0 14:1250.0 20:10.0 
0.8146725965863404 8:356.0 12:13283.0 14:6.0 
0.8142844456186037 4:65.0 12:29687.0 14:10.0 
0.8140794147673123 5:176.0 8:2.0 12:14988.0 14:103.0 
0.8139564674028212 12:44667.0 
0.8139330550823516 1:265.0 3:19.0 4:13.0 5:16869.0 9:5.0 12:3962.0 14:634.0 18:8.0 
0.8141114871795051 3:282.0 12:66887.0 14:2.0 
0.8143657674961792 1:1.0 3:136.0 4:3.0 5:28.0 12:19040.0 14:93.0 15:72.0 18:1.0 
0.8140875485161319 1:47.0 4:34.0 7:6413.0 9:14.0 12:7025.0 14:202.0 
0.8141115802938556 1:2.0 5:39851.0 12:13919.0 14:5890.0 
0.8141089080385707 8:10008.0 12:9.0 14:17448.0 
0.8141177161468511 3:9.0 4:203.0 8:9.0 12:10655.0 
0.8141164371312386 12:10868.0 
0.8141011834935448 5:86.0 12:11852.0 14:61.0 
0.8141010690858113 1:34.0 5:526.0 12:12387.0 14:158.0 
0.8141125290790285 8:901.0 12:23966.0 14:6.0 
0.8138639541923216 12:28896.0 14:2562.0 
0.8141118066286437 3:8.0 5:37.0 12:10740.0 14:209.0 18:17.0 
0.8137905038885904 12:15417.0 
0.8141139210948148 5:83.0 12:11187.0 14:445.0 
0.8140875484725836 7:10636.0 8:3.0 12:3927.0 18:2418.0 
0.8141133895684172 5:74.0 12:10758.0 18:33.0 
0.8141074512265745 2:1.0 4:49.0 5:1121.0 7:6271.0 12:5714.0 13:2422.0 14:243.0 16:10.0 18:33.0 
0.8140996817146264 3:10.0 4:3.0 5:5403.0 12:5170.0 14:228.0 18:14.0 
0.8141177161468511 3:12.0 4:6.0 5:356.0 12:11655.0 14:45.0 
0.8141164371312386 1:22.0 12:92551.0 14:348.0 
0.8141143253231401 12:104746.0 14:72.0 
0.8141111990226519 8:63.0 12:17140.0 
0.8140486263931666 5:972.0 12:12395.0 13:16719.0 14:603.0 16:19.0 
0.8141111058168885 4:8.0 5:346.0 12:10496.0 14:132.0 
0.8141102122750667 4:1.0 5:392.0 12:13282.0 14:152.0 
0.8141077209435882 3:10.0 12:10676.0 
0.8141118066286439 12:19375.0 
0.8140611960235209 3:8.0 12:14850.0 
0.8141108661861399 1:8.0 12:12482.0 14:82.0 
0.8141092786297394 1:110.0 4:3.0 5:61.0 12:42740.0 14:256.0 20:102.0 
0.8141019528647102 4:5.0 12:17280.0 
0.8140974624966479 1:162.0 4:12.0 8:2.0 12:11012.0 13:3023.0 14:335.0 
0.8140941564596891 5:296.0 12:26629.0 14:272.0 
0.8140547718024064 3:204.0 5:154.0 9:7.0 12:75589.0 14:54.0 18:1.0 
0.8140995992135118 3:3.0 5:16.0 8:15.0 12:23005.0 14:97.0 
0.8139679514474119 3:6.0 4:12.0 5:10.0 12:13063.0 14:310.0 18:1.0 
0.8140812830710089 3:3.0 4:14.0 12:17259.0 14:167.0 
0.8140794147673123 12:17735.0 14:257.0 
0.8140792829685166 5:158.0 12:16521.0 14:86.0 
0.8140742604822924 3:1.0 4:4452.0 5:12.0 12:7758.0 14:157.0 
0.8141054304723465 8:93.0 12:21060.0 14:1.0 
0.8140499477951151 8:186.0 12:13844.0 14:1.0 
0.8140741023340698 3:885.0 12:16058.0 14:258.0 
0.8138238001330174 5:21.0 12:4855.0 14:2341.0 18:21.0 20:5258.0 
0.8142534275106024 4:26.0 5:40.0 8:7.0 12:13338.0 14:146.0 
0.8137853932842749 4:112.0 8:7.0 9:101.0 12:11058.0 14:10.0 
0.8140648478074254 3:49.0 12:12382.0 14:172.0 18:3.0 
0.8138497639119607 1:3.0 7:17992.0 12:446.0 14:8226.0 
0.8139623334384611 4:47.0 5:22708.0 12:578.0 14:40.0 
0.8141267775336307 3:203.0 4:17.0 5:943.0 12:16598.0 14:675.0 
0.8140554494811896 12:13956.0 14:83.0 
0.8140106208461935 1:80.0 2:2.0 3:290.0 4:576.0 8:2.0 9:52.0 12:11022.0 14:296.0 
0.8139679514474119 4:1.0 5:387.0 12:23976.0 14:277.0 
0.8140456140702121 12:24787.0 
0.8139675228706111 4:233.0 5:666.0 9:1130.0 12:9289.0 14:494.0 18:9.0 
0.8139386341776356 1:22.0 4:567.0 12:6244.0 14:389.0 20:4505.0 
0.8139331301401359 1:26.0 4:124.0 5:6773.0 12:3895.0 14:271.0 18:133.0 
0.8140006614131764 1:260.0 4:41.0 5:234.0 9:10.0 12:6721.0 13:5173.0 14:94.0 
0.8138971552334284 3:603.0 4:13.0 5:1270.0 12:15828.0 14:122.0 18:39.0 
0.8138639541923216 4:22.0 12:8626.0 14:4007.0 
0.8138497639119607 3:217.0 12:33649.0 14:276.0 
0.8138318353064817 1:9.0 9:3.0 12:12495.0 14:30.0 
0.8142794236951545 4:4.0 9:1.0 12:16899.0 14:3853.0 
0.8138173105651734 8:2.0 12:10388.0 14:99.0 
0.813795263233017 3:344.0 4:59.0 12:6020.0 14:8914.0 
0.8137916472011402 4:3.0 9:28.0 12:34177.0 14:813.0 
0.8142445489381612 3:21136.0 5:23.0 12:2698.0 14:258.0 
0.8140917259563112 4:36.0 5:840.0 9:20.0 12:18717.0 14:217.0 
0.8140897006054011 4:2302.0 12:15378.0 
0.8137853932842749 3:36.0 4:1.0 5:293.0 9:51.0 12:12489.0 14:204.0 18:6.0 
0.8137746546045557 1:181.0 3:76.0 4:10.0 7:31.0 9:31.0 12:10267.0 14:160.0 
0.814100149943445 12:13449.0 14:321.0 
-0.5999870046286231 1:1.0 8:2.0 12:110.0 14:8.0 
-1.0 3:78.0 12:583.0 14:17.0 
-1.0 12:74.0 14:83.0 
-1.0 8:75.0 12:8.0 14:4.0 
-1.0 5:2.0 12:400.0 14:7.0 
-1.0 12:313.0 
-1.0 5:124.0 12:131.0 14:19.0 
-0.863333550527021 12:63.0 14:15.0 
-1.0 3:41.0 12:226.0 14:106.0 16:16.0 
-1.0 12:446.0 
-1.0 9:1.0 12:17.0 14:55.0 
-0.1880783567269928 12:108.0 
-1.0 7:10.0 9:2.0 12:141.0 14:2.0 
-1.0 5:70.0 12:404.0 13:168.0 14:90.0 
-1.0 5:38.0 8:11.0 12:565.0 14:92.0 
-1.0 5:2.0 12:213.0 14:5.0 
-1.0 4:32.0 8:2.0 12:46.0 
-1.0 3:34.0 12:165.0 14:29.0 
-1.0 1:1.0 12:1068.0 14:121.0 16:4.0 
-1.0 3:4.0 4:210.0 12:361.0 14:19.0 
-1.0 3:52.0 8:395.0 12:1876.0 14:226.0 
-1.0 12:565.0 14:28.0 
-1.0 12:1494.0 
-0.5451832878391283 12:85.0 14:12.0 
-1.0 5:1.0 12:122.0 14:106.0 
-1.0 1:1.0 4:2.0 8:4.0 9:11.0 12:48.0 14:12.0 16:6.0 
-1.0 8:9.0 12:248.0 14:4.0 
-1.0 12:662.0 14:18.0 16:23.0 
-1.0 12:683.0 14:58.0 
-1.0 2:1.0 5:1.0 9:2.0 12:1985.0 14:86.0 
-1.0 8:22.0 12:214.0 14:23.0 
-1.0 1:10.0 12:162.0 
-1.0 8:746.0 12:104.0 14:1.0 
-1.0 12:257.0 14:24.0 
-1.0 8:16.0 14:93.0 
-0.8156488685834122 12:137.0 14:13.0 
-1.0 3:219.0 4:26.0 12:1252.0 14:72.0 
-1.0 4:1.0 8:4.0 12:215.0 14:219.0 
-1.0 1:30.0 4:3.0 7:13.0 12:1149.0 14:5.0 18:2.0 
-0.7633749024936589 12:137.0 14:9.0 
-1.0 7:24.0 12:256.0 14:70.0 
-1.0 7:100.0 8:7.0 12:119.0 14:14.0 
-1.0 8:13.0 12:1927.0 14:47.0 
-1.0 4:2.0 12:230.0 14:33.0 
-1.0 4:3.0 7:441.0 12:579.0 14:27.0 
-1.0 4:35.0 12:97.0 14:22.0 
-0.7098089015302702 12:109.0 
-1.0 3:22.0 12:104.0 
-1.0 8:2.0 12:509.0 13:2.0 14:91.0 
-1.0 5:2.0 12:920.0 13:74.0 14:74.0 
-1.0 4:33.0 8:21.0 12:109.0 14:52.0 
-0.737551956985788 12:98.0 
-1.0 1:3.0 5:9.0 12:85.0 14:14.0 
-1.0 4:1.0 5:35.0 8:45.0 12:1647.0 14:152.0 
-1.0 4:13.0 5:21.0 9:1.0 12:309.0 14:12.0 16:15.0 
-1.0 1:8.0 12:83.0 14:13.0 20:1.0 
-1.0 4:21.0 12:2878.0 14:171.0 
-1.0 3:327.0 5:4.0 8:6.0 12:904.0 14:1.0 
-1.0 12:471.0 13:3.0 14:130.0 
-0.6283460400255947 8:2.0 12:68.0 14:10.0 
-1.0 12:180.0 
-1.0 12:367.0 14:44.0 
-1.0 5:66.0 8:7.0 12:56.0 14:26.0 
-1.0 1:31.0 9:10.0 12:2078.0 14:41.0 
-1.0 4:1.0 12:100.0 14:33.0 
-0.73677534121929 4:3.0 12:103.0 
-1.0 12:325.0 14:81.0 
-0.7386300926123508 12:88.0 14:14.0 
-1.0 8:248.0 12:53.0 14:1.0 
-0.6269850454125078 12:49.0 14:8.0 
-1.0 5:11.0 7:1.0 8:6.0 12:169.0 14:47.0 18:18.0 
-1.0 3:1.0 8:2.0 12:276.0 13:1.0 14:31.0 18:3.0 
-1.0 4:6.0 12:150.0 14:11.0 
-1.0 8:32.0 12:837.0 14:19.0 
-1.0 12:40.0 13:1.0 14:13.0 
-1.0 8:22.0 12:32.0 
-1.0 1:12.0 8:3.0 12:218.0 14:25.0 
-1.0 8:6.0 12:44.0 14:14.0 
-1.0 12:269.0 
-1.0 12:196.0 14:6.0 16:2.0 
-1.0 12:539.0 14:132.0 
-1.0 5:61.0 8:27.0 12:49.0 14:2.0 
-0.5277304435190721 12:70.0 
-1.0 1:272.0 12:1346.0 14:581.0 
-1.0 12:296.0 14:12.0 
-1.0 1:10.0 5:35.0 8:6.0 9:5.0 12:660.0 14:54.0 
-1.0 8:46.0 12:3.0 14:3.0 
-1.0 2:10.0 3:5.0 12:1270.0 
-1.0 5:97.0 8:37.0 12:741.0 14:32.0 
-0.46065685953251456 12:159.0 
-1.0 7:30.0 12:18.0 14:9.0 
-1.0 12:167.0 14:4.0 
-0.6560758698940617 12:133.0 
-1.0 1:31.0 3:6.0 4:168.0 8:45.0 9:11.0 12:299.0 13:12.0 14:46.0 
-1.0 4:4.0 12:141.0 14:53.0 
-0.7615014579125742 12:46.0 14:5.0 
-1.0 4:8.0 5:10.0 9:3.0 12:148.0 14:27.0 
-1.0 8:2.0 12:23.0 14:79.0 
-1.0 12:125.0 
-1.0 3:451.0 4:16.0 12:82.0 14:24.0 16:4.0 
-1.0 8:19.0 9:2.0 12:31.0 14:111.0 
-1.0 3:2.0 5:1.0 12:1020.0 14:12.0 
-1.0 5:75.0 12:169.0 14:5.0 
-1.0 5:4.0 12:1584.0 
-1.0 5:17.0 12:129.0 14:7.0 
-1.0 12:64.0 14:36.0 
-1.0 3:18.0 12:527.0 14:7.0 
-1.0 8:87.0 12:90.0 14:8.0 
-0.7166670574835217 8:4.0 12:67.0 14:6.0 
-1.0 5:189.0 12:271.0 14:20.0 
-1.0 8:32.0 12:248.0 14:229.0 
-1.0 8:2.0 12:285.0 14:5.0 
-1.0 8:56.0 12:217.0 
-1.0 12:132.0 14:63.0 
-0.9551672093510968 12:116.0 
-1.0 1:7.0 3:559.0 8:23.0 9:26.0 12:1353.0 14:119.0 
-1.0 1:1.0 3:14.0 12:152.0 14:44.0 16:2.0 
-0.8895668313718605 1:1.0 9:1.0 12:994.0 14:2.0 
-1.0 8:36.0 12:169.0 14:27.0 
-1.0 12:1252.0 
-1.0 8:10.0 12:213.0 14:40.0 
-1.0 8:28.0 12:223.0 13:577.0 14:106.0 
-1.0 8:16.0 12:40.0 14:17.0 18:25.0 
-1.0 12:604.0 14:16.0 
-1.0 7:1523.0 12:262.0 14:2211.0 
-0.5642247614280371 12:100.0 13:1.0 14:4.0 16:2.0 
-0.8747331790550492 8:4.0 12:158.0 
-1.0 8:2.0 12:475.0 
-1.0 3:5.0 12:251.0 14:81.0 
-0.49140341297317436 8:2.0 12:87.0 14:1.0 
-0.3858012244904896 12:307.0 
-1.0 12:725.0 14:140.0 
-1.0 3:3.0 5:92.0 12:1836.0 14:62.0 18:15.0 
-1.0 5:168.0 12:332.0 14:19.0 
-1.0 1:27.0 12:75.0 14:1.0 
-1.0 12:1462.0 14:334.0 
-1.0 12:135.0 16:8.0 
-0.8666074157490027 8:5.0 12:106.0 14:4.0 
-1.0 8:10.0 12:578.0 13:83.0 14:14.0 
-1.0 1:2.0 8:4.0 12:115.0 14:47.0 
-1.0 1:9.0 7:567.0 8:2.0 12:1524.0 14:114.0 16:20.0 
-1.0 4:4.0 5:30.0 8:18.0 12:372.0 14:146.0 
-0.39390471219343615 12:56.0 14:10.0 
-1.0 8:2.0 12:64.0 13:26.0 14:4.0 
-0.8082333364707389 3:2.0 12:87.0 14:6.0 
-1.0 12:171.0 14:42.0 
-1.0 8:16.0 12:742.0 
-1.0 8:77.0 12:1.0 14:4.0 
-0.7989732246584429 12:77.0 14:4.0 
-1.0 3:9.0 7:104.0 12:908.0 14:180.0 
-1.0 8:14.0 12:161.0 14:3.0 
-1.0 5:9.0 7:19.0 8:4.0 12:92.0 13:37.0 14:61.0 
-0.9077761866808403 12:49.0 14:15.0 
-1.0 1:6.0 3:23.0 4:3.0 12:292.0 14:11.0 
-1.0 1:127.0 4:1.0 8:2.0 12:362.0 13:23.0 14:51.0 16:4.0 
-1.0 3:4.0 7:15.0 8:4.0 12:138.0 14:11.0 
-1.0 5:8.0 12:376.0 14:11.0 
-1.0 1:6.0 8:2.0 12:88.0 14:23.0 
-1.0 3:1.0 12:1088.0 
-1.0 8:19.0 12:632.0 14:79.0 
-1.0 12:133.0 14:26.0 
-1.0 12:441.0 14:4.0 
-1.0 5:6.0 12:132.0 14:32.0 
-0.10850058159252556 12:349.0 14:1.0 
-1.0 1:3.0 4:1.0 12:210.0 13:2.0 14:16.0 
-1.0 8:40.0 12:25.0 14:5.0 
-1.0 12:366.0 16:36.0 
-1.0 12:190.0 14:17.0 
-1.0 12:457.0 14:328.0 
-1.0 4:7.0 12:105.0 14:26.0 16:12.0 
-1.0 8:68.0 12:581.0 14:155.0 
-1.0 5:9.0 12:53.0 14:8.0 
-1.0 9:4.0 12:372.0 14:29.0 
-1.0 8:6.0 12:157.0 13:1.0 14:20.0 
-1.0 8:26.0 12:854.0 14:45.0 
-1.0 4:103.0 8:5.0 12:1152.0 14:4.0 
-1.0 5:5.0 12:833.0 14:10.0 
-1.0 8:2.0 12:100.0 14:83.0 
-1.0 8:2.0 12:93.0 14:10.0 
-1.0 5:245.0 12:1725.0 14:104.0 
-1.0 1:9.0 12:245.0 14:15.0 
-1.0 9:3.0 12:429.0 14:30.0 
-1.0 5:57.0 12:249.0 14:12.0 
-1.0 4:12.0 8:32.0 12:205.0 14:33.0 
-0.272839320485549 12:66.0 14:12.0 
-1.0 5:81.0 8:2.0 12:287.0 14:49.0 
-1.0 1:1.0 12:358.0 13:9.0 14:8.0 16:2.0 
-0.5983551286597512 12:61.0 14:7.0 
-1.0 7:98.0 12:87.0 14:70.0 
-0.7829470058180081 12:279.0 
-1.0 8:809.0 9:1.0 12:102.0 14:12.0 
-1.0 5:39.0 12:608.0 14:85.0 16:14.0 18:3.0 
-1.0 7:658.0 8:1.0 12:9.0 18:2.0 
-1.0 4:1.0 12:237.0 14:4.0 
-0.921763774464212 4:2.0 8:4.0 12:110.0 14:23.0 
-1.0 3:58.0 12:358.0 14:32.0 
-1.0 3:2.0 8:25.0 12:116.0 14:16.0 16:2.0 
-1.0 12:184.0 14:22.0 
-1.0 12:223.0 14:39.0 
-1.0 12:23.0 14:67.0 
-1.0 3:8.0 12:5728.0 13:8.0 14:446.0 16:6.0 
-1.0 5:531.0 9:4.0 12:799.0 
-1.0 5:1.0 12:91.0 14:31.0 
-1.0 3:2.0 7:3.0 12:152.0 14:28.0 
-1.0 1:2.0 7:6.0 8:44.0 12:329.0 14:19.0 16:6.0 
-1.0 8:36.0 12:226.0 14:39.0 20:1.0 
-1.0 3:835.0 8:4.0 12:275.0 
-1.0 1:37.0 5:25.0 9:2.0 12:222.0 14:87.0 
-1.0 1:2.0 5:3.0 8:3.0 12:80.0 14:12.0 
-1.0 5:9.0 12:62.0 14:5.0 
-1.0 8:111.0 12:91.0 14:4.0 
-0.8203338992477591 7:1.0 8:4.0 12:51.0 
-1.0 8:22.0 12:77.0 14:5.0 
-1.0 12:397.0 14:91.0 
-0.8895956890557621 12:990.0 
-1.0 9:16.0 12:189.0 14:89.0 16:2.0 
-1.0 12:1031.0 14:83.0 
-1.0 1:9.0 4:5.0 8:8.0 12:128.0 14:13.0 
-1.0 8:36.0 12:2197.0 14:444.0 
-0.3020488172444504 8:3.0 12:106.0 14:9.0 
-0.5711178708106328 12:140.0 14:45.0 
-1.0 12:148.0 
-1.0 5:44.0 8:309.0 12:204.0 14:30.0 
-1.0 5:265.0 12:395.0 
-1.0 8:21.0 12:44.0 14:2.0 
-1.0 12:278.0 14:7.0 
-0.5365215322566466 12:162.0 14:1.0 
-0.9208430108651333 12:112.0 14:22.0 
-0.24436641575058898 12:243.0 
-1.0 3:354.0 12:509.0 14:1018.0 
-1.0 4:29.0 12:851.0 14:146.0 
-0.997049650932823 12:118.0 14:8.0 
-1.0 5:20.0 12:105.0 14:8.0 
-1.0 8:131.0 12:137.0 14:79.0 
-0.6255759578309641 12:55.0 
-1.0 8:4.0 9:5.0 12:3075.0 14:82.0 
-1.0 8:10.0 12:24.0 14:186.0 
-1.0 1:75.0 9:5.0 12:412.0 14:100.0 
-1.0 12:2356.0 14:33.0 
-1.0 8:93.0 12:409.0 14:19.0 
-0.04547059675012609 12:126.0 
-1.0 12:24.0 14:45.0 
-1.0 4:4.0 5:8.0 9:1.0 12:354.0 18:32.0 
-1.0 12:140.0 
-1.0 5:46.0 8:2.0 12:428.0 
-1.0 12:69.0 14:56.0 
-1.0 12:348.0 
-1.0 9:13.0 12:174.0 14:23.0 
-1.0 5:81.0 9:4.0 12:485.0 14:40.0 
-1.0 9:1.0 12:43.0 14:22.0 
-1.0 8:2.0 12:550.0 14:9.0 18:7.0 
-1.0 1:6.0 12:650.0 14:7.0 
-0.5412911110265014 12:88.0 14:1.0 
-1.0 12:1075.0 14:139.0 
-0.45593354854512824 12:114.0 14:5.0 
-1.0 12:656.0 
-1.0 9:14.0 12:3330.0 14:144.0 
-1.0 4:37.0 12:42.0 
-1.0 12:514.0 14:11.0 16:19.0 
-1.0 1:1.0 3:523.0 9:2.0 12:427.0 14:69.0 
-1.0 5:96.0 12:2106.0 14:13.0 
-1.0 5:6.0 12:169.0 18:1.0 
-1.0 3:24.0 12:688.0 16:2.0 
-1.0 9:1.0 12:145.0 14:10.0 
-0.7774170756222607 12:55.0 14:14.0 
-0.50761056323569 12:57.0 14:6.0 
-1.0 12:252.0 14:10.0 16:6.0 18:9.0 
-1.0 5:4.0 12:607.0 13:50.0 14:22.0 
-1.0 3:70.0 5:9.0 7:51.0 12:253.0 14:18.0 
-1.0 12:20.0 14:34.0 
-1.0 5:27.0 12:346.0 14:40.0 
-1.0 8:108.0 12:24.0 14:8.0 
-1.0 5:67.0 12:91.0 14:10.0 
-1.0 3:56.0 4:1.0 7:138.0 12:482.0 14:54.0 
-1.0 1:2.0 12:124.0 13:2.0 14:17.0 
-1.0 7:59.0 12:39.0 14:24.0 
-1.0 7:23.0 12:337.0 14:51.0 
-1.0 3:27.0 4:3.0 12:270.0 14:11.0 
-1.0 8:8.0 12:73.0 
-1.0 3:2.0 8:2.0 12:239.0 14:77.0 
-1.0 8:253.0 12:1162.0 14:35.0 
-1.0 1:13.0 3:4.0 4:1.0 12:71.0 
-1.0 8:1.0 12:30.0 14:43.0 
-1.0 4:3.0 12:1372.0 
-1.0 1:97.0 5:10.0 7:37.0 12:801.0 14:237.0 18:8.0 20:265.0 
-1.0 8:4.0 12:146.0 14:18.0 
-1.0 8:63.0 12:1535.0 14:3.0 
-1.0 12:232.0 14:65.0 
-1.0 8:39.0 9:4.0 12:200.0 14:6.0 
-1.0 12:51.0 14:11.0 18:8.0 
-1.0 3:2.0 5:35.0 12:2121.0 14:253.0 
-0.9741352361197383 12:134.0 14:33.0 
-1.0 5:6.0 8:2.0 12:634.0 14:57.0 
-0.8144855645463591 8:2.0 12:306.0 
-1.0 5:29.0 12:12287.0 18:9.0 
-1.0 3:21.0 4:47.0 5:51.0 9:4.0 12:5407.0 14:16.0 18:17.0 
-1.0 12:14.0 14:152.0 
-1.0 4:21.0 8:57.0 12:660.0 14:28.0 18:14.0 
-1.0 1:6.0 3:130.0 5:19.0 8:5.0 12:1126.0 13:30.0 14:59.0 
-1.0 5:23.0 9:3.0 12:125.0 14:20.0 
-0.9407223751036772 12:350.0 14:7.0 
-1.0 1:9.0 5:44.0 8:2.0 12:493.0 14:5.0 
-0.5830323492753413 4:2.0 12:69.0 14:3.0 
-1.0 3:54.0 5:28.0 8:26.0 9:2.0 12:1292.0 14:156.0 
-1.0 5:3.0 8:19.0 12:86.0 14:33.0 
-1.0 1:6.0 9:3.0 12:454.0 14:328.0 
-1.0 8:59.0 12:267.0 14:69.0 
-1.0 3:99.0 12:695.0 14:218.0 18:7.0 
-1.0 3:3.0 8:58.0 12:19.0 
-1.0 3:62.0 4:2.0 9:62.0 12:1263.0 14:87.0 18:15.0 
-0.07280088554585115 8:1.0 12:56.0 14:1.0 
-1.0 5:96.0 12:366.0 14:11.0 16:4.0 
-1.0 8:6.0 12:32.0 14:17.0 
-1.0 4:8.0 12:43.0 14:7.0 
-1.0 3:1.0 4:1.0 8:18.0 12:158.0 14:6.0 
-1.0 3:55.0 12:1636.0 14:25.0 
-0.8762366848640926 1:1.0 9:1.0 12:106.0 14:11.0 
-1.0 1:10.0 3:2.0 4:2.0 7:115.0 12:623.0 
-1.0 3:2.0 5:6.0 12:175.0 14:14.0 
-1.0 4:14.0 5:29.0 12:267.0 14:97.0 16:10.0 
-1.0 1:3.0 12:388.0 14:26.0 
-1.0 1:20.0 3:162.0 12:1950.0 14:79.0 
-1.0 12:149.0 14:37.0 
-1.0 8:199.0 12:143.0 14:23.0 
-1.0 12:123.0 14:29.0 
-1.0 1:6.0 12:700.0 14:14.0 
-1.0 12:271.0 14:493.0 
-1.0 4:1.0 5:30272.0 9:5.0 12:1193.0 14:73.0 
-0.5944933029069034 12:50.0 14:1.0 16:2.0 
-1.0 5:3.0 12:734.0 14:34.0 
-1.0 3:97.0 12:292.0 
-1.0 3:436.0 5:36.0 12:2067.0 14:122.0 
-1.0 4:66.0 5:27.0 8:4.0 12:1818.0 14:192.0 
-1.0 12:108.0 14:130.0 
-0.9129798960414114 12:244.0 
-1.0 12:486.0 
-1.0 8:357.0 12:102.0 14:7.0 
-1.0 4:1.0 5:477.0 9:7.0 12:1664.0 14:97.0 
-0.6079097118862766 12:869.0 
-1.0 4:5.0 5:12.0 12:308.0 
-1.0 3:22.0 12:748.0 14:47.0 
-1.0 7:305.0 12:147.0 14:30.0 
-1.0 5:40.0 8:117.0 12:819.0 14:16.0 
-1.0 3:6842.0 4:9.0 5:14.0 8:22.0 12:432.0 14:28.0 17:4.0 
-1.0 12:1173.0 14:139.0 18:1.0 
-1.0 3:15.0 12:210.0 
-1.0 4:4.0 5:234.0 12:68.0 
-1.0 1:17.0 12:138.0 14:94.0 
-0.8498331279037129 12:81.0 
-0.4302474407236422 12:131.0 
-1.0 5:14.0 12:394.0 14:2.0 
-1.0 3:8.0 4:34.0 12:734.0 14:36.0 20:15.0 
-1.0 1:19.0 4:3.0 5:37.0 8:1.0 9:1.0 12:709.0 14:53.0 18:2.0 20:102.0 
-1.0 5:67.0 12:848.0 14:27.0 
-1.0 1:1.0 5:3.0 8:16.0 12:94.0 13:1.0 14:8.0 
-1.0 8:2.0 12:305.0 14:36.0 
-1.0 12:63.0 14:12.0 18:6.0 
-1.0 3:38.0 12:299.0 14:128.0 
-1.0 1:22.0 4:1.0 5:6.0 8:34.0 9:5.0 12:418.0 14:99.0 
-1.0 5:3.0 8:47.0 12:17799.0 
-1.0 5:25.0 12:32.0 
-1.0 5:12.0 12:183.0 14:2.0 
-1.0 8:4.0 12:40.0 14:28.0 
-1.0 8:33.0 12:225.0 14:9.0 
-1.0 1:4.0 3:15.0 8:258.0 9:3.0 12:907.0 
-1.0 8:39.0 12:20.0 13:3.0 14:4.0 
-1.0 1:19.0 12:203.0 14:12.0 
-1.0 1:6.0 12:181.0 14:5.0 
-0.6358607224225726 3:2.0 12:74.0 
-1.0 4:2.0 8:2.0 9:1.0 12:291.0 14:78.0 
-1.0 3:86.0 4:2.0 5:106.0 8:15.0 12:714.0 14:84.0 
-1.0 4:7.0 12:702.0 
-1.0 1:1.0 4:39.0 5:251.0 12:4792.0 14:82.0 18:2.0 
-1.0 1:3.0 8:4.0 12:174.0 14:30.0 
-1.0 1:31.0 3:2.0 4:10.0 8:4.0 12:100.0 14:6.0 
-1.0 3:40.0 5:18.0 8:6.0 12:619.0 14:112.0 
-1.0 8:95.0 12:849.0 14:6.0 18:2.0 
-1.0 12:631.0 14:17.0 
-1.0 7:12.0 12:69.0 14:8.0 
-1.0 3:8.0 8:127.0 12:24.0 14:18.0 
-1.0 3:38.0 4:1.0 5:1.0 8:44.0 12:390.0 
-1.0 1:198.0 3:1.0 4:26.0 5:91.0 8:14.0 12:1855.0 14:29.0 
-1.0 5:40.0 8:31.0 12:867.0 14:7.0 
-1.0 8:21.0 12:428.0 14:58.0 
-0.627130005983219 12:139.0 14:45.0 
-0.6125086461399845 12:275.0 
-1.0 5:71.0 12:186.0 14:36.0 
-1.0 3:566.0 12:167.0 14:14.0 
-1.0 12:1192.0 14:65.0 
-1.0 4:22.0 5:142.0 8:17.0 12:595.0 14:30.0 16:3.0 18:8.0 
-0.6079097118862768 12:868.0 
-1.0 12:77.0 14:98.0 
-1.0 5:7.0 12:281.0 14:68.0 
-1.0 3:3.0 4:39.0 5:15.0 12:184.0 14:4.0 
-1.0 5:33.0 8:82.0 12:34.0 14:10.0 
-1.0 12:1812.0 14:15.0 
-1.0 5:51.0 12:977.0 14:31.0 
-1.0 7:76.0 12:15.0 
-1.0 8:8.0 12:215.0 14:7.0 
-0.9220454886017332 12:62.0 
-1.0 1:2.0 9:4.0 12:410.0 14:14.0 
-1.0 12:205.0 
-1.0 8:157.0 12:630.0 14:132.0 
-1.0 1:22.0 3:2.0 8:4.0 12:344.0 
-1.0 5:103.0 8:2.0 12:280.0 14:7.0 
-1.0 3:7.0 12:59.0 
-1.0 1:60.0 12:272.0 14:103.0 16:2.0 
-1.0 1:20.0 3:4.0 9:11.0 12:119.0 14:18.0 
-1.0 8:149.0 12:225.0 14:479.0 
-1.0 5:784.0 12:266.0 14:11.0 
-1.0 9:19.0 12:2985.0 
-1.0 12:506.0 14:10.0 
-1.0 4:2.0 8:108.0 12:147.0 14:4.0 
-1.0 3:44.0 4:1.0 12:126.0 
-1.0 3:599.0 4:19.0 8:19.0 12:1177.0 14:161.0 
-1.0 1:2.0 12:298.0 14:52.0 
-1.0 3:41.0 8:25.0 12:438.0 14:69.0 
-1.0 4:11.0 8:126.0 12:1148.0 14:84.0 
-0.39495306035983324 4:2.0 12:99.0 14:4.0 
-1.0 3:7.0 4:5.0 12:138.0 
-1.0 12:1043.0 14:7.0 
-1.0 4:4.0 12:281.0 13:74.0 14:32.0 
-1.0 8:129.0 12:76.0 13:147.0 14:7.0 
-1.0 12:344.0 14:8.0 
-1.0 4:16.0 8:171.0 12:255.0 14:79.0 18:42.0 
-1.0 5:87.0 12:686.0 14:8.0 
-1.0 12:43.0 14:42.0 
-1.0 1:2.0 3:140.0 12:3411.0 13:1.0 14:41.0 
-1.0 12:293.0 14:526.0 
