svm_type c_svc
kernel_type rbf
gamma 0.05
nr_class 2
total_sv 687
rho -0.40412914356742397
label 1 -1
nr_sv 420 267
SV
0.5959687505578853 3:915.0 5:27.0 9:15.0 14:251.0 
0.5958369363358766 1:318.0 4:20.0 5:15.0 14:46.0 18:2.0 
0.595948667482747 4:17.0 8:10.0 13:3646.0 14:509.0 18:24.0 
0.5952957886983872 3:317.0 5:5.0 14:2816.0 
0.5959100556691317 4:1.0 7:6262.0 14:2170.0 20:32.0 
0.5958002341750714 8:8.0 14:271.0 18:48.0 
0.5838222151623846 14:7578.0 
0.5961170552776704 5:314.0 14:70.0 18:47.0 
0.5959826146167775 3:5.0 4:4.0 5:409.0 14:259.0 
0.5958993657521732 3:10.0 5:1.0 7:1547.0 8:41.0 9:11.0 14:12.0 
0.5959896804821643 4:465.0 13:91208.0 14:83.0 20:1.0 
0.5960137741946389 3:2.0 5:48.0 14:317.0 16:8.0 18:1.0 
0.5883732760108564 5:23.0 8:13.0 14:92.0 
0.5957867894108728 8:432.0 
1.0 14:69.0 
0.5958846351730276 5:140.0 14:138.0 16:4.0 
1.0 14:134.0 
0.5961195350029671 8:2.0 14:90.0 16:39.0 
0.5958532335114226 4:451.0 8:42.0 9:19.0 14:14.0 
0.9508106790297626 4:8.0 14:54.0 
0.5958473417146333 5:1.0 14:1041.0 
0.5959759573514907 4:91.0 14:339.0 
0.9078785885170464 8:18.0 14:54.0 
0.596254709363569 14:68.0 16:34.0 
0.5960918611169926 14:2085.0 
0.5957966623378328 3:138.0 14:13.0 16:10.0 
0.5957008745815043 5:215.0 14:84.0 
0.9463259933507076 8:66.0 14:4.0 
0.596207550000894 8:3130.0 14:7962.0 
0.59533258627123 3:644.0 14:3.0 
0.5957385087788879 5:115.0 8:59.0 14:306.0 
0.5958871695475765 4:3.0 5:750.0 14:192.0 
0.5961887888495381 1:169.0 2:6.0 3:1.0 4:28.0 7:9.0 8:62.0 13:614.0 14:270.0 
0.5956477475386602 1:1.0 3:39828.0 14:1918.0 
0.5958538251867306 3:1.0 4:865.0 5:452.0 13:250.0 14:94.0 16:8.0 18:9.0 
0.5959464371597432 5:5.0 14:17907.0 
0.5961195350072901 1:1.0 7:1360.0 14:166.0 
0.5959211825381875 3:238.0 4:27.0 5:1964.0 8:100.0 14:512.0 18:32.0 
0.5958603844166827 3:3.0 5:95.0 13:628.0 14:91.0 
0.5960918611100725 14:8972.0 16:2.0 18:22.0 
0.5959650839577049 3:197.0 5:903.0 7:72.0 8:4.0 9:13.0 14:139.0 
0.5957443625038716 3:5.0 4:5.0 14:138.0 18:25.0 
0.5956486491746542 14:169.0 16:35.0 
0.5959859127078683 9:16.0 14:333.0 
0.5961170552776704 1:136.0 8:7.0 14:2109.0 
0.5957614735282049 8:280.0 14:2.0 
0.5960146292360248 8:48.0 14:53.0 
0.5958646505641869 1:7.0 3:339.0 5:232.0 13:76080.0 14:1185.0 16:22.0 18:6.0 
0.5958495642480108 1:1.0 3:198.0 5:6.0 8:12.0 14:141.0 
0.5958852448913866 1:97.0 4:138.0 8:4.0 9:21.0 13:20989.0 14:2256.0 16:46.0 
0.5958852448906551 5:213.0 14:186.0 
0.5985920670469266 8:10.0 14:156.0 
0.5962746013632083 3:13459.0 
0.5957905627985767 8:1686.0 14:1279.0 
0.5959482808461628 7:182.0 14:245.0 
0.5959829381975936 4:16.0 5:168.0 14:282.0 
0.5958993664663732 1:125.0 5:55.0 8:2.0 14:189.0 18:795.0 
0.5958752827707305 5:56.0 13:1.0 14:212.0 
0.5959826146167775 1:144.0 
0.5960254485459171 3:1.0 4:25.0 5:76.0 13:1.0 14:269.0 16:18.0 
0.5960106472922837 3:98.0 5:21.0 8:42.0 14:519.0 18:36.0 
0.5961170552776704 4:79.0 5:57.0 9:7.0 14:375.0 
0.596268269759004 4:102.0 7:668.0 8:2.0 13:108.0 14:117.0 
0.5957495283121435 1:3.0 3:799.0 4:2.0 7:2.0 14:331.0 18:10.0 
0.5957736783250458 1:4.0 3:29.0 4:12.0 5:173.0 9:5.0 14:655.0 16:1.0 
0.5958058657370404 3:2.0 5:2399.0 13:4.0 14:572.0 18:109.0 
0.5962544153371527 1:28.0 7:3378.0 9:22.0 13:1682.0 14:168.0 
1.0 4:2.0 14:51.0 
0.59624826976852 1:4.0 4:12.0 5:300.0 7:2234.0 9:9.0 14:2.0 
0.5962547093416215 5:358.0 14:348.0 
0.5957172223796012 5:507.0 14:2.0 
0.5960896744223643 1:60.0 14:420.0 
0.5960896744213382 1:1.0 3:1562.0 4:5.0 14:92.0 
0.8654236631560285 14:217.0 
0.5960584946610272 13:12707.0 14:178.0 16:30.0 18:19.0 
0.5959723669393701 3:1305.0 4:56.0 5:211.0 14:158.0 
0.5958575891274578 8:17048.0 
0.5958603844219127 3:47.0 9:59.0 14:225.0 
0.5959118453695796 1:23.0 4:2.0 5:566.0 14:212.0 16:37.0 
0.5958473415768117 14:283.0 
0.5958584422269539 4:101.0 14:498.0 
0.5958846351730276 4:50.0 5:11.0 8:21.0 13:4220.0 14:323.0 18:105.0 
0.5959376714966756 4:1.0 8:2.0 14:2229.0 
0.5959376714966756 5:50.0 14:358.0 18:4.0 
1.0 4:1.0 14:98.0 
0.5959840234059497 1:938.0 4:92.0 8:22.0 9:9.0 
0.5959109168241457 5:23.0 14:11830.0 
0.595894486987467 3:15514.0 4:5.0 
1.0 4:1.0 14:60.0 
0.5959423021531741 7:297.0 8:2.0 18:4.0 
0.5958532335114226 1:204.0 4:150.0 8:19.0 9:23.0 14:198.0 
0.5958871695475765 14:1614.0 
0.5958907699310838 5:33.0 13:167.0 14:286.0 16:4.0 
0.5959099365367715 3:73.0 14:148.0 
0.5958562026285582 14:9523.0 
0.5957443625038477 3:181.0 
0.5955627222643001 4:1044.0 5:12.0 9:3.0 14:36.0 16:4.0 
0.5958508630088308 3:18.0 7:163.0 14:130.0 16:20.0 
0.6581676441089239 1:2.0 8:1.0 9:8.0 14:51.0 
0.5957579655851521 1:32.0 8:46.0 14:306.0 
0.5957418110340418 5:1816.0 14:6.0 
0.5957008745815042 1:18.0 7:216.0 14:7774.0 18:62.0 
0.5958283191979948 1:45.0 4:2.0 14:34.0 
0.5956688517787808 1:176.0 4:3.0 9:25.0 14:2224.0 
0.599198035458717 4:4.0 5:18.0 14:33.0 
0.5957004574828868 3:7.0 5:37.0 14:167.0 
0.5954752576723022 4:3.0 5:61.0 8:664.0 
0.6012975186498619 4:2.0 14:227.0 
0.5958269553335858 3:2.0 4:74.0 5:110.0 8:1.0 9:19.0 13:4.0 14:314.0 16:6.0 18:10.0 20:47.0 
0.5958002341750716 1:5.0 3:17.0 4:6.0 14:4096.0 
0.5973944038602316 14:163.0 
0.595822669751009 3:8.0 13:1.0 14:353.0 
0.595778996068845 5:48.0 9:7.0 14:963.0 18:5.0 
0.595951133849807 2:5.0 10:1.0 14:310.0 18:7.0 
0.5956486491746542 7:410.0 14:10119.0 18:80.0 
0.5953015477901907 1:7.0 3:1414.0 14:1069.0 
1.0 14:86.0 
0.5957766454947238 3:1.0 4:1.0 5:1506.0 14:163.0 
0.5952957886983872 14:5330.0 18:14.0 
0.595857589127502 3:119.0 14:54.0 
0.5952957886983872 1:105.0 3:42210.0 4:3.0 5:501.0 9:24.0 14:18.0 
0.5955534524164556 3:415.0 4:66.0 8:24.0 14:546.0 18:24.0 
0.5960523486625322 5:36.0 8:1.0 14:55.0 
0.5955528293003488 7:14979.0 
0.5956175499828695 3:1172.0 8:3.0 14:109.0 
0.5957872830788917 1:11.0 4:1884.0 5:1922.0 9:45.0 14:236.0 
0.5506563693086982 8:99.0 
0.5957958031042271 5:695.0 8:7.0 
0.5189045007992824 14:262.0 
0.5958282928005861 3:47.0 5:114.0 13:11220.0 14:26.0 18:10.0 
0.5957495283121435 3:3335.0 14:407.0 
0.5959423021531741 5:49267.0 14:31.0 18:10.0 
0.5959829381975936 4:3.0 5:176.0 14:160.0 
0.5959829381975936 8:1900.0 14:11541.0 
0.5959057020897758 4:49.0 8:2.0 14:235.0 
0.5959059217102496 5:127.0 14:2344.0 
0.5958958804826021 3:107.0 5:26.0 14:2213.0 
0.5959430955285673 5:1774.0 14:36.0 
0.595948994540787 3:1.0 4:25.0 5:36.0 14:227.0 16:26.0 
0.5958871695475765 5:4018.0 9:20.0 18:77.0 
0.5958871695475765 5:8433.0 9:1.0 14:25.0 
0.5954487977673045 4:48.0 8:4.0 14:63.0 
0.5958260587907384 4:3.0 5:131.0 8:89.0 14:261.0 
0.5959341439116894 5:5.0 9:13.0 14:3091.0 
0.5957330562864491 1:2.0 3:159.0 4:9.0 5:193.0 7:46.0 14:98.0 
0.5959482808461628 3:1.0 4:9927.0 5:415.0 8:8.0 9:13.0 14:21.0 
0.4660929682238627 14:211.0 
0.5958993657521732 8:17281.0 14:3.0 
0.5958993664663732 3:66.0 4:1.0 5:321.0 14:377.0 
0.5953007391037748 4:4.0 5:52.0 14:330.0 
0.5958962085719299 5:19200.0 14:74.0 
0.5958752822363969 8:1144.0 
0.5955838995804976 9:19.0 14:242.0 
0.5958928882084078 5:751.0 8:178.0 18:87.0 
0.595894486987467 4:3848.0 14:1.0 
0.6639524486983748 1:1.0 5:17.0 14:53.0 
0.5958581199322585 1:4.0 2:10.0 3:228.0 4:362.0 5:39.0 6:2663.0 7:5316.0 8:1131.0 9:1383.0 13:237.0 15:272.0 18:631.0 
0.595877667579966 5:15.0 7:1206.0 14:309.0 
0.5160427398433933 5:1.0 14:7570.0 16:6.0 
0.5960106472922837 4:11827.0 9:5.0 14:40.0 
0.5960928465392985 1:33.0 4:1.0 7:48.0 9:2.0 14:54.0 20:6.0 
0.5959789048812261 4:92.0 5:137.0 13:52.0 14:79.0 
0.59608967439627 5:374.0 14:353.0 16:14.0 
0.5959723669432732 3:51.0 4:1.0 16:27.0 
0.5960145903276197 13:1.0 14:617.0 
0.5957849393142429 3:112.0 4:3.0 
0.596115826060643 4:4.0 7:966.0 14:626.0 
0.5958912742913178 1:3.0 3:94.0 14:22.0 
0.5960911958326937 3:21.0 14:304.0 
0.5957788542109003 3:119.0 4:4.0 7:6326.0 8:24.0 
0.5958993664663732 1:192.0 4:3.0 14:605.0 
0.5959336553718463 3:1.0 4:1.0 5:843.0 14:227.0 
0.5923399171405732 14:201.0 
0.5959464341131948 3:7.0 5:381.0 8:12.0 14:208.0 
0.5957882910288549 8:568.0 14:3.0 
0.5959312183114502 1:2.0 3:21.0 4:43.0 8:357.0 
0.5958097222031756 3:31.0 4:2.0 5:55.0 9:3.0 14:30.0 
0.5957495283121435 3:242.0 4:123.0 5:91.0 8:2.0 14:40.0 18:4.0 
0.5955839085215611 3:48.0 5:33.0 9:4.0 14:93.0 16:4.0 
1.0 7:2.0 14:63.0 
0.5959376714966756 7:2122.0 8:8.0 13:11464.0 14:21.0 
0.5940376555125348 1:9.0 8:3.0 9:2.0 14:172.0 
0.5958269553335858 3:33.0 4:87.0 5:500.0 7:11652.0 8:2.0 9:3.0 14:179.0 16:8.0 
0.596115826060643 4:38.0 14:7755.0 
0.5960253237285342 1:543.0 4:35.0 5:11.0 13:202.0 14:105.0 16:14.0 
0.6544724868690162 5:4.0 14:134.0 
0.5958907699310838 1:15.0 5:537.0 14:76.0 16:29.0 18:6.0 
0.9843336442857994 4:1.0 9:3.0 14:60.0 
0.5959490338455966 4:146.0 7:108.0 14:365.0 16:9.0 17:1.0 
0.5958157932745447 4:31.0 14:203.0 
0.595946433810336 4:4.0 14:1272.0 
0.5956688500098191 3:4.0 5:147.0 7:1103.0 14:5.0 
0.5958817013808797 3:7.0 4:103.0 5:28.0 7:265.0 8:128.0 9:15.0 11:20.0 13:42.0 14:44.0 
0.5958495642480108 7:361.0 14:131.0 
0.5958852448906551 3:14.0 5:2359.0 14:113.0 
0.5958993657521732 8:16922.0 14:5.0 
0.5962547093676942 5:336.0 7:394.0 14:107.0 
0.5960918611168347 3:76.0 5:71.0 14:620.0 
0.5959759573514907 1:117.0 4:43.0 5:41.0 13:3256.0 14:11.0 
0.5958846351730276 1:19079.0 4:3793.0 9:2.0 14:14.0 16:6.0 
0.3009899310155456 14:189.0 
0.5959895758333721 5:15.0 9:25.0 14:214.0 
0.6831879132265757 1:18.0 8:6.0 14:27.0 
0.5959423021531741 4:71.0 7:8.0 14:5844.0 20:29.0 
1.0 14:75.0 
0.595858438719628 4:71.0 5:15.0 8:8.0 13:403.0 14:13.0 16:9.0 
0.5961622683055419 1:167.0 3:1.0 4:48.0 5:439.0 9:91.0 14:240.0 
0.5955332351925122 8:18037.0 
0.5956688500098191 8:57.0 14:47.0 18:57.0 
0.5954214061942391 2:3.0 4:2.0 5:339.0 8:2.0 14:91.0 
0.5957587710939918 3:47.0 5:173.0 14:214.0 
0.5958157932745447 14:3017.0 
0.5957832361547488 5:383.0 7:1063.0 14:162.0 
0.595787263037522 4:34.0 13:9832.0 14:66.0 18:4.0 20:23.0 
0.5959336553718463 1:212.0 4:27.0 7:3902.0 14:209.0 
0.5959840234059497 2:3.0 4:6.0 13:4330.0 14:259.0 16:7.0 18:4.0 
0.5958918914154094 4:197.0 14:3.0 
0.5958923276517578 4:1.0 14:3884.0 
0.5958441186685568 14:8976.0 
1.0 14:56.0 
0.5959482808461628 1:4.0 6:35.0 14:70.0 
0.5958495642480108 3:127.0 5:29.0 14:21.0 
0.6700326533344336 5:195.0 14:16.0 
0.5960256437482759 3:46.0 4:7.0 5:2952.0 14:266.0 18:6.0 
0.5960896744213382 1:1.0 4:48.0 5:2366.0 14:335.0 18:8.0 
0.595948994540787 3:14.0 5:63.0 7:1299.0 8:16.0 13:190.0 14:26.0 
0.5957587710939918 4:32.0 5:108.0 8:12.0 9:80.0 14:226.0 
0.5958002341750716 1:173.0 4:262.0 7:11848.0 11:1.0 13:933.0 14:601.0 
0.5962482697685199 1:7.0 4:866.0 14:10944.0 
0.5962482697685199 1:66.0 4:4.0 5:1325.0 9:5.0 14:310.0 18:12.0 
0.6174208450173384 7:6.0 14:177.0 
0.5086395538126682 14:7569.0 
0.5958754664867415 4:325.0 8:24.0 14:10.0 
0.5956173072753376 3:22.0 4:6.0 5:98.0 14:78.0 
0.5959094763924351 4:8.0 5:89.0 13:2613.0 14:525.0 16:6.0 18:144.0 
0.45905220163617527 14:245.0 
0.5960435700512718 3:40.0 4:1.0 8:5.0 14:68.0 
0.595948667482747 1:4.0 4:3.0 7:5196.0 9:23.0 14:1931.0 
0.5958584422269539 5:9236.0 14:65.0 
0.5960106472922838 4:2.0 13:1931.0 14:54.0 
0.5960911958393211 3:14.0 4:6.0 5:1553.0 14:79.0 
0.5957451781906054 8:17864.0 
0.5958852448906551 4:47.0 5:623.0 8:7.0 14:413.0 
0.5959105842659128 5:49.0 7:7952.0 8:3.0 9:2.0 13:6.0 14:127.0 
1.0 14:510.0 
0.5958497796451394 1:121.0 3:463.0 4:270.0 7:3540.0 9:182.0 14:217.0 18:50.0 
0.595858438719628 3:12147.0 5:119.0 14:46.0 
0.5954214061942391 8:11592.0 14:5.0 
0.5958226691894826 3:52.0 4:4.0 5:562.0 6:2.0 14:214.0 
1.0 14:65.0 
0.5959423097161581 5:469.0 8:2.0 14:113.0 
0.5952957886983872 3:147.0 4:3.0 5:19.0 14:431.0 
0.24329719530243185 14:241.0 
0.5958852448906551 1:3.0 4:2.0 5:56.0 13:424.0 14:261.0 16:12.0 
0.5959819747783268 8:13394.0 14:1.0 
0.5958562026285582 4:241.0 5:154.0 14:209.0 
0.5096442195010252 14:236.0 
0.5959099365367715 4:41.0 5:307.0 7:4621.0 8:36.0 13:1257.0 14:2210.0 
0.5957835981740149 3:1.0 4:158.0 8:19.0 14:315.0 
0.5959375067358059 3:178.0 5:85.0 7:4797.0 9:2.0 14:96.0 20:4481.0 
0.8612126854347777 4:3.0 14:120.0 
0.3091303228224358 3:1.0 14:189.0 
1.0 14:175.0 
0.5959829381975936 1:119.0 3:358.0 4:3.0 9:7.0 14:2815.0 18:50.0 
0.595778996068845 1:496.0 4:11.0 7:10517.0 
0.5958126494810778 1:47.0 4:4.0 8:92.0 14:7628.0 
0.5958704965079722 4:2.0 5:25.0 9:15.0 14:13.0 
0.5954008229948222 8:2.0 14:425.0 18:41.0 
0.5958923276517578 4:18.0 5:692.0 9:5.0 13:1172.0 14:172.0 
0.5958824376673615 8:1.0 9:8.0 14:792.0 
0.595857454371854 4:4.0 5:18.0 9:2.0 14:1262.0 
0.5960253237285571 8:34.0 14:337.0 
0.5962544153371526 5:881.0 14:929.0 18:8.0 
0.5958269553335858 1:8.0 4:9.0 5:656.0 7:2433.0 8:197.0 9:12.0 
0.6133600458345873 5:166.0 14:129.0 
0.5953329348163792 4:9.0 5:647.0 8:2.0 13:5310.0 14:316.0 16:42.0 18:50.0 
1.0 14:135.0 
0.595845098008536 5:1529.0 8:3.0 14:2974.0 
0.5960896744213382 1:219.0 14:50.0 
0.5958907699310838 4:451.0 14:155.0 16:2.0 
0.5958574546740956 5:14861.0 14:75.0 
0.5960918611169926 2:3.0 5:31.0 8:19.0 14:668.0 
0.5959452354814099 3:3813.0 9:9.0 14:32.0 16:1.0 20:2.0 
0.5959896804821643 3:2997.0 4:2.0 5:59.0 8:2.0 14:132.0 
0.5958817013808797 3:91.0 14:652.0 18:6.0 
0.595580500346353 8:56726.0 14:30.0 
0.5960145903276197 8:1064.0 14:9.0 
0.5962544291178085 14:26.0 18:30.0 
0.5961622683055419 4:4.0 5:47.0 7:918.0 9:16.0 14:528.0 18:44.0 
0.6026309765641925 5:45.0 14:39.0 
0.5961622683055419 3:4.0 4:1.0 5:889.0 14:121.0 
0.5484998148934215 14:10359.0 
0.5960747560884312 4:649.0 5:18988.0 14:44.0 
0.596268269759004 4:1893.0 5:56.0 14:69.0 16:19.0 
0.5958993657521732 5:259.0 7:7431.0 9:11.0 14:4.0 18:47.0 
0.5961088564275855 5:186.0 14:103.0 
0.5959789048812261 3:27.0 4:54.0 5:528.0 8:2.0 14:943.0 
0.5959482808461628 5:1089.0 9:24.0 14:3580.0 
0.5959829381975936 1:5.0 3:40.0 4:49.0 5:565.0 13:947.0 14:267.0 18:10.0 
0.625857886827105 8:81.0 14:14.0 
0.5484694173095013 14:10352.0 
0.5958126494810778 8:96.0 14:718.0 
0.5957543958799414 5:503.0 9:18.0 14:247.0 
0.5957882910288549 5:5820.0 14:9.0 18:3.0 
0.5962547093676942 5:424.0 13:3056.0 14:267.0 18:92.0 
1.0 8:307.0 14:6.0 
0.596110839144746 4:17.0 5:525.0 14:139.0 16:2.0 18:10.0 
0.8974866991438154 5:78.0 14:9.0 
0.5957587710939918 3:105.0 5:2247.0 
0.5960911958393211 1:275.0 4:7.0 5:2070.0 8:2.0 14:316.0 
0.5958497796451394 7:24447.0 14:121.0 
0.5958752822363969 8:2.0 14:306.0 18:94.0 
0.5960022765499897 1:18.0 4:2.0 13:537.0 14:113.0 
0.5957413586090506 8:445.0 14:4.0 
0.5957532692724821 13:1.0 14:1876.0 
0.5959312183114502 5:756.0 7:865.0 9:5.0 14:504.0 
0.5956840183522812 5:18431.0 14:141.0 
0.5958561475565866 5:293.0 14:251.0 16:18.0 18:13.0 
0.5957443625038477 3:669.0 4:42.0 5:1006.0 14:86.0 
0.5955627222643001 5:3343.0 14:521.0 18:18.0 
0.5955885949576489 4:1.0 5:20780.0 9:21.0 14:36.0 
0.5956119247614211 14:441.0 
0.5955091639095289 5:3145.0 14:41.0 
0.4598468298540428 14:253.0 
0.5958292075041612 3:3.0 4:18.0 5:7199.0 14:178.0 18:10.0 
0.5957443625038477 3:38.0 5:198.0 14:78.0 
0.5959376714966756 3:129.0 14:350.0 
0.5960253237939896 8:136.0 
0.5957385087788879 8:4461.0 14:10328.0 
0.5958993664663732 1:6.0 3:46.0 4:2.0 5:1074.0 14:84.0 18:24.0 
0.5958846351730276 5:46.0 7:270.0 14:10957.0 
0.5958952561104109 3:2.0 4:3.0 5:508.0 8:2.0 13:1537.0 14:130.0 
0.5959560586021065 4:132.0 8:25.0 14:48.0 
0.595537698491342 5:31.0 14:68.0 16:4.0 
0.5943832655990342 5:78.0 14:20.0 
0.5958852448913866 1:17.0 4:19.0 5:291.0 8:36.0 13:11075.0 14:192.0 
0.5960928465686224 4:1.0 5:590.0 8:2.0 14:113.0 18:1481.0 
0.5960254485459171 3:1.0 4:4.0 5:166.0 9:87.0 14:579.0 
0.5961170552776704 1:9.0 3:3267.0 4:7.0 
0.5960896744223643 3:2.0 5:721.0 8:8.0 14:206.0 
0.5959650839577049 1:17.0 5:21.0 8:4.0 13:203.0 18:7.0 
0.5957495283121435 1:14.0 3:11.0 4:4.0 9:15.0 14:1212.0 16:54.0 
0.5919217005519646 14:2572.0 
0.5960896744356329 4:37.0 8:14.0 14:178.0 
0.5958002341750716 3:2588.0 4:3.0 7:24.0 9:12.0 14:331.0 20:1962.0 
0.595847034626626 1:5.0 4:22.0 9:6.0 14:36.0 
0.59624826976852 3:2.0 14:2157.0 
0.5962680929143784 1:28216.0 4:2265.0 14:3404.0 
0.5958493175673543 3:142.0 4:51.0 14:66.0 
0.5959464371597432 4:84.0 14:151.0 
0.5960022765499897 1:6.0 7:4989.0 14:79.0 
0.5958561475565866 5:3660.0 7:1374.0 14:1250.0 20:10.0 
1.0 8:356.0 14:6.0 
0.5955534524164556 4:65.0 14:10.0 
0.5926033449154783 5:176.0 8:2.0 14:103.0 
0.5953015238380328 1:265.0 3:19.0 4:13.0 5:16869.0 9:5.0 14:634.0 18:8.0 
0.5958058657370404 3:282.0 14:2.0 
0.5957587710939918 1:1.0 3:136.0 4:3.0 5:28.0 14:93.0 15:72.0 18:1.0 
0.5957905627985767 1:47.0 4:34.0 7:6413.0 9:14.0 14:202.0 
0.5956688480875765 1:2.0 5:39851.0 14:5890.0 
0.5959723669432732 8:10008.0 14:17448.0 
0.5958049041553685 3:9.0 4:203.0 8:9.0 
0.5961105748510942 5:86.0 14:61.0 
0.5956175499828695 1:34.0 5:526.0 14:158.0 
0.5959287570991048 8:901.0 14:6.0 
0.5919243826282345 14:2562.0 
0.5957736842151035 3:8.0 5:37.0 14:209.0 18:17.0 
0.5959105842659128 5:83.0 14:445.0 
0.5959059217102496 7:10636.0 8:3.0 18:2418.0 
0.5960896744213382 5:74.0 18:33.0 
0.5962544153371527 2:1.0 4:49.0 5:1121.0 7:6271.0 13:2422.0 14:243.0 16:10.0 18:33.0 
0.5959716499176586 3:10.0 4:3.0 5:5403.0 14:228.0 18:14.0 
0.5958603844219127 3:12.0 4:6.0 5:356.0 14:45.0 
0.5954752576721037 1:22.0 14:348.0 
1.0 14:72.0 
1.0 8:63.0 
0.5958450980085359 5:972.0 13:16719.0 14:603.0 16:19.0 
0.5959261162011029 4:8.0 5:346.0 14:132.0 
0.5958848654065108 4:1.0 5:392.0 14:152.0 
0.6503647414228078 1:8.0 14:82.0 
0.5958962085719299 1:110.0 4:3.0 5:61.0 14:256.0 20:102.0 
0.5959482489875905 1:162.0 4:12.0 8:2.0 13:3023.0 14:335.0 
0.5961622683055419 5:296.0 14:272.0 
0.5957418110340418 3:204.0 5:154.0 9:7.0 14:54.0 18:1.0 
0.5877223887459627 3:3.0 5:16.0 8:15.0 14:97.0 
0.5956688282063839 3:6.0 4:12.0 5:10.0 14:310.0 18:1.0 
0.6203304781940319 3:3.0 4:14.0 14:167.0 
0.24037024485782804 14:257.0 
0.5959687505578618 5:158.0 14:86.0 
0.5959819747783268 3:1.0 4:4452.0 5:12.0 14:157.0 
0.7154999954628378 8:93.0 14:1.0 
0.5953015238380395 8:186.0 14:1.0 
0.5959829381975936 3:885.0 14:258.0 
0.5958848654065108 5:21.0 14:2341.0 18:21.0 20:5258.0 
0.5956688480875769 4:26.0 5:40.0 8:7.0 14:146.0 
0.59533258627123 4:112.0 8:7.0 9:101.0 14:10.0 
0.5962680929143784 3:49.0 14:172.0 18:3.0 
0.5957958031042271 1:3.0 7:17992.0 14:8226.0 
0.59626521184061 4:47.0 5:22708.0 14:40.0 
0.5960928465686224 3:203.0 4:17.0 5:943.0 14:675.0 
1.0 14:83.0 
0.5959094763924351 1:80.0 2:2.0 3:290.0 4:576.0 8:2.0 9:52.0 14:296.0 
0.5958603844166827 4:1.0 5:387.0 14:277.0 
0.5957004574828868 4:233.0 5:666.0 9:1130.0 14:494.0 18:9.0 
0.5958581199322585 1:22.0 4:567.0 14:389.0 20:4505.0 
0.5958752822363969 1:26.0 4:124.0 5:6773.0 14:271.0 18:133.0 
0.5962746013632083 1:260.0 4:41.0 5:234.0 9:10.0 13:5173.0 14:94.0 
0.5958952561104109 3:603.0 4:13.0 5:1270.0 14:122.0 18:39.0 
0.5959914139193229 4:22.0 14:4007.0 
0.5958958804826021 3:217.0 14:276.0 
0.5957385087788879 4:4.0 9:1.0 14:3853.0 
0.7346208818822784 8:2.0 14:99.0 
0.5958508630088308 3:344.0 4:59.0 14:8914.0 
0.5957953582870755 4:3.0 9:28.0 14:813.0 
0.5958239683929424 3:21136.0 5:23.0 14:258.0 
0.5959376714966756 4:36.0 5:840.0 9:20.0 14:217.0 
0.5957385087788879 4:2302.0 
0.5958213513224992 3:36.0 4:1.0 5:293.0 9:51.0 14:204.0 18:6.0 
0.5955675311777548 1:181.0 3:76.0 4:10.0 7:31.0 9:31.0 14:160.0 
0.6915128094700943 14:321.0 
-1.0 3:78.0 14:17.0 
-1.0 14:83.0 
-0.8198437974686812 8:75.0 14:4.0 
-0.998318994305248 5:124.0 14:19.0 
-1.0 3:41.0 14:106.0 16:16.0 
-1.0 9:1.0 14:55.0 
-1.0 5:70.0 13:168.0 14:90.0 
-1.0 5:38.0 8:11.0 14:92.0 
-1.0 4:32.0 8:2.0 
-1.0 3:34.0 14:29.0 
-1.0 1:1.0 14:121.0 16:4.0 
-1.0 3:4.0 4:210.0 14:19.0 
-1.0 3:52.0 8:395.0 14:226.0 
-1.0 5:1.0 14:106.0 
-1.0 1:1.0 4:2.0 8:4.0 9:11.0 14:12.0 16:6.0 
-1.0 14:18.0 16:23.0 
-1.0 14:58.0 
-1.0 2:1.0 5:1.0 9:2.0 14:86.0 
-1.0 8:22.0 14:23.0 
-1.0 8:746.0 14:1.0 
-1.0 8:16.0 14:93.0 
-1.0 3:219.0 4:26.0 14:72.0 
-1.0 4:1.0 8:4.0 14:219.0 
-1.0 1:30.0 4:3.0 7:13.0 14:5.0 18:2.0 
-1.0 7:24.0 14:70.0 
-1.0 7:100.0 8:7.0 14:14.0 
-1.0 8:13.0 14:47.0 
-0.4530837876171557 4:2.0 14:33.0 
-1.0 4:3.0 7:441.0 14:27.0 
-1.0 4:35.0 14:22.0 
-1.0 8:2.0 13:2.0 14:91.0 
-1.0 5:2.0 13:74.0 14:74.0 
-1.0 4:33.0 8:21.0 14:52.0 
-1.0 4:1.0 5:35.0 8:45.0 14:152.0 
-1.0 4:13.0 5:21.0 9:1.0 14:12.0 16:15.0 
-1.0 4:21.0 14:171.0 
-1.0 3:327.0 5:4.0 8:6.0 14:1.0 
-0.8577143618887129 13:3.0 14:130.0 
-1.0 5:66.0 8:7.0 14:26.0 
-1.0 1:31.0 9:10.0 14:41.0 
-1.0 8:248.0 14:1.0 
-1.0 5:11.0 7:1.0 8:6.0 14:47.0 18:18.0 
-0.617394824384278 3:1.0 8:2.0 13:1.0 14:31.0 18:3.0 
-1.0 8:32.0 14:19.0 
-1.0 1:12.0 8:3.0 14:25.0 
-1.0 14:132.0 
-1.0 5:61.0 8:27.0 14:2.0 
-1.0 1:272.0 14:581.0 
-1.0 1:10.0 5:35.0 8:6.0 9:5.0 14:54.0 
-0.8772323037379308 8:46.0 14:3.0 
-1.0 5:97.0 8:37.0 14:32.0 
-1.0 7:30.0 14:9.0 
-1.0 1:31.0 3:6.0 4:168.0 8:45.0 9:11.0 13:12.0 14:46.0 
-1.0 4:4.0 14:53.0 
-1.0 4:8.0 5:10.0 9:3.0 14:27.0 
-1.0 3:451.0 4:16.0 14:24.0 16:4.0 
-1.0 8:19.0 9:2.0 14:111.0 
-1.0 5:75.0 14:5.0 
-1.0 8:87.0 14:8.0 
-1.0 5:189.0 14:20.0 
-1.0 8:32.0 14:229.0 
-0.9013463320408839 8:56.0 
-1.0 14:63.0 
-1.0 1:7.0 3:559.0 8:23.0 9:26.0 14:119.0 
-1.0 1:1.0 3:14.0 14:44.0 16:2.0 
-1.0 8:36.0 14:27.0 
-1.0 8:10.0 14:40.0 
-1.0 8:28.0 13:577.0 14:106.0 
-1.0 8:16.0 14:17.0 18:25.0 
-1.0 7:1523.0 14:2211.0 
-0.9573248253552354 3:5.0 14:81.0 
-0.8201607574203896 14:140.0 
-1.0 3:3.0 5:92.0 14:62.0 18:15.0 
-1.0 5:168.0 14:19.0 
-1.0 14:334.0 
-1.0 8:10.0 13:83.0 14:14.0 
-0.9993831584093313 1:2.0 8:4.0 14:47.0 
-1.0 1:9.0 7:567.0 8:2.0 14:114.0 16:20.0 
-1.0 4:4.0 5:30.0 8:18.0 14:146.0 
-1.0 8:2.0 13:26.0 14:4.0 
-0.734081513272709 8:77.0 14:4.0 
-1.0 3:9.0 7:104.0 14:180.0 
-1.0 5:9.0 7:19.0 8:4.0 13:37.0 14:61.0 
-1.0 1:6.0 3:23.0 4:3.0 14:11.0 
-1.0 1:127.0 4:1.0 8:2.0 13:23.0 14:51.0 16:4.0 
-1.0 3:4.0 7:15.0 8:4.0 14:11.0 
-1.0 1:6.0 8:2.0 14:23.0 
-1.0 8:19.0 14:79.0 
-1.0 5:6.0 14:32.0 
-0.13631180936987727 8:40.0 14:5.0 
-1.0 16:36.0 
-1.0 14:328.0 
-1.0 4:7.0 14:26.0 16:12.0 
-1.0 8:68.0 14:155.0 
-0.9611026589152835 9:4.0 14:29.0 
-1.0 8:26.0 14:45.0 
-1.0 4:103.0 8:5.0 14:4.0 
-1.0 8:2.0 14:83.0 
-1.0 5:245.0 14:104.0 
-1.0 5:57.0 14:12.0 
-1.0 4:12.0 8:32.0 14:33.0 
-1.0 5:81.0 8:2.0 14:49.0 
-1.0 7:98.0 14:70.0 
-1.0 8:809.0 9:1.0 14:12.0 
-1.0 5:39.0 14:85.0 16:14.0 18:3.0 
-1.0 7:658.0 8:1.0 18:2.0 
-1.0 3:58.0 14:32.0 
-1.0 3:2.0 8:25.0 14:16.0 16:2.0 
-0.6986743913854727 14:39.0 
-1.0 14:67.0 
-1.0 3:8.0 13:8.0 14:446.0 16:6.0 
-1.0 5:531.0 9:4.0 
-1.0 3:56.0 4:1.0 7:138.0 14:54.0 
-1.0 7:59.0 14:24.0 
-1.0 7:23.0 14:51.0 
-1.0 3:27.0 4:3.0 14:11.0 
-0.790446305984022 3:2.0 8:2.0 14:77.0 
-1.0 8:253.0 14:35.0 
-1.0 8:39.0 
-1.0 1:97.0 5:10.0 7:37.0 14:237.0 18:8.0 20:265.0 
-1.0 8:63.0 14:3.0 
-0.879994017733926 14:65.0 
-1.0 8:39.0 9:4.0 14:6.0 
-1.0 3:2.0 5:35.0 14:253.0 
-1.0 5:6.0 8:2.0 14:57.0 
-1.0 5:29.0 18:9.0 
-1.0 3:21.0 4:47.0 5:51.0 9:4.0 14:16.0 18:17.0 
-1.0 14:152.0 
-1.0 4:21.0 8:57.0 14:28.0 18:14.0 
-1.0 1:6.0 3:130.0 5:19.0 8:5.0 13:30.0 14:59.0 
-1.0 5:23.0 9:3.0 14:20.0 
-1.0 1:9.0 5:44.0 8:2.0 14:5.0 
-1.0 3:54.0 5:28.0 8:26.0 9:2.0 14:156.0 
-1.0 5:3.0 8:19.0 14:33.0 
-1.0 1:6.0 9:3.0 14:328.0 
-1.0 8:59.0 14:69.0 
-1.0 3:99.0 14:218.0 18:7.0 
-1.0 3:3.0 8:58.0 
-1.0 3:62.0 4:2.0 9:62.0 14:87.0 18:15.0 
-1.0 5:96.0 14:11.0 16:4.0 
-1.0 3:55.0 14:25.0 
-1.0 1:10.0 3:2.0 4:2.0 7:115.0 
-1.0 4:14.0 5:29.0 14:97.0 16:10.0 
-1.0 1:20.0 3:162.0 14:79.0 
-1.0 8:199.0 14:23.0 
-1.0 14:493.0 
-1.0 4:1.0 5:30272.0 9:5.0 14:73.0 
-0.03504329761824708 5:3.0 14:34.0 
-1.0 3:97.0 
-1.0 3:436.0 5:36.0 14:122.0 
-1.0 4:66.0 5:27.0 8:4.0 14:192.0 
-0.8333348872020092 14:130.0 
-1.0 8:357.0 14:7.0 
-1.0 4:1.0 5:477.0 9:7.0 14:97.0 
-1.0 3:22.0 14:47.0 
-1.0 7:305.0 14:30.0 
-1.0 5:40.0 8:117.0 14:16.0 
-1.0 3:6842.0 4:9.0 5:14.0 8:22.0 14:28.0 17:4.0 
-1.0 14:139.0 18:1.0 
-1.0 4:4.0 5:234.0 
-1.0 1:17.0 14:94.0 
-1.0 3:8.0 4:34.0 14:36.0 20:15.0 
-1.0 1:19.0 4:3.0 5:37.0 8:1.0 9:1.0 14:53.0 18:2.0 20:102.0 
-1.0 5:67.0 14:27.0 
-0.5024194038752734 8:2.0 14:36.0 
-1.0 3:38.0 14:128.0 
-1.0 1:22.0 4:1.0 5:6.0 8:34.0 9:5.0 14:99.0 
-1.0 5:3.0 8:47.0 
-0.5871847394553077 8:4.0 14:27.0 
-1.0 8:33.0 14:9.0 
-1.0 1:4.0 3:15.0 8:258.0 9:3.0 
-0.7209140542679288 8:39.0 13:3.0 14:4.0 
-1.0 1:19.0 14:12.0 
-0.6316220406170995 4:2.0 8:2.0 9:1.0 14:78.0 
-1.0 3:86.0 4:2.0 5:106.0 8:15.0 14:84.0 
-1.0 1:1.0 4:39.0 5:251.0 14:82.0 18:2.0 
-0.511215596446978 1:3.0 8:4.0 14:30.0 
-1.0 1:31.0 3:2.0 4:10.0 8:4.0 14:6.0 
-1.0 3:40.0 5:18.0 8:6.0 14:112.0 
-1.0 8:95.0 14:6.0 18:2.0 
-1.0 3:8.0 8:127.0 14:18.0 
-1.0 3:38.0 4:1.0 5:1.0 8:44.0 
-1.0 1:198.0 3:1.0 4:26.0 5:91.0 8:14.0 14:29.0 
-1.0 5:40.0 8:31.0 14:7.0 
-1.0 8:21.0 14:58.0 
-1.0 5:71.0 14:36.0 
-1.0 3:566.0 14:14.0 
-0.7480509719786016 14:65.0 
-1.0 4:22.0 5:142.0 8:17.0 14:30.0 16:3.0 18:8.0 
-1.0 8:306.0 14:8.0 
-0.9985097757472596 5:123.0 9:1.0 14:15.0 
-1.0 5:107.0 14:29.0 
-1.0 5:104.0 
-1.0 8:24.0 9:11.0 14:120.0 16:2.0 
-1.0 4:14.0 5:49.0 8:13.0 14:8.0 
-1.0 1:8.0 7:290.0 8:140.0 14:1037.0 
-1.0 14:69.0 
-1.0 4:19.0 5:32.0 
-1.0 8:41.0 14:31.0 
-1.0 1:42.0 4:83.0 8:9.0 9:14.0 14:23.0 
-1.0 14:513.0 
-1.0 3:6.0 5:60.0 14:3.0 
-1.0 3:18.0 14:62.0 
-1.0 1:2.0 3:2.0 4:85.0 5:553.0 8:26.0 14:128.0 
-1.0 5:3.0 7:329.0 8:102.0 14:19.0 
-1.0 8:24.0 14:29.0 
-1.0 1:72.0 4:10.0 14:76.0 
-1.0 5:10.0 8:3.0 14:26.0 
-1.0 8:22.0 14:11.0 
-1.0 4:73.0 5:10.0 8:46.0 14:14.0 
-1.0 1:8.0 14:30.0 
-1.0 7:198.0 14:98.0 
-1.0 14:75.0 
-1.0 5:80.0 8:46.0 9:2.0 14:11.0 
-1.0 4:4.0 5:11.0 8:40.0 14:41.0 
-1.0 5:47.0 14:17.0 
-1.0 4:1.0 8:8.0 9:1.0 14:23.0 
-1.0 4:10.0 5:188.0 14:100.0 
-1.0 5:15.0 14:46.0 
-1.0 5:104.0 14:40.0 
-1.0 8:223.0 14:4.0 
-0.873513866160198 14:46.0 
-1.0 4:448.0 
-1.0 8:4.0 14:61.0 
-1.0 4:1.0 5:73.0 8:83.0 14:156.0 
-1.0 3:7.0 4:116.0 5:559.0 7:1.0 14:275.0 
-1.0 4:1.0 5:37.0 14:204.0 
-1.0 8:5.0 14:136.0 
-1.0 1:76.0 4:6.0 5:59.0 8:4.0 9:2.0 14:18.0 
-1.0 3:20.0 5:55.0 14:41.0 
-1.0 4:1.0 8:8.0 13:34.0 
-0.11850293409306942 14:79.0 
-1.0 1:6.0 13:38.0 14:9.0 
-1.0 5:17.0 8:4.0 14:576.0 
-1.0 14:176.0 
-1.0 4:5.0 5:23.0 8:176.0 14:131.0 16:2.0 18:64.0 
-1.0 5:14.0 8:213.0 9:5.0 14:55.0 
-1.0 1:26.0 5:22.0 13:8.0 14:12.0 
-1.0 5:25.0 8:2.0 14:5.0 
-1.0 8:68.0 14:59.0 18:4.0 
-1.0 5:174.0 14:125.0 18:1.0 
-1.0 7:51.0 8:1.0 14:12.0 
-1.0 14:98.0 
-1.0 5:7.0 14:68.0 
-1.0 3:3.0 4:39.0 5:15.0 14:4.0 
-1.0 5:33.0 8:82.0 14:10.0 
-1.0 5:51.0 14:31.0 
-1.0 7:76.0 
-1.0 8:157.0 14:132.0 
-1.0 5:103.0 8:2.0 14:7.0 
-1.0 1:60.0 14:103.0 16:2.0 
-1.0 1:20.0 3:4.0 9:11.0 14:18.0 
-1.0 8:149.0 14:479.0 
-1.0 5:784.0 14:11.0 
-1.0 4:2.0 8:108.0 14:4.0 
-1.0 3:44.0 4:1.0 
-1.0 3:599.0 4:19.0 8:19.0 14:161.0 
-1.0 1:2.0 14:52.0 
-1.0 3:41.0 8:25.0 14:69.0 
-1.0 4:11.0 8:126.0 14:84.0 
-1.0 4:4.0 13:74.0 14:32.0 
-1.0 8:129.0 13:147.0 14:7.0 
-1.0 4:16.0 8:171.0 14:79.0 18:42.0 
-1.0 5:87.0 14:8.0 
-0.386086226517429 14:42.0 
-1.0 1:2.0 3:140.0 13:1.0 14:41.0 
-1.0 14:526.0 
