svm_type c_svc
kernel_type rbf
gamma 0.05
nr_class 2
total_sv 683
rho -0.41785317069269845
label 1 -1
nr_sv 420 263
SV
0.5819622431639871 3:915.0 5:27.0 9:15.0 14:251.0 
0.5818410863961914 1:318.0 4:20.0 5:15.0 14:46.0 18:2.0 
0.5817988202555715 4:17.0 8:10.0 13:3646.0 14:509.0 18:24.0 
0.5820193427151419 3:317.0 5:5.0 14:2816.0 
0.5820841427107063 4:1.0 7:6262.0 14:2170.0 20:32.0 
0.5819621424858558 8:8.0 14:271.0 18:48.0 
0.5781869488651157 14:7578.0 
0.5823632776851362 5:314.0 14:70.0 18:47.0 
0.5817747767663684 3:5.0 4:4.0 5:409.0 14:259.0 
0.5819044540389731 3:10.0 5:1.0 7:1547.0 8:41.0 9:11.0 14:12.0 
0.5819988832004601 4:465.0 13:91208.0 14:83.0 20:1.0 
0.5820084301313406 3:2.0 5:48.0 14:317.0 16:8.0 18:1.0 
0.5744562163067803 5:23.0 8:13.0 14:92.0 
0.5817498782672076 8:432.0 
1.0 14:69.0 
0.582561567571418 5:140.0 14:138.0 16:4.0 
0.9802821621411837 14:134.0 
0.5824985093734396 8:2.0 14:90.0 16:39.0 
0.5819921895556205 4:451.0 8:42.0 9:19.0 14:14.0 
0.9583295477388166 4:8.0 14:54.0 
0.5819127612832886 5:1.0 14:1041.0 
0.5820729100358437 4:91.0 14:339.0 
0.8945154593008008 8:18.0 14:54.0 
0.5820849551752311 14:68.0 16:34.0 
0.5824337882034325 14:2085.0 
0.5822543413156667 3:138.0 14:13.0 16:10.0 
0.5824351715579568 5:215.0 14:84.0 
0.932901769101307 8:66.0 14:4.0 
0.5824988920142844 8:3130.0 14:7962.0 
0.5820891078955841 3:644.0 14:3.0 
0.5821027485296515 5:115.0 8:59.0 14:306.0 
0.5819756320444851 4:3.0 5:750.0 14:192.0 
0.5822856187549925 1:169.0 2:6.0 3:1.0 4:28.0 7:9.0 8:62.0 13:614.0 14:270.0 
0.5820862055136912 1:1.0 3:39828.0 14:1918.0 
0.5823859017831472 3:1.0 4:865.0 5:452.0 13:250.0 14:94.0 16:8.0 18:9.0 
0.5819586752396916 5:5.0 14:17907.0 
0.5819145467717102 1:1.0 7:1360.0 14:166.0 
0.5819702849718523 3:238.0 4:27.0 5:1964.0 8:100.0 14:512.0 18:32.0 
0.5819145467717102 3:3.0 5:95.0 13:628.0 14:91.0 
0.5822693872652893 14:8972.0 16:2.0 18:22.0 
0.5822897240756018 3:197.0 5:903.0 7:72.0 8:4.0 9:13.0 14:139.0 
0.5819045962869581 3:5.0 4:5.0 14:138.0 18:25.0 
0.5819429485605936 14:169.0 16:35.0 
0.5823767135590896 9:16.0 14:333.0 
0.5820306216237303 1:136.0 8:7.0 14:2109.0 
0.5822334731443296 8:280.0 14:2.0 
0.5820894389116633 8:48.0 14:53.0 
0.5818432655417574 1:7.0 3:339.0 5:232.0 13:76080.0 14:1185.0 16:22.0 18:6.0 
0.5820717098402066 1:1.0 3:198.0 5:6.0 8:12.0 14:141.0 
0.5820377688461802 1:97.0 4:138.0 8:4.0 9:21.0 13:20989.0 14:2256.0 16:46.0 
0.5824540529094845 5:213.0 14:186.0 
0.5845535975697528 8:10.0 14:156.0 
0.5820876414251357 3:13459.0 
0.5820306216237303 8:1686.0 14:1279.0 
0.5819643217577795 7:182.0 14:245.0 
0.5819702849718522 4:16.0 5:168.0 14:282.0 
0.5819756320444851 1:125.0 5:55.0 8:2.0 14:189.0 18:795.0 
0.5824988920142842 5:56.0 13:1.0 14:212.0 
0.5822792216474333 1:144.0 
0.5818658500923521 3:1.0 4:25.0 5:76.0 13:1.0 14:269.0 16:18.0 
0.5818798306301627 3:98.0 5:21.0 8:42.0 14:519.0 18:36.0 
0.5826342809897683 4:79.0 5:57.0 9:7.0 14:375.0 
0.5821027397086775 4:102.0 7:668.0 8:2.0 13:108.0 14:117.0 
0.5821027397086775 1:3.0 3:799.0 4:2.0 7:2.0 14:331.0 18:10.0 
0.5823859017831472 1:4.0 3:29.0 4:12.0 5:173.0 9:5.0 14:655.0 16:1.0 
0.5819756320444851 3:2.0 5:2399.0 13:4.0 14:572.0 18:109.0 
0.5819756320444851 1:28.0 7:3378.0 9:22.0 13:1682.0 14:168.0 
1.0 4:2.0 14:51.0 
0.5823427545094294 1:4.0 4:12.0 5:300.0 7:2234.0 9:9.0 14:2.0 
0.5820789828979943 5:358.0 14:348.0 
0.5819698560041348 5:507.0 14:2.0 
0.581795185413174 1:60.0 14:420.0 
0.5824351715579568 1:1.0 3:1562.0 4:5.0 14:92.0 
0.8539931904642801 14:217.0 
0.5820425824137636 13:12707.0 14:178.0 16:30.0 18:19.0 
0.5823633261838763 3:1305.0 4:56.0 5:211.0 14:158.0 
0.5823651739298767 8:17048.0 
0.5825742506372873 3:47.0 9:59.0 14:225.0 
0.5825926945409126 1:23.0 4:2.0 5:566.0 14:212.0 16:37.0 
0.58225066974786 14:283.0 
0.5820240851363886 4:101.0 14:498.0 
0.5819778949094352 4:50.0 5:11.0 8:21.0 13:4220.0 14:323.0 18:105.0 
0.5819849357570951 4:1.0 8:2.0 14:2229.0 
0.5818797658083967 5:50.0 14:358.0 18:4.0 
1.0 4:1.0 14:98.0 
0.5822793396588756 1:938.0 4:92.0 8:22.0 9:9.0 
0.581954374603229 5:23.0 14:11830.0 
0.5820400138803539 3:15514.0 4:5.0 
1.0 4:1.0 14:60.0 
0.5822792216474333 7:297.0 8:2.0 18:4.0 
0.5822523720043519 1:204.0 4:150.0 8:19.0 9:23.0 14:198.0 
0.5818060428198077 14:1614.0 
0.5818046294582198 5:33.0 13:167.0 14:286.0 16:4.0 
0.5820717098402068 3:73.0 14:148.0 
0.5823534308595253 14:9523.0 
0.5817890671705022 3:181.0 
0.5817890671705022 4:1044.0 5:12.0 9:3.0 14:36.0 16:4.0 
0.5818915313334971 3:18.0 7:163.0 14:130.0 16:20.0 
0.6311077156893018 1:2.0 8:1.0 9:8.0 14:51.0 
0.5823035752946444 1:32.0 8:46.0 14:306.0 
0.5820915029955573 5:1816.0 14:6.0 
0.5820306216237303 1:18.0 7:216.0 14:7774.0 18:62.0 
0.5822688992938165 1:45.0 4:2.0 14:34.0 
0.5820306216237303 1:176.0 4:3.0 9:25.0 14:2224.0 
0.5849133927563059 4:4.0 5:18.0 14:33.0 
0.5823427607966463 3:7.0 5:37.0 14:167.0 
0.58225560351247 4:3.0 5:61.0 8:664.0 
0.5881421950123342 4:2.0 14:227.0 
0.5822921516460757 3:2.0 4:74.0 5:110.0 8:1.0 9:19.0 13:4.0 14:314.0 16:6.0 18:10.0 20:47.0 
0.5820465462328707 1:5.0 3:17.0 4:6.0 14:4096.0 
0.5835466442282206 14:163.0 
0.5818562059058563 3:8.0 13:1.0 14:353.0 
0.5819429485594145 5:48.0 9:7.0 14:963.0 18:5.0 
0.5818940055620935 2:5.0 10:1.0 14:310.0 18:7.0 
0.5827282353404717 7:410.0 14:10119.0 18:80.0 
0.5826649772240653 1:7.0 3:1414.0 14:1069.0 
1.0 14:86.0 
0.5822887186542771 3:1.0 4:1.0 5:1506.0 14:163.0 
0.5823427545094294 14:5330.0 18:14.0 
0.5817951854711945 3:119.0 14:54.0 
0.5815707590937106 14:187.0 16:12.0 
0.5819357279024222 8:442.0 14:19.0 
0.5823035752946444 1:102.0 5:89.0 14:488.0 16:50.0 18:16.0 
0.5817998697369752 8:36.0 14:97.0 
0.5819988832004601 1:184.0 3:22.0 5:2.0 9:10.0 13:79.0 14:258.0 16:41.0 
0.5822793396588757 1:311.0 3:3.0 4:41.0 13:1180.0 14:210.0 18:14.0 
0.5823688471854023 5:190.0 14:465.0 
0.5823113071427222 1:93.0 4:15.0 14:92.0 
0.5826686567290891 5:1324.0 14:121.0 
0.5824012800004692 3:868.0 5:29.0 8:7.0 9:34.0 14:75.0 
0.5824494199875752 5:35.0 7:1841.0 14:1.0 
0.5819429485605936 8:104087.0 
0.5819698560040204 4:44.0 7:2343.0 9:12.0 13:77.0 14:177.0 16:1.0 20:703.0 
0.5822792216474333 3:169.0 4:206.0 8:2.0 14:1832.0 
0.5818562053443253 1:4.0 3:22.0 7:7442.0 9:10.0 14:66.0 
0.5822664788576728 3:38.0 7:4032.0 14:10.0 18:675.0 
0.5817966806425825 4:29232.0 5:145.0 9:5.0 14:38.0 
0.5819124937125089 1:1958.0 9:15.0 14:26.0 
0.5819292376236487 1:3.0 3:203.0 8:551.0 9:85.0 10:24.0 11:331.0 13:17419.0 15:62.0 17:6.0 
0.581925633693654 1:404.0 4:64.0 14:2390.0 
0.5819622430400188 5:222.0 14:148.0 16:2.0 
0.5820377728703887 4:112.0 9:23.0 14:5.0 
0.5819756320444851 14:13526.0 
0.5864816075757595 1:2.0 4:10.0 5:60.0 14:12.0 
0.581795185413174 3:12.0 5:304.0 
0.5817951854711503 5:123.0 7:2126.0 9:2.0 14:43.0 
0.581894344084151 14:5734.0 
0.5821027397086775 8:641.0 
0.5823859017831472 4:14.0 5:86.0 7:549.0 14:29.0 20:107.0 
0.5825615740850896 4:6.0 5:38.0 14:14.0 18:17.0 
0.5823859017831472 4:36.0 8:25.0 9:25.0 14:166.0 
1.0 14:132.0 
0.5826342809897683 1:224.0 3:90.0 5:68.0 9:77.0 14:4086.0 20:699.0 
0.5819756320444851 1:5.0 3:22.0 7:214.0 14:147.0 
0.5823487075873504 3:49.0 4:5.0 13:1733.0 14:2080.0 18:36.0 
0.5818362702528852 5:74.0 14:1932.0 
0.5820717098401992 5:71.0 9:13.0 14:75.0 18:7.0 
0.5819198998394455 5:223.0 16:10.0 
0.5819566737485907 3:24.0 4:1.0 14:11849.0 16:4.0 
0.5819436671500379 1:35.0 7:785.0 9:5.0 14:219.0 
0.5819698560040204 1:105.0 3:42210.0 4:3.0 5:501.0 9:24.0 14:18.0 
0.5820306216237303 3:415.0 4:66.0 8:24.0 14:546.0 18:24.0 
0.5829759758220748 5:36.0 8:1.0 14:55.0 
0.5820306216237303 7:14979.0 
0.5823667637352145 3:1172.0 8:3.0 14:109.0 
0.5824110881862062 1:11.0 4:1884.0 5:1922.0 9:45.0 14:236.0 
0.5375257223529226 8:99.0 
0.5824012800004692 5:695.0 8:7.0 
0.5098670440426154 14:262.0 
0.582490695347041 3:47.0 5:114.0 13:11220.0 14:26.0 18:10.0 
0.5825703645224338 3:3335.0 14:407.0 
0.5822693872652893 5:49267.0 14:31.0 18:10.0 
0.5821656765727397 4:3.0 5:176.0 14:160.0 
0.5823185774056762 8:1900.0 14:11541.0 
0.5825927091886176 4:49.0 8:2.0 14:235.0 
0.5819566737480741 5:127.0 14:2344.0 
0.5826649772240653 3:107.0 5:26.0 14:2213.0 
0.5823613440869235 5:1774.0 14:36.0 
0.581788521440591 3:1.0 4:25.0 5:36.0 14:227.0 16:26.0 
0.5827282353404717 5:4018.0 9:20.0 18:77.0 
0.5826803411121183 5:8433.0 9:1.0 14:25.0 
0.581804629458236 4:48.0 8:4.0 14:63.0 
0.5820841427107064 4:3.0 5:131.0 8:89.0 14:261.0 
0.5823655246843661 5:5.0 9:13.0 14:3091.0 
0.5824351715579568 1:2.0 3:159.0 4:9.0 5:193.0 7:46.0 14:98.0 
0.5819756320444851 3:1.0 4:9927.0 5:415.0 8:8.0 9:13.0 14:21.0 
0.4546492034804918 14:211.0 
0.5817793388475927 8:17281.0 14:3.0 
0.5823879089284953 3:66.0 4:1.0 5:321.0 14:377.0 
0.5821019491333653 4:4.0 5:52.0 14:330.0 
0.5818362702528852 5:19200.0 14:74.0 
0.5826610648683073 8:1144.0 
0.58211631721509 9:19.0 14:242.0 
0.5818410728691361 5:751.0 8:178.0 18:87.0 
0.5820306216237303 4:3848.0 14:1.0 
0.582916672732684 1:1.0 5:17.0 14:53.0 
0.5826649772240653 1:4.0 2:10.0 3:228.0 4:362.0 5:39.0 6:2663.0 7:5316.0 8:1131.0 9:1383.0 13:237.0 15:272.0 18:631.0 
0.5819643217577795 5:15.0 7:1206.0 14:309.0 
0.5786515451155215 5:1.0 14:7570.0 16:6.0 
0.5818026146053756 4:11827.0 9:5.0 14:40.0 
0.5819756320444851 1:33.0 4:1.0 7:48.0 9:2.0 14:54.0 20:6.0 
0.5823859017831472 4:92.0 5:137.0 13:52.0 14:79.0 
0.5819566737224996 5:374.0 14:353.0 16:14.0 
0.5821032123403165 3:51.0 4:1.0 16:27.0 
0.5824494199875752 13:1.0 14:617.0 
0.5823750983589905 3:112.0 4:3.0 
0.5823879089284953 4:4.0 7:966.0 14:626.0 
0.5817956898313843 1:3.0 3:94.0 14:22.0 
0.5819292376170728 3:21.0 14:304.0 
0.5823613440869235 3:119.0 4:4.0 7:6326.0 8:24.0 
0.5817966806425825 1:192.0 4:3.0 14:605.0 
0.5826716756866226 3:1.0 4:1.0 5:843.0 14:227.0 
0.5782815139779961 14:201.0 
0.582083440075876 3:7.0 5:381.0 8:12.0 14:208.0 
0.5819567292855007 8:568.0 14:3.0 
0.5819985182244105 1:2.0 3:21.0 4:43.0 8:357.0 
0.5819596316058758 3:31.0 4:2.0 5:55.0 9:3.0 14:30.0 
0.5824906201637728 3:242.0 4:123.0 5:91.0 8:2.0 14:40.0 18:4.0 
0.5818053769803085 3:48.0 5:33.0 9:4.0 14:93.0 16:4.0 
1.0 7:2.0 14:63.0 
0.5822506698823189 7:2122.0 8:8.0 13:11464.0 14:21.0 
0.580126350618139 1:9.0 8:3.0 9:2.0 14:172.0 
0.5825742506372873 3:33.0 4:87.0 5:500.0 7:11652.0 8:2.0 9:3.0 14:179.0 16:8.0 
0.5827105458789095 4:38.0 14:7755.0 
0.581925633693654 1:543.0 4:35.0 5:11.0 13:202.0 14:105.0 16:14.0 
0.40128625537051454 5:4.0 14:134.0 
0.582561567571418 1:15.0 5:537.0 14:76.0 16:29.0 18:6.0 
0.8319206156839353 4:1.0 9:3.0 14:60.0 
0.582357338126885 4:146.0 7:108.0 14:365.0 16:9.0 17:1.0 
0.5817988202555715 4:31.0 14:203.0 
0.5822921513502892 4:4.0 14:1272.0 
0.5822543413156667 3:4.0 5:147.0 7:1103.0 14:5.0 
0.5817696956231269 3:7.0 4:103.0 5:28.0 7:265.0 8:128.0 9:15.0 11:20.0 13:42.0 14:44.0 
0.5826410088652578 7:361.0 14:131.0 
0.5823688471854023 3:14.0 5:2359.0 14:113.0 
0.5821018269990821 8:16922.0 14:5.0 
0.5819566737481932 5:336.0 7:394.0 14:107.0 
0.5823859017831472 3:76.0 5:71.0 14:620.0 
0.5817951854711503 1:117.0 4:43.0 5:41.0 13:3256.0 14:11.0 
0.5817589767577114 1:19079.0 4:3793.0 9:2.0 14:14.0 16:6.0 
0.5825926945409126 3:14.0 4:6.0 5:1553.0 14:79.0 
0.5825743219581142 8:17864.0 
0.5817696956231269 4:47.0 5:623.0 8:7.0 14:413.0 
0.5819145467717102 5:49.0 7:7952.0 8:3.0 9:2.0 13:6.0 14:127.0 
0.5821065033189847 14:510.0 
0.5823831355923073 1:121.0 3:463.0 4:270.0 7:3540.0 9:182.0 14:217.0 18:50.0 
0.5826410088652578 3:12147.0 5:119.0 14:46.0 
0.5820092281693199 8:11592.0 14:5.0 
0.5827507249369329 3:52.0 4:4.0 5:562.0 6:2.0 14:214.0 
1.0 14:65.0 
0.5822856263179765 5:469.0 8:2.0 14:113.0 
0.5820893930649154 3:147.0 4:3.0 5:19.0 14:431.0 
0.4548408599607061 14:241.0 
0.5819124937125089 1:3.0 4:2.0 5:56.0 13:424.0 14:261.0 16:12.0 
0.5819698560040204 8:13394.0 14:1.0 
0.5820789829235195 4:241.0 5:154.0 14:209.0 
0.44329944975965063 14:236.0 
0.5820377728703732 4:41.0 5:307.0 7:4621.0 8:36.0 13:1257.0 14:2210.0 
0.5818432655417574 3:1.0 4:158.0 8:19.0 14:315.0 
0.5819622430400188 3:178.0 5:85.0 7:4797.0 9:2.0 14:96.0 20:4481.0 
0.8481368740195192 4:3.0 14:120.0 
0.5859407322823832 3:1.0 14:189.0 
1.0 14:175.0 
0.5823668045394713 1:119.0 3:358.0 4:3.0 9:7.0 14:2815.0 18:50.0 
0.5822944149951896 1:496.0 4:11.0 7:10517.0 
0.5819849727338939 1:47.0 4:4.0 8:92.0 14:7628.0 
0.5823124140707747 4:2.0 5:25.0 9:15.0 14:13.0 
0.5817608753813995 8:2.0 14:425.0 18:41.0 
0.5822793396588757 4:18.0 5:692.0 9:5.0 13:1172.0 14:172.0 
0.5818410855342484 8:1.0 9:8.0 14:792.0 
0.5819429482630696 4:4.0 5:18.0 9:2.0 14:1262.0 
0.5823632776851362 8:34.0 14:337.0 
0.5826803411121183 5:881.0 14:929.0 18:8.0 
0.5817747767663684 1:8.0 4:9.0 5:656.0 7:2433.0 8:197.0 9:12.0 
0.5993264706682604 5:166.0 14:129.0 
0.5820789829235729 4:9.0 5:647.0 8:2.0 13:5310.0 14:316.0 16:42.0 18:50.0 
1.0 14:135.0 
0.5820915029955573 5:1529.0 8:3.0 14:2974.0 
0.5822576697841643 1:219.0 14:50.0 
0.5820986951364399 4:451.0 14:155.0 16:2.0 
0.5825926945409126 5:14861.0 14:75.0 
0.5819988832004601 2:3.0 5:31.0 8:19.0 14:668.0 
0.582561567571418 3:3813.0 9:9.0 14:32.0 16:1.0 20:2.0 
0.5822792216474333 3:2997.0 4:2.0 5:59.0 8:2.0 14:132.0 
0.5817591716964954 3:91.0 14:652.0 18:6.0 
0.5823613438238024 8:56726.0 14:30.0 
0.5819573691938197 8:1064.0 14:9.0 
0.5823531789063151 14:26.0 18:30.0 
0.5823631677585901 4:4.0 5:47.0 7:918.0 9:16.0 14:528.0 18:44.0 
0.5887375148589272 5:45.0 14:39.0 
0.5824351715579568 3:4.0 4:1.0 5:889.0 14:121.0 
0.536211353319813 14:10359.0 
0.5818797658083967 4:649.0 5:18988.0 14:44.0 
0.5819849357570951 4:1893.0 5:56.0 14:69.0 16:19.0 
0.582097127936047 5:259.0 7:7431.0 9:11.0 14:4.0 18:47.0 
0.579230816923948 5:186.0 14:103.0 
0.5817865460520664 3:27.0 4:54.0 5:528.0 8:2.0 14:943.0 
0.58225066988315 5:1089.0 9:24.0 14:3580.0 
0.581841072942499 1:5.0 3:40.0 4:49.0 5:565.0 13:947.0 14:267.0 18:10.0 
0.612805270900055 8:81.0 14:14.0 
0.5356988033103918 14:10352.0 
0.5820094478158155 8:96.0 14:718.0 
0.5819995069376867 5:503.0 9:18.0 14:247.0 
0.5819988832004601 5:5820.0 14:9.0 18:3.0 
0.5822523720043519 5:424.0 13:3056.0 14:267.0 18:92.0 
0.58241549758958 8:307.0 14:6.0 
0.5819044540389731 4:17.0 5:525.0 14:139.0 16:2.0 18:10.0 
0.885796473776016 5:78.0 14:9.0 
0.5817918769193052 3:105.0 5:2247.0 
0.5817998687857858 1:275.0 4:7.0 5:2070.0 8:2.0 14:316.0 
0.5820400138803539 7:24447.0 14:121.0 
0.5822506698823189 8:2.0 14:306.0 18:94.0 
0.5819567292855007 1:18.0 4:2.0 13:537.0 14:113.0 
0.581698421456738 8:445.0 14:4.0 
0.5820717098402066 13:1.0 14:1876.0 
0.5824685164756022 5:756.0 7:865.0 9:5.0 14:504.0 
0.5821629177592609 5:18431.0 14:141.0 
0.5820915029955573 5:293.0 14:251.0 16:18.0 18:13.0 
0.5819054853418041 3:669.0 4:42.0 5:1006.0 14:86.0 
0.5820094478158155 5:3343.0 14:521.0 18:18.0 
0.5818026146053756 4:1.0 5:20780.0 9:21.0 14:36.0 
0.5821814292775864 14:441.0 
0.581837478722479 5:3145.0 14:41.0 
0.47228525191662685 14:253.0 
0.5823625310499806 3:3.0 4:18.0 5:7199.0 14:178.0 18:10.0 
0.5819566737481932 3:38.0 5:198.0 14:78.0 
0.5819566737485907 3:129.0 14:350.0 
0.5823667638006569 8:136.0 
0.5822788232211848 8:4461.0 14:10328.0 
0.5825926945409126 1:6.0 3:46.0 4:2.0 5:1074.0 14:84.0 18:24.0 
0.5823647631169322 5:46.0 7:270.0 14:10957.0 
0.5823633261838763 3:2.0 4:3.0 5:508.0 8:2.0 13:1537.0 14:130.0 
0.5820425824137636 4:132.0 8:25.0 14:48.0 
0.5818892867822882 5:31.0 14:68.0 16:4.0 
0.5801109127785008 5:78.0 14:20.0 
0.5817696956231269 1:17.0 4:19.0 5:291.0 8:36.0 13:11075.0 14:192.0 
0.5823625310499806 4:1.0 5:590.0 8:2.0 14:113.0 18:1481.0 
0.5819122109282959 3:1.0 4:4.0 5:166.0 9:87.0 14:579.0 
0.5823551621918264 1:9.0 3:3267.0 4:7.0 
0.5817918769193052 3:2.0 5:721.0 8:8.0 14:206.0 
0.5826649772240653 1:17.0 5:21.0 8:4.0 13:203.0 18:7.0 
0.5819567292855007 1:14.0 3:11.0 4:4.0 9:15.0 14:1212.0 16:54.0 
0.5785086903552376 14:2572.0 
0.5818060428330183 4:37.0 8:14.0 14:178.0 
0.5820862055136912 3:2588.0 4:3.0 7:24.0 9:12.0 14:331.0 20:1962.0 
0.5823613456246086 1:5.0 4:22.0 9:6.0 14:36.0 
0.5820789829235727 3:2.0 14:2157.0 
0.5819045534664555 1:28216.0 4:2265.0 14:3404.0 
0.5818410728691361 3:142.0 4:51.0 14:66.0 
0.5823647631169322 4:84.0 14:151.0 
0.5819566737485907 1:6.0 7:4989.0 14:79.0 
0.5823551621918264 5:3660.0 7:1374.0 14:1250.0 20:10.0 
1.0 8:356.0 14:6.0 
0.5817696956231269 4:65.0 14:10.0 
0.5791701605574462 5:176.0 8:2.0 14:103.0 
0.5819045962869338 1:265.0 3:19.0 4:13.0 5:16869.0 9:5.0 14:634.0 18:8.0 
0.5820310038220778 3:282.0 14:2.0 
0.5820893930649154 1:1.0 3:136.0 4:3.0 5:28.0 14:93.0 15:72.0 18:1.0 
0.5824154975895801 1:47.0 4:34.0 7:6413.0 9:14.0 14:202.0 
0.5819122109282959 1:2.0 5:39851.0 14:5890.0 
0.5817613321633786 8:10008.0 14:17448.0 
0.5827105458851498 3:9.0 4:203.0 8:9.0 
0.5822005161099445 5:86.0 14:61.0 
0.5819145467717102 1:34.0 5:526.0 14:158.0 
0.5823632776851362 8:901.0 14:6.0 
0.5781854791821902 14:2562.0 
0.5823831355923073 3:8.0 5:37.0 14:209.0 18:17.0 
0.5819405524609312 5:83.0 14:445.0 
0.5820891078955841 7:10636.0 8:3.0 18:2418.0 
0.5821018269990821 5:74.0 18:33.0 
0.5822793396588757 2:1.0 4:49.0 5:1121.0 7:6271.0 13:2422.0 14:243.0 16:10.0 18:33.0 
0.5825927091886176 3:10.0 4:3.0 5:5403.0 14:228.0 18:14.0 
0.582077380977254 3:12.0 4:6.0 5:356.0 14:45.0 
0.5819602655807952 1:22.0 14:348.0 
0.4946462341033896 14:72.0 
1.0 8:63.0 
0.5819797843485478 5:972.0 13:16719.0 14:603.0 16:19.0 
0.581870602824576 4:8.0 5:346.0 14:132.0 
0.581841072942499 4:1.0 5:392.0 14:152.0 
0.6459625966751776 1:8.0 14:82.0 
0.5822897240756018 1:110.0 4:3.0 5:61.0 14:256.0 20:102.0 
0.581954374603229 1:162.0 4:12.0 8:2.0 13:3023.0 14:335.0 
0.5827507249369329 5:296.0 14:272.0 
0.5817608753813995 3:204.0 5:154.0 9:7.0 14:54.0 18:1.0 
0.5745450290353902 3:3.0 5:16.0 8:15.0 14:97.0 
0.581962220097205 3:6.0 4:12.0 5:10.0 14:310.0 18:1.0 
0.6066983354431774 3:3.0 4:14.0 14:167.0 
0.22386486937830705 14:257.0 
0.5819995069376634 5:158.0 14:86.0 
0.5818410855342484 3:1.0 4:4452.0 5:12.0 14:157.0 
0.7041314264096981 8:93.0 14:1.0 
0.5826610648683139 8:186.0 14:1.0 
0.5820377688461802 3:885.0 14:258.0 
0.5820915029955573 5:21.0 14:2341.0 18:21.0 20:5258.0 
0.5823651739298772 4:26.0 5:40.0 8:7.0 14:146.0 
0.5823531651256594 4:112.0 8:7.0 9:101.0 14:10.0 
0.5826686567290891 3:49.0 14:172.0 18:3.0 
0.5821832636506438 1:3.0 7:17992.0 14:8226.0 
0.5824985093776822 4:47.0 5:22708.0 14:40.0 
0.5820306216237303 3:203.0 4:17.0 5:943.0 14:675.0 
1.0 14:83.0 
0.5819621424858558 1:80.0 2:2.0 3:290.0 4:576.0 8:2.0 9:52.0 14:296.0 
0.5819566737485907 4:1.0 5:387.0 14:277.0 
0.5819383049747856 4:233.0 5:666.0 9:1130.0 14:494.0 18:9.0 
0.5823859017831472 1:22.0 4:567.0 14:389.0 20:4505.0 
0.5823859017831472 1:26.0 4:124.0 5:6773.0 14:271.0 18:133.0 
0.5817976541873894 1:260.0 4:41.0 5:234.0 9:10.0 13:5173.0 14:94.0 
0.581894344084151 3:603.0 4:13.0 5:1270.0 14:122.0 18:39.0 
0.5819995068518753 4:22.0 14:4007.0 
0.5820875247369914 3:217.0 14:276.0 
0.582490695347041 4:4.0 9:1.0 14:3853.0 
0.7454273956358394 8:2.0 14:99.0 
0.5823632776851362 3:344.0 4:59.0 14:8914.0 
0.5820154426826462 4:3.0 9:28.0 14:813.0 
0.5818798306301627 3:21136.0 5:23.0 14:258.0 
0.5821163245609386 4:36.0 5:840.0 9:20.0 14:217.0 
0.581788521440591 4:2302.0 
0.5819573691938197 3:36.0 4:1.0 5:293.0 9:51.0 14:204.0 18:6.0 
0.5820875247369914 1:181.0 3:76.0 4:10.0 7:31.0 9:31.0 14:160.0 
0.6773677529116058 14:321.0 
-1.0 3:78.0 14:17.0 
-1.0 14:83.0 
-0.8264938009682659 8:75.0 14:4.0 
-1.0 5:124.0 14:19.0 
-1.0 3:41.0 14:106.0 16:16.0 
-0.1805471276777331 9:1.0 14:55.0 
-1.0 5:70.0 13:168.0 14:90.0 
-1.0 5:38.0 8:11.0 14:92.0 
-1.0 4:32.0 8:2.0 
-1.0 3:34.0 14:29.0 
-1.0 1:1.0 14:121.0 16:4.0 
-1.0 3:4.0 4:210.0 14:19.0 
-1.0 3:52.0 8:395.0 14:226.0 
-1.0 5:1.0 14:106.0 
-1.0 1:1.0 4:2.0 8:4.0 9:11.0 14:12.0 16:6.0 
-1.0 14:18.0 16:23.0 
-1.0 14:58.0 
-1.0 2:1.0 5:1.0 9:2.0 14:86.0 
-1.0 8:22.0 14:23.0 
-1.0 8:746.0 14:1.0 
-1.0 8:16.0 14:93.0 
-1.0 3:219.0 4:26.0 14:72.0 
-1.0 4:1.0 8:4.0 14:219.0 
-1.0 1:30.0 4:3.0 7:13.0 14:5.0 18:2.0 
-1.0 7:24.0 14:70.0 
-1.0 7:100.0 8:7.0 14:14.0 
-1.0 8:13.0 14:47.0 
-0.415808914895487 4:2.0 14:33.0 
-1.0 4:3.0 7:441.0 14:27.0 
-1.0 4:35.0 14:22.0 
-0.8581289655030392 8:2.0 13:2.0 14:91.0 
-1.0 5:2.0 13:74.0 14:74.0 
-1.0 4:33.0 8:21.0 14:52.0 
-1.0 4:1.0 5:35.0 8:45.0 14:152.0 
-1.0 4:13.0 5:21.0 9:1.0 14:12.0 16:15.0 
-1.0 4:21.0 14:171.0 
-1.0 3:327.0 5:4.0 8:6.0 14:1.0 
-1.0 13:3.0 14:130.0 
-1.0 5:66.0 8:7.0 14:26.0 
-1.0 1:31.0 9:10.0 14:41.0 
-1.0 8:248.0 14:1.0 
-1.0 5:11.0 7:1.0 8:6.0 14:47.0 18:18.0 
-0.49118414181207726 3:1.0 8:2.0 13:1.0 14:31.0 18:3.0 
-1.0 8:32.0 14:19.0 
-1.0 1:12.0 8:3.0 14:25.0 
-1.0 14:132.0 
-1.0 5:61.0 8:27.0 14:2.0 
-1.0 1:272.0 14:581.0 
-1.0 1:10.0 5:35.0 8:6.0 9:5.0 14:54.0 
-0.8898208260755788 8:46.0 14:3.0 
-1.0 5:97.0 8:37.0 14:32.0 
-1.0 7:30.0 14:9.0 
-1.0 1:31.0 3:6.0 4:168.0 8:45.0 9:11.0 13:12.0 14:46.0 
-1.0 4:4.0 14:53.0 
-1.0 4:8.0 5:10.0 9:3.0 14:27.0 
-1.0 3:451.0 4:16.0 14:24.0 16:4.0 
-1.0 8:19.0 9:2.0 14:111.0 
-1.0 5:75.0 14:5.0 
-1.0 8:87.0 14:8.0 
-1.0 5:189.0 14:20.0 
-1.0 8:32.0 14:229.0 
-0.9150184409516969 8:56.0 
-1.0 14:63.0 
-1.0 1:7.0 3:559.0 8:23.0 9:26.0 14:119.0 
-1.0 1:1.0 3:14.0 14:44.0 16:2.0 
-1.0 8:36.0 14:27.0 
-1.0 8:10.0 14:40.0 
-1.0 8:28.0 13:577.0 14:106.0 
-1.0 8:16.0 14:17.0 18:25.0 
-1.0 7:1523.0 14:2211.0 
-0.9156198053290983 3:5.0 14:81.0 
-1.0 3:3.0 5:92.0 14:62.0 18:15.0 
-1.0 5:168.0 14:19.0 
-1.0 14:334.0 
-1.0 8:10.0 13:83.0 14:14.0 
-1.0 1:2.0 8:4.0 14:47.0 
-1.0 1:9.0 7:567.0 8:2.0 14:114.0 16:20.0 
-1.0 4:4.0 5:30.0 8:18.0 14:146.0 
-1.0 8:2.0 13:26.0 14:4.0 
-0.7418535960398127 8:77.0 14:4.0 
-1.0 3:9.0 7:104.0 14:180.0 
-1.0 5:9.0 7:19.0 8:4.0 13:37.0 14:61.0 
-1.0 1:6.0 3:23.0 4:3.0 14:11.0 
-1.0 1:127.0 4:1.0 8:2.0 13:23.0 14:51.0 16:4.0 
-1.0 3:4.0 7:15.0 8:4.0 14:11.0 
-1.0 1:6.0 8:2.0 14:23.0 
-1.0 8:19.0 14:79.0 
-1.0 5:6.0 14:32.0 
-0.14232292165120045 8:40.0 14:5.0 
-1.0 16:36.0 
-1.0 14:328.0 
-1.0 4:7.0 14:26.0 16:12.0 
-1.0 8:68.0 14:155.0 
-0.8219374291661826 9:4.0 14:29.0 
-1.0 8:26.0 14:45.0 
-1.0 4:103.0 8:5.0 14:4.0 
-0.1445468203577389 8:2.0 14:83.0 
-1.0 5:245.0 14:104.0 
-1.0 5:57.0 14:12.0 
-1.0 4:12.0 8:32.0 14:33.0 
-1.0 5:81.0 8:2.0 14:49.0 
-1.0 7:98.0 14:70.0 
-1.0 8:809.0 9:1.0 14:12.0 
-1.0 5:39.0 14:85.0 16:14.0 18:3.0 
-1.0 7:658.0 8:1.0 18:2.0 
-1.0 3:58.0 14:32.0 
-1.0 3:2.0 8:25.0 14:16.0 16:2.0 
-0.7992696673035186 14:39.0 
-1.0 14:67.0 
-1.0 3:8.0 13:8.0 14:446.0 16:6.0 
-1.0 5:531.0 9:4.0 
-0.8004529437786894 3:2.0 7:3.0 14:28.0 
-1.0 1:2.0 7:6.0 8:44.0 14:19.0 16:6.0 
-1.0 8:36.0 14:39.0 20:1.0 
-1.0 3:835.0 8:4.0 
-1.0 1:37.0 5:25.0 9:2.0 14:87.0 
-0.8059686538406178 8:111.0 14:4.0 
-0.8917931398375907 14:91.0 
-1.0 9:16.0 14:89.0 16:2.0 
-0.9017844308271161 14:83.0 
-1.0 1:9.0 4:5.0 8:8.0 14:13.0 
-1.0 8:36.0 14:444.0 
-1.0 7:42.0 14:3.0 
-0.12340197822893957 14:45.0 
-1.0 5:44.0 8:309.0 14:30.0 
-1.0 5:265.0 
-1.0 3:354.0 14:1018.0 
-1.0 4:29.0 14:146.0 
-1.0 8:131.0 14:79.0 
-1.0 8:4.0 9:5.0 14:82.0 
-1.0 8:10.0 14:186.0 
-1.0 1:75.0 9:5.0 14:100.0 
-1.0 8:93.0 14:19.0 
-1.0 4:4.0 5:8.0 9:1.0 18:32.0 
-1.0 5:46.0 8:2.0 
-0.5524384157586717 14:56.0 
-1.0 9:13.0 14:23.0 
-1.0 5:81.0 9:4.0 14:40.0 
-1.0 14:139.0 
-1.0 9:14.0 14:144.0 
-1.0 4:37.0 
-1.0 1:1.0 3:523.0 9:2.0 14:69.0 
-1.0 5:96.0 14:13.0 
-1.0 5:4.0 13:50.0 14:22.0 
-1.0 3:70.0 5:9.0 7:51.0 14:18.0 
-1.0 5:27.0 14:40.0 
-0.9476405596738635 8:108.0 14:8.0 
-1.0 5:67.0 14:10.0 
-1.0 3:56.0 4:1.0 7:138.0 14:54.0 
-1.0 7:59.0 14:24.0 
-1.0 7:23.0 14:51.0 
-1.0 3:27.0 4:3.0 14:11.0 
-0.8172378480540204 3:2.0 8:2.0 14:77.0 
-1.0 8:253.0 14:35.0 
-1.0 8:39.0 
-1.0 1:97.0 5:10.0 7:37.0 14:237.0 18:8.0 20:265.0 
-1.0 8:63.0 14:3.0 
-1.0 14:65.0 
-1.0 8:39.0 9:4.0 14:6.0 
-1.0 3:2.0 5:35.0 14:253.0 
-1.0 5:6.0 8:2.0 14:57.0 
-1.0 5:29.0 18:9.0 
-1.0 3:21.0 4:47.0 5:51.0 9:4.0 14:16.0 18:17.0 
-1.0 14:152.0 
-1.0 4:21.0 8:57.0 14:28.0 18:14.0 
-1.0 1:6.0 3:130.0 5:19.0 8:5.0 13:30.0 14:59.0 
-1.0 5:23.0 9:3.0 14:20.0 
-1.0 1:9.0 5:44.0 8:2.0 14:5.0 
-1.0 3:54.0 5:28.0 8:26.0 9:2.0 14:156.0 
-1.0 5:3.0 8:19.0 14:33.0 
-1.0 1:6.0 9:3.0 14:328.0 
-1.0 8:59.0 14:69.0 
-1.0 3:99.0 14:218.0 18:7.0 
-1.0 3:3.0 8:58.0 
-1.0 3:62.0 4:2.0 9:62.0 14:87.0 18:15.0 
-1.0 5:96.0 14:11.0 16:4.0 
-1.0 3:55.0 14:25.0 
-1.0 1:10.0 3:2.0 4:2.0 7:115.0 
-1.0 4:14.0 5:29.0 14:97.0 16:10.0 
-1.0 1:20.0 3:162.0 14:79.0 
-1.0 8:199.0 14:23.0 
-1.0 14:493.0 
-1.0 4:1.0 5:30272.0 9:5.0 14:73.0 
-0.04808315211707422 5:3.0 14:34.0 
-1.0 3:97.0 
-1.0 3:436.0 5:36.0 14:122.0 
-1.0 4:66.0 5:27.0 8:4.0 14:192.0 
-1.0 14:130.0 
-1.0 8:357.0 14:7.0 
-1.0 4:1.0 5:477.0 9:7.0 14:97.0 
-1.0 3:22.0 14:47.0 
-1.0 7:305.0 14:30.0 
-1.0 5:40.0 8:117.0 14:16.0 
-1.0 3:6842.0 4:9.0 5:14.0 8:22.0 14:28.0 17:4.0 
-1.0 14:139.0 18:1.0 
-1.0 4:4.0 5:234.0 
-1.0 1:17.0 14:94.0 
-1.0 3:8.0 4:34.0 14:36.0 20:15.0 
-1.0 1:19.0 4:3.0 5:37.0 8:1.0 9:1.0 14:53.0 18:2.0 20:102.0 
-1.0 5:67.0 14:27.0 
-0.5071817898888051 8:2.0 14:36.0 
-1.0 3:38.0 14:128.0 
-1.0 1:22.0 4:1.0 5:6.0 8:34.0 9:5.0 14:99.0 
-1.0 5:3.0 8:47.0 
-0.6309929124348646 8:4.0 14:27.0 
-1.0 8:33.0 14:9.0 
-1.0 1:4.0 3:15.0 8:258.0 9:3.0 
-0.7301550411988895 8:39.0 13:3.0 14:4.0 
-1.0 1:19.0 14:12.0 
-0.5541399962597822 4:2.0 8:2.0 9:1.0 14:78.0 
-1.0 3:86.0 4:2.0 5:106.0 8:15.0 14:84.0 
-1.0 1:1.0 4:39.0 5:251.0 14:82.0 18:2.0 
-0.6182144402860822 1:3.0 8:4.0 14:30.0 
-1.0 1:31.0 3:2.0 4:10.0 8:4.0 14:6.0 
-1.0 3:40.0 5:18.0 8:6.0 14:112.0 
-1.0 8:95.0 14:6.0 18:2.0 
-1.0 3:8.0 8:127.0 14:18.0 
-1.0 3:38.0 4:1.0 5:1.0 8:44.0 
-1.0 1:198.0 3:1.0 4:26.0 5:91.0 8:14.0 14:29.0 
-1.0 5:40.0 8:31.0 14:7.0 
-1.0 8:21.0 14:58.0 
-0.8172843347817469 14:45.0 
-1.0 5:71.0 14:36.0 
-1.0 3:566.0 14:14.0 
-1.0 8:5.0 14:136.0 
-1.0 1:76.0 4:6.0 5:59.0 8:4.0 9:2.0 14:18.0 
-1.0 3:20.0 5:55.0 14:41.0 
-1.0 4:1.0 8:8.0 13:34.0 
-1.0 1:6.0 13:38.0 14:9.0 
-1.0 5:17.0 8:4.0 14:576.0 
-1.0 14:176.0 
-1.0 4:5.0 5:23.0 8:176.0 14:131.0 16:2.0 18:64.0 
-1.0 5:14.0 8:213.0 9:5.0 14:55.0 
-1.0 1:26.0 5:22.0 13:8.0 14:12.0 
-1.0 5:25.0 8:2.0 14:5.0 
-1.0 8:68.0 14:59.0 18:4.0 
-1.0 5:174.0 14:125.0 18:1.0 
-1.0 7:51.0 8:1.0 14:12.0 
-1.0 14:98.0 
-1.0 5:7.0 14:68.0 
-1.0 3:3.0 4:39.0 5:15.0 14:4.0 
-1.0 5:33.0 8:82.0 14:10.0 
-1.0 5:51.0 14:31.0 
-1.0 7:76.0 
-1.0 8:157.0 14:132.0 
-1.0 5:103.0 8:2.0 14:7.0 
-1.0 1:60.0 14:103.0 16:2.0 
-1.0 1:20.0 3:4.0 9:11.0 14:18.0 
-1.0 8:149.0 14:479.0 
-1.0 5:784.0 14:11.0 
-0.6519668641550761 4:2.0 8:108.0 14:4.0 
-1.0 3:44.0 4:1.0 
-1.0 3:599.0 4:19.0 8:19.0 14:161.0 
-1.0 1:2.0 14:52.0 
-1.0 3:41.0 8:25.0 14:69.0 
-1.0 4:11.0 8:126.0 14:84.0 
-1.0 4:4.0 13:74.0 14:32.0 
-1.0 8:129.0 13:147.0 14:7.0 
-1.0 4:16.0 8:171.0 14:79.0 18:42.0 
-1.0 5:87.0 14:8.0 
-0.12745460898308839 14:42.0 
-1.0 1:2.0 3:140.0 13:1.0 14:41.0 
-1.0 14:526.0 
