svm_type c_svc
kernel_type rbf
gamma 0.05
nr_class 2
total_sv 1378
rho -0.10305266811932624
label 1 -1
nr_sv 700 678
SV
0.8968133204895071 12:120239.0 
0.8968133204895071 4:5.0 5:154.0 12:9379.0 14:190.0 18:5.0 
0.8968967176733847 3:915.0 5:27.0 9:15.0 12:29177.0 14:251.0 
0.8968967176733847 3:48.0 12:19715.0 
0.8968652527183962 1:1.0 4:1.0 7:7653.0 12:1443.0 14:132.0 16:40.0 
0.8968642684143407 4:1.0 5:27.0 12:9695.0 14:13.0 
0.8968348073035054 1:318.0 4:20.0 5:15.0 12:13212.0 14:46.0 18:2.0 
0.8968297524510576 4:17.0 8:10.0 12:10796.0 13:3646.0 14:509.0 18:24.0 
0.8968056207378818 3:57.0 5:70.0 12:8896.0 14:349.0 16:35.0 18:46.0 
0.896805634083829 3:317.0 5:5.0 12:39147.0 14:2816.0 
0.8968085727836355 1:132.0 4:11.0 5:25.0 8:12.0 12:5816.0 14:4175.0 
0.8968336127984531 5:10.0 12:15716.0 
0.8968336127984531 3:815.0 12:1989.0 14:7076.0 
0.8968966493453178 4:1.0 7:6262.0 12:6101.0 14:2170.0 20:32.0 
0.8968966501956017 1:12.0 3:4.0 7:7319.0 12:2240.0 14:389.0 
0.8968574563960835 8:8.0 12:44781.0 14:271.0 18:48.0 
0.8968498566129208 8:2.0 12:3367.0 14:6474.0 
0.8968511322700333 12:3825.0 14:7578.0 
0.8968504808385263 5:314.0 12:11316.0 14:70.0 18:47.0 
0.8968891256653635 3:5.0 4:4.0 5:409.0 12:17973.0 14:259.0 
0.8969244659681609 3:1.0 4:18.0 5:1.0 12:9625.0 14:21.0 
0.8969378431412347 3:10.0 5:1.0 7:1547.0 8:41.0 9:11.0 12:14522.0 14:12.0 
0.896937843181746 4:465.0 12:6116.0 13:91208.0 14:83.0 20:1.0 
0.8969806436016681 3:2.0 5:48.0 12:16051.0 14:317.0 16:8.0 18:1.0 
0.8875058712754448 12:9318.0 14:160.0 
0.8968967176733847 5:23.0 8:13.0 12:11849.0 14:92.0 
0.8973377085717317 8:432.0 12:13418.0 
0.896807620822585 12:26734.0 14:69.0 
0.8973745203321206 4:254.0 5:187.0 8:11.0 12:9141.0 14:381.0 
0.8968098854927452 4:6.0 12:29323.0 18:6.0 
0.8967060426667721 3:2920.0 4:53.0 12:6333.0 14:129.0 
0.896626243660133 4:2.0 8:4.0 12:9032.0 14:65.0 
0.8967962825789533 5:140.0 12:10586.0 14:138.0 16:4.0 
0.8968038357381497 12:13240.0 14:134.0 
0.8966090212061939 4:11.0 12:9385.0 14:31.0 
0.8968487364393181 8:2.0 12:13637.0 14:90.0 16:39.0 
0.8967442745624216 4:451.0 8:42.0 9:19.0 12:18922.0 14:14.0 
0.8968054821510966 4:8.0 12:31065.0 14:54.0 
0.8970780810784309 5:1.0 12:11947.0 14:1041.0 
0.8973405376031773 4:91.0 12:108716.0 14:339.0 
0.8973750287372333 8:18.0 12:16458.0 14:54.0 
0.8968056207378818 12:12031.0 14:68.0 16:34.0 
0.8968436372510193 12:8578.0 14:2085.0 
0.8966182323219793 5:3.0 12:9311.0 14:161.0 16:10.0 18:74.0 
0.8966819780000133 12:11932.0 14:44.0 
0.8967944972931489 3:138.0 12:11841.0 14:13.0 16:10.0 
0.8973765575426937 5:215.0 12:36795.0 14:84.0 
0.8974280935458385 8:66.0 12:17399.0 14:4.0 
0.8974552580362131 8:3130.0 12:1465.0 14:7962.0 
0.896762131907044 8:1709.0 12:7884.0 14:3.0 
0.8973724633048257 3:644.0 12:18438.0 14:3.0 
0.8974053042854154 5:115.0 8:59.0 12:15592.0 14:306.0 
0.896457176391495 12:11913.0 
0.897198095134694 12:15824.0 
0.8973988884496142 12:9309.0 
0.8969244659681609 4:1.0 5:465.0 12:8277.0 14:327.0 
0.8967574907076675 4:3.0 5:750.0 12:14560.0 14:192.0 
0.8974272297167487 12:9744.0 14:130.0 
0.8967984043976756 12:9365.0 14:163.0 
0.8967615509365667 12:31145.0 
0.8968760205992782 1:169.0 2:6.0 3:1.0 4:28.0 7:9.0 8:62.0 12:10132.0 13:614.0 14:270.0 
0.8966719209070318 1:1.0 3:39828.0 12:1995.0 14:1918.0 
0.8968850929180143 3:2.0 4:3.0 12:9915.0 14:8.0 
0.8973394994724737 3:1.0 4:865.0 5:452.0 12:21002.0 13:250.0 14:94.0 16:8.0 18:9.0 
0.8972608167814518 5:5.0 12:6645.0 14:17907.0 
0.8968336127950586 1:1.0 7:1360.0 12:13414.0 14:166.0 
0.8972621515024992 3:238.0 4:27.0 5:1964.0 8:100.0 12:15140.0 14:512.0 18:32.0 
0.8973942153665829 12:36176.0 14:31.0 
0.8967226150463421 3:3.0 5:95.0 12:17258.0 13:628.0 14:91.0 
0.8973745203321206 12:6107.0 14:8972.0 16:2.0 18:22.0 
0.8967978839153621 3:197.0 5:903.0 7:72.0 8:4.0 9:13.0 12:12916.0 14:139.0 
0.8968133204895071 3:5.0 4:5.0 12:12436.0 14:138.0 18:25.0 
0.8965455044557795 12:9349.0 14:52.0 
0.8974518154737103 12:22508.0 14:169.0 16:35.0 
0.8972158268747329 9:16.0 12:15152.0 14:333.0 
0.896635329949959 1:136.0 8:7.0 12:13390.0 14:2109.0 
0.896774740155349 8:280.0 12:22348.0 14:2.0 
0.8968483310721982 8:48.0 12:13271.0 14:53.0 
0.8973965276047486 12:13081.0 14:8.0 
0.8968486166657903 1:7.0 3:339.0 5:232.0 12:2461.0 13:76080.0 14:1185.0 16:22.0 18:6.0 
0.8968519098504353 3:21.0 12:9955.0 14:6.0 16:13.0 
0.8970853878922928 2:3.0 8:2.0 12:10024.0 14:1.0 16:26.0 
0.8968511322700333 1:1.0 3:198.0 5:6.0 8:12.0 12:18105.0 14:141.0 
0.8968318895143398 12:42040.0 
0.8969001839951354 12:11783.0 18:11.0 
0.8969806436016681 5:29.0 12:9478.0 14:28.0 
0.897378922174262 1:97.0 4:138.0 8:4.0 9:21.0 12:6183.0 13:20989.0 14:2256.0 16:46.0 
0.8974519793078424 5:213.0 12:16854.0 14:186.0 
0.8968218350006997 12:17726.0 14:14.0 
0.8973533869023118 12:11591.0 14:22.0 
0.8973710437777946 8:10.0 12:13756.0 14:156.0 
0.8970764722703547 3:13459.0 
0.8968336127984531 12:15662.0 
0.896609020107827 3:28.0 12:5436.0 14:4025.0 
0.8705427676605065 3:5.0 12:11344.0 
0.8966179050273945 8:1686.0 12:8072.0 14:1279.0 
0.8966494931131725 7:182.0 12:22729.0 14:245.0 
0.8966193712974964 4:16.0 5:168.0 12:12321.0 14:282.0 
0.8968034728862742 1:125.0 5:55.0 8:2.0 12:21878.0 14:189.0 18:795.0 
0.89685264740619 5:56.0 12:103364.0 13:1.0 14:212.0 
0.8967936262807734 12:10238.0 14:18.0 
0.8973204129535507 1:144.0 12:24805.0 
0.897328731942374 3:1.0 4:25.0 5:76.0 12:15161.0 13:1.0 14:269.0 16:18.0 
0.8968728759575347 3:98.0 5:21.0 8:42.0 12:31243.0 14:519.0 18:36.0 
0.8966284489176535 12:9889.0 14:170.0 
0.8966659491003068 12:9017.0 14:2.0 
0.8974036017885075 12:9831.0 
0.8966722764047153 4:79.0 5:57.0 9:7.0 12:22251.0 14:375.0 
0.8966857997020172 12:11211.0 
0.8967060426667721 4:3.0 7:6861.0 8:2.0 12:2173.0 13:1298.0 14:140.0 
0.8968098854927452 4:102.0 7:668.0 8:2.0 12:21458.0 13:108.0 14:117.0 
0.8968903704065625 1:3.0 3:799.0 4:2.0 7:2.0 12:9416.0 14:331.0 18:10.0 
0.8970764632595261 12:12480.0 14:3.0 
0.8971964080219552 12:21894.0 16:8.0 
0.8973808145894037 1:10.0 3:26.0 5:99.0 8:9.0 12:9135.0 14:276.0 
0.8968558897183923 1:4.0 3:29.0 4:12.0 5:173.0 9:5.0 12:14017.0 14:655.0 16:1.0 
0.8973616591213985 1:64.0 3:59.0 4:1.0 7:7394.0 9:25.0 12:1581.0 14:110.0 
0.8973697074722133 3:2.0 5:2399.0 12:10146.0 13:4.0 14:572.0 18:109.0 
0.8973489207085754 1:28.0 7:3378.0 9:22.0 12:5203.0 13:1682.0 14:168.0 
0.8973392282630858 4:10.0 12:9463.0 14:51.0 
0.8973667917799255 4:2.0 12:21340.0 14:51.0 
0.8974286730854516 1:4.0 4:12.0 5:300.0 7:2234.0 9:9.0 12:14711.0 14:2.0 
0.8974343385263139 1:10.0 4:1.0 8:57.0 12:8375.0 14:635.0 
0.8967060426667717 12:9733.0 
0.8974518154737103 5:3.0 12:7713.0 14:2201.0 
0.8969533347701554 5:358.0 12:10589.0 14:348.0 
0.8968625985690676 5:507.0 12:42075.0 14:2.0 
0.896625930136849 1:60.0 12:14085.0 14:420.0 
0.89511685842195 12:11829.0 
0.8968043692812846 1:1.0 3:1562.0 4:5.0 12:9041.0 14:92.0 
0.8950840266594499 12:13130.0 
0.8967615840395725 12:34108.0 16:28.0 
0.8966362054629233 12:13784.0 14:217.0 
0.8967331776773625 12:30177.0 
0.8966425652812644 8:3056.0 12:6977.0 
0.8971214945222495 12:9230.0 14:118.0 
0.8968526474061925 12:747.0 13:12707.0 14:178.0 16:30.0 18:19.0 
0.8967060426667721 3:1305.0 4:56.0 5:211.0 12:10349.0 14:158.0 
0.8966435217736665 8:17048.0 12:39.0 
0.8967615840395725 3:9.0 12:20966.0 
0.8967638316642896 3:47.0 9:59.0 12:10283.0 14:225.0 
0.8970157320223127 12:11447.0 14:19.0 
0.8966601941632943 12:10146.0 14:66.0 
0.8967346744185687 1:23.0 4:2.0 5:566.0 12:11102.0 14:212.0 16:37.0 
0.8966925444854907 12:117662.0 
0.8966085876655973 12:21811.0 
0.8965455044557795 12:21353.0 14:283.0 
0.8973215683581058 4:101.0 12:452697.0 14:498.0 
0.8967602383571868 8:9611.0 14:20.0 
0.8968040192582255 8:2.0 12:9291.0 14:101.0 18:6.0 
0.8967962825822313 12:19117.0 
0.8974272297167487 4:50.0 5:11.0 8:21.0 12:24857.0 13:4220.0 14:323.0 18:105.0 
0.8973992404267082 12:66258.0 
0.8974036017885073 4:1.0 8:2.0 12:16141.0 14:2229.0 
0.8974046094713526 5:50.0 12:22034.0 14:358.0 18:4.0 
0.8973942107456301 12:29840.0 14:5.0 16:2.0 
0.8973405376031773 4:1.0 12:12687.0 14:98.0 
0.897378922174262 1:938.0 4:92.0 8:22.0 9:9.0 12:10276.0 
0.8973377085717317 12:53901.0 
0.8973765575426937 4:107.0 5:281.0 12:9220.0 14:154.0 
0.8973710437777946 5:23.0 12:68050.0 14:11830.0 
0.8973988906582346 3:15514.0 4:5.0 12:595.0 
0.8968085540318814 4:1.0 12:11619.0 14:60.0 
0.8973352648719035 7:297.0 8:2.0 12:20175.0 18:4.0 
0.8972608167814518 4:5.0 12:26059.0 
0.8972621515024992 3:1028.0 12:8379.0 
0.8969806436016681 1:204.0 4:150.0 8:19.0 9:23.0 12:20106.0 14:198.0 
0.896937843181746 12:14500.0 14:1614.0 
0.8968890776545483 5:33.0 12:10841.0 13:167.0 14:286.0 16:4.0 
0.8968504808385263 3:73.0 12:14992.0 14:148.0 
0.8968904138114505 12:3962.0 14:9523.0 
0.8968477325135071 3:181.0 12:23878.0 
0.896806536253516 4:1044.0 5:12.0 9:3.0 12:10072.0 14:36.0 16:4.0 
0.8968434351598182 3:18.0 7:163.0 12:31804.0 14:130.0 16:20.0 
0.8967583546230374 1:2.0 8:1.0 9:8.0 12:27133.0 14:51.0 
0.8967383136635491 1:32.0 8:46.0 12:17656.0 14:306.0 
0.8967224430640239 8:13.0 12:9319.0 14:42.0 
0.8967301298515301 5:1816.0 12:23679.0 14:6.0 
0.8966897847181509 12:14832.0 
0.8967341910171821 12:19809.0 
0.8967944972931489 1:18.0 7:216.0 12:10559.0 14:7774.0 18:62.0 
0.8968192631628583 5:48.0 12:9565.0 14:793.0 
0.89665929171782 1:45.0 4:2.0 12:45221.0 14:34.0 
0.8966819780000133 8:185.0 12:9487.0 14:3.0 
0.8966738357326023 1:134.0 4:138.0 5:70.0 12:8896.0 14:213.0 
0.8966179050681242 12:12431.0 
0.8966051085620146 4:1.0 12:119066.0 14:31.0 
0.8966099250593489 1:176.0 4:3.0 9:25.0 12:9798.0 14:2224.0 
0.8968158820705404 4:4.0 5:18.0 12:16311.0 14:33.0 
0.8968975698555482 3:7.0 5:37.0 12:13781.0 14:167.0 
0.8968760205992782 4:3.0 5:61.0 8:664.0 12:27508.0 
0.8968525384745858 4:2.0 12:18674.0 14:227.0 
0.8968075074250448 12:15184.0 14:4.0 
0.8967699091781852 1:408.0 4:4.0 12:6407.0 14:2637.0 
0.8967534062224968 12:13511.0 
0.8967984283069502 3:2.0 4:74.0 5:110.0 8:1.0 9:19.0 12:34928.0 13:4.0 14:314.0 16:6.0 18:10.0 20:47.0 
0.8966673021922278 5:192.0 9:10.0 12:9077.0 14:335.0 
0.8966284489176535 1:5.0 3:17.0 4:6.0 12:6459.0 14:4096.0 
0.8966819780000133 12:34789.0 14:163.0 
0.8966736651102409 3:8.0 12:10626.0 13:1.0 14:353.0 
0.8966722764047153 5:48.0 9:7.0 12:11608.0 14:963.0 18:5.0 
0.8966722490826629 2:5.0 10:1.0 12:21379.0 14:310.0 18:7.0 
0.8967122709844373 8:6.0 12:12939.0 14:1.0 
0.8967593458508057 3:1.0 4:80.0 5:24.0 8:10.0 12:8831.0 14:357.0 18:5.0 
0.8966051085620146 4:179.0 5:158.0 12:8976.0 14:132.0 18:81.0 
0.8968436372510193 7:410.0 12:147.0 14:10119.0 18:80.0 
0.8968437143898083 1:7.0 3:1414.0 12:18526.0 14:1069.0 
0.8967674026029822 12:12281.0 14:86.0 
0.8967301298515301 3:160.0 8:57.0 12:9343.0 14:247.0 
0.8968967176733847 12:9850.0 16:26.0 
0.896805634083829 3:1.0 4:1.0 5:1506.0 12:12563.0 14:163.0 
0.8968014157692538 12:9396.0 14:5330.0 18:14.0 
0.897317540667397 3:119.0 12:11561.0 14:54.0 
0.8974029075248491 12:11881.0 14:187.0 16:12.0 
0.8974179937149912 8:442.0 12:10575.0 14:19.0 
0.8973489207085754 1:102.0 5:89.0 12:9735.0 14:488.0 16:50.0 18:16.0 
0.8973942107456301 8:36.0 12:16942.0 14:97.0 
0.8973988906582346 12:9650.0 16:20.0 
0.8973808145894037 1:184.0 3:22.0 5:2.0 9:10.0 12:27286.0 13:79.0 14:258.0 16:41.0 
0.8972608167814518 1:311.0 3:3.0 4:41.0 12:24191.0 13:1180.0 14:210.0 18:14.0 
0.8969378431412347 5:190.0 12:10097.0 14:465.0 
0.8973377085717317 5:7.0 12:9675.0 14:59.0 
0.8973697074722133 1:93.0 4:15.0 12:16007.0 14:92.0 
0.8973433655877872 5:1324.0 12:42331.0 14:121.0 
0.8968034728862742 3:868.0 5:29.0 8:7.0 9:34.0 12:22201.0 14:75.0 
0.8968076046476774 12:8892.0 14:197.0 
0.89665929171782 5:35.0 7:1841.0 12:15228.0 14:1.0 
0.8950700440618958 12:9038.0 
0.8973405376029333 8:104087.0 12:2017.0 
0.8973362035051643 4:2.0 5:129.0 8:2.0 9:18.0 12:9941.0 14:59.0 
0.896563045409011 7:8952.0 12:358.0 14:9.0 
0.8968133204895071 1:1.0 5:998.0 12:8161.0 14:216.0 
0.8967583546230374 3:1.0 4:13.0 5:1425.0 12:8569.0 14:6.0 
0.8968098854927452 4:44.0 7:2343.0 9:12.0 12:12383.0 13:77.0 14:177.0 16:1.0 20:703.0 
0.8968088361659368 1:19.0 3:126.0 8:2.0 9:6.0 12:9596.0 14:50.0 
0.8966350879559333 4:13.0 5:411.0 12:9657.0 
0.8967872144502661 3:169.0 4:206.0 8:2.0 12:8446.0 14:1832.0 
0.8973258904972308 1:4.0 3:22.0 7:7442.0 9:10.0 12:53094.0 14:66.0 
0.8973204236975697 12:8240.0 14:1483.0 
0.8972834796495512 3:38.0 7:4032.0 12:6716.0 14:10.0 18:675.0 
0.8971341013017721 3:92.0 12:8840.0 14:49.0 18:1.0 
0.8971257809330146 4:29232.0 5:145.0 9:5.0 12:1005.0 14:38.0 
0.8970838729249591 1:1958.0 9:15.0 12:10246.0 14:26.0 
0.8970780810784308 1:3.0 3:203.0 8:551.0 9:85.0 10:24.0 11:331.0 12:1546.0 13:17419.0 15:62.0 17:6.0 
0.8970747953386007 1:404.0 4:64.0 12:10036.0 14:2390.0 
0.8969912519775232 1:2.0 12:51680.0 14:27.0 
0.8967984043976756 12:8999.0 14:253.0 
0.8967927520832275 1:3158.0 3:110.0 12:3519.0 14:3254.0 
0.8967442709095358 5:34.0 12:19539.0 
0.8969519772760666 12:6365.0 14:3167.0 
0.8968364313156465 5:222.0 12:10707.0 14:148.0 16:2.0 
0.895315107852882 12:11818.0 
0.896882603188822 4:112.0 9:23.0 12:20549.0 14:5.0 
0.8968437143898083 12:36.0 14:13526.0 
0.8968436372510193 1:2.0 4:10.0 5:60.0 12:12058.0 14:12.0 
0.8966090212061939 3:12.0 5:304.0 12:20652.0 
0.8966158828328881 5:123.0 7:2126.0 9:2.0 12:8432.0 14:43.0 
0.8973878904236683 12:26697.0 14:5734.0 
0.8973713406977633 8:641.0 12:14768.0 
0.8973713412131632 1:2.0 12:19262.0 14:9.0 
0.8968038363309596 4:14.0 5:86.0 7:549.0 12:25483.0 14:29.0 20:107.0 
0.8968040192582255 8:15.0 12:16923.0 
0.8967978839153621 4:6.0 5:38.0 12:12635.0 14:14.0 18:17.0 
0.8967957714947319 4:36.0 8:25.0 9:25.0 12:12067.0 14:166.0 
0.8966254950162701 5:27.0 9:1.0 12:53584.0 14:7.0 
0.8966278878574203 12:22441.0 
0.8968616427334982 12:16307.0 14:132.0 
0.8973935942679884 1:224.0 3:90.0 5:68.0 9:77.0 12:5571.0 14:4086.0 20:699.0 
0.8972620474723544 1:1.0 4:1.0 5:4.0 8:2.0 12:12403.0 14:34.0 
0.8967615840395725 1:5.0 3:22.0 7:214.0 12:21869.0 14:147.0 
0.8968558897183923 1:3.0 3:588.0 9:5.0 12:9509.0 14:213.0 18:6.0 
0.89685264740619 12:39269.0 16:6.0 
0.8968760205992782 3:49.0 4:5.0 12:20264.0 13:1733.0 14:2080.0 18:36.0 
0.8967346744185687 5:74.0 12:21300.0 14:1932.0 
0.8966601941632943 5:71.0 9:13.0 12:13247.0 14:75.0 18:7.0 
0.8966601941468033 12:10633.0 
0.8969406063471532 5:223.0 12:11583.0 16:10.0 
0.8967615840395725 3:24.0 4:1.0 12:20885.0 14:11849.0 16:4.0 
0.8967261467644524 12:18807.0 
0.8966099174525457 1:35.0 7:785.0 9:5.0 12:16625.0 14:219.0 
0.8966051085620039 1:2.0 9:4.0 12:11174.0 14:24.0 
0.8965066068619918 1:105.0 3:42210.0 4:3.0 5:501.0 9:24.0 12:4812.0 14:18.0 
0.8953664187677198 9:11.0 12:9039.0 
0.8967226150463421 3:415.0 4:66.0 8:24.0 12:14135.0 14:546.0 18:24.0 
0.8967060426667721 5:36.0 8:1.0 12:12387.0 14:55.0 
0.8967442709094976 7:14979.0 12:1847.0 
0.8966925444854907 3:1172.0 8:3.0 12:15744.0 14:109.0 
0.8968150811923374 1:11.0 4:1884.0 5:1922.0 9:45.0 12:10340.0 14:236.0 
0.8967927520832275 8:99.0 12:10609.0 
0.8968199534827183 5:695.0 8:7.0 12:10352.0 
0.8967583546230374 12:13148.0 14:262.0 
0.8970780810784309 3:47.0 5:114.0 12:618.0 13:11220.0 14:26.0 18:10.0 
0.8969912519775232 3:3335.0 12:9690.0 14:407.0 
0.8974272297167487 5:49267.0 12:3439.0 14:31.0 18:10.0 
0.897366667546587 4:3.0 5:176.0 12:10652.0 14:160.0 
0.8966435217736665 3:264.0 5:4712.0 12:3946.0 14:1021.0 
0.8973405376031773 8:1900.0 12:4.0 14:11541.0 
0.8973405376029333 7:2237.0 12:7593.0 
0.8968486166657905 4:49.0 8:2.0 12:13066.0 14:235.0 
0.8966673021922278 3:1.0 12:37691.0 14:21.0 
0.8969531135304907 4:1.0 9:3.0 12:15528.0 14:60.0 
0.8968571931797631 4:146.0 7:108.0 12:12874.0 14:365.0 16:9.0 17:1.0 
0.8967962825789533 4:31.0 12:19837.0 14:203.0 
0.870861040035641 12:11341.0 14:6.0 
0.8968038363309596 4:4.0 12:11479.0 14:1272.0 
0.8966532694072734 3:29.0 12:9194.0 14:264.0 
0.8969025503195062 3:4.0 5:147.0 7:1103.0 12:10452.0 14:5.0 
0.8967261467644524 3:7.0 4:103.0 5:28.0 7:265.0 8:128.0 9:15.0 11:20.0 12:13371.0 13:42.0 14:44.0 
0.8974469798300246 7:361.0 12:18336.0 14:131.0 
0.8973392282630858 12:10368.0 14:84.0 16:23.0 
0.8974343385263139 3:14.0 5:2359.0 12:14127.0 14:113.0 
0.8973204236975697 8:16922.0 12:15.0 14:5.0 
0.8970213090077659 5:336.0 7:394.0 12:12258.0 14:107.0 
0.896937843181746 3:56.0 5:1615.0 9:1.0 12:7646.0 14:256.0 
0.8972621515024992 8:29.0 12:19016.0 
0.8973850779726757 3:76.0 5:71.0 12:18141.0 14:620.0 
0.8973989284989188 9:2.0 12:9356.0 14:123.0 
0.8973808145894037 1:40.0 4:6.0 5:1.0 12:9019.0 14:81.0 
0.8973988906582346 8:2.0 12:32132.0 
0.8287461560709145 4:1.0 12:11359.0 
0.8973667917799255 1:117.0 4:43.0 5:41.0 12:13689.0 13:3256.0 14:11.0 
0.8973697287960893 4:18.0 12:20820.0 14:11.0 
0.8974029075248491 4:21.0 7:3435.0 11:2.0 12:5644.0 14:103.0 16:6.0 20:2.0 
0.8973231810973002 12:21056.0 14:37.0 
0.8971244021008753 1:19079.0 4:3793.0 9:2.0 12:329.0 14:14.0 16:6.0 
0.8971257809330146 12:13664.0 14:189.0 
0.896805634083829 5:15.0 9:25.0 12:13153.0 14:214.0 
0.8968085727836355 1:18.0 8:6.0 12:17941.0 14:27.0 
0.8968336127984531 4:71.0 7:8.0 12:7561.0 14:5844.0 20:29.0 
0.8968336127950586 3:24.0 12:10304.0 14:75.0 
0.8967533831110756 12:13111.0 14:75.0 
0.8967301298515301 4:71.0 5:15.0 8:8.0 12:10214.0 13:403.0 14:13.0 16:9.0 
0.8967944972931489 1:167.0 3:1.0 4:48.0 5:439.0 9:91.0 12:10107.0 14:240.0 
0.8968449297865954 8:18037.0 12:281.0 
0.896882603188822 8:57.0 12:37852.0 14:47.0 18:57.0 
0.8966051085620147 3:27.0 5:3.0 12:23575.0 
0.8966090212061939 2:3.0 4:2.0 5:339.0 8:2.0 12:10691.0 14:91.0 
0.8967750556759678 3:47.0 5:173.0 12:12810.0 14:214.0 
0.8287239112165925 12:11366.0 
0.8966985471568648 12:14889.0 14:3017.0 
0.8968526474043297 8:3.0 12:11366.0 14:23.0 
0.8966722490826629 12:58808.0 
0.8967583546230373 12:28452.0 16:22.0 
0.8966736651102409 5:383.0 7:1063.0 12:9233.0 14:162.0 
0.8966491218625553 4:34.0 12:544.0 13:9832.0 14:66.0 18:4.0 20:23.0 
0.8966284489176535 1:212.0 4:27.0 7:3902.0 12:8068.0 14:209.0 
0.8966500994571119 3:18.0 4:22.0 12:105247.0 
0.8966531238949057 2:3.0 4:6.0 12:5940.0 13:4330.0 14:259.0 16:7.0 18:4.0 
0.8967338117459618 4:197.0 12:30795.0 14:3.0 
0.8973287319423447 12:11144.0 14:6.0 
0.8967574907076675 4:1.0 12:15799.0 14:3884.0 
0.8968034728862742 12:6803.0 14:8976.0 
0.8968034728854428 12:15390.0 14:56.0 
0.896807620822585 1:4.0 6:35.0 12:56391.0 14:70.0 
0.8968571931797631 3:127.0 5:29.0 12:31443.0 14:21.0 
0.8968526474061302 12:24101.0 18:1.0 
0.8969001839951354 5:195.0 12:16956.0 14:16.0 
0.896457176391495 3:4.0 12:17151.0 14:39.0 
0.8967936262807734 3:46.0 4:7.0 5:2952.0 12:19420.0 14:266.0 18:6.0 
0.8968158820705404 1:1.0 4:48.0 5:2366.0 12:9520.0 14:335.0 18:8.0 
0.8968365855372749 3:12.0 12:9259.0 
0.8972131823590223 12:22118.0 
0.897233494061094 5:334.0 8:7.0 12:8047.0 13:1137.0 14:233.0 18:30.0 
0.897328731942374 12:18675.0 
0.697202873687645 12:9527.0 
0.8968663653588637 3:14.0 5:63.0 7:1299.0 8:16.0 12:10476.0 13:190.0 14:26.0 
0.8968586324388901 3:36.0 5:128.0 12:8878.0 14:144.0 
0.8966673021886894 12:10726.0 
0.8966284489176535 4:32.0 5:108.0 8:12.0 9:80.0 12:14140.0 14:226.0 
0.8966099174525457 12:29027.0 
0.8966122032518953 1:1.0 9:2.0 12:17674.0 
0.8966179050273945 1:173.0 4:262.0 7:11848.0 11:1.0 12:3322.0 13:933.0 14:601.0 
0.8964607680970216 1:7.0 4:866.0 12:16223.0 14:10944.0 
0.8966736651102409 1:66.0 4:4.0 5:1325.0 9:5.0 12:9831.0 14:310.0 18:12.0 
0.8966722764047153 7:6.0 12:17207.0 14:177.0 
0.8967872554539049 12:5701.0 14:7569.0 
0.8967984283069502 3:36.0 12:15441.0 
0.8967838993174609 4:325.0 8:24.0 12:61451.0 14:10.0 
0.8967226150463421 3:22.0 4:6.0 5:98.0 12:12658.0 14:78.0 
0.8967301298515301 4:8.0 5:89.0 12:11066.0 13:2613.0 14:525.0 16:6.0 18:144.0 
0.8968214200325882 12:9363.0 
0.8967217857459331 12:16056.0 14:245.0 
0.8966925444854907 12:26737.0 14:1.0 
0.8967224430640239 3:40.0 4:1.0 8:5.0 12:15364.0 14:68.0 
0.8969280687096477 1:4.0 4:3.0 7:5196.0 9:23.0 12:12758.0 14:1931.0 
0.897076463259526 5:9236.0 12:7361.0 14:65.0 
0.8970762097407856 8:12.0 12:26148.0 
0.8970782327975685 3:1.0 4:28.0 5:210.0 12:8668.0 14:96.0 
0.8967699091542876 5:1.0 12:10748.0 14:11.0 
0.8970898569110352 3:10.0 12:9424.0 
0.8971950560936429 4:2.0 12:21386.0 13:1931.0 14:54.0 
0.8970535656331781 3:14.0 4:6.0 5:1553.0 12:10783.0 14:79.0 
0.8972608167814518 8:17864.0 12:1197.0 
0.8972620474723544 12:10005.0 
0.8972620474723544 4:47.0 5:623.0 8:7.0 12:11450.0 14:413.0 
0.8972787385781584 5:49.0 7:7952.0 8:3.0 9:2.0 12:2462.0 13:6.0 14:127.0 
0.8973231810973002 12:11091.0 14:510.0 
0.897317540667397 12:10792.0 14:257.0 
0.8973310646852274 1:121.0 3:463.0 4:270.0 7:3540.0 9:182.0 12:6593.0 14:217.0 18:50.0 
0.8967110540452905 4:2.0 12:9390.0 
0.8973935942679884 3:12147.0 5:119.0 12:493.0 14:46.0 
0.8973935942679884 8:11592.0 14:5.0 
0.8973808145894037 12:13878.0 
0.8973808145894037 3:52.0 4:4.0 5:562.0 6:2.0 12:10041.0 14:214.0 
0.8973988906582346 12:80796.0 14:65.0 
0.8973988884496142 8:21.0 12:9165.0 
0.8974029075248491 5:469.0 8:2.0 12:19129.0 14:113.0 
0.8974029075248491 4:14.0 7:7446.0 12:1157.0 13:1312.0 14:477.0 18:29.0 
0.8973664578540139 3:147.0 4:3.0 5:19.0 12:20060.0 14:431.0 
0.8973850779726757 12:10522.0 14:241.0 
0.8973624068740667 1:3.0 4:2.0 5:56.0 12:13630.0 13:424.0 14:261.0 16:12.0 
0.8973616591213985 8:13394.0 12:5.0 14:1.0 
0.8973533869023118 4:241.0 5:154.0 12:21557.0 14:209.0 
0.897366667546587 1:2.0 4:10.0 9:3.0 12:13732.0 14:16.0 
0.8972666278497976 12:71399.0 
0.8973670350753863 5:89.0 12:9269.0 14:94.0 
0.8973750287372333 12:139687.0 14:236.0 
0.8973750287372333 4:6.0 12:36081.0 14:5.0 
0.8967064500647628 3:4.0 12:15432.0 
0.8973697074722133 4:41.0 5:307.0 7:4621.0 8:36.0 12:4414.0 13:1257.0 14:2210.0 
0.8973671475583015 3:1.0 4:158.0 8:19.0 12:11221.0 14:315.0 
0.8967349875085553 4:2.0 9:2.0 12:28468.0 
0.8973697287960893 3:178.0 5:85.0 7:4797.0 9:2.0 12:6574.0 14:96.0 20:4481.0 
0.8973697287960893 4:3.0 12:14300.0 14:120.0 
0.8973543797581981 3:1.0 12:36333.0 14:189.0 
0.8973489207085754 1:9.0 7:4906.0 12:4785.0 14:15.0 
0.8973362035051643 12:32401.0 14:175.0 
0.8973405376031773 3:152.0 8:10.0 12:9851.0 14:84.0 18:159.0 
0.8973405376029333 1:119.0 3:358.0 4:3.0 9:7.0 12:8935.0 14:2815.0 18:50.0 
0.8973392282630858 1:496.0 4:11.0 7:10517.0 12:1667.0 
0.8973377085717317 1:47.0 4:4.0 8:92.0 12:4357.0 14:7628.0 
0.8973433669981024 3:6015.0 12:2739.0 14:601.0 
0.8973965276047486 3:422.0 4:8.0 12:9032.0 14:250.0 
0.8974179937149912 3:19.0 12:17939.0 
0.8974179937149911 4:2.0 5:25.0 9:15.0 12:29595.0 14:13.0 
0.8974272297167487 8:2.0 12:14934.0 14:425.0 18:41.0 
0.8974272297167487 12:33795.0 16:14.0 
0.8974343385263139 12:28542.0 
0.8974338536710316 4:18.0 5:692.0 9:5.0 12:13967.0 13:1172.0 14:172.0 
0.8974469798300246 8:1.0 9:8.0 12:12873.0 14:792.0 
0.8967232276350452 8:9.0 12:11415.0 14:1.0 
0.8969519772760666 12:9113.0 16:7.0 
0.8969021318875129 4:4.0 5:18.0 9:2.0 12:16699.0 14:1262.0 
0.8969058862609576 5:31.0 12:10428.0 
0.8967261467644524 8:34.0 12:13732.0 14:337.0 
0.89665929171782 5:881.0 12:10093.0 14:929.0 18:8.0 
0.8966531238949057 1:1.0 5:664.0 8:2.0 12:9608.0 14:90.0 18:10.0 
0.8966501287867579 1:8.0 4:9.0 5:656.0 7:2433.0 8:197.0 9:12.0 12:8394.0 
0.8967747401314923 8:2.0 12:10767.0 
0.8966501242775757 8:1207.0 12:8535.0 14:18.0 
0.8966435217736665 5:166.0 12:15113.0 14:129.0 
0.896726542802793 1:316.0 4:17.0 12:9335.0 14:4.0 
0.8967574907076675 4:9.0 5:647.0 8:2.0 12:25299.0 13:5310.0 14:316.0 16:42.0 18:50.0 
0.8967949490801864 12:16656.0 14:135.0 
0.8966484218137099 5:1529.0 8:3.0 12:14080.0 14:2974.0 
0.8968034728862742 7:3889.0 8:1.0 12:4905.0 14:1660.0 
0.8968034728854428 1:219.0 12:12433.0 14:50.0 
0.8968038363309596 4:451.0 12:92203.0 14:155.0 16:2.0 
0.8968477325135071 5:14861.0 12:854.0 14:75.0 
0.8968486166657903 12:34361.0 14:1.0 
0.8967699091781858 2:3.0 5:31.0 8:19.0 12:13667.0 14:668.0 
0.8967699091781852 3:3813.0 9:9.0 12:6697.0 14:32.0 16:1.0 20:2.0 
0.8969317960145944 4:7.0 8:4.0 12:9815.0 14:94.0 18:18.0 
0.8968519098504353 3:2997.0 4:2.0 5:59.0 8:2.0 12:50796.0 14:132.0 
0.896851787263563 3:91.0 12:9862.0 14:652.0 18:6.0 
0.8968526474061302 8:56726.0 12:123.0 14:30.0 
0.8968747645376655 8:1064.0 12:10047.0 14:9.0 
0.8973715804767816 5:3246.0 12:5739.0 14:217.0 18:12.0 
0.8973358301864688 3:41.0 5:30.0 12:8958.0 14:43.0 
0.8970375595738085 12:68876.0 
0.8970040537259515 12:26665.0 14:26.0 18:30.0 
0.8969759966601961 4:4.0 5:47.0 7:918.0 9:16.0 12:12396.0 14:528.0 18:44.0 
0.8967346744185687 5:45.0 12:18235.0 14:39.0 
0.8966601941632943 3:4.0 4:1.0 5:889.0 12:13741.0 14:121.0 
0.8966601941468033 3:204.0 4:1.0 5:841.0 12:8780.0 14:150.0 16:8.0 
0.8964958731806676 12:2890.0 14:10359.0 
0.8969533347701554 4:649.0 5:18988.0 12:21587.0 14:44.0 
0.896762131907044 12:13822.0 14:25.0 16:10.0 
0.8967261467644524 1:7.0 5:53.0 7:1378.0 12:7988.0 14:229.0 16:6.0 
0.8966359786882713 4:1893.0 5:56.0 12:15732.0 14:69.0 16:19.0 
0.896635329949959 5:259.0 7:7431.0 9:11.0 12:8188.0 14:4.0 18:47.0 
0.8966819743153429 12:9568.0 
0.8968326266960754 12:10742.0 14:238.0 
0.8967442709095358 5:186.0 12:24611.0 14:103.0 
0.8967442745624216 3:27.0 4:54.0 5:528.0 8:2.0 12:17082.0 14:943.0 
0.8967224430640239 5:1089.0 9:24.0 12:19435.0 14:3580.0 
0.8968214200325884 8:3.0 12:41.0 14:9584.0 
0.8967579371702105 1:5.0 3:40.0 4:49.0 5:565.0 12:14680.0 13:947.0 14:267.0 18:10.0 
0.8973489207085754 3:4.0 5:18.0 12:28518.0 
0.8967927520832275 8:81.0 12:28850.0 14:14.0 
0.8968917377805659 8:30.0 12:14514.0 
0.8968504808385263 12:45022.0 
0.8973808145894037 12:1068.0 14:10352.0 
0.8973765575426937 8:4.0 12:9474.0 14:4.0 
0.8973533869023118 12:27882.0 
0.8966857997020151 12:12540.0 
0.8973433655877872 8:96.0 12:9668.0 14:718.0 
0.8973362035051643 12:42539.0 14:25.0 
0.8973750287372333 5:503.0 9:18.0 12:18786.0 14:247.0 
0.896726542802793 12:16430.0 
0.8973258904972308 5:5820.0 12:7886.0 14:9.0 18:3.0 
0.8966673021887513 3:44.0 5:1.0 12:9440.0 14:140.0 18:70.0 
0.8967338117459618 1:1.0 3:17.0 5:577.0 9:33.0 12:8759.0 14:10.0 
0.8967383136635491 1:200.0 2:27.0 4:5.0 8:1.0 12:8826.0 14:109.0 
0.8968977705194767 5:5709.0 12:3348.0 14:249.0 18:12.0 
0.8967735514216577 5:424.0 12:8992.0 13:3056.0 14:267.0 18:92.0 
0.8973175404257673 8:307.0 12:31360.0 14:6.0 
0.8968739392335464 4:17.0 5:525.0 12:25348.0 14:139.0 16:2.0 18:10.0 
0.8968571931797631 4:1.0 5:1.0 8:147.0 9:2.0 12:10068.0 
0.8968075074250448 5:78.0 12:24751.0 14:9.0 
0.8968085540318814 3:105.0 5:2247.0 12:21114.0 
0.8966122032518953 1:275.0 4:7.0 5:2070.0 8:2.0 12:16664.0 14:316.0 
0.8973989284989188 7:24447.0 12:29183.0 14:121.0 
0.8968525384745858 8:2.0 12:14256.0 14:306.0 18:94.0 
0.8973666389184167 12:35500.0 
0.8973988884496142 1:18.0 4:2.0 12:15594.0 13:537.0 14:113.0 
0.8968318895143398 5:3.0 12:21142.0 
0.8968350089678595 8:445.0 12:30276.0 14:4.0 
0.8967112166214924 4:36.0 5:26.0 12:9914.0 
0.8967301298515301 12:47798.0 13:1.0 14:1876.0 
0.8967674026029822 5:756.0 7:865.0 9:5.0 12:25584.0 14:504.0 
0.8966738357326023 5:18431.0 12:5768.0 14:141.0 
0.8966085876655973 5:293.0 12:22470.0 14:251.0 16:18.0 18:13.0 
0.8968571931797631 2:25.0 5:2060.0 12:7514.0 14:151.0 18:279.0 
0.8967574907076675 4:265.0 7:7383.0 12:1259.0 14:153.0 
0.8966673021887513 12:26613.0 14:8.0 
0.8966738357326023 3:669.0 4:42.0 5:1006.0 12:9816.0 14:86.0 
0.8967153767227406 4:32.0 5:601.0 12:8380.0 14:174.0 
0.8967872554539049 5:3343.0 12:7240.0 14:521.0 18:18.0 
0.8966101911377427 4:1.0 5:20780.0 9:21.0 12:22552.0 14:36.0 
0.8968850929180143 4:3.0 9:25.0 12:10182.0 14:154.0 
0.8967944972931489 12:25733.0 14:441.0 
0.8967301298515301 12:22794.0 14:2.0 
0.8968966493453178 3:8.0 4:36.0 5:683.0 12:6148.0 13:2129.0 14:496.0 
0.8973175404257673 5:3145.0 12:27269.0 14:41.0 
0.8974280935458385 12:24019.0 14:253.0 
0.8973988884496142 3:3.0 4:18.0 5:7199.0 12:10374.0 14:178.0 18:10.0 
0.8973808145894037 3:38.0 5:198.0 12:33248.0 14:78.0 
0.896937843181746 3:129.0 12:12015.0 14:350.0 
0.8968038357381497 8:136.0 12:15048.0 
0.8966314544950713 12:35187.0 
0.8973730034402501 8:817.0 12:6160.0 14:2658.0 
0.8971341013017721 8:4461.0 12:1937.0 14:10328.0 
0.8968642684143407 1:6.0 3:46.0 4:2.0 5:1074.0 12:37989.0 14:84.0 18:24.0 
0.8968508056330902 3:623.0 4:65.0 5:156.0 12:8420.0 14:217.0 18:72.0 
0.8971244021008753 5:9.0 12:10028.0 14:404.0 
0.8970838429888633 5:46.0 7:270.0 12:2413.0 14:10957.0 
0.8970747953386007 3:2.0 4:3.0 5:508.0 8:2.0 12:8996.0 13:1537.0 14:130.0 
0.8967927520832275 4:3.0 12:11469.0 
0.8953151080930919 12:13119.0 
0.8967442709094976 4:132.0 8:25.0 12:10413.0 14:48.0 
0.8968436372510193 7:26.0 12:8982.0 14:12.0 16:2.0 
0.896609020107827 5:31.0 12:60983.0 14:68.0 16:4.0 
0.8973878904236683 5:78.0 12:15422.0 14:20.0 
0.8973713406977633 12:45707.0 
0.8968038363309596 1:17.0 4:19.0 5:291.0 8:36.0 12:4267.0 13:11075.0 14:192.0 
0.8968449297865931 12:12563.0 14:12.0 
0.8967962825822313 4:2.0 12:9083.0 14:20.0 18:82.0 
0.8966254950162701 4:1.0 5:590.0 8:2.0 12:10798.0 14:113.0 18:1481.0 
0.8972620474723544 3:1.0 4:4.0 5:166.0 9:87.0 12:14356.0 14:579.0 
0.8967346744185687 1:1.0 3:9295.0 8:6.0 12:479.0 14:1.0 
0.8966601941632943 1:9.0 3:3267.0 4:7.0 12:8450.0 
0.8967298195902247 3:2.0 5:721.0 8:8.0 12:13584.0 14:206.0 
0.8967224430640239 12:8995.0 14:93.0 
0.8967101775794597 5:1568.0 12:6928.0 14:502.0 
0.8968587479086773 3:1.0 4:1092.0 5:100.0 12:8375.0 14:264.0 
0.8969806436016681 1:17.0 5:21.0 8:4.0 12:147645.0 13:203.0 18:7.0 
0.8973666389184167 12:15304.0 
0.8973362035051643 3:1.0 5:1107.0 8:30.0 12:7682.0 14:836.0 
0.8973251981531185 4:3.0 12:11168.0 
0.8966475845012349 8:12.0 12:19843.0 14:1.0 
0.8968054821510963 4:2.0 12:9065.0 
0.8969317960149895 4:5.0 12:9666.0 14:160.0 
0.8967957714947319 1:14.0 3:11.0 4:4.0 9:15.0 12:25194.0 14:1212.0 16:54.0 
0.8973433669981024 12:12806.0 14:2572.0 
0.8973697074722133 4:37.0 8:14.0 12:11412.0 14:178.0 
0.8973543797581981 3:2588.0 4:3.0 7:24.0 9:12.0 12:8842.0 14:331.0 20:1962.0 
0.8974286730854516 1:5.0 4:22.0 9:6.0 12:21504.0 14:36.0 
0.8969373798827166 3:2.0 12:16275.0 14:2157.0 
0.8972621515024992 1:28216.0 4:2265.0 12:2526.0 14:3404.0 
0.8973808145894037 3:9484.0 7:69.0 8:2.0 12:129.0 
0.8973715804767816 3:142.0 4:51.0 12:18328.0 14:66.0 
0.8970747953386007 4:84.0 12:20354.0 14:151.0 
0.8968056396203028 1:6.0 7:4989.0 12:9019.0 14:79.0 
0.8968348073035054 5:3660.0 7:1374.0 12:4618.0 14:1250.0 20:10.0 
0.8967341910171821 8:356.0 12:13283.0 14:6.0 
0.887577342132122 5:8.0 11:1.0 12:9323.0 14:159.0 
0.8968449297865954 4:65.0 12:29687.0 14:10.0 
0.8966731832354565 4:109.0 5:1533.0 12:7257.0 14:130.0 18:30.0 
0.8966182323219793 3:42.0 5:842.0 12:6932.0 14:1941.0 
0.8966090212061939 5:176.0 8:2.0 12:14988.0 14:103.0 
0.8966857997020172 12:44667.0 
0.8966738357326023 3:8.0 4:335.0 5:1213.0 12:8493.0 14:265.0 
0.8966501242775757 1:10.0 4:34.0 7:8612.0 9:14.0 12:1122.0 14:561.0 20:14.0 
0.89665929171782 5:1138.0 12:7667.0 14:151.0 18:7.0 
0.6969204774228561 12:9522.0 
0.8967574907076675 1:265.0 3:19.0 4:13.0 5:16869.0 9:5.0 12:3962.0 14:634.0 18:8.0 
0.8968486166657905 3:282.0 12:66887.0 14:2.0 
0.8968586324388901 4:1.0 5:73.0 12:9823.0 14:28.0 16:40.0 
0.8968760205992782 1:1.0 3:136.0 4:3.0 5:28.0 12:19040.0 14:93.0 15:72.0 18:1.0 
0.8968158803558249 1:35.0 4:44.0 5:317.0 12:7988.0 14:1517.0 16:9.0 
0.8973125280042692 1:47.0 4:34.0 7:6413.0 9:14.0 12:7025.0 14:202.0 
0.8973204129535507 1:2.0 5:39851.0 12:13919.0 14:5890.0 
0.8968600405292633 12:7983.0 14:1001.0 
0.8966254950162701 8:10008.0 12:9.0 14:17448.0 
0.8966736651102409 3:9.0 4:203.0 8:9.0 12:10655.0 
0.8966736077151203 12:10868.0 
0.8966722490826629 5:86.0 12:11852.0 14:61.0 
0.8967888298875152 1:34.0 5:526.0 12:12387.0 14:158.0 
0.8967226150463421 1:15.0 3:2.0 4:44.0 5:236.0 8:6.0 9:25.0 12:8294.0 14:419.0 
0.8965282743479415 5:130.0 8:6.0 12:9838.0 14:202.0 
0.8970838729249591 8:901.0 12:23966.0 14:6.0 
0.8968542702342516 5:30.0 8:14.0 12:6652.0 13:331.0 14:360.0 18:1897.0 
0.8968891256653635 12:28896.0 14:2562.0 
0.8970719580351387 3:8.0 5:37.0 12:10740.0 14:209.0 18:17.0 
0.8967301648468222 12:15417.0 
0.8973935942679884 5:83.0 12:11187.0 14:445.0 
0.8973670350753863 7:10636.0 8:3.0 12:3927.0 18:2418.0 
0.8973485709600209 4:60.0 12:9169.0 14:122.0 20:106.0 
0.8974272297167487 1:2.0 5:792.0 7:723.0 8:6.0 12:7223.0 14:389.0 18:214.0 
0.8974343589145982 5:74.0 12:10758.0 18:33.0 
0.8968966501956017 2:1.0 4:49.0 5:1121.0 7:6271.0 12:5714.0 13:2422.0 14:243.0 16:10.0 18:33.0 
0.8973685370135774 5:683.0 12:9474.0 14:222.0 
0.8968975698555482 3:10.0 4:3.0 5:5403.0 12:5170.0 14:228.0 18:14.0 
0.8967615509365667 3:1.0 4:5.0 12:964.0 14:8946.0 
0.8966362054629233 3:12.0 4:6.0 5:356.0 12:11655.0 14:45.0 
0.8966359786882713 1:22.0 12:92551.0 14:348.0 
0.8967565889188368 12:104746.0 14:72.0 
0.8968504808385263 8:63.0 12:17140.0 
0.8966350879559333 5:972.0 12:12395.0 13:16719.0 14:603.0 16:19.0 
0.8973392282630858 4:7299.0 5:4.0 12:698.0 14:1028.0 20:7.0 
0.8973533869023118 8:6.0 12:979.0 14:9207.0 
0.8969090391706389 4:8.0 5:346.0 12:10496.0 14:132.0 
0.8973310646852274 4:1.0 5:392.0 12:13282.0 14:152.0 
0.8974552580362131 3:10.0 12:10676.0 
0.8973616591213985 12:19375.0 
0.8966179017004561 3:8.0 12:14850.0 
0.8973765575426937 4:331.0 5:340.0 12:8725.0 14:553.0 16:2.0 
0.8973697287960893 1:8.0 12:12482.0 14:82.0 
0.8971964080219552 1:110.0 4:3.0 5:61.0 12:42740.0 14:256.0 20:102.0 
0.8970764632595261 4:5.0 12:17280.0 
0.8967632019374834 1:162.0 4:12.0 8:2.0 12:11012.0 13:3023.0 14:335.0 
0.8968625876188703 5:296.0 12:26629.0 14:272.0 
0.8967376282474273 3:204.0 5:154.0 9:7.0 12:75589.0 14:54.0 18:1.0 
0.8966719081589414 3:3.0 5:16.0 8:15.0 12:23005.0 14:97.0 
0.8966099250593489 3:6.0 4:12.0 5:10.0 12:13063.0 14:310.0 18:1.0 
0.8966730995301091 1:183.0 4:5.0 5:38.0 7:1.0 9:21.0 12:9567.0 14:509.0 18:10.0 20:96.0 
0.8973992404267082 3:3.0 4:14.0 12:17259.0 14:167.0 
0.8966501287867579 4:40.0 12:9621.0 
0.8966659492948087 12:17735.0 14:257.0 
0.8966193712974964 5:158.0 12:16521.0 14:86.0 
0.8968498566129208 3:1.0 4:4452.0 5:12.0 12:7758.0 14:157.0 
0.8968364313156465 4:692.0 12:8973.0 14:54.0 
0.8968043692812846 5:1358.0 9:15.0 12:7339.0 14:503.0 18:27.0 
0.8968535604869873 8:6.0 12:9986.0 18:122.0 
0.8966736077151203 8:93.0 12:21060.0 14:1.0 
0.8966819780000133 8:186.0 12:13844.0 14:1.0 
0.8966435217736665 3:885.0 12:16058.0 14:258.0 
0.8970747953386007 5:21.0 12:4855.0 14:2341.0 18:21.0 20:5258.0 
0.8972131823590223 4:26.0 5:40.0 8:7.0 12:13338.0 14:146.0 
0.897233494061094 5:1.0 12:8896.0 14:60.0 
0.8973204129535507 4:112.0 8:7.0 9:101.0 12:11058.0 14:10.0 
0.8973287319423734 3:49.0 12:12382.0 14:172.0 18:3.0 
0.8970610865736585 4:1.0 5:7779.0 8:10.0 12:1600.0 
0.8968577269753193 12:9217.0 
0.8974179934736473 3:11.0 4:12.0 12:1436.0 14:8465.0 
0.8966494931131725 1:3.0 7:17992.0 12:446.0 14:8226.0 
0.896563045409011 4:47.0 5:22708.0 12:578.0 14:40.0 
0.8973405376029333 3:203.0 4:17.0 5:943.0 12:16598.0 14:675.0 
0.8966925444854907 1:118.0 4:78.0 5:534.0 9:20.0 12:8746.0 14:879.0 
0.8966857997020173 12:13956.0 14:83.0 
0.8974135914814637 1:80.0 2:2.0 3:290.0 4:576.0 8:2.0 9:52.0 12:11022.0 14:296.0 
0.8973204129535507 4:1.0 5:387.0 12:23976.0 14:277.0 
0.8966278878574203 3:185.0 4:15.0 12:8682.0 14:235.0 
0.8966719081589414 12:24787.0 
0.8964712466055418 9:10.0 12:9807.0 14:90.0 
0.8968526424973282 4:233.0 5:666.0 9:1130.0 12:9289.0 14:494.0 18:9.0 
0.8973352648719035 1:22.0 4:567.0 12:6244.0 14:389.0 20:4505.0 
0.8967376282474268 12:9738.0 14:26.0 
0.8966254950162701 4:95.0 5:682.0 12:8496.0 14:174.0 18:12.0 
0.8974046094713526 1:26.0 4:124.0 5:6773.0 12:3895.0 14:271.0 18:133.0 
0.8966722490826629 1:260.0 4:41.0 5:234.0 9:10.0 12:6721.0 13:5173.0 14:94.0 
0.8974343385263139 3:603.0 4:13.0 5:1270.0 12:15828.0 14:122.0 18:39.0 
0.8966101911377427 4:22.0 12:8626.0 14:4007.0 
0.8966722764047153 12:9227.0 14:51.0 
0.8972834796495512 3:217.0 12:33649.0 14:276.0 
0.8968449297865954 1:9.0 9:3.0 12:12495.0 14:30.0 
0.8967060426667721 4:4.0 9:1.0 12:16899.0 14:3853.0 
0.8967534062224968 8:2.0 12:10388.0 14:99.0 
0.8968098854927452 3:344.0 4:59.0 12:6020.0 14:8914.0 
0.8970853878922928 4:3.0 9:28.0 12:34177.0 14:813.0 
0.8968865485805695 3:21136.0 5:23.0 12:2698.0 14:258.0 
0.896805634083829 4:36.0 5:840.0 9:20.0 12:18717.0 14:217.0 
0.8967320963300222 12:10113.0 14:161.0 18:63.0 
0.8970213090077659 4:2302.0 12:15378.0 
0.8970719580351387 3:36.0 4:1.0 5:293.0 9:51.0 12:12489.0 14:204.0 18:6.0 
0.8967888298875152 1:181.0 3:76.0 4:10.0 7:31.0 9:31.0 12:10267.0 14:160.0 
0.8970774046774213 12:10155.0 14:165.0 
0.8973616591213985 12:13449.0 14:321.0 
0.8966673021887515 8:76.0 12:9864.0 14:1.0 
-1.0 1:17.0 3:25.0 4:4.0 5:14.0 9:28.0 12:535.0 14:60.0 
-0.40722663246831936 1:1.0 8:2.0 12:110.0 14:8.0 
-1.0 8:148.0 14:1.0 
-1.0 4:52.0 7:162.0 12:719.0 
-1.0 3:78.0 12:583.0 14:17.0 
-1.0 12:74.0 14:83.0 
-1.0 1:1.0 7:14.0 12:212.0 13:8.0 14:19.0 
-1.0 8:75.0 12:8.0 14:4.0 
-1.0 4:1.0 8:11.0 12:155.0 14:98.0 
-1.0 1:3.0 4:1.0 12:34.0 13:18.0 14:20.0 16:6.0 
-1.0 5:2.0 12:400.0 14:7.0 
-1.0 4:9.0 8:19.0 12:187.0 14:9.0 
-1.0 5:124.0 12:131.0 14:19.0 
-0.8161367209782557 12:63.0 14:15.0 
-1.0 1:4.0 3:14.0 5:491.0 8:26.0 12:4702.0 14:90.0 
-1.0 3:5.0 8:8.0 12:355.0 
-1.0 12:356.0 14:120.0 16:4.0 
-1.0 3:41.0 12:226.0 14:106.0 16:16.0 
-0.9767950593193936 12:446.0 
-1.0 9:1.0 12:17.0 14:55.0 
-1.0 7:10.0 9:2.0 12:141.0 14:2.0 
-1.0 5:70.0 12:404.0 13:168.0 14:90.0 
-1.0 5:144.0 12:587.0 14:32.0 
-1.0 8:325.0 14:6.0 
-1.0 3:10.0 4:5.0 9:2.0 12:247.0 14:60.0 
-1.0 5:38.0 8:11.0 12:565.0 14:92.0 
-0.8927369888045471 5:2.0 12:213.0 14:5.0 
-1.0 3:4.0 12:557.0 14:87.0 
-1.0 7:14.0 12:150.0 14:21.0 
-0.997710408411554 4:32.0 8:2.0 12:46.0 
-1.0 3:34.0 12:165.0 14:29.0 
-1.0 8:190.0 14:3.0 
-1.0 1:1.0 12:1068.0 14:121.0 16:4.0 
-1.0 3:4.0 4:210.0 12:361.0 14:19.0 
-1.0 3:52.0 8:395.0 12:1876.0 14:226.0 
-1.0 12:565.0 14:28.0 
-0.5309858981441099 12:214.0 13:2.0 
-1.0 12:1494.0 
-0.44668898933357404 12:85.0 14:12.0 
-1.0 5:1.0 12:122.0 14:106.0 
-1.0 1:1.0 4:2.0 8:4.0 9:11.0 12:48.0 14:12.0 16:6.0 
-1.0 8:9.0 12:248.0 14:4.0 
-1.0 12:662.0 14:18.0 16:23.0 
-1.0 12:683.0 14:58.0 
-1.0 2:1.0 5:1.0 9:2.0 12:1985.0 14:86.0 
-1.0 8:22.0 12:214.0 14:23.0 
-1.0 8:11.0 12:555.0 14:143.0 18:2.0 
-1.0 3:7.0 8:29.0 12:395.0 
-1.0 1:10.0 12:162.0 
-1.0 12:265.0 14:68.0 
-1.0 8:746.0 12:104.0 14:1.0 
-1.0 12:257.0 14:24.0 
-1.0 4:21.0 12:1239.0 14:44.0 16:4.0 
-1.0 5:18.0 8:14.0 12:648.0 14:174.0 18:3.0 
-1.0 12:120.0 14:8.0 18:25.0 
-1.0 8:16.0 14:93.0 
-0.24858691441815228 12:308.0 
-0.5197168950246652 12:137.0 14:13.0 
-0.41459020664504065 12:169.0 14:41.0 
-1.0 3:219.0 4:26.0 12:1252.0 14:72.0 
-1.0 3:3.0 12:82.0 14:13.0 16:6.0 
-1.0 4:13.0 7:69.0 8:29.0 12:368.0 14:61.0 16:1.0 
-1.0 4:1.0 8:4.0 12:215.0 14:219.0 
-1.0 1:30.0 4:3.0 7:13.0 12:1149.0 14:5.0 18:2.0 
-1.0 1:2.0 7:86.0 12:93.0 14:75.0 
-1.0 3:52.0 8:200.0 12:141.0 14:13.0 
-0.6751297124515608 12:137.0 14:9.0 
-1.0 7:24.0 12:256.0 14:70.0 
-1.0 7:100.0 8:7.0 12:119.0 14:14.0 
-1.0 3:6.0 12:709.0 
-0.9323463251641216 3:23.0 12:83.0 
-1.0 1:1.0 12:125.0 14:25.0 16:8.0 
-1.0 3:13.0 8:5.0 12:321.0 
-1.0 8:13.0 12:1927.0 14:47.0 
-1.0 4:2.0 12:230.0 14:33.0 
-1.0 4:3.0 7:441.0 12:579.0 14:27.0 
-0.6225387103281487 12:93.0 
-1.0 8:260.0 12:9.0 14:1102.0 
-1.0 4:35.0 12:97.0 14:22.0 
-0.7201794566066554 12:109.0 
-1.0 3:22.0 12:104.0 
-1.0 8:2.0 12:509.0 13:2.0 14:91.0 
-1.0 5:2.0 12:920.0 13:74.0 14:74.0 
-1.0 4:101.0 12:579.0 14:50.0 16:32.0 
-1.0 4:33.0 8:21.0 12:109.0 14:52.0 
-1.0 1:3.0 5:9.0 12:85.0 14:14.0 
-1.0 8:502.0 12:17.0 14:4.0 
-1.0 4:1.0 5:35.0 8:45.0 12:1647.0 14:152.0 
-1.0 4:13.0 5:21.0 9:1.0 12:309.0 14:12.0 16:15.0 
-1.0 1:8.0 12:83.0 14:13.0 20:1.0 
-1.0 5:4.0 12:81.0 14:55.0 
-1.0 4:21.0 12:2878.0 14:171.0 
-1.0 7:460.0 8:12.0 12:113.0 13:9.0 14:17.0 
-1.0 1:2.0 8:2.0 9:3.0 12:416.0 13:110.0 14:17.0 
-1.0 3:327.0 5:4.0 8:6.0 12:904.0 14:1.0 
-1.0 7:15.0 12:158.0 13:1.0 14:3.0 
-1.0 12:72.0 14:19.0 
-1.0 12:471.0 13:3.0 14:130.0 
-0.38934834362953535 8:2.0 12:68.0 14:10.0 
-1.0 3:9.0 12:232.0 14:38.0 
-1.0 12:1005.0 14:27.0 
-0.7317135355568731 12:180.0 
-1.0 5:3.0 12:546.0 14:390.0 18:35.0 
-1.0 12:367.0 14:44.0 
-1.0 8:433.0 12:55.0 14:365.0 
-1.0 5:66.0 8:7.0 12:56.0 14:26.0 
-1.0 1:31.0 9:10.0 12:2078.0 14:41.0 
-1.0 4:1.0 12:100.0 14:33.0 
-0.8195236346948847 12:661.0 14:2.0 
-0.5049661013242567 12:80.0 14:7.0 
-1.0 4:45.0 12:284.0 14:14.0 
-0.6783028523266553 4:3.0 12:103.0 
-1.0 12:325.0 14:81.0 
-1.0 12:5083.0 
-0.7993936965509151 12:88.0 14:14.0 
-1.0 8:248.0 12:53.0 14:1.0 
-0.9811664348217385 12:690.0 14:21.0 
-1.0 12:1928.0 
-0.19209785759875342 12:49.0 14:8.0 
-1.0 5:11.0 7:1.0 8:6.0 12:169.0 14:47.0 18:18.0 
-1.0 3:1.0 8:2.0 12:276.0 13:1.0 14:31.0 18:3.0 
-1.0 4:6.0 12:150.0 14:11.0 
-1.0 8:32.0 12:837.0 14:19.0 
-0.9484231561722894 12:40.0 13:1.0 14:13.0 
-0.9018467554326345 8:22.0 12:32.0 
-1.0 1:12.0 8:3.0 12:218.0 14:25.0 
-1.0 1:21.0 3:38.0 8:8.0 12:366.0 13:20.0 14:187.0 
-1.0 3:31.0 8:6.0 12:81.0 14:16.0 
-0.9572144777210709 8:6.0 12:44.0 14:14.0 
-0.9316384245158428 12:269.0 
-0.6850326185423435 12:196.0 14:6.0 16:2.0 
-1.0 12:539.0 14:132.0 
-0.9029182451639272 8:63.0 
-1.0 5:61.0 8:27.0 12:49.0 14:2.0 
-0.46054719404236766 12:70.0 
-0.7046053542351888 1:2.0 12:198.0 14:7.0 
-1.0 1:272.0 12:1346.0 14:581.0 
-1.0 12:296.0 14:12.0 
-1.0 1:10.0 5:35.0 8:6.0 9:5.0 12:660.0 14:54.0 
-1.0 8:46.0 12:3.0 14:3.0 
-1.0 2:10.0 3:5.0 12:1270.0 
-0.7144616230831025 12:149.0 
-1.0 5:15.0 12:508.0 14:134.0 
-1.0 7:30.0 12:245.0 14:15.0 18:31.0 
-1.0 8:57.0 12:38.0 14:3.0 
-1.0 5:97.0 8:37.0 12:741.0 14:32.0 
-0.7310607477149947 12:159.0 
-1.0 3:2.0 4:4.0 12:255.0 14:78.0 
-1.0 7:30.0 12:18.0 14:9.0 
-1.0 8:2.0 12:957.0 
-0.9846794905325654 12:167.0 14:4.0 
-0.8099846301574944 12:133.0 
-1.0 1:31.0 3:6.0 4:168.0 8:45.0 9:11.0 12:299.0 13:12.0 14:46.0 
-1.0 4:4.0 12:141.0 14:53.0 
-1.0 12:492.0 14:79.0 
-0.4948374388828656 12:176.0 
-1.0 4:8.0 5:10.0 9:3.0 12:148.0 14:27.0 
-1.0 8:2.0 12:23.0 14:79.0 
-0.06633239929868848 12:60.0 14:4.0 
-0.7295968449929032 12:168.0 14:45.0 
-1.0 12:217.0 14:54.0 
-1.0 12:202.0 13:26.0 14:3.0 
-1.0 12:125.0 
-0.721734717678181 12:283.0 14:7.0 
-1.0 3:451.0 4:16.0 12:82.0 14:24.0 16:4.0 
-1.0 8:19.0 9:2.0 12:31.0 14:111.0 
-1.0 3:1.0 4:147.0 5:49.0 8:13.0 12:3187.0 13:1015.0 14:79.0 
-1.0 4:35.0 12:363.0 14:36.0 16:14.0 
-1.0 3:2.0 5:1.0 12:1020.0 14:12.0 
-1.0 5:75.0 12:169.0 14:5.0 
-1.0 5:4.0 12:1584.0 
-1.0 5:17.0 12:129.0 14:7.0 
-1.0 8:154.0 12:12.0 
-1.0 12:64.0 14:36.0 
-1.0 4:1.0 5:9.0 8:30.0 9:10.0 12:104.0 14:6.0 
-1.0 3:18.0 12:527.0 14:7.0 
-1.0 8:32.0 12:142.0 
-1.0 8:87.0 12:90.0 14:8.0 
-0.23495253055674753 12:55.0 14:7.0 18:1.0 
-0.6592695071309715 8:4.0 12:67.0 14:6.0 
-1.0 5:189.0 12:271.0 14:20.0 
-1.0 8:12.0 12:172.0 14:7.0 
-1.0 8:32.0 12:248.0 14:229.0 
-1.0 12:258.0 14:4.0 16:2.0 
-0.5976529549567022 5:3.0 12:51.0 
-0.8564851014469699 12:333.0 
-0.6186511553059518 8:2.0 12:285.0 14:5.0 
-1.0 8:56.0 12:217.0 
-1.0 12:132.0 14:63.0 
-0.9429608195992477 12:116.0 
-1.0 1:7.0 3:559.0 8:23.0 9:26.0 12:1353.0 14:119.0 
-1.0 4:5.0 8:2.0 12:426.0 14:206.0 
-1.0 1:1.0 3:14.0 12:152.0 14:44.0 16:2.0 
-1.0 1:1.0 9:1.0 12:994.0 14:2.0 
-1.0 8:36.0 12:169.0 14:27.0 
-0.7728620220272545 12:1252.0 
-1.0 4:55.0 12:158.0 14:45.0 
-1.0 8:10.0 12:213.0 14:40.0 
-1.0 8:28.0 12:223.0 13:577.0 14:106.0 
-1.0 1:132.0 3:6.0 4:2.0 5:2.0 7:4.0 12:463.0 14:92.0 
-1.0 8:9.0 12:43.0 
-1.0 8:16.0 12:40.0 14:17.0 18:25.0 
-1.0 12:604.0 14:16.0 
-1.0 9:2.0 12:329.0 14:65.0 
-1.0 2:13.0 9:57.0 12:266.0 14:29.0 16:18.0 
-1.0 7:1523.0 12:262.0 14:2211.0 
-1.0 3:2.0 5:8.0 12:74.0 14:16.0 
-1.0 4:91.0 8:4.0 9:1.0 12:81.0 
-0.5033035253970095 12:100.0 13:1.0 14:4.0 16:2.0 
-0.7598371734334316 8:4.0 12:158.0 
-0.7600368088374418 8:2.0 12:475.0 
-1.0 1:10.0 4:3.0 12:1053.0 13:167.0 14:83.0 
-1.0 8:386.0 12:339.0 14:3.0 
-1.0 3:5.0 12:251.0 14:81.0 
-0.323914560256555 8:2.0 12:87.0 14:1.0 
-0.19510385229650906 12:307.0 
-1.0 12:159.0 14:91.0 
-1.0 8:20.0 12:306.0 
-1.0 12:725.0 14:140.0 
-1.0 3:3.0 5:92.0 12:1836.0 14:62.0 18:15.0 
-1.0 5:168.0 12:332.0 14:19.0 
-1.0 1:27.0 12:75.0 14:1.0 
-1.0 5:8.0 12:79.0 13:19.0 14:6.0 16:4.0 
-1.0 12:1462.0 14:334.0 
-1.0 12:135.0 16:8.0 
-0.7504677753249748 8:5.0 12:106.0 14:4.0 
-1.0 8:10.0 12:578.0 13:83.0 14:14.0 
-0.6732486802037233 1:2.0 8:4.0 12:115.0 14:47.0 
-1.0 1:9.0 7:567.0 8:2.0 12:1524.0 14:114.0 16:20.0 
-1.0 4:4.0 5:30.0 8:18.0 12:372.0 14:146.0 
-1.0 8:2.0 12:64.0 13:26.0 14:4.0 
-0.5315295910211555 3:2.0 12:87.0 14:6.0 
-0.483603996451816 12:171.0 14:42.0 
-1.0 8:16.0 12:742.0 
-0.9803367290592682 8:77.0 12:1.0 14:4.0 
-1.0 1:1.0 8:2.0 9:3.0 12:204.0 13:34.0 14:13.0 
-0.3201384695058142 12:77.0 14:4.0 
-1.0 3:9.0 7:104.0 12:908.0 14:180.0 
-0.9436636497208745 8:14.0 12:161.0 14:3.0 
-1.0 7:12.0 9:2.0 12:14.0 13:87.0 14:27.0 
-1.0 5:9.0 7:19.0 8:4.0 12:92.0 13:37.0 14:61.0 
-1.0 4:10.0 12:169.0 14:73.0 16:8.0 
-1.0 5:23.0 8:2.0 12:70.0 14:2.0 
-0.359921615465113 12:49.0 14:15.0 
-1.0 1:6.0 3:23.0 4:3.0 12:292.0 14:11.0 
-1.0 1:127.0 4:1.0 8:2.0 12:362.0 13:23.0 14:51.0 16:4.0 
-1.0 3:4.0 7:15.0 8:4.0 12:138.0 14:11.0 
-1.0 3:9.0 12:61.0 14:39.0 
-1.0 1:2.0 3:59.0 5:261.0 8:2.0 12:4719.0 13:622.0 14:167.0 18:11.0 
-1.0 5:8.0 12:376.0 14:11.0 
-1.0 1:6.0 8:2.0 12:88.0 14:23.0 
-0.051959487921704364 12:63.0 14:9.0 
-1.0 4:42.0 5:115.0 12:1156.0 14:80.0 
-1.0 3:1.0 12:1088.0 
-1.0 8:19.0 12:632.0 14:79.0 
-1.0 4:1.0 12:216.0 14:136.0 
-0.9815811030788916 12:133.0 14:26.0 
-0.977162527273684 12:441.0 14:4.0 
-0.9585603892714691 5:6.0 12:132.0 14:32.0 
-1.0 8:2.0 12:34.0 14:128.0 
-0.34604317972282467 8:2.0 12:51.0 
-0.610841349692117 12:349.0 14:1.0 
-1.0 1:11.0 4:20.0 8:6.0 12:449.0 13:5.0 14:25.0 
-1.0 1:3.0 4:1.0 12:210.0 13:2.0 14:16.0 
-0.94678289097591 8:40.0 12:25.0 14:5.0 
-1.0 1:1.0 12:208.0 14:161.0 
-1.0 3:79.0 8:140.0 12:292.0 
-1.0 12:117.0 14:103.0 20:5.0 
-1.0 12:366.0 16:36.0 
-1.0 1:15.0 7:100.0 9:1.0 12:255.0 13:62.0 14:52.0 
-0.9926961937643043 12:190.0 14:17.0 
-0.6073920003347757 12:543.0 
-1.0 12:457.0 14:328.0 
-1.0 4:7.0 12:105.0 14:26.0 16:12.0 
-1.0 8:68.0 12:581.0 14:155.0 
-1.0 5:9.0 12:53.0 14:8.0 
-1.0 9:4.0 12:372.0 14:29.0 
-1.0 8:59.0 12:94.0 14:10.0 
-1.0 8:6.0 12:157.0 13:1.0 14:20.0 
-1.0 9:3.0 12:452.0 14:23.0 
-1.0 5:9.0 12:360.0 14:25.0 16:23.0 
-1.0 8:18.0 14:49.0 
-1.0 8:26.0 12:854.0 14:45.0 
-1.0 1:2.0 3:6.0 8:24.0 12:46.0 13:507.0 14:6.0 17:26.0 
-1.0 8:248.0 12:4.0 14:97.0 
-1.0 4:103.0 8:5.0 12:1152.0 14:4.0 
-0.9590073030428684 5:5.0 12:833.0 14:10.0 
-1.0 12:69.0 14:56.0 
-1.0 3:317.0 12:315.0 
-1.0 9:13.0 12:174.0 14:23.0 
-1.0 5:81.0 9:4.0 12:485.0 14:40.0 
-1.0 3:4.0 12:283.0 
-1.0 9:1.0 12:43.0 14:22.0 
-1.0 8:2.0 12:550.0 14:9.0 18:7.0 
-1.0 1:6.0 12:650.0 14:7.0 
-1.0 12:1075.0 14:139.0 
-0.42953003075815416 12:51.0 14:17.0 
-0.9076685231054649 12:656.0 
-1.0 9:14.0 12:3330.0 14:144.0 
-0.9981310459430868 4:37.0 12:42.0 
-1.0 12:514.0 14:11.0 16:19.0 
-1.0 1:1.0 3:523.0 9:2.0 12:427.0 14:69.0 
-1.0 5:96.0 12:2106.0 14:13.0 
-1.0 5:6.0 12:169.0 18:1.0 
-0.7848674301883364 12:345.0 
-1.0 3:24.0 12:688.0 16:2.0 
-0.8125892904477616 9:1.0 12:145.0 14:10.0 
-0.672045268362288 12:55.0 14:14.0 
-1.0 12:252.0 14:10.0 16:6.0 18:9.0 
-1.0 5:4.0 12:607.0 13:50.0 14:22.0 
-1.0 3:70.0 5:9.0 7:51.0 12:253.0 14:18.0 
-1.0 1:1.0 5:8.0 12:251.0 14:22.0 
-1.0 12:20.0 14:34.0 
-1.0 5:27.0 12:346.0 14:40.0 
-1.0 8:108.0 12:24.0 14:8.0 
-1.0 8:128.0 12:637.0 14:6.0 
-1.0 3:20.0 8:16.0 12:27.0 
-1.0 5:67.0 12:91.0 14:10.0 
-1.0 3:56.0 4:1.0 7:138.0 12:482.0 14:54.0 
-1.0 1:2.0 12:124.0 13:2.0 14:17.0 
-1.0 8:157.0 12:1488.0 
-1.0 7:59.0 12:39.0 14:24.0 
-1.0 7:23.0 12:337.0 14:51.0 
-1.0 3:27.0 4:3.0 12:270.0 14:11.0 
-1.0 8:8.0 12:73.0 
-1.0 3:2.0 8:2.0 12:239.0 14:77.0 
-0.9715831283268284 12:571.0 14:2.0 
-1.0 4:1.0 5:673.0 8:353.0 9:8.0 12:3023.0 14:66.0 18:1.0 
-1.0 8:253.0 12:1162.0 14:35.0 
-1.0 1:13.0 3:4.0 4:1.0 12:71.0 
-1.0 8:1.0 12:30.0 14:43.0 
-1.0 4:3.0 12:1372.0 
-0.6742425123080846 8:2.0 12:115.0 14:48.0 
-1.0 1:97.0 5:10.0 7:37.0 12:801.0 14:237.0 18:8.0 20:265.0 
-1.0 8:4.0 12:146.0 14:18.0 
-1.0 12:668.0 
-1.0 8:63.0 12:1535.0 14:3.0 
-1.0 4:2.0 5:10.0 12:2665.0 14:25.0 
-1.0 12:232.0 14:65.0 
-1.0 8:39.0 9:4.0 12:200.0 14:6.0 
-1.0 12:51.0 14:11.0 18:8.0 
-1.0 3:2.0 5:35.0 12:2121.0 14:253.0 
-0.8956550519383161 12:134.0 14:33.0 
-1.0 5:6.0 8:2.0 12:634.0 14:57.0 
-0.7513428155012153 8:2.0 12:306.0 
-1.0 5:29.0 12:12287.0 18:9.0 
-1.0 3:21.0 4:47.0 5:51.0 9:4.0 12:5407.0 14:16.0 18:17.0 
-1.0 12:14.0 14:152.0 
-1.0 8:91.0 12:147.0 14:7.0 
-0.545077483933587 4:1.0 9:3.0 12:141.0 14:10.0 
-1.0 1:1.0 9:26.0 12:271.0 14:79.0 
-1.0 4:21.0 8:57.0 12:660.0 14:28.0 18:14.0 
-1.0 1:6.0 3:130.0 5:19.0 8:5.0 12:1126.0 13:30.0 14:59.0 
-0.7249930425391989 8:4.0 12:56.0 14:7.0 
-1.0 5:510.0 12:1585.0 14:218.0 
-0.9238982260366115 8:56.0 12:5.0 14:1.0 
-1.0 4:10.0 12:377.0 14:84.0 
-1.0 5:23.0 9:3.0 12:125.0 14:20.0 
-0.8415606072895829 12:350.0 14:7.0 
-1.0 12:265.0 14:47.0 
-1.0 1:5.0 9:1.0 12:470.0 13:2.0 14:227.0 
-1.0 1:9.0 5:44.0 8:2.0 12:493.0 14:5.0 
-0.3022953855415917 4:2.0 12:69.0 14:3.0 
-1.0 3:54.0 5:28.0 8:26.0 9:2.0 12:1292.0 14:156.0 
-1.0 5:3.0 8:19.0 12:86.0 14:33.0 
-1.0 12:1542.0 14:15.0 
-1.0 1:6.0 9:3.0 12:454.0 14:328.0 
-1.0 8:59.0 12:267.0 14:69.0 
-1.0 3:99.0 12:695.0 14:218.0 18:7.0 
-1.0 3:3.0 8:58.0 12:19.0 
-1.0 3:62.0 4:2.0 9:62.0 12:1263.0 14:87.0 18:15.0 
-0.09740205070985161 8:1.0 12:56.0 14:1.0 
-1.0 5:96.0 12:366.0 14:11.0 16:4.0 
-1.0 8:6.0 12:32.0 14:17.0 
-1.0 4:8.0 12:43.0 14:7.0 
-0.9470689390997813 3:1.0 4:1.0 8:18.0 12:158.0 14:6.0 
-1.0 3:55.0 12:1636.0 14:25.0 
-0.8988383974967271 1:1.0 9:1.0 12:106.0 14:11.0 
-1.0 1:10.0 3:2.0 4:2.0 7:115.0 12:623.0 
-1.0 1:41.0 12:1251.0 13:158.0 14:63.0 
-1.0 3:2.0 5:6.0 12:175.0 14:14.0 
-1.0 4:14.0 5:29.0 12:267.0 14:97.0 16:10.0 
-1.0 1:3.0 12:388.0 14:26.0 
-1.0 1:20.0 3:162.0 12:1950.0 14:79.0 
-1.0 12:149.0 14:37.0 
-0.508096475189771 12:57.0 
-1.0 8:199.0 12:143.0 14:23.0 
-0.8949865235288335 12:115.0 14:7.0 
-1.0 12:123.0 14:29.0 
-1.0 1:6.0 12:700.0 14:14.0 
-1.0 12:271.0 14:493.0 
-1.0 4:1.0 5:30272.0 9:5.0 12:1193.0 14:73.0 
-0.4016488622895451 12:50.0 14:1.0 16:2.0 
-1.0 5:3.0 12:734.0 14:34.0 
-1.0 5:10.0 12:380.0 14:20.0 
-1.0 3:97.0 12:292.0 
-1.0 2:8.0 3:2.0 4:11.0 12:2394.0 14:80.0 
-1.0 3:145.0 12:433.0 
-1.0 3:436.0 5:36.0 12:2067.0 14:122.0 
-1.0 4:66.0 5:27.0 8:4.0 12:1818.0 14:192.0 
-1.0 12:108.0 14:130.0 
-0.6855367471129034 12:244.0 
-1.0 12:486.0 
-1.0 8:357.0 12:102.0 14:7.0 
-1.0 8:26.0 12:96.0 
-1.0 4:1.0 5:477.0 9:7.0 12:1664.0 14:97.0 
-0.5645585962747808 12:869.0 
-1.0 4:5.0 5:12.0 12:308.0 
-1.0 1:2.0 12:273.0 14:274.0 
-0.5917635281244864 8:61.0 12:4.0 14:2.0 
-1.0 3:22.0 12:748.0 14:47.0 
-1.0 7:305.0 12:147.0 14:30.0 
-0.9951702492066324 12:314.0 
-0.10296777256552737 12:101.0 
-1.0 5:40.0 8:117.0 12:819.0 14:16.0 
-0.6985080813555795 8:131.0 
-1.0 3:6842.0 4:9.0 5:14.0 8:22.0 12:432.0 14:28.0 17:4.0 
-1.0 5:50.0 12:186.0 14:16.0 
-1.0 12:1173.0 14:139.0 18:1.0 
-1.0 8:7.0 12:268.0 14:82.0 
-1.0 8:884.0 14:6.0 
-1.0 3:15.0 12:210.0 
-1.0 4:4.0 5:234.0 12:68.0 
-1.0 1:17.0 12:138.0 14:94.0 
-0.29067545254783356 12:81.0 
-1.0 8:154.0 12:31.0 
-0.25189759764202313 12:131.0 
-0.5021881645085522 3:2.0 12:87.0 
-1.0 5:14.0 12:394.0 14:2.0 
-1.0 8:1.0 12:317.0 14:8.0 
-1.0 3:8.0 4:34.0 12:734.0 14:36.0 20:15.0 
-1.0 1:19.0 4:3.0 5:37.0 8:1.0 9:1.0 12:709.0 14:53.0 18:2.0 20:102.0 
-1.0 5:67.0 12:848.0 14:27.0 
-1.0 1:1.0 5:3.0 8:16.0 12:94.0 13:1.0 14:8.0 
-1.0 8:2.0 12:305.0 14:36.0 
-0.9311367344628426 12:63.0 14:12.0 18:6.0 
-1.0 3:38.0 12:299.0 14:128.0 
-1.0 1:22.0 4:1.0 5:6.0 8:34.0 9:5.0 12:418.0 14:99.0 
-1.0 5:3.0 8:47.0 12:17799.0 
-0.8577873539467828 12:328.0 
-1.0 5:25.0 12:32.0 
-1.0 8:824.0 
-1.0 5:12.0 12:183.0 14:2.0 
-1.0 8:4.0 12:40.0 14:28.0 
-1.0 8:33.0 12:225.0 14:9.0 
-1.0 4:2.0 5:57.0 12:2802.0 14:2379.0 
-1.0 1:4.0 3:15.0 8:258.0 9:3.0 12:907.0 
-0.9465088815971172 8:39.0 12:20.0 13:3.0 14:4.0 
-1.0 1:19.0 12:203.0 14:12.0 
-1.0 1:6.0 12:181.0 14:5.0 
-0.526369513604621 3:2.0 12:74.0 
-1.0 4:2.0 8:2.0 9:1.0 12:291.0 14:78.0 
-1.0 3:86.0 4:2.0 5:106.0 8:15.0 12:714.0 14:84.0 
-1.0 4:7.0 12:702.0 
-1.0 1:1.0 4:39.0 5:251.0 12:4792.0 14:82.0 18:2.0 
-1.0 1:3.0 8:4.0 12:174.0 14:30.0 
-1.0 8:52.0 12:30.0 
-1.0 1:8.0 9:5.0 12:205.0 14:40.0 
-1.0 1:1.0 3:40.0 12:359.0 14:53.0 18:8.0 
-1.0 1:31.0 3:2.0 4:10.0 8:4.0 12:100.0 14:6.0 
-1.0 3:40.0 5:18.0 8:6.0 12:619.0 14:112.0 
-1.0 8:95.0 12:849.0 14:6.0 18:2.0 
-1.0 4:1.0 12:1243.0 14:133.0 
-1.0 12:631.0 14:17.0 
-0.33443970017527147 12:78.0 
-1.0 7:12.0 12:69.0 14:8.0 
-1.0 3:8.0 8:127.0 12:24.0 14:18.0 
-1.0 8:179.0 14:5.0 
-1.0 3:38.0 4:1.0 5:1.0 8:44.0 12:390.0 
-1.0 1:198.0 3:1.0 4:26.0 5:91.0 8:14.0 12:1855.0 14:29.0 
-0.3793752066778983 12:248.0 
-1.0 5:40.0 8:31.0 12:867.0 14:7.0 
-0.9865554273138006 12:238.0 
-1.0 8:21.0 12:428.0 14:58.0 
-1.0 12:139.0 14:45.0 
-0.9267169555054562 12:275.0 
-1.0 5:71.0 12:186.0 14:36.0 
-1.0 12:468.0 
-1.0 3:566.0 12:167.0 14:14.0 
-1.0 4:1.0 9:5.0 12:2118.0 
-1.0 12:1192.0 14:65.0 
-1.0 12:1857.0 
-1.0 4:23.0 12:96.0 14:6.0 
-1.0 4:22.0 5:142.0 8:17.0 12:595.0 14:30.0 16:3.0 18:8.0 
-0.5663403464128205 12:868.0 
-1.0 8:306.0 12:861.0 14:8.0 
-1.0 5:123.0 9:1.0 12:456.0 14:15.0 
-1.0 8:14.0 12:45.0 14:6.0 
-1.0 5:107.0 12:1167.0 14:29.0 
-1.0 8:19.0 12:3137.0 
-1.0 8:41.0 12:318.0 
-1.0 3:49.0 5:1302.0 8:418.0 12:5805.0 
-0.9597108163976102 12:831.0 14:13.0 
-1.0 5:104.0 12:32.0 
-1.0 3:10.0 8:11.0 12:564.0 
-0.6054546828739735 12:545.0 
-1.0 8:24.0 9:11.0 12:6704.0 14:120.0 16:2.0 
-0.9717360483821327 12:565.0 
-1.0 4:14.0 5:49.0 8:13.0 12:1361.0 14:8.0 
-1.0 5:18.0 12:2478.0 14:12.0 
-0.22251133590191619 12:58.0 14:10.0 
-1.0 7:24.0 12:246.0 14:8.0 
-1.0 12:9855.0 14:11.0 18:6.0 
-1.0 1:8.0 7:290.0 8:140.0 12:2653.0 14:1037.0 
-1.0 8:100.0 12:297.0 14:353.0 
-1.0 12:471.0 14:69.0 
-1.0 4:19.0 5:32.0 12:155.0 
-0.9218204116678825 8:1.0 12:174.0 14:8.0 
-1.0 8:41.0 12:292.0 14:31.0 
-1.0 12:980.0 
-1.0 1:42.0 4:83.0 8:9.0 9:14.0 12:113.0 14:23.0 
-1.0 12:217.0 14:18.0 
-0.8281054097171835 12:219.0 
-1.0 12:3484.0 14:513.0 
-1.0 3:4.0 5:41.0 8:59.0 12:81.0 
-1.0 8:161.0 12:5.0 
-1.0 3:6.0 5:60.0 12:92.0 14:3.0 
-1.0 8:40.0 12:266.0 14:1.0 
-1.0 3:18.0 12:1004.0 14:62.0 
-0.6365826961277289 8:3.0 12:98.0 
-1.0 1:2.0 3:2.0 4:85.0 5:553.0 8:26.0 12:7489.0 14:128.0 
-1.0 5:3.0 7:329.0 8:102.0 12:531.0 14:19.0 
-1.0 8:24.0 12:74.0 14:29.0 
-1.0 1:72.0 4:10.0 12:164.0 14:76.0 
-0.7690416788616277 8:21.0 12:31.0 14:5.0 
-1.0 5:68.0 8:2.0 12:282.0 14:16.0 
-1.0 5:10.0 8:3.0 12:256.0 14:26.0 
-1.0 3:4.0 12:306.0 14:48.0 
-0.04488705352652659 8:1.0 12:75.0 
-1.0 8:26.0 12:134.0 
-1.0 3:3.0 5:21.0 8:4.0 9:1.0 12:613.0 14:19.0 
-0.8022031600609312 9:1.0 12:250.0 14:3.0 
-0.6521156479721683 1:1.0 3:4.0 12:81.0 14:6.0 
-0.7348440786645858 12:479.0 
-1.0 8:22.0 12:34.0 14:11.0 
-1.0 4:73.0 5:10.0 8:46.0 12:165.0 14:14.0 
-1.0 1:8.0 12:127.0 14:30.0 
-1.0 7:198.0 12:408.0 14:98.0 
-1.0 1:10.0 8:14.0 12:361.0 14:139.0 
-1.0 1:7.0 12:191.0 14:6.0 
-0.4576585911160456 12:151.0 
-1.0 3:13.0 8:5.0 12:1079.0 
-0.30975090533783084 12:52.0 14:9.0 
-0.39229304730665593 12:67.0 14:11.0 
-1.0 1:2.0 3:8.0 12:214.0 14:18.0 
-1.0 12:202.0 14:49.0 
-0.2640988397189899 4:2.0 12:82.0 14:2.0 
-1.0 12:98.0 14:22.0 
-1.0 12:1070.0 14:75.0 
-0.7586184410930475 8:2.0 12:45.0 14:4.0 
-0.9467320094653964 12:695.0 14:17.0 
-1.0 5:80.0 8:46.0 9:2.0 12:136.0 14:11.0 
-1.0 4:4.0 5:11.0 8:40.0 12:1019.0 14:41.0 
-1.0 12:1421.0 
-1.0 5:47.0 12:167.0 14:17.0 
-1.0 4:1.0 8:8.0 9:1.0 12:103.0 14:23.0 
-1.0 4:10.0 5:188.0 12:5787.0 14:100.0 
-0.6173472601576375 4:3.0 12:46.0 14:12.0 
-1.0 4:3.0 12:3013.0 14:399.0 16:43.0 
-1.0 8:2.0 12:26.0 13:85.0 14:6.0 
-1.0 5:15.0 12:229.0 14:46.0 
-1.0 5:104.0 12:952.0 14:40.0 
-1.0 4:38.0 12:2559.0 14:100.0 
-1.0 8:223.0 12:10.0 14:4.0 
-0.5337764703879451 12:61.0 14:7.0 
-1.0 1:2.0 3:5.0 8:4.0 12:235.0 13:4.0 14:29.0 
-1.0 1:97.0 4:2.0 7:115.0 8:16.0 12:311.0 14:59.0 16:2.0 
-1.0 12:674.0 14:46.0 
-1.0 5:17.0 12:122.0 
-1.0 8:8.0 12:90.0 14:7.0 
-1.0 4:448.0 12:42.0 
-1.0 8:3.0 12:411.0 
-0.3481635696270926 1:2.0 12:95.0 14:4.0 
-0.3107431967101179 12:215.0 16:2.0 
-1.0 8:4.0 12:264.0 14:61.0 
-1.0 8:84.0 12:2.0 14:1.0 
-1.0 4:1.0 5:73.0 8:83.0 12:345.0 14:156.0 
-1.0 12:236.0 13:33.0 14:29.0 
-1.0 7:136.0 12:1920.0 14:3.0 
-1.0 3:7.0 4:116.0 5:559.0 7:1.0 12:3844.0 14:275.0 
-1.0 8:11.0 12:601.0 14:9.0 
-1.0 4:1.0 5:37.0 12:856.0 14:204.0 
-1.0 12:52.0 14:23.0 
-0.9330647666376319 3:23.0 4:3.0 12:88.0 
-1.0 8:5.0 12:270.0 14:136.0 
-1.0 5:27.0 12:161.0 14:4.0 
-0.5840427475758911 5:3.0 12:70.0 14:4.0 
-1.0 1:76.0 4:6.0 5:59.0 8:4.0 9:2.0 12:633.0 14:18.0 
-0.4764588327055087 5:3.0 12:106.0 14:5.0 
-1.0 3:20.0 5:55.0 12:37.0 14:41.0 
-1.0 5:94.0 12:149.0 14:9.0 
-1.0 12:1148.0 14:23.0 
-0.1783422771135196 8:1.0 12:84.0 
-1.0 4:1.0 8:8.0 12:84.0 13:34.0 
-1.0 12:532.0 14:79.0 
-1.0 8:37.0 14:108.0 
-1.0 12:113.0 14:20.0 
-0.898661641083591 1:2.0 4:1.0 12:189.0 14:11.0 
-1.0 9:1.0 12:265.0 14:8.0 
-1.0 1:6.0 12:291.0 13:38.0 14:9.0 
-0.4492590269913629 12:108.0 13:3.0 14:5.0 
-0.5944209349692238 12:92.0 14:6.0 
-1.0 1:11.0 4:1.0 8:53.0 12:198.0 14:23.0 15:16.0 
-1.0 8:95.0 12:666.0 14:2.0 
-1.0 5:17.0 8:4.0 12:459.0 14:576.0 
-1.0 12:1756.0 14:176.0 
-1.0 4:5.0 5:23.0 8:176.0 12:2226.0 14:131.0 16:2.0 18:64.0 
-1.0 12:1289.0 14:2.0 
-0.9823666432389887 12:133.0 14:17.0 16:2.0 
-1.0 12:590.0 14:47.0 
-1.0 5:14.0 8:213.0 9:5.0 12:453.0 14:55.0 
-1.0 9:4.0 12:271.0 14:64.0 
-0.7728620223377892 4:1.0 12:1248.0 
-1.0 1:26.0 5:22.0 12:108.0 13:8.0 14:12.0 
-1.0 12:518.0 14:39.0 
-1.0 3:11.0 8:70.0 12:107.0 14:6.0 15:67.0 
-0.03069895300044091 12:48.0 14:11.0 
-1.0 5:25.0 8:2.0 12:39.0 14:5.0 
-0.4132246903320042 8:2.0 12:176.0 14:3.0 
-1.0 8:68.0 12:25.0 14:59.0 18:4.0 
-1.0 5:174.0 12:1416.0 14:125.0 18:1.0 
-1.0 7:51.0 8:1.0 12:55.0 14:12.0 
-1.0 12:77.0 14:98.0 
-1.0 5:7.0 12:281.0 14:68.0 
-1.0 3:3.0 4:39.0 5:15.0 12:184.0 14:4.0 
-1.0 5:22.0 12:300.0 14:107.0 
-1.0 5:33.0 8:82.0 12:34.0 14:10.0 
-1.0 12:1812.0 14:15.0 
-0.33261180565955784 3:1.0 12:47.0 14:7.0 
-1.0 5:51.0 12:977.0 14:31.0 
-1.0 7:76.0 12:15.0 
-1.0 8:8.0 12:215.0 14:7.0 
-1.0 8:451.0 12:3.0 14:2.0 
-0.7003477611709412 8:128.0 12:1.0 14:1.0 
-0.755953749826138 12:62.0 
-1.0 8:175.0 12:78.0 14:4.0 
-1.0 1:2.0 9:4.0 12:410.0 14:14.0 
-1.0 5:61.0 12:305.0 
-1.0 12:225.0 14:28.0 
-1.0 1:7.0 12:699.0 13:148.0 14:23.0 
-1.0 12:205.0 
-1.0 8:116.0 14:13.0 
-1.0 12:638.0 14:7.0 
-1.0 12:1024.0 14:60.0 
-1.0 8:157.0 12:630.0 14:132.0 
-1.0 1:22.0 3:2.0 8:4.0 12:344.0 
-1.0 5:103.0 8:2.0 12:280.0 14:7.0 
-1.0 3:7.0 12:59.0 
-1.0 9:6.0 12:1112.0 14:41.0 
-1.0 1:60.0 12:272.0 14:103.0 16:2.0 
-1.0 3:47.0 12:246.0 
-1.0 1:20.0 3:4.0 9:11.0 12:119.0 14:18.0 
-1.0 8:149.0 12:225.0 14:479.0 
-1.0 5:784.0 12:266.0 14:11.0 
-1.0 9:19.0 12:2985.0 
-1.0 12:506.0 14:10.0 
-1.0 4:2.0 8:108.0 12:147.0 14:4.0 
-1.0 3:3.0 8:6.0 12:195.0 
-1.0 3:44.0 4:1.0 12:126.0 
-1.0 1:14.0 3:25.0 5:40.0 8:6.0 12:1413.0 14:142.0 
-1.0 3:599.0 4:19.0 8:19.0 12:1177.0 14:161.0 
-1.0 1:2.0 12:298.0 14:52.0 
-1.0 3:41.0 8:25.0 12:438.0 14:69.0 
-1.0 4:11.0 8:126.0 12:1148.0 14:84.0 
-0.27024324430483926 4:2.0 12:99.0 14:4.0 
-1.0 1:3.0 3:3.0 4:522.0 5:1549.0 12:4300.0 14:334.0 18:21.0 
-1.0 8:447.0 12:51.0 14:17.0 
-1.0 3:7.0 4:5.0 12:138.0 
-1.0 12:1043.0 14:7.0 
-1.0 4:4.0 12:281.0 13:74.0 14:32.0 
-1.0 8:129.0 12:76.0 13:147.0 14:7.0 
-0.9247593032438981 12:344.0 14:8.0 
-1.0 4:16.0 8:171.0 12:255.0 14:79.0 18:42.0 
-1.0 5:87.0 12:686.0 14:8.0 
-1.0 12:43.0 14:42.0 
-1.0 1:28.0 4:4.0 7:1140.0 9:2.0 12:2941.0 13:8.0 14:95.0 16:2.0 18:15.0 
-1.0 1:2.0 3:140.0 12:3411.0 13:1.0 14:41.0 
-1.0 12:293.0 14:526.0 
