svm_type c_svc
kernel_type rbf
gamma 0.05
nr_class 2
total_sv 1379
rho -0.11182299544864441
label 1 -1
nr_sv 700 679
SV
0.8882402228113931 12:10238.0 14:18.0 
0.8882604248821372 1:144.0 12:24805.0 
0.8882661304596238 3:1.0 4:25.0 5:76.0 12:15161.0 13:1.0 14:269.0 16:18.0 
0.8882668384798393 3:98.0 5:21.0 8:42.0 12:31243.0 14:519.0 18:36.0 
0.8882667635388241 12:9889.0 14:170.0 
0.8885020259204945 12:9017.0 14:2.0 
0.8885062995248814 12:9831.0 
0.8882780656690896 4:79.0 5:57.0 9:7.0 12:22251.0 14:375.0 
0.8882780656690896 12:11211.0 
0.8883001028324953 4:3.0 7:6861.0 8:2.0 12:2173.0 13:1298.0 14:140.0 
0.8883078451842304 4:102.0 7:668.0 8:2.0 12:21458.0 13:108.0 14:117.0 
0.8883058593262104 1:3.0 3:799.0 4:2.0 7:2.0 12:9416.0 14:331.0 18:10.0 
0.8882952351000482 12:12480.0 14:3.0 
0.8883020595940623 12:21894.0 16:8.0 
0.8882906486196641 1:10.0 3:26.0 5:99.0 8:9.0 12:9135.0 14:276.0 
0.8883220441686042 1:4.0 3:29.0 4:12.0 5:173.0 9:5.0 12:14017.0 14:655.0 16:1.0 
0.8883255270548158 1:64.0 3:59.0 4:1.0 7:7394.0 9:25.0 12:1581.0 14:110.0 
0.8883322365123386 3:2.0 5:2399.0 12:10146.0 13:4.0 14:572.0 18:109.0 
0.8877754648917853 1:28.0 7:3378.0 9:22.0 12:5203.0 13:1682.0 14:168.0 
0.8878125539622008 4:10.0 12:9463.0 14:51.0 
0.8878904439647863 4:2.0 12:21340.0 14:51.0 
0.8878658647435911 1:4.0 4:12.0 5:300.0 7:2234.0 9:9.0 12:14711.0 14:2.0 
0.8879655752227612 1:10.0 4:1.0 8:57.0 12:8375.0 14:635.0 
0.8880320297831172 12:9733.0 
0.8879655752227612 5:3.0 12:7713.0 14:2201.0 
0.8879687790711412 5:358.0 12:10589.0 14:348.0 
0.887983443095894 5:507.0 12:42075.0 14:2.0 
0.8880196549259374 1:60.0 12:14085.0 14:420.0 
0.8859074821390044 12:11829.0 
0.8880189006292358 1:1.0 3:1562.0 4:5.0 12:9041.0 14:92.0 
0.8860703654428158 12:13130.0 
0.8880634729534735 12:34108.0 16:28.0 
0.8881670922371854 12:13784.0 14:217.0 
0.8883062087494631 12:30177.0 
0.8878178457950764 8:3056.0 12:6977.0 
0.8882094275894801 12:9230.0 14:118.0 
0.8879963159138533 12:747.0 13:12707.0 14:178.0 16:30.0 18:19.0 
0.8887274341307274 3:1305.0 4:56.0 5:211.0 12:10349.0 14:158.0 
0.8878034943501175 8:17048.0 12:39.0 
0.8882447601145906 3:9.0 12:20966.0 
0.8878322015271793 3:47.0 9:59.0 12:10283.0 14:225.0 
0.8878634982131786 12:11447.0 14:19.0 
0.8879655752227612 12:10146.0 14:66.0 
0.8884547914225256 1:23.0 4:2.0 5:566.0 12:11102.0 14:212.0 16:37.0 
0.8880209975469389 12:117662.0 
0.8883803847643056 12:21811.0 
0.8883984761932633 12:21353.0 14:283.0 
0.8880190894995098 4:101.0 12:452697.0 14:498.0 
0.8881012593786706 8:9611.0 14:20.0 
0.8886524296014983 8:2.0 12:9291.0 14:101.0 18:6.0 
0.8881703977645814 12:19117.0 
0.8880190894995091 4:50.0 5:11.0 8:21.0 12:24857.0 13:4220.0 14:323.0 18:105.0 
0.8880634033980237 12:66258.0 
0.8884600057554122 4:1.0 8:2.0 12:16141.0 14:2229.0 
0.888398173424255 5:50.0 12:22034.0 14:358.0 18:4.0 
0.8885763779573466 12:29840.0 14:5.0 16:2.0 
0.8882962614829439 4:1.0 12:12687.0 14:98.0 
0.8885040849215298 1:938.0 4:92.0 8:22.0 9:9.0 12:10276.0 
0.8881965524375595 12:53901.0 
0.8880327866541774 4:107.0 5:281.0 12:9220.0 14:154.0 
0.8882798471861779 5:23.0 12:68050.0 14:11830.0 
0.8877968802286216 3:15514.0 4:5.0 12:595.0 
0.8887407306776307 4:1.0 12:11619.0 14:60.0 
0.8885775015374169 7:297.0 8:2.0 12:20175.0 18:4.0 
0.8879199375259419 4:5.0 12:26059.0 
0.887983443095894 3:1028.0 12:8379.0 
0.8880383436404089 1:204.0 4:150.0 8:19.0 9:23.0 12:20106.0 14:198.0 
0.888292824913023 12:14500.0 14:1614.0 
0.8879923982058948 5:33.0 12:10841.0 13:167.0 14:286.0 16:4.0 
0.8883145607681409 3:73.0 12:14992.0 14:148.0 
0.8882270075391107 12:3962.0 14:9523.0 
0.8878328280751725 3:181.0 12:23878.0 
0.8887439956281853 4:1044.0 5:12.0 9:3.0 12:10072.0 14:36.0 16:4.0 
0.8880279315303878 3:18.0 7:163.0 12:31804.0 14:130.0 16:20.0 
0.8882780656690936 1:2.0 8:1.0 9:8.0 12:27133.0 14:51.0 
0.8879415450617822 1:32.0 8:46.0 12:17656.0 14:306.0 
0.8882273037555887 8:13.0 12:9319.0 14:42.0 
0.888133752073898 5:1816.0 12:23679.0 14:6.0 
0.8887590101767726 12:14832.0 
0.8885103743905873 12:19809.0 
0.8882847181554013 1:18.0 7:216.0 12:10559.0 14:7774.0 18:62.0 
0.8880119586754451 5:48.0 12:9565.0 14:793.0 
0.8881693093709417 1:45.0 4:2.0 12:45221.0 14:34.0 
0.8882971448357466 8:185.0 12:9487.0 14:3.0 
0.8887328442795246 1:134.0 4:138.0 5:70.0 12:8896.0 14:213.0 
0.8878941562899814 12:12431.0 
0.887879536274699 4:1.0 12:119066.0 14:31.0 
0.8882669465182325 1:176.0 4:3.0 9:25.0 12:9798.0 14:2224.0 
0.888751460319174 4:4.0 5:18.0 12:16311.0 14:33.0 
0.8882292523257772 3:7.0 5:37.0 12:13781.0 14:167.0 
0.8883080082638837 4:3.0 5:61.0 8:664.0 12:27508.0 
0.8880275470937318 4:2.0 12:18674.0 14:227.0 
0.8881670922802045 12:15184.0 14:4.0 
0.8881956967553146 1:408.0 4:4.0 12:6407.0 14:2637.0 
0.8878476353326679 12:13511.0 
0.8881366549978837 3:2.0 4:74.0 5:110.0 8:1.0 9:19.0 12:34928.0 13:4.0 14:314.0 16:6.0 18:10.0 20:47.0 
0.8881579350274897 5:192.0 9:10.0 12:9077.0 14:335.0 
0.888290340470543 1:5.0 3:17.0 4:6.0 12:6459.0 14:4096.0 
0.8880188164738636 12:34789.0 14:163.0 
0.8879120086995647 3:8.0 12:10626.0 13:1.0 14:353.0 
0.8880320297831176 5:48.0 9:7.0 12:11608.0 14:963.0 18:5.0 
0.8880327866541774 2:5.0 10:1.0 12:21379.0 14:310.0 18:7.0 
0.8879415450617822 8:6.0 12:12939.0 14:1.0 
0.8881717181978597 3:1.0 4:80.0 5:24.0 8:10.0 12:8831.0 14:357.0 18:5.0 
0.8881936799182131 4:179.0 5:158.0 12:8976.0 14:132.0 18:81.0 
0.8882251474716932 7:410.0 12:147.0 14:10119.0 18:80.0 
0.8884102166508735 1:7.0 3:1414.0 12:18526.0 14:1069.0 
0.8882564295595313 12:12281.0 14:86.0 
0.8885057683926285 3:160.0 8:57.0 12:9343.0 14:247.0 
0.8883027784499203 12:9850.0 16:26.0 
0.8883226493750065 3:1.0 4:1.0 5:1506.0 12:12563.0 14:163.0 
0.8883128543149535 12:9396.0 14:5330.0 18:14.0 
0.8883078451842304 3:119.0 12:11561.0 14:54.0 
0.8882673111403439 12:11881.0 14:187.0 16:12.0 
0.8880279315303878 8:442.0 12:10575.0 14:19.0 
0.8880634729534735 1:102.0 5:89.0 12:9735.0 14:488.0 16:50.0 18:16.0 
0.8881670922802045 8:36.0 12:16942.0 14:97.0 
0.8879120086995647 12:9650.0 16:20.0 
0.8879483393182881 1:184.0 3:22.0 5:2.0 9:10.0 12:27286.0 13:79.0 14:258.0 16:41.0 
0.8878615675432373 1:311.0 3:3.0 4:41.0 12:24191.0 13:1180.0 14:210.0 18:14.0 
0.8880100227402461 5:190.0 12:10097.0 14:465.0 
0.8878930809742549 5:7.0 12:9675.0 14:59.0 
0.8882964527804889 1:93.0 4:15.0 12:16007.0 14:92.0 
0.888158101947017 5:1324.0 12:42331.0 14:121.0 
0.8878961850660692 3:868.0 5:29.0 8:7.0 9:34.0 12:22201.0 14:75.0 
0.888169991764534 12:8892.0 14:197.0 
0.8882667635388241 5:35.0 7:1841.0 12:15228.0 14:1.0 
0.8861934846275081 12:9038.0 
0.8887734791151624 8:104087.0 12:2017.0 
0.8885057683926285 4:2.0 5:129.0 8:2.0 9:18.0 12:9941.0 14:59.0 
0.8881685945151152 7:8952.0 12:358.0 14:9.0 
0.8880190894995098 1:1.0 5:998.0 12:8161.0 14:216.0 
0.8880349788489029 3:1.0 4:13.0 5:1425.0 12:8569.0 14:6.0 
0.8881567163736126 4:44.0 7:2343.0 9:12.0 12:12383.0 13:77.0 14:177.0 16:1.0 20:703.0 
0.8885763779573466 1:19.0 3:126.0 8:2.0 9:6.0 12:9596.0 14:50.0 
0.8883803847641272 4:13.0 5:411.0 12:9657.0 
0.8884102166508735 3:169.0 4:206.0 8:2.0 12:8446.0 14:1832.0 
0.8885031189709776 1:4.0 3:22.0 7:7442.0 9:10.0 12:53094.0 14:66.0 
0.888065086333387 12:8240.0 14:1483.0 
0.8883121739771233 3:38.0 7:4032.0 12:6716.0 14:10.0 18:675.0 
0.8883060423825879 3:92.0 12:8840.0 14:49.0 18:1.0 
0.888065086333387 4:29232.0 5:145.0 9:5.0 12:1005.0 14:38.0 
0.8878537772972424 1:1958.0 9:15.0 12:10246.0 14:26.0 
0.8883325703970868 1:3.0 3:203.0 8:551.0 9:85.0 10:24.0 11:331.0 12:1546.0 13:17419.0 15:62.0 17:6.0 
0.8882974759121461 1:404.0 4:64.0 12:10036.0 14:2390.0 
0.887993107666144 1:2.0 12:51680.0 14:27.0 
0.8885469164450382 12:8999.0 14:253.0 
0.8880279315303878 1:3158.0 3:110.0 12:3519.0 14:3254.0 
0.8878444972467352 5:34.0 12:19539.0 
0.8881622985741784 12:6365.0 14:3167.0 
0.8879178980031368 5:222.0 12:10707.0 14:148.0 16:2.0 
0.8860233250014719 12:11818.0 
0.8878381044110046 4:112.0 9:23.0 12:20549.0 14:5.0 
0.8880354824078115 12:36.0 14:13526.0 
0.8880204962131335 1:2.0 4:10.0 5:60.0 12:12058.0 14:12.0 
0.8879240837147537 3:12.0 5:304.0 12:20652.0 
0.8881561509826817 5:123.0 7:2126.0 9:2.0 12:8432.0 14:43.0 
0.8883062087494631 12:26697.0 14:5734.0 
0.8880001120354616 8:641.0 12:14768.0 
0.8884676621720953 1:2.0 12:19262.0 14:9.0 
0.888290551483401 4:14.0 5:86.0 7:549.0 12:25483.0 14:29.0 20:107.0 
0.888292824913023 8:15.0 12:16923.0 
0.8878656225677344 4:6.0 5:38.0 12:12635.0 14:14.0 18:17.0 
0.8878434569404083 4:36.0 8:25.0 9:25.0 12:12067.0 14:166.0 
0.8880199846270345 5:27.0 9:1.0 12:53584.0 14:7.0 
0.8880190894995098 12:22441.0 
0.8882906486196641 12:16307.0 14:132.0 
0.8882928310805456 1:224.0 3:90.0 5:68.0 9:77.0 12:5571.0 14:4086.0 20:699.0 
0.8887439201163052 1:1.0 4:1.0 5:4.0 8:2.0 12:12403.0 14:34.0 
0.8885889359056645 1:5.0 3:22.0 7:214.0 12:21869.0 14:147.0 
0.8885062995326158 1:3.0 3:588.0 9:5.0 12:9509.0 14:213.0 18:6.0 
0.8884600057554122 12:39269.0 16:6.0 
0.8883803847641272 3:49.0 4:5.0 12:20264.0 13:1733.0 14:2080.0 18:36.0 
0.8883984761932633 5:74.0 12:21300.0 14:1932.0 
0.8884173720314226 5:71.0 9:13.0 12:13247.0 14:75.0 18:7.0 
0.8882759838180483 12:10633.0 
0.8881728485851423 5:223.0 12:11583.0 16:10.0 
0.8879016915044288 3:24.0 4:1.0 12:20885.0 14:11849.0 16:4.0 
0.8879052867363674 12:18807.0 
0.8879171712890082 1:35.0 7:785.0 9:5.0 12:16625.0 14:219.0 
0.8878655955351353 1:2.0 9:4.0 12:11174.0 14:24.0 
0.8878968633519424 1:105.0 3:42210.0 4:3.0 5:501.0 9:24.0 12:4812.0 14:18.0 
0.8862929601647694 9:11.0 12:9039.0 
0.8878815169640247 3:415.0 4:66.0 8:24.0 12:14135.0 14:546.0 18:24.0 
0.8878328280751725 5:36.0 8:1.0 12:12387.0 14:55.0 
0.8880145197058235 7:14979.0 12:1847.0 
0.8880100227402461 3:1172.0 8:3.0 12:15744.0 14:109.0 
0.8882219685750873 1:11.0 4:1884.0 5:1922.0 9:45.0 12:10340.0 14:236.0 
0.8887572260203113 8:99.0 12:10609.0 
0.8884488275962996 5:695.0 8:7.0 12:10352.0 
0.8884547914225256 12:13148.0 14:262.0 
0.8884297445419596 3:47.0 5:114.0 12:618.0 13:11220.0 14:26.0 18:10.0 
0.8879687790711412 3:3335.0 12:9690.0 14:407.0 
0.8879655752227612 5:49267.0 12:3439.0 14:31.0 18:10.0 
0.8878125539622008 4:3.0 5:176.0 12:10652.0 14:160.0 
0.8885763694517183 3:264.0 5:4712.0 12:3946.0 14:1021.0 
0.8883226493750065 8:1900.0 12:4.0 14:11541.0 
0.8882906486196641 7:2237.0 12:7593.0 
0.8883168549735901 4:49.0 8:2.0 12:13066.0 14:235.0 
0.8883027784499203 3:1.0 12:37691.0 14:21.0 
0.8882780656690936 3:3.0 4:508.0 5:438.0 12:8250.0 14:348.0 
0.8882667635388241 5:127.0 12:23547.0 14:2344.0 
0.8882668384798393 3:107.0 5:26.0 12:12625.0 14:2213.0 
0.8882435815648385 5:1774.0 12:14716.0 14:36.0 
0.8881243384345403 8:3.0 12:17426.0 14:14.0 
0.8880313447447561 3:1.0 4:25.0 5:36.0 12:14950.0 14:227.0 16:26.0 
0.8880351148480778 1:64.0 4:6065.0 9:18.0 12:2922.0 14:78.0 16:10.0 
0.8880426345811643 5:401.0 7:2458.0 8:22.0 12:6099.0 14:99.0 
0.887993107666144 5:4018.0 9:20.0 12:11110.0 18:77.0 
0.8879483393182881 7:9072.0 9:24.0 12:862.0 14:256.0 
0.887865595535146 5:8433.0 9:1.0 12:2344.0 14:25.0 
0.8878634982131786 4:48.0 8:4.0 12:12499.0 14:63.0 
0.8878272635171405 4:3.0 5:131.0 8:89.0 12:17748.0 14:261.0 
0.8878505138581938 1:25.0 4:6.0 12:10212.0 14:29.0 20:1.0 
0.8882928310805456 3:133.0 9:24.0 12:10018.0 14:153.0 16:17.0 
0.8880217778581121 5:1.0 8:1.0 12:14003.0 14:34.0 
0.8881936799182131 12:13232.0 14:35.0 
0.8882759838180483 5:5.0 9:13.0 12:7543.0 14:3091.0 
0.8877800119534203 1:1307.0 5:1381.0 8:13.0 12:5411.0 14:1110.0 
0.8883260717710993 1:2.0 3:159.0 4:9.0 5:193.0 7:46.0 12:16124.0 14:98.0 
0.8887148817437682 3:1.0 4:9927.0 5:415.0 8:8.0 9:13.0 12:1051.0 14:21.0 
0.8883086883326176 12:30199.0 14:211.0 
0.887818835919997 3:1.0 4:1.0 5:9.0 12:8679.0 14:350.0 16:1.0 18:14.0 
0.8878178457950764 8:17281.0 14:3.0 
0.8880283965075187 12:11071.0 
0.8880427740672371 3:66.0 4:1.0 5:321.0 12:15765.0 14:377.0 
0.8882621965346041 4:4.0 5:52.0 12:12436.0 14:330.0 
0.8878032778197369 3:157.0 12:9028.0 
0.8877800119534203 1:3.0 3:155.0 5:32.0 7:5183.0 12:4685.0 14:154.0 16:20.0 
0.888290340470543 5:19200.0 12:2575.0 14:74.0 
0.8880351148480778 5:830.0 12:9408.0 14:112.0 
0.8882435815648385 8:1144.0 12:10371.0 
0.888306376279323 12:10874.0 14:29.0 
0.8885765843407492 9:19.0 12:45106.0 14:242.0 
0.8887265606691217 5:751.0 8:178.0 12:15627.0 18:87.0 
0.8887274341307274 2:9.0 5:1522.0 8:633.0 9:9.0 12:6935.0 14:227.0 18:7.0 
0.8884794477728726 4:3848.0 12:6908.0 14:1.0 
0.888392563033645 1:1.0 5:17.0 12:36256.0 14:53.0 
0.8883925849679215 12:29547.0 
0.8881366549978837 3:579.0 5:496.0 12:8312.0 14:521.0 
0.887983443095894 1:4.0 2:10.0 3:228.0 4:362.0 5:39.0 6:2663.0 7:5316.0 8:1131.0 9:1383.0 12:991.0 13:237.0 15:272.0 18:631.0 
0.888165010180182 12:9497.0 14:1.0 
0.8879310802382504 5:15.0 7:1206.0 12:16457.0 14:309.0 
0.8879178980031368 5:1.0 12:11357.0 14:7570.0 16:6.0 
0.8878022236712827 4:11827.0 9:5.0 12:110.0 14:40.0 
0.8878279428468183 1:33.0 4:1.0 7:48.0 9:2.0 12:13775.0 14:54.0 20:6.0 
0.8882889105145968 4:92.0 5:137.0 12:26075.0 13:52.0 14:79.0 
0.8883878679722863 5:374.0 12:13166.0 14:353.0 16:14.0 
0.8879963134261477 12:20082.0 14:23.0 
0.8879963159138533 3:51.0 4:1.0 12:17856.0 16:27.0 
0.8880855037751814 12:9917.0 
0.8879966028313196 12:13085.0 14:23.0 16:5.0 
0.6191242337014886 12:11374.0 14:2.0 
0.8882251474716932 12:10468.0 13:1.0 14:617.0 
0.8880429366061995 12:9611.0 
0.8883260717710993 5:225.0 8:2.0 12:8927.0 14:472.0 
0.8882083424721671 3:112.0 4:3.0 12:15740.0 
0.888290551483401 4:9.0 12:22681.0 
0.8882094275894801 12:18288.0 14:5.0 
0.8882768395499274 4:4.0 7:966.0 12:11623.0 14:626.0 
0.888123353001693 1:3.0 3:94.0 12:11365.0 14:22.0 
0.8878476353326679 5:123.0 12:9588.0 14:498.0 
0.887818835919997 4:4.0 5:100.0 12:8932.0 14:94.0 
0.8878147409866086 3:2.0 12:48527.0 
0.888306376279323 12:104726.0 
0.8883017075168677 3:6.0 4:6.0 5:17.0 12:26825.0 
0.6597923121047314 12:11378.0 
0.8881640261749681 3:21.0 12:21282.0 14:304.0 
0.8881703977645814 3:119.0 4:4.0 7:6326.0 8:24.0 12:4019.0 
0.8881578051306641 12:13383.0 16:16.0 
0.8880623261924294 3:58.0 4:6.0 5:126.0 9:1.0 12:8732.0 14:375.0 18:7.0 
0.888065086333387 12:7750.0 14:1549.0 
0.8880383436404089 1:192.0 4:3.0 12:36099.0 14:605.0 
0.8880275471014976 3:1.0 4:1.0 5:843.0 12:9617.0 14:227.0 
0.8880283965075187 12:14532.0 14:201.0 
0.8880190894995098 4:4.0 7:365.0 12:8208.0 14:632.0 
0.8880323684462881 3:7.0 5:381.0 8:12.0 12:27929.0 14:208.0 
0.8880204962131335 5:14.0 12:15370.0 14:19.0 
0.8878416586997624 8:568.0 12:102768.0 14:3.0 
0.8878968633519424 1:2.0 3:21.0 4:43.0 8:357.0 12:12287.0 
0.8878815169640247 3:31.0 4:2.0 5:55.0 9:3.0 12:19088.0 14:30.0 
0.8885100943069562 12:9009.0 14:235.0 16:4.0 
0.8879213084012095 3:242.0 4:123.0 5:91.0 8:2.0 12:10324.0 14:40.0 18:4.0 
0.8879415450617822 3:48.0 5:33.0 9:4.0 12:13623.0 14:93.0 16:4.0 
0.8879325494112433 8:4.0 12:9839.0 14:218.0 
0.8881934886908711 8:4.0 12:23608.0 
0.8883984761932633 7:2.0 12:45165.0 14:63.0 
0.8882906486196641 7:2122.0 8:8.0 12:184.0 13:11464.0 14:21.0 
0.8877099764123949 8:7.0 12:9311.0 14:35.0 
0.8883288770090075 5:7.0 12:21044.0 14:8.0 
0.8883121739771233 12:13197.0 
0.8880681275304756 1:9.0 8:3.0 9:2.0 12:12185.0 14:172.0 
0.8880351148480778 3:33.0 4:87.0 5:500.0 7:11652.0 8:2.0 9:3.0 12:5207.0 14:179.0 16:8.0 
0.8880204962131335 4:38.0 12:6274.0 14:7755.0 
0.8880199573427985 1:543.0 4:35.0 5:11.0 12:38609.0 13:202.0 14:105.0 16:14.0 
0.8879738343009196 5:269.0 12:1917.0 14:7042.0 
0.8887439956281853 3:54.0 4:3.0 5:112.0 12:9191.0 14:35.0 
0.8881254700454131 5:224.0 8:4.0 12:8909.0 14:240.0 
0.8880881663958488 5:4.0 12:11523.0 14:134.0 
0.8883216139546186 1:15.0 5:537.0 12:10004.0 14:76.0 16:29.0 18:6.0 
0.8882668384798393 4:1.0 9:3.0 12:15528.0 14:60.0 
0.8882780656690936 4:146.0 7:108.0 12:12874.0 14:365.0 16:9.0 17:1.0 
0.8882958597501436 4:31.0 12:19837.0 14:203.0 
0.888266118545844 12:11341.0 14:6.0 
0.888053559405044 4:4.0 12:11479.0 14:1272.0 
0.8877968802286216 3:29.0 12:9194.0 14:264.0 
0.8878586872104912 3:4.0 5:147.0 7:1103.0 12:10452.0 14:5.0 
0.8878416586997624 3:7.0 4:103.0 5:28.0 7:265.0 8:128.0 9:15.0 11:20.0 12:13371.0 13:42.0 14:44.0 
0.8879483393182881 7:361.0 12:18336.0 14:131.0 
0.8882604248821372 12:10368.0 14:84.0 16:23.0 
0.8881670922802045 3:14.0 5:2359.0 12:14127.0 14:113.0 
0.8882836591442289 8:16922.0 12:15.0 14:5.0 
0.8882971355741486 5:336.0 7:394.0 12:12258.0 14:107.0 
0.8886048622749219 3:56.0 5:1615.0 9:1.0 12:7646.0 14:256.0 
0.8886249916986035 8:29.0 12:19016.0 
0.8885057683926285 3:76.0 5:71.0 12:18141.0 14:620.0 
0.8885062995258456 9:2.0 12:9356.0 14:123.0 
0.8885040849215298 1:40.0 4:6.0 5:1.0 12:9019.0 14:81.0 
0.8884794477728726 8:2.0 12:32132.0 
0.8223653857577431 4:1.0 12:11359.0 
0.8884157404381148 1:117.0 4:43.0 5:41.0 12:13689.0 13:3256.0 14:11.0 
0.8883803847641272 4:18.0 12:20820.0 14:11.0 
0.888392563033645 4:21.0 7:3435.0 11:2.0 12:5644.0 14:103.0 16:6.0 20:2.0 
0.888392563033645 12:21056.0 14:37.0 
0.8882759838180483 1:19079.0 4:3793.0 9:2.0 12:329.0 14:14.0 16:6.0 
0.8881758744536093 12:13664.0 14:189.0 
0.8881655120237162 5:15.0 9:25.0 12:13153.0 14:214.0 
0.8881366549978837 1:18.0 8:6.0 12:17941.0 14:27.0 
0.8880886342111481 4:71.0 7:8.0 12:7561.0 14:5844.0 20:29.0 
0.8881030013772432 3:24.0 12:10304.0 14:75.0 
0.8879016915044288 12:13111.0 14:75.0 
0.8879308789132532 4:71.0 5:15.0 8:8.0 12:10214.0 13:403.0 14:13.0 16:9.0 
0.8878679541860621 1:167.0 3:1.0 4:48.0 5:439.0 9:91.0 12:10107.0 14:240.0 
0.887823496989248 8:18037.0 12:281.0 
0.8878279428468183 8:57.0 12:37852.0 14:47.0 18:57.0 
0.8877832188380803 3:27.0 5:3.0 12:23575.0 
0.8877927740427008 2:3.0 4:2.0 5:339.0 8:2.0 12:10691.0 14:91.0 
0.8877968802286216 3:47.0 5:173.0 12:12810.0 14:214.0 
0.7995477484896538 12:11366.0 
0.8878479330673639 12:14889.0 14:3017.0 
0.8881936799118613 8:3.0 12:11366.0 14:23.0 
0.8878591667049327 12:58808.0 
0.8882219685750873 12:28452.0 16:22.0 
0.8878615675432373 5:383.0 7:1063.0 12:9233.0 14:162.0 
0.8878272635171401 4:34.0 12:544.0 13:9832.0 14:66.0 18:4.0 20:23.0 
0.8878656225677344 1:212.0 4:27.0 7:3902.0 12:8068.0 14:209.0 
0.8878658647435911 3:18.0 4:22.0 12:105247.0 
0.8878639280390286 2:3.0 4:6.0 12:5940.0 13:4330.0 14:259.0 16:7.0 18:4.0 
0.8879736268252846 4:197.0 12:30795.0 14:3.0 
0.8878032778197077 12:11144.0 14:6.0 
0.887993107666144 4:1.0 12:15799.0 14:3884.0 
0.8880199573427985 12:6803.0 14:8976.0 
0.8880327866541774 12:15390.0 14:56.0 
0.8880294579140725 1:4.0 6:35.0 12:56391.0 14:70.0 
0.8880429366061995 3:127.0 5:29.0 12:31443.0 14:21.0 
0.8880351148480778 12:24101.0 18:1.0 
0.8880351148480778 5:195.0 12:16956.0 14:16.0 
0.8879687790711412 3:4.0 12:17151.0 14:39.0 
0.8880482557404763 3:46.0 4:7.0 5:2952.0 12:19420.0 14:266.0 18:6.0 
0.8881205509057513 1:1.0 4:48.0 5:2366.0 12:9520.0 14:335.0 18:8.0 
0.8881356461683859 3:12.0 12:9259.0 
0.8881502230532794 12:22118.0 
0.8882292523257772 5:334.0 8:7.0 12:8047.0 13:1137.0 14:233.0 18:30.0 
0.8882798471861779 12:18675.0 
0.6904988486808722 12:9527.0 
0.8879393621263441 3:14.0 5:63.0 7:1299.0 8:16.0 12:10476.0 13:190.0 14:26.0 
0.8884054155150998 3:36.0 5:128.0 12:8878.0 14:144.0 
0.8882971448356851 12:10726.0 
0.8884297445419596 4:32.0 5:108.0 8:12.0 9:80.0 12:14140.0 14:226.0 
0.8884297445419596 12:29027.0 
0.8884488275962996 1:1.0 9:2.0 12:17674.0 
0.8884488275962996 1:173.0 4:262.0 7:11848.0 11:1.0 12:3322.0 13:933.0 14:601.0 
0.8884547914225256 1:7.0 4:866.0 12:16223.0 14:10944.0 
0.8884547914225256 1:66.0 4:4.0 5:1325.0 9:5.0 12:9831.0 14:310.0 18:12.0 
0.887993107666144 7:6.0 12:17207.0 14:177.0 
0.8886068981208898 12:5701.0 14:7569.0 
0.8887572260203113 3:36.0 12:15441.0 
0.8887572260203113 4:325.0 8:24.0 12:61451.0 14:10.0 
0.8882402228113931 3:22.0 4:6.0 5:98.0 12:12658.0 14:78.0 
0.8882064018620504 4:8.0 5:89.0 12:11066.0 13:2613.0 14:525.0 16:6.0 18:144.0 
0.8882370758021154 12:9363.0 
0.8881883281091887 12:16056.0 14:245.0 
0.8881578051306641 12:26737.0 14:1.0 
0.8881585507770616 3:40.0 4:1.0 8:5.0 12:15364.0 14:68.0 
0.8880119586754451 1:4.0 4:3.0 7:5196.0 9:23.0 12:12758.0 14:1931.0 
0.8880119586754451 5:9236.0 12:7361.0 14:65.0 
0.8879011404478585 8:12.0 12:26148.0 
0.8880342174989024 3:1.0 4:28.0 5:210.0 12:8668.0 14:96.0 
0.8884173720031732 5:1.0 12:10748.0 14:11.0 
0.8880323684462881 3:10.0 12:9424.0 
0.8880323684462881 4:2.0 12:21386.0 13:1931.0 14:54.0 
0.8880308146712782 3:14.0 4:6.0 5:1553.0 12:10783.0 14:79.0 
0.8879913616363898 8:17864.0 12:1197.0 
0.8878322015271793 12:10005.0 
0.8883128543149535 4:47.0 5:623.0 8:7.0 12:11450.0 14:413.0 
0.8878930809742549 5:49.0 7:7952.0 8:3.0 9:2.0 12:2462.0 13:6.0 14:127.0 
0.8878964445500712 12:11091.0 14:510.0 
0.8878961850660692 12:10792.0 14:257.0 
0.8878815169640247 1:121.0 3:463.0 4:270.0 7:3540.0 9:182.0 12:6593.0 14:217.0 18:50.0 
0.8881152126606665 4:2.0 12:9390.0 
0.8878714975968922 3:12147.0 5:119.0 12:493.0 14:46.0 
0.8879089016399719 8:11592.0 14:5.0 
0.8879308789132532 12:13878.0 
0.8878855029343367 3:52.0 4:4.0 5:562.0 6:2.0 12:10041.0 14:214.0 
0.8878898285322451 12:80796.0 14:65.0 
0.8878973776811112 8:21.0 12:9165.0 
0.8878952637418748 5:469.0 8:2.0 12:19129.0 14:113.0 
0.8879328058540805 4:14.0 7:7446.0 12:1157.0 13:1312.0 14:477.0 18:29.0 
0.8879415450617822 3:147.0 4:3.0 5:19.0 12:20060.0 14:431.0 
0.8879325494112433 12:10522.0 14:241.0 
0.8879628516265994 1:3.0 4:2.0 5:56.0 12:13630.0 13:424.0 14:261.0 16:12.0 
0.888133752073898 8:13394.0 12:5.0 14:1.0 
0.8881650101810287 4:241.0 5:154.0 12:21557.0 14:209.0 
0.8881693093709417 1:2.0 4:10.0 9:3.0 12:13732.0 14:16.0 
0.8881693093709417 12:71399.0 
0.8881655120237162 5:89.0 12:9269.0 14:94.0 
0.8881622985741784 12:139687.0 14:236.0 
0.8881669345266346 4:6.0 12:36081.0 14:5.0 
0.8878429763005566 3:4.0 12:15432.0 
0.8881934886908711 4:41.0 5:307.0 7:4621.0 8:36.0 12:4414.0 13:1257.0 14:2210.0 
0.8881936799182131 3:1.0 4:158.0 8:19.0 12:11221.0 14:315.0 
0.888125470045413 4:2.0 9:2.0 12:28468.0 
0.8881936799179494 3:178.0 5:85.0 7:4797.0 9:2.0 12:6574.0 14:96.0 20:4481.0 
0.8882971355741486 4:3.0 12:14300.0 14:120.0 
0.8878442892365653 3:1.0 12:36333.0 14:189.0 
0.8882759838180483 1:9.0 7:4906.0 12:4785.0 14:15.0 
0.8883060423825879 12:32401.0 14:175.0 
0.8883803847641272 3:152.0 8:10.0 12:9851.0 14:84.0 18:159.0 
0.8883803847641272 1:119.0 3:358.0 4:3.0 9:7.0 12:8935.0 14:2815.0 18:50.0 
0.888398173424255 1:496.0 4:11.0 7:10517.0 12:1667.0 
0.888398173424255 1:47.0 4:4.0 8:92.0 12:4357.0 14:7628.0 
0.8883920454557168 3:6015.0 12:2739.0 14:601.0 
0.8884173720314226 3:422.0 4:8.0 12:9032.0 14:250.0 
0.8884173720267883 3:19.0 12:17939.0 
0.8884600057554122 4:2.0 5:25.0 9:15.0 12:29595.0 14:13.0 
0.888502026112464 8:2.0 12:14934.0 14:425.0 18:41.0 
0.8885057683926285 12:33795.0 16:14.0 
0.8885062995258456 12:28542.0 
0.8885062995258456 4:18.0 5:692.0 9:5.0 12:13967.0 13:1172.0 14:172.0 
0.8885100945548134 8:1.0 9:8.0 12:12873.0 14:792.0 
0.8885775015374169 8:9.0 12:11415.0 14:1.0 
0.8885763779573466 12:9113.0 16:7.0 
0.8885763779573466 4:4.0 5:18.0 9:2.0 12:16699.0 14:1262.0 
0.8886249917572855 5:31.0 12:10428.0 
0.8887407306776307 8:34.0 12:13732.0 14:337.0 
0.8887407306776307 5:881.0 12:10093.0 14:929.0 18:8.0 
0.8887405990281421 1:1.0 5:664.0 8:2.0 12:9608.0 14:90.0 18:10.0 
0.8887734791151624 1:8.0 4:9.0 5:656.0 7:2433.0 8:197.0 9:12.0 12:8394.0 
0.8883803847406712 8:2.0 12:10767.0 
0.8882928264691325 8:1207.0 12:8535.0 14:18.0 
0.8882971355741486 5:166.0 12:15113.0 14:129.0 
0.8883122401908711 1:316.0 4:17.0 12:9335.0 14:4.0 
0.8883255270548158 4:9.0 5:647.0 8:2.0 12:25299.0 13:5310.0 14:316.0 16:42.0 18:50.0 
0.8882971448357466 12:16656.0 14:135.0 
0.8883062087881115 5:1529.0 8:3.0 12:14080.0 14:2974.0 
0.8883121739771233 7:3889.0 8:1.0 12:4905.0 14:1660.0 
0.8882988001523326 1:219.0 12:12433.0 14:50.0 
0.8882824948927424 4:451.0 12:92203.0 14:155.0 16:2.0 
0.8882780656690896 5:14861.0 12:854.0 14:75.0 
0.8882668384798393 12:34361.0 14:1.0 
0.8882667635388241 2:3.0 5:31.0 8:19.0 12:13667.0 14:668.0 
0.888259277696867 3:3813.0 9:9.0 12:6697.0 14:32.0 16:1.0 20:2.0 
0.8878952637414843 4:7.0 8:4.0 12:9815.0 14:94.0 18:18.0 
0.8881670922371854 3:2997.0 4:2.0 5:59.0 8:2.0 12:50796.0 14:132.0 
0.8881670922371854 3:91.0 12:9862.0 14:652.0 18:6.0 
0.8880982962354351 8:56726.0 12:123.0 14:30.0 
0.8884794477728726 8:1064.0 12:10047.0 14:9.0 
0.8880623261924294 5:3246.0 12:5739.0 14:217.0 18:12.0 
0.8879923982058948 3:41.0 5:30.0 12:8958.0 14:43.0 
0.8880351148480778 12:68876.0 
0.8878634982131786 12:26665.0 14:26.0 18:30.0 
0.888306376279323 4:4.0 5:47.0 7:918.0 9:16.0 12:12396.0 14:528.0 18:44.0 
0.8880190894995098 5:45.0 12:18235.0 14:39.0 
0.88801126856243 3:4.0 4:1.0 5:889.0 12:13741.0 14:121.0 
0.8881640261749681 3:204.0 4:1.0 5:841.0 12:8780.0 14:150.0 16:8.0 
0.888141889264858 12:2890.0 14:10359.0 
0.8881579350274897 4:649.0 5:18988.0 12:21587.0 14:44.0 
0.8883145607681409 12:13822.0 14:25.0 16:10.0 
0.8878952637418748 1:7.0 5:53.0 7:1378.0 12:7988.0 14:229.0 16:6.0 
0.8878251446398027 4:1893.0 5:56.0 12:15732.0 14:69.0 16:19.0 
0.8877800119534203 5:259.0 7:7431.0 9:11.0 12:8188.0 14:4.0 18:47.0 
0.8878328280751725 12:9568.0 
0.8880199573427985 12:10742.0 14:238.0 
0.8879213084012095 5:186.0 12:24611.0 14:103.0 
0.8886068981208898 3:27.0 4:54.0 5:528.0 8:2.0 12:17082.0 14:943.0 
0.8880327866541774 5:1089.0 9:24.0 12:19435.0 14:3580.0 
0.8887265606691217 8:3.0 12:41.0 14:9584.0 
0.8878634982131786 1:5.0 3:40.0 4:49.0 5:565.0 12:14680.0 13:947.0 14:267.0 18:10.0 
0.8881578051306641 3:4.0 5:18.0 12:28518.0 
0.8879325494112433 8:81.0 12:28850.0 14:14.0 
0.8879328058540805 8:30.0 12:14514.0 
0.8881619078247871 12:45022.0 
0.8879736268252846 12:1068.0 14:10352.0 
0.8881693093701153 8:4.0 12:9474.0 14:4.0 
0.8883220441686042 12:27882.0 
0.8879483393182859 12:12540.0 
0.8882678825367722 8:96.0 12:9668.0 14:718.0 
0.8881152126606665 12:42539.0 14:25.0 
0.8883121739771233 5:503.0 9:18.0 12:18786.0 14:247.0 
0.8880220368689428 12:16430.0 
0.8880188164738636 5:5820.0 12:7886.0 14:9.0 18:3.0 
0.8877754648917853 3:44.0 5:1.0 12:9440.0 14:140.0 18:70.0 
0.8882370758021156 1:1.0 3:17.0 5:577.0 9:33.0 12:8759.0 14:10.0 
0.888292824913023 1:200.0 2:27.0 4:5.0 8:1.0 12:8826.0 14:109.0 
0.888065086333387 5:5709.0 12:3348.0 14:249.0 18:12.0 
0.8880204962131335 5:424.0 12:8992.0 13:3056.0 14:267.0 18:92.0 
0.8883118303758867 8:307.0 12:31360.0 14:6.0 
0.8883803847641272 4:17.0 5:525.0 12:25348.0 14:139.0 16:2.0 18:10.0 
0.8885889359056645 4:1.0 5:1.0 8:147.0 9:2.0 12:10068.0 
0.8879260815267739 5:78.0 12:24751.0 14:9.0 
0.8883088570235211 3:105.0 5:2247.0 12:21114.0 
0.888123353001693 1:275.0 4:7.0 5:2070.0 8:2.0 12:16664.0 14:316.0 
0.8878952637418748 7:24447.0 12:29183.0 14:121.0 
0.8879240837147537 8:2.0 12:14256.0 14:306.0 18:94.0 
0.8880196549259374 12:35500.0 
0.8881619078247871 1:18.0 4:2.0 12:15594.0 13:537.0 14:113.0 
0.8879325494112433 5:3.0 12:21142.0 
0.8885062995326158 8:445.0 12:30276.0 14:4.0 
0.8887389141537618 4:36.0 5:26.0 12:9914.0 
0.8881516871515881 12:47798.0 13:1.0 14:1876.0 
0.8878656225677344 5:756.0 7:865.0 9:5.0 12:25584.0 14:504.0 
0.8881758744536093 5:18431.0 12:5768.0 14:141.0 
0.8878147409866086 5:293.0 12:22470.0 14:251.0 16:18.0 18:13.0 
0.8883062087494631 2:25.0 5:2060.0 12:7514.0 14:151.0 18:279.0 
0.8882964527804889 4:265.0 7:7383.0 12:1259.0 14:153.0 
0.8882634348577869 12:26613.0 14:8.0 
0.8885062995248811 3:669.0 4:42.0 5:1006.0 12:9816.0 14:86.0 
0.8884173720267877 4:32.0 5:601.0 12:8380.0 14:174.0 
0.8881596294845516 5:3343.0 12:7240.0 14:521.0 18:18.0 
0.8878941562899814 4:1.0 5:20780.0 9:21.0 12:22552.0 14:36.0 
0.8882621965346041 4:3.0 9:25.0 12:10182.0 14:154.0 
0.8887572260203113 12:25733.0 14:441.0 
0.8884488275962996 12:22794.0 14:2.0 
0.8884297445419596 3:8.0 4:36.0 5:683.0 12:6148.0 13:2129.0 14:496.0 
0.8879687790711412 5:3145.0 12:27269.0 14:41.0 
0.8882673111403439 12:24019.0 14:253.0 
0.8880379457307634 3:3.0 4:18.0 5:7199.0 12:10374.0 14:178.0 18:10.0 
0.8878656225677344 3:38.0 5:198.0 12:33248.0 14:78.0 
0.8878272635171401 3:129.0 12:12015.0 14:350.0 
0.8881115163356499 8:136.0 12:15048.0 
0.8881972138438792 12:35187.0 
0.8882964527804889 8:817.0 12:6160.0 14:2658.0 
0.8883017075168677 8:4461.0 12:1937.0 14:10328.0 
0.8881561509826817 1:6.0 3:46.0 4:2.0 5:1074.0 12:37989.0 14:84.0 18:24.0 
0.8883172578412006 3:623.0 4:65.0 5:156.0 12:8420.0 14:217.0 18:72.0 
0.8878479330673639 5:9.0 12:10028.0 14:404.0 
0.8877968802286216 5:46.0 7:270.0 12:2413.0 14:10957.0 
0.8883017075168677 3:2.0 4:3.0 5:508.0 8:2.0 12:8996.0 13:1537.0 14:130.0 
0.8887148817437682 4:3.0 12:11469.0 
0.8860841213598876 12:13119.0 
0.8884794477728726 4:132.0 8:25.0 12:10413.0 14:48.0 
0.888392563033645 7:26.0 12:8982.0 14:12.0 16:2.0 
0.8881366549978837 5:31.0 12:60983.0 14:68.0 16:4.0 
0.887823496989248 5:78.0 12:15422.0 14:20.0 
0.8883878679722863 12:45707.0 
0.8879963134261477 1:17.0 4:19.0 5:291.0 8:36.0 12:4267.0 13:11075.0 14:192.0 
0.8879913616363876 12:12563.0 14:12.0 
0.8880354824078115 4:2.0 12:9083.0 14:20.0 18:82.0 
0.8883283466403077 4:1.0 5:590.0 8:2.0 12:10798.0 14:113.0 18:1481.0 
0.888290340470543 3:1.0 4:4.0 5:166.0 9:87.0 12:14356.0 14:579.0 
0.8882847181554013 1:1.0 3:9295.0 8:6.0 12:479.0 14:1.0 
0.8881294058534823 1:9.0 3:3267.0 4:7.0 12:8450.0 
0.8878537772972424 3:2.0 5:721.0 8:8.0 12:13584.0 14:206.0 
0.8878147409866086 12:8995.0 14:93.0 
0.8883062087881115 5:1568.0 12:6928.0 14:502.0 
0.8881670922802045 3:1.0 4:1092.0 5:100.0 12:8375.0 14:264.0 
0.8881578051306641 1:17.0 5:21.0 8:4.0 12:147645.0 13:203.0 18:7.0 
0.8880634033980237 12:15304.0 
0.8880279315303878 3:1.0 5:1107.0 8:30.0 12:7682.0 14:836.0 
0.8877800119533805 4:3.0 12:11168.0 
0.8880190894995098 8:12.0 12:19843.0 14:1.0 
0.8882905514834007 4:2.0 12:9065.0 
0.8880323684462881 4:5.0 12:9666.0 14:160.0 
0.8878444972467352 1:14.0 3:11.0 4:4.0 9:15.0 12:25194.0 14:1212.0 16:54.0 
0.8879326227199449 12:12806.0 14:2572.0 
0.8883017075168677 4:37.0 8:14.0 12:11412.0 14:178.0 
0.8883062087494631 3:2588.0 4:3.0 7:24.0 9:12.0 12:8842.0 14:331.0 20:1962.0 
0.8880189006292358 1:5.0 4:22.0 9:6.0 12:21504.0 14:36.0 
0.88801126856243 3:2.0 12:16275.0 14:2157.0 
0.8880634033980237 1:28216.0 4:2265.0 12:2526.0 14:3404.0 
0.8880945309038857 3:9484.0 7:69.0 8:2.0 12:129.0 
0.8883091428533804 3:142.0 4:51.0 12:18328.0 14:66.0 
0.8882780656690896 4:84.0 12:20354.0 14:151.0 
0.8880275471014976 1:6.0 7:4989.0 12:9019.0 14:79.0 
0.8878416586997624 5:3660.0 7:1374.0 12:4618.0 14:1250.0 20:10.0 
0.8878545777239111 8:356.0 12:13283.0 14:6.0 
0.8881640261749681 5:8.0 11:1.0 12:9323.0 14:159.0 
0.8886249917572855 4:65.0 12:29687.0 14:10.0 
0.8887179551430435 4:109.0 5:1533.0 12:7257.0 14:130.0 18:30.0 
0.8884600057554122 3:42.0 5:842.0 12:6932.0 14:1941.0 
0.888398173424255 5:176.0 8:2.0 12:14988.0 14:103.0 
0.8884173720314226 12:44667.0 
0.8882669465182325 3:8.0 4:335.0 5:1213.0 12:8493.0 14:265.0 
0.8881936799182131 1:10.0 4:34.0 7:8612.0 9:14.0 12:1122.0 14:561.0 20:14.0 
0.8881717181978597 5:1138.0 12:7667.0 14:151.0 18:7.0 
0.690414286715198 12:9522.0 
0.8879393621263441 1:265.0 3:19.0 4:13.0 5:16869.0 9:5.0 12:3962.0 14:634.0 18:8.0 
0.887879536274699 3:282.0 12:66887.0 14:2.0 
0.8878871212879097 4:1.0 5:73.0 12:9823.0 14:28.0 16:40.0 
0.8882962614829439 1:1.0 3:136.0 4:3.0 5:28.0 12:19040.0 14:93.0 15:72.0 18:1.0 
0.8882971355741486 1:35.0 4:44.0 5:317.0 12:7988.0 14:1517.0 16:9.0 
0.88784816484963 1:47.0 4:34.0 7:6413.0 9:14.0 12:7025.0 14:202.0 
0.8878328280751725 1:2.0 5:39851.0 12:13919.0 14:5890.0 
0.8878658647435911 12:7983.0 14:1001.0 
0.8879184016054765 8:10008.0 12:9.0 14:17448.0 
0.8880199846270345 3:9.0 4:203.0 8:9.0 12:10655.0 
0.8880119586754451 12:10868.0 
0.8880315048109928 5:86.0 12:11852.0 14:61.0 
0.8880634033980237 1:34.0 5:526.0 12:12387.0 14:158.0 
0.8880855037751814 1:15.0 3:2.0 4:44.0 5:236.0 8:6.0 9:25.0 12:8294.0 14:419.0 
0.8880623261924294 5:130.0 8:6.0 12:9838.0 14:202.0 
0.8880275470937318 8:901.0 12:23966.0 14:6.0 
0.8880320297831177 5:30.0 8:14.0 12:6652.0 13:331.0 14:360.0 18:1897.0 
0.8880204962131335 12:28896.0 14:2562.0 
0.8880190894995091 3:8.0 5:37.0 12:10740.0 14:209.0 18:17.0 
0.8882876374213653 12:15417.0 
0.8880349788489029 5:83.0 12:11187.0 14:445.0 
0.8880199573427985 7:10636.0 8:3.0 12:3927.0 18:2418.0 
0.8879641375364961 4:60.0 12:9169.0 14:122.0 20:106.0 
0.8878764478287179 1:2.0 5:792.0 7:723.0 8:6.0 12:7223.0 14:389.0 18:214.0 
0.8879736268252846 5:74.0 12:10758.0 18:33.0 
0.8879184016054765 2:1.0 4:49.0 5:1121.0 7:6271.0 12:5714.0 13:2422.0 14:243.0 16:10.0 18:33.0 
0.8878658647435911 5:683.0 12:9474.0 14:222.0 
0.887865595535146 3:10.0 4:3.0 5:5403.0 12:5170.0 14:228.0 18:14.0 
0.8878272635171405 3:1.0 4:5.0 12:964.0 14:8946.0 
0.8878272635171405 3:12.0 4:6.0 5:356.0 12:11655.0 14:45.0 
0.8885779265535834 1:22.0 12:92551.0 14:348.0 
0.8882836591442289 12:104746.0 14:72.0 
0.8887407306776307 8:63.0 12:17140.0 
0.8880294579140725 5:972.0 12:12395.0 13:16719.0 14:603.0 16:19.0 
0.8880220368689428 4:7299.0 5:4.0 12:698.0 14:1028.0 20:7.0 
0.8883216139546186 8:6.0 12:979.0 14:9207.0 
0.888290340470543 4:8.0 5:346.0 12:10496.0 14:132.0 
0.888254938540495 4:1.0 5:392.0 12:13282.0 14:152.0 
0.8887328442795246 3:10.0 12:10676.0 
0.8886401533351592 12:19375.0 
0.8887514569812911 3:8.0 12:14850.0 
0.8882094275894801 4:331.0 5:340.0 12:8725.0 14:553.0 16:2.0 
0.8882094275894801 1:8.0 12:12482.0 14:82.0 
0.8878147409866086 1:110.0 4:3.0 5:61.0 12:42740.0 14:256.0 20:102.0 
0.888306376279323 4:5.0 12:17280.0 
0.8882971448357467 1:162.0 4:12.0 8:2.0 12:11012.0 13:3023.0 14:335.0 
0.8881610284777601 5:296.0 12:26629.0 14:272.0 
0.8880945309038857 3:204.0 5:154.0 9:7.0 12:75589.0 14:54.0 18:1.0 
0.8880339018235505 3:3.0 5:16.0 8:15.0 12:23005.0 14:97.0 
0.8880342174989024 3:6.0 4:12.0 5:10.0 12:13063.0 14:310.0 18:1.0 
0.8880349788489029 1:183.0 4:5.0 5:38.0 7:1.0 9:21.0 12:9567.0 14:509.0 18:10.0 20:96.0 
0.8880349788489029 3:3.0 4:14.0 12:17259.0 14:167.0 
0.8880204962131335 4:40.0 12:9621.0 
0.8878545777239111 12:17735.0 14:257.0 
0.8878416586997624 5:158.0 12:16521.0 14:86.0 
0.8878434569404083 3:1.0 4:4452.0 5:12.0 12:7758.0 14:157.0 
0.8878586872104912 4:692.0 12:8973.0 14:54.0 
0.8883283466403077 5:1358.0 9:15.0 12:7339.0 14:503.0 18:27.0 
0.8878964445500712 8:6.0 12:9986.0 18:122.0 
0.8878815169640247 8:93.0 12:21060.0 14:1.0 
0.8879589268708663 8:186.0 12:13844.0 14:1.0 
0.887983443095894 3:885.0 12:16058.0 14:258.0 
0.8881681054480187 5:21.0 12:4855.0 14:2341.0 18:21.0 20:5258.0 
0.8881965524375595 4:26.0 5:40.0 8:7.0 12:13338.0 14:146.0 
0.8883080082638837 5:1.0 12:8896.0 14:60.0 
0.8880634729534735 4:112.0 8:7.0 9:101.0 12:11058.0 14:10.0 
0.8880634729534735 3:49.0 12:12382.0 14:172.0 18:3.0 
0.8881670922371854 4:1.0 5:7779.0 8:10.0 12:1600.0 
0.8882889105145968 12:9217.0 
0.8878272635171401 3:11.0 4:12.0 12:1436.0 14:8465.0 
0.8880320297831176 1:3.0 7:17992.0 12:446.0 14:8226.0 
0.8879736268252846 4:47.0 5:22708.0 12:578.0 14:40.0 
0.8886249916986035 3:203.0 4:17.0 5:943.0 12:16598.0 14:675.0 
0.8883058593262103 1:118.0 4:78.0 5:534.0 9:20.0 12:8746.0 14:879.0 
0.8880623261924294 12:13956.0 14:83.0 
0.8878679541860621 1:80.0 2:2.0 3:290.0 4:576.0 8:2.0 9:52.0 12:11022.0 14:296.0 
0.8882780656690936 4:1.0 5:387.0 12:23976.0 14:277.0 
0.8882902982043269 3:185.0 4:15.0 12:8682.0 14:235.0 
0.8878272635171405 12:24787.0 
0.8879089016395805 9:10.0 12:9807.0 14:90.0 
0.8883984761932633 4:233.0 5:666.0 9:1130.0 12:9289.0 14:494.0 18:9.0 
0.8882931049552872 1:22.0 4:567.0 12:6244.0 14:389.0 20:4505.0 
0.8880209975469384 12:9738.0 14:26.0 
0.8880379457307634 4:95.0 5:682.0 12:8496.0 14:174.0 18:12.0 
0.8887405990281421 1:26.0 4:124.0 5:6773.0 12:3895.0 14:271.0 18:133.0 
0.8882635942956779 1:260.0 4:41.0 5:234.0 9:10.0 12:6721.0 13:5173.0 14:94.0 
0.8880315048109928 3:603.0 4:13.0 5:1270.0 12:15828.0 14:122.0 18:39.0 
0.8878639280390286 4:22.0 12:8626.0 14:4007.0 
0.888290551483401 12:9227.0 14:51.0 
0.8878272635171401 3:217.0 12:33649.0 14:276.0 
0.8878381044110046 1:9.0 9:3.0 12:12495.0 14:30.0 
0.887865595535146 4:4.0 9:1.0 12:16899.0 14:3853.0 
0.8881640261749681 8:2.0 12:10388.0 14:99.0 
0.8881580757657793 3:344.0 4:59.0 12:6020.0 14:8914.0 
0.888292824913023 4:3.0 9:28.0 12:34177.0 14:813.0 
0.8882964527804889 3:21136.0 5:23.0 12:2698.0 14:258.0 
0.8887274341307274 4:36.0 5:840.0 9:20.0 12:18717.0 14:217.0 
0.8887274341307274 12:10113.0 14:161.0 18:63.0 
0.8885062995258456 4:2302.0 12:15378.0 
0.8885103743905873 3:36.0 4:1.0 5:293.0 9:51.0 12:12489.0 14:204.0 18:6.0 
0.8884173720314226 1:181.0 3:76.0 4:10.0 7:31.0 9:31.0 12:10267.0 14:160.0 
0.8884173720267877 12:10155.0 14:165.0 
0.8883925849668423 12:13449.0 14:321.0 
0.8883925849679215 8:76.0 12:9864.0 14:1.0 
-1.0 7:15.0 12:158.0 13:1.0 14:3.0 
-0.7884609563644221 12:72.0 14:19.0 
-1.0 12:471.0 13:3.0 14:130.0 
-0.5058713731346208 8:2.0 12:68.0 14:10.0 
-1.0 3:9.0 12:232.0 14:38.0 
-1.0 12:1005.0 14:27.0 
-0.7382460379375428 12:180.0 
-1.0 5:3.0 12:546.0 14:390.0 18:35.0 
-1.0 12:367.0 14:44.0 
-1.0 8:433.0 12:55.0 14:365.0 
-1.0 5:66.0 8:7.0 12:56.0 14:26.0 
-1.0 1:31.0 9:10.0 12:2078.0 14:41.0 
-1.0 4:1.0 12:100.0 14:33.0 
-0.8267899523324325 12:661.0 14:2.0 
-0.45168581182389983 12:80.0 14:7.0 
-1.0 4:45.0 12:284.0 14:14.0 
-0.7966405578764321 4:3.0 12:103.0 
-1.0 12:325.0 14:81.0 
-1.0 12:5083.0 
-0.9896466176765034 12:88.0 14:14.0 
-1.0 8:248.0 12:53.0 14:1.0 
-0.9887949567426593 12:690.0 14:21.0 
-1.0 12:1928.0 
-0.2062978270439212 12:49.0 14:8.0 
-1.0 5:11.0 7:1.0 8:6.0 12:169.0 14:47.0 18:18.0 
-1.0 3:1.0 8:2.0 12:276.0 13:1.0 14:31.0 18:3.0 
-1.0 4:6.0 12:150.0 14:11.0 
-1.0 8:32.0 12:837.0 14:19.0 
-0.9554300248069482 12:40.0 13:1.0 14:13.0 
-0.9082000048551452 8:22.0 12:32.0 
-1.0 1:12.0 8:3.0 12:218.0 14:25.0 
-1.0 1:21.0 3:38.0 8:8.0 12:366.0 13:20.0 14:187.0 
-1.0 3:31.0 8:6.0 12:81.0 14:16.0 
-0.9648114253553003 8:6.0 12:44.0 14:14.0 
-0.9816768425087583 12:269.0 
-0.6607885751267739 12:196.0 14:6.0 16:2.0 
-1.0 12:539.0 14:132.0 
-0.9102711350408378 8:63.0 
-1.0 5:61.0 8:27.0 12:49.0 14:2.0 
-0.46061269492737267 12:70.0 
-0.7122352963914365 1:2.0 12:198.0 14:7.0 
-1.0 1:272.0 12:1346.0 14:581.0 
-1.0 12:296.0 14:12.0 
-1.0 1:10.0 5:35.0 8:6.0 9:5.0 12:660.0 14:54.0 
-1.0 8:46.0 12:3.0 14:3.0 
-1.0 2:10.0 3:5.0 12:1270.0 
-1.0 5:15.0 12:508.0 14:134.0 
-1.0 7:30.0 12:245.0 14:15.0 18:31.0 
-1.0 8:57.0 12:38.0 14:3.0 
-1.0 5:97.0 8:37.0 12:741.0 14:32.0 
-0.39470478033401213 12:159.0 
-1.0 3:2.0 4:4.0 12:255.0 14:78.0 
-1.0 7:30.0 12:18.0 14:9.0 
-1.0 8:2.0 12:957.0 
-0.9013984041692011 12:167.0 14:4.0 
-0.6105220701845208 12:133.0 
-1.0 1:31.0 3:6.0 4:168.0 8:45.0 9:11.0 12:299.0 13:12.0 14:46.0 
-1.0 4:4.0 12:141.0 14:53.0 
-1.0 12:492.0 14:79.0 
-0.4973709532086278 12:176.0 
-1.0 4:8.0 5:10.0 9:3.0 12:148.0 14:27.0 
-1.0 8:2.0 12:23.0 14:79.0 
-0.13921079375101925 12:60.0 14:4.0 
-0.6507948413631837 12:65.0 14:14.0 
-0.790851114973835 12:168.0 14:45.0 
-1.0 12:217.0 14:54.0 
-1.0 12:202.0 13:26.0 14:3.0 
-0.9991083070651082 12:125.0 
-1.0 3:451.0 4:16.0 12:82.0 14:24.0 16:4.0 
-1.0 8:19.0 9:2.0 12:31.0 14:111.0 
-1.0 3:1.0 4:147.0 5:49.0 8:13.0 12:3187.0 13:1015.0 14:79.0 
-1.0 4:35.0 12:363.0 14:36.0 16:14.0 
-1.0 3:2.0 5:1.0 12:1020.0 14:12.0 
-1.0 5:75.0 12:169.0 14:5.0 
-1.0 5:4.0 12:1584.0 
-1.0 5:17.0 12:129.0 14:7.0 
-1.0 8:154.0 12:12.0 
-1.0 12:64.0 14:36.0 
-1.0 4:1.0 5:9.0 8:30.0 9:10.0 12:104.0 14:6.0 
-1.0 3:18.0 12:527.0 14:7.0 
-1.0 8:32.0 12:142.0 
-1.0 8:87.0 12:90.0 14:8.0 
-0.21834657672170033 12:55.0 14:7.0 18:1.0 
-0.6474565287913723 8:4.0 12:67.0 14:6.0 
-1.0 5:189.0 12:271.0 14:20.0 
-1.0 8:12.0 12:172.0 14:7.0 
-1.0 8:32.0 12:248.0 14:229.0 
-1.0 12:258.0 14:4.0 16:2.0 
-0.5758234848067252 5:3.0 12:51.0 
-0.8637314953213204 12:333.0 
-0.7361053991798581 8:2.0 12:285.0 14:5.0 
-1.0 8:56.0 12:217.0 
-1.0 12:132.0 14:63.0 
-0.9397749013461162 12:116.0 
-1.0 1:7.0 3:559.0 8:23.0 9:26.0 12:1353.0 14:119.0 
-1.0 4:5.0 8:2.0 12:426.0 14:206.0 
-1.0 1:1.0 3:14.0 12:152.0 14:44.0 16:2.0 
-0.8367687583415963 1:1.0 9:1.0 12:994.0 14:2.0 
-1.0 8:36.0 12:169.0 14:27.0 
-0.7790535486724639 12:1252.0 
-1.0 4:55.0 12:158.0 14:45.0 
-1.0 8:10.0 12:213.0 14:40.0 
-1.0 8:28.0 12:223.0 13:577.0 14:106.0 
-1.0 1:132.0 3:6.0 4:2.0 5:2.0 7:4.0 12:463.0 14:92.0 
-0.43837511281045505 12:96.0 
-1.0 8:9.0 12:43.0 
-1.0 8:16.0 12:40.0 14:17.0 18:25.0 
-1.0 12:604.0 14:16.0 
-1.0 9:2.0 12:329.0 14:65.0 
-1.0 2:13.0 9:57.0 12:266.0 14:29.0 16:18.0 
-1.0 7:1523.0 12:262.0 14:2211.0 
-1.0 3:2.0 5:8.0 12:74.0 14:16.0 
-1.0 4:91.0 8:4.0 9:1.0 12:81.0 
-0.5012942549214802 12:100.0 13:1.0 14:4.0 16:2.0 
-0.8068342980511749 8:4.0 12:158.0 
-0.7664274882102265 8:2.0 12:475.0 
-1.0 1:10.0 4:3.0 12:1053.0 13:167.0 14:83.0 
-1.0 8:386.0 12:339.0 14:3.0 
-1.0 3:5.0 12:251.0 14:81.0 
-0.35684407378440963 8:2.0 12:87.0 14:1.0 
-0.4712692708923547 12:307.0 
-1.0 12:159.0 14:91.0 
-1.0 8:20.0 12:306.0 
-1.0 12:725.0 14:140.0 
-1.0 3:3.0 5:92.0 12:1836.0 14:62.0 18:15.0 
-1.0 5:168.0 12:332.0 14:19.0 
-1.0 1:27.0 12:75.0 14:1.0 
-1.0 5:8.0 12:79.0 13:19.0 14:6.0 16:4.0 
-1.0 12:1462.0 14:334.0 
-1.0 12:135.0 16:8.0 
-0.7589215779538967 8:5.0 12:106.0 14:4.0 
-1.0 8:10.0 12:578.0 13:83.0 14:14.0 
-0.6785983282788361 1:2.0 8:4.0 12:115.0 14:47.0 
-1.0 1:9.0 7:567.0 8:2.0 12:1524.0 14:114.0 16:20.0 
-1.0 4:4.0 5:30.0 8:18.0 12:372.0 14:146.0 
-1.0 8:2.0 12:64.0 13:26.0 14:4.0 
-0.5920191194599955 3:2.0 12:87.0 14:6.0 
-0.7901716596155035 12:171.0 14:42.0 
-1.0 8:16.0 12:742.0 
-1.0 8:77.0 12:1.0 14:4.0 
-1.0 1:1.0 8:2.0 9:3.0 12:204.0 13:34.0 14:13.0 
-0.33981466773696134 12:77.0 14:4.0 
-1.0 3:9.0 7:104.0 12:908.0 14:180.0 
-0.9507482647886838 8:14.0 12:161.0 14:3.0 
-1.0 7:12.0 9:2.0 12:14.0 13:87.0 14:27.0 
-1.0 5:9.0 7:19.0 8:4.0 12:92.0 13:37.0 14:61.0 
-1.0 4:10.0 12:169.0 14:73.0 16:8.0 
-1.0 5:23.0 8:2.0 12:70.0 14:2.0 
-0.3675543500626189 12:49.0 14:15.0 
-1.0 1:6.0 3:23.0 4:3.0 12:292.0 14:11.0 
-1.0 1:127.0 4:1.0 8:2.0 12:362.0 13:23.0 14:51.0 16:4.0 
-1.0 3:4.0 7:15.0 8:4.0 12:138.0 14:11.0 
-1.0 3:9.0 12:61.0 14:39.0 
-1.0 1:2.0 3:59.0 5:261.0 8:2.0 12:4719.0 13:622.0 14:167.0 18:11.0 
-1.0 5:8.0 12:376.0 14:11.0 
-1.0 1:6.0 8:2.0 12:88.0 14:23.0 
-0.19496558223075286 12:63.0 14:9.0 
-1.0 4:42.0 5:115.0 12:1156.0 14:80.0 
-1.0 3:1.0 12:1088.0 
-1.0 8:19.0 12:632.0 14:79.0 
-1.0 4:1.0 12:216.0 14:136.0 
-0.9911472780406233 12:133.0 14:26.0 
-1.0 12:441.0 14:4.0 
-0.9667225718288917 5:6.0 12:132.0 14:32.0 
-1.0 8:2.0 12:34.0 14:128.0 
-0.6161441306162851 12:349.0 14:1.0 
-1.0 1:11.0 4:20.0 8:6.0 12:449.0 13:5.0 14:25.0 
-1.0 1:3.0 4:1.0 12:210.0 13:2.0 14:16.0 
-0.954465483834991 8:40.0 12:25.0 14:5.0 
-1.0 1:1.0 12:208.0 14:161.0 
-1.0 3:79.0 8:140.0 12:292.0 
-1.0 12:117.0 14:103.0 20:5.0 
-1.0 12:366.0 16:36.0 
-1.0 1:15.0 7:100.0 9:1.0 12:255.0 13:62.0 14:52.0 
-0.9128107493938099 12:190.0 14:17.0 
-0.6118365872055576 12:543.0 
-1.0 12:457.0 14:328.0 
-1.0 4:7.0 12:105.0 14:26.0 16:12.0 
-1.0 8:68.0 12:581.0 14:155.0 
-1.0 5:9.0 12:53.0 14:8.0 
-1.0 9:4.0 12:372.0 14:29.0 
-1.0 8:59.0 12:94.0 14:10.0 
-1.0 8:6.0 12:157.0 13:1.0 14:20.0 
-1.0 9:3.0 12:452.0 14:23.0 
-1.0 5:9.0 12:360.0 14:25.0 16:23.0 
-1.0 8:18.0 14:49.0 
-1.0 8:26.0 12:854.0 14:45.0 
-1.0 1:2.0 3:6.0 8:24.0 12:46.0 13:507.0 14:6.0 17:26.0 
-1.0 8:248.0 12:4.0 14:97.0 
-1.0 4:103.0 8:5.0 12:1152.0 14:4.0 
-0.9657750327336502 5:5.0 12:833.0 14:10.0 
-1.0 8:2.0 12:100.0 14:83.0 
-0.7372777462434321 8:2.0 12:93.0 14:10.0 
-1.0 5:245.0 12:1725.0 14:104.0 
-1.0 1:9.0 12:245.0 14:15.0 
-1.0 9:3.0 12:429.0 14:30.0 
-0.4902324211682451 12:191.0 14:11.0 
-1.0 12:251.0 14:134.0 18:16.0 
-1.0 5:57.0 12:249.0 14:12.0 
-1.0 4:12.0 8:32.0 12:205.0 14:33.0 
-1.0 5:81.0 8:2.0 12:287.0 14:49.0 
-1.0 1:1.0 12:358.0 13:9.0 14:8.0 16:2.0 
-1.0 7:98.0 12:87.0 14:70.0 
-0.5234689104401524 12:279.0 
-1.0 1:8.0 4:5.0 12:41.0 
-0.5897555540206619 3:1.0 9:1.0 12:283.0 14:8.0 
-1.0 12:836.0 
-1.0 8:809.0 9:1.0 12:102.0 14:12.0 
-1.0 1:1.0 12:223.0 14:6.0 16:4.0 
-1.0 5:39.0 12:608.0 14:85.0 16:14.0 18:3.0 
-1.0 7:658.0 8:1.0 12:9.0 18:2.0 
-0.8270426665494648 4:1.0 12:237.0 14:4.0 
-0.8889255986866297 4:2.0 8:4.0 12:110.0 14:23.0 
-1.0 3:58.0 12:358.0 14:32.0 
-1.0 12:1771.0 
-1.0 3:2.0 8:25.0 12:116.0 14:16.0 16:2.0 
-1.0 12:184.0 14:22.0 
-1.0 12:223.0 14:39.0 
-1.0 12:23.0 14:67.0 
-1.0 3:8.0 12:5728.0 13:8.0 14:446.0 16:6.0 
-1.0 5:531.0 9:4.0 12:799.0 
-1.0 4:1.0 5:603.0 8:244.0 12:878.0 
-1.0 5:1.0 12:91.0 14:31.0 
-1.0 3:2.0 7:3.0 12:152.0 14:28.0 
-1.0 8:490.0 12:7.0 14:4.0 
-1.0 1:2.0 7:6.0 8:44.0 12:329.0 14:19.0 16:6.0 
-1.0 5:64.0 12:342.0 14:166.0 
-1.0 8:36.0 12:226.0 14:39.0 20:1.0 
-1.0 3:835.0 8:4.0 12:275.0 
-1.0 12:1431.0 14:1.0 18:1.0 
-0.8592764418104866 9:1.0 12:147.0 14:9.0 
-1.0 1:37.0 5:25.0 9:2.0 12:222.0 14:87.0 
-1.0 1:2.0 5:3.0 8:3.0 12:80.0 14:12.0 
-1.0 8:122.0 14:4.0 
-1.0 3:38.0 5:77.0 8:18.0 9:12.0 12:2848.0 14:195.0 
-0.46832076916800564 12:69.0 14:18.0 
-1.0 5:9.0 12:62.0 14:5.0 
-1.0 4:1.0 8:2.0 12:279.0 14:126.0 
-1.0 8:111.0 12:91.0 14:4.0 
-0.6730470518724452 7:1.0 8:4.0 12:51.0 
-1.0 8:22.0 12:77.0 14:5.0 
-1.0 12:397.0 14:91.0 
-1.0 5:297.0 12:1911.0 14:393.0 16:4.0 18:23.0 
-1.0 8:14.0 12:122.0 14:18.0 
-0.8266832985855843 12:990.0 
-1.0 9:16.0 12:189.0 14:89.0 16:2.0 
-1.0 12:1031.0 14:83.0 
-0.7556866482881728 12:573.0 
-1.0 1:9.0 4:5.0 8:8.0 12:128.0 14:13.0 
-0.6588113619007688 8:25.0 12:137.0 
-1.0 3:120.0 12:868.0 14:62.0 
-1.0 8:36.0 12:2197.0 14:444.0 
-0.33152295882554134 8:3.0 12:106.0 14:9.0 
-0.5323041814220091 12:140.0 14:45.0 
-0.6428986396746196 12:148.0 
-1.0 5:44.0 8:309.0 12:204.0 14:30.0 
-1.0 12:23.0 14:394.0 
-1.0 5:265.0 12:395.0 
-1.0 8:21.0 12:44.0 14:2.0 
-0.8337362473365189 12:278.0 14:7.0 
-0.5381896428058974 12:162.0 14:1.0 
-0.24298045894952439 12:112.0 14:22.0 
-0.5041984544550051 12:243.0 
-1.0 3:354.0 12:509.0 14:1018.0 
-1.0 4:29.0 12:851.0 14:146.0 
-1.0 7:30.0 12:80.0 14:22.0 16:7.0 18:6.0 
-0.8882131561151647 12:118.0 14:8.0 
-1.0 5:20.0 12:105.0 14:8.0 
-1.0 8:131.0 12:137.0 14:79.0 
-1.0 3:5.0 4:14.0 5:14.0 12:424.0 13:618.0 14:97.0 18:10.0 
-0.20841067045338257 12:55.0 
-1.0 8:4.0 9:5.0 12:3075.0 14:82.0 
-1.0 8:10.0 12:24.0 14:186.0 
-1.0 1:75.0 9:5.0 12:412.0 14:100.0 
-1.0 12:2356.0 14:33.0 
-1.0 4:41.0 12:10.0 14:1.0 
-1.0 8:93.0 12:409.0 14:19.0 
-1.0 12:361.0 
-1.0 8:146.0 12:563.0 
-0.9840036759916801 12:24.0 14:45.0 
-1.0 4:4.0 5:8.0 9:1.0 12:354.0 18:32.0 
-0.98752053357656 12:140.0 
-1.0 3:1.0 4:2.0 12:969.0 14:40.0 
-1.0 12:86.0 14:42.0 
-1.0 4:1.0 12:857.0 14:55.0 
-1.0 5:46.0 8:2.0 12:428.0 
-1.0 12:69.0 14:56.0 
-1.0 3:317.0 12:315.0 
-1.0 9:13.0 12:174.0 14:23.0 
-1.0 5:81.0 9:4.0 12:485.0 14:40.0 
-0.9067193436058177 3:4.0 12:283.0 
-1.0 9:1.0 12:43.0 14:22.0 
-1.0 8:2.0 12:550.0 14:9.0 18:7.0 
-1.0 1:6.0 12:650.0 14:7.0 
-0.11302236925708074 12:88.0 14:1.0 
-1.0 12:1075.0 14:139.0 
-0.42734361087751127 12:51.0 14:17.0 
-0.48041718542802353 12:114.0 14:5.0 
-0.915171962710238 12:656.0 
-1.0 9:14.0 12:3330.0 14:144.0 
-1.0 4:37.0 12:42.0 
-1.0 12:514.0 14:11.0 16:19.0 
-1.0 1:1.0 3:523.0 9:2.0 12:427.0 14:69.0 
-1.0 5:96.0 12:2106.0 14:13.0 
-1.0 5:6.0 12:169.0 18:1.0 
-0.7909677777865275 12:345.0 
-1.0 3:24.0 12:688.0 16:2.0 
-0.034147070982539066 9:1.0 12:145.0 14:10.0 
-0.6930330972735234 12:55.0 14:14.0 
-1.0 12:252.0 14:10.0 16:6.0 18:9.0 
-1.0 5:4.0 12:607.0 13:50.0 14:22.0 
-1.0 3:70.0 5:9.0 7:51.0 12:253.0 14:18.0 
-1.0 1:1.0 5:8.0 12:251.0 14:22.0 
-1.0 12:20.0 14:34.0 
-1.0 5:27.0 12:346.0 14:40.0 
-1.0 8:108.0 12:24.0 14:8.0 
-1.0 8:128.0 12:637.0 14:6.0 
-1.0 3:20.0 8:16.0 12:27.0 
-1.0 5:67.0 12:91.0 14:10.0 
-1.0 3:56.0 4:1.0 7:138.0 12:482.0 14:54.0 
-1.0 1:2.0 12:124.0 13:2.0 14:17.0 
-1.0 8:157.0 12:1488.0 
-1.0 7:59.0 12:39.0 14:24.0 
-1.0 7:23.0 12:337.0 14:51.0 
-1.0 3:27.0 4:3.0 12:270.0 14:11.0 
-1.0 8:8.0 12:73.0 
-1.0 3:2.0 8:2.0 12:239.0 14:77.0 
-0.4699033537941758 12:571.0 14:2.0 
-1.0 4:1.0 5:673.0 8:353.0 9:8.0 12:3023.0 14:66.0 18:1.0 
-1.0 8:253.0 12:1162.0 14:35.0 
-1.0 1:13.0 3:4.0 4:1.0 12:71.0 
-0.9847022618823469 8:1.0 12:30.0 14:43.0 
-1.0 4:3.0 12:1372.0 
-0.6792250151285 8:2.0 12:115.0 14:48.0 
-1.0 1:97.0 5:10.0 7:37.0 12:801.0 14:237.0 18:8.0 20:265.0 
-1.0 8:4.0 12:146.0 14:18.0 
-1.0 12:668.0 
-1.0 8:63.0 12:1535.0 14:3.0 
-1.0 4:2.0 5:10.0 12:2665.0 14:25.0 
-1.0 12:232.0 14:65.0 
-1.0 8:39.0 9:4.0 12:200.0 14:6.0 
-1.0 12:51.0 14:11.0 18:8.0 
-1.0 3:2.0 5:35.0 12:2121.0 14:253.0 
-0.9022285758594928 12:134.0 14:33.0 
-1.0 5:6.0 8:2.0 12:634.0 14:57.0 
-0.7115404140303652 8:2.0 12:306.0 
-1.0 5:29.0 12:12287.0 18:9.0 
-1.0 3:21.0 4:47.0 5:51.0 9:4.0 12:5407.0 14:16.0 18:17.0 
-1.0 12:14.0 14:152.0 
-1.0 8:91.0 12:147.0 14:7.0 
-0.9821878165376342 4:1.0 9:3.0 12:141.0 14:10.0 
-1.0 1:1.0 9:26.0 12:271.0 14:79.0 
-1.0 4:21.0 8:57.0 12:660.0 14:28.0 18:14.0 
-1.0 1:6.0 3:130.0 5:19.0 8:5.0 12:1126.0 13:30.0 14:59.0 
-0.7224331174505261 8:4.0 12:56.0 14:7.0 
-1.0 5:510.0 12:1585.0 14:218.0 
-0.9307704981046206 8:56.0 12:5.0 14:1.0 
-1.0 4:10.0 12:377.0 14:84.0 
-1.0 5:23.0 9:3.0 12:125.0 14:20.0 
-0.8480664542087585 12:350.0 14:7.0 
-1.0 12:265.0 14:47.0 
-1.0 1:5.0 9:1.0 12:470.0 13:2.0 14:227.0 
-1.0 1:9.0 5:44.0 8:2.0 12:493.0 14:5.0 
-0.31041885326607366 4:2.0 12:69.0 14:3.0 
-1.0 3:54.0 5:28.0 8:26.0 9:2.0 12:1292.0 14:156.0 
-1.0 5:3.0 8:19.0 12:86.0 14:33.0 
-1.0 12:1542.0 14:15.0 
-1.0 1:6.0 9:3.0 12:454.0 14:328.0 
-1.0 8:59.0 12:267.0 14:69.0 
-1.0 3:99.0 12:695.0 14:218.0 18:7.0 
-1.0 3:3.0 8:58.0 12:19.0 
-1.0 3:62.0 4:2.0 9:62.0 12:1263.0 14:87.0 18:15.0 
-1.0 5:96.0 12:366.0 14:11.0 16:4.0 
-1.0 8:6.0 12:32.0 14:17.0 
-1.0 4:8.0 12:43.0 14:7.0 
-0.9546274577201851 3:1.0 4:1.0 8:18.0 12:158.0 14:6.0 
-1.0 3:55.0 12:1636.0 14:25.0 
-0.8291919098493554 1:1.0 9:1.0 12:106.0 14:11.0 
-1.0 1:10.0 3:2.0 4:2.0 7:115.0 12:623.0 
-1.0 1:41.0 12:1251.0 13:158.0 14:63.0 
-1.0 3:2.0 5:6.0 12:175.0 14:14.0 
-1.0 4:14.0 5:29.0 12:267.0 14:97.0 16:10.0 
-1.0 1:3.0 12:388.0 14:26.0 
-1.0 1:20.0 3:162.0 12:1950.0 14:79.0 
-1.0 12:149.0 14:37.0 
-0.411140137348209 12:57.0 
-1.0 8:199.0 12:143.0 14:23.0 
-0.07690219896293118 12:115.0 14:7.0 
-1.0 12:123.0 14:29.0 
-1.0 1:6.0 12:700.0 14:14.0 
-1.0 12:271.0 14:493.0 
-1.0 4:1.0 5:30272.0 9:5.0 12:1193.0 14:73.0 
-0.38920903160193737 12:50.0 14:1.0 16:2.0 
-1.0 5:3.0 12:734.0 14:34.0 
-1.0 5:10.0 12:380.0 14:20.0 
-1.0 3:97.0 12:292.0 
-1.0 2:8.0 3:2.0 4:11.0 12:2394.0 14:80.0 
-1.0 3:145.0 12:433.0 
-1.0 3:436.0 5:36.0 12:2067.0 14:122.0 
-1.0 4:66.0 5:27.0 8:4.0 12:1818.0 14:192.0 
-1.0 12:108.0 14:130.0 
-0.21447363292437913 12:244.0 
-1.0 12:486.0 
-1.0 8:357.0 12:102.0 14:7.0 
-1.0 8:26.0 12:96.0 
-1.0 4:1.0 5:477.0 9:7.0 12:1664.0 14:97.0 
-0.5731017434947959 12:869.0 
-1.0 4:5.0 5:12.0 12:308.0 
-1.0 1:2.0 12:273.0 14:274.0 
-0.5964895146204869 8:61.0 12:4.0 14:2.0 
-1.0 3:22.0 12:748.0 14:47.0 
-1.0 7:305.0 12:147.0 14:30.0 
-1.0 12:314.0 
-0.02477955684422589 12:101.0 
-1.0 5:40.0 8:117.0 12:819.0 14:16.0 
-0.7795969718974605 8:131.0 
-1.0 3:6842.0 4:9.0 5:14.0 8:22.0 12:432.0 14:28.0 17:4.0 
-1.0 5:50.0 12:186.0 14:16.0 
-1.0 12:1173.0 14:139.0 18:1.0 
-1.0 8:7.0 12:268.0 14:82.0 
-1.0 8:884.0 14:6.0 
-1.0 3:15.0 12:210.0 
-1.0 4:4.0 5:234.0 12:68.0 
-1.0 1:17.0 12:138.0 14:94.0 
-0.36631408486406636 12:81.0 
-1.0 8:154.0 12:31.0 
-0.409270147183049 12:131.0 
-0.5220040048769752 3:2.0 12:87.0 
-1.0 5:14.0 12:394.0 14:2.0 
-1.0 8:1.0 12:317.0 14:8.0 
-1.0 3:8.0 4:34.0 12:734.0 14:36.0 20:15.0 
-1.0 1:19.0 4:3.0 5:37.0 8:1.0 9:1.0 12:709.0 14:53.0 18:2.0 20:102.0 
-1.0 5:67.0 12:848.0 14:27.0 
-1.0 1:1.0 5:3.0 8:16.0 12:94.0 13:1.0 14:8.0 
-1.0 8:2.0 12:305.0 14:36.0 
-0.958874744879663 12:63.0 14:12.0 18:6.0 
-1.0 3:38.0 12:299.0 14:128.0 
-1.0 1:22.0 4:1.0 5:6.0 8:34.0 9:5.0 12:418.0 14:99.0 
-1.0 5:3.0 8:47.0 12:17799.0 
-0.8638589211399291 12:328.0 
-1.0 5:25.0 12:32.0 
-1.0 8:824.0 
-1.0 5:12.0 12:183.0 14:2.0 
-1.0 8:4.0 12:40.0 14:28.0 
-1.0 8:33.0 12:225.0 14:9.0 
-1.0 4:2.0 5:57.0 12:2802.0 14:2379.0 
-1.0 1:4.0 3:15.0 8:258.0 9:3.0 12:907.0 
-0.9539184132209717 8:39.0 12:20.0 13:3.0 14:4.0 
-1.0 1:19.0 12:203.0 14:12.0 
-1.0 1:6.0 12:181.0 14:5.0 
-0.5285668166245583 3:2.0 12:74.0 
-1.0 4:2.0 8:2.0 9:1.0 12:291.0 14:78.0 
-1.0 3:86.0 4:2.0 5:106.0 8:15.0 12:714.0 14:84.0 
-1.0 4:7.0 12:702.0 
-1.0 1:1.0 4:39.0 5:251.0 12:4792.0 14:82.0 18:2.0 
-1.0 1:3.0 8:4.0 12:174.0 14:30.0 
-1.0 8:52.0 12:30.0 
-1.0 1:8.0 9:5.0 12:205.0 14:40.0 
-1.0 1:1.0 3:40.0 12:359.0 14:53.0 18:8.0 
-1.0 1:31.0 3:2.0 4:10.0 8:4.0 12:100.0 14:6.0 
-1.0 3:40.0 5:18.0 8:6.0 12:619.0 14:112.0 
-1.0 8:95.0 12:849.0 14:6.0 18:2.0 
-1.0 4:1.0 12:1243.0 14:133.0 
-1.0 12:631.0 14:17.0 
-0.29156295497452667 12:78.0 
-1.0 7:12.0 12:69.0 14:8.0 
-1.0 3:8.0 8:127.0 12:24.0 14:18.0 
-1.0 8:179.0 14:5.0 
-1.0 3:38.0 4:1.0 5:1.0 8:44.0 12:390.0 
-1.0 1:198.0 3:1.0 4:26.0 5:91.0 8:14.0 12:1855.0 14:29.0 
-0.4651360773654761 12:248.0 
-1.0 5:40.0 8:31.0 12:867.0 14:7.0 
-0.5919898861481737 12:238.0 
-1.0 8:21.0 12:428.0 14:58.0 
-0.5899084124450854 12:139.0 14:45.0 
-0.6494414785623384 12:275.0 
-1.0 5:71.0 12:186.0 14:36.0 
-1.0 12:468.0 
-1.0 3:566.0 12:167.0 14:14.0 
-1.0 4:1.0 9:5.0 12:2118.0 
-1.0 12:1192.0 14:65.0 
-1.0 12:1857.0 
-1.0 4:23.0 12:96.0 14:6.0 
-1.0 4:22.0 5:142.0 8:17.0 12:595.0 14:30.0 16:3.0 18:8.0 
-0.5666152193533726 12:868.0 
-1.0 8:306.0 12:861.0 14:8.0 
-1.0 5:123.0 9:1.0 12:456.0 14:15.0 
-1.0 8:14.0 12:45.0 14:6.0 
-1.0 5:107.0 12:1167.0 14:29.0 
-1.0 8:19.0 12:3137.0 
-1.0 8:41.0 12:318.0 
-1.0 3:49.0 5:1302.0 8:418.0 12:5805.0 
-0.9672342256730923 12:831.0 14:13.0 
-1.0 5:104.0 12:32.0 
-1.0 3:10.0 8:11.0 12:564.0 
-0.6104770382106057 12:545.0 
-1.0 8:24.0 9:11.0 12:6704.0 14:120.0 16:2.0 
-1.0 12:565.0 
-1.0 4:14.0 5:49.0 8:13.0 12:1361.0 14:8.0 
-1.0 5:18.0 12:2478.0 14:12.0 
-0.2818638144046733 12:58.0 14:10.0 
-1.0 7:24.0 12:246.0 14:8.0 
-1.0 12:9855.0 14:11.0 18:6.0 
-1.0 1:8.0 7:290.0 8:140.0 12:2653.0 14:1037.0 
-1.0 8:100.0 12:297.0 14:353.0 
-1.0 12:471.0 14:69.0 
-1.0 4:19.0 5:32.0 12:155.0 
-0.9321627417382137 8:1.0 12:174.0 14:8.0 
-1.0 8:41.0 12:292.0 14:31.0 
-1.0 12:980.0 
-1.0 1:42.0 4:83.0 8:9.0 9:14.0 12:113.0 14:23.0 
-1.0 12:217.0 14:18.0 
-0.780018054812514 12:219.0 
-1.0 12:3484.0 14:513.0 
-1.0 3:4.0 5:41.0 8:59.0 12:81.0 
-1.0 8:161.0 12:5.0 
-1.0 3:6.0 5:60.0 12:92.0 14:3.0 
-1.0 8:40.0 12:266.0 14:1.0 
-1.0 3:18.0 12:1004.0 14:62.0 
-0.5501109988270098 8:3.0 12:98.0 
-1.0 1:2.0 3:2.0 4:85.0 5:553.0 8:26.0 12:7489.0 14:128.0 
-1.0 5:3.0 7:329.0 8:102.0 12:531.0 14:19.0 
-1.0 8:24.0 12:74.0 14:29.0 
-1.0 1:72.0 4:10.0 12:164.0 14:76.0 
-0.7763155385538258 8:21.0 12:31.0 14:5.0 
-1.0 5:68.0 8:2.0 12:282.0 14:16.0 
-1.0 5:10.0 8:3.0 12:256.0 14:26.0 
-1.0 3:4.0 12:306.0 14:48.0 
-0.06160648089149157 8:1.0 12:75.0 
-0.7053470419971625 8:26.0 12:134.0 
-1.0 3:3.0 5:21.0 8:4.0 9:1.0 12:613.0 14:19.0 
-0.8024233712100789 9:1.0 12:250.0 14:3.0 
-0.6701236327437697 1:1.0 3:4.0 12:81.0 14:6.0 
-0.7412257023054272 12:479.0 
-1.0 8:22.0 12:34.0 14:11.0 
-1.0 4:73.0 5:10.0 8:46.0 12:165.0 14:14.0 
-1.0 1:8.0 12:127.0 14:30.0 
-1.0 7:198.0 12:408.0 14:98.0 
-1.0 1:10.0 8:14.0 12:361.0 14:139.0 
-1.0 1:7.0 12:191.0 14:6.0 
-0.643975945133335 12:151.0 
-1.0 3:13.0 8:5.0 12:1079.0 
-0.30196063567675563 12:52.0 14:9.0 
-0.06406408855205152 12:67.0 14:11.0 
-1.0 1:2.0 3:8.0 12:214.0 14:18.0 
-1.0 12:202.0 14:49.0 
-0.2650839201280064 4:2.0 12:82.0 14:2.0 
-1.0 12:98.0 14:22.0 
-1.0 12:1070.0 14:75.0 
-0.7505126176320716 8:2.0 12:45.0 14:4.0 
-0.9542829263094591 12:695.0 14:17.0 
-1.0 5:80.0 8:46.0 9:2.0 12:136.0 14:11.0 
-1.0 4:4.0 5:11.0 8:40.0 12:1019.0 14:41.0 
-1.0 12:1421.0 
-1.0 5:47.0 12:167.0 14:17.0 
-1.0 4:1.0 8:8.0 9:1.0 12:103.0 14:23.0 
-1.0 4:10.0 5:188.0 12:5787.0 14:100.0 
-0.6226349840558177 4:3.0 12:46.0 14:12.0 
-1.0 4:3.0 12:3013.0 14:399.0 16:43.0 
-1.0 8:2.0 12:26.0 13:85.0 14:6.0 
-1.0 5:15.0 12:229.0 14:46.0 
-1.0 5:104.0 12:952.0 14:40.0 
-1.0 4:38.0 12:2559.0 14:100.0 
-1.0 8:223.0 12:10.0 14:4.0 
-0.38830721939104385 12:61.0 14:7.0 
-1.0 1:2.0 3:5.0 8:4.0 12:235.0 13:4.0 14:29.0 
-1.0 1:97.0 4:2.0 7:115.0 8:16.0 12:311.0 14:59.0 16:2.0 
-1.0 12:674.0 14:46.0 
-1.0 5:17.0 12:122.0 
-1.0 8:8.0 12:90.0 14:7.0 
-1.0 4:448.0 12:42.0 
-1.0 8:3.0 12:411.0 
-0.4662083860506646 1:2.0 12:95.0 14:4.0 
-0.8112511456878538 12:215.0 16:2.0 
-1.0 8:4.0 12:264.0 14:61.0 
-1.0 8:84.0 12:2.0 14:1.0 
-1.0 4:1.0 5:73.0 8:83.0 12:345.0 14:156.0 
-1.0 12:236.0 13:33.0 14:29.0 
-1.0 7:136.0 12:1920.0 14:3.0 
-1.0 3:7.0 4:116.0 5:559.0 7:1.0 12:3844.0 14:275.0 
-1.0 8:11.0 12:601.0 14:9.0 
-1.0 4:1.0 5:37.0 12:856.0 14:204.0 
-1.0 12:52.0 14:23.0 
-1.0 3:23.0 4:3.0 12:88.0 
-1.0 8:5.0 12:270.0 14:136.0 
-1.0 5:27.0 12:161.0 14:4.0 
-0.5832750323235371 5:3.0 12:70.0 14:4.0 
-1.0 1:76.0 4:6.0 5:59.0 8:4.0 9:2.0 12:633.0 14:18.0 
-0.509876737586629 5:3.0 12:106.0 14:5.0 
-1.0 3:20.0 5:55.0 12:37.0 14:41.0 
-1.0 5:94.0 12:149.0 14:9.0 
-1.0 12:1148.0 14:23.0 
-0.07880879463217531 8:1.0 12:84.0 
-1.0 4:1.0 8:8.0 12:84.0 13:34.0 
-1.0 12:532.0 14:79.0 
-1.0 8:37.0 14:108.0 
-0.7871746099394736 12:113.0 14:20.0 
-0.604217562020699 1:2.0 4:1.0 12:189.0 14:11.0 
-1.0 9:1.0 12:265.0 14:8.0 
-1.0 1:6.0 12:291.0 13:38.0 14:9.0 
-0.6137374133272602 12:108.0 13:3.0 14:5.0 
-0.3379237954328225 12:92.0 14:6.0 
-1.0 1:11.0 4:1.0 8:53.0 12:198.0 14:23.0 15:16.0 
-1.0 8:95.0 12:666.0 14:2.0 
-1.0 5:17.0 8:4.0 12:459.0 14:576.0 
-1.0 12:1756.0 14:176.0 
-1.0 4:5.0 5:23.0 8:176.0 12:2226.0 14:131.0 16:2.0 18:64.0 
-1.0 12:1289.0 14:2.0 
-1.0 12:133.0 14:17.0 16:2.0 
-1.0 12:590.0 14:47.0 
-1.0 5:14.0 8:213.0 9:5.0 12:453.0 14:55.0 
-1.0 9:4.0 12:271.0 14:64.0 
-0.7786061781163851 4:1.0 12:1248.0 
-1.0 1:26.0 5:22.0 12:108.0 13:8.0 14:12.0 
-1.0 12:518.0 14:39.0 
-1.0 3:11.0 8:70.0 12:107.0 14:6.0 15:67.0 
-0.0250592005239274 12:48.0 14:11.0 
-1.0 5:25.0 8:2.0 12:39.0 14:5.0 
-0.4182598012204792 8:2.0 12:176.0 14:3.0 
-1.0 8:68.0 12:25.0 14:59.0 18:4.0 
-1.0 5:174.0 12:1416.0 14:125.0 18:1.0 
-1.0 7:51.0 8:1.0 12:55.0 14:12.0 
-1.0 12:77.0 14:98.0 
-1.0 5:7.0 12:281.0 14:68.0 
-1.0 3:3.0 4:39.0 5:15.0 12:184.0 14:4.0 
-1.0 5:22.0 12:300.0 14:107.0 
-1.0 5:33.0 8:82.0 12:34.0 14:10.0 
-1.0 12:1812.0 14:15.0 
-0.33715874307344285 3:1.0 12:47.0 14:7.0 
-1.0 5:51.0 12:977.0 14:31.0 
-1.0 7:76.0 12:15.0 
-1.0 8:8.0 12:215.0 14:7.0 
-1.0 8:451.0 12:3.0 14:2.0 
-0.5618166373496184 8:128.0 12:1.0 14:1.0 
-0.7662143031376418 12:62.0 
-1.0 8:175.0 12:78.0 14:4.0 
-1.0 1:2.0 9:4.0 12:410.0 14:14.0 
-1.0 5:61.0 12:305.0 
-1.0 12:225.0 14:28.0 
-1.0 1:7.0 12:699.0 13:148.0 14:23.0 
-1.0 12:205.0 
-1.0 8:116.0 14:13.0 
-1.0 12:638.0 14:7.0 
-1.0 12:1024.0 14:60.0 
-1.0 8:157.0 12:630.0 14:132.0 
-1.0 1:22.0 3:2.0 8:4.0 12:344.0 
-1.0 5:103.0 8:2.0 12:280.0 14:7.0 
-1.0 3:7.0 12:59.0 
-1.0 9:6.0 12:1112.0 14:41.0 
-0.015164504255773682 12:56.0 14:6.0 
-1.0 1:60.0 12:272.0 14:103.0 16:2.0 
-1.0 3:47.0 12:246.0 
-1.0 1:20.0 3:4.0 9:11.0 12:119.0 14:18.0 
-1.0 8:149.0 12:225.0 14:479.0 
-1.0 5:784.0 12:266.0 14:11.0 
-1.0 9:19.0 12:2985.0 
-1.0 12:506.0 14:10.0 
-1.0 4:2.0 8:108.0 12:147.0 14:4.0 
-1.0 3:3.0 8:6.0 12:195.0 
-1.0 3:44.0 4:1.0 12:126.0 
-1.0 1:14.0 3:25.0 5:40.0 8:6.0 12:1413.0 14:142.0 
-1.0 3:599.0 4:19.0 8:19.0 12:1177.0 14:161.0 
-1.0 1:2.0 12:298.0 14:52.0 
-1.0 3:41.0 8:25.0 12:438.0 14:69.0 
-1.0 4:11.0 8:126.0 12:1148.0 14:84.0 
-0.19570208182291818 4:2.0 12:99.0 14:4.0 
-1.0 1:3.0 3:3.0 4:522.0 5:1549.0 12:4300.0 14:334.0 18:21.0 
-1.0 8:447.0 12:51.0 14:17.0 
-1.0 3:7.0 4:5.0 12:138.0 
-1.0 12:1043.0 14:7.0 
-1.0 4:4.0 12:281.0 13:74.0 14:32.0 
-1.0 8:129.0 12:76.0 13:147.0 14:7.0 
-0.9323404223861222 12:344.0 14:8.0 
-1.0 4:16.0 8:171.0 12:255.0 14:79.0 18:42.0 
-1.0 5:87.0 12:686.0 14:8.0 
-1.0 12:43.0 14:42.0 
-1.0 1:28.0 4:4.0 7:1140.0 9:2.0 12:2941.0 13:8.0 14:95.0 16:2.0 18:15.0 
-1.0 1:2.0 3:140.0 12:3411.0 13:1.0 14:41.0 
-1.0 12:293.0 14:526.0 
