svm_type c_svc
kernel_type rbf
gamma 0.05
nr_class 2
total_sv 1381
rho -0.10550265299621664
label 1 -1
nr_sv 700 681
SV
0.8941452548936133 12:120239.0 
0.8941452548936133 4:5.0 5:154.0 12:9379.0 14:190.0 18:5.0 
0.8941554118470854 3:915.0 5:27.0 9:15.0 12:29177.0 14:251.0 
0.8941616874816483 3:48.0 12:19715.0 
0.8941537361678462 1:1.0 4:1.0 7:7653.0 12:1443.0 14:132.0 16:40.0 
0.8941401924516758 4:1.0 5:27.0 12:9695.0 14:13.0 
0.8941401364986525 1:318.0 4:20.0 5:15.0 12:13212.0 14:46.0 18:2.0 
0.8941494161449984 4:17.0 8:10.0 12:10796.0 13:3646.0 14:509.0 18:24.0 
0.8941494161449984 3:57.0 5:70.0 12:8896.0 14:349.0 16:35.0 18:46.0 
0.8941249794868797 3:317.0 5:5.0 12:39147.0 14:2816.0 
0.8941220925937796 1:132.0 4:11.0 5:25.0 8:12.0 12:5816.0 14:4175.0 
0.8946001145464132 5:10.0 12:15716.0 
0.8945983971673594 3:815.0 12:1989.0 14:7076.0 
0.8941264286301934 4:1.0 7:6262.0 12:6101.0 14:2170.0 20:32.0 
0.8941951531806287 1:12.0 3:4.0 7:7319.0 12:2240.0 14:389.0 
0.8941636766882534 8:8.0 12:44781.0 14:271.0 18:48.0 
0.8941555818291481 8:2.0 12:3367.0 14:6474.0 
0.8941769777284911 12:3825.0 14:7578.0 
0.8942594172990085 5:314.0 12:11316.0 14:70.0 18:47.0 
0.8943025282765791 3:5.0 4:4.0 5:409.0 12:17973.0 14:259.0 
0.8949228625525145 3:1.0 4:18.0 5:1.0 12:9625.0 14:21.0 
0.8950599206371654 3:10.0 5:1.0 7:1547.0 8:41.0 9:11.0 12:14522.0 14:12.0 
0.8942324576080087 4:465.0 12:6116.0 13:91208.0 14:83.0 20:1.0 
0.8943431595665087 3:2.0 5:48.0 12:16051.0 14:317.0 16:8.0 18:1.0 
0.8854496774746775 12:9318.0 14:160.0 
0.8943499322027069 5:23.0 8:13.0 12:11849.0 14:92.0 
0.8948330361456639 8:432.0 12:13418.0 
0.8942941347086047 12:26734.0 14:69.0 
0.8944274834443693 4:254.0 5:187.0 8:11.0 12:9141.0 14:381.0 
0.8945673787773601 4:6.0 12:29323.0 18:6.0 
0.8941887468858221 3:2920.0 4:53.0 12:6333.0 14:129.0 
0.8943289329593421 4:2.0 8:4.0 12:9032.0 14:65.0 
0.8944956294157488 5:140.0 12:10586.0 14:138.0 16:4.0 
0.8947322541867389 12:13240.0 14:134.0 
0.894600264214477 4:11.0 12:9385.0 14:31.0 
0.894608707445324 8:2.0 12:13637.0 14:90.0 16:39.0 
0.8943656590672144 4:451.0 8:42.0 9:19.0 12:18922.0 14:14.0 
0.894395815387521 4:8.0 12:31065.0 14:54.0 
0.8944928963184033 5:1.0 12:11947.0 14:1041.0 
0.8941850662588494 4:91.0 12:108716.0 14:339.0 
0.8941401364986525 8:18.0 12:16458.0 14:54.0 
0.894144489892038 12:12031.0 14:68.0 16:34.0 
0.8942243977654036 12:8578.0 14:2085.0 
0.8946902250574145 5:3.0 12:9311.0 14:161.0 16:10.0 18:74.0 
0.8945592210872702 12:11932.0 14:44.0 
0.894144489892038 3:138.0 12:11841.0 14:13.0 16:10.0 
0.8947449616016545 5:215.0 12:36795.0 14:84.0 
0.8947266806071807 8:66.0 12:17399.0 14:4.0 
0.8948325995502764 8:3130.0 12:1465.0 14:7962.0 
0.8948895720221302 8:1709.0 12:7884.0 14:3.0 
0.8941755376143182 3:644.0 12:18438.0 14:3.0 
0.8943923451304882 5:115.0 8:59.0 12:15592.0 14:306.0 
0.894387963797044 12:11913.0 
0.894560444188822 12:15824.0 
0.8944764348849124 12:9309.0 
0.8942955027877697 4:1.0 5:465.0 12:8277.0 14:327.0 
0.8945785696954179 4:3.0 5:750.0 12:14560.0 14:192.0 
0.8943860312708539 12:9744.0 14:130.0 
0.8944709316988286 12:9365.0 14:163.0 
0.8942060176734018 12:31145.0 
0.8948819289501082 1:169.0 2:6.0 3:1.0 4:28.0 7:9.0 8:62.0 12:10132.0 13:614.0 14:270.0 
0.8949251391113322 1:1.0 3:39828.0 12:1995.0 14:1918.0 
0.8791400172795453 3:2.0 4:3.0 12:9915.0 14:8.0 
0.8941870675793825 3:1.0 4:865.0 5:452.0 12:21002.0 13:250.0 14:94.0 16:8.0 18:9.0 
0.8948267855539287 5:5.0 12:6645.0 14:17907.0 
0.8945979339816799 1:1.0 7:1360.0 12:13414.0 14:166.0 
0.8943923451304882 3:238.0 4:27.0 5:1964.0 8:100.0 12:15140.0 14:512.0 18:32.0 
0.8945924624222179 12:36176.0 14:31.0 
0.89481171691117 3:3.0 5:95.0 12:17258.0 13:628.0 14:91.0 
0.895022482834271 12:6107.0 14:8972.0 16:2.0 18:22.0 
0.8944402300629051 3:197.0 5:903.0 7:72.0 8:4.0 9:13.0 12:12916.0 14:139.0 
0.894179358519746 3:5.0 4:5.0 12:12436.0 14:138.0 18:25.0 
0.89483303614567 12:9349.0 14:52.0 
0.8942252987919034 12:22508.0 14:169.0 16:35.0 
0.8941402028940549 9:16.0 12:15152.0 14:333.0 
0.894504667590889 1:136.0 8:7.0 12:13390.0 14:2109.0 
0.8949247441961858 8:280.0 12:22348.0 14:2.0 
0.8944695921871995 8:48.0 12:13271.0 14:53.0 
0.8941532242942746 12:13081.0 14:8.0 
0.8949372296564375 1:7.0 3:339.0 5:232.0 12:2461.0 13:76080.0 14:1185.0 16:22.0 18:6.0 
0.894394077821167 3:21.0 12:9955.0 14:6.0 16:13.0 
0.8944278857021417 2:3.0 8:2.0 12:10024.0 14:1.0 16:26.0 
0.8949038520165558 1:1.0 3:198.0 5:6.0 8:12.0 12:18105.0 14:141.0 
0.8944662416373251 12:42040.0 
0.8950224293779152 12:11783.0 18:11.0 
0.8945927393278951 5:29.0 12:9478.0 14:28.0 
0.89415540834844 1:97.0 4:138.0 8:4.0 9:21.0 12:6183.0 13:20989.0 14:2256.0 16:46.0 
0.8947251745663545 5:213.0 12:16854.0 14:186.0 
0.8941783111561181 12:17726.0 14:14.0 
0.8943837446163033 12:11591.0 14:22.0 
0.8946083909225468 8:10.0 12:13756.0 14:156.0 
0.8943932492151656 3:13459.0 
0.8943860312708539 12:15662.0 
0.8949522816268645 3:28.0 12:5436.0 14:4025.0 
0.868069743192884 3:5.0 12:11344.0 
0.8950068029036795 8:1686.0 12:8072.0 14:1279.0 
0.8950142249200745 7:182.0 12:22729.0 14:245.0 
0.8944967346237188 4:16.0 5:168.0 12:12321.0 14:282.0 
0.8941402028940549 1:125.0 5:55.0 8:2.0 12:21878.0 14:189.0 18:795.0 
0.8945927393278951 5:56.0 12:103364.0 13:1.0 14:212.0 
0.8942509514038446 12:10238.0 14:18.0 
0.8942943162087644 1:144.0 12:24805.0 
0.8942809243124552 3:1.0 4:25.0 5:76.0 12:15161.0 13:1.0 14:269.0 16:18.0 
0.8943222646841215 3:98.0 5:21.0 8:42.0 12:31243.0 14:519.0 18:36.0 
0.8943923451304882 12:9889.0 14:170.0 
0.8944785035797688 12:9017.0 14:2.0 
0.8944405386046587 12:9831.0 
0.894508765176292 4:79.0 5:57.0 9:7.0 12:22251.0 14:375.0 
0.8944950707819945 12:11211.0 
0.8944764348849124 4:3.0 7:6861.0 8:2.0 12:2173.0 13:1298.0 14:140.0 
0.8948330361456639 4:102.0 7:668.0 8:2.0 12:21458.0 13:108.0 14:117.0 
0.8949279339586527 1:3.0 3:799.0 4:2.0 7:2.0 12:9416.0 14:331.0 18:10.0 
0.8951095010179229 12:12480.0 14:3.0 
0.8945929346313486 12:21894.0 16:8.0 
0.8944153542747958 1:10.0 3:26.0 5:99.0 8:9.0 12:9135.0 14:276.0 
0.8942304643738666 1:4.0 3:29.0 4:12.0 5:173.0 9:5.0 12:14017.0 14:655.0 16:1.0 
0.894697891151431 1:64.0 3:59.0 4:1.0 7:7394.0 9:25.0 12:1581.0 14:110.0 
0.8944549085960686 3:2.0 5:2399.0 12:10146.0 13:4.0 14:572.0 18:109.0 
0.8945437711814485 1:28.0 7:3378.0 9:22.0 12:5203.0 13:1682.0 14:168.0 
0.8945604442222133 4:10.0 12:9463.0 14:51.0 
0.894602960651116 4:2.0 12:21340.0 14:51.0 
0.8943837446165608 1:4.0 4:12.0 5:300.0 7:2234.0 9:9.0 12:14711.0 14:2.0 
0.8942809243124552 1:10.0 4:1.0 8:57.0 12:8375.0 14:635.0 
0.8945592210872696 12:9733.0 
0.8942933341704012 5:3.0 12:7713.0 14:2201.0 
0.894158675749448 5:358.0 12:10589.0 14:348.0 
0.8944402300629051 5:507.0 12:42075.0 14:2.0 
0.894149040135258 1:60.0 12:14085.0 14:420.0 
0.8944405386046584 12:11829.0 
0.8941402028940549 1:1.0 3:1562.0 4:5.0 12:9041.0 14:92.0 
0.8924553394982054 12:13130.0 
0.8948819289501082 12:34108.0 16:28.0 
0.894628318157126 12:13784.0 14:217.0 
0.8945604442222133 12:30177.0 
0.8948006529193826 8:3056.0 12:6977.0 
0.8942176960119482 12:9230.0 14:118.0 
0.894179358519746 12:747.0 13:12707.0 14:178.0 16:30.0 18:19.0 
0.8942940125431899 3:1305.0 4:56.0 5:211.0 12:10349.0 14:158.0 
0.8942941347089381 8:17048.0 12:39.0 
0.894154735173394 3:9.0 12:20966.0 
0.8945029883030402 3:47.0 9:59.0 12:10283.0 14:225.0 
0.8942944603116066 12:11447.0 14:19.0 
0.8942056191306331 12:10146.0 14:66.0 
0.8944156413580472 1:23.0 4:2.0 5:566.0 12:11102.0 14:212.0 16:37.0 
0.8941486032185242 12:117662.0 
0.8945207684612025 12:21811.0 
0.8951094806085274 12:21353.0 14:283.0 
0.8950837681915693 4:101.0 12:452697.0 14:498.0 
0.8950603569064136 8:9611.0 14:20.0 
0.895022482834271 8:2.0 12:9291.0 14:101.0 18:6.0 
0.8949324062883691 12:19117.0 
0.894808380554203 4:50.0 5:11.0 8:21.0 12:24857.0 13:4220.0 14:323.0 18:105.0 
0.8948119694065658 12:66258.0 
0.8948317694713758 4:1.0 8:2.0 12:16141.0 14:2229.0 
0.8948331207987759 5:50.0 12:22034.0 14:358.0 18:4.0 
0.8948156106809482 12:29840.0 14:5.0 16:2.0 
0.8947266806071807 4:1.0 12:12687.0 14:98.0 
0.8947414727065564 1:938.0 4:92.0 8:22.0 9:9.0 12:10276.0 
0.8947322541867389 12:53901.0 
0.8945639045689379 4:107.0 5:281.0 12:9220.0 14:154.0 
0.8945703909426446 5:23.0 12:68050.0 14:11830.0 
0.8945458788484014 3:15514.0 4:5.0 12:595.0 
0.8944695921871995 4:1.0 12:11619.0 14:60.0 
0.8944755596742575 7:297.0 8:2.0 12:20175.0 18:4.0 
0.8944713346080979 4:5.0 12:26059.0 
0.8943682398925303 3:1028.0 12:8379.0 
0.8942057410285156 1:204.0 4:150.0 8:19.0 9:23.0 12:20106.0 14:198.0 
0.8941667797843349 12:14500.0 14:1614.0 
0.8941317878464959 5:33.0 12:10841.0 13:167.0 14:286.0 16:4.0 
0.8941220925937796 3:73.0 12:14992.0 14:148.0 
0.8941537361678462 12:3962.0 14:9523.0 
0.8941401364986525 3:181.0 12:23878.0 
0.894144489892038 4:1044.0 5:12.0 9:3.0 12:10072.0 14:36.0 16:4.0 
0.8941719924819359 3:18.0 7:163.0 12:31804.0 14:130.0 16:20.0 
0.8941407496928708 1:2.0 8:1.0 9:8.0 12:27133.0 14:51.0 
0.8944483387522995 1:32.0 8:46.0 12:17656.0 14:306.0 
0.8940810098861602 8:13.0 12:9319.0 14:42.0 
0.8945592210870359 5:1816.0 12:23679.0 14:6.0 
0.8942056026324465 12:14832.0 
0.8941769777284911 12:19809.0 
0.8946902250574145 1:18.0 7:216.0 12:10559.0 14:7774.0 18:62.0 
0.894654661601141 5:48.0 12:9565.0 14:793.0 
0.8942672351771775 1:45.0 4:2.0 12:45221.0 14:34.0 
0.8942243977653878 8:185.0 12:9487.0 14:3.0 
0.894157709512549 1:134.0 4:138.0 5:70.0 12:8896.0 14:213.0 
0.8945972991143265 12:12431.0 
0.8945592210872702 4:1.0 12:119066.0 14:31.0 
0.894461728336277 1:176.0 4:3.0 9:25.0 12:9798.0 14:2224.0 
0.8944150981142849 4:4.0 5:18.0 12:16311.0 14:33.0 
0.8943499322027069 3:7.0 5:37.0 12:13781.0 14:167.0 
0.8942324576080087 4:3.0 5:61.0 8:664.0 12:27508.0 
0.8942056191306331 4:2.0 12:18674.0 14:227.0 
0.8942056059867749 12:15184.0 14:4.0 
0.894154735173394 1:408.0 4:4.0 12:6407.0 14:2637.0 
0.8941486032185242 12:13511.0 
0.8941407496928708 3:2.0 4:74.0 5:110.0 8:1.0 9:19.0 12:34928.0 13:4.0 14:314.0 16:6.0 18:10.0 20:47.0 
0.894144489892038 5:192.0 9:10.0 12:9077.0 14:335.0 
0.894151020618057 1:5.0 3:17.0 4:6.0 12:6459.0 14:4096.0 
0.8941537361678462 12:34789.0 14:163.0 
0.8941220925937796 3:8.0 12:10626.0 13:1.0 14:353.0 
0.89427757738343 3:3.0 4:508.0 5:438.0 12:8250.0 14:348.0 
0.8943236317041845 5:127.0 12:23547.0 14:2344.0 
0.8941887468858221 3:107.0 5:26.0 12:12625.0 14:2213.0 
0.8941996106151786 5:1774.0 12:14716.0 14:36.0 
0.8943923451304882 8:3.0 12:17426.0 14:14.0 
0.8945082844461225 3:1.0 4:25.0 5:36.0 12:14950.0 14:227.0 16:26.0 
0.8945309902155606 1:64.0 4:6065.0 9:18.0 12:2922.0 14:78.0 16:10.0 
0.8944801737743396 5:401.0 7:2458.0 8:22.0 12:6099.0 14:99.0 
0.8944539217930035 5:4018.0 9:20.0 12:11110.0 18:77.0 
0.8944709316988286 7:9072.0 9:24.0 12:862.0 14:256.0 
0.8944713346080979 5:8433.0 9:1.0 12:2344.0 14:25.0 
0.8945570970025098 4:48.0 8:4.0 12:12499.0 14:63.0 
0.8947266806071807 4:3.0 5:131.0 8:89.0 12:17748.0 14:261.0 
0.8946837120282833 1:25.0 4:6.0 12:10212.0 14:29.0 20:1.0 
0.8945929346313486 3:133.0 9:24.0 12:10018.0 14:153.0 16:17.0 
0.8944386141933113 5:1.0 8:1.0 12:14003.0 14:34.0 
0.8950837400101372 12:13232.0 14:35.0 
0.8941799219476736 5:5.0 9:13.0 12:7543.0 14:3091.0 
0.8945983971673594 1:1307.0 5:1381.0 8:13.0 12:5411.0 14:1110.0 
0.894995988924086 1:2.0 3:159.0 4:9.0 5:193.0 7:46.0 12:16124.0 14:98.0 
0.8948006529193826 3:1.0 4:9927.0 5:415.0 8:8.0 9:13.0 12:1051.0 14:21.0 
0.8948090160790714 12:30199.0 14:211.0 
0.8948392186944304 3:1.0 4:1.0 5:9.0 12:8679.0 14:350.0 16:1.0 18:14.0 
0.8950603569064136 8:17281.0 14:3.0 
0.8942940125431899 12:11071.0 
0.8943837446163033 3:66.0 4:1.0 5:321.0 12:15765.0 14:377.0 
0.8942070529575392 4:4.0 5:52.0 12:12436.0 14:330.0 
0.8941783111561181 3:157.0 12:9028.0 
0.8945165375359823 1:3.0 3:155.0 5:32.0 7:5183.0 12:4685.0 14:154.0 16:20.0 
0.894728614275556 5:19200.0 12:2575.0 14:74.0 
0.8950953238962986 5:830.0 12:9408.0 14:112.0 
0.8948134295584416 8:1144.0 12:10371.0 
0.8948330361456639 12:10874.0 14:29.0 
0.8948119694065658 9:19.0 12:45106.0 14:242.0 
0.894808380554203 5:751.0 8:178.0 12:15627.0 18:87.0 
0.8945496214177024 2:9.0 5:1522.0 8:633.0 9:9.0 12:6935.0 14:227.0 18:7.0 
0.8944657114658634 4:3848.0 12:6908.0 14:1.0 
0.8943296668738663 1:1.0 5:17.0 12:36256.0 14:53.0 
0.8941317878464959 12:29547.0 
0.8949570927242811 3:579.0 5:496.0 12:8312.0 14:521.0 
0.8946008611881169 1:4.0 2:10.0 3:228.0 4:362.0 5:39.0 6:2663.0 7:5316.0 8:1131.0 9:1383.0 12:991.0 13:237.0 15:272.0 18:631.0 
0.8945972991134783 12:9497.0 14:1.0 
0.8946083909225468 5:15.0 7:1206.0 12:16457.0 14:309.0 
0.895098551662356 5:1.0 12:11357.0 14:7570.0 16:6.0 
0.8946837120282833 4:11827.0 9:5.0 12:110.0 14:40.0 
0.8943289329593421 1:33.0 4:1.0 7:48.0 9:2.0 12:13775.0 14:54.0 20:6.0 
0.8943285666249172 4:92.0 5:137.0 12:26075.0 13:52.0 14:79.0 
0.8941887468858221 5:374.0 12:13166.0 14:353.0 16:14.0 
0.8941887446572512 12:20082.0 14:23.0 
0.8945057570649708 3:51.0 4:1.0 12:17856.0 16:27.0 
0.8797580380989295 12:9917.0 
0.8941470632742672 12:13085.0 14:23.0 16:5.0 
0.6231381675035473 12:11374.0 14:2.0 
0.8945828813457656 12:10468.0 13:1.0 14:617.0 
0.8945415812603164 12:9611.0 
0.8945415813598607 5:225.0 8:2.0 12:8927.0 14:472.0 
0.8941849406181738 3:112.0 4:3.0 12:15740.0 
0.8941350361436909 4:9.0 12:22681.0 
0.8945652246214479 12:18288.0 14:5.0 
0.894465490256781 4:4.0 7:966.0 12:11623.0 14:626.0 
0.8944476933608121 1:3.0 3:94.0 12:11365.0 14:22.0 
0.894448338649595 5:123.0 12:9588.0 14:498.0 
0.8944483387522995 4:4.0 5:100.0 12:8932.0 14:94.0 
0.8942582102397912 3:2.0 12:48527.0 
0.8941870675793825 12:104726.0 
0.8941536570669766 3:6.0 4:6.0 5:17.0 12:26825.0 
0.6647839544946317 12:11378.0 
0.8945927393278951 3:21.0 12:21282.0 14:304.0 
0.8941667797843349 3:119.0 4:4.0 7:6326.0 8:24.0 12:4019.0 
0.8949324062883691 12:13383.0 16:16.0 
0.894452792964044 3:58.0 4:6.0 5:126.0 9:1.0 12:8732.0 14:375.0 18:7.0 
0.8945428464977377 12:7750.0 14:1549.0 
0.8945622651244121 1:192.0 4:3.0 12:36099.0 14:605.0 
0.8950200533655606 3:1.0 4:1.0 5:843.0 12:9617.0 14:227.0 
0.8948895720221302 12:14532.0 14:201.0 
0.8948819289501082 4:4.0 7:365.0 12:8208.0 14:632.0 
0.894683745326883 3:7.0 5:381.0 8:12.0 12:27929.0 14:208.0 
0.894628318157126 5:14.0 12:15370.0 14:19.0 
0.8945526398141057 8:568.0 12:102768.0 14:3.0 
0.8945520362988311 1:2.0 3:21.0 4:43.0 8:357.0 12:12287.0 
0.8944948078558795 3:31.0 4:2.0 5:55.0 9:3.0 12:19088.0 14:30.0 
0.8944274834443693 12:9009.0 14:235.0 16:4.0 
0.8944284352926708 3:242.0 4:123.0 5:91.0 8:2.0 12:10324.0 14:40.0 18:4.0 
0.8946083909225468 3:48.0 5:33.0 9:4.0 12:13623.0 14:93.0 16:4.0 
0.8943282185495234 8:4.0 12:9839.0 14:218.0 
0.8942940125431899 8:4.0 12:23608.0 
0.8942944602440879 7:2.0 12:45165.0 14:63.0 
0.894158675749448 7:2122.0 8:8.0 12:184.0 13:11464.0 14:21.0 
0.8938080066897236 8:7.0 12:9311.0 14:35.0 
0.8944950707819945 5:7.0 12:21044.0 14:8.0 
0.8945639045689379 12:13197.0 
0.894808380554203 1:9.0 8:3.0 9:2.0 12:12185.0 14:172.0 
0.8945092332245625 3:33.0 4:87.0 5:500.0 7:11652.0 8:2.0 9:3.0 12:5207.0 14:179.0 16:8.0 
0.8948134295584416 4:38.0 12:6274.0 14:7755.0 
0.8947322541867389 1:543.0 4:35.0 5:11.0 12:38609.0 13:202.0 14:105.0 16:14.0 
0.8941819535097858 5:269.0 12:1917.0 14:7042.0 
0.8944968378394936 3:54.0 4:3.0 5:112.0 12:9191.0 14:35.0 
0.8942056060058099 5:224.0 8:4.0 12:8909.0 14:240.0 
0.8942057171956983 5:4.0 12:11523.0 14:134.0 
0.8943837446163033 1:15.0 5:537.0 12:10004.0 14:76.0 16:29.0 18:6.0 
0.8942944603116066 4:1.0 9:3.0 12:15528.0 14:60.0 
0.8951095010179229 4:146.0 7:108.0 12:12874.0 14:365.0 16:9.0 17:1.0 
0.8942324980166363 4:31.0 12:19837.0 14:203.0 
0.8683806061331698 12:11341.0 14:6.0 
0.8948536144516418 4:4.0 12:11479.0 14:1272.0 
0.8948324852694123 3:29.0 12:9194.0 14:264.0 
0.8948146773662686 3:4.0 5:147.0 7:1103.0 12:10452.0 14:5.0 
0.8950837681915693 3:7.0 4:103.0 5:28.0 7:265.0 8:128.0 9:15.0 11:20.0 12:13371.0 13:42.0 14:44.0 
0.8943002995781162 7:361.0 12:18336.0 14:131.0 
0.8944278857021417 12:10368.0 14:84.0 16:23.0 
0.8946007070631136 3:14.0 5:2359.0 12:14127.0 14:113.0 
0.895027975584639 8:16922.0 12:15.0 14:5.0 
0.8945924624222179 5:336.0 7:394.0 12:12258.0 14:107.0 
0.8949912283418284 3:56.0 5:1615.0 9:1.0 12:7646.0 14:256.0 
0.8944274834443693 8:29.0 12:19016.0 
0.8942618223577646 3:76.0 5:71.0 12:18141.0 14:620.0 
0.894414053003745 9:2.0 12:9356.0 14:123.0 
0.8948306447736448 1:40.0 4:6.0 5:1.0 12:9019.0 14:81.0 
0.8948317694713758 8:2.0 12:32132.0 
0.8285443421127497 4:1.0 12:11359.0 
0.8946837120282833 1:117.0 4:43.0 5:41.0 12:13689.0 13:3256.0 14:11.0 
0.8947364558751922 4:18.0 12:20820.0 14:11.0 
0.8946370403747204 4:21.0 7:3435.0 11:2.0 12:5644.0 14:103.0 16:6.0 20:2.0 
0.8945703909426446 12:21056.0 14:37.0 
0.8946082570251843 1:19079.0 4:3793.0 9:2.0 12:329.0 14:14.0 16:6.0 
0.8943323078308838 12:13664.0 14:189.0 
0.89437153032738 5:15.0 9:25.0 12:13153.0 14:214.0 
0.8944713346080979 1:18.0 8:6.0 12:17941.0 14:27.0 
0.8944755596742575 4:71.0 7:8.0 12:7561.0 14:5844.0 20:29.0 
0.8947251745663545 3:24.0 12:10304.0 14:75.0 
0.8945377055986066 12:13111.0 14:75.0 
0.894508765176292 4:71.0 5:15.0 8:8.0 12:10214.0 13:403.0 14:13.0 16:9.0 
0.8944695921871995 1:167.0 3:1.0 4:48.0 5:439.0 9:91.0 12:10107.0 14:240.0 
0.8943923451304882 8:18037.0 12:281.0 
0.8943682398911683 8:57.0 12:37852.0 14:47.0 18:57.0 
0.8942178968179645 3:27.0 5:3.0 12:23575.0 
0.8941887468858221 2:3.0 4:2.0 5:339.0 8:2.0 12:10691.0 14:91.0 
0.8943289329593421 3:47.0 5:173.0 12:12810.0 14:214.0 
0.8049115198225252 12:11366.0 
0.8941772476998463 12:14889.0 14:3017.0 
0.89454284649163 8:3.0 12:11366.0 14:23.0 
0.894602960651116 12:58808.0 
0.8941406583722211 12:28452.0 16:22.0 
0.8941220925937796 5:383.0 7:1063.0 12:9233.0 14:162.0 
0.8941401364986525 4:34.0 12:544.0 13:9832.0 14:66.0 18:4.0 20:23.0 
0.8941554118470854 1:212.0 4:27.0 7:3902.0 12:8068.0 14:209.0 
0.8941616874816483 3:18.0 4:22.0 12:105247.0 
0.8941406583722211 2:3.0 4:6.0 12:5940.0 13:4330.0 14:259.0 16:7.0 18:4.0 
0.894154735173394 4:197.0 12:30795.0 14:3.0 
0.8946902250573858 12:11144.0 14:6.0 
0.8949279339586527 4:1.0 12:15799.0 14:3884.0 
0.8941783111561181 12:6803.0 14:8976.0 
0.8941820526177989 12:15390.0 14:56.0 
0.8942304643738666 1:4.0 6:35.0 12:56391.0 14:70.0 
0.8942324576080087 3:127.0 5:29.0 12:31443.0 14:21.0 
0.8942324980166363 12:24101.0 18:1.0 
0.8942857323716824 5:195.0 12:16956.0 14:16.0 
0.8943837446163033 3:4.0 12:17151.0 14:39.0 
0.8945436020549336 3:46.0 4:7.0 5:2952.0 12:19420.0 14:266.0 18:6.0 
0.8944153542747958 1:1.0 4:48.0 5:2366.0 12:9520.0 14:335.0 18:8.0 
0.894461728336277 3:12.0 12:9259.0 
0.8945592210872702 12:22118.0 
0.8945592210870359 5:334.0 8:7.0 12:8047.0 13:1137.0 14:233.0 18:30.0 
0.8946083909225468 12:18675.0 
0.6948695358408187 12:9527.0 
0.894157709512549 3:14.0 5:63.0 7:1299.0 8:16.0 12:10476.0 13:190.0 14:26.0 
0.894157709512549 3:36.0 5:128.0 12:8878.0 14:144.0 
0.8944775176549289 12:10726.0 
0.8942509514038446 4:32.0 5:108.0 8:12.0 9:80.0 12:14140.0 14:226.0 
0.8943860312708539 12:29027.0 
0.8943932492151656 1:1.0 9:2.0 12:17674.0 
0.8943932492151656 1:173.0 4:262.0 7:11848.0 11:1.0 12:3322.0 13:933.0 14:601.0 
0.8945671909018756 1:7.0 4:866.0 12:16223.0 14:10944.0 
0.8946902250574145 1:66.0 4:4.0 5:1325.0 9:5.0 12:9831.0 14:310.0 18:12.0 
0.8947189652997707 7:6.0 12:17207.0 14:177.0 
0.8948647065463067 12:5701.0 14:7569.0 
0.8949522816268645 3:36.0 12:15441.0 
0.8950142249200745 4:325.0 8:24.0 12:61451.0 14:10.0 
0.8945995111133829 3:22.0 4:6.0 5:98.0 12:12658.0 14:78.0 
0.8944764348849124 4:8.0 5:89.0 12:11066.0 13:2613.0 14:525.0 16:6.0 18:144.0 
0.894140658372221 12:9363.0 
0.8945972991143311 12:16056.0 14:245.0 
0.8945783427063697 12:26737.0 14:1.0 
0.8941486032185242 3:40.0 4:1.0 8:5.0 12:15364.0 14:68.0 
0.8945652246214479 1:4.0 4:3.0 7:5196.0 9:23.0 12:12758.0 14:1931.0 
0.8944785035797688 5:9236.0 12:7361.0 14:65.0 
0.89427757738343 8:12.0 12:26148.0 
0.8942911847543856 3:1.0 4:28.0 5:210.0 12:8668.0 14:96.0 
0.8943498931380094 5:1.0 12:10748.0 14:11.0 
0.8943067727432232 3:10.0 12:9424.0 
0.8943214350150284 4:2.0 12:21386.0 13:1931.0 14:54.0 
0.8943102454861278 3:14.0 4:6.0 5:1553.0 12:10783.0 14:79.0 
0.8943323078308838 8:17864.0 12:1197.0 
0.894350256866679 12:10005.0 
0.8943682398911683 4:47.0 5:623.0 8:7.0 12:11450.0 14:413.0 
0.8943656590672144 5:49.0 7:7952.0 8:3.0 9:2.0 12:2462.0 13:6.0 14:127.0 
0.8945969171163848 12:11091.0 14:510.0 
0.8943777916973809 12:10792.0 14:257.0 
0.8943923451304882 1:121.0 3:463.0 4:270.0 7:3540.0 9:182.0 12:6593.0 14:217.0 18:50.0 
0.894448338649595 4:2.0 12:9390.0 
0.8943923451304882 3:12147.0 5:119.0 12:493.0 14:46.0 
0.8944755596742575 8:11592.0 14:5.0 
0.8944695921871995 12:13878.0 
0.8944713346080979 3:52.0 4:4.0 5:562.0 6:2.0 12:10041.0 14:214.0 
0.8944709316988286 12:80796.0 14:65.0 
0.8944785035797688 8:21.0 12:9165.0 
0.8944801737743396 5:469.0 8:2.0 12:19129.0 14:113.0 
0.8944674911460916 4:14.0 7:7446.0 12:1157.0 13:1312.0 14:477.0 18:29.0 
0.8944657114658634 3:147.0 4:3.0 5:19.0 12:20060.0 14:431.0 
0.8944950707819945 12:10522.0 14:241.0 
0.8944950707819945 1:3.0 4:2.0 5:56.0 12:13630.0 13:424.0 14:261.0 16:12.0 
0.894508765176292 8:13394.0 12:5.0 14:1.0 
0.8945303079587528 4:241.0 5:154.0 12:21557.0 14:209.0 
0.8945703909426446 1:2.0 4:10.0 9:3.0 12:13732.0 14:16.0 
0.8945703909426446 12:71399.0 
0.8945600699719308 5:89.0 12:9269.0 14:94.0 
0.8946370403747204 12:139687.0 14:236.0 
0.8947251745663545 4:6.0 12:36081.0 14:5.0 
0.8941349665760686 3:4.0 12:15432.0 
0.8947251745663545 4:41.0 5:307.0 7:4621.0 8:36.0 12:4414.0 13:1257.0 14:2210.0 
0.894741346100804 3:1.0 4:158.0 8:19.0 12:11221.0 14:315.0 
0.8941519283265548 4:2.0 9:2.0 12:28468.0 
0.894741346100804 3:178.0 5:85.0 7:4797.0 9:2.0 12:6574.0 14:96.0 20:4481.0 
0.8947322541867389 4:3.0 12:14300.0 14:120.0 
0.894728614275556 3:1.0 12:36333.0 14:189.0 
0.8947988322054573 1:9.0 7:4906.0 12:4785.0 14:15.0 
0.8948111299521908 12:32401.0 14:175.0 
0.894808380554203 3:152.0 8:10.0 12:9851.0 14:84.0 18:159.0 
0.894808380554203 1:119.0 3:358.0 4:3.0 9:7.0 12:8935.0 14:2815.0 18:50.0 
0.8948134295584416 1:496.0 4:11.0 7:10517.0 12:1667.0 
0.8948134295584416 1:47.0 4:4.0 8:92.0 12:4357.0 14:7628.0 
0.8948146773662686 3:6015.0 12:2739.0 14:601.0 
0.8948317694713748 3:422.0 4:8.0 12:9032.0 14:250.0 
0.8948267855539287 3:19.0 12:17939.0 
0.8948330361456639 4:2.0 5:25.0 9:15.0 12:29595.0 14:13.0 
0.8948324852694123 8:2.0 12:14934.0 14:425.0 18:41.0 
0.8948306447736448 12:33795.0 16:14.0 
0.8948306447736448 12:28542.0 
0.894930650932223 4:18.0 5:692.0 9:5.0 12:13967.0 13:1172.0 14:172.0 
0.8949251391113322 8:1.0 9:8.0 12:12873.0 14:792.0 
0.8949236516380047 8:9.0 12:11415.0 14:1.0 
0.8949228625525145 12:9113.0 16:7.0 
0.8949246320556612 4:4.0 5:18.0 9:2.0 12:16699.0 14:1262.0 
0.8949123128144587 5:31.0 12:10428.0 
0.8949966662842828 8:34.0 12:13732.0 14:337.0 
0.8950224293779152 5:881.0 12:10093.0 14:929.0 18:8.0 
0.8947472388606781 1:1.0 5:664.0 8:2.0 12:9608.0 14:90.0 18:10.0 
0.8950302204514718 1:8.0 4:9.0 5:656.0 7:2433.0 8:197.0 9:12.0 12:8394.0 
0.8943837445927684 8:2.0 12:10767.0 
0.8950564409412174 8:1207.0 12:8535.0 14:18.0 
0.8950837400101372 5:166.0 12:15113.0 14:129.0 
0.895082589471443 1:316.0 4:17.0 12:9335.0 14:4.0 
0.8951095010179229 4:9.0 5:647.0 8:2.0 12:25299.0 13:5310.0 14:316.0 16:42.0 18:50.0 
0.8951005365530882 12:16656.0 14:135.0 
0.8951094806085274 5:1529.0 8:3.0 12:14080.0 14:2974.0 
0.8945969171163848 7:3889.0 8:1.0 12:4905.0 14:1660.0 
0.8945917292036312 1:219.0 12:12433.0 14:50.0 
0.8945927393278951 4:451.0 12:92203.0 14:155.0 16:2.0 
0.8942057171956983 5:14861.0 12:854.0 14:75.0 
0.8943340020647169 12:34361.0 14:1.0 
0.894158675749448 2:3.0 5:31.0 8:19.0 12:13667.0 14:668.0 
0.894158675749448 3:3813.0 9:9.0 12:6697.0 14:32.0 16:1.0 20:2.0 
0.8942243977649934 4:7.0 8:4.0 12:9815.0 14:94.0 18:18.0 
0.8941485586267673 3:2997.0 4:2.0 5:59.0 8:2.0 12:50796.0 14:132.0 
0.894654661601141 3:91.0 12:9862.0 14:652.0 18:6.0 
0.8941783111561181 8:56726.0 12:123.0 14:30.0 
0.8941870675793825 8:1064.0 12:10047.0 14:9.0 
0.8942324576080087 5:3246.0 12:5739.0 14:217.0 18:12.0 
0.8942324980166363 3:41.0 5:30.0 12:8958.0 14:43.0 
0.8942618223577646 12:68876.0 
0.8942990251314402 12:26665.0 14:26.0 18:30.0 
0.8942943621136934 4:4.0 5:47.0 7:918.0 9:16.0 12:12396.0 14:528.0 18:44.0 
0.8943282185495234 5:45.0 12:18235.0 14:39.0 
0.8943498931618413 3:4.0 4:1.0 5:889.0 12:13741.0 14:121.0 
0.894461728336277 3:204.0 4:1.0 5:841.0 12:8780.0 14:150.0 16:8.0 
0.894461728336277 12:2890.0 14:10359.0 
0.8945827672040333 4:649.0 5:18988.0 12:21587.0 14:44.0 
0.8942931917774146 12:13822.0 14:25.0 16:10.0 
0.8944121823645957 1:7.0 5:53.0 7:1378.0 12:7988.0 14:229.0 16:6.0 
0.8944325151790904 4:1893.0 5:56.0 12:15732.0 14:69.0 16:19.0 
0.8943932492151656 5:259.0 7:7431.0 9:11.0 12:8188.0 14:4.0 18:47.0 
0.8948647065463067 12:9568.0 
0.8945652246214479 12:10742.0 14:238.0 
0.8950142249200744 5:186.0 12:24611.0 14:103.0 
0.8945994064847572 3:27.0 4:54.0 5:528.0 8:2.0 12:17082.0 14:943.0 
0.8945570970025098 5:1089.0 9:24.0 12:19435.0 14:3580.0 
0.895022482834271 8:3.0 12:41.0 14:9584.0 
0.8941402028940549 1:5.0 3:40.0 4:49.0 5:565.0 12:14680.0 13:947.0 14:267.0 18:10.0 
0.8945929346313486 3:4.0 5:18.0 12:28518.0 
0.895082589471443 8:81.0 12:28850.0 14:14.0 
0.8945082844461225 8:30.0 12:14514.0 
0.894995988924086 12:45022.0 
0.8945991522602526 12:1068.0 14:10352.0 
0.894597299113492 8:4.0 12:9474.0 14:4.0 
0.8944715685395104 12:27882.0 
0.8950068029036773 12:12540.0 
0.8943168268178483 8:96.0 12:9668.0 14:718.0 
0.8942944602440879 12:42539.0 14:25.0 
0.8943588345533054 5:503.0 9:18.0 12:18786.0 14:247.0 
0.894683745326883 12:16430.0 
0.8945210708319444 5:5820.0 12:7886.0 14:9.0 18:3.0 
0.8950200533655606 3:44.0 5:1.0 12:9440.0 14:140.0 18:70.0 
0.8943282185495234 1:1.0 3:17.0 5:577.0 9:33.0 12:8759.0 14:10.0 
0.8941452548936133 1:200.0 2:27.0 4:5.0 8:1.0 12:8826.0 14:109.0 
0.8944928963184033 5:5709.0 12:3348.0 14:249.0 18:12.0 
0.8942940125431899 5:424.0 12:8992.0 13:3056.0 14:267.0 18:92.0 
0.894414053003745 8:307.0 12:31360.0 14:6.0 
0.8941249794868797 4:17.0 5:525.0 12:25348.0 14:139.0 16:2.0 18:10.0 
0.8945913848791077 4:1.0 5:1.0 8:147.0 9:2.0 12:10068.0 
0.8943067727432232 5:78.0 12:24751.0 14:9.0 
0.8941870675793825 3:105.0 5:2247.0 12:21114.0 
0.8944284352926708 1:275.0 4:7.0 5:2070.0 8:2.0 12:16664.0 14:316.0 
0.8945323086459822 7:24447.0 12:29183.0 14:121.0 
0.8945636217904467 8:2.0 12:14256.0 14:306.0 18:94.0 
0.8941820526177989 12:35500.0 
0.8942056059867749 1:18.0 4:2.0 12:15594.0 13:537.0 14:113.0 
0.8945635050221741 5:3.0 12:21142.0 
0.8947365902362306 8:445.0 12:30276.0 14:4.0 
0.8948090160790714 4:36.0 5:26.0 12:9914.0 
0.8947364558751922 12:47798.0 13:1.0 14:1876.0 
0.8945496214177024 5:756.0 7:865.0 9:5.0 12:25584.0 14:504.0 
0.8944709316988286 5:18431.0 12:5768.0 14:141.0 
0.8941536570669766 5:293.0 12:22470.0 14:251.0 16:18.0 18:13.0 
0.8946008611881169 2:25.0 5:2060.0 12:7514.0 14:151.0 18:279.0 
0.8941407496928708 4:265.0 7:7383.0 12:1259.0 14:153.0 
0.8944483387522995 12:26613.0 14:8.0 
0.8946546616011285 3:669.0 4:42.0 5:1006.0 12:9816.0 14:86.0 
0.894157709512549 4:32.0 5:601.0 12:8380.0 14:174.0 
0.8945979339816799 5:3343.0 12:7240.0 14:521.0 18:18.0 
0.8945633298556442 4:1.0 5:20780.0 9:21.0 12:22552.0 14:36.0 
0.8944153542747958 4:3.0 9:25.0 12:10182.0 14:154.0 
0.8942324980166363 12:25733.0 14:441.0 
0.8942060176734018 12:22794.0 14:2.0 
0.8941574061412272 3:8.0 4:36.0 5:683.0 12:6148.0 13:2129.0 14:496.0 
0.8941406583722211 5:3145.0 12:27269.0 14:41.0 
0.8941494161449984 12:24019.0 14:253.0 
0.8943289329593421 3:3.0 4:18.0 5:7199.0 12:10374.0 14:178.0 18:10.0 
0.8941887446572512 3:38.0 5:198.0 12:33248.0 14:78.0 
0.894508765176292 3:129.0 12:12015.0 14:350.0 
0.894741346100804 8:136.0 12:15048.0 
0.8944764348849124 12:35187.0 
0.8945703909426446 8:817.0 12:6160.0 14:2658.0 
0.8947449616016545 8:4461.0 12:1937.0 14:10328.0 
0.8941820526177989 1:6.0 3:46.0 4:2.0 5:1074.0 12:37989.0 14:84.0 18:24.0 
0.8942933341704012 3:623.0 4:65.0 5:156.0 12:8420.0 14:217.0 18:72.0 
0.8949966662842828 5:9.0 12:10028.0 14:404.0 
0.894930650932223 5:46.0 7:270.0 12:2413.0 14:10957.0 
0.8942941347086047 3:2.0 4:3.0 5:508.0 8:2.0 12:8996.0 13:1537.0 14:130.0 
0.8943837446163033 4:3.0 12:11469.0 
0.8926436368286108 12:13119.0 
0.8942056059867749 4:132.0 8:25.0 12:10413.0 14:48.0 
0.8944827938539196 7:26.0 12:8982.0 14:12.0 16:2.0 
0.8941785220494808 5:31.0 12:60983.0 14:68.0 16:4.0 
0.894808380554203 5:78.0 12:15422.0 14:20.0 
0.8944950707819945 12:45707.0 
0.8946008611881169 1:17.0 4:19.0 5:291.0 8:36.0 12:4267.0 13:11075.0 14:192.0 
0.8950142249200723 12:12563.0 14:12.0 
0.8950953238962986 4:2.0 12:9083.0 14:20.0 18:82.0 
0.8944476933608121 4:1.0 5:590.0 8:2.0 12:10798.0 14:113.0 18:1481.0 
0.8946837120282833 3:1.0 4:4.0 5:166.0 9:87.0 12:14356.0 14:579.0 
0.8945673787773601 1:1.0 3:9295.0 8:6.0 12:479.0 14:1.0 
0.8941850662588494 1:9.0 3:3267.0 4:7.0 12:8450.0 
0.8945415813598607 3:2.0 5:721.0 8:8.0 12:13584.0 14:206.0 
0.8941350361436909 12:8995.0 14:93.0 
0.8945652246214479 5:1568.0 12:6928.0 14:502.0 
0.8944662416373251 3:1.0 4:1092.0 5:100.0 12:8375.0 14:264.0 
0.894448338649595 1:17.0 5:21.0 8:4.0 12:147645.0 13:203.0 18:7.0 
0.8944476933608121 12:15304.0 
0.8945929346313486 3:1.0 5:1107.0 8:30.0 12:7682.0 14:836.0 
0.8946546616010992 4:3.0 12:11168.0 
0.894423627750473 8:12.0 12:19843.0 14:1.0 
0.894683745326883 4:2.0 12:9065.0 
0.8945605955506358 4:5.0 12:9666.0 14:160.0 
0.8945057570649708 1:14.0 3:11.0 4:4.0 9:15.0 12:25194.0 14:1212.0 16:54.0 
0.8944402300629051 12:12806.0 14:2572.0 
0.8942941347089381 4:37.0 8:14.0 12:11412.0 14:178.0 
0.8944950707819945 3:2588.0 4:3.0 7:24.0 9:12.0 12:8842.0 14:331.0 20:1962.0 
0.8943285666249172 1:5.0 4:22.0 9:6.0 12:21504.0 14:36.0 
0.8948156106809482 3:2.0 12:16275.0 14:2157.0 
0.89483303614567 1:28216.0 4:2265.0 12:2526.0 14:3404.0 
0.8944402300629051 3:9484.0 7:69.0 8:2.0 12:129.0 
0.8944602148902743 3:142.0 4:51.0 12:18328.0 14:66.0 
0.8943282185495234 4:84.0 12:20354.0 14:151.0 
0.8950564409412174 1:6.0 7:4989.0 12:9019.0 14:79.0 
0.894154735173394 5:3660.0 7:1374.0 12:4618.0 14:1250.0 20:10.0 
0.8945995599211708 8:356.0 12:13283.0 14:6.0 
0.8848006786831255 5:8.0 11:1.0 12:9323.0 14:159.0 
0.8951005365530882 4:65.0 12:29687.0 14:10.0 
0.8949227808923921 4:109.0 5:1533.0 12:7257.0 14:130.0 18:30.0 
0.895098551662356 3:42.0 5:842.0 12:6932.0 14:1941.0 
0.8951094806085274 5:176.0 8:2.0 12:14988.0 14:103.0 
0.8948325995502764 12:44667.0 
0.8947266806071807 3:8.0 4:335.0 5:1213.0 12:8493.0 14:265.0 
0.8945703909426446 1:10.0 4:34.0 7:8612.0 9:14.0 12:1122.0 14:561.0 20:14.0 
0.8943102454861278 5:1138.0 12:7667.0 14:151.0 18:7.0 
0.6956162757607396 12:9522.0 
0.8944755596742575 1:265.0 3:19.0 4:13.0 5:16869.0 9:5.0 12:3962.0 14:634.0 18:8.0 
0.8945207684612025 3:282.0 12:66887.0 14:2.0 
0.8943923451304882 4:1.0 5:73.0 12:9823.0 14:28.0 16:40.0 
0.8943025558724738 1:1.0 3:136.0 4:3.0 5:28.0 12:19040.0 14:93.0 15:72.0 18:1.0 
0.8942354527824875 1:35.0 4:44.0 5:317.0 12:7988.0 14:1517.0 16:9.0 
0.894608707445324 1:47.0 4:34.0 7:6413.0 9:14.0 12:7025.0 14:202.0 
0.8941537361678462 1:2.0 5:39851.0 12:13919.0 14:5890.0 
0.8941407496928708 12:7983.0 14:1001.0 
0.8941486032185242 8:10008.0 12:9.0 14:17448.0 
0.8941783111561181 3:9.0 4:203.0 8:9.0 12:10655.0 
0.8942057410285156 12:10868.0 
0.8942618223577646 5:86.0 12:11852.0 14:61.0 
0.8943499320130379 1:34.0 5:526.0 12:12387.0 14:158.0 
0.8944156413580472 1:15.0 3:2.0 4:44.0 5:236.0 8:6.0 9:25.0 12:8294.0 14:419.0 
0.8945132095657043 5:130.0 8:6.0 12:9838.0 14:202.0 
0.8945820953335804 8:901.0 12:23966.0 14:6.0 
0.8942243977654036 5:30.0 8:14.0 12:6652.0 13:331.0 14:360.0 18:1897.0 
0.8943860312708539 12:28896.0 14:2562.0 
0.8944511947994059 3:8.0 5:37.0 12:10740.0 14:209.0 18:17.0 
0.8941441977342761 12:15417.0 
0.8945941985429876 5:83.0 12:11187.0 14:445.0 
0.8949091181305613 7:10636.0 8:3.0 12:3927.0 18:2418.0 
0.8941783111561181 4:60.0 12:9169.0 14:122.0 20:106.0 
0.8945972991143265 1:2.0 5:792.0 7:723.0 8:6.0 12:7223.0 14:389.0 18:214.0 
0.8945820953335804 5:74.0 12:10758.0 18:33.0 
0.894448338649595 2:1.0 4:49.0 5:1121.0 7:6271.0 12:5714.0 13:2422.0 14:243.0 16:10.0 18:33.0 
0.8944263944929588 5:683.0 12:9474.0 14:222.0 
0.8943812840556804 3:10.0 4:3.0 5:5403.0 12:5170.0 14:228.0 18:14.0 
0.8943725142303942 3:1.0 4:5.0 12:964.0 14:8946.0 
0.8943499320130379 3:12.0 4:6.0 5:356.0 12:11655.0 14:45.0 
0.8942056059697449 1:22.0 12:92551.0 14:348.0 
0.8945165375359823 12:104746.0 14:72.0 
0.8944818549718868 8:63.0 12:17140.0 
0.8944476933608121 5:972.0 12:12395.0 13:16719.0 14:603.0 16:19.0 
0.8945033199154342 4:7299.0 5:4.0 12:698.0 14:1028.0 20:7.0 
0.8944948078558795 8:6.0 12:979.0 14:9207.0 
0.8945610655516705 4:8.0 5:346.0 12:10496.0 14:132.0 
0.894560444188822 4:1.0 5:392.0 12:13282.0 14:152.0 
0.894470303233087 3:10.0 12:10676.0 
0.8949865311838123 12:19375.0 
0.8942056026474714 3:8.0 12:14850.0 
0.8949372296564375 4:331.0 5:340.0 12:8725.0 14:553.0 16:2.0 
0.8948825879211662 1:8.0 12:12482.0 14:82.0 
0.8948819289501082 1:110.0 4:3.0 5:61.0 12:42740.0 14:256.0 20:102.0 
0.8947158599005877 4:5.0 12:17280.0 
0.894683745326883 1:162.0 4:12.0 8:2.0 12:11012.0 13:3023.0 14:335.0 
0.8946241183157264 5:296.0 12:26629.0 14:272.0 
0.8945526398141057 3:204.0 5:154.0 9:7.0 12:75589.0 14:54.0 18:1.0 
0.8945520362988311 3:3.0 5:16.0 8:15.0 12:23005.0 14:97.0 
0.8944610733570569 3:6.0 4:12.0 5:10.0 12:13063.0 14:310.0 18:1.0 
0.8942582102397912 1:183.0 4:5.0 5:38.0 7:1.0 9:21.0 12:9567.0 14:509.0 18:10.0 20:96.0 
0.8941401083197965 3:3.0 4:14.0 12:17259.0 14:167.0 
0.8945622651244121 4:40.0 12:9621.0 
0.8945165375359823 12:17735.0 14:257.0 
0.8945165375359823 5:158.0 12:16521.0 14:86.0 
0.8944278857021417 3:1.0 4:4452.0 5:12.0 12:7758.0 14:157.0 
0.8944278857021417 4:692.0 12:8973.0 14:54.0 
0.8944325151790904 5:1358.0 9:15.0 12:7339.0 14:503.0 18:27.0 
0.8944115607764727 8:6.0 12:9986.0 18:122.0 
0.8942943621136934 8:93.0 12:21060.0 14:1.0 
0.8942944603116066 8:186.0 12:13844.0 14:1.0 
0.8942944603116066 3:885.0 12:16058.0 14:258.0 
0.894600264214477 5:21.0 12:4855.0 14:2341.0 18:21.0 20:5258.0 
0.8941452548936133 4:26.0 5:40.0 8:7.0 12:13338.0 14:146.0 
0.8946008611881169 5:1.0 12:8896.0 14:60.0 
0.8941666128948749 4:112.0 8:7.0 9:101.0 12:11058.0 14:10.0 
0.894394077821167 3:49.0 12:12382.0 14:172.0 18:3.0 
0.8943214350150284 4:1.0 5:7779.0 8:10.0 12:1600.0 
0.8942857323716824 12:9217.0 
0.8945092332245625 3:11.0 4:12.0 12:1436.0 14:8465.0 
0.8951095010179229 1:3.0 7:17992.0 12:446.0 14:8226.0 
0.8948331207987759 4:47.0 5:22708.0 12:578.0 14:40.0 
0.8943812840556804 3:203.0 4:17.0 5:943.0 12:16598.0 14:675.0 
0.8945972991143265 1:118.0 4:78.0 5:534.0 9:20.0 12:8746.0 14:879.0 
0.8945488459361484 12:13956.0 14:83.0 
0.895097744582083 1:80.0 2:2.0 3:290.0 4:576.0 8:2.0 9:52.0 12:11022.0 14:296.0 
0.8944274834443693 4:1.0 5:387.0 12:23976.0 14:277.0 
0.8949227808923921 3:185.0 4:15.0 12:8682.0 14:235.0 
0.8942056059697449 12:24787.0 
0.8942672351767919 9:10.0 12:9807.0 14:90.0 
0.89415540834844 4:233.0 5:666.0 9:1130.0 12:9289.0 14:494.0 18:9.0 
0.8943777916973809 1:22.0 4:567.0 12:6244.0 14:389.0 20:4505.0 
0.8945694461286056 12:9738.0 14:26.0 
0.8944483387522995 4:95.0 5:682.0 12:8496.0 14:174.0 18:12.0 
0.8944150981142849 1:26.0 4:124.0 5:6773.0 12:3895.0 14:271.0 18:133.0 
0.8944549085960686 1:260.0 4:41.0 5:234.0 9:10.0 12:6721.0 13:5173.0 14:94.0 
0.894465490256781 3:603.0 4:13.0 5:1270.0 12:15828.0 14:122.0 18:39.0 
0.8949246320556612 4:22.0 12:8626.0 14:4007.0 
0.895022482834271 12:9227.0 14:51.0 
0.8944153542747958 3:217.0 12:33649.0 14:276.0 
0.8944115607764727 1:9.0 9:3.0 12:12495.0 14:30.0 
0.8948306447736448 4:4.0 9:1.0 12:16899.0 14:3853.0 
0.8941547215374567 8:2.0 12:10388.0 14:99.0 
0.8947414727065564 3:344.0 4:59.0 12:6020.0 14:8914.0 
0.8947988322054573 4:3.0 9:28.0 12:34177.0 14:813.0 
0.8943682398925303 3:21136.0 5:23.0 12:2698.0 14:258.0 
0.8941714195328239 4:36.0 5:840.0 9:20.0 12:18717.0 14:217.0 
0.8941264286301934 12:10113.0 14:161.0 18:63.0 
0.8941819535097858 4:2302.0 12:15378.0 
0.8941820526177989 3:36.0 4:1.0 5:293.0 9:51.0 12:12489.0 14:204.0 18:6.0 
0.8942618223577646 1:181.0 3:76.0 4:10.0 7:31.0 9:31.0 12:10267.0 14:160.0 
0.8941642531642352 12:10155.0 14:165.0 
0.8944785035797688 12:13449.0 14:321.0 
0.8943837446163033 8:76.0 12:9864.0 14:1.0 
-1.0 1:17.0 3:25.0 4:4.0 5:14.0 9:28.0 12:535.0 14:60.0 
-0.436856048237724 1:1.0 8:2.0 12:110.0 14:8.0 
-1.0 8:148.0 14:1.0 
-1.0 4:52.0 7:162.0 12:719.0 
-1.0 3:78.0 12:583.0 14:17.0 
-1.0 12:74.0 14:83.0 
-1.0 1:1.0 7:14.0 12:212.0 13:8.0 14:19.0 
-1.0 8:75.0 12:8.0 14:4.0 
-1.0 4:1.0 8:11.0 12:155.0 14:98.0 
-1.0 1:3.0 4:1.0 12:34.0 13:18.0 14:20.0 16:6.0 
-1.0 5:2.0 12:400.0 14:7.0 
-1.0 4:9.0 8:19.0 12:187.0 14:9.0 
-1.0 5:124.0 12:131.0 14:19.0 
-0.7758642352499046 12:63.0 14:15.0 
-1.0 1:4.0 3:14.0 5:491.0 8:26.0 12:4702.0 14:90.0 
-1.0 3:5.0 8:8.0 12:355.0 
-1.0 12:356.0 14:120.0 16:4.0 
-1.0 3:41.0 12:226.0 14:106.0 16:16.0 
-1.0 12:446.0 
-1.0 9:1.0 12:17.0 14:55.0 
-0.034935298633776396 12:108.0 
-1.0 7:10.0 9:2.0 12:141.0 14:2.0 
-1.0 5:70.0 12:404.0 13:168.0 14:90.0 
-1.0 5:144.0 12:587.0 14:32.0 
-1.0 8:325.0 14:6.0 
-1.0 3:10.0 4:5.0 9:2.0 12:247.0 14:60.0 
-1.0 5:38.0 8:11.0 12:565.0 14:92.0 
-0.893007751188007 5:2.0 12:213.0 14:5.0 
-1.0 3:4.0 12:557.0 14:87.0 
-1.0 7:14.0 12:150.0 14:21.0 
-1.0 4:32.0 8:2.0 12:46.0 
-1.0 3:34.0 12:165.0 14:29.0 
-1.0 8:190.0 14:3.0 
-1.0 1:1.0 12:1068.0 14:121.0 16:4.0 
-1.0 3:4.0 4:210.0 12:361.0 14:19.0 
-1.0 3:52.0 8:395.0 12:1876.0 14:226.0 
-1.0 12:565.0 14:28.0 
-0.5363402905008321 12:214.0 13:2.0 
-1.0 12:1494.0 
-0.43401812791034544 12:85.0 14:12.0 
-1.0 5:1.0 12:122.0 14:106.0 
-1.0 1:1.0 4:2.0 8:4.0 9:11.0 12:48.0 14:12.0 16:6.0 
-1.0 8:9.0 12:248.0 14:4.0 
-1.0 12:662.0 14:18.0 16:23.0 
-1.0 12:683.0 14:58.0 
-1.0 2:1.0 5:1.0 9:2.0 12:1985.0 14:86.0 
-1.0 8:22.0 12:214.0 14:23.0 
-1.0 8:11.0 12:555.0 14:143.0 18:2.0 
-1.0 3:7.0 8:29.0 12:395.0 
-1.0 1:10.0 12:162.0 
-1.0 12:265.0 14:68.0 
-1.0 8:746.0 12:104.0 14:1.0 
-1.0 12:257.0 14:24.0 
-1.0 4:21.0 12:1239.0 14:44.0 16:4.0 
-1.0 5:18.0 8:14.0 12:648.0 14:174.0 18:3.0 
-1.0 12:120.0 14:8.0 18:25.0 
-1.0 8:16.0 14:93.0 
-0.40477509606056866 12:308.0 
-0.5200292148838885 12:137.0 14:13.0 
-0.7743229712466083 12:169.0 14:41.0 
-1.0 3:219.0 4:26.0 12:1252.0 14:72.0 
-1.0 3:3.0 12:82.0 14:13.0 16:6.0 
-1.0 4:13.0 7:69.0 8:29.0 12:368.0 14:61.0 16:1.0 
-1.0 4:1.0 8:4.0 12:215.0 14:219.0 
-1.0 1:30.0 4:3.0 7:13.0 12:1149.0 14:5.0 18:2.0 
-1.0 1:2.0 7:86.0 12:93.0 14:75.0 
-1.0 3:52.0 8:200.0 12:141.0 14:13.0 
-0.6505702391254896 12:137.0 14:9.0 
-1.0 7:24.0 12:256.0 14:70.0 
-1.0 7:100.0 8:7.0 12:119.0 14:14.0 
-1.0 3:6.0 12:709.0 
-0.9349181690928197 3:23.0 12:83.0 
-1.0 1:1.0 12:125.0 14:25.0 16:8.0 
-1.0 3:13.0 8:5.0 12:321.0 
-1.0 8:13.0 12:1927.0 14:47.0 
-1.0 4:2.0 12:230.0 14:33.0 
-1.0 4:3.0 7:441.0 12:579.0 14:27.0 
-0.6143362577705718 12:93.0 
-1.0 8:260.0 12:9.0 14:1102.0 
-1.0 4:35.0 12:97.0 14:22.0 
-0.718698312243148 12:109.0 
-1.0 3:22.0 12:104.0 
-1.0 8:2.0 12:509.0 13:2.0 14:91.0 
-1.0 5:2.0 12:920.0 13:74.0 14:74.0 
-1.0 4:101.0 12:579.0 14:50.0 16:32.0 
-1.0 4:33.0 8:21.0 12:109.0 14:52.0 
-1.0 1:3.0 5:9.0 12:85.0 14:14.0 
-1.0 8:502.0 12:17.0 14:4.0 
-1.0 4:1.0 5:35.0 8:45.0 12:1647.0 14:152.0 
-1.0 4:13.0 5:21.0 9:1.0 12:309.0 14:12.0 16:15.0 
-1.0 1:8.0 12:83.0 14:13.0 20:1.0 
-1.0 5:4.0 12:81.0 14:55.0 
-1.0 4:21.0 12:2878.0 14:171.0 
-1.0 7:460.0 8:12.0 12:113.0 13:9.0 14:17.0 
-1.0 1:2.0 8:2.0 9:3.0 12:416.0 13:110.0 14:17.0 
-1.0 3:327.0 5:4.0 8:6.0 12:904.0 14:1.0 
-1.0 7:15.0 12:158.0 13:1.0 14:3.0 
-0.7864876858434451 12:72.0 14:19.0 
-1.0 12:471.0 13:3.0 14:130.0 
-0.39882843791645617 8:2.0 12:68.0 14:10.0 
-1.0 3:9.0 12:232.0 14:38.0 
-1.0 12:1005.0 14:27.0 
-0.7339680749749845 12:180.0 
-1.0 5:3.0 12:546.0 14:390.0 18:35.0 
-1.0 12:367.0 14:44.0 
-1.0 8:433.0 12:55.0 14:365.0 
-1.0 5:66.0 8:7.0 12:56.0 14:26.0 
-1.0 1:31.0 9:10.0 12:2078.0 14:41.0 
-1.0 4:1.0 12:100.0 14:33.0 
-0.821486328025445 12:661.0 14:2.0 
-0.49117065998407805 12:80.0 14:7.0 
-1.0 4:45.0 12:284.0 14:14.0 
-0.6668227714404135 4:3.0 12:103.0 
-1.0 12:325.0 14:81.0 
-1.0 12:5083.0 
-0.7419056117802996 12:88.0 14:14.0 
-1.0 8:248.0 12:53.0 14:1.0 
-0.9834726534233587 12:690.0 14:21.0 
-1.0 12:1928.0 
-0.10294944717928878 12:49.0 14:8.0 
-1.0 5:11.0 7:1.0 8:6.0 12:169.0 14:47.0 18:18.0 
-1.0 3:1.0 8:2.0 12:276.0 13:1.0 14:31.0 18:3.0 
-1.0 4:6.0 12:150.0 14:11.0 
-1.0 8:32.0 12:837.0 14:19.0 
-0.9478368658806001 12:40.0 13:1.0 14:13.0 
-0.9031170159060767 8:22.0 12:32.0 
-1.0 1:12.0 8:3.0 12:218.0 14:25.0 
-1.0 1:21.0 3:38.0 8:8.0 12:366.0 13:20.0 14:187.0 
-1.0 3:31.0 8:6.0 12:81.0 14:16.0 
-0.9654383031847639 8:6.0 12:44.0 14:14.0 
-0.9752300738432981 12:269.0 
-0.6482058523269504 12:196.0 14:6.0 16:2.0 
-1.0 12:539.0 14:132.0 
-0.9050702618012105 8:63.0 
-1.0 5:61.0 8:27.0 12:49.0 14:2.0 
-0.4705946592782294 12:70.0 
-0.7087733026254402 1:2.0 12:198.0 14:7.0 
-1.0 1:272.0 12:1346.0 14:581.0 
-1.0 12:296.0 14:12.0 
-1.0 1:10.0 5:35.0 8:6.0 9:5.0 12:660.0 14:54.0 
-1.0 8:46.0 12:3.0 14:3.0 
-1.0 2:10.0 3:5.0 12:1270.0 
-1.0 5:15.0 12:508.0 14:134.0 
-1.0 7:30.0 12:245.0 14:15.0 18:31.0 
-1.0 8:57.0 12:38.0 14:3.0 
-1.0 5:97.0 8:37.0 12:741.0 14:32.0 
-0.5672394333754321 12:544.0 
-0.7878479884608763 12:159.0 
-1.0 3:2.0 4:4.0 12:255.0 14:78.0 
-1.0 7:30.0 12:18.0 14:9.0 
-1.0 8:2.0 12:957.0 
-0.9081592032439848 12:167.0 14:4.0 
-0.6517089336548433 12:133.0 
-1.0 1:31.0 3:6.0 4:168.0 8:45.0 9:11.0 12:299.0 13:12.0 14:46.0 
-1.0 4:4.0 12:141.0 14:53.0 
-1.0 12:492.0 14:79.0 
-0.4952187687821968 12:176.0 
-1.0 4:8.0 5:10.0 9:3.0 12:148.0 14:27.0 
-1.0 8:2.0 12:23.0 14:79.0 
-0.06470962016753505 12:60.0 14:4.0 
-0.7743735572934078 12:168.0 14:45.0 
-1.0 12:217.0 14:54.0 
-1.0 12:202.0 13:26.0 14:3.0 
-0.9957957770451205 12:125.0 
-1.0 3:451.0 4:16.0 12:82.0 14:24.0 16:4.0 
-1.0 8:19.0 9:2.0 12:31.0 14:111.0 
-1.0 3:1.0 4:147.0 5:49.0 8:13.0 12:3187.0 13:1015.0 14:79.0 
-1.0 4:35.0 12:363.0 14:36.0 16:14.0 
-1.0 3:2.0 5:1.0 12:1020.0 14:12.0 
-1.0 5:75.0 12:169.0 14:5.0 
-1.0 5:4.0 12:1584.0 
-1.0 5:17.0 12:129.0 14:7.0 
-1.0 8:154.0 12:12.0 
-1.0 12:64.0 14:36.0 
-1.0 4:1.0 5:9.0 8:30.0 9:10.0 12:104.0 14:6.0 
-1.0 3:18.0 12:527.0 14:7.0 
-1.0 8:32.0 12:142.0 
-1.0 8:87.0 12:90.0 14:8.0 
-0.22864865904282558 12:55.0 14:7.0 18:1.0 
-0.663847350089483 8:4.0 12:67.0 14:6.0 
-1.0 5:189.0 12:271.0 14:20.0 
-1.0 8:12.0 12:172.0 14:7.0 
-1.0 8:32.0 12:248.0 14:229.0 
-1.0 12:258.0 14:4.0 16:2.0 
-0.5783226920903421 5:3.0 12:51.0 
-0.8586369588921248 12:333.0 
-0.7320081197914728 8:2.0 12:285.0 14:5.0 
-1.0 8:56.0 12:217.0 
-1.0 12:132.0 14:63.0 
-0.9007435379388035 12:116.0 
-1.0 1:7.0 3:559.0 8:23.0 9:26.0 12:1353.0 14:119.0 
-1.0 8:2.0 12:100.0 14:83.0 
-0.7431168985966486 8:2.0 12:93.0 14:10.0 
-1.0 5:245.0 12:1725.0 14:104.0 
-1.0 1:9.0 12:245.0 14:15.0 
-1.0 9:3.0 12:429.0 14:30.0 
-0.6102819998070258 12:191.0 14:11.0 
-1.0 12:251.0 14:134.0 18:16.0 
-1.0 5:57.0 12:249.0 14:12.0 
-1.0 4:12.0 8:32.0 12:205.0 14:33.0 
-1.0 5:81.0 8:2.0 12:287.0 14:49.0 
-1.0 1:1.0 12:358.0 13:9.0 14:8.0 16:2.0 
-1.0 7:98.0 12:87.0 14:70.0 
-0.5209520564123021 12:279.0 
-1.0 1:8.0 4:5.0 12:41.0 
-0.5863174195658367 3:1.0 9:1.0 12:283.0 14:8.0 
-1.0 12:836.0 
-1.0 8:809.0 9:1.0 12:102.0 14:12.0 
-1.0 1:1.0 12:223.0 14:6.0 16:4.0 
-1.0 5:39.0 12:608.0 14:85.0 16:14.0 18:3.0 
-1.0 7:658.0 8:1.0 12:9.0 18:2.0 
-0.8219641688168413 4:1.0 12:237.0 14:4.0 
-0.8839652844067396 4:2.0 8:4.0 12:110.0 14:23.0 
-1.0 3:58.0 12:358.0 14:32.0 
-1.0 12:1771.0 
-1.0 3:2.0 8:25.0 12:116.0 14:16.0 16:2.0 
-1.0 12:184.0 14:22.0 
-1.0 12:223.0 14:39.0 
-1.0 12:23.0 14:67.0 
-1.0 3:8.0 12:5728.0 13:8.0 14:446.0 16:6.0 
-1.0 5:531.0 9:4.0 12:799.0 
-1.0 4:1.0 5:603.0 8:244.0 12:878.0 
-1.0 5:1.0 12:91.0 14:31.0 
-1.0 3:2.0 7:3.0 12:152.0 14:28.0 
-1.0 8:490.0 12:7.0 14:4.0 
-1.0 1:2.0 7:6.0 8:44.0 12:329.0 14:19.0 16:6.0 
-1.0 5:64.0 12:342.0 14:166.0 
-1.0 8:36.0 12:226.0 14:39.0 20:1.0 
-1.0 3:835.0 8:4.0 12:275.0 
-1.0 12:1431.0 14:1.0 18:1.0 
-0.8019398164310227 9:1.0 12:147.0 14:9.0 
-1.0 1:37.0 5:25.0 9:2.0 12:222.0 14:87.0 
-0.8967644940790137 1:2.0 5:3.0 8:3.0 12:80.0 14:12.0 
-1.0 8:122.0 14:4.0 
-1.0 3:38.0 5:77.0 8:18.0 9:12.0 12:2848.0 14:195.0 
-0.5025328684518092 12:69.0 14:18.0 
-1.0 5:9.0 12:62.0 14:5.0 
-1.0 4:1.0 8:2.0 12:279.0 14:126.0 
-1.0 8:111.0 12:91.0 14:4.0 
-0.6804289710216818 7:1.0 8:4.0 12:51.0 
-1.0 8:22.0 12:77.0 14:5.0 
-1.0 12:397.0 14:91.0 
-1.0 5:297.0 12:1911.0 14:393.0 16:4.0 18:23.0 
-1.0 8:14.0 12:122.0 14:18.0 
-1.0 12:990.0 
-1.0 9:16.0 12:189.0 14:89.0 16:2.0 
-1.0 12:1031.0 14:83.0 
-0.7514602011164615 12:573.0 
-1.0 1:9.0 4:5.0 8:8.0 12:128.0 14:13.0 
-0.655206149326042 8:25.0 12:137.0 
-1.0 3:120.0 12:868.0 14:62.0 
-1.0 8:36.0 12:2197.0 14:444.0 
-0.40133714092473755 8:3.0 12:106.0 14:9.0 
-0.529593773455242 12:140.0 14:45.0 
-0.6260148126314435 12:148.0 
-1.0 5:44.0 8:309.0 12:204.0 14:30.0 
-1.0 12:23.0 14:394.0 
-1.0 5:265.0 12:395.0 
-1.0 8:21.0 12:44.0 14:2.0 
-0.8285151200750351 12:278.0 14:7.0 
-0.44055499427787237 12:162.0 14:1.0 
-0.24233366684226654 12:112.0 14:22.0 
-0.5137735821925057 12:243.0 
-1.0 3:354.0 12:509.0 14:1018.0 
-1.0 4:29.0 12:851.0 14:146.0 
-1.0 7:30.0 12:80.0 14:22.0 16:7.0 18:6.0 
-0.9132936016098654 12:118.0 14:8.0 
-1.0 5:20.0 12:105.0 14:8.0 
-1.0 8:131.0 12:137.0 14:79.0 
-1.0 3:5.0 4:14.0 5:14.0 12:424.0 13:618.0 14:97.0 18:10.0 
-0.19014404932733495 12:55.0 
-1.0 8:4.0 9:5.0 12:3075.0 14:82.0 
-1.0 8:10.0 12:24.0 14:186.0 
-1.0 1:75.0 9:5.0 12:412.0 14:100.0 
-1.0 12:2356.0 14:33.0 
-1.0 4:41.0 12:10.0 14:1.0 
-1.0 8:93.0 12:409.0 14:19.0 
-1.0 12:361.0 
-1.0 8:146.0 12:563.0 
-0.9781973459115916 12:24.0 14:45.0 
-1.0 4:4.0 5:8.0 9:1.0 12:354.0 18:32.0 
-0.9795459413536758 12:140.0 
-1.0 3:1.0 4:2.0 12:969.0 14:40.0 
-1.0 12:86.0 14:42.0 
-1.0 4:1.0 12:857.0 14:55.0 
-1.0 5:46.0 8:2.0 12:428.0 
-1.0 12:69.0 14:56.0 
-1.0 3:317.0 12:315.0 
-0.5997448409185152 12:348.0 
-1.0 9:13.0 12:174.0 14:23.0 
-1.0 5:81.0 9:4.0 12:485.0 14:40.0 
-0.9013392156891332 3:4.0 12:283.0 
-1.0 9:1.0 12:43.0 14:22.0 
-1.0 8:2.0 12:550.0 14:9.0 18:7.0 
-1.0 1:6.0 12:650.0 14:7.0 
-0.2311949300209591 12:88.0 14:1.0 
-1.0 12:1075.0 14:139.0 
-0.6637587880442515 12:51.0 14:17.0 
-0.3472355369689719 12:114.0 14:5.0 
-0.9098790575392617 12:656.0 
-1.0 9:14.0 12:3330.0 14:144.0 
-1.0 4:37.0 12:42.0 
-1.0 12:514.0 14:11.0 16:19.0 
-1.0 1:1.0 3:523.0 9:2.0 12:427.0 14:69.0 
-1.0 5:96.0 12:2106.0 14:13.0 
-1.0 5:6.0 12:169.0 18:1.0 
-0.6642804122261139 12:345.0 
-1.0 3:24.0 12:688.0 16:2.0 
-0.13938139989455467 9:1.0 12:145.0 14:10.0 
-0.6508033892050148 12:55.0 14:14.0 
-1.0 12:252.0 14:10.0 16:6.0 18:9.0 
-1.0 5:4.0 12:607.0 13:50.0 14:22.0 
-1.0 3:70.0 5:9.0 7:51.0 12:253.0 14:18.0 
-1.0 1:1.0 5:8.0 12:251.0 14:22.0 
-1.0 12:20.0 14:34.0 
-1.0 5:27.0 12:346.0 14:40.0 
-1.0 8:108.0 12:24.0 14:8.0 
-1.0 8:128.0 12:637.0 14:6.0 
-1.0 3:20.0 8:16.0 12:27.0 
-1.0 5:67.0 12:91.0 14:10.0 
-1.0 3:56.0 4:1.0 7:138.0 12:482.0 14:54.0 
-1.0 1:2.0 12:124.0 13:2.0 14:17.0 
-1.0 8:157.0 12:1488.0 
-1.0 7:59.0 12:39.0 14:24.0 
-1.0 7:23.0 12:337.0 14:51.0 
-1.0 3:27.0 4:3.0 12:270.0 14:11.0 
-1.0 8:8.0 12:73.0 
-1.0 3:2.0 8:2.0 12:239.0 14:77.0 
-0.46649197551425364 12:571.0 14:2.0 
-1.0 4:1.0 5:673.0 8:353.0 9:8.0 12:3023.0 14:66.0 18:1.0 
-1.0 8:253.0 12:1162.0 14:35.0 
-1.0 1:13.0 3:4.0 4:1.0 12:71.0 
-0.9789354861728956 8:1.0 12:30.0 14:43.0 
-1.0 4:3.0 12:1372.0 
-1.0 8:2.0 12:115.0 14:48.0 
-1.0 1:97.0 5:10.0 7:37.0 12:801.0 14:237.0 18:8.0 20:265.0 
-1.0 8:4.0 12:146.0 14:18.0 
-1.0 12:668.0 
-1.0 8:63.0 12:1535.0 14:3.0 
-1.0 4:2.0 5:10.0 12:2665.0 14:25.0 
-1.0 12:232.0 14:65.0 
-1.0 8:39.0 9:4.0 12:200.0 14:6.0 
-1.0 12:51.0 14:11.0 18:8.0 
-1.0 3:2.0 5:35.0 12:2121.0 14:253.0 
-1.0 12:134.0 14:33.0 
-1.0 5:6.0 8:2.0 12:634.0 14:57.0 
-0.8004946443590004 8:2.0 12:306.0 
-1.0 5:29.0 12:12287.0 18:9.0 
-1.0 3:21.0 4:47.0 5:51.0 9:4.0 12:5407.0 14:16.0 18:17.0 
-1.0 12:14.0 14:152.0 
-1.0 8:91.0 12:147.0 14:7.0 
-0.6865515523738548 4:1.0 9:3.0 12:141.0 14:10.0 
-1.0 1:1.0 9:26.0 12:271.0 14:79.0 
-1.0 4:21.0 8:57.0 12:660.0 14:28.0 18:14.0 
-1.0 1:6.0 3:130.0 5:19.0 8:5.0 12:1126.0 13:30.0 14:59.0 
-0.7179313062211522 8:4.0 12:56.0 14:7.0 
-1.0 5:510.0 12:1585.0 14:218.0 
-0.9260153113588717 8:56.0 12:5.0 14:1.0 
-1.0 4:10.0 12:377.0 14:84.0 
-1.0 5:23.0 9:3.0 12:125.0 14:20.0 
-0.9000012516680106 12:350.0 14:7.0 
-1.0 12:265.0 14:47.0 
-1.0 1:5.0 9:1.0 12:470.0 13:2.0 14:227.0 
-1.0 1:9.0 5:44.0 8:2.0 12:493.0 14:5.0 
-0.30020746054882425 4:2.0 12:69.0 14:3.0 
-1.0 3:54.0 5:28.0 8:26.0 9:2.0 12:1292.0 14:156.0 
-1.0 5:3.0 8:19.0 12:86.0 14:33.0 
-1.0 12:1542.0 14:15.0 
-1.0 1:6.0 9:3.0 12:454.0 14:328.0 
-1.0 8:59.0 12:267.0 14:69.0 
-1.0 3:99.0 12:695.0 14:218.0 18:7.0 
-1.0 3:3.0 8:58.0 12:19.0 
-1.0 3:62.0 4:2.0 9:62.0 12:1263.0 14:87.0 18:15.0 
-1.0 5:96.0 12:366.0 14:11.0 16:4.0 
-1.0 8:6.0 12:32.0 14:17.0 
-1.0 4:8.0 12:43.0 14:7.0 
-1.0 3:1.0 4:1.0 8:18.0 12:158.0 14:6.0 
-1.0 3:55.0 12:1636.0 14:25.0 
-0.7191028391676683 1:1.0 9:1.0 12:106.0 14:11.0 
-1.0 1:10.0 3:2.0 4:2.0 7:115.0 12:623.0 
-1.0 1:41.0 12:1251.0 13:158.0 14:63.0 
-1.0 3:2.0 5:6.0 12:175.0 14:14.0 
-1.0 4:14.0 5:29.0 12:267.0 14:97.0 16:10.0 
-1.0 1:3.0 12:388.0 14:26.0 
-1.0 1:20.0 3:162.0 12:1950.0 14:79.0 
-1.0 12:149.0 14:37.0 
-0.43332609424445195 12:57.0 
-1.0 8:199.0 12:143.0 14:23.0 
-0.06722026129522221 12:115.0 14:7.0 
-1.0 12:123.0 14:29.0 
-1.0 1:6.0 12:700.0 14:14.0 
-1.0 12:271.0 14:493.0 
-1.0 4:1.0 5:30272.0 9:5.0 12:1193.0 14:73.0 
-0.38536710557985926 12:50.0 14:1.0 16:2.0 
-1.0 5:3.0 12:734.0 14:34.0 
-1.0 5:10.0 12:380.0 14:20.0 
-1.0 3:97.0 12:292.0 
-1.0 2:8.0 3:2.0 4:11.0 12:2394.0 14:80.0 
-1.0 3:145.0 12:433.0 
-1.0 3:436.0 5:36.0 12:2067.0 14:122.0 
-1.0 4:66.0 5:27.0 8:4.0 12:1818.0 14:192.0 
-1.0 12:108.0 14:130.0 
-0.19899277638541732 12:244.0 
-1.0 12:486.0 
-1.0 8:357.0 12:102.0 14:7.0 
-1.0 8:26.0 12:96.0 
-1.0 4:1.0 5:477.0 9:7.0 12:1664.0 14:97.0 
-0.5667614150551219 12:869.0 
-1.0 4:5.0 5:12.0 12:308.0 
-1.0 1:2.0 12:273.0 14:274.0 
-0.5924686418281022 8:61.0 12:4.0 14:2.0 
-1.0 3:22.0 12:748.0 14:47.0 
-1.0 7:305.0 12:147.0 14:30.0 
-0.9873076299748691 12:314.0 
-0.19121697068507507 12:101.0 
-1.0 5:40.0 8:117.0 12:819.0 14:16.0 
-0.7756301045960742 8:131.0 
-1.0 3:6842.0 4:9.0 5:14.0 8:22.0 12:432.0 14:28.0 17:4.0 
-1.0 5:50.0 12:186.0 14:16.0 
-1.0 12:1173.0 14:139.0 18:1.0 
-1.0 8:7.0 12:268.0 14:82.0 
-1.0 8:884.0 14:6.0 
-1.0 3:15.0 12:210.0 
-1.0 4:4.0 5:234.0 12:68.0 
-1.0 1:17.0 12:138.0 14:94.0 
-0.16465371864866626 12:81.0 
-1.0 8:154.0 12:31.0 
-0.386254941230406 12:131.0 
-0.5684100066118445 3:2.0 12:87.0 
-1.0 5:14.0 12:394.0 14:2.0 
-1.0 8:1.0 12:317.0 14:8.0 
-1.0 3:8.0 4:34.0 12:734.0 14:36.0 20:15.0 
-1.0 1:19.0 4:3.0 5:37.0 8:1.0 9:1.0 12:709.0 14:53.0 18:2.0 20:102.0 
-1.0 5:67.0 12:848.0 14:27.0 
-1.0 1:1.0 5:3.0 8:16.0 12:94.0 13:1.0 14:8.0 
-1.0 8:2.0 12:305.0 14:36.0 
-0.9404339360751922 12:63.0 14:12.0 18:6.0 
-1.0 3:38.0 12:299.0 14:128.0 
-1.0 1:22.0 4:1.0 5:6.0 8:34.0 9:5.0 12:418.0 14:99.0 
-1.0 5:3.0 8:47.0 12:17799.0 
-0.8592191834865005 12:328.0 
-1.0 5:25.0 12:32.0 
-1.0 8:824.0 
-1.0 5:12.0 12:183.0 14:2.0 
-1.0 8:4.0 12:40.0 14:28.0 
-1.0 8:33.0 12:225.0 14:9.0 
-1.0 4:2.0 5:57.0 12:2802.0 14:2379.0 
-1.0 1:4.0 3:15.0 8:258.0 9:3.0 12:907.0 
-1.0 8:39.0 12:20.0 13:3.0 14:4.0 
-1.0 1:19.0 12:203.0 14:12.0 
-1.0 1:6.0 12:181.0 14:5.0 
-0.4908154554249267 3:2.0 12:74.0 
-1.0 4:2.0 8:2.0 9:1.0 12:291.0 14:78.0 
-1.0 3:86.0 4:2.0 5:106.0 8:15.0 12:714.0 14:84.0 
-1.0 4:7.0 12:702.0 
-1.0 1:1.0 4:39.0 5:251.0 12:4792.0 14:82.0 18:2.0 
-1.0 1:3.0 8:4.0 12:174.0 14:30.0 
-1.0 8:52.0 12:30.0 
-1.0 1:8.0 9:5.0 12:205.0 14:40.0 
-1.0 1:1.0 3:40.0 12:359.0 14:53.0 18:8.0 
-1.0 1:31.0 3:2.0 4:10.0 8:4.0 12:100.0 14:6.0 
-1.0 3:40.0 5:18.0 8:6.0 12:619.0 14:112.0 
-1.0 8:95.0 12:849.0 14:6.0 18:2.0 
-1.0 4:1.0 12:1243.0 14:133.0 
-1.0 12:631.0 14:17.0 
-0.3943696610114717 12:78.0 
-1.0 7:12.0 12:69.0 14:8.0 
-1.0 3:8.0 8:127.0 12:24.0 14:18.0 
-1.0 8:179.0 14:5.0 
-1.0 3:38.0 4:1.0 5:1.0 8:44.0 12:390.0 
-1.0 1:198.0 3:1.0 4:26.0 5:91.0 8:14.0 12:1855.0 14:29.0 
-0.46372026311007597 12:248.0 
-1.0 5:40.0 8:31.0 12:867.0 14:7.0 
-0.5876102879163786 12:238.0 
-1.0 8:21.0 12:428.0 14:58.0 
-0.5864277347670845 12:139.0 14:45.0 
-0.6458897245758722 12:275.0 
-1.0 5:71.0 12:186.0 14:36.0 
-1.0 12:468.0 
-1.0 3:566.0 12:167.0 14:14.0 
-1.0 4:1.0 9:5.0 12:2118.0 
-1.0 12:1192.0 14:65.0 
-1.0 12:1857.0 
-1.0 4:23.0 12:96.0 14:6.0 
-1.0 4:22.0 5:142.0 8:17.0 12:595.0 14:30.0 16:3.0 18:8.0 
-0.5667614150551222 12:868.0 
-1.0 8:306.0 12:861.0 14:8.0 
-1.0 5:123.0 9:1.0 12:456.0 14:15.0 
-1.0 8:14.0 12:45.0 14:6.0 
-1.0 5:107.0 12:1167.0 14:29.0 
-1.0 8:19.0 12:3137.0 
-1.0 8:41.0 12:318.0 
-1.0 3:49.0 5:1302.0 8:418.0 12:5805.0 
-1.0 12:831.0 14:13.0 
-1.0 5:104.0 12:32.0 
-1.0 3:10.0 8:11.0 12:564.0 
-0.5654729686731231 12:545.0 
-1.0 8:24.0 9:11.0 12:6704.0 14:120.0 16:2.0 
-1.0 12:565.0 
-1.0 4:14.0 5:49.0 8:13.0 12:1361.0 14:8.0 
-1.0 5:18.0 12:2478.0 14:12.0 
-0.04752733245597185 12:101.0 14:3.0 
-0.23479457219347713 12:58.0 14:10.0 
-1.0 7:24.0 12:246.0 14:8.0 
-1.0 12:9855.0 14:11.0 18:6.0 
-1.0 1:8.0 7:290.0 8:140.0 12:2653.0 14:1037.0 
-1.0 8:100.0 12:297.0 14:353.0 
-1.0 12:471.0 14:69.0 
-1.0 4:19.0 5:32.0 12:155.0 
-0.9263994113425928 8:1.0 12:174.0 14:8.0 
-1.0 8:41.0 12:292.0 14:31.0 
-1.0 12:980.0 
-1.0 1:42.0 4:83.0 8:9.0 9:14.0 12:113.0 14:23.0 
-1.0 12:217.0 14:18.0 
-0.7955913257803703 12:219.0 
-1.0 12:3484.0 14:513.0 
-1.0 3:4.0 5:41.0 8:59.0 12:81.0 
-1.0 8:161.0 12:5.0 
-1.0 3:6.0 5:60.0 12:92.0 14:3.0 
-1.0 8:40.0 12:266.0 14:1.0 
-1.0 3:18.0 12:1004.0 14:62.0 
-0.6390636495190449 8:3.0 12:98.0 
-1.0 1:2.0 3:2.0 4:85.0 5:553.0 8:26.0 12:7489.0 14:128.0 
-1.0 5:3.0 7:329.0 8:102.0 12:531.0 14:19.0 
-1.0 8:24.0 12:74.0 14:29.0 
-1.0 1:72.0 4:10.0 12:164.0 14:76.0 
-0.771298661281896 8:21.0 12:31.0 14:5.0 
-1.0 5:68.0 8:2.0 12:282.0 14:16.0 
-1.0 5:10.0 8:3.0 12:256.0 14:26.0 
-1.0 3:4.0 12:306.0 14:48.0 
-0.7015461585613754 8:26.0 12:134.0 
-1.0 3:3.0 5:21.0 8:4.0 9:1.0 12:613.0 14:19.0 
-0.7847197557316762 9:1.0 12:250.0 14:3.0 
-0.7227750396137054 1:1.0 3:4.0 12:81.0 14:6.0 
-1.0 12:479.0 
-1.0 8:22.0 12:34.0 14:11.0 
-1.0 4:73.0 5:10.0 8:46.0 12:165.0 14:14.0 
-1.0 1:8.0 12:127.0 14:30.0 
-1.0 7:198.0 12:408.0 14:98.0 
-1.0 1:10.0 8:14.0 12:361.0 14:139.0 
-1.0 1:7.0 12:191.0 14:6.0 
-0.6643135761285452 12:151.0 
-1.0 3:13.0 8:5.0 12:1079.0 
-0.3519035967992733 12:52.0 14:9.0 
-0.3792539437889125 12:67.0 14:11.0 
-1.0 1:2.0 3:8.0 12:214.0 14:18.0 
-1.0 12:202.0 14:49.0 
-0.3395434611988096 4:2.0 12:82.0 14:2.0 
-1.0 12:98.0 14:22.0 
-1.0 12:1070.0 14:75.0 
-0.7905138140019522 8:2.0 12:45.0 14:4.0 
-0.9483129795380292 12:695.0 14:17.0 
-1.0 5:80.0 8:46.0 9:2.0 12:136.0 14:11.0 
-1.0 4:4.0 5:11.0 8:40.0 12:1019.0 14:41.0 
-1.0 12:1421.0 
-1.0 5:47.0 12:167.0 14:17.0 
-1.0 4:1.0 8:8.0 9:1.0 12:103.0 14:23.0 
-1.0 4:10.0 5:188.0 12:5787.0 14:100.0 
-0.6310604647627817 4:3.0 12:46.0 14:12.0 
-1.0 4:3.0 12:3013.0 14:399.0 16:43.0 
-1.0 8:2.0 12:26.0 13:85.0 14:6.0 
-1.0 5:15.0 12:229.0 14:46.0 
-1.0 5:104.0 12:952.0 14:40.0 
-1.0 4:38.0 12:2559.0 14:100.0 
-1.0 8:223.0 12:10.0 14:4.0 
-0.5566349127246152 12:61.0 14:7.0 
-1.0 1:2.0 3:5.0 8:4.0 12:235.0 13:4.0 14:29.0 
-1.0 1:97.0 4:2.0 7:115.0 8:16.0 12:311.0 14:59.0 16:2.0 
-1.0 12:674.0 14:46.0 
-1.0 5:17.0 12:122.0 
-1.0 8:8.0 12:90.0 14:7.0 
-1.0 4:448.0 12:42.0 
-1.0 8:3.0 12:411.0 
-0.3603007088993756 1:2.0 12:95.0 14:4.0 
-0.3162747725546149 12:215.0 16:2.0 
-1.0 8:4.0 12:264.0 14:61.0 
-1.0 8:84.0 12:2.0 14:1.0 
-1.0 4:1.0 5:73.0 8:83.0 12:345.0 14:156.0 
-1.0 12:236.0 13:33.0 14:29.0 
-1.0 7:136.0 12:1920.0 14:3.0 
-1.0 3:7.0 4:116.0 5:559.0 7:1.0 12:3844.0 14:275.0 
-1.0 8:11.0 12:601.0 14:9.0 
-1.0 4:1.0 5:37.0 12:856.0 14:204.0 
-0.9777959321513171 12:52.0 14:23.0 
-0.9348559842057371 3:23.0 4:3.0 12:88.0 
-1.0 8:5.0 12:270.0 14:136.0 
-1.0 5:27.0 12:161.0 14:4.0 
-0.5720805872027078 5:3.0 12:70.0 14:4.0 
-1.0 1:76.0 4:6.0 5:59.0 8:4.0 9:2.0 12:633.0 14:18.0 
-0.5490010193343151 5:3.0 12:106.0 14:5.0 
-1.0 3:20.0 5:55.0 12:37.0 14:41.0 
-1.0 5:94.0 12:149.0 14:9.0 
-1.0 12:1148.0 14:23.0 
-0.3155862246183403 8:1.0 12:84.0 
-1.0 4:1.0 8:8.0 12:84.0 13:34.0 
-1.0 12:532.0 14:79.0 
-1.0 8:37.0 14:108.0 
-0.7815498688922197 12:113.0 14:20.0 
-0.6333266465157972 1:2.0 4:1.0 12:189.0 14:11.0 
-1.0 9:1.0 12:265.0 14:8.0 
-1.0 1:6.0 12:291.0 13:38.0 14:9.0 
-0.4804738813885127 12:108.0 13:3.0 14:5.0 
-0.4449542900693495 12:92.0 14:6.0 
-1.0 1:11.0 4:1.0 8:53.0 12:198.0 14:23.0 15:16.0 
-1.0 8:95.0 12:666.0 14:2.0 
-1.0 5:17.0 8:4.0 12:459.0 14:576.0 
-1.0 12:1756.0 14:176.0 
-1.0 4:5.0 5:23.0 8:176.0 12:2226.0 14:131.0 16:2.0 18:64.0 
-1.0 12:1289.0 14:2.0 
-0.9989337244776204 12:133.0 14:17.0 16:2.0 
-1.0 12:590.0 14:47.0 
-1.0 5:14.0 8:213.0 9:5.0 12:453.0 14:55.0 
-1.0 9:4.0 12:271.0 14:64.0 
-1.0 4:1.0 12:1248.0 
-1.0 1:26.0 5:22.0 12:108.0 13:8.0 14:12.0 
-1.0 12:518.0 14:39.0 
-1.0 3:11.0 8:70.0 12:107.0 14:6.0 15:67.0 
-0.20130721018350245 12:48.0 14:11.0 
-1.0 5:25.0 8:2.0 12:39.0 14:5.0 
-0.4151578118877687 8:2.0 12:176.0 14:3.0 
-1.0 8:68.0 12:25.0 14:59.0 18:4.0 
-1.0 5:174.0 12:1416.0 14:125.0 18:1.0 
-1.0 7:51.0 8:1.0 12:55.0 14:12.0 
-1.0 12:77.0 14:98.0 
-1.0 5:7.0 12:281.0 14:68.0 
-1.0 3:3.0 4:39.0 5:15.0 12:184.0 14:4.0 
-1.0 5:22.0 12:300.0 14:107.0 
-1.0 5:33.0 8:82.0 12:34.0 14:10.0 
-1.0 12:1812.0 14:15.0 
-0.32180575593775745 3:1.0 12:47.0 14:7.0 
-1.0 5:51.0 12:977.0 14:31.0 
-1.0 7:76.0 12:15.0 
-1.0 8:8.0 12:215.0 14:7.0 
-1.0 8:451.0 12:3.0 14:2.0 
-0.5579477732142617 8:128.0 12:1.0 14:1.0 
-0.7715368920899991 12:62.0 
-1.0 8:175.0 12:78.0 14:4.0 
-1.0 1:2.0 9:4.0 12:410.0 14:14.0 
-1.0 5:61.0 12:305.0 
-1.0 12:225.0 14:28.0 
-1.0 1:7.0 12:699.0 13:148.0 14:23.0 
-1.0 12:205.0 
-1.0 8:116.0 14:13.0 
-1.0 12:638.0 14:7.0 
-1.0 12:1024.0 14:60.0 
-1.0 8:157.0 12:630.0 14:132.0 
-1.0 1:22.0 3:2.0 8:4.0 12:344.0 
-1.0 5:103.0 8:2.0 12:280.0 14:7.0 
-1.0 3:7.0 12:59.0 
-1.0 9:6.0 12:1112.0 14:41.0 
-0.012323969125843172 12:56.0 14:6.0 
-1.0 1:60.0 12:272.0 14:103.0 16:2.0 
-1.0 3:47.0 12:246.0 
-1.0 1:20.0 3:4.0 9:11.0 12:119.0 14:18.0 
-1.0 8:149.0 12:225.0 14:479.0 
-1.0 5:784.0 12:266.0 14:11.0 
-1.0 9:19.0 12:2985.0 
-1.0 12:506.0 14:10.0 
-1.0 4:2.0 8:108.0 12:147.0 14:4.0 
-1.0 3:3.0 8:6.0 12:195.0 
-1.0 3:44.0 4:1.0 12:126.0 
-1.0 1:14.0 3:25.0 5:40.0 8:6.0 12:1413.0 14:142.0 
-1.0 3:599.0 4:19.0 8:19.0 12:1177.0 14:161.0 
-1.0 1:2.0 12:298.0 14:52.0 
-1.0 3:41.0 8:25.0 12:438.0 14:69.0 
-1.0 4:11.0 8:126.0 12:1148.0 14:84.0 
-0.5218623890749683 4:2.0 12:99.0 14:4.0 
-1.0 1:3.0 3:3.0 4:522.0 5:1549.0 12:4300.0 14:334.0 18:21.0 
-1.0 8:447.0 12:51.0 14:17.0 
-1.0 3:7.0 4:5.0 12:138.0 
-1.0 12:1043.0 14:7.0 
-1.0 4:4.0 12:281.0 13:74.0 14:32.0 
-0.29932431896038864 12:76.0 14:3.0 
-1.0 8:129.0 12:76.0 13:147.0 14:7.0 
-0.9270967941332162 12:344.0 14:8.0 
-1.0 4:16.0 8:171.0 12:255.0 14:79.0 18:42.0 
-1.0 5:87.0 12:686.0 14:8.0 
-1.0 12:43.0 14:42.0 
-1.0 1:28.0 4:4.0 7:1140.0 9:2.0 12:2941.0 13:8.0 14:95.0 16:2.0 18:15.0 
-1.0 1:2.0 3:140.0 12:3411.0 13:1.0 14:41.0 
-1.0 12:293.0 14:526.0 
