svm_type c_svc
kernel_type rbf
gamma 0.05
nr_class 3
total_sv 6636
rho -0.9623115105929662 -0.98120186479721 -0.5280572885636136
label 2 0 1
nr_sv 6233 274 129
SV
0.03795039290166968 0.01859362107076129 12:120239.0 
0.03794896165893641 0.01859362107076129 1:244.0 3:39.0 4:116.0 12:4967.0 14:276.0 
0.037948937842710195 0.018593620869111427 8:786.0 12:1387.0 14:2.0 
0.037948937842710195 0.018593620869097216 4:5.0 5:154.0 12:9379.0 14:190.0 18:5.0 
0.03484091148245022 0.017372175261572087 12:1369.0 14:71.0 
5.632436441509606E-4 0.780806187012855 12:1582.0 
0.038333964114830144 0.018841749560603138 8:141.0 12:1945.0 
0.037948937842710195 0.018593620869097216 8:136.0 12:36.0 14:2151.0 
0.037948727476554034 0.018585160947719337 3:915.0 5:27.0 9:15.0 12:29177.0 14:251.0 
0.03794746634540297 0.018585160947719337 3:32.0 4:134.0 12:2828.0 14:32.0 
0.03796055803722781 0.0185710381383844 8:3.0 12:1228.0 14:257.0 
0.03794495016395416 0.018585090852600405 4:47.0 5:58.0 12:1108.0 14:136.0 20:143.0 
0.037934063819004105 0.018584420204110885 3:48.0 12:19715.0 
0.03793406309817682 0.018584313621697324 1:1.0 4:1.0 7:7653.0 12:1443.0 14:132.0 16:40.0 
0.03793387860628167 0.018590593926234467 12:1288.0 14:66.0 
0.03793406224080609 0.01858410552579587 3:179.0 5:170.0 12:1469.0 14:358.0 
0.037934057392696674 0.018583902876999736 1:76.0 2:130.0 4:13.0 12:6577.0 13:73.0 14:146.0 16:13.0 
0.03784790662765586 0.019228568025598025 1:7.0 9:15.0 12:2470.0 14:44.0 
0.03793405466087019 0.018583902876999736 4:2.0 8:41.0 12:1884.0 14:198.0 20:51.0 
0.03793404956274443 0.018583505479846607 3:17.0 8:27.0 12:7035.0 
0.03793404879906098 0.018583457026716432 3:351.0 4:1.0 5:70.0 8:719.0 12:2770.0 14:276.0 
0.03793404879906098 0.01858336471585903 4:14.0 5:270.0 7:3455.0 8:6.0 12:1451.0 14:254.0 
0.03793404701540998 0.018580777810148996 12:6723.0 14:206.0 
0.03793404619083496 0.018580624579723204 12:8042.0 14:63.0 16:25.0 
0.03793404598715211 0.018580593305353832 4:1.0 5:27.0 12:9695.0 14:13.0 
0.03793404598715211 0.01858036633008292 1:318.0 4:20.0 5:15.0 12:13212.0 14:46.0 18:2.0 
0.03793404104472381 0.01858036631445631 5:31.0 12:3459.0 14:500.0 
0.03793403930345923 0.01858033111316648 4:17.0 8:10.0 12:10796.0 13:3646.0 14:509.0 18:24.0 
0.037934039351722404 0.018580085148810377 4:21.0 5:72.0 12:3903.0 13:1775.0 14:190.0 18:7.0 
0.03793403935125178 0.018580085148810377 3:4.0 5:1062.0 12:5560.0 14:512.0 18:17.0 
0.0378037376608627 0.01896731081968589 4:27.0 5:20.0 8:1.0 12:1654.0 14:36.0 
0.03775298473092362 0.018797151109274823 8:2.0 12:1556.0 14:31.0 
0.0379337572508473 0.018620042610959897 3:11.0 12:6211.0 14:188.0 
0.03793527470856245 0.018620082398130844 1:79.0 3:7.0 4:411.0 6:11.0 8:15.0 9:11.0 11:12.0 12:5262.0 13:2317.0 14:122.0 16:2.0 
0.037936544354253754 0.018620104482794386 3:8.0 12:1311.0 14:278.0 
0.03795086697979444 0.018620104482794386 1:9.0 3:2.0 12:3356.0 14:104.0 
0.037950866150942564 0.018620104482794386 1:195.0 4:4.0 5:359.0 8:19.0 12:836.0 13:8.0 14:130.0 
0.037950866150942564 0.0186194243257079 3:57.0 5:70.0 12:8896.0 14:349.0 16:35.0 18:46.0 
0.03795086592147523 0.018620503939823174 3:317.0 5:5.0 12:39147.0 14:2816.0 
0.03795086592147523 0.01862065449728134 1:524.0 4:4.0 5:273.0 12:1962.0 14:253.0 
0.03795086577058904 0.018620825288394094 1:132.0 4:11.0 5:25.0 8:12.0 12:5816.0 14:4175.0 
0.03795086577058904 0.018620825288394094 4:123.0 9:8.0 12:1817.0 13:7.0 14:10.0 
0.03795053035356166 0.01861939789908057 3:553.0 8:2.0 12:3023.0 
0.03795053035356166 0.018617913982121814 3:1.0 6:3.0 8:112.0 10:384.0 12:4857.0 
0.03795053034890483 0.018617913982121814 12:2186.0 14:103.0 18:17.0 
0.03795053034890483 0.018617909864210913 5:10.0 12:15716.0 
0.037747254776173855 0.019209386700584863 1:3.0 12:3261.0 14:50.0 
0.03795053034877238 0.018617283569620835 5:558.0 12:7122.0 14:79.0 
0.03795053034877238 0.018617164055095725 4:29.0 7:3722.0 8:37.0 12:1413.0 14:138.0 
0.037714143233533115 0.01893094743238627 2:2.0 5:31.0 12:1423.0 14:73.0 
0.037950529554824086 0.018617145864729234 8:253.0 12:2647.0 
0.03795052037826541 0.01861700779458242 3:815.0 12:1989.0 14:7076.0 
0.03795022424725636 0.018617004914352975 12:5540.0 14:106.0 16:12.0 
0.03795019157378793 0.018616996053979595 4:1.0 7:6262.0 12:6101.0 14:2170.0 20:32.0 
0.037688459178148004 0.01887231258130101 5:5.0 12:2054.0 14:65.0 
0.037950191557049595 0.01861665082731806 1:37.0 12:2753.0 14:37.0 
0.037950191557049595 0.018616254030954738 4:948.0 12:65.0 
0.03794951827449733 0.018616254030954515 8:331.0 12:321.0 14:1459.0 
0.03794927935642123 0.018616117203988314 1:47.0 4:27.0 8:3.0 12:1842.0 13:3396.0 14:104.0 
0.037949256602710535 0.01861606261132087 1:12.0 3:4.0 7:7319.0 12:2240.0 14:389.0 
0.03794924024099833 0.018616024448347923 3:4.0 5:57.0 8:2.0 12:5689.0 14:127.0 
0.03794924024099833 0.018615678407716052 4:2.0 5:23.0 12:3955.0 13:1.0 14:184.0 18:21.0 
0.03345884562837226 0.016491112242324878 12:4474.0 
0.03776251131053626 0.019228568024529213 8:16.0 12:4587.0 
0.03794924024099833 0.018611867632941537 8:4.0 12:3929.0 14:148.0 
0.03794924024074087 0.018611759526672655 1:93.0 3:31.0 4:100.0 12:5618.0 14:410.0 
0.03775290674589371 0.018760429801443823 12:2124.0 14:34.0 
0.03794923989616045 0.018611759526671823 1:273.0 8:2.0 9:15.0 12:1815.0 14:396.0 
0.03771415957758317 0.0189613397937356 1:16.0 4:1.0 12:1408.0 14:42.0 
0.03794923989616045 0.01861159373396981 8:8.0 12:44781.0 14:271.0 18:48.0 
0.037940130124463844 0.01861159373396981 8:2.0 12:3367.0 14:6474.0 
0.03683765301532817 0.01840827123723826 12:3546.0 14:1.0 
0.037940130124463844 0.018682952239128192 2:26.0 5:467.0 8:8.0 12:7704.0 14:293.0 16:1.0 18:7.0 
0.03794143328759303 0.018682254944310195 1:1.0 3:357.0 9:12.0 12:2815.0 
0.03794143328759303 0.018682254944310195 8:2612.0 12:3470.0 14:13.0 
0.03794369510828921 0.018656750602204286 12:3825.0 14:7578.0 
0.037954282111269555 0.018656882451585532 5:11.0 8:286.0 12:1529.0 14:312.0 
0.037954277187163155 0.018656128088988144 3:6.0 12:6396.0 14:367.0 
0.03216982054797455 0.01557235955515801 12:4407.0 
0.03795425982107675 0.018655454680239547 4:53.0 12:7595.0 14:36.0 
0.03789856025791277 0.018831827436581627 8:12.0 12:5796.0 14:33.0 
0.03795425903153382 0.01865535261785839 1:70.0 4:7.0 8:20.0 9:86.0 12:5147.0 13:235.0 14:396.0 
0.03667909655132945 0.01833892238267254 8:40.0 12:2192.0 
0.037845969123509626 0.018570958043372277 5:47.0 12:2982.0 
0.03795425903145544 0.018653410818741667 1:41.0 8:1524.0 9:1.0 
0.03795425903145544 0.01865335631321352 3:1.0 4:3.0 5:168.0 12:2854.0 14:247.0 18:13.0 
0.037954258438097854 0.018653322302639663 12:1157.0 14:121.0 
0.03749788514231611 0.018708733716076786 12:1577.0 14:329.0 
0.03795423010066995 0.018652680825254897 1:13.0 7:5297.0 9:1.0 12:491.0 13:13.0 14:41.0 
0.03795417378380944 0.01865067577774049 1:3.0 3:18.0 5:118.0 8:36.0 12:1117.0 14:259.0 
0.03410645328049844 0.01670024020373556 12:1732.0 
0.03795388202067096 0.018650008588553757 5:314.0 12:11316.0 14:70.0 18:47.0 
0.024984628628987926 0.01249298473627497 1:1.0 9:1.0 12:2510.0 
0.03795387650780002 0.01864772029845918 1:1.0 4:21.0 5:3.0 7:804.0 8:16.0 9:161.0 12:1998.0 14:40.0 18:3.0 
0.037433975328581226 0.01843397619295911 12:3541.0 18:9.0 
0.03719755962941901 0.018537623779856405 12:1675.0 
0.03795379648677699 0.01864772029845918 5:79.0 12:8199.0 14:8.0 
0.03795377830943364 0.018647633544173092 3:5.0 4:4.0 5:409.0 12:17973.0 14:259.0 
0.03795322021225633 0.01864706133715055 3:10.0 5:894.0 8:4.0 12:2284.0 
0.03795319683953918 0.018647051851303886 8:175.0 12:2857.0 14:4.0 
0.03795317956027344 0.018644051032320086 4:1.0 12:1189.0 14:2546.0 
0.037953179508161516 0.01864402312647695 4:9.0 8:22.0 12:3536.0 14:285.0 18:10.0 
0.037953179508161516 0.01864401711281527 3:1.0 4:18.0 5:1.0 12:9625.0 14:21.0 
0.037953173853228384 0.018643977789939314 3:10.0 5:1.0 7:1547.0 8:41.0 9:11.0 12:14522.0 14:12.0 
0.037953173853228384 0.0186439227188942 4:1.0 5:234.0 12:7194.0 14:323.0 
0.037939758606953755 0.01840328609008135 12:2362.0 14:68.0 
0.037953173793590256 0.0186439227188942 1:224.0 3:346.0 4:1.0 5:68.0 12:5636.0 14:771.0 18:23.0 
0.037953173793590256 0.018642545173426006 4:135.0 5:90.0 12:2851.0 14:57.0 
0.037953165396838906 0.01864222692833334 5:115.0 12:1738.0 
0.03774245150184907 0.018776516023437273 12:2977.0 14:14.0 
0.03795316539683835 0.018637985058640893 1:181.0 4:58.0 5:21.0 8:24.0 9:5.0 12:4528.0 13:1827.0 14:382.0 
0.03480270299916555 0.017355138453852392 3:7.0 12:6564.0 
0.0042160768320862255 0.0 12:1880.0 
0.037953165396837796 0.018637985058640893 3:150.0 4:7.0 12:8072.0 13:179.0 
0.03795188343927364 0.018637474209231064 4:465.0 12:6116.0 13:91208.0 14:83.0 20:1.0 
0.0379507084474468 0.01863731498015253 1:3.0 3:1.0 8:428.0 9:1.0 12:1929.0 
0.03794951672817326 0.018636984069339335 8:210.0 12:5461.0 
0.03794924486393425 0.018718959886718067 3:98.0 12:5482.0 14:45.0 16:9.0 
0.03794626605011492 0.018718957944125147 2:20.0 7:7048.0 12:575.0 14:1174.0 18:71.0 
0.037910037924622886 0.018720260496029262 4:8.0 5:120.0 9:1.0 12:6694.0 14:22.0 18:7.0 
0.037909750636557826 0.01872183851876469 1:4.0 2:49.0 3:134.0 4:63.0 5:247.0 6:24.0 8:995.0 12:1627.0 15:50.0 17:7.0 18:2059.0 19:34.0 
0.03791935481555592 0.01872183851876469 5:15.0 8:14.0 12:5146.0 14:51.0 
0.037922775676830334 0.018721838510264044 8:4.0 12:6941.0 13:273.0 
0.037922775676830334 0.018721838510264044 12:7664.0 14:273.0 
0.03780373965105127 0.018963527040586174 12:1323.0 14:73.0 
0.03792228340112558 0.018721831057934013 3:2.0 5:48.0 12:16051.0 14:317.0 16:8.0 18:1.0 
0.03704785676953942 0.018491623021360204 3:2.0 8:1.0 12:2246.0 14:86.0 
0.03792184965843637 0.0187218310578246 1:5.0 12:7443.0 14:27.0 16:38.0 
0.0376425840027691 0.01847364488698633 12:5981.0 
0.03792184965843637 0.01872180371960319 1:108.0 3:925.0 4:2.0 8:10.0 12:1929.0 14:199.0 
0.03792184965843637 0.01872180371960319 1:150.0 4:5.0 7:1774.0 9:34.0 12:980.0 14:246.0 
0.037345265646730574 0.018399895417221757 12:9318.0 14:160.0 
0.037919531009913854 0.018721793165234313 1:10.0 3:362.0 4:24.0 5:615.0 7:451.0 8:464.0 9:270.0 11:53.0 12:2795.0 13:72.0 17:200.0 
0.03791905142038143 0.018721793165234313 9:4.0 12:1377.0 14:134.0 
0.03742103177821149 0.018834568667515594 9:2.0 12:1938.0 14:47.0 
0.03791651258578188 0.018721750032716755 4:7.0 12:1312.0 14:2091.0 
0.03791639848468059 0.018721750032188733 12:64.0 14:2658.0 
0.03791347796320571 0.018721750032188733 5:23.0 8:13.0 12:11849.0 14:92.0 
0.03791327993050975 0.01872164978109564 8:3821.0 12:174.0 
0.037909717832723844 0.01872164978109564 8:432.0 12:13418.0 
0.03737722835625301 0.018599939623329564 5:10.0 12:1001.0 14:66.0 
0.037909161970305416 0.018721198907839465 3:52.0 8:10.0 12:6987.0 14:125.0 
0.03790906936473504 0.018721166561130376 4:26.0 5:52.0 12:1865.0 14:5.0 
0.03790897675327748 0.018721161525737384 5:53.0 8:2.0 12:1507.0 14:126.0 18:65.0 
0.03790897675327748 0.01872073034892141 1:15.0 7:697.0 12:4143.0 13:11.0 14:617.0 
0.03790767128140066 0.018720051370330892 1:1.0 4:146.0 5:552.0 12:4551.0 14:309.0 
0.03790532736099661 0.0187181410619493 1:2.0 3:2.0 5:47.0 8:59.0 12:1761.0 13:1570.0 14:256.0 18:22.0 
0.037904987266983714 0.0187181410619493 5:140.0 7:1082.0 12:1414.0 14:1972.0 
0.020924262035244345 0.0186393324054608 12:2718.0 
0.037903889577442396 0.018717956836983685 7:3725.0 12:313.0 
0.03790301166358062 0.01871706402536294 3:505.0 12:2691.0 
0.03784480649641575 0.01857094134769066 1:4.0 4:2.0 12:4915.0 14:35.0 
0.03790300184304157 0.018716951226317335 12:26734.0 14:69.0 
0.0378995753616721 0.018716910621752347 12:6353.0 14:367.0 
0.037899572917765745 0.01871691062162062 5:56.0 8:2.0 12:5347.0 14:423.0 18:27.0 
0.037899570531685134 0.01871610022978326 1:8.0 3:71.0 7:101.0 8:16.0 12:3784.0 
0.037899620243453225 0.018715469942520768 8:181.0 12:827.0 14:1451.0 
0.03710640372414231 0.018506246026220252 12:1501.0 14:37.0 
0.03789961956123267 0.019268228321013492 4:254.0 5:187.0 8:11.0 12:9141.0 14:381.0 
0.03782337893583304 0.018818607415515054 12:1963.0 14:71.0 
0.03790144360046538 0.019268228321013492 1:137.0 2:2.0 7:655.0 12:567.0 14:230.0 
0.03719748106839221 0.01853819981601984 12:1726.0 14:32.0 
0.03790143849252203 0.01926984981495994 1:2.0 3:31.0 4:1.0 7:747.0 12:1305.0 14:1696.0 18:3.0 
0.03790457679088649 0.01926984981495994 8:525.0 12:365.0 14:2438.0 
0.021827995722404476 0.011282054218677172 12:1891.0 
0.03790458434127686 0.01926984981495994 1:1.0 3:70.0 9:15.0 12:6299.0 
0.0379084966300397 0.01926984981495994 3:574.0 12:104.0 14:530.0 
0.03790849647906075 0.01926984981495994 4:6.0 12:29323.0 18:6.0 
0.03779988349583824 0.01924449890288732 8:22.0 9:4.0 12:1485.0 14:98.0 
0.037912511540267424 0.01926984981495994 7:469.0 12:669.0 
0.02064836006623328 0.009228650701184726 12:1272.0 14:55.0 
0.03790986060583018 0.01926984981495994 8:4.0 9:53.0 12:4638.0 
0.03722943528993383 0.019109776204929207 12:6147.0 14:17.0 16:2.0 
0.03776087876731049 0.019209386715488386 8:49.0 12:2491.0 
0.03790845701495388 0.01926984981495994 3:2920.0 4:53.0 12:6333.0 14:129.0 
0.03790802434572821 0.019272087932013515 9:2.0 12:735.0 13:8017.0 14:16.0 18:1.0 
0.03790744104589816 0.019272340196097637 5:210.0 12:1704.0 
0.02885066991229024 0.014348271649239797 3:2.0 12:7651.0 14:19.0 
0.037906931174485126 0.019272340196097637 1:2.0 8:30.0 12:2205.0 14:46.0 
0.03790640479183022 0.019272340196097637 1:9.0 4:1.0 5:24.0 8:6.0 9:9.0 12:3908.0 14:245.0 18:40.0 
0.0379061696859308 0.019272340196097637 4:69.0 5:105.0 12:1667.0 14:138.0 
0.03790463185551568 0.019279732336691113 1:106.0 9:3.0 12:2551.0 14:206.0 
0.831686874278424 0.3047542948249857 3:4.0 12:2800.0 
0.037896254220108894 0.019280318182269163 4:2.0 7:3322.0 12:2922.0 14:246.0 
0.037895731932185095 0.019291167702195355 1:5.0 3:19.0 4:27.0 8:317.0 9:826.0 11:1179.0 12:139.0 15:36.0 
0.0 0.4653924442183196 12:2535.0 
0.03776090880991554 0.018559569404855036 12:2703.0 14:202.0 
0.037897766355646956 0.019291167702195355 4:2.0 8:4.0 12:9032.0 14:65.0 
0.03789735621782314 0.01929129713294986 3:1.0 5:432.0 12:5684.0 14:139.0 
0.03789405499956294 0.01929129713294986 1:2.0 3:498.0 5:11.0 7:641.0 12:494.0 14:83.0 
0.5603870633171822 0.7777816276215909 4:1.0 12:2349.0 
0.03789430593129961 0.01929129713294986 12:6149.0 14:79.0 
0.03789320894816367 0.01929129713294986 1:20.0 3:16.0 4:1.0 5:111.0 8:2.0 12:5442.0 14:303.0 
0.03789320894816367 0.01929207817089551 4:4.0 5:600.0 12:3021.0 14:27.0 
0.037892467394078366 0.01929207817089551 4:1.0 8:6.0 9:10.0 12:1773.0 14:181.0 
0.0378923341106811 0.01929207817089551 3:164.0 12:3103.0 
0.03789233204155845 0.01929207817089551 5:140.0 12:10586.0 14:138.0 16:4.0 
0.03789233204155845 0.01929207817089551 1:3.0 4:25.0 8:12.0 12:8661.0 14:256.0 
0.03789233204155734 0.01929207817089551 4:488.0 12:6017.0 14:39.0 
0.03795855096555628 0.019186784420798464 3:25.0 12:1071.0 
0.03789233204155634 0.01929207817089551 12:13240.0 14:134.0 
0.03789233204155634 0.01929207817089551 3:283.0 4:1.0 5:7.0 12:1314.0 14:15.0 
0.03789154190869476 0.01929207817089551 1:390.0 3:2.0 4:10.0 9:6.0 12:970.0 14:81.0 
0.03788974484678603 0.01929207817089551 4:17.0 5:42.0 12:2461.0 14:135.0 
0.037889678236318 0.01929207817089551 4:11.0 12:9385.0 14:31.0 
0.037888686026906315 0.01929207817089551 4:133.0 5:331.0 9:6.0 12:6081.0 14:303.0 
0.037495688030951047 0.01845775783856396 8:46.0 12:2271.0 
0.03788636725327216 0.01929207817089551 3:24.0 4:351.0 8:5.0 12:2879.0 14:5.0 
0.03750236576949828 0.018713197870828424 12:3311.0 14:12.0 
0.03773970871137938 0.018722466277379002 1:2.0 12:1061.0 14:23.0 
0.03743201698328846 0.018539735660859646 12:2095.0 14:37.0 
0.03788616262689054 0.01929207817089551 3:3.0 8:8.0 12:1691.0 13:253.0 14:120.0 
0.0378808512295673 0.01929207817141021 7:981.0 12:2614.0 14:3046.0 16:2.0 
0.0378808512295673 0.01929207817141021 1:8.0 4:1.0 7:264.0 8:4.0 9:1.0 12:2439.0 14:11.0 
0.037740872137815074 0.018803195400596717 4:14.0 12:1300.0 14:84.0 
0.03774094412593737 0.018755421332099176 12:3453.0 14:125.0 
0.0378808512295673 0.019294839071228642 8:2.0 12:13637.0 14:90.0 16:39.0 
0.0378808512295673 0.019294839071228642 3:2.0 5:762.0 8:31.0 12:4756.0 14:2568.0 18:2.0 
0.03787919367106557 0.019294839071228642 1:29.0 4:7.0 5:82.0 9:6.0 12:1810.0 14:93.0 
0.034359018619028125 0.016716727312619306 1:5.0 12:1000.0 14:111.0 
0.03787915506632339 0.019294839071228642 1:107.0 3:25.0 4:106.0 5:1.0 12:3765.0 14:171.0 
0.03770145947123288 0.01875930458317482 12:2041.0 14:33.0 
0.03771414754700392 0.01895941877367402 5:10.0 12:5355.0 14:234.0 
0.037877981856621445 0.019295042157786157 4:451.0 8:42.0 9:19.0 12:18922.0 14:14.0 
0.03781409493032195 0.018818597302296847 1:7.0 9:4.0 12:3931.0 14:105.0 
0.03784622951220101 0.019228568025660475 8:6.0 12:1422.0 14:7.0 18:20.0 
0.03796096444588298 0.018369726255305974 1:1.0 8:1.0 9:8.0 12:5853.0 14:24.0 
0.03787748479905545 0.019295042157786157 3:26.0 4:5.0 12:1396.0 14:36.0 
0.037876161353843085 0.019295042157786157 1:16.0 5:1.0 7:29.0 9:1.0 12:3041.0 14:9.0 
0.03787611663185858 0.019295042157786157 1:2.0 8:8.0 12:1629.0 14:125.0 18:11.0 
0.03658751420664763 0.018323440410446645 12:3115.0 14:20.0 
0.03785305468101152 0.019295104090438553 4:5.0 12:1121.0 14:67.0 
0.03785305468101152 0.019295104090438553 1:28.0 4:1.0 7:4504.0 9:1.0 12:1013.0 14:95.0 
0.03785426708416423 0.019295104090438553 4:49.0 5:157.0 9:6.0 12:1973.0 14:5.0 
0.03750419329181368 0.018727843355403617 1:4.0 12:3248.0 14:120.0 
0.03785426708416423 0.019295104090438553 4:57.0 5:49.0 12:2518.0 14:181.0 18:32.0 20:19.0 
0.03819554808750636 0.01922856802551587 12:2324.0 14:78.0 
0.03785426708416423 0.019295104090438553 1:4.0 4:13.0 7:4580.0 8:38.0 9:46.0 12:960.0 14:309.0 
0.0019015575631272097 0.0 12:1514.0 
0.03785426708416423 0.019295104090438553 3:48.0 12:1095.0 14:34.0 
0.03785423830614115 0.019295104090438553 4:8.0 12:31065.0 14:54.0 
0.03785423830614115 0.019295104090438553 4:12.0 7:933.0 9:4.0 12:1794.0 14:211.0 
0.0 0.012459159644618412 12:2644.0 14:4.0 
0.037853931536659335 0.01930443679157179 1:29.0 3:126.0 8:41.0 12:5186.0 14:313.0 18:534.0 
0.03793374287536383 0.01886245571387549 12:2076.0 14:55.0 
0.037853931536659335 0.01930443679157179 1:131.0 4:136.0 8:9.0 9:38.0 12:981.0 14:122.0 20:948.0 
0.037853931536659335 0.01930443679157179 7:2241.0 12:1131.0 14:50.0 
0.037853931536659335 0.01930443679157179 1:85.0 4:28.0 8:1.0 9:286.0 12:431.0 14:3834.0 
0.02002929305818406 0.009663577844404858 4:2.0 12:1782.0 
0.03750254488407345 0.018446152962936335 9:6.0 12:1432.0 14:18.0 
0.03785393153665928 0.01930443679157179 1:265.0 5:47.0 12:2481.0 14:169.0 
0.03785393153665928 0.01930443679157179 1:31.0 5:149.0 9:3.0 12:1114.0 14:82.0 20:237.0 
0.03785393153665928 0.01930443679157179 5:1.0 12:11947.0 14:1041.0 
0.03785393153665928 0.01930443679157179 12:6768.0 14:920.0 18:25.0 
0.037853929794804786 0.01930443679157179 4:73.0 5:166.0 7:100.0 12:1525.0 14:24.0 
0.037857664255562806 0.01930443679157179 4:91.0 12:108716.0 14:339.0 
0.037958550903537336 0.01918678438859489 3:1.0 4:5.0 8:2.0 12:6219.0 14:77.0 
0.03655965463226317 0.018024400609772395 8:11.0 12:3060.0 
0.037221144871040945 0.018520845130803987 12:1035.0 14:101.0 18:5.0 
0.037858617379253334 0.01930443679157179 1:6.0 8:2.0 12:8437.0 14:121.0 
0.037858617379253334 0.01930443679157179 5:188.0 12:1810.0 14:63.0 
0.03785959039232201 0.01930443679157179 5:26.0 12:2732.0 14:164.0 
0.03785959039232201 0.01930443679157179 5:150.0 8:10.0 12:1130.0 14:169.0 
0.037859592966883515 0.01930443679157179 3:66.0 12:1954.0 
0.03785959296688207 0.01930443679157179 1:73.0 3:66.0 4:3.0 12:1681.0 14:184.0 20:7.0 
0.03785959296688207 0.01930443679157179 1:6.0 3:101.0 12:4930.0 14:201.0 
0.03771414418654978 0.01894284030932042 9:9.0 12:2278.0 14:107.0 
0.022257846822741244 0.010615191428496254 12:1692.0 
0.03785959296688207 0.01930443679157179 3:80.0 5:84.0 8:26.0 12:1233.0 14:297.0 
0.037861004942841114 0.01930443679157179 8:18.0 12:16458.0 14:54.0 
0.03786142029854295 0.01930443679157179 7:55.0 12:3895.0 14:153.0 
0.03786211111728355 0.01930443679157179 3:93.0 4:7.0 8:8.0 9:95.0 12:2716.0 14:197.0 18:52.0 
0.037862109075577244 0.01930443679157179 2:3.0 5:52.0 9:382.0 12:5004.0 14:392.0 16:18.0 
0.037862109075577244 0.01930443679157179 3:66.0 12:3759.0 14:166.0 
0.037862109075577244 0.01930443679157179 1:560.0 4:2.0 5:1.0 8:2.0 9:40.0 12:1129.0 14:572.0 
0.0377141593891816 0.01896095093698391 3:1.0 4:21.0 5:36.0 12:1655.0 14:40.0 
0.017822141931398527 0.010765493722708352 12:3240.0 
0.037862109075577244 0.01930443679157179 1:2138.0 5:449.0 8:418.0 12:368.0 
0.037862109075577244 0.01930443679157179 4:18.0 5:181.0 12:2350.0 14:712.0 
0.037862109075577244 0.01930443679157179 5:73.0 12:3009.0 14:56.0 
0.036126866989466544 0.018052497042210958 8:36.0 12:2326.0 14:4.0 
0.03786210907557713 0.01930443679157179 5:1473.0 12:4189.0 14:228.0 
0.037646207196047 0.018754215807733343 4:28.0 7:10.0 12:6263.0 14:62.0 
0.03746299647881751 0.01862673404870313 5:8.0 12:3010.0 14:42.0 
0.03786210907557713 0.01930443679157179 4:11.0 5:31.0 12:1393.0 14:56.0 
0.03786210643443688 0.01930443679157179 1:54.0 2:2.0 12:984.0 14:1366.0 
0.03786210643443688 0.01930443679157179 12:12031.0 14:68.0 16:34.0 
0.03786210643443688 0.01930443679157179 1:1.0 4:6.0 12:451.0 14:4875.0 
0.03786210643443688 0.01930443679157179 4:142.0 5:27.0 12:1294.0 14:89.0 
0.037862103793296964 0.01930443679157179 4:1290.0 12:390.0 
0.037862103793296964 0.01930443679157179 3:48.0 12:546.0 14:1736.0 
0.028407772516357056 0.014045056313821247 4:4.0 12:1476.0 
0.03786177206476765 0.01930443679157179 5:219.0 12:1024.0 14:82.0 
0.03786177206476765 0.01930443679157179 4:16.0 5:507.0 8:6.0 12:7847.0 14:107.0 
0.03786177206476765 0.01930443679157179 1:273.0 4:1.0 5:53.0 12:359.0 14:298.0 
0.0377381131290752 0.018559020343401178 8:2.0 12:2926.0 14:423.0 
0.03786177206476765 0.01930443679157179 3:9.0 7:4087.0 12:580.0 20:727.0 
0.03796056022219885 0.018562928338424156 1:3.0 12:3144.0 14:118.0 
0.03786143074271853 0.01930443679157179 3:10.0 4:1.0 8:17.0 12:7607.0 14:97.0 
0.03786143074271853 0.01930443679157179 1:1208.0 4:144.0 12:1482.0 14:106.0 
0.037861055398788035 0.01930443679157179 12:5578.0 14:79.0 
0.03792169468057627 0.019109776262044242 12:6212.0 14:60.0 
0.037861055398788035 0.01930443679157179 1:84.0 4:2.0 8:10.0 9:6.0 12:1435.0 13:207.0 14:271.0 
0.03786063126453898 0.01930443679157179 12:8578.0 14:2085.0 
0.03786063126453898 0.01930443679157179 1:1.0 8:163.0 12:3677.0 14:2.0 
0.03777740820260314 0.01918678445679045 1:15.0 4:1.0 8:1.0 12:3588.0 
0.03785902024310506 0.01930443679157179 5:3.0 12:9311.0 14:161.0 16:10.0 18:74.0 
0.03785887992634468 0.01930443679157179 12:11932.0 14:44.0 
0.037858876879234504 0.01930443679157179 4:97.0 5:56.0 8:20.0 12:5188.0 14:145.0 18:42.0 
0.03840578924373733 0.01930443679157179 12:8264.0 
0.037779920462331584 0.018963524657374664 8:17.0 12:4836.0 
0.037855889708260704 0.01930443679157179 12:63.0 14:3837.0 
0.03785586019010889 0.01930443679157179 4:13.0 5:142.0 12:2327.0 14:1637.0 
0.037817601644339505 0.01930443679157179 4:40.0 12:1514.0 14:41.0 
0.03781299371871655 0.01930443679157179 5:503.0 8:112.0 12:5970.0 14:588.0 
0.03781365184815971 0.01930443679157179 3:138.0 12:11841.0 14:13.0 16:10.0 
0.037814779514999675 0.01930443679157179 5:215.0 12:36795.0 14:84.0 
0.037814768110513486 0.01930443679157179 1:36.0 8:2.0 9:22.0 12:5947.0 14:94.0 
0.03751890791321344 0.01887231142770912 12:1950.0 14:35.0 
0.035506073394483584 0.017741950474306156 5:11.0 12:1068.0 
0.03781472768899474 0.01930443681090599 8:66.0 12:17399.0 14:4.0 
0.03775275917631471 0.018801158634044413 3:3.0 4:4.0 8:2.0 12:7716.0 13:4.0 14:21.0 
0.037814705843986274 0.01930443681090599 3:5.0 5:334.0 12:1273.0 14:310.0 
0.016016922229199964 0.008874137355984305 12:3141.0 
0.03781468299016033 0.019305440014801944 8:3130.0 12:1465.0 14:7962.0 
0.016373462376595815 0.00818672240127305 12:3793.0 
0.03781465452364846 0.01930556768027558 3:644.0 12:18438.0 14:3.0 
0.03781468113977776 0.01930902318016592 12:1971.0 14:394.0 
0.03781467952230483 0.01931159706751162 7:1444.0 9:6.0 12:5867.0 14:136.0 18:15.0 
0.03781467946544276 0.01931159706751162 5:115.0 8:59.0 12:15592.0 14:306.0 
0.037814679348900815 0.019312067371217823 12:11913.0 
0.03155088523315841 0.01572622941006513 4:4.0 12:1451.0 14:60.0 
0.03747105327700301 0.018706284077680935 12:886.0 14:85.0 
0.03776347639259586 0.01851045319069081 4:1.0 5:32.0 12:1655.0 14:8.0 
0.037814679348900815 0.019312067371217823 12:1731.0 14:3974.0 
0.03781467863537219 0.019316048815767706 3:78.0 4:2.0 5:197.0 7:348.0 12:4659.0 14:77.0 16:2.0 
0.03794849414528095 0.018879789859026108 3:1.0 4:5.0 12:1964.0 14:85.0 
0.037779923762886525 0.018961339671618116 12:7082.0 
0.03781467863537219 0.019316048815767706 12:15824.0 
0.03781467838307956 0.019316048818062426 12:9309.0 
0.03803631547726333 0.019186784463224027 12:1445.0 14:80.0 
0.03777983306552918 0.01896133255864474 8:17.0 12:1106.0 
0.03781471546158971 0.019316048818062426 12:2864.0 14:115.0 
0.03758881544635434 0.018901634725952687 4:8.0 12:5357.0 14:243.0 16:6.0 
0.03781471374513684 0.01931604882036919 4:53.0 5:570.0 9:312.0 12:5400.0 14:292.0 16:7.0 18:24.0 
0.03781471374431561 0.01931604882036919 1:42.0 5:24.0 9:8.0 12:2546.0 14:9.0 18:31.0 
0.037814713741557204 0.0193160488203713 8:76.0 12:3630.0 14:8.0 
0.037814713741557204 0.0193160488203713 3:80.0 12:1047.0 14:160.0 
0.037814710699473564 0.019316048822675902 1:2.0 9:25.0 12:1222.0 14:357.0 
0.03781471009262166 0.019316048822675902 9:1182.0 12:5582.0 14:21.0 
0.0 0.011893734654428612 4:1.0 12:3043.0 
0.03781471009262144 0.019316048822675902 4:16.0 5:24.0 12:2194.0 14:188.0 
0.037814710028676646 0.019316048822675902 4:1.0 5:465.0 12:8277.0 14:327.0 
0.037814710028676646 0.019316048822675902 1:138.0 4:9.0 5:14.0 12:6387.0 14:297.0 16:14.0 
0.03781470025073347 0.019316048822675902 3:130.0 4:51.0 5:184.0 12:1496.0 14:14.0 
0.03781470025073347 0.0193160488226794 1:6.0 4:1.0 8:105.0 9:124.0 12:2696.0 14:209.0 
0.03777977188526044 0.019005003282343114 1:17.0 8:2.0 12:3118.0 14:32.0 16:2.0 
0.03781469811579613 0.01931604882268112 4:3.0 5:750.0 12:14560.0 14:192.0 
0.03781469746067706 0.019316048824982668 1:121.0 4:50.0 7:8.0 12:321.0 14:167.0 20:597.0 
0.03781469381627667 0.019316048824982668 12:9744.0 14:130.0 
0.03781469381627667 0.019316048824982668 1:810.0 4:1.0 9:6.0 12:1800.0 14:224.0 
0.03779420721822929 0.019316048824982668 12:9365.0 14:163.0 
0.03779246637694206 0.019316048824982668 1:9.0 4:1.0 5:62.0 8:2.0 9:24.0 12:1246.0 14:155.0 
0.037791673374942936 0.019316048824982668 1:8.0 8:10.0 12:1566.0 13:19.0 14:97.0 
0.0377915101024725 0.019316048824982668 1:22.0 3:12.0 7:8.0 12:1342.0 14:76.0 
0.03778951895594779 0.019316048824982668 12:31145.0 
0.03778951799981173 0.019316048824982668 8:4.0 12:3243.0 14:225.0 
0.037788533199085206 0.019316048824982668 3:5.0 4:2.0 5:558.0 8:29.0 12:5034.0 14:286.0 16:2.0 
0.03778779843626506 0.019316048824982668 12:566.0 14:3201.0 
0.037827979607613804 0.01899952961844853 12:5198.0 
0.0377818158040511 0.019316048824982668 8:28.0 12:555.0 14:3219.0 
0.0377818158040511 0.019316060162139603 4:42.0 5:91.0 12:1521.0 14:79.0 
0.03777596067170602 0.019316060162139603 3:758.0 5:59.0 12:1721.0 14:78.0 18:17.0 
0.03792169459961775 0.025507006033334945 12:3673.0 
0.03784794505558037 0.019228568025641324 5:7.0 12:3627.0 14:28.0 
0.03733951884251219 0.01932183760592393 8:3820.0 14:1.0 
0.03777505554545424 0.019321837605923986 1:68.0 3:73.0 9:1.0 12:3797.0 13:1967.0 14:229.0 16:2.0 18:2.0 
0.03777505554545424 0.019323767296581695 4:8.0 5:194.0 9:7.0 12:6281.0 14:178.0 18:9.0 
0.037772225791479375 0.019323767296582417 1:169.0 2:6.0 3:1.0 4:28.0 7:9.0 8:62.0 12:10132.0 13:614.0 14:270.0 
0.03777185295566299 0.019325891680326612 4:1.0 7:416.0 12:951.0 14:24.0 
0.029011686513244886 0.014505845841708366 12:6422.0 16:4.0 
0.03792172390208787 0.019109775549896735 12:1089.0 14:64.0 
0.0377713399493092 0.019325891680326612 5:594.0 12:6320.0 14:29.0 
0.03775591864673189 0.019325891680326612 5:91.0 12:1354.0 14:647.0 
0.0377558752438798 0.019325891680326612 7:143.0 12:2704.0 18:5.0 
0.037757004286482154 0.019325891680326612 4:20.0 5:252.0 12:765.0 14:54.0 
0.02230443405745408 0.010643518979257693 12:4048.0 
0.03775514289609677 0.019325891680326612 5:84.0 12:3918.0 14:11.0 
0.037754957685792345 0.019325891680326612 4:1.0 5:98.0 12:1074.0 14:128.0 16:2.0 
0.037754916379682035 0.019325891680326612 8:5591.0 14:6.0 
0.03775263978768151 0.019325891680326612 7:110.0 12:3491.0 
0.03774410958083907 0.019234663079695125 8:2289.0 12:41.0 14:5.0 
0.03775263978768151 0.019325891680326612 4:461.0 5:215.0 9:23.0 12:1130.0 14:531.0 
0.037812793119241295 0.018805921990810603 12:1311.0 14:119.0 
0.03775166844674693 0.019325891680326612 5:198.0 12:4878.0 14:306.0 
0.03775165460179086 0.019325891680326612 8:2.0 12:5948.0 14:124.0 16:54.0 
0.03775165460179086 0.019325891680326612 1:1.0 3:39828.0 12:1995.0 14:1918.0 
0.03775164703580269 0.019325891680326612 4:3.0 7:2663.0 8:4.0 12:335.0 
0.03775089617708699 0.019325891680326612 4:12.0 5:80.0 12:5200.0 14:148.0 
0.03774813515161746 0.019325891680326612 12:5870.0 14:551.0 
0.037746279669636174 0.019325891680326612 1:9.0 2:3.0 3:53.0 6:19.0 8:2133.0 10:3.0 12:2037.0 15:37.0 17:680.0 
0.037744636479748794 0.019325891680326612 5:151.0 12:4342.0 14:114.0 
0.03653875419089936 0.018263515628085092 12:949.0 14:44.0 
0.037744296020238044 0.019325891680326612 1:3.0 5:8.0 12:2751.0 14:197.0 
0.037744272941753476 0.019325891680326612 12:97.0 14:5827.0 
0.03339016973502401 0.016557304251069993 12:3629.0 
0.03664843091023921 0.018323021283164126 3:2.0 4:3.0 12:9915.0 14:8.0 
0.037949797238269745 0.018834579326748258 1:3.0 3:13.0 12:1600.0 14:14.0 
0.037744242237054415 0.019325891680326612 3:1.0 4:865.0 5:452.0 12:21002.0 13:250.0 14:94.0 16:8.0 18:9.0 
0.07856198365575556 0.019257804363005226 12:4764.0 
0.03774422042004444 0.019325891680326612 4:86.0 8:4.0 12:3031.0 14:83.0 
0.0377442145962541 0.019325891680326612 4:1.0 5:420.0 12:1453.0 14:145.0 
0.03774421100476694 0.019325891680326612 1:9.0 4:2.0 8:8.0 12:1775.0 14:428.0 
0.037899127265954846 0.018841564207951633 4:5.0 8:4.0 9:8.0 12:1426.0 14:50.0 
0.03774420792497174 0.019325891680326612 4:810.0 5:705.0 8:4.0 12:4038.0 14:312.0 
0.03667864413126067 0.01834344434830132 3:9.0 12:5386.0 
0.03774132147310083 0.01876008810489621 4:11.0 12:5966.0 
0.037744112129722895 0.019325891680326612 9:13.0 12:3452.0 13:4886.0 14:248.0 16:31.0 
0.03774410910756115 0.019325891680326612 5:207.0 12:2025.0 14:552.0 
0.037744099312853385 0.019325891680326612 5:5.0 12:6645.0 14:17907.0 
0.037744084867985306 0.019325891680326612 1:1.0 7:1360.0 12:13414.0 14:166.0 
0.03774406994323687 0.019325891680326612 1:88.0 4:5.0 7:709.0 9:1.0 12:2381.0 14:43.0 
0.03753627025497425 0.01891498101346284 4:1.0 5:23.0 9:3.0 12:1732.0 14:70.0 
0.0377440689055869 0.01932907647444676 1:66.0 4:1.0 7:1209.0 12:1996.0 14:111.0 20:1899.0 
0.037744068905586736 0.01932907647444676 3:238.0 4:27.0 5:1964.0 8:100.0 12:15140.0 14:512.0 18:32.0 
0.037744063845433995 0.01933796177942959 2:1.0 4:146.0 5:9.0 9:46.0 12:3003.0 14:307.0 
0.031881191405497056 0.015624932716449047 12:2004.0 
0.0376476986573982 0.0187224859409989 3:1.0 12:3570.0 14:129.0 
0.03774405114248347 0.01933796177942959 5:34.0 12:3150.0 14:384.0 
0.03774419745730423 0.01933796177942959 1:31.0 3:136.0 4:300.0 5:11.0 9:14.0 12:4311.0 14:54.0 
0.9865878073437674 0.9684787907983046 12:1871.0 
0.0377452360060162 0.01933796177942959 4:68.0 5:16.0 7:307.0 8:231.0 12:2464.0 
0.037921693284760805 0.019109775558828868 4:4.0 12:2043.0 14:106.0 
0.037745235921842535 0.01933796177942959 12:36176.0 14:31.0 
0.03774523523913703 0.01933796177942959 5:627.0 8:8.0 9:1.0 12:470.0 13:376.0 14:83.0 
0.03774523523913703 0.01933796177942959 12:8269.0 14:299.0 16:20.0 
0.037745229494791865 0.01933796177942959 1:37.0 4:5.0 8:2.0 9:1.0 12:1504.0 13:509.0 14:2.0 
0.037745222892056896 0.019338771018844014 1:12.0 4:1.0 7:1103.0 8:2.0 12:2439.0 14:58.0 
0.0377452145486889 0.019340062816852355 3:3.0 5:95.0 12:17258.0 13:628.0 14:91.0 
0.037745207220477084 0.01934024318238714 3:2382.0 12:1461.0 
0.0377452051034895 0.01934024318343064 12:6107.0 14:8972.0 16:2.0 18:22.0 
0.0377452051034895 0.01934024318347838 4:400.0 8:43.0 12:2158.0 14:235.0 
0.037745195411092614 0.01934024318347838 5:913.0 8:18.0 12:1036.0 14:493.0 20:4077.0 
0.033856519011483927 0.015319984207992854 12:1470.0 
0.037745192305354225 0.01934024318347838 1:28.0 4:14.0 7:258.0 12:1204.0 14:167.0 
0.037745192305354225 0.01934024318347838 3:1.0 5:568.0 12:2024.0 14:3.0 
0.037745170102423786 0.01934024318347838 8:2.0 12:5458.0 14:44.0 
0.037744611064787714 0.01934024318347838 3:41.0 4:6.0 8:14.0 9:180.0 12:2811.0 14:209.0 
0.03781470712792312 0.01925997199354007 4:15.0 9:8.0 12:962.0 14:37.0 
0.02558628588627776 0.012559867235163613 12:1511.0 14:4.0 
0.03765766878090471 0.018930952160360504 4:6.0 5:36.0 12:1488.0 14:95.0 
0.03779881239819294 0.018602637857057347 5:18.0 12:1460.0 14:31.0 
0.03774460371584365 0.01934024318347838 5:72.0 12:677.0 14:213.0 
0.029994334163415903 0.014539094820148146 12:1940.0 14:13.0 
0.0377445610083163 0.01934024318347838 2:2.0 3:69.0 12:2876.0 14:149.0 18:18.0 
0.0376810790681098 0.01893095263870692 12:2076.0 14:98.0 
0.037744500838429285 0.01934024318347838 3:197.0 5:903.0 7:72.0 8:4.0 9:13.0 12:12916.0 14:139.0 
0.03711822364598599 0.018505512244050448 4:1.0 12:141.0 14:2980.0 
0.03774449480431907 0.01934024318347838 3:5.0 4:5.0 12:12436.0 14:138.0 18:25.0 
0.03774449480431841 0.019340243185672623 7:2762.0 12:4371.0 
0.03774449276210151 0.019340243187759565 1:7.0 4:3.0 12:5489.0 14:160.0 16:43.0 17:2.0 
0.03774449272688196 0.019340732503475344 4:94.0 5:12.0 8:2.0 12:2309.0 14:332.0 
0.03774448930673224 0.019340743282278583 1:62.0 4:1427.0 5:175.0 8:13.0 12:862.0 14:243.0 
0.037591138365121346 0.018704030954691253 1:2.0 9:2.0 12:4731.0 14:209.0 
0.03774448930673224 0.019341489287378277 7:1439.0 12:1820.0 14:400.0 
0.03774210778844006 0.01876047384218567 3:12.0 12:2050.0 14:12.0 
0.03774448472612668 0.019341489287379277 8:51.0 12:3890.0 14:60.0 
0.03774448472612668 0.019344123704073124 3:591.0 12:2561.0 
0.03774442843297293 0.019344742686873362 7:2175.0 12:3087.0 
0.03774442247028592 0.01934724602314164 3:347.0 5:300.0 12:6186.0 14:119.0 
0.03774452796352712 0.01935235289812609 12:7092.0 14:143.0 
0.025428022883791535 0.012708740956870634 12:976.0 
0.037744527963525065 0.019361580843620885 12:871.0 14:171.0 
0.037753166807017846 0.018870208054670157 12:9349.0 14:52.0 
0.03775315983479238 0.01887359053133575 1:9.0 7:563.0 12:4959.0 14:117.0 
0.037753260165936164 0.01887359053133575 3:224.0 5:380.0 8:20.0 12:7278.0 14:84.0 
0.5901455145114554 0.006523939488908892 12:2329.0 
0.03775326016593594 0.01887359053133575 7:3901.0 12:1110.0 
0.03753632962570891 0.018901571112287963 8:178.0 12:1909.0 14:1.0 
0.03775523958050653 0.01887359053133575 1:50.0 4:9.0 12:1603.0 14:288.0 
0.037898661041507464 0.01884019986980151 5:9.0 8:3.0 12:2919.0 14:155.0 
0.03775523712512302 0.018873590531335527 4:455.0 5:851.0 12:3854.0 14:324.0 18:8.0 
0.03775522130145942 0.018873590531335527 4:8.0 5:141.0 12:1275.0 14:133.0 
0.03775522130145942 0.018873590531335527 7:517.0 12:1212.0 14:1351.0 18:51.0 
0.0 0.008689063743531233 12:2984.0 
0.03784618879683871 0.018559646401003993 9:6.0 12:1346.0 14:175.0 
0.03679284137328853 0.01839567336885234 8:2.0 12:3621.0 14:53.0 
0.03775520983072356 0.018873590531335527 1:53.0 4:7.0 5:7.0 8:3.0 9:2.0 12:3353.0 14:122.0 
0.03775517408199486 0.01887379131506206 3:86.0 5:63.0 12:1625.0 14:151.0 
0.0377551740819948 0.01887379131506206 4:4.0 5:65.0 12:2431.0 14:32.0 
0.03775516921178035 0.01887379131506206 12:22508.0 14:169.0 16:35.0 
0.0377598931969671 0.01887379131506206 1:66.0 3:17.0 4:8.0 12:3810.0 14:169.0 18:3.0 
0.037759369227474415 0.01887379131506206 4:36.0 5:1.0 12:5098.0 14:21.0 
0.0377577740717181 0.01887379131506206 1:59.0 3:134.0 4:1.0 8:11.0 12:1368.0 14:83.0 
0.03775695480465702 0.01887379131506206 9:16.0 12:15152.0 14:333.0 
0.03775640887298887 0.01887379131506206 4:15.0 5:120.0 8:11.0 12:3209.0 14:364.0 
0.03775462547941716 0.01887379131506206 3:3803.0 12:47.0 14:28.0 
0.037753821052481984 0.01887379131506206 1:136.0 8:7.0 12:13390.0 14:2109.0 
0.03348071642450301 0.016256939611458743 12:2568.0 
0.03775216135968362 0.01887379131506206 5:41.0 12:4861.0 14:12.0 
0.03775049902232336 0.01887379131506206 4:33.0 12:3611.0 14:59.0 
0.03775049902232336 0.018873791314931054 3:2.0 4:3.0 12:1656.0 14:410.0 
0.03774954480435844 0.018873791314931054 1:7.0 3:24.0 5:108.0 9:6.0 12:1675.0 14:203.0 
0.03774954358300192 0.018873791318957334 1:162.0 4:89.0 9:23.0 12:4719.0 
0.03774785917219886 0.018873791318957667 4:44.0 12:1090.0 14:141.0 
0.03774785917219886 0.0188753678959811 8:2784.0 12:1984.0 14:7.0 
0.03774695167033432 0.0188753678959811 8:280.0 12:22348.0 14:2.0 
0.0372305941624933 0.018335590862090356 12:1628.0 
0.03774624247310571 0.0188753678959811 1:2.0 4:4.0 8:2.0 12:3165.0 14:308.0 
0.03774624247310571 0.0188753678959811 12:2477.0 14:419.0 
0.03774591545039696 0.0188753678959811 3:135.0 12:5715.0 13:40.0 14:276.0 16:12.0 
0.03774591545039696 0.0188753678959811 8:48.0 12:13271.0 14:53.0 
0.03774565178363598 0.0188753678959811 1:104.0 5:81.0 12:1896.0 14:123.0 
0.03762579156374746 0.018711010522732274 12:4177.0 14:77.0 
0.037744454601708555 0.0188753678959811 9:10.0 12:3007.0 14:81.0 
0.037714103880079286 0.01893092774646249 12:13081.0 14:8.0 
0.03674028269159668 0.018369749984235628 12:3612.0 14:55.0 
0.037744454601708555 0.0188753678959811 4:6.0 12:3715.0 14:310.0 
0.037742143951634666 0.01879085027255145 9:1.0 12:1046.0 14:108.0 
0.037744103361552706 0.0188753678959811 4:1.0 5:32.0 9:8.0 12:1381.0 14:30.0 
0.037743830494721076 0.0188753678959811 1:197.0 8:12.0 9:120.0 12:2448.0 14:416.0 
0.03795855107200341 0.019182367521615395 5:15.0 12:2799.0 14:57.0 
0.03774332614471826 0.0188753678959811 8:1829.0 12:492.0 14:1936.0 
0.03774332614471826 0.0188753678959811 1:118.0 3:4.0 4:8.0 12:3660.0 14:173.0 
0.03770594411521194 0.0188753678959811 1:132.0 3:33.0 8:44.0 12:2847.0 18:11.0 
0.020351746761069718 0.009912400716186764 8:2.0 12:2306.0 
0.03764691019061123 0.018480994986512938 1:1.0 12:2044.0 14:20.0 
0.03770594411521194 0.0188753678959811 3:165.0 5:720.0 12:580.0 14:9.0 
0.03770418922466906 0.0188753678959811 1:7.0 3:339.0 5:232.0 12:2461.0 13:76080.0 14:1185.0 16:22.0 18:6.0 
0.03770382291747637 0.018876583610419495 8:2.0 12:2135.0 14:1201.0 
0.03770454905741877 0.018877475718045156 8:338.0 12:1909.0 14:2.0 
0.03769657948741234 0.018878446422551265 3:21.0 12:9955.0 14:6.0 16:13.0 
0.052814399380383355 0.0 4:2.0 12:2440.0 
0.037692354549698326 0.018879998566662837 5:94.0 12:4064.0 14:1246.0 
0.036252974289463835 0.01812172123761574 12:4834.0 14:5.0 
0.0 0.0013268683690952354 12:2657.0 
0.037692678760480325 0.018879998566662837 5:297.0 8:1.0 12:665.0 14:8.0 
0.037927481797629004 0.018667944198270003 5:175.0 12:1899.0 14:116.0 
0.03791091475626268 0.01860335577608535 4:2.0 5:13.0 8:16.0 9:11.0 12:2065.0 14:134.0 
0.03769227515855694 0.0188809309301729 1:79.0 4:43.0 5:98.0 12:1557.0 14:224.0 
0.037918672943115184 0.01881856192029202 12:905.0 14:98.0 
0.0376892224839101 0.018880930930156914 4:11.0 12:2902.0 14:336.0 
0.037689222482065576 0.018880930930123163 12:6596.0 
0.0377799251005243 0.019005003444876933 12:5350.0 14:60.0 
0.0376890775939398 0.018880930930123163 4:1.0 5:987.0 9:1.0 12:247.0 14:15.0 
0.0376890775939398 0.018880972184671607 1:352.0 3:7.0 5:13.0 7:3868.0 12:3235.0 14:563.0 18:5.0 
0.03794106827414495 0.019125066670646118 8:2.0 12:2346.0 14:79.0 
0.037960124344748214 0.018567541195126436 5:15.0 12:7110.0 14:25.0 
0.03773943234015011 0.018512411988998174 8:9.0 12:5999.0 14:57.0 
0.03768975899430971 0.01888047483974331 12:1006.0 14:814.0 
0.037689758994239375 0.018880266890775432 1:14.0 4:13.0 5:171.0 8:19.0 9:10.0 12:6197.0 14:89.0 
0.03768995838597489 0.018880265176875743 12:1236.0 14:230.0 
0.03768995838597489 0.018880263084534443 3:71.0 4:1.0 8:2.0 12:1373.0 14:508.0 
0.03768995838597489 0.018880263084534443 3:53.0 5:249.0 8:20.0 12:2385.0 14:22.0 
0.03768995838597489 0.018879759834832754 4:33.0 5:107.0 9:7.0 12:1350.0 14:7.0 
0.03768995838597489 0.018879440201454656 2:3.0 8:2.0 12:10024.0 14:1.0 16:26.0 
0.03768995838597489 0.01887539762837792 5:49.0 8:2.0 12:6548.0 14:17.0 
0.03642468362988971 0.01818844862282698 12:1779.0 14:73.0 
0.03768995838597489 0.0188751724291068 3:13.0 7:6417.0 12:672.0 14:54.0 16:10.0 
0.03768995838597489 0.018874375113345332 4:17.0 5:40.0 8:2.0 12:1908.0 14:16.0 
0.03768995838597489 0.0188743748798475 3:2.0 12:2114.0 14:270.0 
0.03544131834969727 0.017693372093352977 8:32.0 12:2425.0 14:82.0 
0.03768995838597489 0.0188743748798475 3:69.0 9:4.0 12:6229.0 14:17.0 
0.03768995838597489 0.018874374712163466 4:129.0 5:157.0 7:44.0 8:12.0 9:13.0 12:5436.0 13:19.0 14:162.0 
0.03768995838597489 0.018870015720665045 8:52.0 12:4807.0 14:1.0 
0.03768995838597489 0.018868908058610245 1:1.0 3:198.0 5:6.0 8:12.0 12:18105.0 14:141.0 
0.04589000807545918 0.006135903592812499 12:2664.0 
0.03769516802613543 0.018492090000517436 1:1.0 4:3.0 12:2750.0 14:78.0 
0.037536355755246 0.01890158418726784 3:16.0 12:4597.0 
0.03768995838597489 0.018868908058610245 7:923.0 8:2.0 12:828.0 14:14.0 
0.03768995838597489 0.018868079473215116 3:8.0 5:64.0 12:1642.0 14:15.0 
0.03768995838597489 0.018864792371533323 8:3958.0 12:65.0 
0.03588114266916773 0.01784084140308395 12:3452.0 
0.03768995838597489 0.018864792371533323 5:28.0 8:2.0 12:3729.0 14:324.0 
0.03243834811359941 0.01621477063811627 12:7669.0 
0.03768995838597489 0.018864792235956218 12:11783.0 18:11.0 
0.03768995838597489 0.018864792235956218 3:2.0 4:11.0 5:24.0 8:27.0 12:1201.0 13:164.0 14:9.0 20:10.0 
0.037689862622004966 0.018864792235956218 1:121.0 5:15.0 12:929.0 14:341.0 
0.0376893977667358 0.018864791378303214 1:1.0 3:2.0 9:2.0 12:6107.0 13:1364.0 14:230.0 
0.0376893977667358 0.018864791378303214 3:24.0 8:2.0 12:2685.0 14:147.0 18:4.0 
0.03768864565307062 0.018864063654615404 12:5000.0 14:3094.0 
0.037686764445096055 0.01886349129143161 1:785.0 8:10.0 9:3.0 12:442.0 14:759.0 
0.037686764445096055 0.01886261424679403 5:504.0 8:19.0 12:1108.0 
0.03768406749232606 0.018860924286520087 12:1333.0 14:3469.0 
0.037660439931988365 0.01885869380771743 12:8079.0 14:143.0 
0.03776099093275814 0.01878976125350057 12:1400.0 14:325.0 18:11.0 
0.03765551897552322 0.0188490369383027 4:5.0 5:604.0 12:956.0 
0.0376555142070123 0.018846768872695152 4:163.0 5:375.0 8:2.0 12:3475.0 14:359.0 20:65.0 
0.037655204064861114 0.018845972067718764 5:29.0 12:9478.0 14:28.0 
0.037655204064861114 0.01884586933569038 1:10.0 4:15.0 8:47.0 12:1566.0 
0.037655204064861114 0.018845830986896794 4:123.0 12:7534.0 14:399.0 16:37.0 
0.03776157973169658 0.01920938670641864 8:13.0 12:2135.0 14:45.0 
0.037655204064861114 0.01884582430389975 3:131.0 12:6928.0 
0.037655204064861114 0.018845759545810414 5:38.0 12:4640.0 14:129.0 
0.03777281064537086 0.01920938671387523 1:2.0 12:8026.0 14:33.0 
0.037655204064861114 0.018844404964125816 1:25.0 4:3.0 12:3418.0 14:136.0 18:1.0 
0.03327923065687394 0.01657908017319981 3:21.0 8:2.0 9:1.0 12:3167.0 14:5.0 
0.037655204064861114 0.018844322367037092 5:11.0 12:1088.0 14:529.0 
0.037655204064861114 0.018844322367037092 1:97.0 4:138.0 8:4.0 9:21.0 12:6183.0 13:20989.0 14:2256.0 16:46.0 
0.03765240293587674 0.018844277228873496 3:1007.0 7:1943.0 8:3.0 12:1507.0 14:47.0 
0.029195988122090503 0.014794988384732715 12:4825.0 
0.037651905538339525 0.018843972404161136 4:64.0 12:1261.0 14:19.0 
0.03765130915205411 0.018843539604782078 3:229.0 4:2.0 12:1180.0 
0.03602267520282465 0.018022771470021737 12:1723.0 
0.03775337497684955 0.019209386716978527 8:44.0 12:2511.0 
0.03765130915205411 0.018843436588026674 1:5178.0 4:160.0 12:2979.0 14:36.0 
0.03764929055108068 0.01884288644412263 1:4.0 3:194.0 4:2.0 5:266.0 12:2133.0 14:84.0 
0.037648988693978924 0.018842873149671868 5:213.0 12:16854.0 14:186.0 
0.03764866763992786 0.018842873149671868 1:20.0 5:111.0 12:1672.0 14:67.0 
0.03764632233446569 0.01884178480996007 1:6.0 5:324.0 12:4077.0 14:114.0 
0.03764609515259121 0.018841776745077476 5:674.0 8:2.0 12:7260.0 14:342.0 
0.03764514573966371 0.01884176434179502 3:149.0 4:1.0 12:5303.0 14:135.0 
0.03764514573966321 0.018841756367072138 12:17726.0 14:14.0 
0.5776848101696301 0.011496194959896733 12:2647.0 
0.027478583714878047 0.013695470482654792 12:1711.0 
0.03764367732217927 0.018841753306202635 4:19.0 5:3.0 9:123.0 12:559.0 14:2182.0 20:117.0 
0.03764304591566364 0.018841748103215428 1:37.0 7:1005.0 9:6.0 12:1125.0 14:27.0 
0.03781343658754649 0.018818285623443343 1:10.0 4:3.0 5:7.0 12:1217.0 
0.03764283680843117 0.018841747955375132 3:1.0 12:903.0 14:511.0 
0.03764283680843117 0.018841747955375132 12:11591.0 14:22.0 
0.03764193662885024 0.018841747874282166 1:602.0 4:30.0 12:1326.0 14:188.0 
0.0376411605291041 0.018841747874282166 3:57.0 8:8.0 12:2016.0 14:16.0 
0.03764059445981649 0.018841747874282166 8:10.0 12:13756.0 14:156.0 
0.03762465665622555 0.018840200255976713 3:208.0 12:2715.0 
0.0376242490806904 0.01883975622457784 3:2.0 5:47.0 8:177.0 12:2110.0 14:55.0 
0.037623586778390616 0.018839459587511043 3:30.0 5:17.0 7:176.0 12:4239.0 14:2266.0 
0.037623284458202844 0.01883720085922319 4:6.0 5:165.0 12:1629.0 14:51.0 
0.03795387906623293 0.018836130101299198 3:13459.0 
0.03761552794562012 0.018835008460909575 5:3.0 8:2.0 12:2114.0 14:229.0 
0.03761552794562012 0.018834641346948844 12:401.0 14:2733.0 
0.037960385158525733 0.018449312341134616 3:4.0 5:99.0 12:760.0 14:129.0 
0.03761513975132774 0.018834635561339408 4:21.0 12:417.0 14:2159.0 
0.03768889336892578 0.018495674570137344 12:2256.0 14:84.0 
0.037615134552676344 0.018593519343906628 3:29.0 4:7.0 5:11.0 8:2.0 12:2244.0 14:7.0 
0.03761342138005286 0.018832257578024036 5:76.0 12:6172.0 14:204.0 16:23.0 
0.03760936834460915 0.01883225647143233 12:1397.0 14:420.0 
0.037798336147375045 0.019257804361998088 8:314.0 12:3845.0 14:12.0 
0.03760922682542189 0.01883031727075246 3:4.0 8:4.0 9:9.0 12:4876.0 14:190.0 
0.03760922682542189 0.018829544403418552 12:5397.0 14:111.0 
0.03760882224171236 0.01882811632207193 1:1.0 5:59.0 7:706.0 8:2.0 12:5936.0 14:10.0 
0.03760810095969619 0.018828115678357904 3:28.0 12:5436.0 14:4025.0 
0.03760738309566253 0.018828115678357904 1:3.0 4:5.0 7:1703.0 9:34.0 12:4936.0 14:77.0 16:14.0 
0.037745473306026844 0.018427712749081226 1:9.0 4:8.0 8:2.0 12:1865.0 
0.0 0.0034263284079709376 12:1383.0 
0.03789870236234738 0.018834245333866018 3:9.0 12:1224.0 14:187.0 18:7.0 
0.03760738255023266 0.01882811459089384 8:2813.0 12:28.0 14:12.0 
0.037714159221907906 0.018967310713644714 3:1.0 4:30.0 12:3694.0 14:60.0 
0.03760676903353288 0.018828114229025694 1:2.0 5:63.0 8:25.0 12:1266.0 14:178.0 
0.03760674949708842 0.018828114229025694 8:7570.0 
0.03623144328784933 0.018106994031124257 3:5.0 12:11344.0 
0.03760674949708842 0.018828110601716352 8:1686.0 12:8072.0 14:1279.0 
0.037954548319639514 0.01925997199380841 8:2.0 12:7091.0 14:32.0 
0.03760615941441664 0.0188278161263023 7:182.0 12:22729.0 14:245.0 
0.037600145902247806 0.018827597279017838 1:46.0 4:3.0 8:281.0 12:1352.0 14:52.0 
0.03610295356343918 0.018040430725602234 4:1.0 12:1704.0 14:106.0 
0.03782798055711695 0.019005004437492645 8:2.0 12:5146.0 18:10.0 
0.4869963651967992 0.018474586600568242 12:3069.0 
0.03028468428861908 0.017702131978381053 12:1461.0 14:16.0 
0.0375997285408064 0.018827328863100956 4:16.0 5:168.0 12:12321.0 14:282.0 
0.0375996174888395 0.018827328863100956 1:125.0 5:55.0 8:2.0 12:21878.0 14:189.0 18:795.0 
0.0375995256893597 0.018827284486589546 3:5.0 4:1.0 5:495.0 8:8.0 12:2925.0 14:139.0 18:10.0 
0.03759944978723789 0.018826270363172692 5:56.0 12:103364.0 13:1.0 14:212.0 
0.037599397679595914 0.018824421345368214 12:10238.0 14:18.0 
0.0374452677470819 0.018569144296110618 4:2.0 8:33.0 12:3884.0 
0.037681827806254675 0.018524592393037886 12:993.0 14:34.0 
0.03764845037028325 0.018930936667440723 12:8114.0 14:54.0 
0.037599397679595914 0.01882400467599804 7:81.0 8:4.0 12:226.0 14:894.0 
0.037571416297762505 0.01882334017021592 3:1.0 4:25.0 5:76.0 12:15161.0 13:1.0 14:269.0 16:18.0 
0.037571085533139315 0.018818940319446864 3:98.0 5:21.0 8:42.0 12:31243.0 14:519.0 18:36.0 
0.03779881239844346 0.018832257577157896 3:22.0 12:3653.0 
0.037571095907354246 0.018818927778214423 12:4380.0 14:1170.0 
0.0379384284751596 0.018719279468379868 8:4.0 12:1085.0 14:198.0 
0.03757109547214499 0.018818904276758253 7:3851.0 12:3708.0 14:65.0 
0.03756992264463083 0.018818902850340102 12:9889.0 14:170.0 
0.03756886317420671 0.018818899765171815 12:5291.0 14:206.0 
0.03777999793021358 0.01896352534483814 9:1.0 12:5650.0 14:56.0 
0.03756779979974051 0.018818899479530637 1:9.0 4:5.0 7:5345.0 12:1382.0 14:231.0 
0.037827969526852856 0.018953229357245874 12:2420.0 14:20.0 
0.037566297922880354 0.018818886957578884 3:266.0 4:102.0 5:196.0 8:2.0 9:11.0 12:1236.0 14:370.0 
0.03748266665952861 0.018683535484594782 5:9.0 12:1050.0 14:30.0 
0.037775916132292475 0.01921451970502802 12:9017.0 14:2.0 
0.03756408562159275 0.018818886957578884 5:189.0 12:6364.0 14:312.0 16:56.0 
0.03756375435752629 0.018818884937761626 5:1994.0 8:15.0 12:6363.0 14:242.0 16:4.0 18:113.0 
0.0370911815934018 0.018467429419653625 8:35.0 12:2608.0 
0.0375621225257729 0.018818884937761626 1:333.0 4:16.0 9:97.0 12:1966.0 14:550.0 
0.03755911826977276 0.018818881387576758 3:1.0 12:6315.0 14:114.0 
0.03794980780221635 0.018930912280989753 8:54.0 12:3076.0 14:4.0 
0.033373331633163694 0.016633614023146392 12:6564.0 
0.0373273168137786 0.01839182318595206 12:1302.0 14:73.0 
0.03755911641652776 0.01881888035341217 4:2.0 5:8.0 12:6149.0 14:321.0 
0.03755911641652776 0.01881888035341217 7:5293.0 12:2334.0 14:169.0 16:19.0 
0.03754828145985589 0.018818879202678163 3:578.0 12:2653.0 
0.03754806105135844 0.018818878217898016 5:20.0 12:4121.0 14:888.0 
0.0379337440186896 0.018668913185772795 3:139.0 12:2944.0 
0.03755663446728097 0.018452802624158104 12:2164.0 14:24.0 
0.037542524298641966 0.018818878217898016 12:9831.0 
0.03754169277364233 0.018818877427323966 3:181.0 5:556.0 12:4989.0 
0.03772849425840291 0.01851048515159942 1:2.0 8:2.0 12:984.0 14:6.0 
0.03754155023500538 0.018818876675720964 4:2.0 5:346.0 8:21.0 12:2534.0 14:331.0 18:7.0 
0.03754140655212884 0.018818874862243373 4:79.0 5:57.0 9:7.0 12:22251.0 14:375.0 
0.03754045084299923 0.018818874862243373 1:58.0 3:7.0 4:1.0 8:22.0 9:13.0 12:2191.0 14:86.0 
0.31220426277671803 0.015609946277701126 5:4.0 12:2278.0 
0.037539844064471695 0.018818874827566 5:411.0 12:584.0 14:103.0 
0.037539844064471695 0.018818874827566 1:58.0 3:133.0 4:1.0 8:2.0 12:1972.0 14:49.0 
0.0375398280689096 0.01881887397444265 12:11211.0 
0.037539027311128736 0.018818873968620697 1:26.0 12:5713.0 14:6.0 
0.03753646649972786 0.018818871456493247 5:219.0 8:7.0 9:51.0 12:4348.0 14:394.0 
0.03753396378540996 0.018818871456493247 5:524.0 8:4.0 12:791.0 14:4113.0 
0.03753385168367418 0.018818867927585525 12:3796.0 14:178.0 
0.03753385168367418 0.018818867927585525 4:3.0 7:6861.0 8:2.0 12:2173.0 13:1298.0 14:140.0 
0.03739591243563523 0.01860581244603602 3:5.0 12:5118.0 
0.03794322723583743 0.018736120535840617 12:3672.0 14:86.0 
0.03753348066598805 0.018810557336787603 7:1196.0 8:12.0 12:254.0 14:32.0 
0.03751589499931618 0.018809097519494444 5:7.0 8:3.0 12:2166.0 14:105.0 
0.03751589499931618 0.01880866929189068 4:2.0 5:413.0 12:794.0 14:221.0 
0.037515832351904976 0.01880824406019621 5:15.0 8:2.0 12:4086.0 13:1101.0 14:154.0 16:32.0 
0.037515832351904976 0.01880785664025897 4:102.0 7:668.0 8:2.0 12:21458.0 13:108.0 14:117.0 
0.03751461124574201 0.01880755493003128 4:1.0 5:496.0 12:1998.0 
0.03751403342445536 0.018806593241957936 1:3.0 3:799.0 4:2.0 7:2.0 12:9416.0 14:331.0 18:10.0 
0.0379505769205814 0.018754489042865696 4:16.0 5:8.0 9:4.0 12:1312.0 14:89.0 
0.03751399901526464 0.01880581195962766 12:8690.0 14:193.0 
0.03751390982465652 0.018805606100986805 8:2.0 12:2569.0 14:224.0 18:118.0 
0.037513909973283355 0.01880399927259374 12:12480.0 14:3.0 
0.03751390870478394 0.01880375908432974 12:21894.0 16:8.0 
0.023025134852539653 0.009850809414592432 12:3238.0 
0.03751384186912882 0.018803643426165806 12:544.0 14:570.0 
0.03751376099456988 0.018799242439519026 1:4.0 3:1.0 4:2.0 5:5.0 12:2548.0 14:352.0 
0.0356918230211511 0.01772707692455533 12:1548.0 14:155.0 
0.03751376099456988 0.018804216605551427 1:10.0 3:26.0 5:99.0 8:9.0 12:9135.0 14:276.0 
0.03751367390833821 0.018804216528702178 1:35.0 4:1.0 12:1355.0 
0.03657546726376765 0.018287001686441318 12:6334.0 
0.03751367390833821 0.018498808911615816 1:129.0 4:4.0 5:168.0 9:25.0 12:6125.0 13:186.0 14:423.0 
0.0379436767730158 0.018878951278986478 3:12.0 12:3928.0 14:103.0 
0.03751366929296307 0.018424311512075187 12:3561.0 14:285.0 
0.037513659493478346 0.018803241024956396 1:2.0 5:561.0 12:3298.0 14:67.0 18:2.0 
0.03751377341881201 0.018800380916788872 4:80.0 12:3437.0 14:702.0 
0.036683706297275076 0.01834119997282202 12:1050.0 14:39.0 
0.05857248283197275 0.09874647282121835 1:5.0 12:2792.0 
0.03751190002403887 0.018802358819011378 3:28.0 9:55.0 12:1296.0 14:60.0 
0.03750989773810459 0.018802350355316244 5:227.0 8:2.0 12:3786.0 14:366.0 
0.037508551308486515 0.018806907839168108 1:3.0 5:12.0 7:1706.0 12:2787.0 13:622.0 14:212.0 
0.037507583519074184 0.01880697688200833 1:23.0 7:2211.0 9:2.0 12:2030.0 14:1937.0 18:1.0 
0.037505519301691714 0.018806980434457388 4:90.0 9:4.0 12:8102.0 14:355.0 
0.02927514299096895 0.014970108675904759 12:959.0 14:3.0 
0.037504685624711875 0.018806977767301725 1:4.0 3:29.0 4:12.0 5:173.0 9:5.0 12:14017.0 14:655.0 16:1.0 
0.037649763859028684 0.018474960827852605 8:11.0 12:1389.0 14:2.0 
0.03750454793926805 0.018806973510734293 1:64.0 3:59.0 4:1.0 7:7394.0 9:25.0 12:1581.0 14:110.0 
0.03750330910803368 0.01880697213831839 4:35.0 12:763.0 14:587.0 
0.03750330910803368 0.01880697213831839 8:2193.0 12:10.0 14:3363.0 
0.03750330910803368 0.018806964070010312 3:110.0 12:4495.0 14:150.0 
0.03750330910803368 0.018806963742786453 12:42.0 14:1957.0 
0.03750330910803368 0.018806963742786453 3:2.0 5:2399.0 12:10146.0 13:4.0 14:572.0 18:109.0 
0.03750330910803368 0.018806957074073927 3:363.0 4:22.0 5:47.0 12:1836.0 14:43.0 
0.0 0.006505363477651757 12:3963.0 
0.03723700943793923 0.01854043430159724 3:54.0 12:2624.0 
0.03750330910803368 0.018806957074073927 3:65.0 4:2.0 5:4.0 12:5768.0 14:134.0 
0.03750330910803368 0.018806956441082823 3:7.0 4:34.0 8:24.0 12:1511.0 14:158.0 
0.03750330910803373 0.018806944758386845 8:15.0 12:157.0 14:2859.0 18:1.0 
0.03750330910803373 0.018806944758386568 5:279.0 12:1358.0 14:92.0 18:6.0 
0.03750330910803373 0.018806951951421014 7:2911.0 12:917.0 14:243.0 
0.03750161660883994 0.018806949877551882 12:1022.0 14:512.0 18:26.0 
0.03750151741919655 0.018806949877551882 1:28.0 7:3378.0 9:22.0 12:5203.0 13:1682.0 14:168.0 
0.0375014007680895 0.018806946034458816 4:10.0 12:9463.0 14:51.0 
0.037788104002261846 0.019228333319503688 8:304.0 12:3860.0 
0.03750092638507074 0.01880694603442956 4:7.0 5:439.0 8:6.0 12:2931.0 14:239.0 
0.037500554204092706 0.01880694603442956 12:2.0 13:5560.0 
0.037500554200377845 0.01880694091385937 1:49.0 3:64.0 4:18.0 6:36.0 7:5291.0 8:443.0 9:51.0 12:676.0 15:269.0 
0.03781170251129773 0.01888093092915316 1:5.0 12:3274.0 14:125.0 
0.03749942722876687 0.018806939924372934 1:68.0 4:10.0 8:15.0 9:8.0 12:6079.0 14:68.0 18:9.0 
0.03749872332378518 0.018806939924372934 4:2.0 12:21340.0 14:51.0 
0.037498619251430554 0.018806939816289114 1:4.0 4:12.0 5:300.0 7:2234.0 9:9.0 12:14711.0 14:2.0 
0.0374974235756112 0.018806939816289114 5:75.0 12:2749.0 14:80.0 18:12.0 
0.03749741953267277 0.018806939733947314 3:326.0 6:99.0 12:656.0 14:2466.0 
0.03749712766524854 0.018806939733947314 1:10.0 4:1.0 8:57.0 12:8375.0 14:635.0 
0.0374970724561835 0.018806939354135854 8:44.0 12:2987.0 14:71.0 
0.03790847980136586 0.019060391218351735 4:18.0 12:1585.0 14:125.0 
0.0374970724561835 0.018806937926839684 12:9733.0 
0.03749699886988067 0.018806937173867 3:669.0 4:6.0 5:264.0 12:3357.0 14:812.0 
0.009724736660994245 0.004093685420306128 12:1887.0 
0.037496948044745904 0.018806936810326857 4:36.0 5:33.0 12:2180.0 14:98.0 
0.0 0.01537529406853333 12:2386.0 
0.03710507788998052 0.018497740413151276 12:1629.0 14:220.0 
0.03749690497589081 0.018806934486987392 1:106.0 7:1561.0 12:201.0 14:14.0 
0.02309166297487303 0.011498160409298852 12:4619.0 
0.03749773167027681 0.018806934486985893 5:3.0 12:7713.0 14:2201.0 
0.0347541540042931 0.017103726085346826 12:1739.0 
0.03749761503074378 0.018806934473530768 3:741.0 12:2633.0 14:242.0 
0.03749789094702888 0.018806934473530768 5:358.0 12:10589.0 14:348.0 
0.03749783261085454 0.01880693390682958 1:3803.0 3:3.0 12:2000.0 
0.03749783261085454 0.018806933848471263 3:61.0 5:413.0 12:1069.0 14:146.0 
0.03749752753997021 0.01880693339955747 4:23.0 8:8.0 12:6246.0 
0.03749701110933529 0.01880693339955747 3:187.0 12:1141.0 14:288.0 18:4.0 
0.037496339829634795 0.018806931442334973 4:17.0 5:40.0 12:1772.0 14:134.0 
0.03749604074937968 0.01880693143841844 5:507.0 12:42075.0 14:2.0 
0.03737932786848169 0.018605119003393678 5:10.0 12:1790.0 
0.0374943032731514 0.018806926450696204 12:1659.0 14:160.0 
0.037494301723857704 0.018795265379871584 1:60.0 12:14085.0 14:420.0 
0.03517633723030872 0.017577309158284704 4:2.0 12:2729.0 14:120.0 
0.0374941004325654 0.018794661440665994 1:2.0 12:658.0 14:1416.0 
0.037493919715439084 0.01879466144065045 1:29.0 4:2.0 5:4.0 12:5305.0 14:195.0 
0.03749338317706041 0.018794231042107035 3:4575.0 12:36.0 
0.03719419666090584 0.018520025803602014 12:11829.0 
0.03749303696006229 0.018792887358975108 1:1995.0 4:1.0 7:483.0 8:17.0 12:384.0 14:129.0 
0.03749286941329544 0.018792887358975108 1:1.0 3:1562.0 4:5.0 12:9041.0 14:92.0 
0.03749286941329544 0.018791917173980655 1:66.0 7:4334.0 12:426.0 14:144.0 
0.029774918140391533 0.014746178070818794 12:7424.0 
0.03749286940021801 0.018791917173980655 1:71.0 4:1517.0 8:54.0 12:269.0 14:130.0 
0.03748806867784121 0.02103647244037371 12:13130.0 
0.03748722695408735 0.01879187728369719 4:6.0 5:17.0 8:4.0 12:7334.0 14:186.0 16:91.0 
0.03748709685187873 0.018791796588013998 12:34108.0 16:28.0 
0.03748648593607701 0.018791796588013998 12:13784.0 14:217.0 
0.03748648593564635 0.018791796496186786 1:11.0 3:39.0 7:2782.0 12:2932.0 14:525.0 
0.03748644169802423 0.018791111278584294 1:5.0 2:1.0 3:5.0 5:759.0 6:2.0 8:1070.0 12:718.0 15:36.0 17:10.0 
0.03748643731592477 0.01879087152441855 3:285.0 4:1.0 12:6025.0 14:47.0 
0.03748643731435075 0.018789858967000472 8:2.0 12:2905.0 14:240.0 20:44.0 
0.03747926536909246 0.018786468350952545 5:402.0 12:1363.0 14:74.0 
0.037478985797590625 0.0187734490531703 5:64.0 12:638.0 14:300.0 
0.03774145298910819 0.018778423929784904 12:1946.0 
0.03747425839887364 0.018773404995689746 5:76.0 12:1473.0 14:292.0 
0.0377562130617452 0.019228568025638104 12:4975.0 14:13.0 
0.037473454891249924 0.01877338556158542 3:94.0 5:36.0 8:19.0 9:16.0 12:5724.0 
0.03773517852768349 0.019209386713359866 4:1.0 5:8.0 12:3528.0 14:53.0 
0.037474128320935884 0.018773342460210063 3:2.0 9:18.0 12:1602.0 14:159.0 
0.037474128320935884 0.01877334246009682 1:47.0 4:118.0 12:2686.0 14:108.0 
0.03792173888608141 0.01910977628742816 3:34.0 4:1.0 12:1077.0 14:16.0 
0.037827978578183374 0.019005003444876933 3:94.0 12:3173.0 
0.037474128320935884 0.01877334246009682 8:484.0 12:1903.0 14:1.0 
0.037474128320935884 0.018773080864636582 4:2.0 5:178.0 12:1005.0 14:136.0 
0.037474128320935884 0.018772422894034912 5:172.0 12:1781.0 14:35.0 18:3.0 
0.0379275017946738 0.018560049201190587 12:3581.0 14:107.0 
0.03101178307366849 0.015605210900313693 12:3640.0 
0.03747328008182643 0.018772117833599278 8:168.0 12:3372.0 
0.037473280068574866 0.01877153466577336 1:281.0 4:23.0 12:1487.0 14:485.0 
0.03603972373306069 0.018014005230170216 12:1194.0 14:85.0 
0.03776086803674511 0.019209386715488386 12:3465.0 14:175.0 
0.03747327999453176 0.018770530777422578 3:4.0 4:5.0 5:48.0 12:1425.0 14:167.0 
0.03747302618988818 0.018770053131106967 4:77.0 5:628.0 12:5354.0 13:831.0 14:67.0 
0.03747149402933292 0.018769629450925807 4:2.0 5:188.0 12:3736.0 14:484.0 
0.03747146091070558 0.01876960715937548 3:56.0 5:2.0 12:1684.0 
0.025766857564560708 0.012838761050755876 12:3169.0 
0.03747146091070558 0.01876944454051549 8:3056.0 12:6977.0 
0.037465300919926114 0.01876944454051549 12:9230.0 14:118.0 
0.037465300919926114 0.01876941113373437 1:11.0 3:292.0 4:509.0 5:215.0 6:157.0 8:69.0 10:119.0 12:6132.0 14:526.0 
0.03746467821403088 0.018769291775033337 5:632.0 12:2495.0 14:67.0 
0.03746351618750371 0.01876920765927026 1:110.0 12:1511.0 13:2641.0 14:175.0 18:16.0 
0.0324189151339388 0.016165661574536694 12:2837.0 
0.037761825546805794 0.018516086025831664 8:100.0 12:2413.0 
0.037463486195652373 0.018768246987695303 8:870.0 14:3733.0 
0.0374622577166015 0.018768246818949452 4:42.0 5:955.0 8:4.0 12:2510.0 14:104.0 
0.037461685637563025 0.018767975394842262 2:32.0 4:1.0 8:2.0 12:7518.0 14:224.0 
0.8618414236646412 0.009645555205454681 12:6157.0 
0.037460234396819725 0.018767221036820825 12:747.0 13:12707.0 14:178.0 16:30.0 18:19.0 
0.03745800581585096 0.018766736546710183 4:96.0 5:42.0 12:2057.0 14:3.0 
0.037457280248999913 0.018765683025360913 4:12.0 12:7318.0 14:133.0 
0.03744992377369383 0.018765683025360913 8:2.0 12:1964.0 14:279.0 
0.03744891405636691 0.01876528580989767 3:1305.0 4:56.0 5:211.0 12:10349.0 14:158.0 
0.01316413174883424 0.008540079608199913 12:4114.0 
0.03744891405636691 0.0187646598294392 8:4101.0 12:3951.0 14:8.0 
0.03744883017431372 0.018764485646880102 8:878.0 14:2559.0 
0.0374448548222448 0.018764372616395075 1:33.0 4:53.0 8:2.0 12:1293.0 14:828.0 
0.03778618722504146 0.0188062725646867 2:13.0 12:1090.0 
0.03774229969234927 0.018781785437058385 12:1360.0 
0.03744479849701133 0.018761560326146624 5:44.0 12:6174.0 14:6.0 16:2.0 
0.03744479849701132 0.018761558282036517 12:3091.0 14:1170.0 
0.037444788186656475 0.018761559517875837 4:155.0 5:192.0 9:20.0 12:974.0 14:185.0 
0.037444786557851883 0.018761558879955897 5:725.0 12:4758.0 14:35.0 
0.037444786557851883 0.018762495654112477 7:1444.0 8:4.0 12:64.0 14:195.0 
0.03247899694298595 0.016233516322407715 8:6.0 12:1497.0 
0.037444786557851883 0.018762486885029572 3:9.0 12:20966.0 
0.03744290587218885 0.018761844010808104 1:189.0 3:44.0 4:7.0 8:2.0 12:811.0 14:151.0 20:460.0 
0.03743968191941438 0.018761844010808104 3:627.0 12:2319.0 14:220.0 18:6.0 
0.03743732441882697 0.018761735369692834 3:47.0 9:59.0 12:10283.0 14:225.0 
0.03743559208622388 0.01876158540650269 1:57.0 8:4.0 12:2677.0 14:117.0 
0.03743514748633214 0.01876135390410011 5:280.0 12:1666.0 14:142.0 
0.03743514748633214 0.01876118820651279 1:104.0 3:870.0 4:32.0 5:60.0 9:15.0 12:2388.0 14:290.0 18:20.0 
0.03743421861227314 0.01876118820651279 12:11447.0 14:19.0 
0.03726757712821205 0.018541128889328795 12:3015.0 14:49.0 
0.037890053746978236 0.018822347074048507 12:1155.0 14:193.0 
0.03748133461452563 0.018834606058431902 8:14.0 12:1423.0 14:26.0 
0.03743421861227314 0.01875979323360255 1:39.0 2:54.0 3:73.0 4:4.0 5:1.0 12:1096.0 14:196.0 
0.03743337702579219 0.018724423365172604 1:2.0 7:5042.0 9:2.0 12:51.0 14:99.0 
0.037433343326704005 0.018763860544435018 1:6.0 4:389.0 9:5.0 12:1077.0 14:6.0 
0.037848527810074584 0.018667392871890343 9:10.0 12:7481.0 
0.03743274381748657 0.018766213619410665 4:1964.0 7:1221.0 9:101.0 12:982.0 14:116.0 
0.03743227478951672 0.01876844408234507 9:52.0 12:6469.0 14:11.0 18:6.0 
0.03743227478951672 0.018768442685763498 1:23.0 4:2.0 5:566.0 12:11102.0 14:212.0 16:37.0 
0.03743008686017735 0.018768041893204856 5:136.0 12:924.0 14:70.0 
0.03742962185000265 0.01876763665020803 3:375.0 8:16.0 12:2358.0 14:97.0 18:5.0 
0.037412310839660234 0.01876748924458993 5:129.0 12:7136.0 14:191.0 16:36.0 
0.037412310839660234 0.01876748924458993 3:569.0 12:555.0 14:266.0 
0.03740986336646507 0.018766287260273462 1:350.0 12:1075.0 14:195.0 
0.037408223863221124 0.018766195900625893 5:40.0 8:8.0 12:2800.0 14:23.0 
0.03740679202392516 0.018765393770222072 3:177.0 4:137.0 5:8.0 12:6518.0 16:20.0 18:6.0 
0.03740675880819955 0.0187646615265738 3:274.0 5:221.0 12:3587.0 14:48.0 
0.037405673493472014 0.018764331284084612 3:204.0 12:2260.0 
0.03740555678345486 0.018764163272486867 3:2246.0 4:4.0 12:2773.0 14:609.0 16:6.0 
0.03740555678345486 0.018763363502078023 12:5510.0 14:524.0 
0.03748188520818824 0.01864454103507679 1:9.0 4:1.0 12:4185.0 14:80.0 
0.03715485682365003 0.01853192987037966 12:1487.0 14:26.0 
0.03740547443755193 0.018762404462165205 12:21811.0 
0.03740313089470637 0.018762074333821488 1:2.0 12:6341.0 14:63.0 16:2.0 
0.03740312405450524 0.018762074333821488 1:22.0 4:8.0 7:849.0 8:10.0 12:1173.0 14:24.0 20:1.0 
0.028834292459608002 0.014408427575991978 4:2.0 12:1641.0 14:17.0 
0.037403036346430496 0.018757449083381506 1:22.0 3:146.0 7:1271.0 12:1336.0 14:287.0 
0.037403036346430496 0.01875744886516878 12:21353.0 14:283.0 
0.03260292889458205 0.016248750352760022 12:5468.0 
0.037402748870062674 0.01875703943256285 5:152.0 9:7.0 12:6284.0 14:142.0 18:29.0 
0.03795855078955923 0.01914306507551472 12:5211.0 14:129.0 
0.022224904848560767 0.011021725836370566 3:3.0 12:3129.0 
0.037402748870062674 0.018756737928657896 8:236.0 12:2289.0 14:1.0 
0.03740255778119961 0.018756344550798054 8:113.0 12:3357.0 14:1.0 
0.037402420066201814 0.021743024776772035 12:6919.0 14:8.0 
0.03740230300690961 0.018755815879440474 4:780.0 5:9.0 12:1740.0 14:289.0 
0.037402292362127554 0.018755815876655868 3:657.0 5:455.0 12:4648.0 14:599.0 
0.037402292362127554 0.018755815876655868 1:139.0 4:1332.0 8:2.0 12:5994.0 14:126.0 
0.02901167785339171 0.014505837325882278 12:5216.0 
0.03740224037730977 0.018755426714136603 4:5.0 8:44.0 9:6.0 12:2563.0 14:674.0 
0.03740224037730977 0.018755426714136603 8:2.0 12:7816.0 14:81.0 
0.0379590564630542 0.018567636323420178 3:14.0 12:3026.0 14:199.0 
0.03740195497620613 0.0187542031617125 4:101.0 12:452697.0 14:498.0 
0.03740195258580348 0.018753856943620584 12:2116.0 14:194.0 
0.03740195258580348 0.01875280105334176 1:112.0 4:1.0 5:27.0 8:25.0 12:951.0 14:260.0 
0.03740186326193451 0.018752241450208096 4:1599.0 12:735.0 14:38.0 
0.03740186326193451 0.018743798175656412 4:16.0 12:3956.0 14:57.0 
0.03740186278194996 0.018743797764289638 12:5598.0 14:235.0 
0.037701245993267705 0.01872416800622395 4:12.0 8:8.0 12:1384.0 14:39.0 
0.03740184050539824 0.018743185895093106 5:65.0 12:789.0 14:300.0 
0.019441561974614885 0.010467360667680004 12:4402.0 
0.037448200833109846 0.018620302616269624 12:5895.0 14:189.0 
0.037401361909235264 0.018743001431983264 8:2.0 12:9291.0 14:101.0 18:6.0 
0.03739822135156673 0.018743001431983264 12:19117.0 
0.03739659895589004 0.018742999295682627 4:50.0 5:11.0 8:21.0 12:24857.0 13:4220.0 14:323.0 18:105.0 
0.037395531130261506 0.018741904035383394 3:1.0 4:18.0 5:101.0 12:5676.0 14:179.0 18:32.0 
0.03784689917661016 0.01856898736875784 12:5868.0 
0.03738306613460729 0.01874028107258241 7:7407.0 12:412.0 14:214.0 
0.03738286618046199 0.018739452550463664 3:321.0 7:68.0 12:1234.0 
0.03738308138208152 0.01873934141424055 3:44.0 4:1150.0 12:1317.0 14:217.0 
0.03738304164245704 0.018739335710091842 8:111.0 12:3033.0 14:8.0 
0.03738309359137115 0.018739335710091842 5:63.0 12:3264.0 14:131.0 
0.0373816740021124 0.018739048513211898 12:66258.0 
0.03738171533595536 0.018738210754337348 3:29.0 4:8.0 5:165.0 8:896.0 10:28.0 12:1279.0 13:2186.0 15:283.0 19:5.0 
0.03738088264386208 0.018736608582371084 3:51.0 4:29.0 5:6.0 12:2057.0 14:227.0 
0.03737668038315417 0.01873546343147664 1:74.0 3:13.0 5:123.0 12:3021.0 14:165.0 
0.03737545055152808 0.01873546343147664 4:1.0 8:2.0 12:16141.0 14:2229.0 
0.03737545055052893 0.01873546343147664 12:5768.0 16:56.0 
0.03737252583183587 0.01873546343147664 1:69.0 4:7.0 9:1.0 12:1317.0 18:37.0 
0.03736852234360061 0.018735443269651597 4:4.0 12:1689.0 14:176.0 
0.03736536042829247 0.018734832149179093 5:55.0 12:1573.0 14:1061.0 
0.037365090567550885 0.018734832149179093 3:27.0 4:42.0 9:50.0 12:4235.0 14:1124.0 18:38.0 
0.028746359502910573 0.014372867082800767 12:1899.0 14:55.0 
0.01800467020117824 0.01616818335812864 8:6.0 12:2535.0 
0.037365043991949176 0.018734568759624537 5:477.0 12:2438.0 14:160.0 
0.03771415148072621 0.018960946979694526 4:1.0 8:4.0 12:2061.0 14:91.0 
0.03746299647510265 0.018547904445888046 2:1.0 12:7843.0 
0.03779881239833288 0.019228568025405457 4:2.0 5:24.0 8:10.0 12:3141.0 
0.03736191966541763 0.018734507848467696 5:50.0 12:22034.0 14:358.0 18:4.0 
0.037359425740414454 0.018734207559644056 12:29840.0 14:5.0 16:2.0 
0.037563418179077046 0.018714564873194284 7:13.0 12:1502.0 
0.037357086576637444 0.018734207559644056 5:1226.0 12:4259.0 14:314.0 
0.037356507395360616 0.01873417886174006 3:2.0 4:38.0 5:134.0 8:3.0 12:3971.0 13:528.0 14:1663.0 
0.03735212029240187 0.01873417613643108 4:1.0 12:12687.0 14:98.0 
0.037481342919242266 0.018855142686952653 12:3347.0 14:15.0 
0.03735208577205773 0.01873417613643108 8:654.0 12:47.0 14:6907.0 
0.03735208577205584 0.018732724764299713 2:58.0 3:70.0 4:44.0 5:421.0 12:1336.0 14:110.0 
0.03735159231160112 0.018732325654573945 1:805.0 4:267.0 9:9.0 12:4217.0 14:1313.0 
0.03735159231160112 0.018731892338630374 1:103.0 3:340.0 8:2.0 12:8091.0 14:93.0 
0.03735122819707515 0.01872491251989039 12:572.0 14:637.0 
0.037351193256727366 0.01872491117255104 7:6.0 12:7522.0 14:30.0 
0.037779706017161185 0.018961337949441603 4:4.0 12:1714.0 14:285.0 
0.03795449802348433 0.018671719091446493 8:10.0 12:2548.0 14:105.0 18:3.0 
0.03735076195168535 0.018728108196424453 1:2.0 5:71.0 12:1286.0 14:51.0 
0.03735066173886331 0.01872860879911825 1:938.0 4:92.0 8:22.0 9:9.0 12:10276.0 
0.037349071757780405 0.018731701047359328 1:65.0 5:8.0 8:14.0 9:2.0 12:1274.0 14:129.0 
0.037346660004244914 0.018730935189198605 3:82.0 8:2.0 12:933.0 
0.037346141427392066 0.01873016007911943 3:160.0 12:1819.0 
0.03734469021311887 0.01873191050764983 3:6261.0 12:153.0 
0.037343606061423285 0.01873186662311499 1:2.0 4:3.0 7:1578.0 12:894.0 14:9.0 
0.03769480288540268 0.019228333319083246 5:28.0 8:5.0 12:1441.0 14:63.0 
0.03734343881130092 0.018731399689267125 12:53901.0 
0.037340709808077854 0.018731243018200894 3:123.0 12:2194.0 
0.03733096147962134 0.01873108207159524 8:9.0 12:834.0 14:602.0 
0.03778089695954184 0.018806484734160356 12:5794.0 14:41.0 
0.03733096112483336 0.01873090321877635 3:39.0 12:6884.0 14:70.0 
0.03733096112483336 0.018730170519727807 3:296.0 4:6.0 9:20.0 12:4831.0 14:98.0 
0.03732996372694092 0.018729683688903487 3:89.0 4:29.0 5:176.0 12:5083.0 14:831.0 
0.03732985716320203 0.018729414044712844 4:107.0 5:281.0 12:9220.0 14:154.0 
0.03795382557579713 0.018369743518707626 12:7962.0 
0.037812895678390135 0.018806044511628872 12:1702.0 14:34.0 
0.03732985716320203 0.018728846426754597 12:5473.0 14:131.0 
0.0373286540845395 0.01872791482727698 4:2.0 5:153.0 7:1.0 8:18.0 12:2719.0 14:50.0 
0.0373286540845395 0.018727369344567424 4:5.0 12:428.0 14:1443.0 
0.03747497028974536 0.018632728994766243 12:1438.0 14:52.0 
0.0373286540845395 0.018727119680277293 3:18.0 5:610.0 12:4443.0 14:264.0 18:27.0 
0.0373286540845395 0.018726055204028313 3:6.0 5:1190.0 12:559.0 14:340.0 18:9.0 
0.0373286540845395 0.01872570602721435 3:135.0 5:43.0 8:1.0 12:7613.0 14:410.0 
0.037483607133626085 0.018712560929377176 4:1.0 12:1363.0 14:88.0 
0.0373286540845395 0.018725563091844144 1:3.0 7:6259.0 12:280.0 14:37.0 16:2.0 18:1.0 
0.0373286540845395 0.018725376029776197 5:23.0 12:68050.0 14:11830.0 
0.03784901413293612 0.018566383992905944 12:5241.0 14:11.0 
0.0373286540845395 0.01872491367165613 3:1.0 8:1905.0 12:22.0 
0.023708122572673906 0.011854249603607703 1:2.0 12:1833.0 
0.03732855240749777 0.01872081159891492 1:123.0 9:1.0 12:4877.0 14:143.0 
0.03732590762311783 0.018720683844680674 12:145.0 14:7422.0 
0.037325795880536417 0.018720066686332304 12:2857.0 14:231.0 
0.037325711797833394 0.018720005119348848 1:3.0 3:41.0 5:3.0 12:1654.0 14:61.0 
0.037325711797833394 0.018719654874594427 3:15514.0 4:5.0 12:595.0 
0.037372536027970915 0.018585567737027353 1:4.0 4:1.0 5:5.0 12:3605.0 14:48.0 
0.03732487339143875 0.018719610239901374 7:67.0 12:970.0 14:268.0 
0.037324805315206766 0.018719552339883205 1:5.0 12:670.0 14:1021.0 
0.03472946075344302 0.016403552689013612 12:2786.0 
0.03732463648884138 0.018719552306166898 4:1.0 12:11619.0 14:60.0 
0.03732400674500708 0.018719505945418158 3:331.0 12:5013.0 14:184.0 18:9.0 
0.03732342479584372 0.018719451630289208 12:3668.0 14:120.0 
0.03731243833220266 0.018719414625460784 3:1.0 5:128.0 8:33.0 12:1203.0 14:353.0 
0.03731243833220266 0.018719357341102416 4:1.0 7:2066.0 12:357.0 14:386.0 
0.03731243833220266 0.018719002050717526 3:5036.0 12:331.0 14:10.0 
0.03781539028080799 0.01856150193329318 5:56.0 9:1.0 12:1371.0 
0.03731243833220266 0.018718993306375054 4:5.0 12:26059.0 
0.03795855087753286 0.04530717756408692 3:23.0 12:2182.0 
0.037312105133963325 0.01871895794412204 4:1409.0 8:20.0 12:309.0 14:181.0 
0.0373116522456064 0.01871895649449723 3:171.0 12:7025.0 14:53.0 
0.037960124344748214 0.018567455067511784 8:12.0 12:2082.0 13:10.0 14:169.0 
0.037310855580811264 0.01871895649449723 4:2.0 8:21.0 12:903.0 14:146.0 
0.037310855580811264 0.018718893604228626 1:2.0 8:11.0 12:74.0 14:4714.0 
0.037310855580811264 0.01871889099005508 3:1028.0 12:8379.0 
0.037310855580811264 0.01871889099005508 4:14.0 12:1910.0 18:58.0 
0.037310855580811264 0.018718889237070713 1:1.0 3:9.0 4:1.0 5:384.0 8:210.0 12:1160.0 
0.03731085558081128 0.01871888923707072 5:132.0 12:5241.0 14:321.0 
0.03730377707781307 0.018718889237070713 12:8449.0 
0.03730377211507363 0.018718889237070713 1:204.0 4:150.0 8:19.0 9:23.0 12:20106.0 14:198.0 
0.03730377211507363 0.01871888679887329 12:1495.0 14:98.0 18:31.0 
0.03730376728754725 0.01871888679887329 4:7.0 5:73.0 12:4558.0 14:76.0 
0.03730376728754725 0.018718851790593738 12:14500.0 14:1614.0 
0.03730373715943791 0.0187187979686122 5:33.0 12:10841.0 13:167.0 14:286.0 16:4.0 
0.03795258865327811 0.01886449510077509 12:3385.0 14:54.0 18:2.0 
0.03730373715943791 0.0187187979686122 12:3548.0 14:114.0 
0.03730357747916796 0.01871878655274739 12:2152.0 14:6055.0 
0.03730351744709037 0.018718780316352324 4:23.0 5:39.0 12:7009.0 
0.037302865537462315 0.018718780316352324 3:73.0 12:14992.0 14:148.0 
0.037302764754133966 0.018718770745003666 1:81.0 4:5.0 7:2038.0 12:816.0 
0.03730276472959887 0.018718763683463924 1:36.0 3:1.0 4:2.0 5:11.0 9:4.0 12:1360.0 14:94.0 
0.03729977384703631 0.018718763683463924 4:266.0 8:31.0 12:6568.0 14:57.0 
0.037296814679269596 0.018718758152748483 5:21.0 12:218.0 14:5735.0 
0.037590985069272886 0.01871032484061408 12:2787.0 14:53.0 
0.03729508700950712 0.018718758152744708 3:14.0 4:1269.0 9:57.0 12:3862.0 14:236.0 16:2.0 
0.03729182290945732 0.018718758152744708 12:126.0 14:3279.0 
0.03729169582857278 0.01871873248231004 12:3962.0 14:9523.0 
0.0378877381116991 0.01896731212252739 1:15.0 9:10.0 12:2392.0 
0.003673858948530895 0.0018368826177330155 12:7670.0 
0.037738410573567305 0.018727252543032924 8:6.0 12:1530.0 14:50.0 
0.03776214681867929 0.019209386707981765 12:2666.0 14:219.0 
0.06114009197549245 0.015187176698053695 12:2274.0 
0.03728972758062987 0.01871873248231004 12:4053.0 14:46.0 
0.0372895366081572 0.018718706866302115 1:1.0 8:16.0 12:1560.0 14:635.0 
0.037289122832433685 0.018718706866302115 3:15.0 5:134.0 7:2161.0 12:2905.0 14:100.0 16:21.0 
0.037635983200217826 0.01846988489548107 12:5007.0 14:10.0 
0.03728893327881583 0.018720260179076298 3:1024.0 12:21.0 
0.0727645710325367 0.01718117297881555 12:2296.0 
0.03728711702089926 0.018720260179076298 3:408.0 4:9.0 5:155.0 12:2234.0 14:252.0 18:2.0 
0.03728668305397459 0.01871532432549544 3:30.0 12:8753.0 14:61.0 
0.03767743240089294 0.01849253260264827 3:5.0 12:3984.0 
0.03728626582134614 0.018713917630119148 4:134.0 5:745.0 9:23.0 12:1963.0 14:193.0 
0.03728579452223274 0.01871284604147405 1:7.0 3:53.0 7:1512.0 8:17.0 12:841.0 14:97.0 
0.03595210192410969 0.017952168560687265 4:1.0 12:7677.0 
0.037533303215965985 0.018513687789713906 1:7.0 12:6388.0 
0.03728555637718445 0.01871242882357793 8:50.0 12:4713.0 14:142.0 
0.03728482670484756 0.01871164027184591 3:332.0 4:1.0 8:2.0 12:811.0 14:273.0 
0.03728482670484756 0.01871164027184591 12:7867.0 14:28.0 16:28.0 
0.037276978588204 0.0187115027062858 7:103.0 12:1271.0 14:310.0 
0.03784790673822469 0.018581893872902766 5:17.0 12:2850.0 14:65.0 
0.037960821351721075 0.018562897006881685 5:4.0 8:6.0 12:3042.0 14:251.0 18:10.0 
0.037276978588204 0.0187115027062858 4:175.0 8:2.0 12:601.0 14:296.0 
0.037277001315922154 0.01871144564870003 1:3.0 9:28.0 12:2255.0 14:127.0 
0.037277001315922154 0.01871144564870003 1:32.0 4:1.0 12:1677.0 14:314.0 
0.03727687879894587 0.01871142123267877 1:1.0 7:1069.0 12:4369.0 
0.037276159536435316 0.01871142111078783 3:181.0 12:23878.0 
0.037275117528089985 0.01871142111078783 5:160.0 12:961.0 14:27.0 
0.03727511752774648 0.018711345659557066 12:3842.0 14:147.0 
0.0377538419864939 0.018806422717685622 3:6.0 12:1168.0 14:195.0 
0.03727503168382151 0.018711345659557066 1:22.0 8:78.0 12:4284.0 14:236.0 
0.03727503168382151 0.01871134362934468 5:1100.0 12:1545.0 14:290.0 
0.03727496076096104 0.01871134362934468 3:265.0 4:22.0 5:15.0 12:1162.0 14:114.0 
0.03727496076096104 0.01871134362934468 4:9.0 5:61.0 12:3531.0 14:221.0 18:9.0 
0.03795435910933159 0.01925997199777857 12:2097.0 14:156.0 
0.03779994818271998 0.019228333318215496 3:21.0 12:1182.0 14:4.0 
0.03727487508305749 0.018710939889832523 1:98.0 9:1.0 12:535.0 13:4667.0 14:191.0 16:2.0 
0.0373585581079946 0.01882654149882068 5:9.0 8:4.0 12:3737.0 14:124.0 
0.03727480656521187 0.018710800138160233 4:1044.0 5:12.0 9:3.0 12:10072.0 14:36.0 16:4.0 
0.03727473652806257 0.018710299925281393 7:525.0 8:4.0 12:1175.0 14:266.0 
0.03727473652803748 0.018710299903780425 4:2.0 8:3802.0 9:11.0 12:1176.0 14:2212.0 
0.037814538506977524 0.018602637856967807 8:2.0 12:525.0 14:1236.0 
0.03727473652803337 0.018710258381908818 5:217.0 8:14.0 12:3491.0 14:80.0 
0.0 0.016208927304064535 12:2077.0 
0.03299119529644534 0.016489739172565132 3:24.0 12:3166.0 
0.03727473651999258 0.018710258381908818 3:2.0 4:34.0 9:14.0 12:2322.0 14:203.0 
0.03726785470930927 0.018709514223869794 3:18.0 7:163.0 12:31804.0 14:130.0 16:20.0 
0.037267531354875094 0.018709121584922217 3:75.0 12:2129.0 
0.03726752882656925 0.018708791063161923 1:5.0 3:869.0 8:32.0 9:16.0 12:4326.0 14:398.0 
0.037267524326291546 0.01870853591788396 4:3.0 5:115.0 12:1201.0 14:85.0 
0.037267524326291546 0.01870724893958864 1:1.0 7:966.0 8:13.0 12:803.0 14:37.0 
0.037267524326291546 0.01870724893958864 7:4880.0 12:2693.0 14:467.0 
0.037267524326291546 0.018706942102397872 8:4.0 12:37.0 14:7989.0 
0.029316062724052648 0.33890356451723147 12:1576.0 
0.037267524326291546 0.018706610761585973 1:6.0 4:178.0 8:1496.0 11:1128.0 12:111.0 13:44.0 
0.0 0.006098140694347129 12:3053.0 
0.03760239936321558 0.018929766491814326 4:1.0 12:3323.0 14:26.0 
0.03726729530111267 0.018705639077143288 1:69.0 4:77.0 5:24.0 9:2.0 12:4298.0 14:15.0 18:3.0 
0.02951030780043018 0.014356871509007219 5:1.0 12:3981.0 14:41.0 
0.03726686601938611 0.018704265425606936 1:7.0 3:1.0 12:6689.0 14:848.0 
0.03726608281200244 0.018704265425606936 3:119.0 12:8017.0 14:118.0 18:34.0 
0.03726591845377042 0.018703646080895586 5:99.0 9:1.0 12:562.0 14:818.0 
0.03726591690521175 0.018703646069092694 1:2.0 8:1.0 9:8.0 12:27133.0 14:51.0 
0.03427639544444144 0.017095460760183034 12:3695.0 14:7.0 
0.03763162427457034 0.018723392325022403 1:9.0 8:2.0 12:3631.0 14:9.0 
0.037264301194148586 0.018703646069092694 12:7455.0 13:38.0 14:34.0 16:12.0 
0.037264301194148586 0.018700900497462536 1:32.0 8:46.0 12:17656.0 14:306.0 
0.03726325756950277 0.01870090049736861 5:11.0 9:18.0 12:6132.0 14:59.0 
0.03795868441524247 0.01870088245300655 4:30.0 12:2178.0 
0.03785086684278666 0.018568992171997645 12:6796.0 14:22.0 16:6.0 
0.037865758369433566 0.018766161005832116 12:1068.0 14:125.0 
0.03744392240271066 0.018606636515881965 8:13.0 12:9319.0 14:42.0 
0.037925752909862 0.018761229234964927 1:7.0 8:4.0 12:1909.0 14:23.0 
0.03615828779487246 0.01807046649291244 8:6.0 12:1360.0 14:41.0 
0.03731709173685124 0.01856504760154762 3:65.0 12:2286.0 
0.03726033070506252 0.018699636653210838 1:161.0 4:23.0 9:3.0 12:667.0 14:233.0 
0.03726033070506252 0.018699636653210838 12:77.0 14:1473.0 
0.03726035670416178 0.018698411521820002 1:8.0 9:15.0 12:1145.0 14:790.0 
0.03726035670416178 0.018698009019388007 12:3629.0 14:113.0 
0.03795290308406224 0.018874237053099097 8:4.0 12:2386.0 14:46.0 
0.03725939719775945 0.018697748237312184 5:76.0 12:2965.0 14:237.0 
0.03725939719775945 0.018696879637836394 1:16.0 3:16.0 5:13.0 6:5.0 7:554.0 8:69.0 12:349.0 18:554.0 
0.03795401029614631 0.018388565581481997 1:2.0 12:3227.0 14:22.0 
0.03725530025809082 0.01869537584225356 5:223.0 12:2130.0 14:334.0 
0.03725524918129397 0.018695106129708372 3:2027.0 12:1721.0 
0.0372547810567283 0.018695106129708372 8:2.0 12:3826.0 14:1828.0 
0.03725389829907161 0.018695080105886497 1:4.0 8:12.0 12:1717.0 14:311.0 18:18.0 
0.03771414754700314 0.018959497867892416 12:1874.0 14:83.0 
0.03795855107152993 0.019190867453159566 12:14832.0 
0.037714156460652015 0.018759918355639504 8:17.0 12:1586.0 
0.03781392287051316 0.018803251531004983 12:1231.0 14:193.0 
0.03725296983660786 0.018694899329323167 12:19809.0 
0.03748134391428193 0.018849463111494935 8:2.0 12:1625.0 14:99.0 
0.03725296983660786 0.01869430591546367 3:112.0 9:13.0 12:5190.0 14:151.0 16:14.0 
0.037252331792096305 0.01869426369595295 1:355.0 4:1.0 5:41.0 8:2.0 9:9.0 12:1331.0 14:458.0 
0.035707002710226254 0.017743840600540906 8:6.0 12:1434.0 
0.037481334101278074 0.01883460584442076 8:6.0 12:1750.0 14:43.0 
0.03725175803665021 0.018693707034662 1:113.0 5:31.0 12:902.0 14:801.0 
0.0372515136937438 0.018693707034662 4:256.0 9:90.0 12:4744.0 14:3299.0 
0.03786800642149696 0.018820277776112893 12:2754.0 14:64.0 
0.03732673632718014 0.0185787519574509 12:1280.0 
0.037940272981636936 0.01859361642877516 12:3331.0 14:13.0 18:7.0 
0.037251005296110695 0.01869230352062584 5:95.0 12:2844.0 14:263.0 
0.0372455589577782 0.018691521840539516 12:443.0 14:1607.0 
0.03665311517126951 0.018320763159494637 12:5051.0 
0.9419716119370076 0.018621312139810664 8:23.0 12:2367.0 
0.037469503927143266 0.01868628578495901 12:4853.0 
0.033174671739157224 0.01796678795609491 12:2081.0 14:8.0 
0.037245160767240604 0.01869114476442446 5:129.0 9:17.0 12:1085.0 14:277.0 
0.03724502591063433 0.018691112333591775 3:40.0 4:2.0 8:14.0 12:7614.0 14:64.0 
0.03744077645578586 0.018419545998437925 4:5.0 8:6.0 12:1720.0 14:38.0 
0.03252087869809284 0.01621436926957054 1:2.0 5:4.0 12:5391.0 
0.0372450259099788 0.018690530403631944 3:28.0 4:122.0 7:6164.0 8:2.0 12:501.0 14:122.0 
0.03724499100930595 0.018689448033166578 8:2.0 12:5901.0 14:671.0 
0.03724487731563303 0.01868828596754779 4:5.0 7:966.0 9:5.0 12:669.0 
0.037244860548721725 0.018688285967547846 5:48.0 12:9565.0 14:793.0 
0.03724448649238654 0.01868219566915663 8:37.0 12:2703.0 
0.03724412072519384 0.018681933709679854 5:537.0 12:3246.0 14:204.0 
0.037243878754579685 0.018681808954366885 7:3815.0 12:514.0 14:460.0 
0.03724353611883796 0.018681713710289982 1:8.0 7:1946.0 12:663.0 
0.03724353611883796 0.018681713710289982 5:1135.0 9:70.0 12:4126.0 
0.0372434043673579 0.018681570597358477 4:66.0 5:74.0 8:4.0 12:2274.0 14:255.0 
0.0372434043673579 0.018680317000367597 5:152.0 12:1658.0 14:11.0 
0.03724329016668709 0.018680317000367708 4:15.0 5:36.0 7:69.0 8:145.0 9:103.0 12:1881.0 
0.03163936630730324 0.016306275715179508 12:1374.0 
0.03724329016668709 0.01868008850746189 4:4.0 5:490.0 12:2982.0 14:28.0 
0.03724146862041683 0.018678965435232453 5:234.0 12:2908.0 
0.03724146943303125 0.01867852398075759 1:107.0 4:24.0 8:14.0 12:6460.0 
0.03724121768108851 0.018678113215570558 5:171.0 8:24.0 12:1853.0 14:249.0 
0.037240768544355374 0.018676678796384016 5:128.0 9:7.0 12:1308.0 14:48.0 
0.13499657189426828 0.018147317181159694 12:1461.0 14:7.0 
0.03724057480663334 0.018676678796381907 8:33.0 12:1406.0 14:101.0 
0.03724057480663334 0.018676678796381907 5:25.0 12:999.0 14:239.0 
0.03723975804480212 0.01867624146415653 1:136.0 8:6.0 9:3.0 12:2537.0 14:156.0 
0.03771415134236439 0.018930951488367154 4:13.0 12:6004.0 14:53.0 
0.037239439884489134 0.018638143747523317 3:35.0 4:270.0 5:253.0 12:1111.0 14:133.0 
0.03723935839313397 0.018675072774130497 3:20.0 8:21.0 12:1698.0 14:161.0 18:42.0 
0.03793970046918971 0.018459182286783116 12:7692.0 
0.03784836064473007 0.018559995064183155 8:11.0 12:5745.0 14:63.0 16:14.0 
0.03723935839313397 0.018672313853001443 4:34.0 5:39.0 8:9.0 12:4089.0 14:68.0 
0.03723482769811787 0.018672313853001443 4:12.0 12:4065.0 14:70.0 
0.03723366183401561 0.018671719091449712 1:19.0 8:41.0 9:2.0 12:1713.0 14:134.0 
0.037233336222460056 0.01867118124240602 1:12.0 3:1.0 4:8.0 7:165.0 12:2800.0 14:2991.0 
0.028054556036284536 0.014028463666134002 8:2.0 12:4605.0 14:3.0 
0.03723248501805848 0.018669420645432755 8:48.0 12:3212.0 14:66.0 
0.0 0.005689447381276369 12:2982.0 
0.03723233129014142 0.018669186195199083 8:170.0 12:2503.0 14:4.0 
0.03723205208886393 0.018668778026751653 5:800.0 9:18.0 12:4983.0 14:131.0 
0.03748362983684411 0.018687051788492726 1:2.0 12:3582.0 14:132.0 
0.03723202400837872 0.018667944198272945 12:1099.0 14:909.0 
0.03773728274267607 0.01874392850665252 4:2.0 12:1957.0 14:20.0 
0.03742800216668257 0.018606552062114257 12:1570.0 14:319.0 
0.03723202400837872 0.018667519102240737 4:1965.0 12:2434.0 14:281.0 
0.03723013310495088 0.01866739287190522 3:1505.0 5:17.0 12:224.0 14:435.0 
0.03722940171471689 0.01866739287190522 8:2.0 12:5797.0 
0.03722818881211609 0.01866739287190511 1:45.0 4:2.0 12:45221.0 14:34.0 
0.037228186296121624 0.01866739287190511 12:4928.0 14:126.0 
0.03781374249403824 0.01880771541306886 4:1.0 9:11.0 12:1205.0 14:178.0 
0.03363337830663293 0.0167706964419595 4:1.0 12:1661.0 14:112.0 
0.037227983916526985 0.018667392871905053 12:292.0 14:2623.0 
0.0380257065076024 0.01911380105478344 12:1201.0 
0.037480912772073605 0.018706732831813178 2:2.0 8:4.0 12:1004.0 14:62.0 
0.03722757257728432 0.018667392871905053 1:1.0 3:184.0 7:1000.0 12:1344.0 14:147.0 
0.03722707436214717 0.01866739287190472 2:2.0 4:50.0 5:2.0 7:1.0 8:21.0 12:1288.0 13:126.0 14:66.0 
0.03722707436214717 0.01866739287190472 4:44.0 12:866.0 14:108.0 
0.037950712029109435 0.018561809366163695 12:1928.0 14:59.0 
0.03722696824497257 0.018667392871904553 12:188.0 14:7491.0 
0.03722696824497257 0.018667392871904553 4:4.0 5:38.0 12:1883.0 14:195.0 
0.02960280183292735 0.014801400150960875 8:3.0 12:4170.0 
0.03722695088448741 0.01866739287190422 1:78.0 3:17.0 4:71.0 12:5648.0 14:18.0 
0.037226888442878026 0.01866739287190422 1:7.0 4:3.0 7:326.0 12:685.0 14:679.0 
0.037947869417195745 0.018560294924450216 3:3.0 5:1.0 8:9.0 12:2318.0 14:164.0 
0.037848490452678074 0.01856525088908706 12:1369.0 14:195.0 
0.037226888442878026 0.01866739227241687 3:14.0 4:57.0 5:182.0 12:5958.0 13:62.0 14:540.0 16:3.0 
0.037226864181132024 0.01866739227241687 1:10.0 5:50.0 12:5765.0 13:20.0 14:50.0 
0.037226580777464435 0.018667392272416816 3:21.0 4:21.0 5:10.0 12:2169.0 14:107.0 
0.03822085360510907 0.015624999996050104 12:2559.0 
0.03722652008492805 0.018667392272416816 5:209.0 12:4521.0 14:33.0 
0.03743909769639148 0.01844688207986586 4:2.0 12:4880.0 14:92.0 
0.03722191806465569 0.0186671759236946 1:445.0 4:17.0 8:8.0 9:12.0 12:487.0 14:619.0 
0.03722155565822516 0.018667175923693657 8:185.0 12:9487.0 14:3.0 
0.037219360545745706 0.018666605530365032 8:1329.0 12:2324.0 14:6.0 
0.0372178420195064 0.018666605530365032 3:11.0 5:42.0 12:989.0 
0.03721777687984146 0.018666395366708 1:134.0 4:138.0 5:70.0 12:8896.0 14:213.0 
0.037217579709678816 0.018665326648892977 8:1530.0 14:1450.0 
0.037215372569595784 0.01866510974883595 8:1.0 12:969.0 14:5730.0 
0.037215372569595784 0.01866477361003066 1:28.0 3:26.0 4:1.0 12:2869.0 14:126.0 
0.03784336523707027 0.018559870790882282 3:145.0 12:2979.0 
0.03721497348348185 0.018663591491987375 1:34.0 4:102.0 5:181.0 8:2.0 12:3839.0 14:226.0 
0.03721497348348185 0.018663514710694495 3:20.0 12:8093.0 14:125.0 
0.03721416830407098 0.018663449549869704 3:51.0 4:15.0 7:11.0 12:2727.0 14:1189.0 
0.03779822792301224 0.01922856802461509 12:7621.0 14:38.0 16:17.0 
0.037213775523629034 0.018663066834758324 8:27.0 12:2947.0 
0.03721358619860626 0.018662881766967176 1:5.0 7:6605.0 12:844.0 
0.03721358619860626 0.01866283464433721 3:6.0 12:39.0 14:5416.0 
0.03721275736185908 0.01866281120818092 7:1329.0 12:3406.0 14:2733.0 
0.03752861022331594 0.01920938667797084 12:4717.0 14:131.0 
0.027972202285971526 0.028176577130610503 3:2.0 12:2131.0 
0.037212754469092446 0.01866281120818092 12:6551.0 14:55.0 
0.03721260068276094 0.01866281120818092 5:534.0 12:4545.0 14:419.0 18:9.0 
0.16484294091604101 0.017928984033990125 12:1469.0 14:18.0 
0.022831899036324377 0.009221845779937954 12:1797.0 
0.03797645657519799 0.01913223937579156 12:3884.0 14:25.0 
0.03721219164775735 0.01866281120818092 5:251.0 12:6485.0 14:52.0 
0.03721177522422969 0.018661640943122726 3:25.0 4:1.0 7:2202.0 12:684.0 
0.03766152099634096 0.018656543660740377 12:2988.0 14:144.0 
0.03721177522422964 0.018567224125282333 8:42.0 12:1778.0 
0.03753345321781121 0.018885937580737644 5:64.0 12:1662.0 
0.03721172516445148 0.018656474583272076 4:244.0 12:2591.0 14:61.0 
0.03721165330425419 0.018656924344625514 3:278.0 4:5.0 8:2.0 9:78.0 12:2001.0 14:89.0 
0.02784299857364325 0.01387143477928221 1:4.0 12:940.0 14:49.0 
0.03721165330425419 0.01865688245158542 1:37.0 3:1.0 4:22.0 5:464.0 7:38.0 12:2125.0 14:4.0 
0.037211620944995305 0.01865612808898809 1:13.0 3:108.0 7:562.0 12:672.0 14:275.0 
0.037211620944995305 0.018656099449473218 4:5702.0 12:711.0 14:74.0 
0.03721153597555771 0.018655244529914794 4:39.0 5:34.0 8:23.0 12:3424.0 14:113.0 
0.03721138001518215 0.01865511223444566 3:871.0 12:2988.0 
0.03721093780291296 0.018655070665073104 1:107.0 12:699.0 14:128.0 18:47.0 
0.03721082906703577 0.018654305738739385 12:12431.0 
0.03721064171499466 0.01865245989533898 12:8273.0 14:86.0 
0.037204704113680986 0.01865226389237956 12:2069.0 14:1852.0 
0.0377839604180808 0.01896352725082201 12:4647.0 
0.037204704178187054 0.01865179403662237 1:5.0 8:22.0 12:4048.0 14:140.0 
0.03720411744460239 0.01865179403662237 12:88.0 14:2107.0 
0.03720315361403331 0.018651090787652536 1:4.0 4:2.0 5:206.0 12:2482.0 14:132.0 
0.037203153763723795 0.01865069410491904 1:82.0 4:15.0 5:701.0 12:2941.0 14:137.0 
0.037711292159314236 0.018650684231057257 7:2966.0 12:193.0 14:17.0 
0.03771066832738168 0.018650684231057257 12:1007.0 14:156.0 
0.0377209289344711 0.01864577263442241 3:217.0 4:4.0 12:2271.0 14:340.0 
0.03772959989396951 0.018645753065731463 5:49.0 10:1.0 12:5313.0 13:618.0 14:246.0 16:19.0 
0.03773146605284983 0.018645595428320727 4:32.0 5:421.0 12:1166.0 14:296.0 18:6.0 
0.03773210973661695 0.01864559535310989 8:15.0 12:7701.0 14:62.0 
0.03773812284844125 0.01864554485621217 4:1.0 12:119066.0 14:31.0 
0.03773770811729066 0.018645496328554445 5:63.0 7:259.0 12:1013.0 14:20.0 
0.03773770811567234 0.018645496316453902 1:176.0 4:3.0 9:25.0 12:9798.0 14:2224.0 
0.03773791564789608 0.0186454195284122 4:4.0 5:18.0 12:16311.0 14:33.0 
0.037738113178668764 0.018645039858479262 1:5.0 8:31.0 9:6.0 12:1406.0 14:158.0 
0.03773627900830584 0.018644763606679937 8:2.0 9:5.0 12:183.0 14:6095.0 
0.03564382766641555 0.018412617783837848 4:1.0 12:1474.0 14:26.0 
0.0 0.24137908147921228 12:2342.0 
0.03773613442347101 0.018644696428561036 1:323.0 8:5.0 12:1244.0 
0.03759709445883597 0.018440100307778873 12:7796.0 
0.03773575334299367 0.018644570403637206 4:3.0 12:175.0 14:107.0 20:3941.0 
0.03784595393832152 0.01922856802565498 8:22.0 12:1625.0 14:84.0 
0.03795894112710935 0.01876911299841655 1:4.0 9:9.0 12:1662.0 18:11.0 
0.037899178913543385 0.018844096193637805 12:1686.0 14:31.0 
0.03773517857263886 0.018644291996093187 5:39.0 7:1375.0 12:2074.0 14:257.0 
0.03773512352688785 0.018644214953568106 5:298.0 9:19.0 12:1704.0 14:144.0 
0.03789692018621693 0.01882789666150042 1:5.0 12:1495.0 14:214.0 
0.0377343645604008 0.01864405103185318 3:20.0 5:366.0 8:3.0 12:3988.0 14:877.0 
0.03773498803057279 0.01864405103185318 5:321.0 12:1101.0 14:438.0 
0.03773776771155529 0.018644019190104166 3:10.0 5:132.0 12:1714.0 14:213.0 
0.037747313166083485 0.01864401918596098 8:4.0 12:7519.0 14:187.0 
1.0 0.006130512268156751 12:2082.0 
0.03774726585607263 0.018643959833910928 3:130.0 8:26.0 12:2159.0 
0.03774725490795461 0.018643954119524964 3:7.0 5:37.0 12:13781.0 14:167.0 
0.037747254835560795 0.018643954119524964 1:228.0 9:13.0 12:2416.0 14:159.0 18:5.0 
0.03774725484062991 0.018643954119524964 4:3.0 5:61.0 8:664.0 12:27508.0 
0.0377505493683753 0.018642226928333283 7:3626.0 12:3450.0 14:59.0 
0.03776166786409818 0.018640951694482433 1:4.0 3:64.0 6:15.0 8:142.0 12:2049.0 19:22.0 
0.03776157977458816 0.018640682642053596 1:5.0 4:15.0 8:33.0 9:184.0 12:943.0 14:433.0 
0.03776158151678427 0.018640169673887208 4:2.0 12:18674.0 14:227.0 
0.03776148799616802 0.018640051240423616 3:2702.0 8:25.0 12:990.0 14:122.0 
0.03776136914361877 0.018640007080640564 3:67.0 4:3.0 5:15.0 7:621.0 12:5780.0 14:209.0 16:8.0 
0.03744820115608122 0.01861682518969271 12:994.0 14:85.0 
0.0377610460870505 0.018639749135605843 8:163.0 9:4.0 12:4094.0 
0.03776097755980623 0.01863964244974675 8:2.0 12:2706.0 14:283.0 18:11.0 
0.03771413742993979 0.018930944530665905 5:78.0 12:1671.0 
0.037760977560267805 0.01863669907081933 5:4.0 8:70.0 12:1928.0 14:556.0 
0.037631549305170375 0.018708955506098468 8:6.0 12:7158.0 14:9.0 18:5.0 
0.037760909181352165 0.01863669907081933 12:1772.0 14:2665.0 
0.03776090882294447 0.01863647424187198 8:426.0 12:22.0 14:1644.0 
0.03776090882338884 0.018636466004033847 4:2.0 8:4.0 12:1066.0 14:223.0 
0.037765797798897716 0.018636466004033847 12:15184.0 14:4.0 
0.037960124344748214 0.018567224125282278 8:129.0 12:2509.0 14:3.0 
0.037765797798897716 0.018636457511860383 1:408.0 4:4.0 12:6407.0 14:2637.0 
0.03777267442451032 0.018636276344579483 4:6.0 12:1197.0 14:910.0 
0.03777999818925171 0.018963525474363252 4:1.0 8:1.0 12:6606.0 14:84.0 
0.03777298303211113 0.018636257060830386 3:95.0 5:217.0 12:383.0 14:273.0 
0.037774364120858384 0.018636208507208762 8:699.0 12:1471.0 14:1.0 
0.03777621573037676 0.018636208494578477 6:31.0 12:6174.0 14:7.0 
0.037775916139859256 0.018635851069441933 5:76.0 12:4043.0 14:314.0 
0.03777591613989162 0.01863386683694307 4:70.0 5:11.0 12:1388.0 14:415.0 
0.037777689890025834 0.018633078463390962 4:17.0 5:80.0 7:1572.0 9:6.0 12:997.0 14:133.0 20:786.0 
0.037853614238108124 0.01925780436300245 9:3.0 12:1077.0 14:105.0 18:9.0 
0.03777768989004271 0.018632640901309838 3:9.0 4:20.0 5:372.0 8:130.0 9:81.0 10:6.0 12:919.0 13:47.0 14:89.0 15:4.0 
0.03777766089955342 0.01863243535221948 1:1.0 3:1933.0 4:6.0 12:1169.0 14:48.0 
0.038014593270355446 0.019259972236951084 4:2.0 5:13.0 9:15.0 12:2345.0 14:4.0 
0.037777653585383486 0.018632383557033505 12:13511.0 
0.028693668242879833 0.014406378894375127 5:2.0 12:7647.0 14:19.0 
0.03777750648434075 0.018628121130716102 4:1052.0 5:8.0 8:3.0 12:3971.0 14:20.0 
0.03777750648434075 0.01862809770342494 3:2.0 4:74.0 5:110.0 8:1.0 9:19.0 12:34928.0 13:4.0 14:314.0 16:6.0 18:10.0 20:47.0 
0.037599728540806454 0.01862866613639147 5:192.0 9:10.0 12:9077.0 14:335.0 
0.03777740835230303 0.018629089803578247 4:23.0 8:20.0 9:129.0 12:2429.0 14:64.0 
0.03769821577432486 0.018542925679470967 4:13.0 12:1587.0 
0.03777740820829273 0.01862942651777072 3:30.0 7:15.0 8:4.0 9:11.0 12:1301.0 14:222.0 
0.03779938678942163 0.01862926347425642 1:41.0 3:10.0 4:13.0 5:2.0 8:47.0 12:2267.0 14:255.0 20:150.0 
0.03790847994781027 0.019109775772687465 5:5.0 12:1342.0 14:26.0 
0.03779911147157855 0.0186290905358385 12:6995.0 13:685.0 14:378.0 
0.0178743574932248 0.00840564364997154 12:5482.0 
0.03779881239951077 0.018628605274878585 1:3.0 5:54.0 7:114.0 8:21.0 12:2772.0 14:13.0 18:2.0 
0.03779881239952332 0.01862925830421691 1:5.0 3:87.0 12:339.0 14:2053.0 18:16.0 
0.03779881239952532 0.018628112753679982 1:40.0 7:709.0 12:803.0 
0.03779881239952532 0.01862855579272421 1:8.0 3:20.0 5:412.0 12:1246.0 14:2114.0 
0.03779881239952926 0.018628304105379967 7:5184.0 12:582.0 13:1.0 14:153.0 16:20.0 
0.03784860264499873 0.018628102980831063 8:2.0 9:9.0 12:1140.0 14:209.0 
0.037798812399529536 0.018627713285173764 4:10.0 5:427.0 12:2307.0 14:45.0 
0.03779881239953253 0.018627713285173764 5:1962.0 12:5295.0 14:223.0 
0.03592912062921577 0.01795570410520314 12:4997.0 
0.03787117135184015 0.019026321660256584 1:4.0 8:18.0 12:2257.0 
0.037798812399553294 0.018627668345883752 5:238.0 8:1.0 12:5621.0 14:362.0 
0.037798688900463284 0.018627668345883752 3:13.0 12:2977.0 14:59.0 
0.03779854742521632 0.01862747932024117 1:5.0 3:17.0 4:6.0 12:6459.0 14:4096.0 
0.03792750179467286 0.01855993072727996 1:3.0 4:22.0 12:1385.0 14:212.0 
0.037798546616709616 0.01862747932024117 4:5.0 5:80.0 8:2.0 9:4.0 12:896.0 
0.03779841285350488 0.018627477736906484 12:34789.0 14:163.0 
0.03779839302511412 0.018627477736906484 3:60.0 12:2242.0 
0.03708949402713996 0.01850036830547802 1:1.0 12:1850.0 14:31.0 
0.03779833614986977 0.018627477736900155 3:8.0 12:10626.0 13:1.0 14:353.0 
0.03779833614986977 0.018627477736900155 8:14.0 12:4835.0 14:2144.0 
0.03779833614988232 0.018623784302793045 3:58.0 4:1.0 8:323.0 12:2557.0 
0.03779822792578452 0.018623784302283675 12:162.0 14:1490.0 
0.037798227925789296 0.018623784302283675 5:48.0 9:7.0 12:11608.0 14:963.0 18:5.0 
0.03779955165763432 0.01862378430074535 4:1.0 12:3106.0 14:114.0 
0.037805445908797364 0.01862378430074535 1:112.0 4:2060.0 8:26.0 12:93.0 14:182.0 20:11.0 
0.037928999183244605 0.01855999506461753 4:1.0 12:3671.0 14:54.0 
0.03781192022501573 0.01862378430074535 1:14.0 3:50.0 4:28.0 5:183.0 9:4.0 12:1431.0 18:4.0 
0.037811702513171064 0.01862280210986439 1:68.0 5:132.0 8:7.0 9:19.0 12:3541.0 14:11.0 
0.03781491689293992 0.018622682107179767 7:318.0 12:3267.0 14:35.0 
0.03781458262351983 0.018622682107179767 4:3.0 9:6.0 12:1116.0 14:196.0 
0.03781458262133641 0.01862266117054817 12:7236.0 14:48.0 
0.03762349862738956 0.018465100075904184 9:2.0 12:905.0 14:78.0 
0.019980589781705617 0.009458300314905245 12:4789.0 
0.037815274560007384 0.018622401397100752 5:118.0 9:11.0 12:6246.0 13:1.0 14:217.0 16:5.0 
0.03784643357361812 0.018621535749864363 12:5677.0 14:150.0 
0.03784640240038312 0.018621046971067534 3:3203.0 8:5.0 12:669.0 
0.037846236589790805 0.018621046971067534 5:62.0 12:5514.0 14:2213.0 
0.037846229512406626 0.01862064418257431 5:32.0 12:2528.0 14:62.0 
0.03785078514453605 0.01862060338304644 1:1.0 3:10.0 4:33.0 8:682.0 9:82.0 11:137.0 12:3197.0 13:482.0 
0.03785080809072272 0.0186200643900557 2:5.0 10:1.0 12:21379.0 14:310.0 18:7.0 
0.02582791604660739 0.012903014799220458 12:5552.0 
0.0378508022454036 0.018620042521784397 1:70.0 4:1.0 5:3.0 12:869.0 14:87.0 
0.037850866843066155 0.018620042521784397 4:1.0 5:84.0 9:9.0 12:5308.0 14:206.0 18:6.0 
0.03771415847173426 0.01881095164702795 3:12.0 4:14.0 8:6.0 12:2162.0 
0.037958550825486215 0.019150764302203638 5:8.0 8:1.0 12:2753.0 14:242.0 
0.03785165984520794 0.01862004252159849 9:2.0 12:2158.0 14:146.0 
0.03785033084856709 0.01862004252159849 1:196.0 3:3.0 4:26.0 5:471.0 8:4.0 12:3234.0 14:350.0 
0.03785031462767485 0.01862004252159849 5:270.0 8:32.0 9:6.0 12:1183.0 13:180.0 14:84.0 18:30.0 
0.03785022107090824 0.01862004252159849 1:71.0 3:1.0 4:21.0 5:3.0 7:36.0 8:281.0 9:1.0 12:1486.0 
0.03794786941719642 0.019259876637721107 5:1.0 12:7698.0 13:22.0 14:10.0 
0.03784992246687097 0.01862004252159849 7:2052.0 12:4325.0 18:4.0 
0.03738164313375886 0.01880345272295708 8:153.0 12:2179.0 
