svm_type c_svc
kernel_type rbf
gamma 0.05
nr_class 3
total_sv 980
rho -0.8495136844178309 -0.9448366891421667 -0.6245285040290989
label 2 0 1
nr_sv 809 125 46
SV
0.15049818234704576 0.055340850732887525 1:17.0 3:25.0 4:4.0 5:14.0 9:28.0 12:535.0 14:60.0 
0.1241872358601524 0.045545969714098244 1:1.0 8:2.0 12:110.0 14:8.0 
0.15049869229569318 0.05532961762582067 4:104.0 7:324.0 12:1438.0 
0.15049914250120383 0.05532879274512348 3:156.0 12:1166.0 14:34.0 
0.1509374348440662 0.05511157095292479 12:74.0 14:83.0 
0.1504875906972723 0.05531526693771538 1:3.0 7:42.0 12:636.0 13:24.0 14:57.0 
0.15490359446403806 0.05461794745545978 8:75.0 12:8.0 14:4.0 
0.15042692760023996 0.055587770671172154 4:1.0 8:11.0 12:155.0 14:98.0 
0.1505196684912165 0.055315219418782424 1:21.0 4:7.0 12:238.0 13:126.0 14:140.0 16:42.0 
0.15032065152427898 0.055177437045925704 5:4.0 12:800.0 14:14.0 
0.15054849340896553 0.055283680654115985 12:626.0 
0.15058649448509398 0.055283183927671176 4:63.0 8:133.0 12:1309.0 14:63.0 
0.1505222005516284 0.05527998942430795 5:2728.0 12:2882.0 14:418.0 
0.12537702136328122 0.045904090425699096 12:63.0 14:15.0 
0.006174197066593248 0.002194794041547648 12:24.0 14:16.0 
0.15061910889301694 0.05527228876850915 1:28.0 3:98.0 5:3437.0 8:182.0 12:32914.0 14:630.0 
0.15062354144609164 0.05526749939605369 12:2492.0 14:840.0 16:28.0 
0.1506148486359109 0.0552428412796383 3:123.0 12:678.0 14:318.0 16:48.0 
0.4055726830687192 0.052727371526120004 12:446.0 
0.14810355396873182 0.05425979166953915 9:3.0 12:51.0 14:165.0 
0.10313384101413525 0.0385876263454798 12:540.0 
0.15063643853512532 0.0552391915602074 7:30.0 9:6.0 12:423.0 14:6.0 
0.15063677468732156 0.055238715702659036 5:490.0 12:2828.0 13:1176.0 14:630.0 
0.15065314812890435 0.055140322959075894 5:144.0 12:587.0 14:32.0 
0.15054116348814378 0.055315219075662 3:10.0 4:5.0 9:2.0 12:247.0 14:60.0 
0.1509417972782363 0.05520817700171465 5:38.0 8:11.0 12:565.0 14:92.0 
0.15048796063101405 0.05516249330553652 5:8.0 12:852.0 14:20.0 
0.1504400083794285 0.05517363104556011 3:100.0 12:13925.0 14:2175.0 
0.15031842185028632 0.0551977457422867 7:14.0 12:150.0 14:21.0 
0.15040164650376703 0.05517913253161627 4:32.0 8:2.0 12:46.0 
0.15031728955857165 0.05516250665896555 3:238.0 12:1155.0 14:203.0 
0.15031711138682952 0.05516249350594454 8:44.0 12:330.0 14:88.0 
0.0 0.17764877844093674 3:2.0 12:42.0 
0.15043766881497728 0.05516387147341234 1:1.0 12:1068.0 14:121.0 16:4.0 
0.15040404501392995 0.05516131266121266 3:4.0 4:210.0 12:361.0 14:19.0 
0.05034669773677099 0.0 3:1.0 12:38.0 14:9.0 
0.1503157806022764 0.05517231899275743 3:52.0 8:395.0 12:1876.0 14:226.0 
0.15031361958906492 0.055141609581498885 12:1695.0 14:84.0 
0.15035928333860243 0.0551394068640641 12:1498.0 13:14.0 
0.15043655454785798 0.05511654343280192 12:1870.0 14:264.0 
0.15032609211768172 0.055124651082494536 1:7.0 4:14.0 8:28.0 9:77.0 12:336.0 14:84.0 16:42.0 
0.15721290703928298 0.05439837397169544 8:9.0 12:248.0 14:4.0 
0.15031861096632382 0.05512093434020382 12:4634.0 14:126.0 16:161.0 
0.15094910685482826 0.055118264964292674 12:15026.0 14:1276.0 
0.15082734684877158 0.05511585236853461 2:7.0 5:7.0 9:14.0 12:13895.0 14:602.0 
0.1509130800000522 0.05511225582968032 8:484.0 12:4708.0 14:506.0 
0.15080516410954065 0.05510448986826033 8:275.0 12:13875.0 14:3575.0 18:50.0 
0.15013847438506855 0.0552041625362758 12:336.0 14:56.0 
0.15077157317378453 0.05510113111314496 1:60.0 12:972.0 
0.15073614656726853 0.055033416652781 12:5830.0 14:1496.0 
0.14160385506630202 0.05141898773951464 12:123.0 14:18.0 
0.15070168619656343 0.05511407709130295 12:1799.0 14:168.0 
0.15074911101240723 0.0551165342577738 4:462.0 12:27258.0 14:968.0 16:88.0 
0.15054116441988796 0.05511693766381537 5:396.0 8:308.0 12:14256.0 14:3828.0 18:66.0 
0.1505489880860616 0.05511423408493449 12:840.0 14:56.0 18:175.0 
0.15042768885388996 0.05516279877919883 12:2156.0 
0.15040530984453665 0.05511544829605203 12:1918.0 14:182.0 
0.15076410439749488 0.05472181813315519 12:169.0 14:41.0 
0.15048001035574388 0.055204001185201024 4:6.0 8:54.0 14:12.0 
0.1503114964113509 0.05511343731860485 3:4818.0 4:572.0 12:27544.0 14:1584.0 
0.07362883987926816 0.021308476010395427 8:4.0 12:7.0 14:6.0 
0.15025777743189184 0.0551126846821105 1:44.0 12:572.0 14:44.0 
0.15015869975749757 0.05520382964934761 3:9.0 12:246.0 14:39.0 16:18.0 
0.15009882148617698 0.05511212410215849 4:52.0 7:276.0 8:116.0 12:1472.0 14:244.0 16:4.0 
0.15038955297411327 0.05532216568318293 4:1.0 8:4.0 12:215.0 14:219.0 
0.1504398614022711 0.05511150849170943 1:30.0 4:3.0 7:13.0 12:1149.0 14:5.0 18:2.0 
0.1513831269011217 0.05510686223796718 12:300.0 
0.15041999515331828 0.0551149761245977 1:2.0 7:86.0 12:93.0 14:75.0 
0.1504063500695566 0.0551149761245977 3:52.0 8:200.0 12:141.0 14:13.0 
0.1503190042941835 0.055123731549711064 12:3014.0 14:198.0 
0.35780660133448516 0.3939676682663647 12:48.0 14:4.0 
0.15032066496929575 0.05511949727660603 7:168.0 12:1792.0 14:490.0 
0.1503168868774874 0.0551237224623774 7:2500.0 8:175.0 12:2975.0 14:350.0 
0.15003010501507935 0.05531563480811785 3:18.0 12:2127.0 
0.1503109813612546 0.05512369464278 3:69.0 12:249.0 
0.15032380995605765 0.05512341821103095 1:7.0 12:875.0 14:175.0 16:56.0 
0.15063092963539187 0.05509956901362745 3:13.0 8:5.0 12:321.0 
0.15039806474269385 0.055123622023698304 8:13.0 12:1927.0 14:47.0 
0.1366523726347631 0.05021947523055709 4:2.0 12:230.0 14:33.0 
0.15081746686689812 0.0551220159366535 4:9.0 7:1323.0 12:1737.0 14:81.0 
0.0 0.023787314337135334 12:56.0 
0.15023913068162204 0.05528501595093749 12:528.0 
0.1503421031652844 0.054613136532865036 8:93.0 12:3.0 14:12.0 
0.05063404213021788 0.045326191379897296 12:279.0 
0.15095257632244147 0.05512197850030198 8:780.0 12:27.0 14:3306.0 
0.15063654864471238 0.055614153188667026 4:70.0 12:194.0 14:44.0 
0.15094201585131473 0.055611999567458714 12:2071.0 
0.150461250357667 0.055611999567458714 3:44.0 12:208.0 
0.15031820734455187 0.05560473773811603 8:6.0 12:1527.0 13:6.0 14:273.0 
0.15929136376470215 0.026254907903920842 12:5.0 14:11.0 
0.03383224024152103 0.008227098816476552 12:6.0 16:1.0 
0.15032486682955526 0.055591700007271705 5:2.0 12:920.0 13:74.0 14:74.0 
0.15032450732164776 0.055591699327563415 4:2222.0 12:12738.0 14:1100.0 16:704.0 
0.15038357012196135 0.05559108459417639 4:33.0 8:21.0 12:109.0 14:52.0 
1.0 0.05596995792117626 12:490.0 
0.1495022347302914 0.05463103681957543 1:3.0 5:9.0 12:85.0 14:14.0 
0.15038649334656068 0.05557734053464891 4:1.0 5:35.0 8:45.0 12:1647.0 14:152.0 
0.15050751758990671 0.055572985140936115 4:286.0 5:462.0 9:22.0 12:6798.0 14:264.0 16:330.0 
0.15072359491983334 0.055572985133124586 1:24.0 12:249.0 14:39.0 20:3.0 
0.1502885930384214 0.05496259942644849 5:4.0 12:81.0 14:55.0 
0.150692538598729 0.05556943917412138 4:84.0 12:11512.0 14:684.0 
0.15071582486826657 0.05556943917412138 7:1380.0 8:36.0 12:339.0 13:27.0 14:51.0 
0.1507497827119445 0.05527228558214775 1:2.0 3:14.0 8:24.0 12:8.0 16:8.0 
0.15075949381610904 0.05556496880846917 1:8.0 8:8.0 9:12.0 12:1664.0 13:440.0 14:68.0 
0.15093258060346926 0.05536516729817048 12:64.0 14:20.0 16:16.0 
0.15070384305900997 0.05556496880846917 7:30.0 12:316.0 13:2.0 14:6.0 
0.14496386507864323 0.05312272676423877 12:72.0 14:19.0 
0.15075907938961064 0.055563485335302365 12:3297.0 13:21.0 14:910.0 
0.062308301624877535 0.02370376796879542 8:2.0 12:68.0 14:10.0 
0.150028131418586 0.05446875706608717 3:9.0 12:232.0 14:38.0 
0.15075337746878964 0.05555887315723956 12:3015.0 14:81.0 
0.15043496378254223 0.055558452377690415 5:75.0 12:13650.0 14:9750.0 18:875.0 
0.15563083304356912 0.05479621976986487 12:367.0 14:44.0 
0.15031898367451768 0.05555581425890127 5:66.0 8:7.0 12:56.0 14:26.0 
0.1500095745793461 0.05550330257281855 1:31.0 9:10.0 12:2078.0 14:41.0 
0.15038649334656073 0.055503302571921875 12:1760.0 14:154.0 
0.15038220746349878 0.055503302571921875 4:1125.0 12:7100.0 14:350.0 
0.15032066496929558 0.05549517372680257 12:975.0 14:243.0 
0.13602813762511962 0.05012016112451502 12:165.0 14:88.0 
0.11957980161227687 0.04386000274524115 12:117.0 
0.14416278933023158 0.03682252554855192 8:6.0 12:6.0 14:12.0 
0.14023863324858887 0.051602942656429104 12:88.0 14:14.0 
0.04738336342184505 0.017820629840438362 12:100.0 
0.15040995095325288 0.05545282467816626 12:17250.0 14:525.0 
0.15046530174309397 0.055403920590760325 12:48200.0 
0.15070226936197628 0.05517188794472594 12:196.0 14:32.0 
0.15039366795498021 0.05514764510762682 5:11.0 7:1.0 8:6.0 12:169.0 14:47.0 18:18.0 
0.15031670381066187 0.05515717254417707 3:1.0 8:2.0 12:276.0 13:1.0 14:31.0 18:3.0 
0.08881023378683672 0.03324387938254133 4:6.0 12:150.0 14:11.0 
0.15049818234704582 0.055383388891103 8:64.0 12:1674.0 14:38.0 
0.150498770002717 0.05463302112635543 12:280.0 13:7.0 14:91.0 
0.07246346441578971 0.027713253036817043 4:4.0 12:9.0 14:5.0 
0.1504867742952653 0.05537720301598531 8:308.0 12:448.0 
0.150261915300401 0.05509100385492993 1:12.0 8:3.0 12:218.0 14:25.0 
0.15048759069727236 0.055329638729416986 1:63.0 3:114.0 8:24.0 12:1098.0 13:60.0 14:561.0 
0.15062076045651368 0.05532507620776983 3:217.0 8:42.0 12:567.0 14:112.0 
0.06575919070438944 0.023314948279625665 12:99.0 14:3.0 
0.15270842870147272 0.05531429380260433 12:1883.0 
0.1509318450321777 0.05513602054864358 12:784.0 14:24.0 16:8.0 
0.09534613575016224 0.03614418172894601 1:2.0 4:6.0 12:1.0 14:3.0 
0.15061484863591096 0.055298261345266886 12:1617.0 14:396.0 
0.41023186160002634 0.046163539565605816 8:63.0 
0.15063629046197197 0.055293395241809984 5:61.0 8:27.0 12:49.0 14:2.0 
0.15063654864471226 0.055291757227142524 12:375.0 14:275.0 
0.15034586227383123 0.055487436452033634 1:6.0 12:594.0 14:21.0 
1.0 0.052895002712474715 12:154.0 
0.15094201585131478 0.05528929155451817 1:816.0 12:4038.0 14:1743.0 
0.15043809233154315 0.05528692610785957 1:70.0 5:245.0 8:42.0 9:35.0 12:4620.0 14:378.0 
0.15051130927241618 0.05521481077296192 7:15.0 8:4.0 12:2.0 
0.1503445855288303 0.4413153201799323 8:46.0 12:3.0 14:3.0 
0.1339536154099325 0.04850503553824027 12:28.0 14:17.0 
0.15032456075815748 0.05527810755944673 2:1300.0 3:650.0 12:165100.0 
0.15044428438493557 0.05520772202551816 12:1043.0 
0.15042011254797255 0.055225672358357014 5:210.0 12:7112.0 14:1876.0 
0.1504048718564267 0.05519922815525452 7:660.0 12:5390.0 14:330.0 18:682.0 
0.10399357464941722 0.03777675769231703 12:544.0 
0.15031900429418343 0.055195661826354936 16:616.0 
0.0 0.004614435049799116 12:6.0 14:9.0 
0.16734328909006824 0.05392042666297475 12:477.0 
0.13882506419783275 0.05105530884373289 3:2.0 4:4.0 12:255.0 14:78.0 
0.15032397373434586 0.05479646485772688 7:30.0 12:18.0 14:9.0 
0.15031286309802716 0.055178187587614225 8:14.0 12:6699.0 
6.29687312414719E-4 0.0 12:8.0 
0.7868190588253755 0.054600915205148426 12:133.0 
0.15031962309129887 0.05513130947058781 1:4030.0 3:780.0 4:21840.0 8:5850.0 9:1430.0 12:38870.0 13:1560.0 14:5980.0 
0.1479315413313861 0.054209856177385884 4:4.0 12:141.0 14:53.0 
0.1503217901255985 0.05512769761535219 12:50.0 14:225.0 
0.1503535144105641 0.055116555789184174 12:984.0 14:158.0 
0.15036611639359887 0.05511347784183501 12:1012.0 14:110.0 
0.10601682146629193 0.4124862463225745 12:176.0 
0.15070440065193608 0.055204553346344665 4:8.0 5:10.0 9:3.0 12:148.0 14:27.0 
0.14804476678084572 0.054278175712677734 8:4.0 12:48.0 14:158.0 
0.1504387979191109 0.05523888843082769 12:66.0 16:110.0 
0.15034895862306347 0.05532699765392873 12:1738.0 14:22.0 
0.1353593797381617 0.049836261343602084 4:8.0 12:22.0 
0.14473376903951746 0.053195542476887625 12:120.0 14:8.0 
0.15091141921044182 0.05511347501888475 12:35.0 14:21.0 16:56.0 
0.10725612423949105 0.039209879565080596 12:130.0 14:28.0 
0.15069706486839923 0.05510101285599289 8:220.0 12:550.0 
0.15069521097646835 0.05536248380865766 12:1176.0 14:315.0 
0.001669553757279421 0.03254050938905277 8:2.0 12:20.0 
0.15071852500620736 0.05509269021914609 3:14.0 5:14.0 8:2.0 9:2.0 12:719.0 14:73.0 
0.15002887994997938 0.05508849567855911 12:1414.0 13:182.0 14:21.0 
0.1494803120463234 0.053482924738496807 12:1000.0 
0.07348573264576652 0.10234676287738326 12:42.0 14:8.0 
0.13469796318685662 0.025640902376524402 12:283.0 14:7.0 
0.15028859318213422 0.055086296864531925 3:3157.0 4:112.0 12:574.0 14:168.0 16:28.0 
0.1503167038107971 0.055083831191820476 8:19.0 9:2.0 12:31.0 14:111.0 
0.1506888171510542 0.05533824987831393 12:704.0 14:22.0 
0.1508727826988035 0.05506287361781992 3:7.0 4:1029.0 5:343.0 8:91.0 12:22309.0 13:7105.0 14:553.0 
0.15054499241533909 0.06200797742363967 12:572.0 
0.1504879611708973 0.05505663132042543 4:105.0 12:1089.0 14:108.0 16:42.0 
0.7734724434733471 0.03920296243173338 7:2.0 8:4.0 14:6.0 
1.0 0.038189448422899896 12:84.0 
0.15070457388165226 0.05510448986819616 3:2.0 5:1.0 12:1020.0 14:12.0 
0.15049924793608838 0.05504279725468042 5:225.0 12:507.0 14:15.0 
0.1503219248981752 0.05503398812302529 7:36.0 12:48.0 14:18.0 
0.15042605692893224 0.0550336448816669 5:4.0 12:1584.0 
0.15032242320674943 0.05503364488166668 5:374.0 12:2838.0 14:154.0 
0.15037811426629358 0.05512679015203098 12:128.0 14:72.0 
0.15047513353332792 0.05534128971854835 8:110.0 12:110.0 
0.7796777955199421 0.047740142373341676 12:273.0 
0.15061724073875582 0.05515767739118449 12:105.0 16:14.0 
0.00926940884540911 0.0 12:55.0 14:7.0 18:1.0 
0.1504459407858772 0.0551082578653207 1:12.0 12:40.0 13:4.0 14:8.0 16:8.0 
0.1507564360384035 0.055143222946489934 12:93.0 14:39.0 
0.08771430196547092 0.0310010521181453 8:4.0 12:67.0 14:6.0 
0.1503233530812319 0.05520580350802978 12:10.0 16:16.0 
0.15031670381079693 0.055020412106784655 5:4725.0 12:6775.0 14:500.0 
0.15031799597915424 0.05501187885723058 8:96.0 12:744.0 14:687.0 
0.21142080482590603 0.054918961908161146 12:258.0 14:4.0 16:2.0 
0.15038649334652787 0.05500911564653721 5:66.0 12:1122.0 
0.7855254876100575 0.054114100445124935 12:333.0 
0.15038230204568148 0.05500911564653721 8:168.0 12:651.0 
0.15030944686595654 0.05511341033582906 12:264.0 14:126.0 
0.15045998539843208 0.0552331461555971 12:1276.0 
0.15031448823548704 0.055004481257965754 1:7.0 3:559.0 8:23.0 9:26.0 12:1353.0 14:119.0 
0.03519079497727956 0.022407508792598896 8:2.0 12:44.0 
0.1503213773465244 0.05500192727909564 4:20.0 8:8.0 12:1704.0 14:824.0 
0.15033164317812603 0.054986942350206014 1:22.0 3:308.0 12:3344.0 14:968.0 16:44.0 
0.15082734684877164 0.05497468379115128 9:25.0 12:500.0 14:75.0 
0.15081403837238422 0.05494502112570265 1:22.0 9:22.0 12:21868.0 14:44.0 
0.15031670381079665 0.05494204965738225 8:792.0 12:3718.0 14:594.0 
0.1049247325505483 0.038413395897007103 12:1252.0 
0.09722067246394989 0.03349333487786488 12:93.0 14:9.0 
0.15031844086102047 0.05511849321034584 8:18.0 12:33.0 14:30.0 
0.15031962309129887 0.05493417305415754 4:220.0 12:632.0 14:180.0 
0.14997989477911672 0.05493185602392292 8:196.0 12:1561.0 13:4039.0 14:742.0 
0.15069253887093004 0.05492722029706876 1:264.0 3:12.0 4:4.0 5:4.0 7:8.0 12:926.0 14:184.0 
0.15037174214003945 0.05525004680317519 12:604.0 14:16.0 
0.1505676935636996 0.055028617085657816 9:2.0 12:329.0 14:65.0 
0.15069901348877413 0.05492507309867428 2:91.0 9:399.0 12:1862.0 14:203.0 16:126.0 
0.15074752449626339 0.05492464811760045 7:1523.0 12:262.0 14:2211.0 
0.016529831326139 0.020598522159978434 12:30.0 
0.14672333855529218 0.054264006837594546 3:2.0 5:8.0 12:74.0 14:16.0 
0.15069251682302143 0.05526789042379232 4:91.0 8:4.0 9:1.0 12:81.0 
0.15082153349845068 0.054942607410461974 12:700.0 13:7.0 14:28.0 16:14.0 
0.1503251839070308 0.05492194669082512 8:50.0 12:11875.0 
0.15064218546946456 0.05534428693193483 12:66.0 16:132.0 
0.11446944599345865 0.04163849383804785 3:7.0 8:2.0 12:35.0 14:3.0 
0.1504652316157406 0.054920270858625775 1:30.0 4:9.0 12:3159.0 13:501.0 14:249.0 
0.1504986922956933 0.05492022114002859 3:322.0 12:28.0 
0.15049928766991888 0.054920221125744906 8:1930.0 12:1695.0 14:15.0 
0.13024905941132942 0.048799649378476195 12:145.0 14:15.0 
0.13939339063126183 0.051026887222655186 3:5.0 12:251.0 14:81.0 
0.14326211454335647 0.05317058793089534 3:18.0 12:17.0 
0.06477519579215602 0.024583527399257732 12:96.0 
0.15062347965949163 0.05483991480192968 8:44.0 12:1914.0 14:22.0 
0.15063643853512526 0.05476548445172169 12:6754.0 
0.11167381406161636 0.04089229851744419 8:10.0 12:10.0 
0.1363354840472661 0.049554088612517685 12:159.0 14:91.0 
0.15031098136125454 0.054742219479412435 8:140.0 12:2142.0 
0.15038357012196124 0.05473871811642694 12:725.0 14:140.0 
0.15036832842401987 0.054626573739478546 5:91.0 8:28.0 12:56.0 14:28.0 
0.15031962309129887 0.05510098747196207 3:3.0 5:92.0 12:1836.0 14:62.0 18:15.0 
0.1504061098200306 0.05516032815917771 5:2352.0 12:4648.0 14:266.0 
0.15065320893051964 0.05536239999174225 5:56.0 12:553.0 13:133.0 14:42.0 16:28.0 
0.15094910685482832 0.05533817416720682 12:1462.0 14:334.0 
0.15094910570026904 0.05532699765392918 12:2970.0 16:176.0 
0.11563378907930479 0.042353723134739084 8:5.0 12:106.0 14:4.0 
0.15082270801935027 0.05532568729094167 12:550.0 14:462.0 
0.15070168654163513 0.055325469358676216 8:10.0 12:578.0 13:83.0 14:14.0 
0.15073614648216743 0.05532229872800282 1:4.0 8:8.0 12:230.0 14:94.0 
0.1507158248682665 0.0553202539843452 1:63.0 7:3969.0 8:14.0 12:10668.0 14:798.0 16:140.0 
0.15070165804332591 0.05526463748594873 4:12.0 5:90.0 8:54.0 12:1116.0 14:438.0 
0.08916832214324202 0.0335414849148708 12:56.0 14:10.0 
0.1507618840618275 0.05520459382276838 8:6.0 12:192.0 13:78.0 14:12.0 
0.15074752449626344 0.05520455830669396 12:1197.0 14:294.0 
0.15040382690583354 0.05514160954893571 8:16.0 12:742.0 
0.150694121702319 0.05520817700171471 1:22.0 8:44.0 9:66.0 12:4488.0 13:748.0 14:286.0 
0.08509230939262263 0.03563014087517807 8:3.0 12:33.0 
0.15060918138317875 0.05520772202551821 12:539.0 14:28.0 
0.15046807921796324 0.05520600895241495 3:225.0 7:2600.0 12:22700.0 14:4500.0 
0.15036553839741879 0.055198190059568886 8:98.0 12:1127.0 14:21.0 
0.15037122555585947 0.05509156192528403 7:264.0 9:44.0 12:308.0 13:1914.0 14:594.0 
0.1502723592598727 0.05507621169349536 5:9.0 7:19.0 8:4.0 12:92.0 13:37.0 14:61.0 
0.1504999915352046 0.05532230602091054 4:10.0 12:169.0 14:73.0 16:8.0 
0.14996901443559385 0.05498482001166566 5:161.0 8:14.0 12:490.0 14:14.0 
0.15043728724314348 0.05497608527850745 1:508.0 4:4.0 8:8.0 12:1448.0 13:92.0 14:204.0 16:16.0 
0.15039496246317258 0.05494145613083218 3:36.0 12:244.0 14:156.0 
0.1504040450139299 0.05492135836551615 1:14.0 3:413.0 5:1827.0 8:14.0 12:33033.0 13:4354.0 14:1169.0 18:77.0 
0.150706591456013 0.0551147809629679 5:8.0 12:376.0 14:11.0 
0.15031759325372024 0.05483714059230488 1:42.0 8:14.0 12:616.0 14:161.0 
0.15031904034433263 0.05482729444320522 4:42.0 5:115.0 12:1156.0 14:80.0 
0.15032099723263975 0.05479631066297097 8:19.0 12:632.0 14:79.0 
0.15031361958906497 0.05477144460767841 4:2.0 12:432.0 14:272.0 
0.020431434513436122 0.007567965115037882 12:115.0 14:2.0 
0.1506222338958268 0.05519269393539278 12:266.0 14:52.0 
0.15122259080430933 0.05473467472282367 12:1323.0 14:12.0 
0.1280329359153613 0.04723501707570865 5:6.0 12:132.0 14:32.0 
0.15032137734652423 0.05511212410215849 8:4.0 12:68.0 14:256.0 
0.5472727104894661 0.0 8:2.0 12:51.0 
0.07190176431493273 0.2047936256950833 12:349.0 14:1.0 
0.15039971297661536 0.054697409105364525 1:77.0 4:140.0 8:42.0 12:3143.0 13:35.0 14:175.0 
0.15032461654450757 0.05519783436389225 1:9.0 4:3.0 12:630.0 13:6.0 14:48.0 
0.15046523161574066 0.05469462939169928 8:280.0 12:175.0 14:35.0 
0.1504834720155172 0.054622157445129216 7:88.0 8:176.0 14:330.0 
0.10598224369852871 0.03988300641988646 12:17.0 14:9.0 
0.22756275255815978 0.022959735056678015 12:14.0 
0.15048677429526525 0.05511068371750866 1:3.0 12:624.0 14:483.0 
0.15061767184486097 0.055115452351781224 3:79.0 8:140.0 12:292.0 
0.15043940403370398 0.0549848200116651 12:234.0 14:206.0 20:10.0 
0.15031769172313808 0.05511826496429262 8:242.0 12:176.0 14:242.0 16:132.0 
0.15031924462179047 0.05510872212901485 12:8052.0 16:792.0 
0.1502542404435665 0.05510873879108241 1:105.0 7:700.0 9:7.0 12:1785.0 13:434.0 14:364.0 
0.15030869085730703 0.05510917457657083 12:1086.0 
0.1507333889669032 0.055120934340203875 4:154.0 12:2310.0 14:572.0 16:264.0 
0.11130007231234366 0.04096403426221201 12:108.0 
0.7301929941353962 0.010241212123973345 12:19.0 
0.1507305812806397 0.05511585236853456 8:748.0 12:6391.0 14:1705.0 
0.1503781142664271 0.055137502484409406 5:63.0 12:371.0 14:56.0 
0.14965331402328746 0.055200182713905255 9:4.0 12:372.0 14:29.0 
0.15038478452238146 0.05533817416720621 8:59.0 12:94.0 14:10.0 
0.1502055070716195 0.05515717254422786 8:132.0 12:3454.0 13:22.0 14:440.0 
0.15038393865125255 0.05556653113612303 12:1100.0 
0.15032136230609305 0.054921158126196024 9:3.0 12:452.0 14:23.0 
0.08451586293517056 0.03083768996694841 4:9.0 12:6.0 14:2.0 
0.150498770002717 0.05516131259968504 5:63.0 12:2520.0 14:175.0 16:161.0 
0.1506052179871119 0.055162493504576526 8:126.0 14:343.0 
0.15031711138682952 0.055162506658965604 8:26.0 12:854.0 14:45.0 
0.15032499564473872 0.05517482304952531 1:14.0 3:42.0 8:168.0 12:322.0 13:3549.0 14:42.0 17:182.0 
0.15092595940021886 0.0553300854406133 4:103.0 8:5.0 12:1152.0 14:4.0 
0.15038012307699228 0.05521064235293521 5:5.0 12:833.0 14:10.0 
0.15051845591549134 0.05530577351164634 8:44.0 12:2200.0 14:1826.0 
0.1503505667430287 0.05531099189577643 5:245.0 12:1725.0 14:104.0 
0.15032220798081913 0.055344116771882446 1:9.0 12:245.0 14:15.0 
0.14339710342964734 0.05247495746110015 9:3.0 12:429.0 14:30.0 
0.4178042232143466 0.05351841437054383 12:191.0 14:11.0 
0.15031976968644867 0.055279804897931384 12:6275.0 14:3350.0 18:400.0 
0.029680415386782365 0.010334171931206226 12:66.0 14:12.0 
0.1507766510959812 0.05526815045628186 5:324.0 8:8.0 12:1148.0 14:196.0 
0.1505298584685542 0.0552639440599102 1:22.0 12:7876.0 13:198.0 14:176.0 16:44.0 
0.13358735806683336 0.37608750699207266 12:175.0 14:14.0 
0.15029249927252658 0.055243904225241114 7:2450.0 12:2175.0 14:1750.0 
0.14626002785396314 0.05396772383181436 3:7.0 12:77.0 14:14.0 
0.7558158749646864 0.05388312992115768 8:72.0 
0.147175939758796 0.05374885380959182 1:8.0 4:5.0 12:41.0 
0.043925422563069645 0.03223552421760044 3:1.0 9:1.0 12:283.0 14:8.0 
0.15039553203104228 0.05525743431866231 8:809.0 9:1.0 12:102.0 14:12.0 
0.1503171113868294 0.05533806870099023 1:22.0 12:4906.0 14:132.0 16:88.0 
0.15031777543010583 0.05531521941859241 5:858.0 12:13376.0 14:1870.0 16:308.0 18:66.0 
0.15039166951146543 0.05528594153967953 7:658.0 8:1.0 12:9.0 18:2.0 
0.1504359864344877 0.05510665850950798 12:456.0 14:38.0 
0.14678708456352502 0.05395359450135989 4:2.0 12:474.0 14:8.0 
0.15061685184343698 0.055298691714660175 12:371.0 13:14.0 16:70.0 
0.10648800787039642 0.03928404151704057 8:22.0 
0.15039553203104222 0.055322305893296286 12:330.0 14:198.0 
0.15040394709802357 0.05532229875856193 4:8.0 8:16.0 12:440.0 14:92.0 
0.1505222005516284 0.05533922672961589 3:58.0 12:358.0 14:32.0 
0.15039922378562814 0.05482729444320533 12:1771.0 
0.15039870198588734 0.0556119995674586 3:50.0 8:625.0 12:2900.0 14:400.0 16:50.0 
0.13313428720810067 0.04801187413095662 12:6.0 14:20.0 
0.15043514429235202 0.055114234069544465 12:736.0 14:88.0 
0.096057728203359 0.03530032837386521 12:223.0 14:39.0 
0.11076475510880335 0.045912040238151375 12:34.0 14:10.0 
0.15042886679705142 0.055112124047515754 12:92.0 14:268.0 
0.09949492411767807 0.035696177708896826 12:15.0 14:19.0 
0.15040382699462956 0.05511421127652982 3:24.0 12:17184.0 13:24.0 14:1338.0 16:18.0 
0.15027235925987276 0.05511549039279745 5:4248.0 9:32.0 12:6392.0 
0.15032220274485247 0.05532568729094173 4:1.0 5:603.0 8:244.0 12:878.0 
0.15031670381058754 0.05467000284949258 5:4.0 12:364.0 14:124.0 
0.04554534355052147 0.016896342561227046 12:16.0 14:16.0 
0.1503201402216865 0.05520537826566224 3:44.0 7:66.0 12:3344.0 14:616.0 
0.15082734684877158 0.05497608542448773 8:2940.0 12:42.0 14:24.0 
0.15091500468082203 0.0546213021405329 1:44.0 7:132.0 8:968.0 12:7238.0 14:418.0 16:132.0 
0.15073146509622443 0.05469462939169928 5:64.0 12:342.0 14:166.0 
0.1506821024395733 0.05489901616332027 8:792.0 12:4972.0 14:858.0 20:22.0 
0.1503781142664271 0.05511949727660603 3:835.0 8:4.0 12:275.0 
0.1506077226399366 0.055197903293585704 12:1431.0 14:1.0 18:1.0 
0.1402664475441036 0.044709738798780596 9:1.0 12:147.0 14:9.0 
0.1502577903769392 0.05536239999174236 1:925.0 5:625.0 9:50.0 12:5550.0 14:2175.0 
0.15031670381079582 0.05534272998919909 1:14.0 5:21.0 8:21.0 12:560.0 14:84.0 
0.1504380923315431 0.05532879274512331 3:266.0 5:539.0 8:126.0 9:84.0 12:19936.0 14:1365.0 
0.1503188509290388 0.05529530835992236 12:1518.0 14:396.0 
0.15031097618556205 0.0553285249404496 5:225.0 12:1550.0 14:125.0 
0.15043628233388018 0.055254704536329635 4:1.0 8:2.0 12:279.0 14:126.0 
0.15046807830256437 0.0550762113321111 8:111.0 12:91.0 14:4.0 
0.14673202732554724 0.053990551633894796 14:26.0 
0.0 0.024808918061462237 7:1.0 8:4.0 12:51.0 
0.15031962019201284 0.05528602854426534 8:44.0 12:154.0 14:10.0 
0.150317596456013 0.054691453354309194 12:397.0 14:91.0 
0.15070457388183178 0.055204593844159766 5:594.0 12:3822.0 14:786.0 16:8.0 18:46.0 
0.148325776780192 0.21686380525246335 12:990.0 
0.15094109760202834 0.05520596539629252 9:352.0 12:4158.0 14:1958.0 16:44.0 
0.15063643853513697 0.055300015132621394 8:165.0 12:220.0 14:44.0 
0.15063629046197202 0.05527998942430806 12:8248.0 14:664.0 
0.15063707446044422 0.05516884381081899 8:125.0 12:685.0 
0.15058003379258678 0.05511449549478886 12:252.0 14:42.0 16:21.0 
0.15048572669333143 0.055242841279638355 3:360.0 12:2604.0 14:186.0 
0.15049531369686742 0.05523927685898056 8:36.0 12:2197.0 14:444.0 
0.15046401396739617 0.055149047070257695 7:462.0 14:33.0 
0.15077606946138997 0.055110185759402686 8:9.0 12:318.0 14:27.0 
0.14781616652701912 0.05425879520948007 4:14.0 12:14.0 
0.14784493379411678 0.05417350337037535 12:140.0 14:45.0 
0.15031372569271378 0.055112124047515754 5:308.0 8:2163.0 12:1428.0 14:210.0 
0.15031769172313802 0.05511538947727218 5:795.0 12:1185.0 
0.15032014022168666 0.055114588675053644 8:147.0 12:308.0 14:14.0 
0.1502213035787774 0.0551355543853469 12:834.0 14:21.0 
0.25424330097248 0.03695633459052067 12:162.0 14:1.0 
0.1130516956685349 0.04154701637715877 12:112.0 14:22.0 
0.15032414091738605 0.0551237224623774 8:216.0 14:72.0 
0.15041991911445618 0.05532227829398412 12:180.0 14:54.0 
0.08339982847945626 0.04566756550976503 7:6.0 9:2.0 12:3.0 14:4.0 
0.15031898367451724 0.055123418211031006 3:354.0 12:509.0 14:1018.0 
0.15032499564473878 0.055106877794720066 4:29.0 12:851.0 14:146.0 
1.0 0.053915696067469765 12:144.0 
0.15038220746198083 0.05517103251786348 7:210.0 12:560.0 14:154.0 16:49.0 18:42.0 
0.15031578388191835 0.05511260012852881 12:354.0 14:24.0 
0.1559015324798126 0.055123731354632166 12:228.0 
0.15044381354247738 0.055204593844159544 5:60.0 12:315.0 14:24.0 
0.15039345350478228 0.05519790329358559 8:786.0 12:822.0 14:474.0 
0.15039227350879425 0.055172486987705216 3:35.0 4:98.0 5:98.0 12:2968.0 13:4326.0 14:679.0 18:70.0 
0.15031719978508773 0.05534413958851636 12:605.0 
0.14997989477911677 0.05524559943441143 8:56.0 9:70.0 12:43050.0 14:1148.0 
0.15050740553410585 0.05526815045640143 8:10.0 12:24.0 14:186.0 
0.15050787907291513 0.055315706586632596 1:75.0 9:5.0 12:412.0 14:100.0 
0.0 0.010410157063314385 12:6.0 14:13.0 
0.15047569686283224 0.05532215084145764 12:32984.0 14:462.0 
0.19108092925302206 0.2204134055901117 12:361.0 
0.15069253892449513 0.055335369153766134 8:1606.0 12:6193.0 
0.0 0.02247947023194294 12:70.0 
0.14890530553131415 0.05435985620267131 12:420.0 
0.15068887538296188 0.05524404424160251 3:1.0 4:2.0 12:969.0 14:40.0 
0.15071210131003548 0.05520026559306762 12:602.0 14:294.0 
0.15074982904044587 0.055108645952630375 4:2.0 12:1714.0 14:110.0 
0.15070384305901002 0.05512679015210653 5:322.0 8:14.0 12:2996.0 
0.1507618840618275 0.055335369153766245 12:207.0 14:168.0 
0.0 1.0 8:2.0 12:2.0 
0.15076439549635412 0.05532397542313061 9:91.0 12:1218.0 14:161.0 
0.15081403837238427 0.05527998942430801 5:81.0 9:4.0 12:485.0 14:40.0 
0.15032577242965084 0.05531570658663254 8:10.0 12:2750.0 14:45.0 18:35.0 
0.1503249956447389 0.05531526658013841 1:24.0 12:2600.0 14:28.0 
0.14323997234176233 0.033173225950042184 12:88.0 14:1.0 
0.0 0.006528076493845236 12:16.0 14:3.0 
0.1503529971294677 0.05515557955191114 12:3225.0 14:417.0 
0.09707641028776323 0.03692994563153599 4:5.0 12:16.0 14:3.0 
0.11747896143385217 0.042963052458309614 12:51.0 14:17.0 
0.3141462683525647 0.0 12:18.0 14:1.0 
0.15048441852177635 0.05502957150969112 12:342.0 14:15.0 
0.15069899107200097 0.05516130467511132 4:74.0 12:84.0 
0.15038257665568727 0.055116543432802034 12:11308.0 14:242.0 16:418.0 
0.15036533686755127 0.05511212410215849 1:1.0 3:523.0 9:2.0 12:427.0 14:69.0 
0.15040995095325282 0.055109211020494264 3:150.0 12:425.0 14:125.0 
0.15042863458894162 0.05511826496429256 5:1344.0 12:29484.0 14:182.0 
0.13278956402031022 0.05436918105827992 5:6.0 12:169.0 18:1.0 
0.1330593487108917 0.0 12:345.0 
0.15090188581144298 0.0551149761245977 3:528.0 12:15136.0 16:44.0 
0.15085313993404653 0.05517224318286723 9:11.0 12:1595.0 14:110.0 
0.1511281813328545 0.05511474080001444 12:220.0 14:56.0 
0.005479834164692331 0.0 12:57.0 14:6.0 
0.15001987213707274 0.055211199778187114 12:252.0 14:10.0 16:6.0 18:9.0 
0.15032562636216323 0.05512197850030204 5:4.0 12:607.0 13:50.0 14:22.0 
0.15034999933418675 0.05473467472282384 3:140.0 5:18.0 7:102.0 12:506.0 14:36.0 
0.15049787207331566 0.05474029055689861 1:7.0 5:56.0 12:1757.0 14:154.0 
0.1504987296538432 0.054827294443205166 12:500.0 14:850.0 
0.15049877000271694 0.05498482001166566 5:27.0 12:346.0 14:40.0 
0.15048572669333138 0.05512057093468986 8:864.0 12:192.0 14:64.0 
0.15048747464272572 0.05509370195962093 8:512.0 12:2548.0 14:24.0 
0.1504991425012039 0.05536659923410725 3:220.0 8:176.0 12:297.0 
0.15060772263993638 0.05532546935867627 5:134.0 12:182.0 14:20.0 
0.1506191088930171 0.05532271325337074 1:14.0 12:868.0 13:14.0 14:119.0 
0.15063654811528 0.05526405594395856 7:413.0 12:273.0 14:168.0 
0.1506364385350028 0.05531757583301744 7:23.0 12:337.0 14:51.0 
0.15093954341397653 0.05533008544061324 3:27.0 4:3.0 12:270.0 14:11.0 
0.1504301401717339 0.055287308613849895 3:2.0 8:2.0 12:239.0 14:77.0 
0.15095088819003122 0.055305773511646394 8:759.0 12:3486.0 14:105.0 
0.15031670381079637 0.05529884881893965 1:1690.0 3:520.0 4:130.0 12:9230.0 
0.15069755634929077 0.05511534041215671 8:2.0 12:60.0 14:86.0 
0.15043733074561916 0.055279989424307896 4:66.0 12:30184.0 
0.1505028006299426 0.05519175484013261 8:2.0 12:115.0 14:48.0 
0.09432283920945841 0.034272113581750197 12:21.0 14:18.0 
0.150382207461981 0.0552574343186622 1:97.0 5:10.0 7:37.0 12:801.0 14:237.0 18:8.0 20:265.0 
0.15026337822539135 0.05517152364884237 8:20.0 12:730.0 14:90.0 
0.15032486682955665 0.055204660137180395 4:44.0 5:220.0 12:58630.0 14:550.0 
0.15202952397440977 0.05556203074834282 12:232.0 14:65.0 
0.15032450732164793 0.05515717254422797 8:117.0 9:12.0 12:600.0 14:18.0 
0.1503181928201296 0.05515557955191108 12:561.0 14:121.0 18:88.0 
0.03909924339990149 0.01355280037428413 4:2.0 12:98.0 
0.15034804660308265 0.05515797455576882 3:14.0 5:245.0 12:14847.0 14:1771.0 
0.11970576895098034 0.04336496650297746 12:134.0 14:33.0 
0.15037041446194693 0.05517237960122806 5:6.0 8:2.0 12:634.0 14:57.0 
0.15089300970686864 0.055127318531133396 8:22.0 12:3366.0 
0.15032414091738594 0.05510876136443155 5:406.0 12:172018.0 18:126.0 
0.1504151759401675 0.05510872212901713 3:21.0 4:47.0 5:51.0 9:4.0 12:5407.0 14:16.0 18:17.0 
0.15086478295944145 0.055268095279029095 12:14.0 14:152.0 
0.1503168868774875 0.05510098747196207 8:546.0 12:882.0 14:42.0 
0.1478311714078024 0.05373148621650975 4:3.0 9:9.0 12:423.0 14:30.0 
0.15094401718293005 0.055113970071172635 1:1.0 9:26.0 12:271.0 14:79.0 
0.0676807849681264 0.028995297282673197 8:3.0 12:9.0 14:15.0 
0.15042730286014205 0.05511549005032018 1:24.0 3:520.0 5:76.0 8:20.0 12:4504.0 13:120.0 14:236.0 
0.0915625774709427 0.034823375425564795 8:4.0 12:56.0 14:7.0 
0.15094556237502116 0.05511538953992473 5:3570.0 12:11095.0 14:1526.0 
0.1503398605876589 0.05516878045017831 8:112.0 12:10.0 14:2.0 
0.15031706309859205 0.05534500335739129 4:10.0 12:377.0 14:84.0 
0.1503930420242655 0.05534994381638719 5:575.0 9:75.0 12:3125.0 14:500.0 
0.13590403663711126 0.047361191642222134 12:350.0 14:7.0 
0.15032249002506226 0.055341297159864244 12:1855.0 14:329.0 
0.15082734684877164 0.055364835564774506 12:671.0 
0.1508051641095407 0.05533827059852858 1:20.0 9:4.0 12:1880.0 13:8.0 14:908.0 
0.15091500468082203 0.055162797091668936 1:9.0 5:44.0 8:2.0 12:493.0 14:5.0 
0.09578790998836173 0.035939391319249406 1:3.0 12:11.0 14:7.0 
0.06379032296740822 0.026934094584475494 4:2.0 12:69.0 14:3.0 
0.15077157317378465 0.05516358046921527 3:216.0 5:112.0 8:104.0 9:8.0 12:5168.0 14:624.0 
0.1507766510959812 0.055124651082494536 5:24.0 8:152.0 12:688.0 14:264.0 
0.15075647667079556 0.05534423227373414 12:6168.0 14:60.0 
0.15072499812407436 0.05531542348461965 1:6.0 9:3.0 12:454.0 14:328.0 
0.15070384305901002 0.055271897655948365 8:413.0 12:1869.0 14:483.0 
0.1507594938161091 0.05527006730307077 3:2178.0 12:15290.0 14:4796.0 18:154.0 
0.15074982904044598 0.055268149438323144 3:390.0 8:7540.0 12:2470.0 
0.15075337764742952 0.05533806870099017 3:1550.0 4:50.0 9:1550.0 12:31575.0 14:2175.0 18:375.0 
0.05670306374885557 0.020839116072021265 8:2.0 12:112.0 14:2.0 
0.15075463108538872 0.05529457969971996 5:2112.0 12:8052.0 14:242.0 16:88.0 
0.15039304201761294 0.05537663293584816 8:18.0 12:96.0 14:51.0 
0.15074654666727844 0.05531563483245483 3:3.0 4:3.0 8:54.0 12:474.0 14:18.0 
0.11095936811392021 0.04026475644710146 4:8.0 12:152.0 14:8.0 
0.1506821024395732 0.0553427299891992 3:55.0 8:2.0 12:1636.0 14:25.0 
0.1486748652046348 0.054865243446995726 1:2.0 9:2.0 12:212.0 14:22.0 
0.15073146509622448 0.055285817454672426 1:41.0 12:1251.0 13:158.0 14:63.0 
0.15058043662697201 0.055198190059569 4:98.0 5:203.0 12:1869.0 14:679.0 16:70.0 
0.1504162763978601 0.05523316176226323 1:3.0 12:388.0 14:26.0 
0.15064218547409836 0.05525743431866226 1:440.0 3:3564.0 12:42900.0 14:1738.0 
0.15068232181570085 0.05522125778396125 12:3278.0 14:814.0 
0.1504879612014648 0.05518002429151814 8:199.0 12:143.0 14:23.0 
0.1503196201920194 0.05528692610785957 12:805.0 14:49.0 
0.0826464211212725 0.0306182332104869 12:204.0 
0.1410302969128983 0.05164420161747807 12:123.0 14:29.0 
0.15050751758990683 0.05511605813830728 1:150.0 12:17500.0 14:350.0 
0.15050787907291518 0.055343129218277665 12:271.0 14:493.0 
0.15054116443047466 0.055340850732887525 4:1.0 5:30272.0 9:5.0 12:1193.0 14:73.0 
0.15160001239520876 0.05496809494047239 12:250.0 14:5.0 16:10.0 
0.15040302531483746 0.05526814943832309 5:42.0 12:10276.0 14:476.0 
0.15040531156675974 0.055315266937715435 5:40.0 12:1520.0 14:80.0 
0.15026899302022423 0.05531757583306557 3:291.0 12:876.0 
0.1502577903769392 0.05514903104176372 2:176.0 3:44.0 4:242.0 12:52668.0 14:1760.0 
0.15010659672094268 0.055159948005280235 3:145.0 12:433.0 
0.15009882148617704 0.055159998118621156 3:10900.0 5:900.0 12:51675.0 14:3050.0 
0.14997989477911666 0.05510872212901713 4:66.0 5:27.0 8:4.0 12:1818.0 14:192.0 
0.1504288667791429 0.055115585828213076 12:108.0 14:130.0 
0.10969039879065767 0.03978144506077719 12:208.0 
0.15032366420580473 0.05523922346455207 14:143.0 
0.15043844117915595 0.05512495159237557 12:4636.0 
0.15043733074561916 0.0551126846821105 8:1071.0 12:306.0 14:21.0 
0.22475637258623515 0.055316653102636115 8:26.0 12:96.0 
0.15040164650376703 0.05511343731860496 4:1.0 5:477.0 9:7.0 12:1664.0 14:97.0 
0.15042540032483936 0.0551165342577738 12:9559.0 
0.15038649334490722 0.055115490049722216 4:10.0 5:24.0 12:616.0 
0.15035928333860255 0.05492141609883128 1:2.0 12:273.0 14:274.0 
0.15031726816424884 0.05511313892337211 8:305.0 12:20.0 14:10.0 
0.15094910570160003 0.055114983426340525 8:56.0 12:24.0 
0.15043233251314275 0.05511693766381531 7:305.0 12:147.0 14:30.0 
0.15025777739933271 0.05511339380398067 12:942.0 
0.0 0.9966463711441036 12:10.0 
0.15041999515331833 0.05512130564460527 5:40.0 8:117.0 12:819.0 14:16.0 
0.1507564764185969 0.05466666255104752 12:1364.0 14:44.0 
0.15036553839741879 0.054738377112996284 3:889460.0 4:1170.0 5:1820.0 8:2860.0 12:56160.0 14:3640.0 17:520.0 
0.09668909230694156 0.03515704260375285 12:66.0 13:4.0 14:8.0 
0.15031777543010583 0.05477144460767841 12:1173.0 14:139.0 18:1.0 
0.12400467721048541 0.045817311688712725 3:9.0 12:31.0 
0.0847787597022488 0.04742806650731057 8:57.0 
0.13743602920629205 0.054155453776524476 12:324.0 
0.1503179371934924 0.05481622613189957 8:462.0 12:93.0 
0.15032249002506215 0.05482729444320522 14:245.0 
0.06678187225871957 0.005044438282083896 12:36.0 
0.15031711138682946 0.055015053259005964 3:16.0 4:68.0 12:1468.0 14:72.0 20:30.0 
0.15032505481964836 0.05505818164232623 1:57.0 4:9.0 5:111.0 8:3.0 9:3.0 12:2127.0 14:159.0 18:6.0 20:306.0 
0.15081537718732563 0.0550762116934953 5:268.0 12:3392.0 14:108.0 
0.1503109761855621 0.055094071321919846 1:7.0 5:21.0 8:112.0 12:658.0 13:7.0 14:56.0 
0.15076432159054254 0.05527187155072388 8:2.0 12:305.0 14:36.0 
0.1507022844609654 0.05512045648196501 12:1386.0 14:264.0 18:132.0 
0.15032486682955531 0.0551068777947199 3:38.0 12:299.0 14:128.0 
0.15049927711104644 0.0552079984383444 1:22.0 4:1.0 5:6.0 8:34.0 9:5.0 12:418.0 14:99.0 
0.15063707446044422 0.05520772202551816 5:3.0 8:47.0 12:17799.0 
0.1504992853707411 0.05492135754718652 12:462.0 14:56.0 
0.15075905334504047 0.055239182360827976 5:50.0 12:64.0 
0.15035928333860238 0.05535359617517399 12:12.0 14:3.0 18:27.0 
0.1503480463612456 0.05504675692027078 5:24.0 12:366.0 14:4.0 
0.1449719577222851 0.0533890828628399 8:4.0 12:40.0 14:28.0 
0.14495227585248482 0.053380740030670046 12:45.0 14:33.0 
0.05621645071395996 0.019570406352160397 12:36.0 14:5.0 
0.15043739342570106 0.05520459382276838 8:66.0 12:450.0 14:18.0 
0.1503810485699763 0.0553202539843452 4:6.0 5:171.0 12:8406.0 14:7137.0 
0.15039496246317258 0.05533817416720699 1:8.0 3:30.0 8:516.0 9:6.0 12:1814.0 
0.15037811426650244 0.055364835564774395 8:117.0 12:60.0 13:9.0 14:12.0 
0.15042540032483936 0.05536520900846009 1:38.0 12:406.0 14:24.0 
0.15947339097239094 0.055349718880707166 8:168.0 12:112.0 
0.5080120472525163 0.04291500672100453 3:2.0 12:74.0 
0.15069248373457908 0.055280068837329055 4:8.0 8:8.0 9:4.0 12:1164.0 14:312.0 
0.15070228450506507 0.05532842168277008 3:258.0 4:6.0 5:318.0 8:45.0 12:2142.0 14:252.0 
0.15032486682949064 0.05483714059228023 4:21.0 12:2106.0 
0.15074982904044598 0.05533008544061324 1:1.0 4:39.0 5:251.0 12:4792.0 14:82.0 18:2.0 
0.1505491062635111 0.05531757583306457 1:15.0 8:20.0 12:870.0 14:150.0 
0.15047569686283208 0.05531521941859241 8:312.0 12:180.0 
0.15034999933417892 0.055132706192080494 1:16.0 9:10.0 12:410.0 14:80.0 
0.1503781142664271 0.05529869171466023 1:3.0 3:120.0 12:1077.0 14:159.0 18:24.0 
0.15043496378254206 0.055285941539679584 1:31.0 3:2.0 4:10.0 8:4.0 12:100.0 14:6.0 
0.15040373851289313 0.055241973075604967 3:80.0 5:36.0 8:12.0 12:1238.0 14:224.0 
0.15090188581144282 0.055279804897931384 8:95.0 12:849.0 14:6.0 18:2.0 
0.15031097618556205 0.05525743431866226 4:1.0 12:1243.0 14:133.0 
0.03425593542689624 0.03695632251322739 12:26.0 
0.6466153909771648 0.05532961114329055 12:631.0 14:17.0 
0.1509515555853695 0.05517994473778087 7:24.0 12:138.0 14:16.0 
0.150314488235487 0.05524281295531874 3:38.0 4:1.0 5:1.0 8:44.0 12:390.0 
0.1504864204949864 0.05523863873076018 1:594.0 3:3.0 4:78.0 5:273.0 8:42.0 12:5565.0 14:87.0 
1.0 0.054186581558495824 12:248.0 
0.15063631081351508 0.055168843810818935 5:1000.0 8:775.0 12:21675.0 14:175.0 
0.1503109813612546 0.055178633729143 12:1666.0 
0.15046807921827393 0.055162506658965604 12:417.0 14:135.0 
0.10409216405137844 0.038052958466246865 12:102.0 14:24.0 
0.15095177682567107 0.055162493504576526 5:71.0 12:186.0 14:36.0 
0.1506314119433808 0.05516131259968504 3:12452.0 12:3674.0 14:308.0 
0.1494159386356036 0.054626941523200634 5:91.0 12:147.0 
0.15043893005910502 0.0551149834026356 4:1.0 9:5.0 12:2118.0 
0.15070168654243837 0.055118697460400656 12:1192.0 14:65.0 
0.1503114962262273 0.05516884550866086 4:46.0 12:192.0 14:12.0 
0.15031670381079704 0.05472209031435349 8:7650.0 12:21525.0 14:200.0 
0.15053582863847764 0.05498482001166566 5:1722.0 9:14.0 12:6384.0 14:210.0 
0.0 0.01411194832972081 12:11.0 
0.15071991120620098 0.05523304956907743 8:28.0 12:90.0 14:12.0 
0.1505358107620845 0.055120934340203764 5:107.0 12:1167.0 14:29.0 
0.15038014260950527 0.05536520900846004 12:154.0 14:462.0 
0.15075647667079567 0.05528008851358718 8:57.0 12:9411.0 
0.1505357102971352 0.05694569141875455 3:10.0 8:11.0 12:564.0 
0.1503251839070307 0.055283183927671176 12:5995.0 
0.1503256263621633 0.05520772202551821 8:528.0 9:242.0 12:147488.0 14:2640.0 16:44.0 
0.1508972003883141 0.05528756951332592 4:266.0 5:931.0 8:247.0 12:25859.0 14:152.0 
0.13665671294025752 0.04982474847107571 12:202.0 14:6.0 
0.09852934790627621 0.036083660485741964 12:116.0 14:20.0 
0.15086592641031055 0.055204660137180284 7:600.0 12:6150.0 14:200.0 
0.15032058789576397 0.0551422533806768 1:8.0 7:290.0 8:140.0 12:2653.0 14:1037.0 
0.04336605860983955 0.01551556104117513 8:21.0 
0.15081990847916688 0.05512731853113351 8:722.0 
0.15075463108538878 0.05511150849170948 12:3768.0 14:552.0 
0.11134096600826787 0.19486782296712934 8:1.0 12:174.0 14:8.0 
0.1503592833386025 0.05511497612459765 8:574.0 12:4830.0 14:490.0 
0.15179625541059788 0.5034618878683236 12:980.0 
0.13236924907190606 0.04876215746192025 3:12.0 12:4.0 
0.1509326918995063 0.05512369464278 1:1050.0 4:2075.0 8:225.0 9:350.0 12:2825.0 14:575.0 
0.07777582949668212 0.0 12:28.0 
0.14603593618828203 0.05373171936907227 12:434.0 14:36.0 
0.7719161994340642 0.052808154224228465 12:438.0 
0.15054116443047477 0.055344666572868406 12:66196.0 14:9747.0 
0.150212728270893 0.05527006698517811 3:4.0 5:41.0 8:59.0 12:81.0 
0.150434963782542 0.05532230610137395 8:805.0 12:25.0 
0.15032058789576386 0.055220236728729166 8:240.0 12:1596.0 14:6.0 
0.15032242320674932 0.05513825895365643 3:72.0 12:4016.0 14:248.0 
0.15032499564473878 0.055271897655948365 8:66.0 12:2156.0 
0.15032491035855222 0.0553535961751741 1:10.0 3:10.0 4:425.0 5:2765.0 8:130.0 12:37445.0 14:640.0 
0.15032609211768178 0.055268150456401544 5:66.0 7:7238.0 8:2244.0 12:11682.0 14:418.0 
0.15042555386577816 0.05515797455576882 8:48.0 12:148.0 14:58.0 
0.1503418034342454 0.05511225582968038 4:28.0 5:14.0 12:504.0 14:112.0 
0.15031059986923984 0.05510876136443155 1:72.0 4:10.0 12:164.0 14:76.0 
0.15031286309802638 0.055123694642779775 12:44.0 14:66.0 
0.1503174177201656 0.054622169307786905 5:204.0 8:6.0 12:846.0 14:48.0 
0.15038763563826002 0.05498918964081517 5:220.0 8:66.0 12:5632.0 14:572.0 
0.15046133722834953 0.05509156192528408 3:24.0 12:1836.0 14:288.0 
0.15095089081042673 0.055322056338494796 8:11.0 12:825.0 
0.1504978720733156 0.05520596539629247 8:156.0 12:804.0 
0.1504061098182834 0.055287569512690315 3:3.0 5:21.0 8:4.0 9:1.0 12:613.0 14:19.0 
0.18626229730834976 0.051987121244736034 1:1.0 3:4.0 12:81.0 14:6.0 
0.15070165818960773 0.055285943808051075 8:20.0 12:156.0 14:4.0 
0.15031777543010427 0.055295101433091076 8:66.0 12:102.0 14:33.0 
0.15032377634777078 0.05525107766375964 4:803.0 5:110.0 8:506.0 12:1815.0 14:154.0 
0.15031726816424895 0.05520026559306768 1:24.0 12:381.0 14:90.0 
0.1503190471088115 0.05514764510786019 1:10.0 8:14.0 12:361.0 14:139.0 
0.22209549761684977 0.05378060136423622 1:7.0 12:191.0 14:6.0 
0.150366565258981 0.05514225334849665 12:755.0 
0.15027709079766235 0.05518831516050437 12:28.0 14:28.0 
0.15043496378254206 0.055126790152106586 12:1144.0 14:198.0 
0.11404566930269577 0.04213380094726369 12:134.0 14:22.0 
0.1485224672728161 0.05466727519161835 1:2.0 3:8.0 12:214.0 14:18.0 
0.15076268570665513 0.055357689545108835 12:202.0 14:49.0 
0.15093437615411587 0.05511592514232588 4:16.0 12:656.0 14:16.0 
0.1105082525814689 0.04040829904883054 12:98.0 14:22.0 
0.15072353716123715 0.05531503515901959 8:10.0 12:225.0 14:20.0 
0.15032179012559865 0.05511558583480264 12:15290.0 14:374.0 
0.15038503913170376 0.05515742219060632 4:16.0 5:44.0 8:160.0 12:4076.0 14:164.0 
0.15091141921044188 0.05514904707025764 12:15631.0 
0.15077665109598126 0.05510243974337714 5:94.0 12:334.0 14:34.0 
0.14582504384518824 0.05362670667200442 4:1.0 8:8.0 9:1.0 12:103.0 14:23.0 
0.1507016861965635 0.055119875024696896 4:10.0 5:188.0 12:5787.0 14:100.0 
0.1507156259654066 0.055126790152106586 4:66.0 12:1012.0 14:264.0 
0.1507398878308388 0.05512093434020382 4:66.0 12:66286.0 14:8778.0 16:946.0 
0.1506925389244952 0.05511826496429273 8:44.0 12:572.0 13:1870.0 14:132.0 
0.1507235949198334 0.05511225582968038 5:208.0 12:1904.0 14:80.0 
0.15070384305901002 0.05510872212901485 4:38.0 12:2559.0 14:100.0 
0.15070737546893803 0.05509992586326329 8:223.0 12:10.0 14:4.0 
0.0775542373013652 0.029265867791347655 12:61.0 14:7.0 
0.1507594923413455 0.055108160624547764 1:14.0 3:35.0 8:28.0 12:1645.0 13:28.0 14:203.0 
0.11918805647657577 0.04374291966326094 3:7.0 4:3.0 8:2.0 12:4.0 
0.1507502219010302 0.05511313892337211 1:2134.0 4:44.0 7:2530.0 8:352.0 12:6842.0 14:1298.0 16:44.0 
0.15075337746878964 0.05511423011262656 12:4718.0 14:322.0 
0.15031905478398166 0.05511338703691865 5:17.0 12:247.0 14:9.0 
0.14812484384141228 0.0544149499620904 3:9.0 12:14.0 14:16.0 
0.1507333889669032 0.055113327852397864 8:40.0 12:450.0 14:35.0 
0.15072551213456276 0.055115389477272236 4:448.0 12:42.0 
0.14867525278254196 0.054641281863193336 8:3.0 12:411.0 
0.15063141194338087 0.05511693579702026 1:44.0 12:2090.0 14:88.0 
0.13028963800051585 0.0481442156518207 8:13.0 
0.15066241721458995 0.05511338781453157 12:4730.0 16:44.0 
0.1504801961938993 0.0551106837175086 8:28.0 12:1848.0 14:427.0 
0.15053802232000058 0.055109211020494375 8:924.0 12:22.0 14:11.0 
0.1505074055341058 0.055114588675053644 4:22.0 5:1606.0 8:1826.0 12:7590.0 14:3432.0 
0.15052985846855432 0.05512369464277994 12:944.0 13:132.0 14:116.0 
0.1503781142664271 0.05512130564460538 3:21.0 4:348.0 5:1677.0 7:3.0 12:11532.0 14:825.0 
0.1504053098445366 0.05561415318866697 8:22.0 12:1202.0 14:18.0 
0.1504276888538899 0.055611999567458714 4:3.0 5:111.0 12:2568.0 14:612.0 
0.13153984386700524 0.04811628407660179 12:52.0 14:23.0 
0.15044000835575794 0.05515994799864332 3:23.0 4:3.0 12:88.0 
0.15048330614211852 0.055591699327563415 8:15.0 12:810.0 14:408.0 
0.15029249927252658 0.05559108459417644 5:594.0 12:3542.0 14:88.0 
0.042969879330127504 0.01610406852745544 8:6.0 12:8.0 14:2.0 
0.15024703427294434 0.05557734053464897 5:21.0 12:490.0 14:28.0 
0.15002887994997943 0.055572985133124586 1:380.0 4:30.0 5:295.0 8:20.0 9:10.0 12:3165.0 14:90.0 
0.14997989477911672 0.05556943917412138 5:66.0 12:2332.0 14:110.0 
0.15043940403370526 0.05556496880846917 3:140.0 5:385.0 12:259.0 14:287.0 
0.14896507648847623 0.054601485719790954 5:94.0 12:149.0 14:9.0 
0.45258078772720434 0.0 12:44.0 
0.15042605689628946 0.055341290047724534 8:11.0 12:924.0 
0.15043655454785787 0.055563485335302365 4:7.0 8:56.0 12:588.0 13:238.0 
0.1504273028601421 0.055558452377690415 12:4256.0 14:632.0 
0.1504048718564267 0.05550330257281855 8:37.0 14:108.0 
0.08727035524250087 0.031788081155057546 12:226.0 14:40.0 
0.1500131129849731 0.05484401245510123 1:4.0 4:2.0 12:378.0 14:22.0 
0.1502247085336571 0.05525626090902569 9:3.0 12:795.0 14:24.0 
0.15041999515331833 0.055503302571921875 1:132.0 12:6402.0 13:836.0 14:198.0 
0.1506970307230334 0.0551153770539583 8:12.0 12:333.0 13:9.0 14:15.0 
0.0610620021294334 0.0257353317778356 12:92.0 14:6.0 
0.15031900964734146 0.055495173726802516 1:11.0 4:1.0 8:53.0 12:198.0 14:23.0 15:16.0 
0.15039054482072317 0.05545282467816626 8:570.0 12:3996.0 14:12.0 
0.1507766510959812 0.05469740910536447 5:51.0 8:12.0 12:1377.0 14:1728.0 
0.15071852500620758 0.05528602478860073 12:5268.0 14:528.0 
0.15039054482072323 0.055268149438323144 4:110.0 5:506.0 8:3872.0 12:48972.0 14:2882.0 16:44.0 18:1408.0 
0.07863340459229068 0.029188884135890214 8:10.0 12:5.0 
0.15041093766093228 0.05519884647644596 12:1289.0 14:2.0 
0.12446926066753616 0.045357197683171646 12:133.0 14:17.0 16:2.0 
0.15035351441056405 0.05522852799147604 12:590.0 14:47.0 
0.07598152514241013 0.02786850716255057 12:6.0 13:2.0 
0.15031578060227652 0.05511212410215843 5:28.0 8:426.0 9:10.0 12:906.0 14:110.0 
0.1503703079669969 0.055116711274315666 9:4.0 12:271.0 14:64.0 
0.10550578306364156 0.039078020703278975 4:1.0 12:1248.0 
0.1503400381659985 0.055178633729143 1:26.0 5:22.0 12:108.0 13:8.0 14:12.0 
0.15031054542649197 0.05529697334697975 12:1605.0 14:117.0 
0.15031898367451763 0.05516250665896566 3:77.0 8:490.0 12:749.0 14:42.0 15:469.0 
0.0958428921524292 0.03595722469445134 12:48.0 14:11.0 
0.15073407555875912 0.05479645572181302 5:50.0 8:4.0 12:78.0 14:10.0 
0.06774416819965717 0.0 8:2.0 12:176.0 14:3.0 
0.15032377634777083 0.05507621166892901 12:308.0 14:308.0 
0.15029051282696432 0.05554910448169725 8:7.0 12:126.0 14:42.0 
0.11200548929197743 0.04108769430320358 8:2.0 12:22.0 14:12.0 
0.15032505481964836 0.05529704803285901 7:1122.0 8:22.0 12:1210.0 14:264.0 
0.05412212038721384 0.012065127494102938 14:4.0 
0.15031098136125448 0.05517189348461776 12:308.0 14:392.0 
0.1503172895585717 0.05514903104176372 5:154.0 12:6182.0 14:1496.0 
0.1505489879073138 0.055295101368376065 3:3.0 4:39.0 5:15.0 12:184.0 14:4.0 
0.0571927432363383 0.03442610070239244 14:1.0 16:2.0 
0.1506531578399683 0.055115452351781336 12:1812.0 14:15.0 
0.15032240091995758 0.055403920590760325 3:25.0 12:1175.0 14:175.0 
0.1503181928201296 0.05532963872941693 5:255.0 12:4885.0 14:155.0 
0.1503179959791543 0.055314293802604275 8:88.0 12:2365.0 14:77.0 
0.15031861096632387 0.05529339524181004 8:1024.0 12:8.0 14:8.0 
0.11461681266322032 0.03777724798057386 12:62.0 
0.15037192854369918 0.05529175722714258 8:1925.0 12:858.0 14:44.0 
0.15032467115417003 0.05510796240364102 1:2.0 9:4.0 12:410.0 14:14.0 
0.1504989280991071 0.05520537826566191 5:61.0 12:305.0 
0.002908960996337251 0.010879924525419407 8:2.0 12:10.0 
0.14125600124875393 0.051389164939527554 12:225.0 14:28.0 
0.15046530174309392 0.05527810755944679 1:21.0 12:2097.0 13:444.0 14:69.0 
0.15048964070911025 0.0551898594251492 8:99.0 
0.14207536616671995 0.05203156935881777 3:12.0 12:22.0 
0.0901870963171334 0.032913709014047 8:84.0 12:2.0 14:2.0 
0.25461537072800255 0.03285652802994837 8:84.0 
0.1504622268460909 0.055225672358357014 12:7018.0 14:77.0 
0.08490834672683095 0.09752291999826117 12:168.0 
0.15049927711104627 0.055195661826354936 8:3454.0 12:13860.0 14:2904.0 
0.15050747546864102 0.055127697615352134 1:88.0 3:8.0 8:16.0 12:1376.0 
0.15049163755752065 0.055120844126783364 3:14.0 12:118.0 
0.1505184559154913 0.05511655578918412 9:12.0 12:2224.0 14:82.0 
0.15062076045651362 0.055113475018884694 1:420.0 12:1904.0 14:721.0 16:14.0 
0.15087498039834613 0.055086296864531925 3:94.0 12:492.0 
0.15093428784878266 0.05506287361781992 1:440.0 3:88.0 9:242.0 12:2618.0 14:396.0 
0.1508659264103106 0.05503364488166668 8:149.0 12:225.0 14:479.0 
0.15043893012480564 0.055020412106784655 5:1568.0 12:532.0 14:22.0 
0.15026225751465838 0.055011878857230634 9:19.0 12:2985.0 
0.10867952402111014 0.03701804106379346 3:4.0 12:58.0 
0.15038356521687735 0.055009115646537154 14:80.0 
0.15039345350478223 0.0550044812579657 4:4.0 8:216.0 12:294.0 14:8.0 
0.15031962309129876 0.05500192727909564 3:24.0 8:48.0 12:1560.0 
0.150438441179156 0.05497468379115128 3:176.0 4:4.0 12:504.0 
0.15032380995605088 0.054921358365513595 12:418.0 14:66.0 
0.15094401718293005 0.05492722029706881 1:14.0 3:25.0 5:40.0 8:6.0 12:1413.0 14:142.0 
0.15048796120146485 0.05492507309867428 3:13178.0 4:418.0 8:418.0 12:25894.0 14:3542.0 
0.15071207654654556 0.05531525761665651 1:2.0 12:298.0 14:52.0 
0.15053802232000063 0.05492194669082512 4:11.0 8:126.0 12:1148.0 14:84.0 
0.15073057792425115 0.05520837349076668 4:14.0 12:693.0 14:28.0 
0.1506823218157008 0.054920270858625775 1:66.0 3:66.0 4:11484.0 5:34078.0 12:94600.0 14:7348.0 18:462.0 
0.1656797364576887 0.05442892780252728 3:7.0 4:5.0 12:138.0 
0.15069412170231894 0.05492022112574485 12:14602.0 14:98.0 
0.14789339111482824 0.05380342637656382 3:4.0 8:9.0 12:27.0 
0.15048330614211858 0.054765484451721747 4:28.0 12:1967.0 13:518.0 14:224.0 
0.1503781142664703 0.054742219479412435 12:1900.0 14:75.0 
0.15010659672094262 0.05510113111314502 8:2838.0 12:1672.0 13:3234.0 14:154.0 
0.15049877000271572 0.05494262741032091 12:1720.0 14:40.0 
0.1504365489258664 0.05497608542448784 4:32.0 8:342.0 12:510.0 14:158.0 18:84.0 
0.15040394709802352 0.05533817416720682 5:1914.0 12:15092.0 14:176.0 
0.15020550705374947 0.055268150449774234 12:129.0 14:126.0 
0.06439788328084438 0.023315605122961602 4:8.0 12:4.0 20:1.0 
0.1504987296538432 0.055322165683183544 1:616.0 4:88.0 7:25080.0 9:44.0 12:64702.0 13:176.0 14:2090.0 16:44.0 18:330.0 
0.15031898892952356 0.055330085440613186 1:14.0 3:980.0 12:23877.0 13:7.0 14:287.0 
0.15031641409429147 0.055157172544228306 12:2051.0 14:3682.0 
-1.0 0.3755001187478655 8:740.0 14:5.0 
-1.0 0.37550573275214727 3:170.0 8:272.0 12:12070.0 
-1.0 0.3755243079246872 8:2925.0 14:54.0 
-1.0 0.375549721825398 8:90.0 12:144.0 14:414.0 
-1.0 0.3244444371932272 12:244.0 
-1.0 0.375549721825398 8:3420.0 14:54.0 
-1.0 0.34963823946336947 8:120.0 12:40.0 
-1.0 0.3755640282305468 5:26.0 12:3172.0 14:2756.0 
-1.0 0.3755640282305468 8:12682.0 12:1768.0 14:17.0 
-1.0 0.3755720111862775 8:51.0 12:51.0 
-1.0 0.37557201118628813 9:8.0 12:128.0 14:96.0 
-1.0 0.3755720112131919 8:4518.0 12:153.0 14:36.0 
-1.0 0.3755832642828206 3:654.0 5:8.0 8:12.0 12:1808.0 14:2.0 
-1.0 0.3755836265054659 12:1800.0 
-1.0 0.3755840005389556 4:17.0 12:2125.0 14:561.0 
-1.0 0.37560841897536695 12:25118.0 14:76.0 
-1.0 0.37560841897536695 4:114.0 12:3914.0 
-1.0 0.37560539121428266 12:91494.0 
-1.0 0.3758926397373468 8:2232.0 12:477.0 14:9.0 
-1.0 0.3755497218253979 8:126.0 12:924.0 14:294.0 
-1.0 0.37560539121428266 8:171.0 12:114.0 14:9.0 
-1.0 0.37510012234247553 5:1649.0 8:629.0 12:12597.0 14:544.0 
-1.0 0.3756181174330091 12:2839.0 14:68.0 
-1.0 0.375816983515756 12:221.0 14:68.0 
-1.0 0.37510012234247553 8:72.0 12:972.0 
-1.0 0.3755001187478657 8:924.0 12:72.0 
-1.0 0.37563713346847283 3:36.0 12:1054.0 14:14.0 
-1.0 0.3750000011600677 8:348.0 12:360.0 14:32.0 
-1.0 0.3750000078951994 8:216.0 12:3096.0 14:126.0 
-1.0 0.37500000572716563 8:10.0 12:1425.0 14:25.0 
-1.0 0.37500000575768594 12:616.0 14:112.0 
-1.0 0.37500000025764424 8:306.0 12:1462.0 
-1.0 0.375000000002604 8:144.0 12:360.0 14:153.0 18:225.0 
-1.0 0.540930009448834 12:48.0 
-1.0 0.375000000000868 8:68.0 12:2686.0 
-1.0 0.3495368494139652 8:126.0 12:36.0 
-1.0 0.41640159779429936 12:18.0 
-1.0 0.375000000000868 8:924.0 12:12.0 14:48.0 
-1.0 0.3750000000003506 8:72.0 12:576.0 
-1.0 0.37500000000008643 12:441.0 14:135.0 
-1.0 0.37560841897536684 1:6.0 3:23.0 4:3.0 12:292.0 14:11.0 
-1.0 0.3750000000000175 3:40.0 7:150.0 8:40.0 12:1380.0 14:110.0 
-1.0 0.0838132258854218 12:248.0 
-1.0 0.375000000000013 12:3420.0 14:306.0 
-1.0 0.37499999999982714 8:20.0 12:96.0 14:4.0 
-1.0 0.37550011874786554 8:8.0 12:372.0 14:40.0 
-1.0 0.375608418975367 5:969.0 12:4233.0 14:204.0 
-1.0 0.37560900970727545 12:9486.0 
-1.0 0.3756148109509407 8:387.0 
-1.0 0.3756181174330091 12:15048.0 
-1.0 0.3756181174330091 8:488.0 14:16.0 
-1.0 0.3756181174330091 8:988.0 12:228.0 
-1.0 0.3749999999996144 1:8.0 8:76.0 12:20.0 14:8.0 
-1.0 0.3749999999973961 8:270.0 
-1.0 0.24904118320801755 12:148.0 
-1.0 0.3756181174330091 12:483.0 14:8274.0 
-1.0 0.3774944823943589 12:2187.0 
-1.0 0.20610538382989402 12:486.0 
-1.0 0.3733072148211763 8:68.0 
-1.0 0.37563111540109684 8:3078.0 12:8766.0 14:378.0 
-1.0 0.3247705220455491 12:252.0 
-1.0 0.24866916599034933 12:144.0 
-1.0 0.37563111540109684 12:24.0 14:45.0 
-1.0 0.37563528700033105 4:8.0 5:16.0 9:2.0 12:708.0 18:64.0 
-1.0 0.3756352870008686 12:1740.0 
-1.0 0.37563713346740074 9:238.0 12:56610.0 14:2448.0 
-1.0 0.3223705602190519 12:84.0 
-1.0 0.3730994867223308 8:78.0 
-1.0 0.40308241893920466 8:4.0 14:8.0 
-1.0 0.37563713346847283 4:378.0 8:1026.0 12:11880.0 14:504.0 18:252.0 
-1.0 0.36526102946881533 12:136.0 
-1.0 0.3756371547811551 3:34.0 5:102.0 12:2975.0 14:238.0 
-1.0 0.37563112473064814 12:969.0 
-1.0 0.3756371547811551 8:140.0 12:700.0 14:40.0 
-1.0 0.3756710478939967 12:705.0 
-1.0 0.37499998269316426 12:459.0 
-1.0 0.37568920999439187 12:3939.0 
-1.0 0.37584461030132643 12:387.0 
-1.0 0.37570289233045706 8:2227.0 
-1.0 0.3751555566679096 12:369.0 
-1.0 0.375722668978048 8:7956.0 14:54.0 
-1.0 0.37575061829153356 4:68.0 5:3978.0 12:1156.0 
-1.0 0.3758252819482109 8:2.0 12:634.0 14:16.0 
-1.0 0.37557194670961086 12:270.0 
-1.0 0.374999984861199 12:288.0 
-1.0 0.3758446448666607 8:14008.0 
-1.0 0.375608418975367 12:1326.0 
-1.0 0.3758446448666607 3:136.0 8:2159.0 12:408.0 14:306.0 
-1.0 0.3758615488121898 8:1790.0 14:50.0 
-1.0 0.37597034233279625 8:42.0 12:856.0 14:116.0 
-1.0 0.37550011874786554 12:1872.0 
-1.0 0.375549721825398 12:31569.0 
-1.0 0.37556402823054685 12:10416.0 
-1.0 0.37557823638947346 12:2493.0 14:39.0 
-1.0 0.3758446448666608 5:104.0 12:32.0 
-1.0 0.32232151263575715 12:78.0 
-1.0 0.37560841897536695 5:54.0 12:7434.0 14:36.0 
-1.0 0.37510013961797023 12:167535.0 14:187.0 18:102.0 
-1.0 0.37500000116006776 8:68.0 12:136.0 14:51.0 
-1.0 0.3750000078951994 4:152.0 5:256.0 12:1240.0 
-1.0 0.20662138358367915 12:488.0 
-1.0 0.37500000575768594 8:357.0 12:527.0 14:85.0 
-1.0 0.3750000002576442 3:117.0 8:45.0 12:9711.0 
-1.0 0.375000000000868 12:36380.0 14:2550.0 
-1.0 0.37500000000008643 5:160.0 8:92.0 9:4.0 12:272.0 14:22.0 
-1.0 0.3750000000000175 7:2856.0 12:40320.0 14:63.0 
-1.0 0.37500000000001305 12:1148.0 14:23.0 
-1.0 0.3653658124465675 12:156.0 
-1.0 0.37567101334299635 12:441.0 
-1.0 0.3755720111862882 12:935.0 14:204.0 
-1.0 0.3755720112131919 12:1173.0 14:51.0 
-1.0 0.3755836265054659 8:680.0 12:250.0 14:590.0 18:40.0 
-1.0 0.37572307908296515 12:190.0 14:6.0 
-1.0 0.3755840005389556 5:132.0 8:328.0 12:136.0 14:40.0 
-1.0 0.37586142783603627 12:230.0 14:10.0 
-1.0 0.37560841897536695 8:8118.0 12:54.0 14:36.0 
-1.0 0.37560841897536695 8:1972.0 14:221.0 
-1.0 0.3756181174330091 12:21504.0 14:1260.0 
-1.0 0.3750000223824036 12:336.0 
-1.0 0.3756181174330091 8:130.0 14:30.0 
-1.0 0.37499999999999983 7:8.0 8:88.0 12:40.0 14:4.0 
-1.0 0.37563111540109684 3:738.0 8:450.0 12:7884.0 14:1242.0 
-1.0 0.3756352870008686 8:7599.0 12:867.0 14:289.0 
-1.0 0.37563715478115506 12:840.0 
-1.0 0.374999999997396 4:20.0 8:260.0 
-1.0 -1.0 3:4.0 12:46.0 14:4.0 
-1.0 -1.0 3:14.0 8:58.0 12:790.0 
-1.0 -1.0 8:144.0 14:837.0 
-1.0 -1.0 8:3897.0 12:495.0 14:3285.0 
-1.0 -1.0 8:45.0 
-1.0 -1.0 8:32.0 12:142.0 
-1.0 -1.0 1:54.0 12:150.0 14:2.0 
-1.0 -1.0 3:4.0 12:174.0 14:12.0 
-1.0 -1.0 3:2.0 12:2176.0 
-1.0 -1.0 12:23307.0 14:16728.0 
-1.0 -1.0 3:66.0 12:6.0 
-1.0 -1.0 8:2232.0 12:36.0 14:873.0 
-1.0 -1.0 1:8.0 3:18.0 4:4.0 12:12.0 14:10.0 
-1.0 -1.0 12:918.0 14:102.0 
-1.0 -1.0 4:123.0 12:30.0 14:3.0 
-1.0 -1.0 12:2295.0 
-1.0 -1.0 3:634.0 12:630.0 
-1.0 -1.0 3:8.0 12:566.0 
-1.0 -1.0 12:5904.0 
-1.0 -1.0 8:1413.0 12:13392.0 
-1.0 -1.0 4:9.0 5:6057.0 8:3177.0 9:72.0 12:27207.0 14:594.0 18:9.0 
-1.0 -1.0 12:2004.0 
-1.0 -1.0 8:567.0 12:13815.0 14:27.0 
-1.0 -1.0 4:118.0 8:4602.0 12:708.0 
-1.0 -1.0 4:16.0 12:86.0 14:14.0 
-1.0 -1.0 3:44.0 12:1496.0 14:94.0 
-1.0 -1.0 8:42.0 12:1608.0 14:492.0 
-1.0 -1.0 3:30.0 12:420.0 
-1.0 -1.0 3:4.0 12:174.0 
-1.0 -1.0 12:510.0 
-1.0 -1.0 12:984.0 
-1.0 -1.0 12:10.0 
-1.0 -1.0 4:198.0 5:1278.0 8:153.0 12:5355.0 14:270.0 16:27.0 18:72.0 
-1.0 -1.0 8:2091.0 12:16218.0 
-1.0 -1.0 3:2499.0 5:66402.0 8:21318.0 12:296055.0 
-1.0 -1.0 12:1130.0 
-1.0 -1.0 8:900.0 12:2673.0 14:3177.0 
-1.0 -1.0 3:18.0 5:180.0 12:276.0 14:9.0 
-1.0 -1.0 9:2.0 12:500.0 14:6.0 
-1.0 -1.0 12:24429.0 
-1.0 -1.0 7:594.0 12:1224.0 14:294.0 
-1.0 -1.0 5:765.0 12:11679.0 14:2346.0 
-1.0 -1.0 8:2.0 12:2.0 
-1.0 -1.0 5:8874.0 12:72216.0 14:6375.0 18:51.0 
-1.0 -1.0 12:355.0 
-1.0 -1.0 5:412.0 8:8.0 12:1120.0 14:28.0 
