svm_type c_svc
kernel_type rbf
gamma 0.05
nr_class 7
total_sv 666
rho 1.004006444723546 1.0003812909126282 1.0017574727535248 1.0019838511943817 1.0038799345493317 1.001590222120285 -0.045412808656692505 -0.8453579843044279 -1.055929648727323 0.02636498212814331 -0.9831223189390075 -0.6839757249260167 -1.0343708551433068 0.16410326957702637 -1.049064964056015 -0.9928270914618905 0.6606475946685799 0.38196046247184934 0.99987251771125 1.0038668553171863 -1.0351771414279938
label 0 1 2 3 4 5 6
nr_sv 16 129 129 93 50 129 120
SV
1.0 1.0 1.0 1.0 1.0 1.0 1:0.05854768296160447 3:0.006528536466641831 4:0.015134249177533353 12:-0.5888121195923768 14:-0.018795590191503404 
1.0 1.0 1.0 1.0 1.0 1.0 5:0.006153367190296852 8:1.249273371336124E-4 12:-0.6107998856440137 14:-0.027758336428034696 18:0.008697961938492997 
1.0 1.0 1.0 1.0 1.0 1.0 4:6.302213765030348E-5 12:-0.6653368401825724 14:-0.0019737328741152135 
1.0 1.0 1.0 1.0 1.0 1.0 8:1.1039081782633571E-4 12:-0.65883679149994 14:-0.005624711734222689 
1.0 1.0 1.0 1.0 1.0 1.0 4:0.0021511119765565065 8:7.421965651811231E-4 9:0.003315519157571245 12:-0.6551481513431111 14:-0.005177410497286718 
1.0 1.0 1.0 1.0 1.0 1.0 8:6.290055256412033E-5 12:-0.6681780293135583 14:-3.0838043873886346E-4 
1.0 1.0 1.0 1.0 1.0 1.0 3:1.6546279061682752E-4 4:5.158364174881182E-4 5:0.039448980487022674 12:-0.5535305395275482 14:-0.042339589993341864 
1.0 1.0 1.0 1.0 1.0 1.0 4:0.002801072717002231 8:1.159742443185826E-4 12:-0.6627322484138717 14:-0.0019189678110154576 
1.0 1.0 1.0 1.0 1.0 1.0 1:0.005920171394892035 4:4.8284589554315816E-4 5:7.033524828434784E-5 12:-0.6594704956563273 14:-0.003402407342194019 
1.0 1.0 1.0 1.0 1.0 1.0 4:0.042866235094649686 5:0.02494628929051767 8:5.232862776629707E-5 12:-0.5855730422566365 14:-0.009235793377459429 18:0.006207167053237943 
1.0 1.0 1.0 1.0 1.0 1.0 1:0.002246093120883093 3:2.0892857180419234E-4 4:0.003582384358062599 5:0.016793732749633385 8:2.42710836937496E-4 9:0.004517628636447314 12:-0.6135687386250667 14:-0.017806457226873736 
1.0 1.0 1.0 1.0 1.0 1.0 4:4.863551818668943E-4 5:0.003188089772333646 12:-0.623865591727531 14:-0.02367262302798509 
1.0 1.0 1.0 1.0 1.0 1.0 4:0.008969799763307683 5:0.004221367547944235 12:-0.6165857022398716 14:-0.022809498485843262 
1.0 1.0 1.0 1.0 1.0 1.0 7:3.3173430840610326E-4 9:2.587512226931908E-4 12:-0.6686180167569078 
1.0 1.0 1.0 1.0 1.0 1.0 3:4.2283014871251373E-4 4:6.590943749490028E-4 5:4.8004515449703763E-4 12:-0.6519120004337702 14:-0.008887345160668017 18:1.407378864124108E-4 
1.0 1.0 1.0 1.0 1.0 1.0 4:0.00739289184234874 5:0.04638641970090138 12:-0.6007377735740452 14:-0.007067795740779206 18:0.0023928565222951217 
-0.0 1.0 0.0 0.0 1.0 0.2346440265352602 12:-0.6688243104518794 
-1.0 1.0 1.0 1.0 1.0 1.0 3:0.007080223478280044 5:7.607204701992738E-5 12:-0.6191808881137486 14:-0.02558680221766802 
-0.0 1.0 0.0 0.0 1.0 1.0 5:4.0907771097916306E-4 12:-0.6683620704928848 
-0.0 1.0 1.0 0.0 1.0 1.0 3:5.849870602916392E-4 5:3.9848653828239687E-5 7:0.2006999346428109 8:9.287529239891396E-4 9:0.0011131190722163439 12:-0.6015947608787839 14:-2.8557695843500395E-4 
-0.0 1.0 1.0 1.0 1.0 1.0 3:1.14981934360951E-4 5:0.0018797852916199555 12:-0.6534811474352443 14:-0.0074140333479263305 16:0.0011721183872988987 18:1.1481428985263754E-4 
-0.0 1.0 1.0 0.0 1.0 1.0 4:1.8917979125046121E-4 12:-0.6674762272528112 14:-6.665343090689773E-4 
-0.0 1.0 1.0 0.0 1.0 1.0 8:3.9822430767985623E-4 12:-0.665876356441852 14:-0.0012550892246506035 
-0.0 1.0 1.0 1.0 1.0 1.0 5:0.0046031232095157665 8:0.0013424850362757645 12:-0.6488144950165404 14:-0.007314833562203388 
-0.0 1.0 1.0 1.0 1.0 1.0 1:3.0948841957043096E-5 3:0.8599322624628726 12:-0.030503522768304224 14:-0.016846900281880836 
-1.0 1.0 1.0 1.0 1.0 1.0 3:4.1639256187322616E-5 4:0.028071830575281988 5:0.012820613052540881 12:-0.6192912878423347 13:0.02599147941262737 14:-0.0015923057910447163 16:8.489357581582889E-4 18:7.484138252046629E-4 
-1.0 1.0 1.0 1.0 1.0 1.0 3:0.012478176024432257 4:0.0011032897373931224 5:0.07014278880514101 8:0.002030225266229878 12:-0.5621230307453023 14:-0.010920430761693531 18:0.00335058359711181 
-0.0 1.0 0.0 0.0 1.0 1.0 3:1.567484413876164E-4 5:0.0033812164762894626 12:-0.6385630640997813 13:0.08192748976131234 14:-0.0019342785989153006 
-0.0 1.0 1.0 1.0 1.0 1.0 12:-0.6627932364478999 14:-0.0028588552773547472 16:0.003709024734343332 
-1.0 1.0 1.0 1.0 1.0 1.0 9:0.0016862394220975943 12:-0.653729211348264 14:-0.008253467928760458 
-0.0 1.0 0.0 0.0 1.0 0.0 1:1.1796604578552467E-4 3:0.003985566148370516 5:0.001857999971682966 12:-0.02048959104265541 13:2.2333092023308603 14:-0.005667667078297804 16:6.591661257889329E-4 18:1.4087628897457806E-4 
-0.0 1.0 1.0 1.0 1.0 1.0 1:7.332079688729073E-5 3:0.010128000354770829 5:2.0906299265281516E-4 8:2.3768941472615917E-4 12:-0.6558256525683368 14:-0.00293408903426746 
-0.0 1.0 0.07758815739633917 0.0 1.0 1.0 1:0.004416281613973863 4:0.0034162301109892435 8:4.919788524750633E-5 9:0.001153820737238303 12:-0.1390743266923768 13:1.664547305288056 14:-0.02915084307581739 16:0.0037235404399744835 
-0.0 1.0 1.0 1.0 1.0 1.0 5:0.007942212699671151 12:-0.6533243698859575 14:-0.004141933459253718 
-0.0 1.0 0.0 0.0 1.0 1.0 12:-0.668264377836039 14:-3.0320049562719103E-4 
-0.0 1.0 1.0 1.0 1.0 1.0 7:0.016462055405979045 12:-0.6564682031935956 14:-0.004065030007174285 
-0.0 1.0 1.0 1.0 1.0 1.0 3:6.0729270115795495E-5 4:0.0011832860206975704 5:0.003143974744105367 12:-0.6520145128071613 13:1.5163033334290486E-4 14:-0.006645780598251105 16:0.0027858160975906114 
-0.0 1.0 1.0 1.0 1.0 1.0 3:0.002896033719224138 5:4.2273112757182493E-4 8:4.8061454121599837E-4 12:-0.6538251476628083 14:-0.006239367325957704 18:0.0021245960429652276 
-0.0 1.0 1.0 0.0 1.0 1.0 4:0.003343518610218452 7:0.06230731398060469 8:3.2572566749078216E-5 12:-0.6391054245140029 13:0.011341322317780393 14:-0.002001858743358038 
-0.0 1.0 0.0 0.0 1.0 1.0 12:-0.668555048964748 16:8.791289260168154E-4 
-0.0 1.0 1.0 0.0 1.0 1.0 4:6.881355218804755E-5 12:-0.6671416980407198 14:-9.159212851367598E-4 
-0.0 1.0 1.0 0.0 1.0 1.0 1:3.135055158286195E-4 4:5.113867199135376E-4 5:0.01117391042766624 7:0.2709008467318293 9:8.512590158492016E-4 12:-0.5696263683417944 14:-4.448792907942202E-5 
-0.0 1.0 0.0 0.0 1.0 1.0 12:-0.6682616898142285 16:0.001974235083133025 
-1.0 1.0 1.0 1.0 1.0 1.0 12:-0.6600510364759892 14:-0.005025385213149845 
-0.0 1.0 0.0 0.020175918678729494 1.0 1.0 4:0.001243914032302867 5:2.391821575174472E-4 8:2.5957213629280973E-4 12:-0.5618867159289223 13:0.3363327654558664 14:-0.004194371361251194 18:0.006693516328863344 
-1.0 1.0 1.0 1.0 1.0 1.0 4:4.006196624336261E-5 8:3.980894518979539E-5 12:-0.5875466952556888 14:-0.046610774946831426 
-0.0 1.0 0.0 0.0 1.0 1.0 12:-0.6686506100111126 14:-6.436277129027544E-5 16:1.6128016003204827E-4 
-0.0 1.0 0.0 0.0 1.0 1.0 12:-0.668817464652163 
-0.0 1.0 1.0 0.0 1.0 1.0 3:0.9092384362120366 4:2.2838925465576933E-4 12:-0.024694618329568548 
-0.0 1.0 0.0 0.0 1.0 1.0 4:1.4120440586141275E-4 12:-0.6686759124550875 
-0.0 1.0 1.0 0.0 1.0 1.0 3:5.290113567069743E-4 7:0.01062406581385394 12:-0.6619201293877718 14:-0.0015542880238447743 16:0.0014979743019157882 
-0.0 1.0 1.0 0.0 1.0 1.0 1:9.955840518656686E-5 8:1.3447741559738573E-5 9:4.8058691574784726E-4 12:-0.6672805170483298 14:-7.20518457648766E-4 
-1.0 1.0 1.0 1.0 1.0 1.0 1:0.0024012774346910903 8:9.325059506179208E-4 12:-0.6545568558331313 14:-0.006516895950628848 
-0.0 1.0 0.0 0.0 1.0 1.0 12:-0.6687961106743622 
-0.0 1.0 0.0 0.0 1.0 1.0 1:0.0013447406069733159 4:3.249668091541596E-5 12:-0.6676192676606117 14:-2.8835794501049736E-4 
-0.0 1.0 1.0 0.0 1.0 1.0 4:1.7989822637149008E-4 5:7.075467275019697E-4 12:-0.6665414588515058 14:-7.746844249597441E-4 
-0.0 1.0 1.0 1.0 1.0 1.0 4:7.820574789342472E-5 5:0.0013898341707501757 8:0.008600108140402442 12:-0.6515625648612581 
-0.0 1.0 1.0 1.0 1.0 1.0 4:7.787754631353625E-5 12:-0.6606923956150618 14:-0.004613729363374694 
-0.0 1.0 1.0 1.0 1.0 1.0 3:5.31851339588271E-5 4:0.0015337113980715819 5:0.0019926009901526714 8:1.0297465352479171E-5 9:8.740102821717347E-4 12:-0.657756780070219 13:2.655878977529965E-4 14:-0.0033969219462003175 16:4.0662435662545705E-4 18:5.310758964126393E-4 20:0.004934366048263559 
-0.0 1.0 1.0 1.0 1.0 1.0 1:0.008933698513278925 3:7.451908114083397E-4 5:4.614686483211489E-5 9:5.859323674227331E-4 12:-0.654509626374547 13:0.006681283957528231 14:-0.0035551683774903164 16:0.0035392443223846008 
-0.0 1.0 0.0 0.7525347796722746 1.0 1.0 1:0.016224049371857622 3:1.0918210575787271E-4 4:0.0011629625555075846 12:-0.6234697489710377 13:0.10722603499270357 14:-0.0031091749795318074 18:0.0010175472294627495 
-1.0 1.0 1.0 1.0 1.0 1.0 1:0.007767951197964281 4:6.812363349169033E-4 12:-0.6605355241644982 14:-0.0021809131264491238 
-0.0 1.0 1.0 0.11797340612186419 1.0 1.0 3:0.035313059507812154 5:8.036760269502892E-4 8:1.1027669421540174E-4 9:0.002392749406973225 12:-0.6396162829402547 14:-0.0012412879587371146 
-0.0 1.0 1.0 0.0 1.0 0.12437751415220658 5:0.0013163497054830202 7:0.22542407045781399 12:-0.5954016897382141 14:-2.2461124721993933E-5 
-0.0 1.0 1.0 0.0 1.0 1.0 4:0.0020575781069337375 7:0.31177044036185675 9:0.001245477583445631 12:-0.5261495658620866 13:0.01153534913280363 14:-0.004320369729401804 16:1.5290928837547097E-4 20:0.16652542828634312 
-0.0 1.0 1.0 1.0 1.0 1.0 4:0.7072120335446683 5:0.0030660190241324796 9:2.684801189911271E-4 12:-0.022092093021553443 14:-4.798645888644013E-4 
-0.0 1.0 0.0 0.0 1.0 1.0 5:3.239579622069583E-4 9:3.046913875577782E-5 12:-0.6683808263701726 14:-5.015926886350238E-5 
-0.0 1.0 1.0 1.0 1.0 1.0 12:-0.6634190229641702 14:-0.003084978098130446 
-0.0 1.0 0.0 0.0 1.0 1.0 12:-0.6687106701108285 16:3.676970834583392E-4 
-0.0 1.0 1.0 1.0 1.0 1.0 3:0.001914871682936185 4:1.5228785330924046E-4 12:-0.5607898272357174 13:0.16909477483490434 14:-0.03306759346857045 18:0.0028095866241794384 
-0.0 1.0 1.0 1.0 1.0 1.0 3:0.06500140968709132 8:6.442975737717721E-5 12:-0.6183602982607938 14:-0.0024593328994593155 
-0.0 1.0 1.0 0.8408485287896188 1.0 1.0 5:0.6008994744175468 12:-0.04360555723316282 14:-2.2580609661650253E-4 18:3.575811696555565E-4 
-0.0 1.0 0.0 0.0 1.0 1.0 3:2.504273237632846E-5 12:-0.6684219849345634 14:-2.139423023116878E-4 
-0.0 1.0 1.0 1.0 1.0 1.0 3:6.186699913800941E-5 4:0.0012054542246750042 5:0.001517151485526626 12:-0.6549853661727447 14:-0.005713214980036369 16:0.00409934316889005 
-0.0 1.0 1.0 0.0 1.0 1.0 1:1.627940348396989E-4 3:0.009028943951761388 4:3.9832173579845486E-4 5:0.007465596897486018 7:0.005793063941239914 12:-0.64840144725761 14:-0.002263922555943601 
-0.0 1.0 1.0 1.0 1.0 1.0 12:-0.6641673516815003 14:-0.0026658255201514047 
-0.0 1.0 1.0 1.0 1.0 1.0 3:0.0037707619734738494 4:4.4528375038143165E-5 5:0.01249273738154222 12:-0.6378381795665206 14:-0.008762382179505139 
-0.19125623470360323 1.0 1.0 1.0 1.0 1.0 5:3.397710673656878E-5 12:-0.4011566340971865 14:-0.1536068337033442 16:7.626971560554387E-4 
-0.0 1.0 1.0 0.0 1.0 1.0 4:0.002561698752969818 5:0.0033340839272128684 12:-0.659696585569239 13:0.00463852538567637 14:-0.001148183536089417 
-0.0 1.0 1.0 0.0 1.0 1.0 3:0.002685523084906525 4:4.104028589181226E-5 12:-0.6658466888195456 16:0.003623300508730697 
-0.0 1.0 1.0 0.0 1.0 1.0 3:0.006671272716332957 4:1.3927192881348598E-4 12:-0.6639368188440603 
-0.0 1.0 0.0 0.0 1.0 1.0 12:-0.6686105125048738 14:-1.0501257228993884E-4 
-0.0 1.0 0.0 0.0 1.0 1.0 5:2.1384119716991967E-4 12:-0.6683217400523278 14:-1.4595251642713324E-4 
-0.0 1.0 1.0 0.0 1.0 0.0 3:0.0017636505823759676 4:0.0036238442391767984 5:0.018202708127459534 7:1.381051073563464 8:4.1390310033799254E-5 9:2.773464044960627E-4 12:-0.19706864804427382 14:-0.0038917711583014176 16:0.0010896084691345805 
-0.0 1.0 1.0 0.0 1.0 1.0 1:0.01860098153324206 4:6.519091566660947E-4 5:1.7907190477293086E-4 12:-0.6534122612133807 13:0.012053322335983527 14:-0.0010208274278065527 16:8.526627408010132E-4 
-0.9460829472660824 1.0 1.0 0.0 1.0 1.0 4:4.7206988248287343E-5 9:3.143247393224152E-4 12:-0.6660418307275483 14:-0.0014784326280809141 
-0.0 1.0 1.0 1.0 1.0 1.0 4:0.0011368600837197032 12:-0.660999311922109 14:-0.0038858439566245985 
-0.0 1.0 1.0 1.0 1.0 1.0 3:7.958626774871747E-4 5:0.09134934521357273 12:-0.568710702695848 14:-0.0026132695282815935 
-0.0 1.0 0.0 0.0 1.0 1.0 8:2.2761772488479865E-5 12:-0.6687674335248067 
-0.0 1.0 0.0 0.0 1.0 0.08274439971796985 1:0.009231497707544676 4:0.0018447510440312634 5:0.0015373363537903092 12:-0.533606022278504 13:0.44749694009492225 14:-2.4632358051280515E-4 
-0.0 1.0 0.0 0.0 1.0 1.0 4:6.354807779184558E-4 12:-0.6678675277683623 14:-2.027059949371084E-4 
-0.04073202484270738 1.0 1.0 0.58563801400057 1.0 1.0 1:1.1121709654287038 4:0.12022140318191442 9:1.4069542026221208E-4 12:-0.009474897872336359 14:-2.316172921513088E-4 16:6.218425185114421E-4 
-0.0 1.0 0.0 0.0 1.0 1.0 12:-0.6682896415808135 16:0.0018596239642845423 
-0.0 1.0 1.0 0.0 1.0 1.0 4:0.004678391335909224 12:-0.6644927066795719 14:-3.71873789677147E-5 
-0.0 1.0 1.0 0.0 1.0 1.0 12:-0.6663618659981347 14:-0.0013929125378188633 
-0.0 1.0 1.0 0.0 1.0 1.0 3:0.0037932584144330715 5:5.900300106148118E-4 12:-0.6650649155271876 14:-2.551665029373832E-4 
-0.0 1.0 1.0 0.0 1.0 1.0 5:0.007307462758102359 12:-0.6605707901356626 14:-3.58080148643456E-4 
-0.0 1.0 1.0 0.0 1.0 0.1952381670558408 1:0.013663530045782624 4:0.011251258663552458 7:1.447784281837446 11:3.3884502012603956E-4 12:-0.1296221246020939 13:0.12835648812151468 14:-0.01347157223593439 
-0.0 1.0 0.9224118426036607 0.0 1.0 1.0 3:0.002196706158306671 12:-0.6672310419687012 
-0.0 1.0 1.0 0.0 1.0 1.0 3:0.0024406269367293794 4:4.7554659070711586E-5 8:1.1813579025087223E-4 12:-0.6638608545369563 14:-0.0016878971487577442 
-0.0 1.0 1.0 0.3956890820470789 1.0 1.0 1:2.719010230421643E-4 4:1.1088048319274121E-4 7:0.5464645470648123 9:0.001886742822953934 12:-0.4284460493360147 14:-0.0372529031443935 
-0.0 1.0 0.0 0.0 1.0 0.0 4:6.298439015620302E-5 12:-0.611944710449088 13:0.1948146315201267 14:-8.876478126422147E-4 
-0.0 1.0 0.0 0.0 1.0 1.0 12:-0.6682839703640135 14:-3.088508813427548E-4 
-0.0 1.0 1.0 1.0 1.0 1.0 3:0.006719706524350475 4:1.0688232434377009E-4 5:5.916351485930819E-4 12:-0.6493745341735314 14:-0.00801504379178639 
-0.0 1.0 1.0 0.0 1.0 1.0 4:4.9650842653235614E-5 5:5.424408249780191E-4 9:8.264924724721628E-4 12:-0.6675666955161352 14:-1.684550265902522E-4 
-0.013185027891210222 1.0 1.0 1.0 1.0 1.0 8:4.74874737984354E-5 12:-0.648464930339971 14:-0.010601408802514575 18:0.005020641128459671 
-0.0 1.0 0.0 0.0 1.0 1.0 12:-0.6685331427083031 16:9.966646411255853E-4 
-0.0 1.0 1.0 1.0 1.0 1.0 5:0.006930831440421205 12:-0.6559819501120986 14:-0.0032165864063067842 
-0.0 1.0 0.0 0.0 1.0 1.0 4:2.091453185313771E-4 5:0.013140916336937543 8:2.309160117809384E-5 12:-0.5341813030285022 13:0.3953088380297521 14:-0.0038329814320065456 16:0.0031914286699510075 18:0.0029772843062557293 
-0.0 1.0 1.0 1.0 1.0 1.0 5:0.05292366240119684 8:5.9029124569642796E-5 12:-0.5066511330802218 14:-0.061476853634068414 
-0.0 1.0 1.0 0.0 1.0 1.0 4:0.0035769130506588653 12:-0.6644412443633426 14:-6.416637926306553E-4 16:5.186711003573436E-5 
-0.0 1.0 0.0 0.0 1.0 1.0 12:-0.6687909455820027 14:-1.1181212335780584E-5 
-0.0 1.0 1.0 0.0 1.0 1.0 3:0.052428299129378804 4:2.726846460410619E-5 5:7.030697817584852E-4 8:1.3548122004802838E-5 12:-0.6292741525921521 14:-9.393958016126345E-4 
-0.0 1.0 1.0 1.0 1.0 1.0 4:0.011575952178956322 5:0.296010407979088 12:-0.3498517159730485 14:-4.0964598070597404E-4 
-0.8087437652963968 1.0 1.0 1.0 1.0 1.0 4:0.07841500218127438 5:0.002027460039346543 12:-0.5921233292407511 14:-0.001491906582167448 16:0.002573548511989166 
-0.0 1.0 1.0 1.0 1.0 1.0 1:4.086558783285849E-4 3:0.0022807573263483494 4:0.002177543456895779 5:0.021944966890374628 12:-0.5927567335370458 13:0.13482086042676691 14:-0.006193355461543851 18:0.0011387159826727418 
-0.0 1.0 1.0 1.0 1.0 1.0 5:0.01654862324605654 9:0.0015038401412184362 12:-0.6425281509830203 14:-0.004853098433910702 
-0.0 1.0 1.0 1.0 1.0 1.0 4:4.8051899438769137E-4 5:0.012969901348970437 12:-0.6510060524730584 14:-0.002050786419235294 16:1.8485101822581128E-4 18:7.242796842405076E-4 
-0.0 1.0 1.0 0.0 1.0 0.0 7:0.9526336348011551 12:-0.36312066864694 14:-8.649095836215548E-4 
-0.0 1.0 0.0 0.0 1.0 1.0 1:0.0014982055633006365 4:9.051319615807495E-5 12:-0.6412378135964754 13:0.07785608392302096 14:-0.0026693427570163167 
-1.0 1.0 1.0 1.0 1.0 1.0 12:-0.64354477545124 13:4.7470709077801275E-5 14:-0.014509958914798846 
-0.0 1.0 1.0 1.0 1.0 1.0 5:0.008179443686743055 12:-0.6521134793140066 14:-0.004184640279141781 16:0.0018799362991290978 18:0.0010639676732660196 
-0.0 1.0 1.0 1.0 1.0 1.0 4:1.6964314437453494E-5 5:0.3081041783702381 9:7.906906875107958E-4 12:-0.34761704717220515 14:-3.1877393887671217E-4 
-1.0 1.0 1.0 0.0 1.0 1.0 5:0.06643539016939336 12:-0.5988416668098909 14:-5.172386386679656E-4 
-0.0 1.0 1.0 0.0 1.0 1.0 3:0.0010693186287266442 5:0.003795387485602363 12:-0.6625526804661793 14:-8.92922562362286E-4 
-0.0 1.0 1.0 0.0 1.0 1.0 1:2.0707620359867478E-4 3:0.0011075621783174212 4:3.753115626143602E-5 5:0.017614972167571064 12:-0.6477381849270656 14:-8.22782847028297E-4 18:0.0011540320116448048 
-0.0 1.0 1.0 0.0 1.0 1.0 5:3.2648602808723335E-4 12:-0.6676911968115002 14:-4.2770081957897954E-4 16:1.576076813933104E-4 
-0.0 1.0 1.0 0.0 1.0 1.0 5:0.00323315561190906 12:-0.6645637716646017 14:-4.950969647502458E-4 
-0.0 1.0 0.0 0.0 1.0 1.0 12:-0.6688152402437775 
-0.0 1.0 0.0 0.0 1.0 0.0 1:0.001447636073302171 4:8.797252979843594E-4 5:0.011776119396940907 8:8.28160275538521E-4 12:-0.17951296186336158 13:1.6427579573813424 14:-0.004640221405392516 
-0.0 1.0 0.0 0.0 1.0 1.0 1:1.5561074722685847E-4 5:9.135003067786937E-5 8:9.891270455547749E-6 12:-0.6676857468369051 13:0.0032367270258030385 18:8.927222867039384E-5 
-1.0 1.0 1.0 1.0 1.0 1.0 1:7.150776348680289E-4 3:3.9196671183736525E-4 4:1.1108825772579432E-4 9:9.245926542641804E-4 12:-0.635747965216954 14:-0.017569312936700512 16:0.00490379308995237 
-0.0 1.0 1.0 0.0 1.0 1.0 1:3.137561865502309E-4 4:7.506335631140253E-4 9:4.5436781869420787E-4 12:-0.6666597565143355 14:-6.411384064985361E-4 
-0.0 1.0 0.0 0.0 1.0 1.0 4:0.0016075801130299501 12:-0.6671220117950669 14:-1.2909316920150127E-4 
-0.0 1.0 1.0 1.0 1.0 1.0 1:6.987330032139025E-5 3:0.006629511163992558 4:1.1397655242666498E-4 5:9.297539328822727E-4 12:-0.6572655886550662 14:-0.0018442559975732555 15:0.019007982569201335 18:9.735066599737443E-5 
-0.0 1.0 0.0 0.0 1.0 1.0 12:-0.6687864931016821 
-0.0 1.0 1.0 0.0 1.0 1.0 7:1.3116191358236668 8:6.459666401977926E-5 12:-0.1546361442987684 18:0.2685167508769205 
-0.0 1.0 1.0 0.0 1.0 1.0 2:2.7129310388932686E-4 4:0.0022734843882774463 5:0.04545872388905252 7:0.8279263236284052 12:-0.2408883639334 13:0.3600032319400271 14:-0.005884995895187272 16:0.0015171415747357632 18:0.003923326950650569 
-1.0 1.0 1.0 0.0 1.0 1.0 1:3.205214509157422E-4 12:-0.666159505473655 14:-0.0014389332970024431 
-0.0 1.0 0.0 0.0 1.0 0.3629958925387226 5:0.02036349388151147 12:-0.2699581970988966 13:1.283857908470635 14:-0.0075445198376743045 16:0.001489203720669754 
-0.0 1.0 1.0 0.0 1.0 1.0 3:0.002534800265800996 5:0.0013034719572788736 9:1.5045765742130834E-4 12:-0.6651253948603665 14:-2.729625045743866E-4 18:2.4814750081556765E-5 
-1.0 1.0 1.0 0.0 1.0 1.0 3:1.2246120182057117E-4 5:4.4490228884085564E-4 8:2.371038463015842E-4 12:-0.6650140997656153 14:-0.001610811252580695 
-0.0 1.0 1.0 0.2871402706898641 1.0 1.0 1:1.5229434457705146E-4 7:1.4131360077840196 12:-0.011185620343389852 14:-0.1185163385271174 
-1.0 1.0 1.0 1.0 1.0 1.0 4:6.305452867530791E-5 9:0.0013061831466613725 12:-0.6526925522933886 14:-0.008919275300924281 
-0.0 1.0 1.0 1.0 1.0 1.0 4:0.001336268894115254 5:0.0272512467090828 9:0.0016476781000300607 12:-0.631258571491212 14:-0.0042043134431088165 
-0.0 -1.0 0.0 0.0 1.0 1.0 4:3.780680882154826E-4 5:0.010177391214459906 12:-0.6443713793544685 14:-0.0074989008632708135 18:9.687566274777246E-4 
-0.0 -1.0 1.0 1.0 1.0 1.0 4:7.559032324456198E-5 5:0.0017837981036698607 12:-0.6658765267873353 14:-5.129246245047821E-4 
-0.0 -1.0 1.0 0.0 1.0 1.0 4:5.0528457424186204E-5 7:0.9003432173637537 12:-0.28010235136046585 14:-0.05723211140190206 20:0.008190446893576293 
-0.0 -1.0 1.0 1.0 1.0 1.0 8:6.485919387428956E-5 12:-0.6639519073098787 14:-0.0023082159136109523 18:0.002007007745013483 
-0.0 -1.0 1.0 1.0 1.0 1.0 8:7.429655245477913E-5 12:-0.22874049589491188 14:-0.2526602617295001 
-0.0 -1.0 0.0 0.0 1.0 1.0 3:2.5317971500130054E-4 4:1.5785943979316848E-4 5:0.014107485259880134 12:-0.6444820558544795 14:-0.005335244470783665 
-0.0 -1.0 1.0 1.0 1.0 1.0 3:9.768945064551628E-5 4:0.0013704772672320856 5:6.654494373778752E-5 12:-0.6658551434372595 14:-8.345697134239753E-4 
-0.0 -1.0 1.0 0.055766408566607806 1.0 1.0 3:0.29223565728677403 4:0.004134070582922948 12:-0.4488396296634746 14:-0.005252133086233045 
-0.0 -1.0 1.0 1.0 1.0 1.0 1:4.533302356491582E-4 4:0.002054075699730842 8:4.898646448826658E-4 12:-0.6465828250102599 14:-0.010978939599349664 
-1.0 -1.0 1.0 0.0 1.0 1.0 5:4.9523248099217135E-5 12:-0.6150804781500021 14:-0.0307884704390501 
-0.0 -1.0 0.0 0.0 1.0 1.0 3:0.031866363288809575 12:-0.6460881855032508 14:-6.038979402123355E-5 
-0.0 -1.0 0.0 0.0 1.0 1.0 4:1.424063779755358E-4 5:0.031116101569787665 12:-0.6279849712748126 14:-0.004757221893527453 
-0.0 -1.0 1.0 1.0 1.0 0.0 12:-0.6687869262451679 
-0.0 -1.0 1.0 0.0 1.0 0.0 1:9.059728258896715E-5 7:0.19063212043468813 12:-0.6003937572913425 14:-0.0042682540263718855 
-0.0 -1.0 1.0 0.0 1.0 1.0 1:0.011769122113708981 8:1.636457080165272E-4 12:-0.5724643312614874 14:-0.05179749290039307 
-0.0 -1.0 1.0 1.0 1.0 1.0 5:0.001956311100519132 12:-0.6646922025200552 14:-0.001128044456940756 
-0.0 -1.0 1.0 1.0 1.0 1.0 3:4.1602572850006674E-4 12:-0.6684174150543922 
-0.0 -1.0 0.34557752622160376 0.0 1.0 1.0 4:9.209146206965919E-4 5:0.008451317123900555 12:-0.6443547473699845 14:-0.008472127598516597 
-0.0 -1.0 1.0 0.0 1.0 1.0 1:0.0014165482826482539 3:0.002569425743419707 5:0.006664465322761959 8:3.444096489617926E-4 12:-0.6392969434996231 14:-0.011096025934965177 
-0.0 -1.0 0.0 0.0 1.0 1.0 3:0.10202155446877835 4:0.0034120950082203875 5:0.011236505660790678 12:-0.5729426665621814 14:-0.005024978058117678 
-0.0 -1.0 1.0 1.0 1.0 0.0 3:4.0521306571805613E-4 12:-0.6684791493261717 
-0.0 -1.0 1.0 1.0 1.0 1.0 3:0.004181395593021856 9:0.009079837790599433 12:-0.6478501868053601 14:-0.008143321390942574 
-1.0 -1.0 1.0 0.0 1.0 1.0 4:5.7561664666526794E-5 12:-0.663547434907688 14:-0.0029444447881180774 
-0.0 -1.0 1.0 1.0 1.0 1.0 1:0.11199046580085248 4:0.00597240217245878 8:7.095815458232918E-4 9:0.001296745478504565 12:-0.6061289156023758 
-0.0 -1.0 0.0 0.0 1.0 1.0 3:0.10318913103288292 12:-0.5956132963233619 
-0.0 -1.0 1.0 0.10657484183682353 1.0 1.0 12:-0.6017642812846837 14:-0.038479218117647505 
-0.0 -1.0 1.0 0.0 1.0 1.0 3:0.003203012464981409 12:-0.6617983130877875 14:-0.002649493552923369 
-0.0 -1.0 0.9803196619488732 0.0 1.0 1.0 3:0.007104756710036745 12:-0.6637429743288644 
-0.0 -1.0 1.0 0.8244380538795206 1.0 1.0 4:6.180508545386605E-6 12:-0.6686389391084084 14:-1.0000688483901994E-4 
-0.0 -1.0 1.0 1.0 1.0 1.0 12:-0.6687308823264062 
-0.0 -1.0 1.0 0.0 1.0 1.0 3:6.875061756803287E-4 12:-0.6466775459084233 13:2.1457278836659293E-4 14:-0.012341188336809207 
-0.0 -1.0 1.0 0.0 1.0 1.0 3:1.0144593005809361E-4 4:0.0063252293684686964 5:0.0016584915558932667 8:3.928300531242215E-4 12:-0.6344185400280868 14:-0.014733248100914165 18:0.001012980211438845 
-0.0 -1.0 1.0 0.0 1.0 1.0 1:4.508785972066112E-4 3:0.063539286083403 12:-0.5895300326156894 14:-0.019541877412672177 
-0.0 -1.0 1.0 1.0 1.0 1.0 12:-0.6640714422506558 14:-0.0026714301848589886 
-0.0 -1.0 1.0 1.0 1.0 1.0 12:-0.42628717174435005 14:-0.13891552009939645 18:0.0017912337641967043 
-1.0 -1.0 1.0 0.0 1.0 1.0 12:-0.6541893333966508 14:-0.008325964129402966 
-0.0 -1.0 0.20776507728489207 0.06630364219037015 1.0 1.0 1:2.0074068708881022E-4 3:0.00947635955885196 8:0.00996017959083216 9:0.006863839151206434 10:0.006889848742562804 11:0.09502249724117867 12:-0.051107699857536736 13:2.030283757024957 15:0.015674659410047 17:0.001602217491658446 
-1.0 -1.0 1.0 1.0 1.0 1.0 1:1.4047161543210752E-4 12:-0.6683787814255647 14:-1.7940233439428556E-4 
-1.0 -1.0 1.0 0.0 1.0 1.0 5:0.002042576891548516 12:-0.6112097259724897 14:-0.031847993779956896 
-0.0 -1.0 1.0 0.0 1.0 1.0 3:6.918076792974343E-4 4:2.246600237312817E-5 12:-0.42632418421209994 14:-0.1389477422252245 16:2.9384344371350996E-4 
-0.0 -1.0 1.0 1.0 1.0 1.0 12:-0.6687587548409833 
-0.0 -1.0 1.0 0.0 1.0 1.0 1:0.002681389382629323 7:0.09304724023947522 9:4.6227016583238263E-4 12:-0.6292398074311639 14:-0.004761710140302178 
-0.0 -1.0 1.0 1.0 1.0 1.0 9:0.00198534107610836 12:-0.6678693350891085 
-0.0 -1.0 0.0 0.0 1.0 1.0 4:2.0088198883531645E-4 5:0.010300258967162707 12:-0.6480829442580927 14:-0.005592213219240291 
-0.0 -1.0 1.0 0.0 1.0 1.0 5:0.028409422193462045 7:0.56694792428287 8:8.860197277932282E-4 12:-0.4492009024197167 14:-0.004188721500930337 
-1.0 -1.0 1.0 1.0 1.0 1.0 4:1.2110868176300504E-4 5:0.00462211821890193 8:0.0017850995597137145 12:-0.6510032129205424 14:-0.005499693971045617 
-0.0 -1.0 1.0 1.0 1.0 1.0 1:7.613289808384524E-4 4:8.279142590884541E-5 7:0.030861402030049917 12:-0.09064672105000933 14:-0.3261397296349623 
-0.0 -1.0 1.0 0.8662795702125301 1.0 1.0 1:0.1918267907850288 5:0.0963221323367975 8:5.154403873549927E-4 12:-0.3923502214128244 14:-0.04623636160438154 
-0.0 -1.0 0.0 0.0 1.0 1.0 3:0.008369762391779934 12:-0.6627467653897752 
-0.0 -1.0 1.0 0.11398127689139627 1.0 1.0 1:4.0810767766280386E-4 2:0.0032436996708148087 3:0.01622859648923914 4:0.020081971627666527 5:0.001890941602699545 6:1.1656555468247738 7:0.8391541465171406 8:0.0311730142111488 9:0.17028287507553605 12:-0.04995179772801687 13:0.04211943038384799 15:0.1048518143162541 18:0.0896957371304658 
-0.0 -1.0 1.0 0.0 1.0 1.0 12:-0.6314313771296819 13:2.1267631170173668E-4 14:-0.021380207403324514 
-0.0 -1.0 0.0 0.02249971874474533 1.0 1.0 3:1.1252968054817723E-4 4:0.18119619218193198 5:0.001993002432679635 9:0.0033091670131587883 12:-0.4584508827411952 14:-0.024171113991785786 
-0.0 -1.0 1.0 0.0 1.0 1.0 5:0.01503481679609568 8:7.597108007034695E-5 12:-0.6201333896407121 14:-0.018835878662377455 
-0.0 -1.0 1.0 1.0 1.0 0.0 3:3.892199249308077E-5 12:-0.668774746917777 
-1.0 -1.0 1.0 0.0 1.0 1.0 1:0.007043946700511416 4:5.984379022971285E-5 12:-0.6542936392550505 14:-0.0062993712824619685 
-0.0 -1.0 0.0 0.0 1.0 1.0 1:0.0029726232151637334 3:2.1829691640837894E-4 4:0.0025520579027697144 5:0.18089522750104126 9:0.004342582926378198 12:-0.45518769462180836 14:-0.01132278976899101 
-0.0 -1.0 0.0 0.0 1.0 1.0 3:0.021108211058319733 4:0.008361666405054672 5:0.00540685657195979 8:6.755167703336724E-5 12:-0.637698523080438 14:-0.001419357220149347 18:6.967747150717139E-4 
-0.0 -1.0 0.0 0.0 1.0 1.0 5:0.015365375796647006 8:1.5597602279929639E-4 12:-0.6353135022655304 14:-0.009831837069907536 
-0.0 -1.0 1.0 0.0 1.0 1.0 3:0.0037958266669436656 5:0.002415563862508832 12:-0.6416310272049975 14:-0.012597377032604206 
-1.0 -1.0 1.0 0.0 1.0 1.0 12:-0.6596096270972097 14:-0.005241254413890071 
-1.0 -1.0 1.0 0.0 1.0 1.0 1:0.02037708854009899 3:8.512497601089243E-5 4:0.003184563429676984 5:0.025455927043622546 9:0.013399885085869078 12:-0.6092711604771228 14:-0.008311203233768615 
-0.0 -1.0 1.0 0.0 1.0 0.0 3:0.0010802077112171385 5:8.175835761302959E-5 12:-0.6679232538584025 
-0.0 -1.0 0.0 0.0 1.0 1.0 2:0.0011601253620496417 4:1.3227287830288312E-4 5:0.019595494963459047 8:6.57187384471968E-5 12:-0.6424492516866732 14:-0.0031414213795141932 
-0.0 -1.0 1.0 1.0 1.0 1.0 8:9.629404409127177E-5 12:-0.6671862678152018 14:-7.755889054214366E-4 
-0.0 -1.0 1.0 0.0 1.0 1.0 4:3.739198251323502E-5 12:-0.5367694382857394 14:-0.07580567296740624 
-0.0 -1.0 1.0 0.9968892827916549 1.0 1.0 12:-0.2883245437805939 14:-0.2185386677309415 
-0.0 -1.0 0.0 1.0 1.0 1.0 4:0.025459305152176454 8:7.216018164806237E-4 12:-0.6330440591428556 14:-0.006421504169823314 
-0.0 -1.0 0.0 1.0 1.0 1.0 5:0.00588435837856948 8:0.0017344671112537611 12:-0.6507044020986904 14:-0.004989306678168389 
-0.0 -1.0 1.0 1.0 1.0 1.0 12:-0.28729649679442215 14:-0.2191200403988342 
-0.0 -1.0 0.0 0.0 1.0 1.0 3:1.0488191103174364E-4 4:0.0022888128703115215 5:0.015003316865292089 12:-0.643799815477766 14:-0.004096071066237103 
-1.0 -1.0 1.0 1.0 1.0 1.0 5:5.978038617886357E-5 12:-0.6679598098892864 14:-3.9271696658973337E-4 
-0.0 -1.0 1.0 0.0 1.0 1.0 3:0.0010009131081399442 12:-0.6679793050335595 
-0.0 -1.0 1.0 1.0 1.0 1.0 12:-0.6653726109524095 14:-0.0018997280568327725 
-0.0 -1.0 0.0 0.6688567196747712 1.0 1.0 5:0.0024718552834880293 12:-0.6661044048044743 
-0.0 -1.0 1.0 0.9712919482383555 1.0 0.0 12:-0.6688111384412928 
-0.0 -1.0 1.0 1.0 1.0 1.0 3:2.447108715742587E-4 12:-0.6685699312563398 
-0.0 -1.0 1.0 1.0 1.0 1.0 4:5.170320768108061E-5 9:1.1475417715001804E-4 12:-0.6686889380480513 
-0.0 -1.0 1.0 0.057630820004777775 1.0 1.0 3:0.010367817846048202 5:0.0033725133434991694 7:0.6196518236482038 9:2.0151159051308133E-4 12:-0.27116173817485884 14:-0.0022747530034822766 20:1.0304230002673465 
-1.0 -1.0 1.0 1.0 1.0 1.0 12:-0.665196043714539 14:-0.0020639235039451452 
-1.0 -1.0 1.0 0.0 1.0 1.0 12:-0.6192347688829866 14:-0.028400823354441947 
-0.0 -1.0 1.0 1.0 1.0 1.0 1:0.005245537848735861 4:2.4273654336538983E-4 8:0.002773840042060661 12:-0.240238397054044 14:-0.24161831460375094 
-0.0 -1.0 1.0 0.0 1.0 1.0 3:9.991520360788518E-4 12:-0.6680478335255478 
-1.0 -1.0 1.0 0.0 1.0 1.0 5:0.04757803161639848 12:-0.5666498705005413 14:-0.029962257998012578 18:0.0012666291639043933 
-0.0 -1.0 1.0 0.026221405683576178 1.0 1.0 1:9.248024549411227E-4 4:5.656978148578175E-4 5:0.03603807313921492 7:0.4351541149202322 8:0.006152145978426616 9:0.0016740724652905543 12:-0.4793918498164248 
-0.0 -1.0 0.0 0.08866321228221394 1.0 1.0 3:0.0031413449542819923 5:0.005534090916879199 8:3.775115282862544E-4 12:-0.6489621200610347 14:-0.006345645134441756 
-0.0 -1.0 1.0 0.0 1.0 1.0 1:0.04422155067373494 4:0.0012935368670502646 12:-0.6453924812495085 14:-1.588670661544049E-4 
-0.0 -1.0 0.8295030444094296 0.7785405401973863 1.0 1.0 5:0.6054281398886799 12:-0.03616899135413437 14:-0.0018247530371125961 
-0.0 -1.0 1.0 0.07584572552486121 1.0 1.0 2:8.97303355080786E-4 5:0.0013859660874054776 8:4.828888679440135E-4 12:-0.6352257034781492 14:-0.017835924924411262 
-0.0 -1.0 1.0 1.0 1.0 1.0 12:-0.6673782345217548 14:-3.73824794628415E-4 18:0.002117467148560187 
-0.0 -1.0 0.0 0.0 1.0 1.0 3:2.55986342008633E-4 4:4.987793520501047E-5 5:0.038754840952338436 12:-0.6227396180814373 14:-0.0031501978546433 
-0.0 -1.0 0.0 0.0 1.0 1.0 5:0.004805409685430445 12:-0.6610140551830889 14:-0.0015892161251275442 
-1.0 -1.0 1.0 0.0 1.0 1.0 3:0.0013681974159621736 4:0.002132703222384344 5:0.018225788200346545 8:3.924506700919093E-5 12:-0.612992375203113 14:-0.019439825062949126 
-1.0 -1.0 0.0 0.0 1.0 1.0 3:0.004225688977684055 5:0.06159971414606789 12:-0.6017416881117126 
-0.0 -1.0 1.0 1.0 1.0 1.0 8:4.989424003528653E-5 12:-0.6503982720459829 14:-0.008019871749337997 18:0.012094126906392782 
-0.0 -1.0 0.0 0.0 1.0 1.0 4:0.002655797598636962 5:0.0016764150548687288 12:-0.6645399238346557 
-0.0 -1.0 0.0 1.0 1.0 1.0 3:6.334417228979554E-4 4:0.07899112732453865 5:0.034950957612750716 9:0.0040177302528354285 12:-0.5181076480282837 14:-0.01821029284435922 18:0.024457368860842727 
-0.0 -1.0 0.0 0.0 1.0 1.0 3:1.593221337450829E-4 4:7.450390361898225E-4 5:0.2604320489818847 12:-0.39015075919705605 14:-0.0038456567650701884 18:0.001060598939326996 
-0.0 -1.0 1.0 1.0 1.0 0.0 12:-0.6687918593326718 
-0.0 -1.0 1.0 0.0 1.0 1.0 5:5.544583591412782E-4 12:-0.6422508824603895 14:-0.014864012237455619 
-0.0 -1.0 1.0 1.0 1.0 1.0 5:0.0021620689464215935 7:0.041316044293144116 12:-0.11790520772428358 14:-0.3075612605538026 
-0.0 -1.0 1.0 1.0 1.0 1.0 4:1.6021298677887575E-4 12:-0.6611145647659828 14:-8.362607454443971E-4 18:0.016831632452206837 
-1.0 -1.0 0.0 0.0 1.0 1.0 3:9.604043205621838E-5 4:0.08173882814613125 5:0.006542165101250049 12:-0.5696003849516856 14:-0.010314630858910826 
-0.0 -1.0 1.0 1.0 1.0 1.0 12:-0.668742478440023 
-0.0 -1.0 1.0 1.0 1.0 1.0 4:1.9764572659685257E-4 12:-0.6685305666025579 
-0.0 -1.0 1.0 0.0 1.0 1.0 3:0.9247650111755766 7:0.01492105711398445 8:7.551616342321913E-5 12:-0.008907604130218029 
-0.0 -1.0 1.0 0.0 1.0 1.0 5:0.21574902407626562 7:0.2636924831941919 12:-0.28299948259985935 14:-0.04400540584277399 20:0.0034164384719631738 
-0.0 -1.0 1.0 1.0 1.0 1.0 12:-0.6686732932831335 
-0.0 -1.0 1.0 1.0 1.0 0.0 12:-0.6687999268673347 
-0.0 -1.0 1.0 1.0 1.0 1.0 12:-0.6686894214449572 
-0.0 -1.0 0.5704058449153245 0.0 1.0 1.0 1:0.016474065589274837 3:8.240239963253055E-4 4:4.394214713147853E-4 5:0.4983597864427767 9:3.75110258549113E-4 12:-0.12168360915031476 14:-0.011185906216626143 18:6.92903211167426E-4 
-0.0 -1.0 0.8697085496530855 0.5215910128073273 1.0 1.0 4:0.7035293476516237 8:2.548308764083035E-4 12:-0.01786446066300371 14:-0.006380613160806322 
-0.0 -1.0 1.0 0.0 1.0 0.0 1:0.004631897365157312 4:0.0018218935214157762 7:0.9778321412586344 9:0.0016650340744840425 12:-0.34203464054650967 14:-0.005649882790847675 
-0.0 -1.0 0.0 0.0 1.0 1.0 3:7.81407839636667E-4 4:0.013736717158887255 8:3.025853111902787E-4 12:-0.6551187990299633 
-0.0 -1.0 1.0 0.0 1.0 1.0 1:0.0017743056274271772 4:2.631116052980619E-4 12:-0.5304100600600374 14:-0.07878501359822603 
-0.0 -1.0 0.0 0.0 1.0 1.0 5:0.004610337503616029 12:-0.660525927316082 14:-0.001952955584464638 
-0.0 -1.0 0.0 0.06385792241066468 1.0 1.0 3:8.720790478678222E-4 4:2.039054204308988E-4 5:0.32096539762286164 12:-0.31928443609794693 14:-0.008088842094619542 18:0.002438261140515957 
-0.0 -1.0 0.0 0.0 1.0 1.0 3:9.385176636378121E-4 4:3.6573297503587844E-4 5:0.018966124521055564 12:-0.6455127665416678 14:-0.0014317572024883465 
-0.0 -1.0 0.0 0.0 1.0 1.0 4:5.36124229974905E-4 5:0.020265964544400737 12:-0.6391149258972479 14:-0.004617356148330711 
-0.0 -1.0 1.0 0.0 1.0 1.0 3:5.084584704392202E-4 12:-0.668379785511588 
-0.0 -1.0 1.0 0.0 1.0 1.0 1:0.0034412689215224607 4:5.103054266457073E-5 5:9.068897601209205E-4 12:-0.6605765302061485 14:-0.0022729657501172444 20:0.008788822311934695 
-0.0 -1.0 0.0 0.2650077940002694 1.0 1.0 4:0.0030470808972598348 12:-0.6659228197516079 
-0.0 -1.0 1.0 1.0 1.0 1.0 8:0.07013958861998366 12:-0.0024409849376249592 14:-0.3090406212086101 
-0.0 -1.0 0.1967202955667915 1.0 1.0 1.0 4:0.007302306429461559 8:2.2675584200270606E-4 9:0.014615524998101459 12:-0.6550859818095982 14:-3.403188658055166E-4 
-0.0 -1.0 0.0 0.0 1.0 1.0 3:0.01039840040105721 4:6.786894268274356E-4 5:0.03290406739568743 12:-0.60208472885061 14:-0.014065977853277963 
-0.0 -1.0 1.0 0.0 1.0 1.0 1:0.015394413882603689 4:0.005532975646615831 5:0.03310710027699725 9:0.003148800655458816 12:-0.5637068582889277 14:-0.03254595543563674 
-0.0 -1.0 0.0 0.0 1.0 1.0 3:0.03185715445158771 4:5.352845209387526E-4 5:0.04570469180468204 12:-0.5921709027469616 14:-0.0026220752888247607 18:0.004114817754336077 
-0.0 -1.0 1.0 0.0 1.0 1.0 3:0.006002465121791963 12:-0.6591335635403872 14:-0.0031058083370566485 
-0.0 -1.0 1.0 0.0 1.0 1.0 4:1.4183699942300586E-4 9:7.87010559316348E-5 12:-0.5444653414082194 14:-0.07131363062055167 
-0.0 -1.0 1.0 0.42976010406214765 1.0 1.0 3:0.8277207183505509 5:6.135588949417168E-4 12:-0.07482286342037263 14:-0.004110327149710266 
-0.0 -1.0 -1.0 0.0 1.0 1.0 3:0.028438277349262183 5:5.71627811423493E-4 9:8.064475549977656E-4 12:-0.6421761617043854 14:-0.003173595494047041 
-0.0 -1.0 -1.0 0.0 1.0 1.0 5:0.04625005616590658 12:-0.6136828594253542 14:-0.003910510172643627 
-0.0 -1.0 -1.0 0.0 1.0 1.0 1:0.0016299330114099763 3:3.79035460556176E-4 7:1.5380917957216853 12:-0.15031392749239442 14:-0.014995643604227208 
-0.0 -1.0 -1.0 1.0 1.0 1.0 5:0.01719267625888306 12:-0.6441258588800807 14:-0.002288970209754041 18:0.0075446766147965185 
-1.0 -1.0 -1.0 1.0 1.0 1.0 1:2.4340078995450126E-4 4:0.0193222565430258 5:0.06384983762377297 12:-0.5472572368949922 14:-0.021345555527468234 
-0.0 -1.0 -1.0 1.0 1.0 1.0 12:-0.6662056969323848 14:-0.0014112763985102965 
-0.0 -1.0 -1.0 1.0 1.0 1.0 4:0.012862828512391969 5:0.006490355773588194 8:0.001317689711614665 12:-0.6250926645024557 14:-0.010036371811690164 18:0.014271141137698333 
-0.0 -1.0 -1.0 0.0 1.0 1.0 1:0.0021561063074752125 7:0.20867866719243755 12:-0.5869275065929774 14:-0.007955006183126544 
-0.0 -1.0 -1.0 0.0 1.0 1.0 12:-0.4130109132451765 14:-0.14681692953387193 
-0.0 -1.0 -1.0 1.0 1.0 1.0 12:-0.6673904146772545 14:-7.276893929818718E-4 
-1.0 -1.0 -1.0 0.0 1.0 1.0 4:0.002553653032350607 5:0.0016103689362043298 9:5.022082619266489E-4 12:-0.6535277315169276 14:-0.006327178105147137 
-0.0 -1.0 -1.0 0.0 1.0 1.0 1:0.005575762741873707 12:-0.6466549121311526 14:-0.011077182851981044 
-1.0 -1.0 -1.0 0.6686428842732417 1.0 1.0 12:-0.66017535311221 14:-0.004848461120772381 
-1.0 -1.0 -1.0 1.0 1.0 1.0 12:-0.6643120793477374 14:-0.0024824787045161297 
-0.0 -1.0 -1.0 0.0 1.0 1.0 5:0.0014329291194639623 12:-0.6564656519079768 14:-0.00612725554897792 18:3.3608074367662337E-4 
-0.0 -1.0 -1.0 1.0 1.0 1.0 12:-0.057234830200057124 14:-0.35118396856805323 
-1.0 -1.0 -1.0 0.0 1.0 1.0 12:-0.6524402299839878 14:-0.009272636126412563 
-0.0 -1.0 -1.0 0.0 1.0 1.0 7:0.03037387899580159 8:3.571356666751138E-5 12:-0.6588371019942334 18:3.6837442579935154E-4 
-0.0 -1.0 -1.0 0.0 1.0 1.0 12:-0.5736381717673773 14:-0.054497968551934915 
-0.0 -1.0 -1.0 0.045800211352632 1.0 1.0 3:0.0038094101192082744 4:0.01293633322762553 7:1.8598288805926393 8:1.0536582525458088E-4 12:-0.04826905305784049 14:-0.0067523537796485514 
-0.0 -1.0 -1.0 1.0 1.0 1.0 8:1.2606852101297835E-4 12:-0.6682534941838776 
-0.0 -1.0 -1.0 1.0 1.0 1.0 12:-0.6629602810453055 14:-0.0031974731384768577 
-0.0 -1.0 -1.0 1.0 1.0 1.0 8:2.4208160149505228E-4 12:-0.22456657490200987 14:-0.25476907793714615 
-0.0 -1.0 -1.0 1.0 1.0 1.0 7:0.07981911641818158 12:-0.00913820906382174 14:-0.3613646412198271 18:0.014024865907233978 
-1.0 -1.0 -1.0 0.0 1.0 1.0 3:0.007728252050847221 5:0.004242947223628994 8:1.7866379064907192E-4 12:-0.6238219027122445 14:-0.01984917681804386 
-0.0 -1.0 -1.0 1.0 1.0 1.0 1:7.489876590467143E-4 9:6.779067303256459E-4 12:-0.6663321679896609 14:-9.034218521999004E-4 
-1.0 -1.0 -1.0 1.0 1.0 1.0 4:0.0016490231571294296 12:-0.6612229848148033 14:-0.003310529032349029 
-0.0 -1.0 -1.0 1.0 1.0 1.0 1:0.0012838266417514804 4:2.617704721748025E-4 9:5.809940327470863E-4 12:-0.667482064962409 
-0.0 -1.0 -1.0 1.0 1.0 1.0 3:0.01497598160012234 4:0.014227463403794537 8:6.862915733883472E-5 12:-0.5300184937691341 14:-0.06604344521240313 
-1.0 -1.0 -1.0 0.0 1.0 1.0 8:1.3267722817291865E-4 12:-0.6324342694496394 14:-0.020559568266072255 
-1.0 -1.0 -1.0 0.0 1.0 1.0 1:1.713231072800476E-4 3:0.011354575150579712 5:0.002523924575773832 12:-0.6177069618440427 14:-0.023047365193667298 
-0.10488131714546808 -1.0 -1.0 0.6800597341788854 1.0 1.0 1:0.42565563737451856 3:0.010343566006819361 12:-0.2343301794870183 14:-0.12447748689315706 
-0.0 -1.0 -1.0 0.0 1.0 1.0 12:-0.4464711212446047 14:-0.12761664797051434 
-0.0 -1.0 -1.0 0.0 1.0 1.0 4:3.9227208513484924E-4 5:0.002106073631795362 7:0.04377142713937797 12:-0.6487682863745626 14:-4.2413231263897143E-4 20:0.01518674589730749 
-0.0 -1.0 -1.0 0.0 1.0 1.0 1:0.028031995137255843 3:0.00785741771082239 5:0.004044023210563064 9:0.011628688477216686 12:-0.3444306916229774 14:-0.14512136420172247 20:0.24092826426900765 
-0.0 -1.0 -1.0 1.0 1.0 1.0 8:1.2154362893275181E-4 12:-0.08368708778674924 14:-0.33582539005328893 
-0.0 -1.0 -1.0 1.0 1.0 1.0 3:0.00774148859705616 5:0.005358469131621704 7:0.05205965621045922 12:-0.2903803943196643 14:-0.2013548490211414 
-0.0 -1.0 -1.0 1.0 1.0 1.0 12:-0.6627016474441693 14:-0.0033867687266964214 
-0.0 -1.0 -1.0 0.41316980968322664 1.0 1.0 1:0.0029815524654192528 3:0.8361801432413025 4:4.631881246888653E-5 5:0.006760668146331945 9:8.224290058317679E-4 12:-0.06750585930949025 14:-1.4506166605629056E-4 
-0.0 -1.0 -1.0 0.0 1.0 1.0 7:1.8643157864551216 12:-0.07340476411333793 
-0.0 -1.0 -1.0 1.0 1.0 1.0 5:0.014593888069862823 12:-0.6533107035638124 
-0.0 -1.0 -1.0 1.0 1.0 1.0 4:0.0031924968861764638 12:-0.6656183292196189 
-1.0 -1.0 -1.0 1.0 1.0 1.0 3:5.44986502504819E-4 12:-0.6681544820970109 
-1.0 -1.0 -1.0 0.0 1.0 1.0 4:0.0030054653264557597 12:-0.5987026838829885 14:-0.038528675435175394 
-0.0 -1.0 -1.0 1.0 1.0 1.0 3:4.672468381468593E-4 12:-0.6681681019268089 
-0.0 -1.0 -1.0 0.0 1.0 1.0 1:0.005284576247644529 3:0.24793269335666018 4:0.001949794059299505 12:-0.48859173763340463 
-1.0 -1.0 -1.0 0.0 1.0 1.0 5:0.051577891270863686 12:-0.6077804930290852 14:-0.004156538196018155 
-0.0 -1.0 -1.0 0.0 1.0 1.0 5:5.364284458506918E-4 7:0.14041422626298053 12:-0.6118361989142492 14:-0.006599443015218362 
-0.0 -1.0 -1.0 1.0 1.0 1.0 12:-0.6685359851014749 14:-6.753141743464772E-5 
-1.0 -1.0 -1.0 0.0 1.0 1.0 3:9.178016559767645E-4 12:-0.6586782672491635 14:-0.005405038401032216 
-0.0 -1.0 -1.0 1.0 1.0 1.0 3:0.001523959497921424 4:7.662904099058345E-5 5:0.0018417972300193179 9:2.551148063842609E-4 12:-0.6645130446643531 14:-5.999687687295881E-4 
-0.0 -1.0 -1.0 0.0 1.0 1.0 8:1.4535961027768292E-4 12:-0.6538768997967013 14:-0.008322730513690915 
-0.0 -1.0 -1.0 0.94083306984388 1.0 1.0 12:-0.2998898636854498 14:-0.2118146902240792 
-0.0 -1.0 -1.0 0.0 1.0 1.0 3:1.6396902931264782E-4 4:0.0011501540121180386 7:0.0676371699182919 12:-0.455640350919419 14:-0.1091958574952047 
-1.0 -1.0 -1.0 0.0 1.0 1.0 1:0.010206952308801026 4:3.2018206513942783E-4 5:0.016790513685696295 12:-0.6186943002988174 14:-0.015542609809909451 
-0.0 -1.0 -1.0 1.0 1.0 1.0 5:0.0010030744433605285 12:-0.655915311918787 14:-0.0062208802988423855 16:0.002886717568143786 
-0.0 -1.0 -1.0 1.0 1.0 1.0 4:7.854045180557084E-4 12:-0.6667682751978411 14:-6.377095427293415E-4 
-0.0 -1.0 -1.0 0.0 1.0 1.0 3:0.016758916109784774 7:1.4319985814822516 12:-0.19935945879072517 
-0.0 -1.0 -1.0 0.0 1.0 1.0 4:2.197637163025958E-4 5:0.03783885166837294 9:0.003902087404292716 12:-0.6078274766788246 14:-0.011241546484685467 
-0.0 -1.0 -1.0 0.0 1.0 1.0 1:0.006727489781647852 4:0.002316692527307495 12:-0.634485453395927 14:-0.016038336901208535 18:0.001874609064468242 
-0.0 -1.0 -1.0 0.0 1.0 1.0 3:0.002886131365267091 12:-0.6479685828796146 14:-0.010688522641362387 
-0.0 -1.0 -1.0 0.0 1.0 1.0 4:8.292199704354452E-5 5:0.006232810677131459 9:1.8404362060209605E-4 12:-0.6525555400773818 14:-0.005410330059344771 
-0.0 -1.0 -1.0 0.0 1.0 1.0 4:0.0032138644436010342 7:0.1171271118305547 8:1.2282948092649882E-4 12:-0.6242412147152896 14:-0.0021291788385081668 
-0.0 -1.0 -1.0 1.0 1.0 1.0 3:0.0019138869606466593 4:2.2699074776602696E-4 5:0.08366468878414347 12:-0.5721883758545119 14:-0.004502313650463345 18:4.985469128720166E-4 
-0.0 -1.0 -1.0 1.0 1.0 1.0 1:1.1023493149799984E-4 4:0.002877023959959787 5:0.1239460562650188 12:-0.5184643262027485 14:-0.010480718168767483 18:0.0012286746380256524 
-0.0 -1.0 -1.0 1.0 1.0 1.0 3:0.0012220766989530104 12:-0.6677480907123833 
-0.0 -1.0 -1.0 1.0 1.0 1.0 3:8.795234600411468E-4 12:-0.665715656521333 14:-0.0012523079294401666 
-0.0 -1.0 -1.0 1.0 1.0 1.0 4:0.003870254388567971 8:1.419991701908596E-4 12:-0.6649129555295107 14:-6.215844555262295E-5 
-0.0 -1.0 -1.0 1.0 1.0 1.0 12:-0.6687298273054232 14:-1.4368198627367274E-5 
-0.0 -1.0 -1.0 1.0 1.0 1.0 3:0.001063069828249873 4:3.550885517392883E-4 5:0.08032904562119408 12:-0.5798353850764048 14:-0.002440374655094053 
-0.0 -1.0 -1.0 0.0 1.0 1.0 3:0.018996661573300523 4:6.126496610533039E-4 12:-0.6466561539988064 14:-0.004530267714943321 
-0.0 -1.0 -1.0 1.0 1.0 1.0 4:1.5307747839086606E-4 12:-0.6629881590601772 14:-0.0031960626604277966 
-0.0 -1.0 -1.0 0.0 1.0 1.0 3:0.6070673837548324 12:-0.19576031437255884 14:-0.02467580890106341 
-0.0 -1.0 -1.0 1.0 1.0 1.0 1:0.018475137661198026 4:0.010259213487882154 8:9.026308436116513E-4 12:-0.6469822072000957 14:-8.367160267735807E-4 
-0.0 -1.0 -1.0 1.0 1.0 1.0 5:0.0015801246164480866 12:-0.665654007886692 14:-8.178463039123841E-4 
-0.0 -1.0 -1.0 1.0 1.0 1.0 12:-0.664467476347152 14:-0.002322678966081494 
-0.8951186828545319 -1.0 -1.0 1.0 1.0 1.0 4:0.082381095098008 8:0.0013874711412468193 12:-0.5694107747116594 14:-0.012456175186230817 
-0.0 -1.0 -1.0 0.0 1.0 1.0 5:0.017547985934229494 7:0.0653679480511548 9:2.947207887009429E-4 12:-0.6173591466792931 14:-0.006986574295385209 
-0.0 -1.0 -1.0 1.0 1.0 1.0 4:0.002918246779874503 5:0.06906951496519845 12:-0.5940558385925543 
-0.0 -1.0 -1.0 1.0 1.0 1.0 2:0.010725840044866852 5:0.13210869448537435 12:-0.5009557082376417 14:-0.0057832157021190855 18:0.05245625935825929 
-0.0 -1.0 -1.0 1.0 1.0 1.0 3:1.265864641255665E-4 5:0.02379927602623142 9:0.001970754185868283 12:-0.642385051503499 14:-3.0898270968590934E-4 
-0.0 -1.0 -1.0 0.0 1.0 1.0 3:0.012298925060163295 4:0.001618346250773225 5:0.008160280518225897 8:1.237019379193811E-4 12:-0.6302587606714491 14:-0.011111385069093054 
-0.0 -1.0 -1.0 0.19121261900344816 1.0 1.0 3:0.005797126663422612 12:-0.6643917184771935 
-0.0 -1.0 -1.0 1.0 1.0 1.0 3:0.007214284478504621 4:0.002019420492497729 12:-0.6594036530758758 14:-0.0013640946727612837 
-0.0 -1.0 -1.0 0.13423824889567096 1.0 1.0 1:0.0011080031595091552 4:0.01425808165615705 5:0.0028082674278845656 8:9.97748682195199E-5 9:0.2083700901349467 12:-0.34404002874652023 14:-0.006132006539469118 20:1.1815267088940542 
-0.0 -1.0 -1.0 0.0 1.0 1.0 7:0.0373837865146247 12:-0.4393823156850123 14:-0.12475446010699473 
-0.0 -1.0 -1.0 0.9260434227690152 1.0 1.0 3:0.014537803319572317 4:5.150243608574739E-4 8:1.2794289993305936E-4 9:0.012859713994020694 12:-0.6294043582738683 14:-0.013105282473572417 
-0.0 -1.0 -1.0 0.0 1.0 1.0 4:0.0022365972609143577 5:0.019247314258568893 12:-0.6367835660385146 14:-0.005612656297394359 
-0.0 -1.0 -1.0 1.0 1.0 1.0 3:0.0010465475669637723 4:8.898139229441457E-4 12:-0.09675024654957863 14:-0.3276339574615025 
-0.0 -1.0 -1.0 0.0 1.0 1.0 1:0.0026123404361659743 4:0.0015296689845001668 7:1.43793798540183 12:-0.17413204647213967 14:-0.018706272797116293 
-1.0 -1.0 -1.0 1.0 1.0 1.0 4:2.3349677010485158E-4 5:1.0203909850228863E-4 8:5.800551617107855E-5 12:-0.6680873179353508 
-0.0 -1.0 -1.0 1.0 1.0 1.0 8:6.97149789284503E-5 12:-0.6622002210999975 14:-0.0036254079250808615 
-0.0 -1.0 -1.0 1.0 1.0 1.0 1:0.0038317217582931147 3:0.04694741059336269 4:0.0167975792040448 5:0.014681229536767015 12:-0.59192567736864 14:-0.006253005475585954 
-0.0 -1.0 -1.0 -1.0 1.0 1.0 12:-0.6686053768538863 
-0.0 -1.0 -1.0 -1.0 1.0 1.0 12:-0.6687412304026409 
-0.0 -1.0 -1.0 -1.0 1.0 1.0 8:0.11135348470913968 12:-0.4649223894876716 
-0.0 -1.0 -1.0 -1.0 1.0 1.0 8:0.18599173122022877 12:-0.3276967792490579 14:-3.811706344190756E-4 
-0.0 -1.0 -1.0 -1.0 1.0 1.0 12:-0.668454863168331 
-1.0 -1.0 -1.0 -1.0 1.0 1.0 8:0.006990296952149012 12:-0.6555624552422719 14:-1.190887486809882E-4 
-0.0 -1.0 -1.0 -1.0 1.0 1.0 8:0.014642242076152482 12:-0.6406590494578986 14:-6.612481875357007E-4 
-0.0 -1.0 -1.0 -1.0 1.0 1.0 8:0.015209860743073692 12:-0.6408408202896023 
-0.0 -1.0 -1.0 -1.0 1.0 1.0 8:0.009496222704102997 12:-0.6510237201711457 
-0.0 -1.0 -1.0 -1.0 1.0 1.0 12:-0.6685783621927176 
-0.0 -1.0 -1.0 -1.0 1.0 1.0 12:-0.6683954972814362 
-0.0 -1.0 -1.0 -1.0 1.0 1.0 12:-0.6683943659107631 
-1.0 -1.0 -1.0 -1.0 1.0 1.0 8:0.024518231510509438 12:-0.6233871493433059 14:-6.942898436834628E-5 
-1.0 -1.0 -1.0 -1.0 1.0 1.0 8:0.03632165532604357 12:-0.6021733320550149 
-1.0 -1.0 -1.0 -1.0 1.0 1.0 8:0.0037352485736239435 12:-0.6615971076870303 
-0.6711580128453145 -1.0 -1.0 -1.0 1.0 1.0 8:0.0020101184863272146 12:-0.6651085064216896 14:-1.1153730765347289E-5 
-1.0 -1.0 -1.0 -1.0 1.0 1.0 8:5.567756104940341E-4 12:-0.6676712091575456 
-0.0 -1.0 -1.0 -1.0 1.0 1.0 8:0.16357429332162365 12:-0.367376982162512 14:-0.0011312160763404828 
-0.0 -1.0 -1.0 -1.0 1.0 1.0 8:0.36003590476452757 12:-0.01025767898086978 
-0.0 -1.0 -1.0 -1.0 1.0 1.0 8:0.02461486776530394 14:-0.35809303952880717 
-0.0 -1.0 -1.0 -1.0 1.0 1.0 12:-0.6687089381161986 
-0.0 -1.0 -1.0 -1.0 1.0 1.0 8:1.677380122880218E-4 12:-0.6684208651899854 
-0.0 -1.0 -1.0 -1.0 1.0 1.0 8:0.34268594074216246 12:-0.041992623019793285 
-0.0 -1.0 -1.0 -1.0 1.0 1.0 12:-0.6685625815223234 
-1.0 -1.0 -1.0 -1.0 1.0 1.0 4:0.002758022375997337 5:0.03195241625505957 8:2.040874885371932E-4 12:-0.6104992063784108 14:-0.012650100429783073 
-1.0 -1.0 -1.0 -1.0 1.0 1.0 4:0.0013647537915575578 8:0.0010479220041795135 12:-0.6346725407852714 14:-0.017549910646045854 
-0.0 -1.0 -1.0 -1.0 1.0 1.0 8:0.36544105193385684 14:-1.655977930757815E-4 
-0.0 -1.0 -1.0 -1.0 1.0 1.0 12:-0.6684605576839991 
-0.0 -1.0 -1.0 -1.0 1.0 1.0 12:-0.6684320558844602 
-1.0 -1.0 -1.0 -1.0 1.0 1.0 1:4.5307737407193307E-4 8:0.026621532641317412 12:-0.6189138549511531 14:-3.2146920975102764E-4 
-0.32884198715468543 -1.0 -1.0 -1.0 1.0 1.0 5:0.006126216017972702 12:-0.2906970380478664 14:-0.21331775310859155 
-0.0 -1.0 -1.0 -1.0 1.0 1.0 8:2.879974639187901E-4 12:-0.6680105870381452 14:-3.361798928116443E-5 
-0.0 -1.0 -1.0 -1.0 1.0 1.0 8:0.01057321452845616 12:-0.6488988418559021 14:-1.1392735344534567E-4 
-1.0 -1.0 -1.0 -1.0 1.0 1.0 8:8.814519388668113E-4 12:-0.6510506709285935 14:-0.009178573745631411 
-1.0 -1.0 -1.0 -1.0 1.0 1.0 8:0.03498122665803702 12:-0.6040753086227187 14:-3.108576047689549E-4 
-0.0 -1.0 -1.0 -1.0 1.0 1.0 12:-0.6687910326146449 
-0.0 -1.0 -1.0 -1.0 1.0 1.0 1:0.005881117013107486 8:0.310732810798458 12:-0.09513205171004448 14:-0.001238377240522961 
-0.0 -1.0 -1.0 -1.0 1.0 1.0 12:-0.6687339351809294 
-0.0 -1.0 -1.0 -1.0 1.0 1.0 12:-0.6686165980773163 
-0.0 -1.0 -1.0 -1.0 1.0 1.0 8:0.015707128477007826 12:-0.6391858070768074 14:-2.6402336333580367E-4 
-1.0 -1.0 -1.0 -1.0 1.0 1.0 5:0.0025332558640970373 9:0.0027570050120964253 12:-0.6619638089629059 14:-0.0015669216685892868 
-0.0 -1.0 -1.0 -1.0 1.0 1.0 3:3.092539649118702E-4 5:0.028228478438647214 8:0.050715273117465084 12:-0.2612685128948009 14:-0.1624191287974155 18:0.005867258336654136 
-0.0 -1.0 -1.0 -1.0 1.0 1.0 12:-0.6684310477017796 
-0.0 -1.0 -1.0 -1.0 1.0 1.0 14:-0.38395046599776433 
-1.0 -1.0 -1.0 -1.0 1.0 1.0 12:-0.5940441561453553 14:-0.04279085664151343 
-1.0 -1.0 -1.0 -1.0 1.0 1.0 8:0.036030531114229505 12:-0.6019577768391733 14:-3.1283178594237765E-4 
-0.0 -1.0 -1.0 -1.0 1.0 1.0 12:-0.6684864429359864 
-1.0 -1.0 -1.0 -1.0 1.0 1.0 8:0.004846797932262839 12:-0.6597278774888139 14:-2.7375846063015906E-5 
-1.0 -1.0 -1.0 -1.0 1.0 1.0 8:1.1951790178387262E-4 12:-0.6681741573475631 
-0.0 -1.0 -1.0 -1.0 1.0 1.0 12:-0.6685397395731976 
-0.0 -1.0 -1.0 -1.0 -0.0 1.0 3:0.0022933102602367902 12:-0.6670366726227056 
-0.0 -1.0 -1.0 -0.37186270138536803 -0.03815617189394347 1.0 4:0.0034970660823303323 12:-0.04179247126742378 13:2.1974559772975426 14:-3.258164240997726E-4 20:3.809539373812918E-5 
-0.0 -1.0 -1.0 -1.0 -0.0 1.0 12:-0.6669836549670096 14:-9.889279306593386E-4 
-0.0 -1.0 -1.0 -0.0 -0.0 1.0 4:1.5053140444898662E-4 12:-0.6684423436713569 18:3.8571966333315536E-4 
-0.0 -1.0 -1.0 -1.0 -1.0 1.0 12:-0.6618811209595876 14:-0.003848230804413886 
-0.0 -1.0 -1.0 -1.0 -1.0 1.0 4:0.01706577155491444 8:7.896180916703495E-4 9:0.0015957101311680113 12:-0.6505731175237043 14:-2.7651673227378786E-4 
-0.0 -1.0 -1.0 -1.0 -1.0 1.0 4:6.136908472277355E-4 12:-0.666164382032238 14:-0.0011933063355224522 
-0.0 -1.0 -1.0 -1.0 -0.0 1.0 5:0.0037284468840734224 12:-0.6633492863337407 14:-8.699555232629444E-4 
-0.0 -1.0 -1.0 -0.0 -0.0 1.0 12:-0.668618605655177 
-0.0 -1.0 -1.0 -1.0 -1.0 1.0 5:1.309658244558525E-4 12:-0.1809451390555286 14:-0.28011674663898406 
-0.0 -1.0 -1.0 -1.0 -0.0 1.0 12:-0.6681649586425668 14:-3.2891914239277796E-4 
-0.0 -1.0 -1.0 -1.0 -0.0 1.0 3:0.9441108729492736 
-0.0 -1.0 -1.0 -1.0 -0.8679706323952465 1.0 1:0.007341941048022344 5:0.0015351906105744778 8:3.1734546354171565E-5 12:-0.6348501001999362 14:-0.003150573990387737 18:0.06505724661333714 
-0.0 -1.0 -1.0 -1.0 -0.0 1.0 5:3.476327688607274E-4 12:-0.6670616085160903 13:2.2753767384056585E-5 14:-7.859534137364556E-4 
-0.0 -1.0 -1.0 -0.0 -0.0 1.0 5:0.007658826308221922 12:-0.6607578694652663 14:-1.8043156659908814E-5 
-0.0 -1.0 -1.0 -1.0 -0.0 1.0 12:-0.6582286854334535 14:-0.00595285876697779 
-0.0 -1.0 -1.0 -0.0 -0.0 1.0 12:-0.668676584067813 
-0.0 -1.0 -1.0 -1.0 -0.0 0.0 4:1.6401012868559744E-4 12:-0.6679386918987466 14:-4.221070761993141E-4 
-0.0 -1.0 -1.0 -0.0 -0.0 1.0 12:-0.6686549879931973 
-0.0 -1.0 -1.0 -1.0 -0.0 1.0 5:1.851779530123315E-4 12:-0.5695784258331295 14:-0.05688194666390206 
-0.0 -1.0 -1.0 -1.0 -1.0 1.0 1:0.013338527868645011 4:0.005332759486275378 8:3.356083462793699E-4 9:0.0018148452094639241 12:-0.6494804841687107 14:-0.003674260318758599 
-0.0 -1.0 -1.0 -1.0 -1.0 1.0 12:-0.1964346891376134 14:-0.2712325467150067 
-0.0 -1.0 -1.0 -0.0 -0.0 1.0 12:-0.6686044803524858 
-0.0 -1.0 -1.0 -0.0 -0.0 1.0 12:-0.6684336727607374 14:-1.0115711169470894E-4 
-1.0 -1.0 -1.0 -1.0 -0.0 1.0 12:-0.6656155404822929 14:-0.0017915684960835257 
-1.0 -1.0 -1.0 -1.0 -1.0 1.0 5:0.002443899396227654 9:9.050559148934509E-4 12:-0.6144173128150083 14:-0.029281723608193606 18:7.463474017486267E-4 
-0.0 -1.0 -1.0 -1.0 -1.0 1.0 2:9.914002610227506E-4 10:2.6757002303314344E-4 12:-0.658723630760889 14:-0.005487087107535485 18:6.082454542725345E-4 
-0.0 -1.0 -1.0 -0.7304369009808022 -1.0 1.0 8:1.694346905066714E-4 12:-0.6682101556306572 14:-2.966720712643257E-5 
-0.0 -1.0 -1.0 -1.0 -1.0 1.0 8:7.708484812945789E-4 12:-0.6634259781515413 14:-0.0021820456645760856 
-0.0 -1.0 -1.0 -1.0 -0.0 1.0 5:0.019456020357218315 12:-0.646678635712318 14:-0.0010618903163204544 
-0.0 -1.0 -1.0 -1.0 -1.0 1.0 1:0.042401213913146926 4:0.0036522450063070666 12:-0.520379611172736 14:-0.07119046428340829 
-0.0 -1.0 -1.0 -0.0 -0.0 1.0 1:5.235700946462993E-5 12:-0.6683901425522966 14:-2.0060215775901232E-4 
-0.0 -1.0 -1.0 -0.0 -0.0 0.0 5:0.00111728070006822 12:-0.667497542485117 
-0.0 -1.0 -1.0 -1.0 -1.0 1.0 4:0.0039839102922886345 9:0.0018158098995820313 12:-0.6641434743602953 14:-9.283367147347739E-5 
-0.0 -1.0 -1.0 -1.0 -1.0 1.0 12:-0.0017747383669737304 14:-0.38305887175953685 
-0.0 -1.0 -1.0 -0.0 -0.0 1.0 3:5.403871313636685E-4 5:0.009325341194931896 12:-0.6585931690898584 
-0.0 -1.0 -1.0 -1.0 -0.08534099408792628 1.0 12:-0.5504917720143653 14:-0.06792198412569526 
-0.0 -1.0 -1.0 -1.0 -1.0 1.0 8:3.2378396339961953E-4 12:-0.6680403670685858 
-0.0 -1.0 -1.0 -0.0 -0.0 0.0 12:-0.6686808864811651 
-0.0 -1.0 -1.0 -1.0 -0.0 1.0 1:3.040596518118175E-4 3:9.33346302870305E-4 7:0.020134672113066802 12:-0.6570227513544221 14:-0.002537073934313222 
-0.0 -1.0 -1.0 -1.0 -0.0 1.0 12:-0.655518089378358 14:-0.007503961227546791 
-1.0 -1.0 -1.0 -1.0 -1.0 1.0 4:0.002700369081382173 8:5.476151522926558E-5 12:-0.6542585250753998 14:-0.0067598787063854636 
-1.0 -1.0 -1.0 -1.0 -1.0 1.0 5:0.0031397716458221605 12:-0.6051929837987107 14:-0.03460829569284632 
-0.0 -1.0 -1.0 -1.0 -0.0 1.0 3:0.006747956206328199 5:0.0011169383959321697 12:-0.5638339440090239 14:-0.05677609901717212 
-1.0 -1.0 -1.0 -0.9405921520773715 -0.0 1.0 5:0.06904086017089066 12:-0.5953965525214663 14:-8.36726149767069E-4 
-0.0 -1.0 -1.0 -0.0 -0.0 1.0 5:0.1697312200601933 9:0.00214544349321708 12:-0.48789887642952356 18:0.009536114565648915 
-0.0 -1.0 -1.0 -1.0 -1.0 1.0 5:4.58100623794453E-5 8:2.6041354276463275E-5 12:-0.6668772935309081 14:-9.301822830255313E-4 
-0.0 -1.0 -1.0 -0.9954485446647687 -0.0 1.0 5:0.5652258217394094 12:-0.07880648497946784 14:-0.001301010339644353 
-0.0 -1.0 -1.0 -1.0 -1.0 1.0 9:6.841521022130681E-4 12:-0.6649087597514796 14:-0.0020493088221293226 
-0.0 -1.0 -1.0 -1.0 -0.0 1.0 1:3.726178558094617E-5 5:3.010310682860235E-4 12:-0.6674308012825434 14:-5.604882740615628E-4 
-0.0 -1.0 -1.0 -0.0 -0.0 0.0 12:-0.6687167113849919 
-0.0 -1.0 -1.0 -1.0 -0.0 1.0 12:-0.6678986329071773 14:-4.3943610086384134E-4 
-1.0 -1.0 -1.0 -0.0 -0.0 1.0 4:2.9190954438422127E-4 12:-0.6684172878367238 
-0.0 -1.0 -1.0 -1.0 -0.0 1.0 4:2.226553441486826E-4 7:0.1530062786512967 12:-0.5878561413206355 14:-0.018188272813332736 
-0.0 -1.0 -1.0 -0.0 -0.0 0.0 12:-0.6687979420638871 
-1.0 -1.0 -1.0 -0.0 -0.0 1.0 3:2.1098215320917044E-4 4:1.644361817838813E-4 5:4.0720282858512256E-4 12:-0.6679832212960398 
-0.0 -1.0 -1.0 -1.0 -0.45257367530442427 1.0 3:2.3163167479104337E-4 5:0.008588004786549305 8:1.5376278303916345E-4 12:-0.6544653325093592 14:-0.00280000560208959 
-0.0 -1.0 -1.0 -1.0 -0.0 1.0 5:5.845658894598272E-4 12:-0.6671803703670173 14:-4.737915362405333E-4 
-0.0 -1.0 -1.0 -1.0 -1.0 1.0 1:2.129445841489479E-4 3:0.0015598658109050635 4:0.0024893620458897696 8:0.010268481814135913 12:-0.6463163703056091 
-0.0 -1.0 -1.0 -0.0 -1.0 1.0 8:6.194263106383541E-5 12:-0.6685749942685909 
-0.0 -1.0 -1.0 -1.0 -0.0 1.0 7:9.260839718254166E-5 12:-0.6677948758692556 14:-5.351135175892336E-4 
-0.0 -1.0 -1.0 -1.0 -1.0 1.0 4:0.0019877590658549382 12:-0.29819774180163194 14:-0.2117414792552083 
-0.0 -1.0 -1.0 -1.0 -0.0 1.0 5:0.01650135796909377 7:0.0629970035702899 12:-0.6258409604672863 14:-0.003138285492053727 
-0.0 -1.0 -1.0 -1.0 -1.0 1.0 1:0.0013540208638709147 8:1.2192858124975837E-4 12:-0.6667487220017033 14:-5.764260702533513E-4 
-0.0 -1.0 -1.0 -1.0 -1.0 1.0 8:5.483274351397512E-4 12:-0.6659095257341394 14:-4.749944756756833E-4 18:0.0028279141922471036 
-0.0 -1.0 -1.0 -1.0 -1.0 1.0 3:0.003350418568610463 5:0.008400685129281368 12:-0.6466684785242169 14:-0.0062059838396714955 
-0.0 -1.0 -1.0 -1.0 -0.0 1.0 12:-0.5559828026210517 14:-0.06471954321225448 
-0.0 -1.0 -1.0 -0.0 -0.0 1.0 3:1.61458695429238E-4 4:1.5380245878720113E-4 12:-0.6685440264604972 
-0.0 -1.0 -1.0 -1.0 -0.0 1.0 1:9.583542650929554E-5 6:0.0035976459985720827 12:-0.6674804948805396 14:-4.7598265577577164E-4 
-0.0 -1.0 -1.0 -0.0 -0.0 1.0 12:-0.6686634075988538 18:7.82415544737682E-5 
-0.0 -1.0 -1.0 -1.0 -0.0 1.0 3:2.1965500525399185E-4 12:-0.6669632624144635 14:-8.712471643864587E-4 
-0.0 -1.0 -1.0 -1.0 -1.0 1.0 4:0.0016130352782426508 5:0.004758097906878615 8:3.0053395559157724E-4 9:0.008950244306429126 12:-0.6476240774455001 14:-0.005946293219594658 
-0.0 -1.0 -1.0 -0.0 -0.0 1.0 1:7.656346531653298E-5 9:1.847930347341711E-4 12:-0.6685272691888863 
-0.0 -1.0 -1.0 -1.0 -0.0 1.0 7:7.224732704602941E-4 12:-0.6616013580424992 14:-0.003909568261598954 
-0.0 -1.0 -1.0 -1.0 -1.0 1.0 3:0.0016148407083623794 4:3.432495069972229E-4 5:0.004900049628785196 12:-0.6579660007216247 14:-0.002329148982712785 
-0.0 -1.0 -1.0 -1.0 -0.0 1.0 12:-0.6585755206323279 14:-0.005772960865701884 
-0.0 -1.0 -1.0 -0.0 -0.7067662568206692 1.0 5:0.3565153166317756 12:-0.29538949387921687 14:-0.001498428029467681 
-0.0 -1.0 -1.0 -1.0 -0.41000196926856874 1.0 3:0.895579637985154 5:0.0059765359415124624 12:-0.02574029097144846 14:-0.0013797127226185559 
-0.0 -1.0 -1.0 -0.0 -0.0 1.0 12:-0.6685889920214952 
-0.0 -1.0 -1.0 -1.0 -1.0 1.0 5:0.015302475201881532 8:3.7095524846196394E-5 12:-0.648851132918188 14:-0.002201889641082787 
-0.0 -1.0 -1.0 -1.0 -1.0 1.0 4:0.008003237157316894 5:0.004469769172280392 12:-0.6504540995355257 14:-0.0036227546645464 
-0.0 -1.0 -1.0 -1.0 -1.0 1.0 1:1.9665822105272167E-4 4:5.346445146394136E-4 9:3.55989661552471E-4 12:-0.6670810440724628 14:-4.465078436890508E-4 
-0.0 -1.0 -1.0 -1.0 -0.0 1.0 12:-0.6676779376327315 14:-6.480184086150383E-4 
-0.0 -1.0 -1.0 -0.0 -0.0 1.0 4:1.2235342013278852E-4 12:-0.6685334139800606 14:-5.3220489167303135E-5 
-0.0 -1.0 -1.0 -1.0 -0.031694364253458326 1.0 1:0.05288928923192819 4:6.377665599646338E-4 7:1.7350816904217958 12:-0.08781816305448183 
-0.0 -1.0 -1.0 -0.0 -0.0 0.0 12:-0.6687127275221738 
-0.0 -1.0 -1.0 -0.0 -0.5372936832904973 1.0 4:8.265095265173602E-4 5:0.027771362304996283 9:5.095612313906826E-4 12:-0.5827176617131394 13:0.1724008230642168 14:-0.00412237788740825 
-1.0 -1.0 -1.0 -1.0 -1.0 1.0 8:2.6736221906473444E-5 9:9.554822546003694E-4 12:-0.6294207876277967 14:-0.022245941925549177 
-0.0 -1.0 -1.0 -1.0 -0.0 1.0 1:0.02333211201906028 12:-0.6544079491524804 14:-0.001511843863596554 
-0.0 -1.0 -1.0 -1.0 -1.0 1.0 12:-0.14583660273937682 14:-0.30029688960033063 
-1.0 -1.0 -1.0 -1.0 -1.0 1.0 5:0.02903141946653945 9:0.0016247513894681706 12:-0.5386279608830671 14:-0.056996958446527704 
-0.0 -1.0 -1.0 -0.0 -0.0 0.0 3:1.3234704625550555E-4 5:4.0568986824399144E-4 12:-0.6681972434971335 
-0.0 -1.0 -1.0 -0.0 -0.0 1.0 12:-0.6683585229553458 14:-2.256454224285444E-4 
-0.0 -1.0 -1.0 -0.0 -0.0 1.0 5:0.27285104739862504 12:-0.3843468904585191 14:-2.5198425966988663E-4 18:4.1233749625427306E-4 
-0.0 -1.0 -1.0 -0.0 -0.0 1.0 5:0.002019957664228979 12:-0.6663530243680945 14:-1.3919333395523304E-4 
-0.0 -1.0 -1.0 -1.0 -0.0 1.0 1:0.019250927052841794 4:2.664403523599365E-4 5:0.06886333255276098 8:3.782251196635299E-5 12:-0.5763163039536459 14:-0.006278169493781443 
-0.0 -1.0 -1.0 -0.0 -0.0 0.0 5:9.125624341233046E-5 12:-0.6685768876145214 
-0.0 -1.0 -1.0 -0.9616597008916892 -0.0 1.0 5:0.48706937553687707 12:-0.15846419005711604 14:-0.0022253037555438233 
-0.0 -1.0 -1.0 -0.0 -0.0 1.0 12:-0.6685033203535482 14:-1.1544204897301233E-4 
-0.0 -1.0 -1.0 -0.0 -0.0 1.0 12:-0.6686245394102536 14:-3.3702030568345974E-5 
-0.0 -1.0 -1.0 -1.0 -0.0 1.0 12:-0.6617219886067887 14:-0.0040041051148037386 
-0.0 -1.0 -1.0 -1.0 -0.0 1.0 12:-0.6679260487566588 14:-3.665055639056549E-4 
-0.0 -1.0 -1.0 -1.0 -0.7542043631036173 1.0 4:5.666655640920282E-5 5:0.02922096570235478 8:5.630866504367209E-5 12:-0.5559680498594274 14:-0.0033423294798206613 18:0.21504361174968523 
-0.0 -1.0 -1.0 -1.0 -0.9183784648599874 1.0 12:-0.556785760415765 14:-0.06424064478318074 
-0.9411693834535498 -1.0 -1.0 -1.0 -1.0 1.0 3:1.0244173858027566E-4 12:-0.5903360367480809 14:-0.04494617598077345 
-0.05883061654645017 -1.0 -1.0 -1.0 -0.25764267323404166 1.0 1:1.0489533497967714 4:0.0457838108514474 12:-0.04639346053846489 14:-0.03591511638507892 
-1.0 -1.0 -1.0 -1.0 -1.0 1.0 4:0.0030024414728302296 12:-0.6610354099832305 14:-0.0028171904401116184 
-0.0 -1.0 -1.0 -1.0 -0.1881415217334092 1.0 1:5.761647866620526E-4 7:0.7412265457316387 12:-0.4278746363859005 14:-0.0021530273769371426 
-0.0 -1.0 -1.0 -1.0 -0.0 1.0 5:0.007413300171927434 8:4.7888539931733695E-5 12:-0.6563062809456378 14:-0.002590982057609409 
-0.0 -1.0 -1.0 -1.0 -0.0 1.0 3:0.003964781673411934 12:-0.6659524787019212 14:-1.1439204462737533E-5 
-0.0 -1.0 -1.0 -1.0 -0.7518352297542101 1.0 1:4.537835633522504E-5 5:0.4296914629759282 12:-0.1560233127360802 14:-0.037928097558485974 
-1.0 -1.0 -1.0 -1.0 -1.0 1.0 1:0.003510986772442092 5:0.025812778599995808 12:-0.6319447471950224 14:-0.004630569025180753 
-1.0 -1.0 -1.0 -1.0 -1.0 1.0 12:-0.6142614501981809 14:-0.031286642682030484 
-0.0 -1.0 -1.0 -0.0 -0.0 0.0 12:-0.6683385694718825 14:-2.639100194003113E-4 
-0.0 -1.0 -1.0 -0.0 -0.0 1.0 12:-0.6686573161824821 
-0.0 -1.0 -1.0 -0.0 -0.0 1.0 4:2.1286829605423498E-4 12:-0.6684430424448611 
-0.0 -1.0 -1.0 -1.0 -0.0 1.0 5:0.007000717916066878 12:-0.6547412207080407 14:-0.003841917501010385 
-1.0 -1.0 -1.0 -1.0 -1.0 1.0 3:1.6239023535778051E-4 4:5.90633880592482E-4 12:-0.6615849826077805 14:-0.0036774839474764736 
-1.0 -1.0 -1.0 -1.0 -0.0 1.0 12:-0.6590930597346976 14:-0.005486722224263381 
-0.0 -1.0 -1.0 -1.0 -0.0 1.0 5:0.006061438851341378 12:-0.6588991252435025 14:-0.0019703589717662987 
-0.0 -1.0 -1.0 -1.0 -1.0 1.0 3:0.04857889828107367 12:-0.6242049342773776 14:-0.005761290240007119 
-0.0 -1.0 -1.0 -1.0 -1.0 1.0 4:0.0014111902935882732 5:0.0018975269607931862 8:1.8876813568872967E-4 12:-0.6577829851691069 14:-0.004136271930849913 
-0.0 -1.0 -1.0 -1.0 -0.0 1.0 3:0.0036697025480296346 12:-0.6566847582556654 14:-0.005240333035686437 18:4.48696174855078E-4 
-0.0 -1.0 -1.0 -1.0 -0.0 1.0 4:0.0014798799163534347 5:0.6249182892728532 12:-0.01653621638042348 14:-6.574043964315652E-4 
-0.0 -1.0 -1.0 -1.0 -1.0 1.0 12:-0.664638970828919 14:-0.0022707391026799734 
-0.0 -1.0 -1.0 -1.0 -1.0 1.0 4:2.9866857411163863E-5 5:0.010102206107036917 12:-0.6506477737917679 14:-0.004318304790227892 
-0.0 -1.0 -1.0 -1.0 -1.0 1.0 4:0.0012791602283271706 12:-0.4557129923945572 14:-0.12160896824440554 
-0.0 -1.0 -1.0 -1.0 -1.0 1.0 3:0.02117682136887322 4:0.0028307792659090815 12:-0.262440088314015 14:-0.22323928272020163 
-1.0 -1.0 -1.0 -1.0 -1.0 1.0 12:-0.6530013038661601 14:-0.008953511421975424 
-0.0 -1.0 -1.0 -1.0 -0.0 -1.0 8:0.14839203814252402 14:-0.22796736681993268 
-0.0 -1.0 -1.0 -0.0 -1.0 -1.0 8:0.15657648319062356 12:-0.3804031566948138 14:-8.186952947758674E-4 
-0.0 -1.0 -1.0 -1.0 -1.0 -1.0 8:0.013528660152601119 12:-0.6433820567125865 
-0.0 -1.0 -1.0 -1.0 -0.0 -1.0 8:0.0114025046713436 12:-0.6476875891091345 
-0.0 -1.0 -1.0 -0.0 -0.0 -1.0 8:0.3653781756556567 
-0.0 -1.0 -1.0 -1.0 -0.0 -1.0 8:0.001381278137011211 12:-0.6659210849068868 14:-8.794735324622106E-5 
-0.0 -1.0 -1.0 -1.0 -0.0 -1.0 8:0.09111824880248151 12:-0.0779937724916051 14:-0.24350550314213465 
-0.0 -1.0 -1.0 -0.0 -0.0 -1.0 8:0.06509306895384641 12:-0.549162124350806 14:-1.2004374072935688E-4 
-0.0 -1.0 -1.0 -0.18526899636417413 -0.0 -1.0 8:0.3649415031149944 14:-4.1144386881430836E-4 
-0.0 -1.0 -1.0 -1.0 -1.0 -1.0 12:-0.6682763585316588 
-0.0 -1.0 -1.0 -1.0 -1.0 -1.0 8:0.0045238972543038556 12:-0.6603202862597487 14:-3.394769389418875E-5 
-0.0 -1.0 -1.0 -1.0 -0.0 -1.0 12:-0.6687344303169006 
-0.0 -1.0 -1.0 -1.0 -0.0 -1.0 12:-0.6658039823871096 14:-0.001365784454496271 
-0.0 -1.0 -1.0 -1.0 -0.0 -1.0 12:-0.668573747096279 
-0.0 -1.0 -1.0 -0.0 -0.0 -1.0 8:0.36543513470195116 
-0.0 -1.0 -1.0 -1.0 -0.0 -1.0 8:0.05583736105834323 12:-0.48888841203689004 14:-0.04450035129524348 
-1.0 -1.0 -1.0 -1.0 -0.0 -1.0 1:0.007811921775062265 12:-0.6648096572836574 
-0.0 -1.0 -1.0 -1.0 -0.0 -1.0 12:-0.6684219254417737 
-0.0 -1.0 -1.0 -1.0 -0.0 -1.0 12:-0.6684721142181935 
-0.0 -1.0 -1.0 -1.0 -0.0 -1.0 8:0.143940136639056 12:-0.0012003407625793949 14:-0.23189731843140027 
-0.0 -1.0 -1.0 -1.0 -0.0 -1.0 8:0.011870429435251321 12:-0.646449094453422 14:-5.5180238330378894E-5 
-0.0 -1.0 -1.0 -0.0 -0.0 -1.0 8:0.05632122861631491 12:-0.5652994013214608 
-0.0 -1.0 -1.0 -0.0 -0.46050968545791915 -1.0 8:0.36476195168847303 12:-0.0015260261535985677 
-0.0 -1.0 -1.0 -1.0 -1.0 -1.0 12:-0.6679605570711765 14:-1.2484809081866066E-4 
-0.0 -1.0 -1.0 -1.0 -0.0 -1.0 8:0.36473807776041167 14:-7.973850772946523E-4 
-0.0 -1.0 -1.0 -2.220446049250313E-16 -0.0 -1.0 12:-0.6687693124354152 
-0.0 -1.0 -1.0 -1.0 -1.0 -1.0 12:-0.6683155202769068 
-0.0 -1.0 -1.0 -0.0 -0.0 -1.0 8:0.08495689365828946 12:-0.5115337733528847 14:-7.386478683007272E-4 
-0.0 -1.0 -1.0 -0.0 -0.0 -1.0 8:0.36503603222803127 14:-3.288991606697725E-4 
-0.0 -1.0 -1.0 -0.0 -1.0 -1.0 8:0.17728814587884012 12:-0.34361445515262756 14:-2.2853234170672312E-4 
-0.0 -1.0 -1.0 -1.0 -0.0 -1.0 12:-0.6683861556118643 
-0.0 -1.0 -1.0 -0.0 -1.0 -1.0 8:0.35875219224872795 12:-0.01271350347429964 
-0.0 -1.0 -1.0 -1.0 -1.0 -1.0 8:5.061934663787547E-5 12:-0.6681818716482888 
-1.0 -1.0 -1.0 -1.0 -1.0 -1.0 12:-0.6680932761329071 
-0.0 -1.0 -1.0 -0.0 -0.0 -1.0 8:0.36530183654501885 14:-6.347596224920341E-5 
-0.0 -1.0 -1.0 -1.0 -1.0 -1.0 8:0.36456756904396015 14:-9.239564599916639E-4 
-0.0 -1.0 -1.0 -1.0 -0.0 -1.0 8:0.0033793870791867064 12:-0.6622751653625271 
-0.0 -1.0 -1.0 -1.0 -0.0 -1.0 8:0.051659882608834695 12:-1.988937247518367E-4 14:-0.32966195927181596 
-0.0 -1.0 -1.0 -0.0 -0.0 -1.0 8:0.36553440797136694 14:-6.666628099961162E-5 
-0.0 -1.0 -1.0 -1.0 -0.0 -1.0 12:-0.6684675925772487 
-0.0 -1.0 -1.0 -1.0 -1.0 -1.0 8:0.00921328690327931 12:-0.6508649730863514 14:-2.564030693990179E-4 
-0.0 -1.0 -1.0 -1.0 -0.0 -1.0 12:-0.668345330620244 
-0.0 -1.0 -1.0 -1.0 -1.0 -1.0 12:-0.6681203645574965 
-0.0 -1.0 -1.0 -1.0 -0.0 -1.0 12:-0.6684254610138992 
-0.0 -1.0 -1.0 -1.0 -0.0 -1.0 12:-0.6684125931715394 
-0.0 -1.0 -1.0 -1.0 -1.0 -1.0 12:-0.6683028894243466 
-0.0 -1.0 -1.0 -1.0 -0.0 -1.0 8:0.010052996289690959 12:-0.6498552785432998 
-0.0 -1.0 -1.0 -1.0 -1.0 -1.0 12:-0.6682591989562447 
-0.0 -1.0 -1.0 -1.0 -0.0 -1.0 12:-0.6685259284089393 
-0.0 -1.0 -1.0 -1.0 -1.0 -1.0 8:0.11236301812682453 12:-0.13363913066122018 14:-0.18909120267722268 
-1.0 -1.0 -1.0 -1.0 -0.04644150829625046 -1.0 5:0.022841059741666146 12:-0.6445447645599255 
-0.0 -1.0 -1.0 -0.0 -0.0 -1.0 8:0.36516371949488313 12:-5.919546904436265E-4 14:-1.1335260782818864E-4 
-0.0 -1.0 -1.0 -0.0 -0.0 -1.0 8:0.04845550189461076 12:-0.5795331530755264 14:-9.799030846580675E-5 
-0.0 -1.0 -1.0 -1.0 -1.0 -1.0 12:-0.668274904130722 
-0.0 -1.0 -1.0 -0.0 -0.0 -1.0 8:0.08386829172521838 12:-0.5145537152711294 14:-1.2919300588245738E-4 
-0.0 -1.0 -1.0 -1.0 -0.0 -1.0 12:-0.668476990457827 
-0.0 -1.0 -1.0 -1.0 -0.0 -1.0 12:-0.6687616412086667 
-0.0 -1.0 -1.0 -1.0 -1.0 -1.0 8:0.013256796457324681 12:-0.6437354611434868 14:-1.22168521301885E-4 
-1.0 -1.0 -1.0 -1.0 -1.0 -1.0 8:0.035923536638840806 12:-0.6018621163061592 14:-3.6522813640154777E-4 
-0.0 -1.0 -1.0 -1.0 -1.0 -1.0 12:-0.6681340207785894 
-0.0 -1.0 -1.0 -1.0 -0.0 -1.0 12:-0.6684559464055625 
-0.0 -1.0 -1.0 -1.0 -0.0 -1.0 12:-0.66869165160116 
-1.0 -1.0 -1.0 -1.0 -1.0 -1.0 8:0.006042352902763274 12:-0.6447096980645817 14:-0.00709875287749521 
-0.0 -1.0 -1.0 -1.0 -0.0 -1.0 8:8.355331123402584E-4 12:-0.6668652943008241 
-0.0 -1.0 -1.0 -0.0 -0.0 -1.0 8:0.36501374669758635 14:-4.2685182557359057E-4 
-0.0 -1.0 -1.0 -0.0 -0.0 -1.0 8:0.3653974113135284 12:-2.494516906270472E-4 14:-2.8660301319888725E-5 
-1.0 -1.0 -1.0 -1.0 -0.0 -1.0 3:2.5855118093592802E-5 12:-0.6652411993871 14:-0.0019879432753277383 
-0.0 -1.0 -1.0 -1.0 -1.0 -1.0 12:-0.6682183247170025 
-0.0 -1.0 -1.0 -1.0 -1.0 -1.0 12:-0.6681049850412014 
-0.0 -1.0 -1.0 -1.0 -0.0 -1.0 8:0.002468148631619565 12:-0.663513738646463 14:-1.1524295125807684E-4 
-0.0 -1.0 -1.0 -1.0 -1.0 -1.0 12:-0.6681843880713018 
-0.0 -1.0 -1.0 -0.0 -1.0 -1.0 8:0.04520067671580901 12:-0.5845241619168906 14:-7.081671094511272E-4 
-0.0 -1.0 -1.0 -0.0 -1.0 -1.0 8:0.36470253739248293 12:-0.0014461821986083568 14:-2.02629867009455E-4 
-0.0 -1.0 -1.0 -1.0 -0.0 -1.0 8:0.08812888261562181 12:-9.220152645564363E-5 14:-0.29126354800384074 
-1.0 -1.0 -1.0 -1.0 -1.0 -1.0 5:0.0017709767990556255 12:-0.6635111462857062 14:-0.0016452301553515813 
-0.0 -1.0 -1.0 -1.0 -0.0 -1.0 5:0.010449601007070415 7:0.9760913592979409 9:0.001127010373819947 12:-0.34343277307041564 14:-9.63802833298453E-5 18:0.005559384812734171 
-0.0 -1.0 -1.0 -1.0 -0.9535584917037495 -1.0 8:1.138856485754568E-4 12:-0.002846379986431264 14:-0.38222591604261996 
-0.0 -1.0 -1.0 -1.0 -0.0 -1.0 8:0.0010232360587251103 12:-0.6664965574049788 14:-1.8579945400580276E-4 
-0.0 -1.0 -1.0 -0.0 -0.0 -1.0 8:0.04853041526100825 12:-0.5791938928808442 14:-1.6938427604456794E-4 
-0.0 -1.0 -1.0 -0.0 -0.0 -1.0 8:0.3653956929744343 
-0.0 -1.0 -1.0 -1.0 -0.0 -1.0 8:7.540717102240211E-4 12:-0.6671750361102883 
-0.0 -1.0 -1.0 -1.0 -0.0 -1.0 12:-0.6687407510464545 
-1.0 -1.0 -1.0 -1.0 -1.0 -1.0 8:0.003347595235319453 12:-0.6165376822355569 14:-0.026303390506960286 
-0.0 -1.0 -1.0 -1.0 -0.0 -1.0 12:-0.6685857150096614 
-0.0 -1.0 -1.0 -1.0 -1.0 -1.0 12:-0.668098911299502 
-0.0 -1.0 -1.0 -1.0 -0.0 -1.0 12:-0.6683508827877952 
-0.0 -1.0 -1.0 -1.0 -1.0 -1.0 8:0.003544225111076916 12:-0.6620949150678282 14:-7.277123637004228E-5 
-0.0 -1.0 -1.0 -1.0 -0.0 -1.0 12:-0.6687168503429838 
-0.0 -1.0 -1.0 -1.0 -0.0 -1.0 8:0.005295874747294242 12:-0.6589272471510891 14:-5.0010738276584334E-5 
-1.0 -1.0 -1.0 -1.0 -1.0 -1.0 12:-0.657410203192263 14:-0.006472155071697588 
-0.0 -1.0 -1.0 -1.0 -0.0 -1.0 8:0.0032744285718483497 12:-0.6625774804172632 
-1.0 -1.0 -1.0 -1.0 -1.0 -1.0 8:0.03099233946869798 12:-0.42734073406502554 14:-0.10592850935133184 
-0.0 -1.0 -1.0 -1.0 -0.5394903145420809 -1.0 8:0.09750766442535494 12:-0.07742789049875662 14:-0.23716376731881753 
-0.0 -1.0 -1.0 -0.0 -0.0 -1.0 8:0.05545588447572472 12:-0.56587847852674 14:-4.7476434182894934E-4 
-0.0 -1.0 -1.0 -1.0 -0.0 -1.0 12:-0.6685241221101947 
-0.0 -1.0 -1.0 -0.0 -1.0 -1.0 8:0.09041346881769505 12:-0.5016824432701615 14:-6.208222613015897E-4 
-0.0 -1.0 -1.0 -1.0 -1.0 -1.0 8:0.023246657030235884 14:-0.3594411965576549 
-0.0 -1.0 -1.0 -1.0 -1.0 -1.0 8:2.2095948814337943E-4 12:-0.6681900698891364 14:-1.9344476865090536E-5 
-1.0 -1.0 -1.0 -0.8147310036358258 -1.0 -1.0 8:0.03133569850139466 12:-0.6109410253556655 
-0.0 -1.0 -1.0 -1.0 -0.0 -1.0 8:0.009537617865891105 12:-0.6507997364188279 14:-1.6887554003124823E-4 
-1.0 -1.0 -1.0 -1.0 -1.0 -1.0 8:0.006070634889388165 12:-0.6135471869370661 14:-0.025120074492691276 
-0.0 -1.0 -1.0 -1.0 -1.0 -1.0 8:5.284191708344601E-4 12:-0.6672192695870943 
-0.0 -1.0 -1.0 -1.0 -0.0 -1.0 8:0.1332377267963369 12:-2.19120849484298E-4 14:-0.2440344563786824 
-0.0 -1.0 -1.0 -0.0 -0.0 -1.0 8:0.3653053101775507 13:6.761734606878441E-4 
-1.0 -1.0 -1.0 -1.0 -1.0 -1.0 8:0.0065811656971993615 12:-0.6561066311109655 
-0.0 -1.0 -1.0 -1.0 -1.0 -1.0 12:-0.6681662414825057 
-0.0 -1.0 -1.0 -1.0 -1.0 -1.0 8:0.013244826009576102 12:-0.644285410753761 14:-9.266128047616744E-5 
-0.0 -1.0 -1.0 -1.0 -0.0 -1.0 8:0.012335534686431024 12:-0.6453027074319742 14:-2.2247828575241936E-4 
-0.0 -1.0 -1.0 -1.0 -1.0 -1.0 8:2.450827806725751E-4 12:-0.667709367174762 
-1.0 -1.0 -1.0 -1.0 -1.0 -1.0 8:0.03161349788540875 12:-0.6096554333060825 14:-3.9073220287568974E-4 
-1.0 -1.0 -1.0 -1.0 -1.0 -1.0 8:3.1006763837104724E-4 12:-0.667695782408333 
-0.0 -1.0 -1.0 -1.0 -1.0 -1.0 8:0.010835836284596768 12:-0.6483417800497828 
-0.0 -1.0 -1.0 -1.0 -0.0 -1.0 8:0.06402095721117718 12:-0.001069601223744631 14:-0.3160633702324076 
-0.0 -1.0 -1.0 -1.0 -1.0 -1.0 12:-0.6681553092451852 
-0.0 -1.0 -1.0 -1.0 -0.0 -1.0 8:0.0022823101433580802 12:-0.6622870945943906 14:-9.720526214229083E-4 
-0.0 -1.0 -1.0 -1.0 -1.0 -1.0 8:0.0016073915165243135 12:-0.6656690512036186 14:-1.81578449666554E-5 
-0.0 -1.0 -1.0 -1.0 -0.0 -1.0 1:0.002131655758802791 8:0.19081975681746063 12:-0.0025849422514385126 14:-0.18133028032252077 
-0.0 -1.0 -1.0 -0.0 -1.0 -1.0 8:0.04420904631229599 12:-0.5871477975968672 14:-1.596039876049965E-4 
-1.0 -1.0 -1.0 -1.0 -0.0 -1.0 12:-0.6647235283642339 14:-0.002110644116136993 
-0.0 -1.0 -1.0 -1.0 -0.0 -1.0 8:0.002794318210400866 12:-0.6632490063714419 14:-3.862672157378388E-5 
