svm_type c_svc
kernel_type rbf
gamma 0.05
nr_class 4
total_sv 6665
rho 0.23850993252658453 -0.9605333021429131 -0.9568261451580985 -0.970906840924237 -0.9708730284843874 0.10097476145871773
label 1 0 2 3
nr_sv 2746 3680 113 126
SV
1.0 0.03969185980551393 0.042968749980490606 12:120239.0 
1.0 0.03969185980551393 0.042968749991003974 1:244.0 3:39.0 4:116.0 12:4967.0 14:276.0 
1.0 0.039686426724146906 0.04296874999111139 4:5.0 5:154.0 12:9379.0 14:190.0 18:5.0 
1.0 0.03968662993576055 0.0429687499912732 4:47.0 5:58.0 12:1108.0 14:136.0 20:143.0 
1.0 0.0396861257598593 0.0429687499912732 1:1.0 4:1.0 7:7653.0 12:1443.0 14:132.0 16:40.0 
1.0 0.0396861257598593 0.04296874999154243 3:179.0 5:170.0 12:1469.0 14:358.0 
1.0 0.03968445876999244 0.04296874999154243 1:76.0 2:130.0 4:13.0 12:6577.0 13:73.0 14:146.0 16:13.0 
1.0 0.03968460003872265 0.04296874999154243 4:2.0 8:41.0 12:1884.0 14:198.0 20:51.0 
1.0 0.03968467191727798 0.04296874999154243 3:351.0 4:1.0 5:70.0 8:719.0 12:2770.0 14:276.0 
1.0 0.03968487976391388 0.04296874999181172 4:14.0 5:270.0 7:3455.0 8:6.0 12:1451.0 14:254.0 
1.0 0.03968398652362348 0.04296874999181172 12:8042.0 14:63.0 16:25.0 
1.0 0.03968398652362348 0.04296874999181172 4:1.0 5:27.0 12:9695.0 14:13.0 
1.0 0.03968309698817618 0.04296874999181172 1:318.0 4:20.0 5:15.0 12:13212.0 14:46.0 18:2.0 
1.0 0.03968311506569194 0.04296874999181172 4:17.0 8:10.0 12:10796.0 13:3646.0 14:509.0 18:24.0 
1.0 0.03968287785624097 0.04296874999181172 4:21.0 5:72.0 12:3903.0 13:1775.0 14:190.0 18:7.0 
1.0 0.039682881212480814 0.042968749992080946 3:4.0 5:1062.0 12:5560.0 14:512.0 18:17.0 
1.0 0.03957593243760843 0.04296870134760783 4:27.0 5:20.0 8:1.0 12:1654.0 14:36.0 
1.0 0.039681148636435126 0.042968749992080946 1:79.0 3:7.0 4:411.0 6:11.0 8:15.0 9:11.0 11:12.0 12:5262.0 13:2317.0 14:122.0 16:2.0 
1.0 0.03968122674535901 0.042968749992080946 3:8.0 12:1311.0 14:278.0 
1.0 0.039681358000517364 0.042968749992080946 1:9.0 3:2.0 12:3356.0 14:104.0 
1.0 0.039681358000517364 0.042968749992080946 1:195.0 4:4.0 5:359.0 8:19.0 12:836.0 13:8.0 14:130.0 
1.0 0.039681358040291936 0.042968749992080946 3:57.0 5:70.0 12:8896.0 14:349.0 16:35.0 18:46.0 
1.0 0.039681358040291936 0.042968749992080946 3:317.0 5:5.0 12:39147.0 14:2816.0 
1.0 0.039681358040291936 0.042968749992080946 1:524.0 4:4.0 5:273.0 12:1962.0 14:253.0 
1.0 0.039681358040291936 0.042968749992080946 1:132.0 4:11.0 5:25.0 8:12.0 12:5816.0 14:4175.0 
1.0 0.03967045461749508 0.042968749992080946 4:123.0 9:8.0 12:1817.0 13:7.0 14:10.0 
1.0 0.03967045462746277 0.042968749992080946 4:29.0 7:3722.0 8:37.0 12:1413.0 14:138.0 
1.0 0.03967045462746277 0.042968749992080946 12:5540.0 14:106.0 16:12.0 
1.0 0.03967045470405922 0.042968749992080946 4:1.0 7:6262.0 12:6101.0 14:2170.0 20:32.0 
1.0 0.03967045470405922 0.0431636342583564 1:47.0 4:27.0 8:3.0 12:1842.0 13:3396.0 14:104.0 
1.0 0.039670454762700036 0.043396789603561636 3:4.0 5:57.0 8:2.0 12:5689.0 14:127.0 
1.0 0.039670454762700036 0.04341364148761312 4:2.0 5:23.0 12:3955.0 13:1.0 14:184.0 18:21.0 
1.0 0.03969422821053986 0.042970571744421815 8:16.0 12:4587.0 
1.0 0.03967045476711434 0.04345159188624642 8:4.0 12:3929.0 14:148.0 
1.0 0.039670455062220444 0.04345159188624642 1:93.0 3:31.0 4:100.0 12:5618.0 14:410.0 
1.0 0.03978192109673928 0.04296874493808561 12:2124.0 14:34.0 
1.0 0.039670455062220444 0.04347158479690982 1:273.0 8:2.0 9:15.0 12:1815.0 14:396.0 
1.0 0.03967045506222133 0.043489704658985495 8:8.0 12:44781.0 14:271.0 18:48.0 
1.0 0.03967045517004031 0.043489704658985495 8:2.0 12:3367.0 14:6474.0 
1.0 0.039491512729535605 0.04280115202275259 12:3546.0 14:1.0 
1.0 0.03967045518385626 0.043489711780599516 2:26.0 5:467.0 8:8.0 12:7704.0 14:293.0 16:1.0 18:7.0 
1.0 0.03967045526158569 0.043489711780599516 1:1.0 3:357.0 9:12.0 12:2815.0 
1.0 0.03967045609823755 0.04347829089789873 12:3825.0 14:7578.0 
1.0 0.03967045609823755 0.04348118962142983 5:11.0 8:286.0 12:1529.0 14:312.0 
1.0 0.039670454463805294 0.04348702986398134 3:6.0 12:6396.0 14:367.0 
1.0 0.03665798044469987 0.03970858241853693 12:4407.0 
1.0 0.039726266823890855 0.04296742129957509 8:12.0 12:5796.0 14:33.0 
1.0 0.03967045465418789 0.04348702986398134 1:70.0 4:7.0 8:20.0 9:86.0 12:5147.0 13:235.0 14:396.0 
1.0 0.03966940855476209 0.04381446035374459 8:40.0 12:2192.0 
1.0 0.03966940855476209 0.04381446953392637 3:1.0 4:3.0 5:168.0 12:2854.0 14:247.0 18:13.0 
1.0 0.03966940868285462 0.04389064495838807 12:1157.0 14:121.0 
1.0 0.03966940868285462 0.04347480344957516 1:13.0 7:5297.0 9:1.0 12:491.0 13:13.0 14:41.0 
1.0 0.03966836134705992 0.043561282229473974 1:3.0 3:18.0 5:118.0 8:36.0 12:1117.0 14:259.0 
1.0 0.03969854376961485 0.04296663768190584 12:1732.0 
1.0 0.03966836134705992 0.043561282229473974 5:314.0 12:11316.0 14:70.0 18:47.0 
1.0 0.03966836134705992 0.043561282229473974 1:1.0 4:21.0 5:3.0 7:804.0 8:16.0 9:161.0 12:1998.0 14:40.0 18:3.0 
1.0 0.03959434142930046 0.04278405867176632 12:3541.0 18:9.0 
1.0 0.03966836140415575 0.043561282229473974 5:79.0 12:8199.0 14:8.0 
1.0 0.03966836140415575 0.043561282229473974 3:5.0 4:4.0 5:409.0 12:17973.0 14:259.0 
1.0 0.039668361650802175 0.043561282229473974 3:10.0 5:894.0 8:4.0 12:2284.0 
1.0 0.03966836167645682 0.043561282229473974 4:1.0 12:1189.0 14:2546.0 
1.0 0.03966940813819436 0.043561282229473974 4:9.0 8:22.0 12:3536.0 14:285.0 18:10.0 
1.0 0.03965780814921316 0.04302191702263436 3:1.0 4:18.0 5:1.0 12:9625.0 14:21.0 
1.0 0.03965780814921316 0.04321536412200366 3:10.0 5:1.0 7:1547.0 8:41.0 9:11.0 12:14522.0 14:12.0 
1.0 0.03968876326282095 0.04296810795095307 12:2362.0 14:68.0 
1.0 0.03969761769378666 0.04302702735208308 12:2977.0 14:14.0 
1.0 0.03965850957296402 0.04321536412200366 1:181.0 4:58.0 5:21.0 8:24.0 9:5.0 12:4528.0 13:1827.0 14:382.0 
1.0 0.03965850957296435 0.04334678594064606 3:7.0 12:6564.0 
1.0 0.03965919677791696 0.04334678594064606 3:150.0 4:7.0 12:8072.0 13:179.0 
1.0 0.0396595537244282 0.04342620448474954 1:3.0 3:1.0 8:428.0 9:1.0 12:1929.0 
1.0 0.03966096554665771 0.04342620448474954 3:98.0 12:5482.0 14:45.0 16:9.0 
1.0 0.03966227927520244 0.04342620448474954 4:8.0 5:120.0 9:1.0 12:6694.0 14:22.0 18:7.0 
1.0 0.03966237835870706 0.04342620448474949 5:15.0 8:14.0 12:5146.0 14:51.0 
1.0 0.03966237879466111 0.04342620448474954 8:4.0 12:6941.0 13:273.0 
1.0 0.03966237890946234 0.04342620448474954 3:2.0 5:48.0 12:16051.0 14:317.0 16:8.0 18:1.0 
1.0 0.03966237890946234 0.04342620448474954 3:2.0 8:1.0 12:2246.0 14:86.0 
1.0 0.03966237937496092 0.04342620448474954 1:5.0 12:7443.0 14:27.0 16:38.0 
1.0 0.039662379485155275 0.04342620448474954 1:108.0 3:925.0 4:2.0 8:10.0 12:1929.0 14:199.0 
1.0 0.03966238113723852 0.04342620448474954 1:150.0 4:5.0 7:1774.0 9:34.0 12:980.0 14:246.0 
1.0 0.039654691286126476 0.042968418055245705 9:2.0 12:1938.0 14:47.0 
1.0 0.039662396763352314 0.04342620448474954 4:7.0 12:1312.0 14:2091.0 
1.0 0.039651325327345055 0.04342620448474954 4:26.0 5:52.0 12:1865.0 14:5.0 
1.0 0.039651325327345055 0.04342620448474954 5:53.0 8:2.0 12:1507.0 14:126.0 18:65.0 
1.0 0.039651325327345055 0.04342620448474954 1:15.0 7:697.0 12:4143.0 13:11.0 14:617.0 
1.0 0.039651325327345055 0.04342620448474954 1:2.0 3:2.0 5:47.0 8:59.0 12:1761.0 13:1570.0 14:256.0 18:22.0 
1.0 0.039651325327345055 0.04342620448474954 3:505.0 12:2691.0 
1.0 0.039651325327345055 0.04367546471981165 5:56.0 8:2.0 12:5347.0 14:423.0 18:27.0 
1.0 0.039543772420634726 0.04284727813423006 12:1501.0 14:37.0 
1.0 0.039651325327345055 0.04367546471981165 4:254.0 5:187.0 8:11.0 12:9141.0 14:381.0 
1.0 0.03965132533022275 0.04367546471981165 1:137.0 2:2.0 7:655.0 12:567.0 14:230.0 
1.0 0.039731377807540214 0.04292840783770946 12:1726.0 14:32.0 
1.0 0.039738256895128554 0.04296876487039741 12:6147.0 14:17.0 16:2.0 
1.0 0.03965132533022275 0.04367546471981165 3:2920.0 4:53.0 12:6333.0 14:129.0 
1.0 0.03965132533022275 0.04386070035217149 9:2.0 12:735.0 13:8017.0 14:16.0 18:1.0 
1.0 0.03965132533022275 0.04386074154017039 1:2.0 8:30.0 12:2205.0 14:46.0 
1.0 0.03965132687223538 0.04386074154019315 1:9.0 4:1.0 5:24.0 8:6.0 9:9.0 12:3908.0 14:245.0 18:40.0 
1.0 0.32591390689492417 0.04266155792076343 3:4.0 12:2800.0 
1.0 0.03965132687223538 0.043860782728266934 4:2.0 7:3322.0 12:2922.0 14:246.0 
1.0 0.03965132687223538 0.043860782728266934 3:1.0 5:432.0 12:5684.0 14:139.0 
1.0 0.03965132687223538 0.043860782728266934 1:2.0 3:498.0 5:11.0 7:641.0 12:494.0 14:83.0 
1.0 0.03965132687223538 0.043860782728266934 12:6149.0 14:79.0 
1.0 0.03965132687223538 0.0434882151811154 1:20.0 3:16.0 4:1.0 5:111.0 8:2.0 12:5442.0 14:303.0 
1.0 0.03965132817673944 0.043488213803028364 4:4.0 5:600.0 12:3021.0 14:27.0 
1.0 0.03965132817673944 0.043488213115800256 4:1.0 8:6.0 9:10.0 12:1773.0 14:181.0 
1.0 0.03965132817673944 0.043488213115800256 3:164.0 12:3103.0 
1.0 0.03965132817673944 0.04348821263061675 5:140.0 12:10586.0 14:138.0 16:4.0 
1.0 0.03965132817673944 0.04348821263061675 1:3.0 4:25.0 8:12.0 12:8661.0 14:256.0 
1.0 0.03965132817673944 0.043488212112806235 4:488.0 12:6017.0 14:39.0 
1.0 0.03965132817673944 0.043488208516657856 3:283.0 4:1.0 5:7.0 12:1314.0 14:15.0 
1.0 0.03965132817673944 0.043573296821964924 1:390.0 3:2.0 4:10.0 9:6.0 12:970.0 14:81.0 
1.0 0.03965132931949206 0.04357333440953831 4:17.0 5:42.0 12:2461.0 14:135.0 
1.0 0.03965134124771019 0.04357333440953831 4:133.0 5:331.0 9:6.0 12:6081.0 14:303.0 
1.0 0.03965134124771019 0.04357337199332356 3:24.0 4:351.0 8:5.0 12:2879.0 14:5.0 
1.0 0.03969413276004646 0.04296874981466642 12:2095.0 14:37.0 
1.0 0.03965131594600341 0.04357337199332356 3:3.0 8:8.0 12:1691.0 13:253.0 14:120.0 
1.0 0.039651321230586734 0.04357337199332356 7:981.0 12:2614.0 14:3046.0 16:2.0 
1.0 0.03965080771443724 0.04357337199332356 1:8.0 4:1.0 7:264.0 8:4.0 9:1.0 12:2439.0 14:11.0 
1.0 0.039697858714872414 0.04296841363413734 4:14.0 12:1300.0 14:84.0 
1.0 0.03968425238800666 0.04295847302255705 12:3453.0 14:125.0 
1.0 0.0396512157120274 0.04357337199332356 8:2.0 12:13637.0 14:90.0 16:39.0 
1.0 0.03964938028844067 0.04357337199332356 1:29.0 4:7.0 5:82.0 9:6.0 12:1810.0 14:93.0 
1.0 0.03964938028844067 0.04357337135403744 1:107.0 3:25.0 4:106.0 5:1.0 12:3765.0 14:171.0 
1.0 0.03968690031181499 0.04296874999208089 12:2041.0 14:33.0 
1.0 0.03960615133433648 0.04296860017172288 5:10.0 12:5355.0 14:234.0 
1.0 0.03964939584636934 0.043573371299840846 1:7.0 9:4.0 12:3931.0 14:105.0 
1.0 0.0397272660072131 0.04296874762630959 8:6.0 12:1422.0 14:7.0 18:20.0 
1.0 0.03968689665829367 0.04296874990949445 1:1.0 8:1.0 9:8.0 12:5853.0 14:24.0 
1.0 0.03964940605035 0.043573371299840846 3:26.0 4:5.0 12:1396.0 14:36.0 
1.0 0.039649406363195194 0.043573371172480835 1:16.0 5:1.0 7:29.0 9:1.0 12:3041.0 14:9.0 
1.0 0.039649406363195194 0.043573371172480835 1:2.0 8:8.0 12:1629.0 14:125.0 18:11.0 
1.0 0.03964940636332387 0.043573371172480835 4:5.0 12:1121.0 14:67.0 
1.0 0.03964940636332387 0.043573371172480835 4:57.0 5:49.0 12:2518.0 14:181.0 18:32.0 20:19.0 
1.0 0.03964940636332387 0.04357337085119395 1:4.0 4:13.0 7:4580.0 8:38.0 9:46.0 12:960.0 14:309.0 
1.0 0.02452479817099318 0.029184606481061193 12:1514.0 
1.0 0.039649406363368445 0.04357337081274171 4:12.0 7:933.0 9:4.0 12:1794.0 14:211.0 
1.0 0.03964940636807163 0.04357337081274171 1:131.0 4:136.0 8:9.0 9:38.0 12:981.0 14:122.0 20:948.0 
1.0 0.03964940636807163 0.043573365740939674 7:2241.0 12:1131.0 14:50.0 
1.0 0.03964941751273038 0.043573365740939674 1:85.0 4:28.0 8:1.0 9:286.0 12:431.0 14:3834.0 
1.0 0.0393754472879993 0.04267039188555605 9:6.0 12:1432.0 14:18.0 
1.0 0.03964941751273038 0.04357336527085193 1:31.0 5:149.0 9:3.0 12:1114.0 14:82.0 20:237.0 
1.0 0.03964941751273038 0.04357336527085193 5:1.0 12:11947.0 14:1041.0 
1.0 0.03964941751273038 0.04357340148762312 3:1.0 4:5.0 8:2.0 12:6219.0 14:77.0 
1.0 0.03964941751273038 0.04357339988238429 5:150.0 8:10.0 12:1130.0 14:169.0 
1.0 0.03964941751273038 0.04357339988238429 1:73.0 3:66.0 4:3.0 12:1681.0 14:184.0 20:7.0 
1.0 0.03964941751298773 0.04357339988238429 1:6.0 3:101.0 12:4930.0 14:201.0 
1.0 0.03964941751298773 0.04357339970345936 9:9.0 12:2278.0 14:107.0 
1.0 0.03620711623848333 0.03967063956385497 12:1692.0 
1.0 0.03964943803274951 0.04357339970345936 8:18.0 12:16458.0 14:54.0 
1.0 0.03964944266067166 0.04357339925655512 3:93.0 4:7.0 8:8.0 9:95.0 12:2716.0 14:197.0 18:52.0 
1.0 0.03964944266067166 0.04357339925655512 2:3.0 5:52.0 9:382.0 12:5004.0 14:392.0 16:18.0 
1.0 0.03964944266067166 0.04363190932747074 1:560.0 4:2.0 5:1.0 8:2.0 9:40.0 12:1129.0 14:572.0 
1.0 0.03953082470601993 0.04296865316349929 3:1.0 4:21.0 5:36.0 12:1655.0 14:40.0 
1.0 0.03964944266067166 0.04363190660969052 5:1473.0 12:4189.0 14:228.0 
1.0 0.03964948639216581 0.04363190470599365 4:11.0 5:31.0 12:1393.0 14:56.0 
1.0 0.03964948639216581 0.04363190470599365 1:54.0 2:2.0 12:984.0 14:1366.0 
1.0 0.03964961720988586 0.0436319039130636 12:12031.0 14:68.0 16:34.0 
1.0 0.03964964918614855 0.0436319039130636 4:1290.0 12:390.0 
1.0 0.03964964918614855 0.0436319023623678 4:16.0 5:507.0 8:6.0 12:7847.0 14:107.0 
1.0 0.03964964918614855 0.0436319023623678 12:5578.0 14:79.0 
1.0 0.03964964918614855 0.0436319023623678 1:84.0 4:2.0 8:10.0 9:6.0 12:1435.0 13:207.0 14:271.0 
1.0 0.03964935480362963 0.0436319023623678 12:8578.0 14:2085.0 
1.0 0.039062500000167866 0.04363190196521838 1:15.0 4:1.0 8:1.0 12:3588.0 
1.0 0.03964936013373965 0.04363190196521838 5:3.0 12:9311.0 14:161.0 16:10.0 18:74.0 
1.0 0.039615157782613764 0.04363190186527621 4:97.0 5:56.0 8:20.0 12:5188.0 14:145.0 18:42.0 
1.0 0.039617288360345226 0.043631901687523844 12:8264.0 
1.0 0.03961849485317814 0.043631901687523844 4:40.0 12:1514.0 14:41.0 
1.0 0.03962025009074138 0.0436319011591938 5:503.0 8:112.0 12:5970.0 14:588.0 
1.0 0.039615058229954314 0.04366039585977183 3:138.0 12:11841.0 14:13.0 16:10.0 
1.0 0.0396798453712891 0.04296591256655313 3:3.0 4:4.0 8:2.0 12:7716.0 13:4.0 14:21.0 
1.0 0.03906250025941416 0.04296874585568561 12:3793.0 
1.0 0.039615058229954314 0.04369641163619381 3:644.0 12:18438.0 14:3.0 
1.0 0.03961506083739924 0.04376081196991438 5:115.0 8:59.0 12:15592.0 14:306.0 
1.0 0.039551936721885395 0.04286111977020518 4:1.0 5:32.0 12:1655.0 14:8.0 
1.0 0.039615060844632344 0.043789051350952846 3:78.0 4:2.0 5:197.0 7:348.0 12:4659.0 14:77.0 16:2.0 
1.0 0.03972727735225352 0.04296874585634443 3:1.0 4:5.0 12:1964.0 14:85.0 
1.0 0.03961506091010736 0.043794399795462124 12:2864.0 14:115.0 
1.0 0.03969983562753748 0.04296860017176923 4:8.0 12:5357.0 14:243.0 16:6.0 
1.0 0.03961506121346359 0.04380608733127195 4:53.0 5:570.0 9:312.0 12:5400.0 14:292.0 16:7.0 18:24.0 
1.0 0.03961506170599721 0.04380608910172479 9:1182.0 12:5582.0 14:21.0 
1.0 0.03957511296187277 0.6493365662595393 4:1.0 12:3043.0 
1.0 0.03961506170599721 0.04381779126510116 4:16.0 5:24.0 12:2194.0 14:188.0 
1.0 0.039609107064289606 0.04381779126510116 4:1.0 5:465.0 12:8277.0 14:327.0 
1.0 0.039609107064289606 0.04381779126510116 1:138.0 4:9.0 5:14.0 12:6387.0 14:297.0 16:14.0 
1.0 0.03972729400481789 0.043817791074761914 1:17.0 8:2.0 12:3118.0 14:32.0 16:2.0 
1.0 0.03960951817064695 0.04382541162773068 4:3.0 5:750.0 12:14560.0 14:192.0 
1.0 0.03960992153845261 0.04382541318798705 12:9744.0 14:130.0 
1.0 0.03961169630435035 0.043829507669498946 1:8.0 8:10.0 12:1566.0 13:19.0 14:97.0 
1.0 0.03961169630435035 0.043829507669498946 1:22.0 3:12.0 7:8.0 12:1342.0 14:76.0 
1.0 0.03961169630435035 0.043829507309180116 8:4.0 12:3243.0 14:225.0 
1.0 0.03961169630435035 0.043829506749912095 3:5.0 4:2.0 5:558.0 8:29.0 12:5034.0 14:286.0 16:2.0 
1.0 0.03961169630435035 0.04382950646362116 12:566.0 14:3201.0 
1.0 0.03961169630435035 0.04382950646362116 4:42.0 5:91.0 12:1521.0 14:79.0 
1.0 0.039613070399830475 0.04382950646362116 3:758.0 5:59.0 12:1721.0 14:78.0 18:17.0 
1.0 0.039727284202004054 0.042968747626209114 5:7.0 12:3627.0 14:28.0 
1.0 0.03961346807329019 0.043829504235877836 1:68.0 3:73.0 9:1.0 12:3797.0 13:1967.0 14:229.0 16:2.0 18:2.0 
1.0 0.03961458256941469 0.043890204908784036 1:169.0 2:6.0 3:1.0 4:28.0 7:9.0 8:62.0 12:10132.0 13:614.0 14:270.0 
1.0 0.039614744873760876 0.043890204908784036 4:1.0 7:416.0 12:951.0 14:24.0 
1.0 0.03906250000033784 0.04389019280090478 12:6422.0 16:4.0 
1.0 0.03961489048927003 0.04389021015361855 7:143.0 12:2704.0 18:5.0 
1.0 0.03961491677856993 0.04389021015361855 7:110.0 12:3491.0 
1.0 0.03960839233099789 0.04389020994633375 4:461.0 5:215.0 9:23.0 12:1130.0 14:531.0 
1.0 0.039607791370469325 0.04389020971722235 5:198.0 12:4878.0 14:306.0 
1.0 0.039607791370469325 0.04389020971722235 8:2.0 12:5948.0 14:124.0 16:54.0 
1.0 0.03960687160067661 0.043890150745141854 1:1.0 3:39828.0 12:1995.0 14:1918.0 
1.0 0.03960687160067661 0.04387661459600278 4:12.0 5:80.0 12:5200.0 14:148.0 
1.0 0.03960687162023968 0.043797513113407294 12:5870.0 14:551.0 
1.0 0.03960675223239407 0.04371057836055248 1:3.0 5:8.0 12:2751.0 14:197.0 
1.0 0.03960675223239407 0.04394585706013188 3:1.0 4:865.0 5:452.0 12:21002.0 13:250.0 14:94.0 16:8.0 18:9.0 
1.0 0.03960675223239407 0.043915766874363604 4:1.0 5:420.0 12:1453.0 14:145.0 
1.0 0.03960675223239407 0.043915766874363604 1:9.0 4:2.0 8:8.0 12:1775.0 14:428.0 
1.0 0.03960657306737153 0.043816929565352214 4:5.0 8:4.0 9:8.0 12:1426.0 14:50.0 
1.0 0.03960657306737159 0.043816929565352214 4:810.0 5:705.0 8:4.0 12:4038.0 14:312.0 
1.0 0.039708383083215115 0.04290625752155852 3:9.0 12:5386.0 
1.0 0.039606573093763975 0.043816929565352214 9:13.0 12:3452.0 13:4886.0 14:248.0 16:31.0 
1.0 0.039606573093763975 0.043816929565352214 1:1.0 7:1360.0 12:13414.0 14:166.0 
1.0 0.039606573093763975 0.04369979807472035 1:88.0 4:5.0 7:709.0 9:1.0 12:2381.0 14:43.0 
1.0 0.03960657316515798 0.04369979807472035 4:1.0 5:23.0 9:3.0 12:1732.0 14:70.0 
1.0 0.039606573208257445 0.043688362461751784 3:238.0 4:27.0 5:1964.0 8:100.0 12:15140.0 14:512.0 18:32.0 
1.0 0.03960657666170814 0.043655533548994985 2:1.0 4:146.0 5:9.0 9:46.0 12:3003.0 14:307.0 
1.0 0.03960657666170814 0.04364242697920023 3:1.0 12:3570.0 14:129.0 
1.0 0.03960657669332612 0.043601904309386874 1:31.0 3:136.0 4:300.0 5:11.0 9:14.0 12:4311.0 14:54.0 
1.0 0.039606177295013256 0.04357278899063621 4:68.0 5:16.0 7:307.0 8:231.0 12:2464.0 
1.0 0.03978413887602228 0.042968739944163885 4:4.0 12:2043.0 14:106.0 
1.0 0.03960617748946277 0.8626764856416171 12:2306.0 
1.0 0.039606192660072814 0.043572788990609346 5:627.0 8:8.0 9:1.0 12:470.0 13:376.0 14:83.0 
1.0 0.03960619513724056 0.04356128637170542 12:8269.0 14:299.0 16:20.0 
1.0 0.03960619513724056 0.04381446953392626 1:37.0 4:5.0 8:2.0 9:1.0 12:1504.0 13:509.0 14:2.0 
1.0 0.03960619513724056 0.04349287152631065 1:12.0 4:1.0 7:1103.0 8:2.0 12:2439.0 14:58.0 
1.0 0.03960619513724056 0.04349287152631065 3:3.0 5:95.0 12:17258.0 13:628.0 14:91.0 
1.0 0.0396062606712394 0.04349287152631065 3:2382.0 12:1461.0 
1.0 0.03960626077809165 0.04349287152631065 12:6107.0 14:8972.0 16:2.0 18:22.0 
1.0 0.03960633167682043 0.04348702986398134 4:400.0 8:43.0 12:2158.0 14:235.0 
1.0 0.039606331913856985 0.04348702902633622 5:913.0 8:18.0 12:1036.0 14:493.0 20:4077.0 
1.0 0.03972415620015429 0.045834470871429445 12:1470.0 
1.0 0.03960641742789911 0.04348702891938827 1:28.0 4:14.0 7:258.0 12:1204.0 14:167.0 
1.0 0.03960641742789911 0.04348702891938827 3:1.0 5:568.0 12:2024.0 14:3.0 
1.0 0.0396064277656884 0.043481187480593486 8:2.0 12:5458.0 14:44.0 
1.0 0.039606455576506217 0.04348118748059343 4:15.0 9:8.0 12:962.0 14:37.0 
0.8263856092816058 0.024948612364439626 0.027552942738513105 12:1511.0 14:4.0 
1.0 0.03966834034297689 0.04296860487569054 4:6.0 5:36.0 12:1488.0 14:95.0 
1.0 0.03972927988475233 0.042968746890472864 5:18.0 12:1460.0 14:31.0 
0.9834758509057671 0.03177006944643784 0.03469322630523636 12:1940.0 14:13.0 
1.0 0.03960645557650627 0.04347829089789873 7:2762.0 12:4371.0 
1.0 0.03960617703771274 0.04347715996834195 1:7.0 4:3.0 12:5489.0 14:160.0 16:43.0 17:2.0 
1.0 0.03960617704948932 0.04347340250149734 4:94.0 5:12.0 8:2.0 12:2309.0 14:332.0 
1.0 0.039606176933798865 0.043930112414129974 1:62.0 4:1427.0 5:175.0 8:13.0 12:862.0 14:243.0 
1.0 0.039606018142981536 0.04382297177942518 7:1439.0 12:1820.0 14:400.0 
1.0 0.039684076476146024 0.04296874762626274 3:12.0 12:2050.0 14:12.0 
1.0 0.0395991319534999 0.04382064718219392 8:51.0 12:3890.0 14:60.0 
1.0 0.03960403786551475 0.043556232658475136 3:347.0 5:300.0 12:6186.0 14:119.0 
1.0 0.03958223642050812 0.04355082318530218 12:9349.0 14:52.0 
1.0 0.03958223642050812 0.0435369534474519 1:9.0 7:563.0 12:4959.0 14:117.0 
1.0 0.03958223642050812 0.043521630200088424 7:3901.0 12:1110.0 
1.0 0.039582236440997065 0.04351418499077686 1:50.0 4:9.0 12:1603.0 14:288.0 
1.0 0.039649359782470195 0.04296860769141464 5:9.0 8:3.0 12:2919.0 14:155.0 
1.0 0.03293176885690574 0.12601039769460987 12:2984.0 
1.0 0.03958223636510816 0.04351418499077686 1:53.0 4:7.0 5:7.0 8:3.0 9:2.0 12:3353.0 14:122.0 
1.0 0.03958223638850061 0.04351418499077686 12:22508.0 14:169.0 16:35.0 
1.0 0.03958223638850061 0.04351418499077686 4:36.0 5:1.0 12:5098.0 14:21.0 
1.0 0.03958223639436953 0.043514184990813 1:59.0 3:134.0 4:1.0 8:11.0 12:1368.0 14:83.0 
1.0 0.03958223639436953 0.043514184990813 4:15.0 5:120.0 8:11.0 12:3209.0 14:364.0 
1.0 0.03958223639436953 0.043514184990813 1:136.0 8:7.0 12:13390.0 14:2109.0 
1.0 0.03958223639436953 0.043514184990813 5:41.0 12:4861.0 14:12.0 
1.0 0.03958223640856939 0.043514184990813 4:33.0 12:3611.0 14:59.0 
1.0 0.03958223622532908 0.043514184990813 3:2.0 4:3.0 12:1656.0 14:410.0 
1.0 0.03958223622972418 0.043514168448358315 4:44.0 12:1090.0 14:141.0 
1.0 0.0395822362360187 0.043514151739806606 1:2.0 4:4.0 8:2.0 12:3165.0 14:308.0 
1.0 0.0395822362360187 0.04365512712177244 12:2477.0 14:419.0 
1.0 0.0395822362360187 0.04365511955034762 3:135.0 12:5715.0 13:40.0 14:276.0 16:12.0 
1.0 0.0395822362360187 0.04365021075613884 8:48.0 12:13271.0 14:53.0 
1.0 0.03958223623877288 0.04360293883099048 12:3612.0 14:55.0 
1.0 0.03958223623877288 0.043585381450919336 4:6.0 12:3715.0 14:310.0 
1.0 0.03958223624737972 0.04357159196477417 1:118.0 3:4.0 4:8.0 12:3660.0 14:173.0 
1.0 0.039582236247400926 0.04355642714436431 1:7.0 3:339.0 5:232.0 12:2461.0 13:76080.0 14:1185.0 16:22.0 18:6.0 
1.0 0.039582236247400926 0.043489711780599516 8:2.0 12:2135.0 14:1201.0 
1.0 0.039582236247400926 0.043489711780599516 3:21.0 12:9955.0 14:6.0 16:13.0 
1.0 0.039582236260494286 0.043489711780599516 4:2.0 5:13.0 8:16.0 9:11.0 12:2065.0 14:134.0 
1.0 0.03958223630231855 0.043489711780599516 1:79.0 4:43.0 5:98.0 12:1557.0 14:224.0 
1.0 0.03958223630231855 0.043489711780599516 1:352.0 3:7.0 5:13.0 7:3868.0 12:3235.0 14:563.0 18:5.0 
1.0 0.03958223630231855 0.043489711780599516 1:14.0 4:13.0 5:171.0 8:19.0 9:10.0 12:6197.0 14:89.0 
1.0 0.03958223620804069 0.04347158479690982 3:53.0 5:249.0 8:20.0 12:2385.0 14:22.0 
1.0 0.039582236217404254 0.04346863361342301 2:3.0 8:2.0 12:10024.0 14:1.0 16:26.0 
1.0 0.03958114781146532 0.043397083368770906 5:49.0 8:2.0 12:6548.0 14:17.0 
1.0 0.03958223620130774 0.043396789603561636 4:17.0 5:40.0 8:2.0 12:1908.0 14:16.0 
1.0 0.03719285825592815 0.04120760425958544 8:32.0 12:2425.0 14:82.0 
1.0 0.03958223620130774 0.04336733447926705 3:69.0 9:4.0 12:6229.0 14:17.0 
1.0 0.03958223620130774 0.04336733447926705 4:129.0 5:157.0 7:44.0 8:12.0 9:13.0 12:5436.0 13:19.0 14:162.0 
1.0 0.03906249998873007 0.04336733447926722 1:1.0 3:198.0 5:6.0 8:12.0 12:18105.0 14:141.0 
1.0 0.039783885016251797 0.3303394274543695 12:2664.0 
1.0 0.03943732815254783 0.04280625641241469 1:1.0 4:3.0 12:2750.0 14:78.0 
1.0 0.0396962771251958 0.04296874999207895 3:16.0 12:4597.0 
1.0 0.03906249998873007 0.04336733447926722 7:923.0 8:2.0 12:828.0 14:14.0 
1.0 0.03906249998873007 0.04336733447926722 3:8.0 5:64.0 12:1642.0 14:15.0 
1.0 0.03906249998873007 0.04336733447926722 3:2.0 4:11.0 5:24.0 8:27.0 12:1201.0 13:164.0 14:9.0 20:10.0 
1.0 0.03906249998873007 0.04334181501304096 1:1.0 3:2.0 9:2.0 12:6107.0 13:1364.0 14:230.0 
1.0 0.03906249998873007 0.04331848581914677 3:24.0 8:2.0 12:2685.0 14:147.0 18:4.0 
1.0 0.03906249998873007 0.04331848581914677 12:5000.0 14:3094.0 
1.0 0.03906249998873007 0.04331848581911468 1:785.0 8:10.0 9:3.0 12:442.0 14:759.0 
1.0 0.039062499988730126 0.04331494242059036 5:504.0 8:19.0 12:1108.0 
1.0 0.039062499988730126 0.04330203913205338 12:8079.0 14:143.0 
1.0 0.039062499988730126 0.04330134423244758 4:5.0 5:604.0 12:956.0 
1.0 0.039062499988730126 0.04325809895705984 5:29.0 12:9478.0 14:28.0 
1.0 0.039062499988730126 0.0432627384560465 4:123.0 12:7534.0 14:399.0 16:37.0 
1.0 0.039781952988616254 0.04296874498974057 8:13.0 12:2135.0 14:45.0 
1.0 0.039062499988730126 0.043265561694893206 3:131.0 12:6928.0 
1.0 0.039062499988730126 0.043271960182459435 5:38.0 12:4640.0 14:129.0 
1.0 0.039062499988730126 0.04326619453070191 1:2.0 12:8026.0 14:33.0 
1.0 0.039062499988730126 0.04326619453070191 1:97.0 4:138.0 8:4.0 9:21.0 12:6183.0 13:20989.0 14:2256.0 16:46.0 
1.0 0.039062499988730126 0.043254547237894514 3:1007.0 7:1943.0 8:3.0 12:1507.0 14:47.0 
1.0 0.039062499988730126 0.04325261677629744 3:229.0 4:2.0 12:1180.0 
1.0 0.039062499988730126 0.04324351624818357 1:5178.0 4:160.0 12:2979.0 14:36.0 
1.0 0.039062499988730126 0.04321963855372574 1:4.0 3:194.0 4:2.0 5:266.0 12:2133.0 14:84.0 
1.0 0.039062499988730126 0.043219638368317326 5:213.0 12:16854.0 14:186.0 
1.0 0.03906249998932404 0.043219638368317326 3:149.0 4:1.0 12:5303.0 14:135.0 
1.0 0.03906249998932404 0.04318916457804606 12:17726.0 14:14.0 
1.0 0.03906249999584038 0.043186664654256246 1:37.0 7:1005.0 9:6.0 12:1125.0 14:27.0 
1.0 0.03906249999584038 0.04318379359907781 1:602.0 4:30.0 12:1326.0 14:188.0 
1.0 0.03906249999585376 0.043172685290075785 3:57.0 8:8.0 12:2016.0 14:16.0 
1.0 0.03906249999585376 0.043172685205123296 8:10.0 12:13756.0 14:156.0 
1.0 0.03906249999585387 0.04312091233702042 3:2.0 5:47.0 8:177.0 12:2110.0 14:55.0 
1.0 0.03906249999585387 0.0431159970303403 4:6.0 5:165.0 12:1629.0 14:51.0 
1.0 0.03906249999585387 0.04309082167512812 12:401.0 14:2733.0 
1.0 0.03964969972565385 0.043086575805516114 3:29.0 4:7.0 5:11.0 8:2.0 12:2244.0 14:7.0 
1.0 0.03906249999585387 0.04308020597627421 5:76.0 12:6172.0 14:204.0 16:23.0 
1.0 0.03906249999585404 0.04307857695219114 12:1397.0 14:420.0 
1.0 0.03906249999585404 0.04306966056350903 1:1.0 5:59.0 7:706.0 8:2.0 12:5936.0 14:10.0 
1.0 0.03906249999585404 0.04306319673150566 1:3.0 4:5.0 7:1703.0 9:34.0 12:4936.0 14:77.0 16:14.0 
1.0 0.03906249999585404 0.043053002399088436 3:1.0 4:30.0 12:3694.0 14:60.0 
1.0 0.03906249999585404 0.04304851076870825 1:2.0 5:63.0 8:25.0 12:1266.0 14:178.0 
1.0 0.03906249999585404 0.0429998536687593 3:5.0 12:11344.0 
1.0 0.03906249999585404 0.043039927980344006 7:182.0 12:22729.0 14:245.0 
1.0 0.039662303199953064 0.492983823892483 12:3069.0 
1.0 0.03906249999585404 0.04303992798034023 4:16.0 5:168.0 12:12321.0 14:282.0 
1.0 0.03906249999585415 0.0430394013937378 3:5.0 4:1.0 5:495.0 8:8.0 12:2925.0 14:139.0 18:10.0 
1.0 0.03906249999585415 0.04303187548870885 12:10238.0 14:18.0 
1.0 0.03906249999585415 0.04296915658063699 4:2.0 8:33.0 12:3884.0 
1.0 0.03906249999585415 0.04303187548870885 12:8114.0 14:54.0 
1.0 0.03906249999585415 0.043031522783162635 3:1.0 4:25.0 5:76.0 12:15161.0 13:1.0 14:269.0 16:18.0 
1.0 0.03906249999585415 0.043021321811811675 3:98.0 5:21.0 8:42.0 12:31243.0 14:519.0 18:36.0 
1.0 0.03906250000020489 0.043012732733326786 3:22.0 12:3653.0 
1.0 0.03906249999585415 0.0430099520648316 12:5291.0 14:206.0 
1.0 0.04003652007923836 0.042968697631063646 9:1.0 12:5650.0 14:56.0 
1.0 0.03906249999585415 0.0430094593630459 1:9.0 4:5.0 7:5345.0 12:1382.0 14:231.0 
1.0 0.03906249999585415 0.04300799703546465 3:266.0 4:102.0 5:196.0 8:2.0 9:11.0 12:1236.0 14:370.0 
1.0 0.03970836815774631 0.042967336035415526 5:9.0 12:1050.0 14:30.0 
1.0 0.03906249999585415 0.0430055900697664 5:189.0 12:6364.0 14:312.0 16:56.0 
1.0 0.03906249999585415 0.0430055900697664 5:1994.0 8:15.0 12:6363.0 14:242.0 16:4.0 18:113.0 
1.0 0.03906249999585415 0.04299429984344133 4:2.0 5:8.0 12:6149.0 14:321.0 
1.0 0.03906249999586142 0.043003498719058064 7:5293.0 12:2334.0 14:169.0 16:19.0 
1.0 0.03906249999586142 0.043000344342442154 3:578.0 12:2653.0 
1.0 0.03906249999594813 0.04300024206984254 5:20.0 12:4121.0 14:888.0 
1.0 0.039697437289103576 0.04296824140030381 3:139.0 12:2944.0 
1.0 0.03906249999594813 0.04299775128373362 1:58.0 3:7.0 4:1.0 8:22.0 9:13.0 12:2191.0 14:86.0 
1.0 0.03957153538392666 0.042939896941585176 5:4.0 12:2278.0 
1.0 0.03906249999594813 0.04299996455658944 1:58.0 3:133.0 4:1.0 8:2.0 12:1972.0 14:49.0 
1.0 0.03906249999594813 0.04299969439578094 4:3.0 7:6861.0 8:2.0 12:2173.0 13:1298.0 14:140.0 
1.0 0.03906249999605593 0.042998795068346696 3:5.0 12:5118.0 
1.0 0.03906249999605593 0.04299879505042653 5:7.0 8:3.0 12:2166.0 14:105.0 
1.0 0.03906249999605593 0.04299740161085558 5:15.0 8:2.0 12:4086.0 13:1101.0 14:154.0 16:32.0 
1.0 0.03906249999605593 0.042997005936870836 4:102.0 7:668.0 8:2.0 12:21458.0 13:108.0 14:117.0 
1.0 0.03906249999605593 0.042994835482222216 4:1.0 5:496.0 12:1998.0 
1.0 0.03966225061928025 0.04296844618557899 4:16.0 5:8.0 9:4.0 12:1312.0 14:89.0 
1.0 0.03906249999605593 0.042994835482222216 8:2.0 12:2569.0 14:224.0 18:118.0 
1.0 0.03906249999605693 0.04299413601690588 12:12480.0 14:3.0 
1.0 0.03906249999605693 0.042991961981734494 12:21894.0 16:8.0 
1.0 0.039062499996163624 0.04299178732148423 12:1548.0 14:155.0 
1.0 0.039062499996163624 0.04299072982956964 1:10.0 3:26.0 5:99.0 8:9.0 12:9135.0 14:276.0 
1.0 0.039062499996163624 0.04299040221251493 4:80.0 12:3437.0 14:702.0 
1.0 0.039062499996163624 0.04299040221251493 3:28.0 9:55.0 12:1296.0 14:60.0 
1.0 0.039062499996163624 0.04297380026394104 1:3.0 5:12.0 7:1706.0 12:2787.0 13:622.0 14:212.0 
1.0 0.039062499996163624 0.042974917787189815 1:23.0 7:2211.0 9:2.0 12:2030.0 14:1937.0 18:1.0 
1.0 0.039062499996163624 0.042974917787189815 4:90.0 9:4.0 12:8102.0 14:355.0 
1.0 0.039062499996163624 0.042974677194880295 1:4.0 3:29.0 4:12.0 5:173.0 9:5.0 12:14017.0 14:655.0 16:1.0 
1.0 0.039062499996163624 0.042974677194880295 3:2.0 5:2399.0 12:10146.0 13:4.0 14:572.0 18:109.0 
1.0 0.039418728893107324 0.04272174323698058 12:3963.0 
1.0 0.039062499996163624 0.04298949000974944 3:7.0 4:34.0 8:24.0 12:1511.0 14:158.0 
1.0 0.039062499996163624 0.042988527646505736 5:279.0 12:1358.0 14:92.0 18:6.0 
1.0 0.039062499996163624 0.04298839558635015 12:1022.0 14:512.0 18:26.0 
1.0 0.039062499996163624 0.04298831942033027 1:28.0 7:3378.0 9:22.0 12:5203.0 13:1682.0 14:168.0 
1.0 0.039062499996163624 0.04298831053552166 4:10.0 12:9463.0 14:51.0 
1.0 0.039062499996163624 0.04298813057976114 4:7.0 5:439.0 8:6.0 12:2931.0 14:239.0 
1.0 0.039062499996163624 0.04298746950872018 12:2.0 13:5560.0 
1.0 0.03972727875503862 0.042968745865411606 1:5.0 12:3274.0 14:125.0 
1.0 0.03906249999644751 0.04298666426969472 1:68.0 4:10.0 8:15.0 9:8.0 12:6079.0 14:68.0 18:9.0 
1.0 0.03906249999644751 0.04298887664806511 1:4.0 4:12.0 5:300.0 7:2234.0 9:9.0 12:14711.0 14:2.0 
1.0 0.03906249999931466 0.04298861252836372 5:75.0 12:2749.0 14:80.0 18:12.0 
1.0 0.03906249999931466 0.04298800914285267 1:10.0 4:1.0 8:57.0 12:8375.0 14:635.0 
1.0 0.039582234011471706 0.04296872507929783 4:18.0 12:1585.0 14:125.0 
1.0 0.03906249999931466 0.04298668079550111 3:669.0 4:6.0 5:264.0 12:3357.0 14:812.0 
1.0 0.03906249999931466 0.042986608611282506 4:36.0 5:33.0 12:2180.0 14:98.0 
1.0 0.03906249999931466 0.04298489949304102 1:3803.0 3:3.0 12:2000.0 
1.0 0.03978730542267778 0.04296872492025605 5:10.0 12:1790.0 
1.0 0.03906249999931466 0.04298489949304102 12:1659.0 14:160.0 
1.0 0.03906249999931466 0.04298489949304102 1:60.0 12:14085.0 14:420.0 
1.0 0.03906249999931466 0.04298658444566267 3:4575.0 12:36.0 
1.0 0.03906249999931466 0.04298658444566267 1:1995.0 4:1.0 7:483.0 8:17.0 12:384.0 14:129.0 
1.0 0.03906249999931466 0.04298658444566272 1:66.0 7:4334.0 12:426.0 14:144.0 
1.0 0.03906249999931466 0.04298658444565989 12:7424.0 
1.0 0.03906249999931466 0.042986584445659615 1:71.0 4:1517.0 8:54.0 12:269.0 14:130.0 
1.0 0.03906249999931466 0.0429865658663216 4:6.0 5:17.0 8:4.0 12:7334.0 14:186.0 16:91.0 
1.0 0.03906249999931466 0.0429865658663216 12:34108.0 16:28.0 
1.0 0.03906249999931466 0.0429865658663216 3:285.0 4:1.0 12:6025.0 14:47.0 
1.0 0.03906249999931466 0.0429865658663216 5:402.0 12:1363.0 14:74.0 
1.0 0.03906249999931466 0.0429865658663216 3:94.0 5:36.0 8:19.0 9:16.0 12:5724.0 
1.0 0.03906249999931466 0.0429865658663216 3:2.0 9:18.0 12:1602.0 14:159.0 
1.0 0.03906249999931466 0.0429865658663216 3:34.0 4:1.0 12:1077.0 14:16.0 
1.0 0.03906249999931466 0.0429865658663216 3:94.0 12:3173.0 
1.0 0.03906249999931466 0.04298654728700757 4:2.0 5:178.0 12:1005.0 14:136.0 
1.0 0.03906249999931466 0.04298654728700757 5:172.0 12:1781.0 14:35.0 18:3.0 
1.0 0.03906249999931466 0.04298159831836329 1:281.0 4:23.0 12:1487.0 14:485.0 
1.0 0.03906249999931466 0.042986750957824005 3:4.0 4:5.0 5:48.0 12:1425.0 14:167.0 
1.0 0.03906249999931466 0.042986750957824005 4:77.0 5:628.0 12:5354.0 13:831.0 14:67.0 
1.0 0.03906249999931466 0.04298509072954659 3:56.0 5:2.0 12:1684.0 
1.0 0.039654760891098734 0.042968469397722794 12:3169.0 
1.0 0.03906249999931466 0.04298509072954659 12:9230.0 14:118.0 
1.0 0.03906249999931466 0.04298442615424114 1:11.0 3:292.0 4:509.0 5:215.0 6:157.0 8:69.0 10:119.0 12:6132.0 14:526.0 
1.0 0.03906249999931466 0.04298442615424114 4:42.0 5:955.0 8:4.0 12:2510.0 14:104.0 
0.693024108176806 0.02153017122248826 0.8626764852551987 12:6157.0 
1.0 0.03906249999931466 0.042984413063464566 12:747.0 13:12707.0 14:178.0 16:30.0 18:19.0 
1.0 0.03906249999978301 0.042984127028959096 3:1305.0 4:56.0 5:211.0 12:10349.0 14:158.0 
1.0 0.03906249999978301 0.042982156960263085 5:44.0 12:6174.0 14:6.0 16:2.0 
1.0 0.03906249999978301 0.04298215684619899 12:3091.0 14:1170.0 
1.0 0.03906249999978301 0.04298215684619899 4:155.0 5:192.0 9:20.0 12:974.0 14:185.0 
1.0 0.03906249999978301 0.042981628047437714 7:1444.0 8:4.0 12:64.0 14:195.0 
1.0 0.03617361778557626 0.03987023646769272 8:6.0 12:1497.0 
1.0 0.03906249999978301 0.04298162804743766 3:9.0 12:20966.0 
1.0 0.03906249999978301 0.04298152205857675 1:189.0 3:44.0 4:7.0 8:2.0 12:811.0 14:151.0 20:460.0 
1.0 0.03906249999978301 0.04297680360446082 3:47.0 9:59.0 12:10283.0 14:225.0 
1.0 0.03971517059083152 0.20887953580350738 12:2644.0 
1.0 0.03906249999978301 0.042976868842303284 12:11447.0 14:19.0 
1.0 0.039784147081304844 0.042968743163744993 8:14.0 12:1423.0 14:26.0 
1.0 0.03906249999978301 0.04297714708831274 1:39.0 2:54.0 3:73.0 4:4.0 5:1.0 12:1096.0 14:196.0 
1.0 0.03906249999978301 0.042976737891813166 4:1964.0 7:1221.0 9:101.0 12:982.0 14:116.0 
1.0 0.03906249999978301 0.04297551956308221 9:52.0 12:6469.0 14:11.0 18:6.0 
1.0 0.03906249999978301 0.04297496109576521 1:23.0 4:2.0 5:566.0 12:11102.0 14:212.0 16:37.0 
1.0 0.03906249999978301 0.04297407697408373 5:129.0 12:7136.0 14:191.0 16:36.0 
1.0 0.03906249999978301 0.0429740420889288 3:177.0 4:137.0 5:8.0 12:6518.0 16:20.0 18:6.0 
1.0 0.03906249999978301 0.0429740420889288 3:274.0 5:221.0 12:3587.0 14:48.0 
1.0 0.03968814692776257 0.04296038189466783 12:1487.0 14:26.0 
1.0 0.03906249999978301 0.04297285748593249 1:2.0 12:6341.0 14:63.0 16:2.0 
1.0 0.03906249999978301 0.04297299842256802 1:22.0 4:8.0 7:849.0 8:10.0 12:1173.0 14:24.0 20:1.0 
1.0 0.038988118620448264 0.04241035903996426 4:2.0 12:1641.0 14:17.0 
1.0 0.03906249999978301 0.04297299842256802 1:22.0 3:146.0 7:1271.0 12:1336.0 14:287.0 
1.0 0.03906249999978301 0.04297299842256802 12:21353.0 14:283.0 
1.0 0.038328882458264324 0.04219482720365103 3:3.0 12:3129.0 
1.0 0.03906249999978301 0.04297299842256802 4:780.0 5:9.0 12:1740.0 14:289.0 
1.0 0.03906249999978301 0.04297299842256802 1:139.0 4:1332.0 8:2.0 12:5994.0 14:126.0 
1.0 0.03906249999978301 0.04297264761468356 4:5.0 8:44.0 9:6.0 12:2563.0 14:674.0 
1.0 0.03906249999978301 0.04297150217826401 12:2116.0 14:194.0 
1.0 0.03906249999978301 0.04297122352153143 1:112.0 4:1.0 5:27.0 8:25.0 12:951.0 14:260.0 
1.0 0.03906249999978301 0.042972045224330846 4:1599.0 12:735.0 14:38.0 
1.0 0.03906249999978301 0.042971744496507425 4:16.0 12:3956.0 14:57.0 
1.0 0.039643984290773426 0.042963663645405936 4:12.0 8:8.0 12:1384.0 14:39.0 
1.0 0.03906249999978301 0.04297130344989453 4:50.0 5:11.0 8:21.0 12:24857.0 13:4220.0 14:323.0 18:105.0 
1.0 0.03906249999993783 0.04297093635010463 3:1.0 4:18.0 5:101.0 12:5676.0 14:179.0 18:32.0 
1.0 0.03906249999993783 0.04297093635010463 3:44.0 4:1150.0 12:1317.0 14:217.0 
1.0 0.03906249999993783 0.042970724762741386 3:51.0 4:29.0 5:6.0 12:2057.0 14:227.0 
1.0 0.03906249999993783 0.04297061913739353 1:74.0 3:13.0 5:123.0 12:3021.0 14:165.0 
1.0 0.03906249999993783 0.0429706205093216 4:1.0 8:2.0 12:16141.0 14:2229.0 
1.0 0.03906249999993783 0.04297057174295449 12:5768.0 16:56.0 
1.0 0.03906249999993783 0.04297044110706483 4:4.0 12:1689.0 14:176.0 
1.0 0.039781638363907856 0.04388751682206776 12:1899.0 14:55.0 
1.0 0.113962385700697 0.04296870398367897 8:6.0 12:2535.0 
1.0 0.03906249999993783 0.04297044110706483 5:477.0 12:2438.0 14:160.0 
1.0 0.03906249999993783 0.042969912597252746 12:29840.0 14:5.0 16:2.0 
1.0 0.03906249999993783 0.042969779279929454 5:1226.0 12:4259.0 14:314.0 
1.0 0.03906249999993783 0.042969523909295426 3:2.0 4:38.0 5:134.0 8:3.0 12:3971.0 13:528.0 14:1663.0 
1.0 0.03906249999993783 0.04296925765114512 4:1.0 12:12687.0 14:98.0 
1.0 0.03906249999993783 0.04296900288000727 2:58.0 3:70.0 4:44.0 5:421.0 12:1336.0 14:110.0 
1.0 0.03906249999993783 0.04296900085527333 1:103.0 3:340.0 8:2.0 12:8091.0 14:93.0 
1.0 0.03906249999993783 0.04296899122803405 7:6.0 12:7522.0 14:30.0 
1.0 0.03961505002283394 0.04296864958558966 4:4.0 12:1714.0 14:285.0 
1.0 0.03970134144664934 0.042968749769218224 8:10.0 12:2548.0 14:105.0 18:3.0 
1.0 0.03906249999993783 0.042968918707464554 1:938.0 4:92.0 8:22.0 9:9.0 12:10276.0 
1.0 0.03906249999993783 0.04296865306373676 1:65.0 5:8.0 8:14.0 9:2.0 12:1274.0 14:129.0 
1.0 0.03906249999993783 0.042968628124522734 3:82.0 8:2.0 12:933.0 
1.0 0.03906249999993783 0.04296857559656647 1:2.0 4:3.0 7:1578.0 12:894.0 14:9.0 
1.0 0.03906249999993783 0.04296856734410798 3:123.0 12:2194.0 
1.0 0.03906249999993783 0.042968554956744176 8:9.0 12:834.0 14:602.0 
1.0 0.039705109967196006 0.0435723274326964 12:5794.0 14:41.0 
1.0 0.03906249999993783 0.042968467326619075 3:39.0 12:6884.0 14:70.0 
1.0 0.03906249999993783 0.04296846698419621 3:296.0 4:6.0 9:20.0 12:4831.0 14:98.0 
1.0 0.03906249999993783 0.04348118645378879 4:2.0 5:153.0 7:1.0 8:18.0 12:2719.0 14:50.0 
1.0 0.03906249999993783 0.043487029863981286 3:135.0 5:43.0 8:1.0 12:7613.0 14:410.0 
1.0 0.03906249999993783 0.04357337135403744 1:3.0 7:6259.0 12:280.0 14:37.0 16:2.0 18:1.0 
1.0 0.03906249999993783 0.0435733712998409 1:123.0 9:1.0 12:4877.0 14:143.0 
1.0 0.03906249999993783 0.043573371172480835 12:145.0 14:7422.0 
1.0 0.03906249999993783 0.043573371172480835 3:15514.0 4:5.0 12:595.0 
1.0 0.03906249999993783 0.0436319093274708 4:1.0 12:11619.0 14:60.0 
1.0 0.039062499999967526 0.0436319023623678 4:5.0 12:26059.0 
1.0 0.0656615850205935 0.042968743339746984 3:23.0 12:2182.0 
1.0 0.039062499999967526 0.04382950646362116 4:1409.0 8:20.0 12:309.0 14:181.0 
1.0 0.039062499999967526 0.04382950646362116 3:171.0 12:7025.0 14:53.0 
1.0 0.039688242682921926 0.042968749941317275 8:12.0 12:2082.0 13:10.0 14:169.0 
1.0 0.039062499999967526 0.0435733692778551 1:2.0 8:11.0 12:74.0 14:4714.0 
1.0 0.039062499999967526 0.04357339800936738 3:1028.0 12:8379.0 
1.0 0.039062499999967526 0.04363190470599371 4:14.0 12:1910.0 18:58.0 
1.0 0.039062499999967526 0.04363190391306354 1:1.0 3:9.0 4:1.0 5:384.0 8:210.0 12:1160.0 
1.0 0.039062499999967526 0.04348702741873056 4:7.0 5:73.0 12:4558.0 14:76.0 
1.0 0.039062499999967526 0.04347715996750634 12:14500.0 14:1614.0 
1.0 0.039062499999967526 0.043481187480593375 5:33.0 12:10841.0 13:167.0 14:286.0 16:4.0 
1.0 0.03968242020660501 0.04296779639372744 12:3385.0 14:54.0 18:2.0 
1.0 0.039062499999967526 0.04348702891938816 4:23.0 5:39.0 12:7009.0 
1.0 0.039062499999967526 0.04348821211280618 1:81.0 4:5.0 7:2038.0 12:816.0 
1.0 0.039062499999967526 0.04357336992553479 1:36.0 3:1.0 4:2.0 5:11.0 9:4.0 12:1360.0 14:94.0 
1.0 0.039062499999967526 0.04357336992553479 3:14.0 4:1269.0 9:57.0 12:3862.0 14:236.0 16:2.0 
1.0 0.03969969016405107 0.042968749453693396 8:6.0 12:1530.0 14:50.0 
1.0 0.039062499999967526 0.043573369903498416 1:1.0 8:16.0 12:1560.0 14:635.0 
1.0 0.039062499999967526 0.043573399882384234 3:15.0 5:134.0 7:2161.0 12:2905.0 14:100.0 16:21.0 
1.0 0.039062499999967526 0.043573399882384234 3:408.0 4:9.0 5:155.0 12:2234.0 14:252.0 18:2.0 
1.0 0.039062499999967526 0.0435733976014086 3:30.0 12:8753.0 14:61.0 
1.0 0.039062499999967526 0.043631906609690574 1:7.0 3:53.0 7:1512.0 8:17.0 12:841.0 14:97.0 
1.0 0.039062499999967526 0.04363190186527621 1:7.0 12:6388.0 
1.0 0.039062499999967526 0.04363189473912471 8:50.0 12:4713.0 14:142.0 
1.0 0.039062499999967526 0.04365917852786677 12:7867.0 14:28.0 16:28.0 
1.0 0.039062499999967526 0.04366039585977183 7:103.0 12:1271.0 14:310.0 
1.0 0.039062499999967526 0.04377917158707956 5:17.0 12:2850.0 14:65.0 
1.0 0.039062499999967526 0.04377917175752022 5:4.0 8:6.0 12:3042.0 14:251.0 18:10.0 
1.0 0.039062499999967526 0.04377917175752022 1:3.0 9:28.0 12:2255.0 14:127.0 
1.0 0.039062499999967526 0.04377917192816583 1:32.0 4:1.0 12:1677.0 14:314.0 
1.0 0.039062499999967526 0.04377917192816583 1:1.0 7:1069.0 12:4369.0 
1.0 0.039062499999967526 0.04377917192816583 3:181.0 12:23878.0 
1.0 0.039062499999967526 0.04377917192816583 12:3842.0 14:147.0 
1.0 0.03906249999999467 0.04376081180619401 1:22.0 8:78.0 12:4284.0 14:236.0 
1.0 0.03906249999999467 0.043488208516657856 3:265.0 4:22.0 5:15.0 12:1162.0 14:114.0 
1.0 0.03968824268292198 0.04296874994131733 12:2097.0 14:156.0 
1.0 0.03906249999999467 0.043488208516657856 1:98.0 9:1.0 12:535.0 13:4667.0 14:191.0 16:2.0 
1.0 0.03906249999999467 0.043488208516657856 5:9.0 8:4.0 12:3737.0 14:124.0 
1.0 0.03906249999999467 0.043488208516657856 4:1044.0 5:12.0 9:3.0 12:10072.0 14:36.0 16:4.0 
1.0 0.03906249999999467 0.043488208516657856 7:525.0 8:4.0 12:1175.0 14:266.0 
1.0 0.03969986384388696 0.0429687497692165 3:24.0 12:3166.0 
1.0 0.03906249999999467 0.043488208516657856 3:2.0 4:34.0 9:14.0 12:2322.0 14:203.0 
1.0 0.03906249999999467 0.043488208516657856 3:18.0 7:163.0 12:31804.0 14:130.0 16:20.0 
1.0 0.03906249999999468 0.04348820851665786 3:75.0 12:2129.0 
1.0 0.03906249999999467 0.04357336758625313 1:5.0 3:869.0 8:32.0 9:16.0 12:4326.0 14:398.0 
1.0 0.03906249999999467 0.043573365736987946 1:1.0 7:966.0 8:13.0 12:803.0 14:37.0 
1.0 0.03906249999999467 0.043573365736987946 8:4.0 12:37.0 14:7989.0 
1.0 0.43349154494807884 0.04053712549980254 12:1576.0 
1.0 0.03906249999999467 0.043573365736987946 4:1.0 12:3323.0 14:26.0 
1.0 0.03906249999999467 0.04357336527085193 1:69.0 4:77.0 5:24.0 9:2.0 12:4298.0 14:15.0 18:3.0 
1.0 0.03912708114009472 0.042494890219842374 5:1.0 12:3981.0 14:41.0 
1.0 0.03906249999999467 0.04357336527085193 1:7.0 3:1.0 12:6689.0 14:848.0 
1.0 0.03906249999999467 0.04357339970345936 5:99.0 9:1.0 12:562.0 14:818.0 
1.0 0.03906249999999467 0.04363189919495597 1:2.0 8:1.0 9:8.0 12:27133.0 14:51.0 
1.0 0.03973826434314448 0.042968747626209114 1:9.0 8:2.0 12:3631.0 14:9.0 
1.0 0.03906249999999467 0.04296854716090631 12:7455.0 13:38.0 14:34.0 16:12.0 
1.0 0.03906249999999467 0.04296854341205475 1:32.0 8:46.0 12:17656.0 14:306.0 
1.0 0.039699837870252996 0.04296874941168016 12:6796.0 14:22.0 16:6.0 
1.0 0.03906249999999467 0.04296858358211164 12:1068.0 14:125.0 
1.0 0.0396264033190441 0.04294879489629627 8:13.0 12:9319.0 14:42.0 
1.0 0.03971780540640907 0.04296874976921755 1:7.0 8:4.0 12:1909.0 14:23.0 
1.0 0.0397292800618837 0.04296874689089092 8:6.0 12:1360.0 14:41.0 
1.0 0.03975337601858467 0.04291958957088182 3:65.0 12:2286.0 
1.0 0.03906249999999467 0.04296858198678566 1:161.0 4:23.0 9:3.0 12:667.0 14:233.0 
1.0 0.03906249999999467 0.0429685792188127 1:8.0 9:15.0 12:1145.0 14:790.0 
1.0 0.03960631533498882 0.042968608311659384 1:2.0 12:3227.0 14:22.0 
1.0 0.03906249999999467 0.04296857910986229 5:223.0 12:2130.0 14:334.0 
1.0 0.03906249999999467 0.04296857910986229 3:2027.0 12:1721.0 
1.0 0.03906249999999467 0.04296857867117909 1:4.0 8:12.0 12:1717.0 14:311.0 18:18.0 
1.0 0.03906249999999467 0.042968573123431386 12:1874.0 14:83.0 
1.0 0.03967032344903293 0.04296860764393651 8:17.0 12:1586.0 
1.0 0.03906249999999467 0.042968570945471074 12:19809.0 
1.0 0.03906249999999467 0.042968570945471074 3:112.0 9:13.0 12:5190.0 14:151.0 16:14.0 
1.0 0.03906249999999467 0.04296856963940704 1:355.0 4:1.0 5:41.0 8:2.0 9:9.0 12:1331.0 14:458.0 
1.0 0.03934061411828804 0.04264470290313828 8:6.0 12:1434.0 
1.0 0.039667228029611534 0.04296853222210101 8:6.0 12:1750.0 14:43.0 
1.0 0.03906249999999467 0.042968567210242115 5:95.0 12:2844.0 14:263.0 
1.0 0.03906249999999467 0.04296856213406014 12:4853.0 
1.0 0.03906249999999467 0.04296856183104325 5:129.0 9:17.0 12:1085.0 14:277.0 
1.0 0.03906249999999678 0.042968559530457306 3:40.0 4:2.0 8:14.0 12:7614.0 14:64.0 
1.0 0.03932874227052552 0.042640188330751394 4:5.0 8:6.0 12:1720.0 14:38.0 
1.0 0.03993454443321587 0.042906301763523946 1:2.0 5:4.0 12:5391.0 
1.0 0.03906249999999678 0.04296854869192507 3:28.0 4:122.0 7:6164.0 8:2.0 12:501.0 14:122.0 
1.0 0.03906249999999678 0.04296857956683836 8:2.0 12:5901.0 14:671.0 
1.0 0.03906249999999678 0.04296857893727957 4:5.0 7:966.0 9:5.0 12:669.0 
1.0 0.03906249999999678 0.04296857808475335 5:48.0 12:9565.0 14:793.0 
1.0 0.03906249999999678 0.04296857689291805 5:537.0 12:3246.0 14:204.0 
1.0 0.03906249999999678 0.04296857510390695 7:3815.0 12:514.0 14:460.0 
1.0 0.03906249999999678 0.04296857464595716 1:8.0 7:1946.0 12:663.0 
1.0 0.03906249999999678 0.04296857464595716 4:66.0 5:74.0 8:4.0 12:2274.0 14:255.0 
1.0 0.03906249999999678 0.04296857464595716 5:152.0 12:1658.0 14:11.0 
1.0 0.03906249999999678 0.04296857189565201 4:15.0 5:36.0 7:69.0 8:145.0 9:103.0 12:1881.0 
1.0 0.03906249999999678 0.042968569435267834 12:1374.0 
1.0 0.03906249999999678 0.04296856898096846 4:4.0 5:490.0 12:2982.0 14:28.0 
1.0 0.03906249999999678 0.04296856738982152 1:107.0 4:24.0 8:14.0 12:6460.0 
1.0 0.03906249999999678 0.042968563951836125 5:171.0 8:24.0 12:1853.0 14:249.0 
1.0 0.03971942418478419 0.11436696109606248 12:1461.0 14:7.0 
1.0 0.03906249999999678 0.04296856355846668 8:33.0 12:1406.0 14:101.0 
1.0 0.03906249999999678 0.04296856342659566 1:136.0 8:6.0 9:3.0 12:2537.0 14:156.0 
1.0 0.03906249999999678 0.04296863174625626 4:13.0 12:6004.0 14:53.0 
1.0 0.03906249999999678 0.042968627998030307 3:20.0 8:21.0 12:1698.0 14:161.0 18:42.0 
1.0 0.03906250000000017 0.042968627979883045 8:11.0 12:5745.0 14:63.0 16:14.0 
1.0 0.03906249999999678 0.042968627285425054 4:12.0 12:4065.0 14:70.0 
1.0 0.03906249999999678 0.042968627285425054 1:19.0 8:41.0 9:2.0 12:1713.0 14:134.0 
1.0 0.03906249999999678 0.04296862728542272 8:48.0 12:3212.0 14:66.0 
1.0 0.03968819114419597 0.042964747552516 4:2.0 12:1957.0 14:20.0 
1.0 0.03906249999999678 0.04296862728542261 12:1570.0 14:319.0 
1.0 0.03906249999999678 0.042968626489141404 8:2.0 12:5797.0 
1.0 0.03906249999999678 0.042968626489141404 1:45.0 4:2.0 12:45221.0 14:34.0 
1.0 0.03906249999999678 0.04296862634799842 12:4928.0 14:126.0 
1.0 0.03906249999999678 0.04296862634394627 4:1.0 9:11.0 12:1205.0 14:178.0 
1.0 0.03525729584174064 0.03903134908956768 4:1.0 12:1661.0 14:112.0 
1.0 0.03906249999999678 0.04296862605449697 1:1.0 3:184.0 7:1000.0 12:1344.0 14:147.0 
1.0 0.03906249999999678 0.0429686257699996 2:2.0 4:50.0 5:2.0 7:1.0 8:21.0 12:1288.0 13:126.0 14:66.0 
1.0 0.039697615167261835 0.04296838516482554 12:1928.0 14:59.0 
1.0 0.03906249999999678 0.042968625586863374 1:78.0 3:17.0 4:71.0 12:5648.0 14:18.0 
1.0 0.039694146708050104 0.042968749937297934 3:3.0 5:1.0 8:9.0 12:2318.0 14:164.0 
1.0 0.0397382573054762 0.04296874762621272 12:1369.0 14:195.0 
1.0 0.039062499999997335 0.042968625586863374 3:14.0 4:57.0 5:182.0 12:5958.0 13:62.0 14:540.0 16:3.0 
1.0 0.039062499999997335 0.042968624083203455 1:10.0 5:50.0 12:5765.0 13:20.0 14:50.0 
1.0 0.039062499999997335 0.04296866214866363 3:21.0 4:21.0 5:10.0 12:2169.0 14:107.0 
1.0 0.039062499999997335 0.04296866214866363 1:134.0 4:138.0 5:70.0 12:8896.0 14:213.0 
1.0 0.039729280061823136 0.042968746890825915 3:145.0 12:2979.0 
1.0 0.039062499999997335 0.042968662088762544 3:51.0 4:15.0 7:11.0 12:2727.0 14:1189.0 
1.0 0.03972726600142318 0.04296874585550464 12:7621.0 14:38.0 16:17.0 
1.0 0.039062499999997335 0.04296866207019179 8:27.0 12:2947.0 
1.0 0.039062499999997335 0.04296866190479032 1:5.0 7:6605.0 12:844.0 
1.0 0.05801146547482011 0.0435730085912121 3:2.0 12:2131.0 
1.0 0.039062499999997335 0.04296866175679692 3:25.0 4:1.0 7:2202.0 12:684.0 
1.0 0.039062499999997335 0.04296866175679692 1:37.0 3:1.0 4:22.0 5:464.0 7:38.0 12:2125.0 14:4.0 
1.0 0.039062499999997335 0.042968661520449425 1:13.0 3:108.0 7:562.0 12:672.0 14:275.0 
1.0 0.039062499999997335 0.04296866145450828 4:39.0 5:34.0 8:23.0 12:3424.0 14:113.0 
1.0 0.039062499999997335 0.04296866131996868 3:871.0 12:2988.0 
1.0 0.039062499999997335 0.042968661208485304 1:107.0 12:699.0 14:128.0 18:47.0 
1.0 0.039062499999997335 0.042968661208485304 12:8273.0 14:86.0 
1.0 0.039062499999997335 0.042968661208485304 1:5.0 8:22.0 12:4048.0 14:140.0 
1.0 0.039062499999997335 0.04296866095212243 1:4.0 4:2.0 5:206.0 12:2482.0 14:132.0 
1.0 0.039062499999997335 0.04296866395025789 5:49.0 10:1.0 12:5313.0 13:618.0 14:246.0 16:19.0 
1.0 0.039062499999997335 0.04296868132032755 4:32.0 5:421.0 12:1166.0 14:296.0 18:6.0 
1.0 0.039062499999997335 0.042968708320395455 4:1.0 12:119066.0 14:31.0 
1.0 0.039062499999997335 0.04296870824175919 1:176.0 4:3.0 9:25.0 12:9798.0 14:2224.0 
1.0 0.039062499999997335 0.04296870815236359 4:4.0 5:18.0 12:16311.0 14:33.0 
1.0 0.039062499999997335 0.04296870799958252 1:5.0 8:31.0 9:6.0 12:1406.0 14:158.0 
1.0 0.03969159032482833 0.042961532266137026 4:1.0 12:1474.0 14:26.0 
1.0 0.039062499999997335 0.04296870799958252 1:323.0 8:5.0 12:1244.0 
1.0 0.039062499999997335 0.04296870799958252 4:3.0 12:175.0 14:107.0 20:3941.0 
1.0 0.039062499999997335 0.042968707993002064 5:298.0 9:19.0 12:1704.0 14:144.0 
1.0 0.039062499999997335 0.04296870794264579 8:4.0 12:7519.0 14:187.0 
1.0 0.039062499999997335 0.04296870787368223 3:130.0 8:26.0 12:2159.0 
1.0 0.039062499999997335 0.042968707865575606 3:7.0 5:37.0 12:13781.0 14:167.0 
1.0 0.039062499999997335 0.042968707834573516 1:228.0 9:13.0 12:2416.0 14:159.0 18:5.0 
1.0 0.039062499999997335 0.042968707796795735 4:3.0 5:61.0 8:664.0 12:27508.0 
1.0 0.0390625 0.04296870778058226 7:3626.0 12:3450.0 14:59.0 
1.0 0.0390625 0.04296870777549183 1:5.0 4:15.0 8:33.0 9:184.0 12:943.0 14:433.0 
1.0 0.0390625 0.04296870776269468 4:2.0 12:18674.0 14:227.0 
1.0 0.0390625 0.04296870774815553 3:67.0 4:3.0 5:15.0 7:621.0 12:5780.0 14:209.0 16:8.0 
1.0 0.0390625 0.04296871584965967 5:4.0 8:70.0 12:1928.0 14:556.0 
1.0 0.03960662327742215 0.042968646890065854 8:6.0 12:7158.0 14:9.0 18:5.0 
1.0 0.0390625 0.04296871584965967 8:426.0 12:22.0 14:1644.0 
1.0 0.0390625 0.04296871583681516 4:6.0 12:1197.0 14:910.0 
1.0 0.0390625 0.04296871583681522 4:1.0 8:1.0 12:6606.0 14:84.0 
1.0 0.0390625 0.04296874994131783 6:31.0 12:6174.0 14:7.0 
1.0 0.0390625 0.04296874994131783 4:17.0 5:80.0 7:1572.0 9:6.0 12:997.0 14:133.0 20:786.0 
1.0 0.0390625 0.04296874994131783 3:9.0 4:20.0 5:372.0 8:130.0 9:81.0 10:6.0 12:919.0 13:47.0 14:89.0 15:4.0 
1.0 0.0390625 0.04296874994131783 1:1.0 3:1933.0 4:6.0 12:1169.0 14:48.0 
1.0 0.03960617787969262 0.04296874644553539 4:2.0 5:13.0 9:15.0 12:2345.0 14:4.0 
1.0 0.0390625 0.04296874994131783 3:2.0 4:74.0 5:110.0 8:1.0 9:19.0 12:34928.0 13:4.0 14:314.0 16:6.0 18:10.0 20:47.0 
1.0 0.0390625 0.04296874994131783 4:23.0 8:20.0 9:129.0 12:2429.0 14:64.0 
1.0 0.0390625 0.04296874994131783 1:41.0 3:10.0 4:13.0 5:2.0 8:47.0 12:2267.0 14:255.0 20:150.0 
1.0 0.0390625 0.042968749954948815 12:6995.0 13:685.0 14:378.0 
1.0 0.0390625 0.042968743565843404 1:40.0 7:709.0 12:803.0 
1.0 0.0390625 0.04296874356624153 7:5184.0 12:582.0 13:1.0 14:153.0 16:20.0 
1.0 0.0390625 0.042968743566540124 5:1962.0 12:5295.0 14:223.0 
1.0 0.0390625 0.04296874499293801 4:5.0 5:80.0 8:2.0 9:4.0 12:896.0 
1.0 0.0390625 0.042968727686703845 3:60.0 12:2242.0 
1.0 0.0390625 0.042968727686703845 3:8.0 12:10626.0 13:1.0 14:353.0 
1.0 0.0390625 0.042968727686703845 8:14.0 12:4835.0 14:2144.0 
1.0 0.0390625 0.042968727686703845 3:58.0 4:1.0 8:323.0 12:2557.0 
1.0 0.0390625 0.042968727686703845 1:112.0 4:2060.0 8:26.0 12:93.0 14:182.0 20:11.0 
1.0 0.0390625 0.042968728498322395 1:68.0 5:132.0 8:7.0 9:19.0 12:3541.0 14:11.0 
1.0 0.0390625 0.042968728904127174 7:318.0 12:3267.0 14:35.0 
1.0 0.0390625 0.04296874192175876 4:3.0 9:6.0 12:1116.0 14:196.0 
1.0 0.0390625 0.042968715623899645 5:118.0 9:11.0 12:6246.0 13:1.0 14:217.0 16:5.0 
1.0 0.0390625 0.042968715623899645 12:5677.0 14:150.0 
1.0 0.0390625 0.042968715623899645 3:3203.0 8:5.0 12:669.0 
1.0 0.0390625 0.042968715623899645 5:32.0 12:2528.0 14:62.0 
1.0 0.0390625 0.04377917209901672 5:8.0 8:1.0 12:2753.0 14:242.0 
1.0 0.0390625 0.04297450530280206 9:2.0 12:2158.0 14:146.0 
1.0 0.0390625 0.04377917209901672 1:196.0 3:3.0 4:26.0 5:471.0 8:4.0 12:3234.0 14:350.0 
1.0 0.0390625 0.04377917209901672 5:270.0 8:32.0 9:6.0 12:1183.0 13:180.0 14:84.0 18:30.0 
1.0 0.0390625 0.04377917209901672 1:71.0 3:1.0 4:21.0 5:3.0 7:36.0 8:281.0 9:1.0 12:1486.0 
1.0 0.03906250000000001 0.04377917209901672 5:1.0 12:7698.0 13:22.0 14:10.0 
1.0 0.0390625 0.04377917209901672 2:10.0 4:37.0 9:233.0 12:5316.0 14:222.0 16:48.0 
1.0 0.0390625 0.04377917209901672 3:1.0 4:80.0 5:24.0 8:10.0 12:8831.0 14:357.0 18:5.0 
1.0 0.0390625 0.04377917209901672 3:178.0 12:2641.0 
1.0 0.0390625 0.04298652870772057 4:3.0 9:4.0 12:3270.0 14:67.0 
1.0 0.0390625 0.042986547287007515 4:37.0 5:35.0 8:6.0 12:2517.0 13:244.0 14:375.0 
1.0 0.039783369222256115 0.042968751153893925 4:19.0 12:1452.0 
1.0 0.0390625 0.04298656586632166 4:38.0 8:18.0 12:7562.0 13:11.0 14:233.0 
1.0 0.0390625 0.04298656586632166 8:2.0 12:6644.0 14:7.0 
1.0 0.0390625 0.04298658444565967 3:2.0 8:4.0 12:130.0 13:8099.0 14:40.0 
1.0 0.0390625 0.04298489949304096 12:3581.0 14:207.0 
1.0 0.0390625 0.04298489949304096 5:7.0 12:6306.0 14:37.0 16:2.0 
1.0 0.0390625 0.04298489949304096 3:2.0 12:4487.0 14:85.0 
1.0 0.0390625 0.043654821889062057 4:295.0 5:426.0 12:4612.0 14:179.0 
1.0 0.03906250000000001 0.04351415173980677 1:13.0 4:12.0 9:7.0 12:2509.0 14:80.0 
1.0 0.0390625 0.04351416832869209 4:3.0 5:35.0 12:3027.0 14:39.0 
1.0 0.0390625 0.04351416832869209 4:60.0 5:17.0 12:2090.0 14:46.0 
1.0 0.0390625 0.04351418499074078 7:410.0 12:147.0 14:10119.0 18:80.0 
1.0 0.0390625 0.04351418499074078 2:90.0 12:3553.0 13:216.0 14:17.0 
1.0 0.0390625 0.04351418499077686 1:7.0 3:1414.0 12:18526.0 14:1069.0 
1.0 0.0390625 0.04351418499077686 5:135.0 8:38.0 12:470.0 13:828.0 14:67.0 
1.0 0.0390625 0.04379751311340735 1:218.0 8:6.0 9:47.0 12:2210.0 14:39.0 
1.0 0.0390625 0.04297491778718987 3:160.0 8:57.0 12:9343.0 14:247.0 
1.0 0.0390625 0.04315380804424457 3:307.0 12:2620.0 14:156.0 
1.0 0.0390625 0.04315380804424457 12:1723.0 14:234.0 
1.0 0.0390625 0.043258098957058344 1:62.0 3:33.0 4:9.0 7:1656.0 9:1.0 12:659.0 14:103.0 
1.0 0.0390625 0.043258098957058344 5:3.0 7:7860.0 8:25.0 12:808.0 14:134.0 
1.0 0.0390625 0.043258098957058344 1:3.0 4:33.0 5:759.0 12:2010.0 14:115.0 
1.0 0.0390625 0.04325809895705984 5:186.0 7:43.0 12:4582.0 14:60.0 18:32.0 
1.0 0.0397382677722502 0.042968746889427145 3:9.0 8:2.0 12:6357.0 14:26.0 
1.0 0.0390625 0.04336733447926716 12:5740.0 14:964.0 
1.0 0.13987170073866123 1.0 12:2630.0 
1.0 0.0390625 0.04336733447926716 1:158.0 5:98.0 8:20.0 12:2365.0 14:319.0 
1.0 0.0390625 0.04336733447926716 4:2.0 7:1738.0 12:90.0 14:27.0 
1.0 0.03968840275943725 0.042968749954948204 5:25.0 12:5477.0 
1.0 0.0390625 0.04336733447926716 4:3.0 8:4.0 12:1269.0 14:465.0 
1.0 0.0390625 0.043801858513973 12:9850.0 16:26.0 
1.0 0.0390625 0.04369311224834321 12:1993.0 14:3799.0 
1.0 0.0390625 0.04369311224834321 3:13.0 4:8.0 5:410.0 12:1416.0 
1.0 0.0397830935364486 0.04296874584837185 1:3.0 3:1.0 8:20.0 12:4412.0 
1.0 0.0390625 0.04369311224834321 3:1.0 4:1.0 5:1506.0 12:12563.0 14:163.0 
1.0 0.0390625 0.04369311224834321 4:1.0 5:306.0 12:5222.0 
1.0 0.0390625 0.04371057836055242 12:6520.0 14:51.0 
1.0 0.0390625 0.04371389079474619 5:30.0 12:5037.0 14:45.0 
1.0 0.0390625 0.04372368688652295 8:2174.0 12:17.0 14:6.0 
1.0 0.0390625 0.043744887122223464 12:9396.0 14:5330.0 18:14.0 
1.0 0.0390625 0.0437791715870795 3:398.0 12:2695.0 
1.0 0.015755689659197325 0.01207387730419514 12:1910.0 
1.0 0.0390625 0.04377917175752016 4:28.0 5:580.0 12:1914.0 14:113.0 
1.0 0.0390625 0.04377917192816588 8:141.0 9:1.0 12:1319.0 
1.0 0.03958223435661984 0.04296871373414918 4:10.0 5:14.0 12:1380.0 14:227.0 
1.0 0.039699838404105736 0.042968749769152215 12:7123.0 14:47.0 
1.0 0.0390625 0.04377917192816588 1:1.0 4:7.0 9:3.0 12:5306.0 14:56.0 
1.0 0.0390625 0.04377917209901677 1:57.0 4:7.0 12:2938.0 14:135.0 
1.0 0.0390625 0.04377917209901677 3:39.0 7:3137.0 12:2341.0 14:97.0 16:46.0 
1.0 0.0390625 0.04377917209901677 1:5.0 8:33.0 12:1245.0 14:455.0 
1.0 0.0390625 0.04377917209901677 4:4.0 5:75.0 12:6284.0 13:495.0 14:83.0 
1.0 0.0390625 0.04394571383467921 12:3380.0 14:142.0 
1.0 0.0390625 0.04394571383467921 12:11881.0 14:187.0 16:12.0 
1.0 0.0390625 0.043945713867847014 4:1.0 12:4997.0 14:18.0 
1.0 0.0390625 0.043945713913548845 4:79.0 12:2663.0 13:3131.0 14:108.0 
1.0 0.0390625 0.0434136810638765 1:42.0 4:81.0 9:5.0 12:1985.0 14:134.0 18:4.0 
1.0 0.0390625 0.04345159188624642 12:5599.0 
1.0 0.0390625 0.04348971178059946 5:55.0 12:1210.0 14:184.0 
1.0 0.0390625 0.04348971178059946 4:30.0 5:123.0 12:1996.0 14:122.0 18:1.0 
1.0 0.0390625 0.043481186453788734 1:102.0 5:89.0 12:9735.0 14:488.0 16:50.0 18:16.0 
1.0 0.0390625 0.043487028919388326 8:36.0 12:16942.0 14:97.0 
1.0 0.0390625 0.043492871526310706 1:4.0 9:3.0 12:7203.0 14:17.0 
1.0 0.0390625 0.043492871526310706 12:9650.0 16:20.0 
1.0 0.0390625 0.04356128222947403 1:184.0 3:22.0 5:2.0 9:10.0 12:27286.0 13:79.0 14:258.0 16:41.0 
1.0 0.0390625 0.04356128222947403 5:70.0 12:8132.0 14:132.0 
1.0 0.0390625 0.04356128222947403 12:1609.0 14:387.0 
1.0 0.0390625 0.04356128222947403 1:131.0 12:2421.0 14:994.0 
1.0 0.0390625 0.043021917022634304 1:311.0 3:3.0 4:41.0 12:24191.0 13:1180.0 14:210.0 18:14.0 
1.0 0.0390625 0.04321536412200366 3:2.0 4:50.0 12:1693.0 14:124.0 
1.0 0.0390625 0.04334678594064606 3:223.0 12:5244.0 14:143.0 
1.0 0.0390625 0.04342620448474954 3:65.0 8:11.0 12:2620.0 14:26.0 
1.0 0.03907312249290473 0.04244777317044385 12:1571.0 14:19.0 
1.0 0.0390625 0.04342620448474954 1:70.0 4:20.0 12:1918.0 14:286.0 18:16.0 
1.0 0.0390625 0.04342620448474954 12:3406.0 14:3752.0 
1.0 0.0390625 0.04342620448474954 1:83.0 4:30.0 12:1756.0 14:28.0 
1.0 0.0390625 0.04342620448474954 4:101.0 12:673.0 13:575.0 14:153.0 
1.0 0.0390625 0.04342620448474954 5:763.0 12:4597.0 
1.0 0.0390625 0.04342620448474954 3:90.0 8:1.0 12:2063.0 14:106.0 
1.0 0.0390625 0.04342620448474954 5:337.0 12:3775.0 14:3854.0 
1.0 0.0390625 0.04367546471981165 5:13.0 12:6485.0 14:60.0 
1.0 0.0390625 0.04367546471981165 1:82.0 3:1.0 4:20.0 5:48.0 8:19.0 12:6731.0 13:118.0 14:157.0 
1.0 0.0390625 0.04386070035217143 1:93.0 4:15.0 12:16007.0 14:92.0 
1.0 0.039650250485994576 0.04386074154014763 12:2831.0 
1.0 0.0390625 0.043860782728266934 3:9.0 12:3630.0 14:139.0 
1.0 0.04003652076502939 0.042968698501666514 12:2348.0 14:109.0 
1.0 0.0390625 0.043860782728266934 1:187.0 4:1.0 8:2.0 9:7.0 12:1022.0 14:189.0 20:41.0 
1.0 0.0390625 0.0434882085166578 4:9.0 12:1322.0 14:172.0 
1.0 0.03970111031443002 0.04296874970287046 4:1.0 12:1905.0 14:85.0 
1.0 0.0390625 0.0434882085166578 5:35.0 7:1841.0 12:15228.0 14:1.0 
1.0 0.0390625 0.0434882085166578 5:68.0 12:1916.0 14:26.0 
1.0 0.0390625 0.0434882085166578 5:99.0 8:6.0 12:1559.0 13:407.0 14:181.0 
1.0 0.0390625 0.04357329682196498 4:2.0 5:129.0 8:2.0 9:18.0 12:9941.0 14:59.0 
1.0 0.0390625 0.04357333440953831 1:378.0 4:20.0 5:249.0 9:14.0 12:2549.0 14:708.0 20:4.0 
1.0 0.0390625 0.043573369925534844 1:61.0 5:93.0 12:1202.0 14:89.0 
1.0 0.0390625 0.043573369925534844 5:389.0 12:1082.0 14:83.0 
1.0 0.0390625 0.043573369925534844 3:17.0 5:35.0 12:3115.0 14:38.0 18:23.0 
1.0 0.03969785913929308 0.0429687499693599 12:4315.0 14:71.0 
1.0 0.0390625 0.043573369925534844 1:6.0 5:70.0 9:1.0 12:1719.0 14:54.0 18:4.0 
1.0 0.0390625 0.04296874999208078 3:26.0 12:4954.0 
1.0 0.0390625 0.04357336990349836 12:2801.0 14:1054.0 
1.0 0.0390625 0.04357336990349836 1:1.0 5:998.0 12:8161.0 14:216.0 
1.0 0.0390625 0.043573369277855045 8:2.0 12:6527.0 14:97.0 
1.0 0.0390625 0.043573369277855045 3:14.0 12:1636.0 14:220.0 
1.0 0.0390625 0.04357336527085193 9:13.0 12:990.0 
1.0 0.0390625 0.04357336527085193 4:1.0 5:76.0 12:1743.0 14:133.0 
1.0 0.0390625 0.04357339925655512 5:68.0 12:6736.0 14:68.0 
1.0 0.0390625 0.04357339925655512 1:9.0 4:1.0 5:65.0 9:18.0 12:4347.0 14:149.0 
1.0 0.0390625 0.043573398980542466 3:1.0 4:733.0 12:696.0 14:250.0 
1.0 0.039783848083952855 0.042968726526904366 12:3927.0 
1.0 0.0390625 0.04357339800936744 1:18.0 4:7.0 8:490.0 12:942.0 
1.0 0.0390625 0.0436319011591938 4:1333.0 12:360.0 14:14.0 
1.0 0.0390625 0.0436319011591938 5:32.0 12:8201.0 14:104.0 
1.0 0.0390625 0.0436319011591938 4:310.0 5:110.0 9:2.0 12:2693.0 14:197.0 
1.0 0.0390625 0.043631899804213614 3:2.0 4:45.0 5:171.0 12:2238.0 14:413.0 
1.0 0.0390625 0.04363189954184177 4:14.0 5:95.0 12:1026.0 14:901.0 
1.0 0.0390625 0.04363189954184177 12:6085.0 14:387.0 16:7.0 
1.0 0.0390625 0.04363189954184177 4:44.0 7:2343.0 9:12.0 12:12383.0 13:77.0 14:177.0 16:1.0 20:703.0 
1.0 0.0390625 0.04363189954184177 3:939.0 4:1.0 12:3335.0 14:93.0 
1.0 0.0390625 0.043760811806193955 5:4.0 8:6.0 12:5518.0 14:222.0 
1.0 0.0390625 0.043794399795462124 1:132.0 3:2.0 4:1.0 9:15.0 12:1024.0 14:389.0 
1.0 0.039606743222161955 0.043806080692078586 1:4.0 12:5642.0 14:41.0 
1.0 0.0390625 0.0438177912651011 1:10.0 9:14.0 12:6120.0 14:175.0 
1.0 0.0390625 0.04381779122230034 1:28.0 4:64.0 12:2840.0 14:247.0 
1.0 0.0390625 0.04382541162773068 12:1527.0 14:199.0 
1.0 0.0390625 0.04380452439460014 3:4.0 12:4740.0 
1.0 0.0390625 0.04382950646362116 4:17.0 5:3469.0 9:63.0 12:3859.0 14:199.0 18:23.0 
1.0 0.0390625 0.04382950426630311 1:672.0 4:838.0 12:2782.0 14:437.0 18:9.0 
1.0 0.0390625 0.04382950426630311 3:1.0 4:23.0 5:228.0 12:1470.0 
1.0 0.0390625 0.04382950422933335 8:531.0 12:147.0 14:2200.0 
1.0 0.039699853415519015 0.04290115814750067 5:9.0 8:3.0 12:1858.0 14:54.0 
1.0 0.0390625 0.04389019280090478 1:29.0 3:38.0 5:7.0 8:14.0 12:1495.0 14:58.0 
1.0 0.0390625 0.04389019138886985 3:79.0 4:7.0 5:2.0 8:51.0 12:1273.0 14:185.0 
1.0 0.0390625 0.04379751311340724 12:3833.0 14:981.0 
1.0 0.0390625 0.04373174999871493 3:3.0 5:731.0 12:2103.0 14:38.0 
1.0 0.0390625 0.04371612486045623 7:271.0 12:1110.0 14:82.0 
1.0 0.0390625 0.04370297442698268 5:261.0 7:114.0 8:12.0 12:5219.0 14:23.0 
1.0 0.0390625 0.0435718081406864 1:7.0 7:58.0 12:1351.0 14:100.0 
1.0 0.0390625 0.043561282229473974 12:1539.0 14:4404.0 
1.0 0.03978195151982328 0.042968744908745915 12:6667.0 14:101.0 16:2.0 
1.0 0.0390625 0.043561282229473974 3:60.0 12:2674.0 14:279.0 
1.0 0.0397822456218464 0.04296874584286764 1:1.0 4:6.0 12:1398.0 14:24.0 
1.0 0.0390625 0.043561282229473974 12:8240.0 14:1483.0 
1.0 0.0390625 0.043561282229473974 4:29232.0 5:145.0 9:5.0 12:1005.0 14:38.0 
1.0 0.0390625 0.043561282229473974 1:83.0 4:5.0 9:5.0 12:5291.0 14:153.0 16:30.0 
1.0 0.0390625 0.043561282229473974 8:53.0 12:1531.0 
1.0 0.0390625 0.043561282229473974 1:83.0 4:3.0 8:14.0 9:11.0 12:1413.0 14:322.0 
1.0 0.0390625 0.043804524275374235 3:111.0 4:5.0 12:811.0 14:312.0 20:18.0 
1.0 0.039687339546918055 0.04296023676080163 5:8.0 12:1492.0 14:70.0 18:7.0 
1.0 0.03915149673108537 0.043801858513973 1:68.0 4:3.0 5:2.0 9:2.0 12:1541.0 14:63.0 
1.0 0.03969562768742774 0.043801858513973 1:18.0 5:105.0 7:980.0 12:2721.0 13:1577.0 14:113.0 16:4.0 
1.0 0.03969562768742768 0.04377390085795818 1:2.0 12:1981.0 14:214.0 
1.0 0.03958223644099701 0.04376605284059076 1:3.0 3:17.0 9:3.0 12:3108.0 13:5805.0 14:6.0 
1.0 0.03958223642084896 0.04375456289250845 5:22.0 8:14.0 12:1090.0 14:9.0 
1.0 0.03958223642084896 0.043735567784717266 1:43.0 3:3.0 7:1135.0 8:25.0 12:246.0 
1.0 0.03958223642084896 0.043709182934363766 4:16.0 12:2482.0 14:81.0 
1.0 0.03958223641748532 0.04354344026395379 11:2.0 12:1351.0 14:109.0 
1.0 0.03958223641748532 0.04351418499074072 4:3.0 9:26.0 12:594.0 14:67.0 18:1.0 20:342.0 
1.0 0.03958223640856934 0.04351418499077686 1:8.0 5:38.0 12:6911.0 14:436.0 18:15.0 
1.0 0.039582236394369585 0.04351418499077686 12:6365.0 14:3167.0 
1.0 0.035424871158937665 0.03934653755685691 4:3.0 5:14.0 12:1478.0 14:45.0 
1.0 0.03972729400481652 0.04296874762626969 4:6.0 5:21.0 12:1469.0 14:11.0 
1.0 0.039582236394369585 0.04351416842841488 5:222.0 12:10707.0 14:148.0 16:2.0 
1.0 0.03969628189114388 0.04351415173980472 4:1.0 12:2332.0 14:146.0 
1.0 0.03958223638850061 0.04351416832869209 1:66.0 4:3.0 7:7.0 8:178.0 9:5.0 12:1582.0 
1.0 0.039582236365448886 0.04351416832869209 4:1142.0 5:45.0 12:4991.0 14:57.0 16:4.0 
1.0 0.039582236365448886 0.04365511959260393 4:34.0 9:76.0 12:3134.0 14:127.0 
1.0 0.039582236365448886 0.04363887012661555 3:1.0 5:50.0 8:52.0 12:1429.0 14:101.0 
1.0 0.03958223636371866 0.04355302713517045 3:41.0 5:98.0 12:2644.0 14:43.0 
1.0 0.03958223631498664 0.04354323288423606 1:158.0 3:384.0 4:1.0 8:12.0 12:1264.0 14:139.0 
1.0 0.03990872938473 0.04345159188624642 1:78.0 4:6.0 5:129.0 12:1898.0 14:199.0 
1.0 0.03990872938473 0.04345159188624642 1:30.0 4:14.0 12:5165.0 14:65.0 18:11.0 
1.0 0.03993268060963617 0.04345159188624642 4:120.0 8:2.0 12:8247.0 14:563.0 18:12.0 
1.0 0.03987132946282512 0.04345159188624642 5:253.0 12:1294.0 14:116.0 
1.0 0.03988180478083381 0.043392260787616765 4:12.0 5:134.0 7:55.0 8:2.0 12:3061.0 14:91.0 
1.0 0.03973825695294103 0.04336733447926705 1:4.0 4:41.0 12:6060.0 14:20.0 
1.0 0.03973825695294103 0.04335978241601163 1:40.0 4:5.0 8:1.0 12:5680.0 13:58.0 14:52.0 16:5.0 
1.0 0.03973825695294103 0.04335978241601163 3:46.0 5:543.0 12:2253.0 14:57.0 
1.0 0.039651321230586734 0.04327529896767357 4:77.0 5:277.0 12:2063.0 14:453.0 
1.0 0.0396513253273455 0.04327526106945828 1:1921.0 12:6400.0 13:1.0 14:31.0 
1.0 0.039651325327345055 0.04327526106945828 4:2.0 5:17.0 7:2639.0 9:8.0 12:4909.0 16:5.0 
1.0 0.039651325327345055 0.04325810622035725 4:63.0 5:509.0 12:1659.0 14:284.0 
1.0 0.03964941751273032 0.043172685205123296 1:1.0 3:21.0 12:36.0 14:3795.0 
1.0 0.03964941751273032 0.04317114983906367 5:278.0 8:35.0 12:1196.0 
1.0 0.03964941751273032 0.04316909645122813 3:3.0 9:11.0 12:1252.0 14:9.0 20:1874.0 
1.0 0.039649438032749396 0.04316378347748878 3:65.0 12:6010.0 
1.0 0.03964944266067166 0.043163634258356454 8:24.0 12:1833.0 14:1339.0 
1.0 0.0379273885331775 0.5907702145738374 8:4.0 12:2099.0 
1.0 0.03964944266067166 0.043153808044244624 5:123.0 7:2126.0 9:2.0 12:8432.0 14:43.0 
1.0 0.039649486392165756 0.043153808044244624 3:522.0 7:4034.0 8:7.0 9:25.0 12:1610.0 14:122.0 16:8.0 
1.0 0.039649649186148495 0.043153808044244624 1:268.0 3:28.0 4:15.0 8:860.0 12:2075.0 14:350.0 
1.0 0.039756390165575806 0.04308597917785195 1:5.0 4:337.0 8:2.0 12:1339.0 14:302.0 
1.0 0.03989789402975896 0.04306391093878059 4:1.0 5:51.0 12:1330.0 14:155.0 18:2.0 
1.0 0.03966731386186473 0.04307508950907346 1:2.0 7:397.0 12:1353.0 18:1.0 
1.0 0.039668361404155694 0.043063191339374585 1:163.0 4:2.0 9:2.0 12:1255.0 14:174.0 20:82.0 
1.0 0.03966940871122204 0.043047653421056264 4:1.0 12:4231.0 13:1398.0 14:306.0 18:45.0 
1.0 0.03966940868285462 0.04303992798034023 4:1.0 12:1516.0 14:304.0 18:3.0 
1.0 0.03967045628362975 0.04302748920035432 1:2.0 12:19262.0 14:9.0 
1.0 0.03967045620326365 0.043022727025423646 3:542.0 4:13.0 12:3819.0 14:415.0 
1.0 0.03967045609823755 0.0430045866233813 4:267.0 12:942.0 
1.0 0.039670455183856146 0.04300458662326945 4:3.0 12:2754.0 14:627.0 18:23.0 
1.0 0.03965596484826339 0.04300458662326945 1:6.0 2:1.0 8:5.0 12:5115.0 14:985.0 
1.0 0.039654857324598 0.04300154983968307 3:7.0 5:134.0 8:26.0 12:1298.0 14:179.0 
1.0 0.03972728349827892 0.0430007225663151 5:45.0 12:6257.0 
1.0 0.03972728349827892 0.042997746487518584 1:131.0 4:14.0 9:7.0 12:842.0 14:499.0 
1.0 0.03972728349830107 0.042990297884782314 4:36.0 8:25.0 9:25.0 12:12067.0 14:166.0 
1.0 0.03972727875721804 0.04298922975549185 1:43.0 5:241.0 9:12.0 12:3425.0 14:387.0 
1.0 0.03972727735415987 0.04298728501478505 1:39.0 3:3.0 4:2.0 7:370.0 12:1989.0 14:314.0 
1.0 0.03972727696348588 0.04298491066242749 4:3.0 5:41.0 12:6032.0 14:81.0 
1.0 0.03972726600433851 0.042984910638075746 12:2779.0 14:29.0 
1.0 0.03972726600743082 0.042984910638075746 12:16307.0 14:132.0 
1.0 0.03981028916314244 0.04298408463185249 1:4.0 7:1531.0 12:113.0 14:10.0 
1.0 0.03981028916314244 0.04297375490388122 4:8.0 5:38.0 8:2.0 12:3178.0 14:83.0 
1.0 0.03981028916314244 0.04297467719488024 4:17.0 5:61.0 8:21.0 12:3448.0 14:101.0 
1.0 0.03981028916314244 0.04297467719488024 1:63.0 4:6.0 5:2834.0 12:2733.0 14:70.0 
1.0 0.03966237937496092 0.04298666426969472 12:1996.0 14:189.0 
1.0 0.039681358040291936 0.04298666426969472 3:5.0 7:1783.0 8:8.0 12:592.0 13:2748.0 14:233.0 
1.0 0.03968135800051742 0.04298619011092675 3:118.0 8:2.0 12:1345.0 14:50.0 
1.0 0.039726649047235885 0.043474120769380786 8:16.0 12:1928.0 14:14.0 
1.0 0.027494438177395664 0.029943160239104538 12:1442.0 
1.0 0.039682226328990544 0.042984948633456754 3:4.0 5:637.0 8:35.0 12:2205.0 14:31.0 
1.0 0.039682216608780574 0.04298489949304102 12:3421.0 14:396.0 
1.0 0.03968229379927757 0.04298489949304102 3:3.0 4:341.0 5:19.0 9:23.0 12:5240.0 13:4.0 14:188.0 18:7.0 
1.0 0.039682235426778345 0.04298489949304102 4:23.0 12:6535.0 14:31.0 16:2.0 
1.0 0.03968398652362343 0.04298489949304102 1:1.0 4:1.0 5:4.0 8:2.0 12:12403.0 14:34.0 
1.0 0.03968398413377705 0.042986547287007515 12:8197.0 14:42.0 
1.0 0.0396891958946507 0.042986547287007515 1:3.0 3:99.0 9:2.0 12:3507.0 14:124.0 
1.0 0.039695627687427404 0.04298652870772052 4:21.0 7:140.0 12:886.0 14:70.0 20:321.0 
1.0 0.03958223630811397 0.04298652870772052 4:2.0 8:2.0 12:252.0 14:1228.0 
1.0 0.03958223630811397 0.04298652008487008 1:1.0 12:7735.0 14:41.0 
1.0 0.03958223630706542 0.04298652007449272 1:28.0 4:1.0 12:211.0 14:35.0 20:1160.0 
1.0 0.03693969933517194 0.040521899985365276 12:1611.0 14:15.0 
1.0 0.03958223630231844 0.042986181188013894 2:4.0 3:9.0 4:17.0 12:3532.0 14:462.0 
1.0 0.03958223630231844 0.042984445652230474 3:551.0 4:24.0 8:9.0 12:4091.0 
1.0 0.03958223624740087 0.04298152205857675 3:17.0 4:203.0 8:38.0 12:2262.0 14:103.0 
1.0 0.03958223624740087 0.04298074722222461 4:1.0 12:5964.0 14:403.0 16:6.0 
1.0 0.039582236247379665 0.04298027697810425 4:34.0 5:233.0 8:19.0 12:1438.0 
1.0 0.03973825696678451 0.04297997483470972 4:16.0 5:171.0 9:17.0 12:1645.0 14:48.0 
1.0 0.03973825695294103 0.04297997483470972 8:2.0 9:3.0 12:1822.0 13:1254.0 14:29.0 
1.0 0.03960687162023979 0.042978679382221274 3:88.0 4:12.0 12:1002.0 14:441.0 
1.0 0.03960672021547751 0.04297676787781113 8:22.0 12:2113.0 14:35.0 
1.0 0.03960657669332612 0.04297828234520551 4:7.0 5:401.0 7:455.0 12:1334.0 14:203.0 
1.0 0.05383051095275693 0.042941299892015505 3:5.0 12:2146.0 
1.0 0.039606573093763975 0.04297704611296599 1:3.0 3:588.0 9:5.0 12:9509.0 14:213.0 18:6.0 
1.0 0.039606417427899276 0.04297536463357582 1:18.0 3:167.0 4:2.0 5:279.0 12:839.0 14:132.0 
1.0 0.03960626077809176 0.04297376834681149 12:39269.0 16:6.0 
1.0 0.03960619513724073 0.04297376834681149 3:49.0 4:5.0 12:20264.0 13:1733.0 14:2080.0 18:36.0 
1.0 0.03961515778279234 0.04297260198929004 12:2521.0 14:62.0 
1.0 0.039649819719043466 0.042972460801695644 12:2893.0 14:264.0 
1.0 0.039649739774978765 0.042972460801695644 3:68.0 12:5603.0 
1.0 0.039649739774978765 0.04297226940606985 4:27.0 8:2.0 12:1887.0 14:195.0 
1.0 0.0394726247964326 0.11153563979534326 12:3053.0 14:2.0 
1.0 0.039649739774978765 0.04297132417205918 1:105.0 4:11.0 12:1271.0 14:103.0 
1.0 0.03964971813815016 0.04297087325825888 1:7.0 5:28.0 12:1601.0 14:152.0 
1.0 0.03964971813815016 0.042970724762741386 5:74.0 12:21300.0 14:1932.0 
1.0 0.03969977588454532 0.0429687494955347 12:1339.0 14:51.0 
1.0 0.03964968371481681 0.04297038181721741 5:11.0 9:9.0 12:2930.0 14:328.0 
1.0 0.03964964918614855 0.0429703147791225 1:123.0 8:9.0 12:2970.0 14:138.0 
1.0 0.03968528941467181 0.04296622503995112 1:9.0 4:3.0 9:5.0 12:2481.0 
1.0 0.03969185980551393 0.04296918909806108 1:43.0 4:4.0 8:12.0 12:1632.0 14:331.0 
1.0 0.039691378515894715 0.042969189098061134 1:7.0 5:67.0 12:2029.0 14:153.0 
1.0 0.03969414690328488 0.04296885200282119 3:4460.0 5:102.0 12:2394.0 14:148.0 
1.0 0.03969414670805216 0.04296885200282119 1:151.0 9:21.0 12:3194.0 18:1.0 
1.0 0.039699792399480224 0.04296874949554501 3:20.0 12:1522.0 14:119.0 
1.0 0.03969785913929841 0.04296845862890403 1:18.0 4:19.0 5:54.0 9:3.0 12:7501.0 13:173.0 14:25.0 16:8.0 
1.0 0.03969785883001625 0.04296845861739096 1:1.0 12:2637.0 14:1886.0 
1.0 0.039697786341607255 0.04296845861739096 4:200.0 12:1864.0 14:182.0 
1.0 0.039697779906443575 0.043488213803028364 3:27.0 5:281.0 8:2.0 12:925.0 14:174.0 
1.0 0.03978189679800381 0.0436319023623678 4:1267.0 12:317.0 
1.0 0.03978218553013507 0.043631899804213614 5:71.0 12:1274.0 14:187.0 
1.0 0.039670392734895255 0.04296849813448378 5:1.0 12:1705.0 14:54.0 
1.0 0.039782139265042704 0.043817791074933554 5:223.0 12:11583.0 16:10.0 
1.0 0.03978224564349658 0.04382541101229981 4:6191.0 9:3.0 12:57.0 13:32.0 14:7.0 
1.0 0.03978393474678682 0.04389019280090478 3:57.0 12:3106.0 14:60.0 
1.0 0.03978428575201476 0.04363190115919385 3:24.0 4:1.0 12:20885.0 14:11849.0 16:4.0 
1.0 0.03978423799622077 0.04363190115919385 7:1027.0 12:4505.0 16:11.0 
1.0 0.039783886361155596 0.043488213115800256 5:41.0 12:5239.0 14:613.0 
1.0 0.03972929497277461 0.04347715996834195 3:1.0 5:338.0 9:7.0 12:7664.0 14:422.0 18:34.0 
1.0 0.03972928991316155 0.04348702891938816 5:15.0 12:5844.0 14:170.0 16:4.0 
1.0 0.03972928991315883 0.0435733684850948 12:1777.0 14:344.0 
1.0 0.03972928931344788 0.04357336389972272 3:2.0 4:1.0 5:429.0 12:2811.0 14:155.0 
1.0 0.03967045609823755 0.04382541162773079 12:1769.0 14:1141.0 18:14.0 
1.0 0.03967045517004031 0.043829507669498946 4:30.0 5:666.0 12:3253.0 14:479.0 
1.0 0.039670454762699925 0.04382950674991215 3:17.0 4:32.0 5:4.0 12:1461.0 14:211.0 
1.0 0.039670454704059166 0.04382950426630311 1:68.0 5:9.0 8:210.0 9:6.0 12:1345.0 
1.0 0.03966836134705998 0.043787122668129896 1:35.0 7:785.0 9:5.0 12:16625.0 14:219.0 
1.0 0.039667313223613 0.04378905135095279 1:1.0 4:1.0 5:33.0 9:18.0 12:1285.0 14:146.0 
1.0 0.03968843436987829 0.042968749956906305 1:2.0 9:4.0 12:11174.0 14:24.0 
1.0 0.039666604572619446 0.043794399795462124 3:10.0 12:6787.0 14:58.0 
1.0 0.039576538372569914 0.043794399795462124 1:105.0 3:42210.0 4:3.0 5:501.0 9:24.0 12:4812.0 14:18.0 
1.0 0.03965850957296396 0.043488208516657856 3:11.0 5:144.0 12:1368.0 14:27.0 
1.0 0.03965780814921327 0.04349287152631065 1:21.0 3:69.0 8:35.0 12:1551.0 13:574.0 
1.0 0.03975652029415355 0.04349287152631065 5:284.0 9:7.0 12:1510.0 14:116.0 
1.0 0.039756390165575806 0.04349287152631065 12:4126.0 14:155.0 
1.0 0.03969777990643625 0.04381779122229551 12:2710.0 14:24.0 
1.0 0.03950406930488448 0.04357339657275783 9:11.0 12:9039.0 
1.0 0.03943353700600544 0.04363190196521838 4:2.0 5:762.0 12:5389.0 14:91.0 16:6.0 
1.0 0.03943123369548185 0.043631901687523844 3:415.0 4:66.0 8:24.0 12:14135.0 14:546.0 18:24.0 
1.0 0.039414537842911324 0.04296854250380322 7:4.0 12:2922.0 14:95.0 
1.0 0.03916966418311485 0.042968557701171084 3:424.0 4:2.0 5:171.0 12:936.0 14:52.0 
1.0 0.039157084847491086 0.04296855757186324 4:4.0 5:423.0 8:756.0 12:4634.0 14:165.0 
1.0 0.03906442893332157 0.04296855409042666 5:36.0 8:1.0 12:12387.0 14:55.0 
1.0 0.039984974916212834 0.04296855338313599 4:5.0 8:2.0 12:2213.0 14:118.0 
1.0 0.039694229701413064 0.04296855338313599 7:14979.0 12:1847.0 
1.0 0.039691378515894826 0.042968551458124005 3:1172.0 8:3.0 12:15744.0 14:109.0 
1.0 0.03968824268292254 0.042968550283748075 8:2.0 12:170.0 14:1893.0 
1.0 0.03968603957518968 0.04296854943025952 5:695.0 8:7.0 12:10352.0 
1.0 0.039706108075666824 0.05931524031256874 3:3.0 12:4328.0 18:7.0 
1.0 0.039681358000517475 0.04296856355846668 5:10.0 12:8144.0 14:29.0 
1.0 0.039681358040291936 0.042968562880569994 3:2.0 4:243.0 5:471.0 9:197.0 12:7466.0 13:136.0 14:241.0 16:16.0 18:24.0 
1.0 0.039784085125755375 0.04296856284920869 7:5141.0 12:2987.0 14:75.0 
1.0 0.03968847970833511 0.04296856284920869 4:1180.0 7:1363.0 12:745.0 14:48.0 
1.0 0.03971780540641506 0.04296856284920869 5:416.0 12:2966.0 14:284.0 
1.0 0.03978188252789466 0.04296856200696608 3:47.0 5:114.0 12:618.0 13:11220.0 14:26.0 18:10.0 
1.0 0.039781953035666895 0.04296856131821136 3:3335.0 12:9690.0 14:407.0 
1.0 0.039908729384446784 0.042968579771931914 12:6816.0 14:29.0 16:14.0 
1.0 0.03978195303508236 0.04296862880784119 12:3697.0 
1.0 0.03978192114405005 0.0429686279798831 4:3.0 5:176.0 12:10652.0 14:160.0 
1.0 0.0398713292977827 0.04296874347712609 3:14.0 12:1561.0 14:29.0 
1.0 0.03978196189936628 0.04296862728542261 1:761.0 4:2.0 12:389.0 14:832.0 
1.0 0.03968811407597039 0.04297093813903469 12:1756.0 
1.0 0.039781882525683876 0.0429686267332397 1:44.0 4:4.0 7:4434.0 9:5.0 12:3040.0 14:462.0 
1.0 0.039314283552355556 0.04263177402537932 12:5943.0 
1.0 0.03978388631432339 0.042968625468403854 7:2237.0 12:7593.0 
1.0 0.03960648747673218 0.04296862526721151 3:13.0 12:3055.0 14:205.0 
1.0 0.03961169630435041 0.0429686246482886 7:934.0 9:9.0 12:748.0 
1.0 0.03961169630435041 0.0429686246482886 4:3.0 5:383.0 12:6318.0 14:99.0 
1.0 0.03966649609770845 0.04296858615836008 12:1759.0 14:31.0 
1.0 0.03961169630435041 0.04296866065167193 5:147.0 12:1379.0 14:23.0 18:43.0 
1.0 0.03969986125662889 0.04296866065167193 8:26.0 9:7.0 12:1949.0 14:79.0 
1.0 0.03969983814008765 0.04296866044925929 3:758.0 12:6122.0 
1.0 0.03964941751298767 0.04296866044925929 1:7.0 3:1.0 5:609.0 7:1345.0 9:1.0 12:2146.0 14:120.0 18:11.0 
1.0 0.03964940636807163 0.04296866040235414 3:23.0 4:3.0 5:1312.0 8:1.0 9:58.0 12:2462.0 14:233.0 
1.0 0.039606160581440675 0.04296860831196769 12:3210.0 14:23.0 
1.0 0.03965134860662001 0.04296866036292357 3:1.0 12:37691.0 14:21.0 
1.0 0.03965132687223544 0.04296866036292357 3:3.0 4:508.0 5:438.0 12:8250.0 14:348.0 
1.0 0.039717805406414564 0.04296870774815553 7:1120.0 8:10.0 12:1032.0 14:41.0 
1.0 0.03972728349825949 0.04296870774692685 3:3.0 4:1.0 5:1095.0 8:8.0 12:3201.0 14:146.0 
1.0 0.039727266007429596 0.042968707712775556 3:231.0 5:98.0 12:1512.0 14:167.0 18:6.0 
1.0 0.03972729718248469 0.04296870770498251 4:4.0 5:185.0 7:11.0 12:3606.0 14:885.0 18:3.0 
1.0 0.03972928437195716 0.04296870770498251 3:14.0 4:73.0 5:248.0 12:5022.0 14:426.0 
1.0 0.039729280062860195 0.04296870766391514 5:157.0 9:6.0 12:3243.0 
1.0 0.03972928006285387 0.04296870766391514 4:3.0 12:3739.0 14:58.0 
1.0 0.03972927988613234 0.04296870765844424 4:165.0 5:15.0 12:5890.0 14:11.0 
0.7541075410946481 0.01903750667341847 0.019385839149469564 4:1.0 12:1510.0 
1.0 0.0396891625056256 0.04296871583681516 5:1445.0 12:2327.0 
1.0 0.03969185171183709 0.04296871580091138 4:11.0 8:26.0 9:32.0 12:1417.0 14:88.0 
1.0 0.03969785913929841 0.04296871577218797 9:29.0 12:1199.0 14:145.0 
1.0 0.03969785883001625 0.04296871577218797 8:3.0 12:17426.0 14:14.0 
1.0 0.03966237890946228 0.04296871575140282 3:1.0 4:25.0 5:36.0 12:14950.0 14:227.0 16:26.0 
1.0 0.039667313861864784 0.04296871574078509 5:2.0 8:4.0 12:2234.0 14:923.0 
1.0 0.03966940855476209 0.04296871574078509 4:4.0 12:2649.0 14:678.0 
1.0 0.03969962506819974 0.04296842790808181 12:1995.0 
1.0 0.03972928436879081 0.0429687458790097 5:8.0 12:4328.0 14:20.0 
1.0 0.03966940815830555 0.04296871571340638 12:7031.0 14:11.0 
1.0 0.03967045470405911 0.0429687278847648 1:64.0 4:6065.0 9:18.0 12:2922.0 14:78.0 16:10.0 
1.0 0.03967045462746277 0.0429687278805444 5:401.0 7:2458.0 8:22.0 12:6099.0 14:99.0 
1.0 0.0396547080862405 0.04296839734037872 4:15.0 12:2000.0 
1.0 0.03967045465418784 0.042968727854480526 4:2.0 5:258.0 12:1436.0 14:48.0 
1.0 0.03964938028844067 0.042968727854480526 3:43.0 4:20.0 8:18.0 12:1406.0 14:13.0 
1.0 0.03964940636807157 0.04296872785215505 4:48.0 5:20.0 8:4.0 12:2604.0 14:262.0 
1.0 0.039649649186148495 0.04296872784943573 3:1.0 4:4.0 5:350.0 12:4724.0 14:629.0 
1.0 0.0396496837148167 0.04296872784943573 12:4343.0 14:4211.0 
1.0 0.039606195137240674 0.04296872784209055 3:168.0 5:331.0 12:6147.0 14:141.0 16:45.0 
1.0 0.039606417427899165 0.04296874192175876 1:11.0 5:132.0 12:1730.0 14:35.0 
1.0 0.03960645557650638 0.04296874192175876 4:8.0 12:4069.0 14:197.0 
1.0 0.039606463389841695 0.04296874192175876 3:25.0 8:41.0 12:1291.0 13:243.0 17:281.0 
1.0 0.03960648743974454 0.04296874192175876 1:51.0 3:52.0 7:2497.0 8:295.0 12:1313.0 18:8.0 
1.0 0.03960650617539069 0.04296874192175876 1:12.0 4:2.0 9:27.0 12:2374.0 14:44.0 20:1.0 
1.0 0.03996658323459351 0.04348069271071857 4:1.0 12:2035.0 
1.0 0.03960657309376392 0.04296874192175876 5:109.0 12:7157.0 14:62.0 18:55.0 
1.0 0.03960657306737159 0.0429687419217587 1:2.0 3:13.0 12:5144.0 14:60.0 
1.0 0.039581047099612465 0.04296874192175876 9:25.0 12:7420.0 14:275.0 16:51.0 18:24.0 
1.0 0.03958223642050812 0.04296874365568881 4:17.0 5:3.0 8:6.0 9:29.0 12:2036.0 14:23.0 
1.0 0.03958223638850061 0.04296874365328601 8:2.0 12:1525.0 13:67.0 14:400.0 
1.0 0.039582236365448886 0.04296874363052888 4:48.0 8:4.0 12:12499.0 14:63.0 
1.0 0.0395822362013078 0.04296874362736508 4:3.0 5:131.0 8:89.0 12:17748.0 14:261.0 
1.0 0.039582236217404254 0.042968743627365136 3:133.0 9:24.0 12:10018.0 14:153.0 16:17.0 
1.0 0.03958223622439733 0.04296874361384939 4:7.0 12:2294.0 14:237.0 
1.0 0.0397838863143235 0.04296874361384939 5:957.0 9:5.0 12:7352.0 14:137.0 
1.0 0.039727283496577004 0.04296874644612597 4:5.0 12:2314.0 14:35.0 
1.0 0.03978413539712422 0.04296874356435049 12:6340.0 14:16.0 
1.0 0.03978414066872704 0.04296874499293807 1:36.0 4:1.0 12:5131.0 14:74.0 
1.0 0.03978495722112291 0.042968744863743136 8:20.0 12:1441.0 14:21.0 
1.0 0.03978464540767579 0.04296874499301029 12:7469.0 14:152.0 
1.0 0.03965454940638807 0.04296829079055253 5:47.0 12:1474.0 14:10.0 
1.0 0.03978469507534599 0.04296874499301029 12:13232.0 14:35.0 
1.0 0.03978528057790054 0.042968744993046426 1:1.0 2:5.0 3:9.0 4:114.0 9:1.0 12:1330.0 14:120.0 
1.0 0.03978722352418551 0.042968744991880636 2:8.0 3:269.0 4:28.0 8:2.0 9:13.0 12:7102.0 14:161.0 16:37.0 18:22.0 
1.0 0.039740308872004915 0.04296874499187592 3:78.0 12:1347.0 14:28.0 
1.0 0.039754063078006996 0.04296874499187592 1:24.0 4:1.0 12:6593.0 13:4.0 14:51.0 16:11.0 
1.0 0.03975607529259195 0.04296874556693042 3:1.0 4:5.0 5:1100.0 12:2576.0 14:154.0 
1.0 0.03976734997961351 0.04296874586412036 3:394.0 12:985.0 14:591.0 
1.0 0.03976991541083763 0.04296874586399213 5:372.0 12:1998.0 14:128.0 18:1.0 
1.0 0.03969398807722796 0.042981546153209316 3:12.0 12:2739.0 
1.0 0.03977830884224287 0.04296874586399213 4:3.0 12:6872.0 14:1035.0 
1.0 0.03977830884224287 0.04296874586312471 7:1915.0 12:368.0 
1.0 0.03977830884224287 0.04296874586312471 1:1307.0 5:1381.0 8:13.0 12:5411.0 14:1110.0 
1.0 0.039727265993323546 0.042968745862412616 1:2.0 3:159.0 4:9.0 5:193.0 7:46.0 12:16124.0 14:98.0 
1.0 0.039727272164568284 0.042968745862412616 1:3054.0 5:2.0 12:3264.0 
1.0 0.039727276963485825 0.04296874586241117 3:147.0 12:5592.0 14:97.0 
1.0 0.03972727875721799 0.04296874600364775 3:1.0 4:9927.0 5:415.0 8:8.0 9:13.0 12:1051.0 14:21.0 
1.0 0.03964762579072828 0.046400956606605925 5:7.0 12:2209.0 14:7.0 
1.0 0.03972728349828719 0.04296874644775578 8:2.0 12:850.0 14:633.0 
1.0 0.039727283498278865 0.04296874644771875 5:449.0 12:4464.0 14:19.0 
1.0 0.03972728349825949 0.04296874689188829 1:44.0 3:161.0 4:7.0 5:228.0 12:6711.0 14:37.0 
1.0 0.03972927315427016 0.04296874689187874 1:3.0 8:44.0 12:2190.0 14:71.0 
1.0 0.03972729400498337 0.04296874689187874 3:1.0 4:1.0 5:9.0 12:8679.0 14:350.0 16:1.0 18:14.0 
1.0 0.0397272842022926 0.04296874689185404 1:3.0 3:2.0 9:1.0 12:4461.0 14:48.0 
1.0 0.03992264611401142 0.0429583370924639 3:1.0 12:3465.0 14:121.0 
1.0 0.039699690163134405 0.04296874762656794 4:5.0 5:169.0 12:1158.0 14:103.0 18:1.0 
1.0 0.039699690164164525 0.042968747626567994 5:340.0 12:1745.0 14:367.0 
1.0 0.039699770952336955 0.04296874762655839 1:6.0 5:291.0 8:5.0 12:3072.0 14:32.0 
1.0 0.039699776107189444 0.042968747626558446 8:930.0 12:2054.0 14:4.0 
1.0 0.03969979237193999 0.042968747626558446 4:82.0 5:46.0 12:1056.0 14:288.0 
1.0 0.03969979552477765 0.042968747626553505 3:72.0 4:78.0 5:68.0 8:13.0 12:2439.0 13:4.0 14:31.0 
1.0 0.039699795531885795 0.04296874762655073 3:66.0 4:1.0 5:321.0 12:15765.0 14:377.0 
1.0 0.03969798785818601 0.042968749281894814 3:4.0 8:1.0 12:3769.0 14:402.0 
1.0 0.03969798794871182 0.04296874937022882 5:295.0 12:1367.0 14:28.0 
1.0 0.039694566953641375 0.042968749412020446 4:4.0 5:52.0 12:12436.0 14:330.0 
1.0 0.03969562768742774 0.04296874945381418 5:69.0 8:16.0 12:2688.0 14:9.0 
1.0 0.039695627687427515 0.04296874945380902 1:126.0 2:5.0 4:5.0 5:40.0 12:2908.0 14:50.0 
1.0 0.03969699178163266 0.042968749495596426 1:16.0 5:269.0 9:10.0 12:4815.0 14:621.0 
1.0 0.039694145083025656 0.0429687418660445 8:9.0 12:2039.0 14:91.0 
1.0 0.03968690031181388 0.042968749495594094 3:76.0 12:8498.0 
1.0 0.03968750077476618 0.042968749495594094 1:156.0 4:47.0 5:57.0 8:5.0 12:3748.0 13:1878.0 14:169.0 
1.0 0.039688434369878844 0.0429687496587326 1:3.0 3:155.0 5:32.0 7:5183.0 12:4685.0 14:154.0 16:20.0 
1.0 0.039649128706659056 0.042966193050600066 12:2490.0 
0.7552202587613228 0.025374200633649202 0.02651889975096129 12:1558.0 
1.0 0.03968847970833517 0.04296874973609166 12:4041.0 14:113.0 
1.0 0.03968847970833522 0.042968749769226655 4:169.0 5:306.0 12:827.0 14:147.0 
1.0 0.03968627763431026 0.04296874976917647 9:1.0 12:7144.0 14:37.0 
1.0 0.03968851418652408 0.042968749769226655 12:2718.0 14:75.0 
1.0 0.03968881051055362 0.04296874976922577 1:1.0 4:188.0 5:49.0 9:1.0 12:1164.0 14:35.0 18:9.0 
1.0 0.03938106991534179 0.04279298310392782 12:1747.0 14:19.0 
1.0 0.0395822362174042 0.04296874976922532 5:25.0 12:1740.0 
1.0 0.03968571959817868 0.04296874976922532 1:32.0 4:6.0 8:95.0 12:1710.0 
1.0 0.039683115065692 0.04296874976922477 1:1.0 4:1.0 5:949.0 9:171.0 12:4102.0 14:701.0 16:6.0 18:20.0 
1.0 0.03968306895029522 0.042968749814671026 4:47.0 12:3339.0 14:312.0 
1.0 0.039681385057920626 0.042968749814671026 3:17.0 5:163.0 7:128.0 12:1360.0 14:32.0 
1.0 0.039682158122212596 0.042968749814671026 5:200.0 9:9.0 12:1554.0 14:51.0 
1.0 0.03967045609823755 0.042968749814671026 4:1.0 5:1428.0 12:421.0 14:64.0 
1.0 0.03967045609823755 0.04296874981467097 1:5.0 12:8066.0 14:52.0 16:1.0 
1.0 0.03967045609823755 0.04296874981467086 3:71.0 4:16.0 5:372.0 12:6332.0 
1.0 0.03967045609823755 0.04296874981467086 3:5.0 12:4302.0 13:2742.0 14:287.0 16:8.0 
1.0 0.03967045465418789 0.04296874981467086 1:30.0 3:17.0 12:2092.0 
1.0 0.03966940868285462 0.042968749941317885 1:113.0 4:19.0 5:136.0 9:82.0 12:4297.0 14:269.0 18:13.0 
1.0 0.03966940813819436 0.042968749941317885 5:324.0 8:9.0 12:2691.0 14:339.0 
1.0 0.03966940815830555 0.042968749941317885 8:104.0 12:2245.0 
1.0 0.03966281205585964 0.042968749941317885 3:33.0 4:3.0 8:12.0 12:7087.0 14:194.0 
1.0 0.03966281207812533 0.042968749941317885 5:196.0 8:16.0 12:1624.0 14:127.0 
1.0 0.03966281217372375 0.042968749941317885 4:4.0 5:596.0 9:2.0 12:1309.0 14:86.0 
1.0 0.03966281217372375 0.042968749941317885 4:127.0 12:1616.0 14:185.0 
1.0 0.03965134124771019 0.042968749941317885 2:9.0 5:1522.0 8:633.0 9:9.0 12:6935.0 14:227.0 18:7.0 
1.0 0.03965134124771019 0.04296874995494887 4:194.0 5:6.0 8:2.0 12:5867.0 14:74.0 
1.0 0.03965134125429581 0.042968749967719655 5:24.0 12:5381.0 14:227.0 16:2.0 
1.0 0.039783847840065834 0.04296897074597783 4:17.0 12:3061.0 
1.0 0.03965134125429581 0.04296874996936523 5:8.0 12:7087.0 14:370.0 
1.0 0.03965134125429581 0.04296874996936523 4:143.0 5:246.0 7:45.0 8:22.0 12:3138.0 14:170.0 
1.0 0.03965134125429581 0.04296874996936523 4:10.0 7:5.0 8:40.0 12:2847.0 
1.0 0.03965134664875969 0.04296874996936523 3:58.0 4:203.0 5:187.0 9:11.0 12:1741.0 14:327.0 
1.0 0.03964933742069737 0.0429663021563243 8:13.0 12:1924.0 
1.0 0.03960656889297468 0.04296870346217352 3:17.0 12:3774.0 
1.0 0.03965131524928023 0.04296874996936223 5:17.0 12:1415.0 14:16.0 
1.0 0.03964968371481675 0.04296874996936523 1:4.0 11:1.0 12:5927.0 14:192.0 16:33.0 18:7.0 
1.0 0.03964968371481675 0.04296874996936523 12:6964.0 
1.0 0.03964968371481675 0.04296874996936523 3:92.0 12:2686.0 
1.0 0.03965676226252546 0.04296871691167581 3:14.0 12:3224.0 
1.0 0.03964971813815016 0.042968749980490606 12:7909.0 14:29.0 16:2.0 
1.0 0.03964971813815016 0.042968749980490606 5:86.0 8:32.0 12:5759.0 14:209.0 
1.0 0.03964971813815016 0.04296874999127326 1:51.0 3:18.0 4:21.0 12:2742.0 14:146.0 20:306.0 
1.0 0.03964971813815016 0.04296874999154249 5:56.0 12:2265.0 14:368.0 18:1.0 
1.0 0.03964971813815016 0.04296874999181166 4:65.0 12:2191.0 14:1534.0 
1.0 0.03964936803363944 0.04296874999181166 4:61.0 7:425.0 8:3.0 12:1033.0 14:30.0 20:23.0 
1.0 0.03958223334965172 0.042968712804739406 4:3.0 5:50.0 12:1981.0 14:25.0 
1.0 0.03964505906625054 0.042968749992081 8:115.0 12:2391.0 14:63.0 
1.0 0.03961507218250171 0.042968749992081 7:1482.0 12:3660.0 14:2645.0 
1.0 0.03961507659003466 0.042968749992081 5:702.0 12:2818.0 14:32.0 
1.0 0.039614916778569986 0.042968749992081 3:367.0 12:5211.0 14:66.0 
1.0 0.03961492923852983 0.042968749993261945 5:34.0 8:41.0 12:3682.0 
1.0 0.039614929248560304 0.042968749993261945 4:188.0 7:6842.0 12:1050.0 14:8.0 
1.0 0.03961492925036614 0.042968749993261945 5:108.0 8:1.0 12:6458.0 14:136.0 
1.0 0.039606871620239736 0.042968749993261945 3:1801.0 
1.0 0.0396067522951587 0.042968749997356115 5:177.0 12:1204.0 14:65.0 
1.0 0.03960657669332607 0.04296874999735628 1:16.0 3:90.0 4:18.0 5:189.0 12:3199.0 14:279.0 
1.0 0.03960663685124721 0.04296874999735645 4:1.0 9:4.0 12:6726.0 14:82.0 16:14.0 
1.0 0.039544875121970635 0.04274343028502792 9:1.0 12:1431.0 14:8.0 
1.0 0.039606720215480395 0.04296874999735645 5:41.0 8:14.0 12:4064.0 
1.0 0.03960646331048617 0.0429687499973565 3:165.0 5:1119.0 12:6317.0 14:112.0 
1.0 0.03960646338984175 0.0429687499973565 3:87.0 4:124.0 5:98.0 12:4491.0 14:15.0 
1.0 0.03960646338984175 0.0429687499973565 3:579.0 5:496.0 12:8312.0 14:521.0 
1.0 0.03970037115846681 0.04296874981463178 12:9497.0 14:1.0 
1.0 0.03960646340246554 0.0429687499973565 3:44.0 9:5.0 12:1566.0 14:79.0 18:2356.0 
1.0 0.03960617717686993 0.04375456289250845 5:1.0 12:11357.0 14:7570.0 16:6.0 
1.0 0.03960403786551475 0.043709182934363766 4:64.0 5:14.0 12:1920.0 13:6.0 14:20.0 
1.0 0.03958223644099712 0.04382950422971282 5:3.0 8:3.0 12:2186.0 14:70.0 18:16.0 
1.0 0.03958223640856934 0.0437091828573794 5:2.0 8:226.0 12:7682.0 16:8.0 
1.0 0.03958223641748526 0.04366071107021696 4:11827.0 9:5.0 12:110.0 14:40.0 
1.0 0.039722850155575 0.042919600037504224 3:56.0 12:2279.0 
1.0 0.039582236302318496 0.04361583193074586 3:34.0 4:41.0 5:5.0 9:3.0 12:2880.0 14:117.0 
1.0 0.039582236307065366 0.042968743591209946 12:1871.0 14:27.0 
1.0 0.039582236307065366 0.04359473926990848 1:69.0 4:7.0 9:10.0 12:1975.0 14:254.0 
1.0 0.03958223630811397 0.04355082318530218 4:92.0 5:137.0 12:26075.0 13:52.0 14:79.0 
1.0 0.039582236217404254 0.04343321802176453 1:20.0 5:193.0 9:22.0 12:5491.0 14:126.0 16:24.0 
1.0 0.03958223620130774 0.04335978241601168 3:1.0 12:6037.0 14:30.0 
1.0 0.6392243135259025 0.03853265562410002 12:1583.0 
1.0 0.03906249998873007 0.04331848581914671 5:449.0 12:6746.0 14:263.0 18:83.0 
1.0 0.03906249998873007 0.04331494242059036 5:374.0 12:13166.0 14:353.0 16:14.0 
1.0 0.039062499988730126 0.043219638368317326 4:5.0 7:3128.0 12:14.0 
1.0 0.039062499986948385 0.04296874585524321 8:8.0 12:4341.0 14:33.0 
1.0 0.039062499988730126 0.043186664654256246 4:39.0 5:53.0 12:2354.0 14:189.0 
1.0 0.039062499988730126 0.04318379359907776 3:132.0 4:28.0 7:188.0 8:1.0 12:1249.0 14:77.0 
1.0 0.03906249999584038 0.043172685290075785 4:1.0 5:64.0 8:204.0 12:2336.0 14:9.0 
1.0 0.03906249999585382 0.04303187548870879 3:51.0 4:1.0 12:17856.0 16:27.0 
1.0 0.03906249999585393 0.04300995206483155 5:372.0 12:1439.0 14:273.0 
1.0 0.03906249999585398 0.042997080097312956 12:13085.0 14:23.0 16:5.0 
1.0 0.036164929354496264 0.4033459956544861 3:4.0 12:2190.0 
1.0 0.03906249999585398 0.042994299843441275 12:10468.0 13:1.0 14:617.0 
1.0 0.03906249999585415 0.04299313613496175 3:154.0 7:1662.0 12:503.0 
1.0 0.03906249999585415 0.04300072256631504 5:661.0 12:5579.0 14:119.0 16:6.0 
1.0 0.03906249999585415 0.04300024206984254 3:1.0 4:2066.0 5:26.0 9:17.0 12:5753.0 14:528.0 
1.0 0.03906249999585415 0.042997746487518584 4:1.0 5:140.0 8:2.0 9:2.0 12:1218.0 14:65.0 
1.0 0.039062499995948186 0.04299774917186572 5:225.0 8:2.0 12:8927.0 14:472.0 
1.0 0.039062499996052824 0.042986584445654286 12:4307.0 14:94.0 
1.0 0.03906249999605588 0.04299775128373362 5:96.0 8:4.0 12:2558.0 14:154.0 18:5.0 
1.0 0.03906249999616368 0.04299879506834675 12:18288.0 14:5.0 
1.0 0.03906249999616368 0.04298489949304102 1:3.0 3:94.0 12:11365.0 14:22.0 
1.0 0.03906249999616368 0.04298489949304102 3:432.0 4:1.0 12:2419.0 14:230.0 18:3514.0 
1.0 0.03906249999616368 0.04298489949304102 1:68.0 4:8.0 5:52.0 9:13.0 12:2491.0 14:126.0 
1.0 0.039062499999314715 0.04298489949304102 4:29.0 12:1490.0 14:74.0 
1.0 0.039062499999314715 0.04298652008487014 3:31.0 4:1234.0 8:2.0 12:716.0 14:143.0 
1.0 0.039062499999314715 0.04298142117691023 5:437.0 8:6.0 12:803.0 14:207.0 
1.0 0.039062499999314715 0.042981130124125966 1:64.0 4:28.0 9:1.0 12:2715.0 14:468.0 18:1.0 
1.0 0.039062499999314715 0.04298159831836329 5:123.0 12:9588.0 14:498.0 
1.0 0.039062499999314715 0.04297997483470967 4:11.0 5:75.0 12:2190.0 14:97.0 
1.0 0.039062499999314715 0.042978282345205454 1:117.0 4:10.0 5:1.0 9:67.0 12:6048.0 13:115.0 14:201.0 16:13.0 
1.0 0.039062499999314715 0.04297735022517857 4:4.0 5:100.0 12:8932.0 14:94.0 
1.0 0.03906249999978301 0.04297734996777636 5:133.0 12:1405.0 14:38.0 
1.0 0.039738267774101756 0.04296874762630213 1:1.0 12:6104.0 16:2.0 
1.0 0.03906249999978301 0.042972478931180946 4:4.0 5:88.0 12:4098.0 
1.0 0.03906249999978301 0.0429726476146835 12:3468.0 
1.0 0.03906249999978301 0.04297260198928993 5:214.0 12:7685.0 14:91.0 
1.0 0.03906249999978301 0.04297246080169553 8:3.0 12:5083.0 14:391.0 18:51.0 
1.0 0.03906249999978301 0.04297044110706477 3:2.0 12:48527.0 
1.0 0.03906249999978301 0.04297038181721735 8:45.0 12:2048.0 
1.0 0.03964534414964932 0.042965080576693016 3:2.0 5:11.0 12:3989.0 14:55.0 
1.0 0.03906249999978301 0.04297031477912244 3:78.0 4:53.0 9:2.0 12:1904.0 14:477.0 
1.0 0.03906249999993783 0.042969966907653645 1:8.0 3:14.0 5:90.0 12:1588.0 14:227.0 
1.0 0.03906249999993783 0.04296991259725258 4:64.0 12:1221.0 14:112.0 
1.0 0.03973826777431499 0.043730340791638116 12:11378.0 
1.0 0.03906249999993783 0.04296925765114501 1:1022.0 12:1204.0 14:1302.0 18:1.0 
1.0 0.03906249999993783 0.04296918909806102 3:302.0 4:16.0 5:457.0 9:23.0 12:2028.0 14:315.0 
1.0 0.03906249999993783 0.04296900288000716 3:1.0 4:29.0 5:293.0 8:20.0 12:7731.0 14:125.0 
1.0 0.03906249999993783 0.043488213115800145 3:119.0 4:4.0 7:6326.0 8:24.0 12:4019.0 
1.0 0.03906249999993783 0.043478290897898675 12:13383.0 16:16.0 
1.0 0.03634320025614657 0.039776178684988506 4:1.0 12:1500.0 14:1.0 
1.0 0.03906249999993783 0.043481187480593375 3:24.0 4:105.0 5:414.0 12:972.0 14:249.0 
1.0 0.03906249999996758 0.043487028919388104 3:70.0 12:6944.0 
1.0 0.03906249999996758 0.04379508660023773 5:1217.0 8:8.0 12:1368.0 14:179.0 18:6.0 
1.0 0.03906249999996758 0.04380608733127195 7:2652.0 12:4220.0 14:558.0 18:29.0 
1.0 0.03906249999996758 0.04380608733127195 4:1.0 5:1.0 9:145.0 12:1148.0 14:271.0 
1.0 0.03906249999996758 0.04380608910172484 3:117.0 5:99.0 12:1880.0 14:241.0 
1.0 0.03906249999996758 0.043806090429559574 4:3.0 5:117.0 9:15.0 12:1518.0 14:18.0 
1.0 0.03906249999996758 0.043817791265101214 4:14.0 12:6459.0 14:401.0 16:1.0 
1.0 0.03906249999996758 0.04377917180108942 3:1.0 4:169.0 5:404.0 8:318.0 12:3416.0 13:2165.0 18:18.0 
1.0 0.039062499999994615 0.04371593488807857 12:7750.0 14:1549.0 
1.0 0.039062499999994615 0.042968561831043306 5:8.0 12:2631.0 14:121.0 
1.0 0.039062499999994615 0.04296855953045736 3:1668.0 4:3.0 12:1104.0 14:55.0 
1.0 0.039062499999994615 0.042968557701171084 1:90.0 5:1415.0 8:4.0 9:30.0 12:2958.0 14:500.0 
1.0 0.039062499999994615 0.04296855409042666 3:4.0 5:121.0 8:2.0 9:18.0 12:5382.0 13:341.0 14:340.0 
1.0 0.039062499999994615 0.04296855338313593 5:80.0 12:8426.0 14:18.0 
1.0 0.039062499999994615 0.042968550283748075 8:483.0 9:6.0 12:1114.0 14:31.0 
1.0 0.039062499999994615 0.04296854943025946 1:49.0 3:46.0 4:14.0 5:14.0 9:72.0 12:2581.0 14:31.0 
1.0 0.039062499999996725 0.04296854812507139 1:192.0 4:3.0 12:36099.0 14:605.0 
1.0 0.039062499999996725 0.042968627285425054 5:28.0 8:4.0 12:1539.0 
1.0 0.039062499999996725 0.04296862728542272 8:4.0 12:1021.0 14:7506.0 
1.0 0.039062499999996725 0.042968626733239756 5:255.0 7:21.0 12:1719.0 14:80.0 
1.0 0.03933709988043255 0.042651673296319755 3:9.0 12:3858.0 
1.0 0.039062499999996725 0.04296862648915378 3:7.0 4:49.0 12:6739.0 14:116.0 
1.0 0.039062499999996725 0.042968626489141515 12:14532.0 14:201.0 
1.0 0.039062499999996725 0.04296862634799853 3:593.0 12:7883.0 
1.0 0.039062499999996725 0.042968625586863374 5:56.0 8:10.0 12:5978.0 14:240.0 
1.0 0.039062499999997335 0.04296862464828871 1:114.0 4:2.0 5:38.0 9:11.0 12:5364.0 14:152.0 20:1009.0 
1.0 0.039062499999997335 0.04296862455130562 1:43.0 4:2.0 9:5.0 12:2749.0 14:73.0 
1.0 0.039062499999997335 0.042968707865575495 4:27.0 8:2.0 12:4701.0 14:7.0 
1.0 0.039062499999997335 0.04296870783457357 3:148.0 12:2445.0 
1.0 0.039697874296883505 0.04296874993772417 5:19.0 12:1453.0 14:127.0 
1.0 0.039062499999997335 0.06113155719529095 12:3249.0 
1.0 0.039062499999997335 0.042968707780582316 1:19.0 3:2.0 4:30.0 5:2433.0 9:23.0 12:5889.0 14:255.0 
1.0 0.039062499999997335 0.04296870777549183 4:195.0 5:31.0 8:4.0 12:2732.0 14:3.0 20:28.0 
1.0 0.039062499999997335 0.042968707762694736 1:56.0 3:77.0 4:7.0 5:27.0 7:2781.0 9:15.0 12:645.0 14:107.0 20:1520.0 
1.0 0.039062499999999944 0.04296870774815548 12:6485.0 14:3.0 
1.0 0.039062499999999944 0.042968707712775556 3:5.0 4:40.0 5:35.0 8:152.0 12:2597.0 14:38.0 
1.0 0.039062499999999944 0.042968707704982456 4:3.0 5:224.0 12:2122.0 14:196.0 
1.0 0.039062499999999944 0.042968707663915084 1:59.0 3:2.0 4:3.0 5:14.0 9:37.0 12:1104.0 14:215.0 
1.0 0.039062499999999944 0.042968727840380416 4:1.0 5:2124.0 12:1466.0 14:31.0 
1.0 0.039062499999999944 0.042968727837922494 4:22.0 5:361.0 8:3.0 12:1476.0 14:200.0 
1.0 0.039062499999999944 0.04296872780390665 4:76.0 8:11.0 12:1413.0 14:20.0 18:9.0 
1.0 0.039062499999999944 0.042968727797145945 12:9009.0 14:235.0 16:4.0 
1.0 0.0390625 0.042968727789810646 3:57.0 4:25.0 5:30.0 8:4.0 12:1683.0 13:4870.0 14:476.0 20:67.0 
1.0 0.0390625 0.0429687277794783 12:4108.0 14:79.0 
1.0 0.03311862456622955 0.019096087672536954 3:4.0 12:2988.0 
1.0 0.0390625 0.042968727698768305 7:255.0 8:419.0 12:879.0 
1.0 0.0390625 0.04296872769593635 12:3756.0 14:96.0 
1.0 0.0390625 0.04296874358858138 3:242.0 4:123.0 5:91.0 8:2.0 12:10324.0 14:40.0 18:4.0 
1.0 0.0390625 0.042968743587926406 3:48.0 5:33.0 9:4.0 12:13623.0 14:93.0 16:4.0 
1.0 0.0390625 0.04296874357780489 5:314.0 8:2.0 12:1199.0 14:159.0 
1.0 0.0390625 0.04296874357780489 4:50.0 5:34.0 9:12.0 12:2703.0 14:67.0 
1.0 0.0390625 0.042968743569784085 8:4.0 12:9839.0 14:218.0 
