svm_type c_svc
kernel_type rbf
gamma 0.05
nr_class 5
total_sv 69
rho -0.998081773519516 1.0120288729667664 -1.0005328059196472 0.9001522362232208 1.0079551769468815 0.9966133534908295 0.9979294240474701 -1.0009135587501246 -0.13646063208580017 1.0000070333480835
label 0 1 3 4 7
nr_sv 21 1 22 3 22
SV
0.0 1.0 0.0 1.0 3:8.026366699753624E-5 5:0.001197398729173232 12:0.0 14:0.0013789792160674487 16:0.001227246834893417 18:7.652539292870788E-5 
0.0 1.0 0.0 1.0 3:2.6141868065836466E-4 4:1.2799325571538227E-4 12:0.0 14:7.820871623075593E-4 18:0.002492431258703871 
0.0 1.0 0.0 1.0 3:0.0020215298235444746 5:2.6926625220771293E-4 8:0.0013144101212773866 12:0.0 14:0.0011604619139126153 18:0.0014160322496647529 
0.0 1.0 0.0 1.0 1:2.0759041736294895E-4 4:2.2425200944630686E-4 5:0.007117614102350871 7:0.20928823578890104 9:5.547936911146279E-4 12:0.0 14:8.274544231373906E-6 
0.0 1.0 0.0 1.0 3:3.692678176417225E-4 7:0.008207550768753262 12:0.0 14:2.890824744882171E-4 16:0.0015683821189352856 
0.0 1.0 0.0 1.0 1:0.005915396229821077 3:5.20170857020795E-4 5:2.9394216286685373E-5 9:3.8186311491013135E-4 12:0.0 13:0.005386118002089187 14:6.612299227958332E-4 16:0.0037056135411222325 
0.0 1.0 0.0 1.0 4:0.3101170682870504 5:0.0019529594590513958 9:1.7497300525758886E-4 12:0.0 14:8.925030834253121E-5 
0.0 1.0 0.0 1.0 1:0.0019742709568977704 3:0.5837005851363409 4:2.0311710544525265E-5 5:0.0043064663309544835 9:5.360069156087991E-4 12:0.0 14:2.6980919004019273E-5 
0.0 1.0 0.0 1.0 3:5.764652228788597E-5 4:0.28018288431228644 5:0.01487064351520309 8:6.996657683489732E-4 9:0.0012103217541886643 12:0.0 14:1.3122055295776896E-4 
0.0 1.0 0.0 1.0 3:0.0010639082979547183 4:3.360647532542569E-5 5:0.0011733126299597815 9:1.6628310744845045E-4 12:0.0 14:1.116023176357099E-4 
0.0 1.0 0.0 1.0 4:0.0034899589180482447 7:0.012941891825456507 12:0.0 14:0.001931609409278156 16:0.0016796253963114443 17:2.8929070063831455E-4 
0.0 1.0 1.0 1.0 4:0.0016959158477522845 7:9.579492193752475E-4 12:0.0 14:0.030904032081081598 20:0.005486169081575832 
0.0 1.0 0.0 1.0 1:0.009047429873743636 4:0.004933875657696579 7:1.1185064827246 11:1.874647112111561E-4 12:0.0 13:0.10347692673238698 14:0.0025056497872385747 
0.0 1.0 0.0 1.0 1:0.009484210045729174 3:0.026690339819291205 4:0.007620568022999631 7:0.500879656534395 9:0.016944504558641302 12:0.0 14:0.001355945713896946 18:0.005496163998075745 
0.0 1.0 0.0 1.0 4:2.1772235565804453E-5 5:3.4551835518775785E-4 9:5.386394959489519E-4 12:0.0 14:3.133108032943965E-5 
1.0 1.0 0.018041495439510835 1.0 1:2.705957321056613E-4 3:0.0015920923235748692 4:9.548932090134336E-4 5:0.013978650886177906 12:0.0 13:0.1086885194016673 14:0.001151937655209366 18:7.589703735071451E-4 
0.0 1.0 0.9819585045604892 1.0 5:0.005210107936256693 12:0.0 14:7.783119965076332E-4 16:0.0019683212606980633 18:7.091375216020176E-4 
0.0 1.0 0.0 1.0 3:4.339140583717922E-5 4:8.497950168184059E-5 5:0.004477342966889029 9:0.006096875805854094 12:0.0 14:0.0027232765185060213 
0.0 1.0 0.0 1.0 1:2.0775400319223415E-4 4:3.2916212996741864E-4 9:2.961231364184197E-4 12:0.0 14:1.1924733246916153E-4 
0.0 1.0 0.0 1.0 3:0.0017693445288372409 5:8.302550285481041E-4 9:9.805385097747633E-5 12:0.0 14:5.076746247202085E-5 18:1.653860239760929E-5 
0.0 1.0 1.0 1.0 4:0.006362084459630394 5:0.023087442375626887 9:0.10177845637437136 12:0.0 14:0.002986272583299184 18:9.570885429962745E-4 
-1.0 1.0 1.0 1.0 1:1.9381090209150562E-4 3:0.0014253959543443545 4:0.0023030317718228505 8:0.14748485431632705 9:0.018877033607217108 11:0.09517856985336488 12:0.0 13:0.1981107292746051 
-1.0 -0.0 0.0 1.0 4:1.6576283497486187E-4 5:0.006481805101161961 12:0.0 14:0.0013945360678520502 18:6.45584752280138E-4 
-1.0 -0.0 0.0 1.0 3:1.7671302977651424E-4 4:6.921640320871732E-5 5:0.00898525548835825 12:0.0 14:9.92219571724418E-4 
-1.0 -0.0 0.7776918445433941 1.0 1:1.5218597999545221E-4 8:1.6980852561203008E-4 9:0.0014461266376807175 12:0.0 14:2.9117404678632953E-4 
-1.0 -0.0 0.0 1.0 1:0.0011566134479654368 4:2.3137877581580718E-4 7:1.2399602849207476 12:0.0 14:0.0023665979469355562 
-1.0 -0.0 0.0 1.0 1:0.07414463368593248 4:0.0026186201135979447 8:0.0019403693782016629 9:8.450085214225621E-4 12:0.0 
-0.26676943676312115 -0.045144839697913185 0.0 1.0 1:0.004619698104311357 2:0.00486125588525174 3:0.009739756757266226 4:4.990483646053013E-4 6:0.010370069577308747 8:0.16323030494109506 11:1.7122790338075737 12:0.0 15:0.03132809348273344 17:0.06710689453219655 19:0.004083138800125721 
-1.0 -0.0 0.0 1.0 1:0.0017753021602570434 7:0.07187671686929119 9:3.0124228638309987E-4 12:0.0 14:8.855541598058943E-4 
-1.0 -0.0 0.0 1.0 1:0.1269986641496358 5:0.061345557326607285 8:0.0014094567811504762 12:0.0 14:0.008598314365331275 
-1.0 -0.0 0.0 1.0 4:0.010188421428413912 5:4.0005021404427026E-4 8:3.254709456084794E-4 12:0.0 14:8.603910404618831E-4 
-1.0 -0.0 0.0 1.0 1:0.015267712255751732 4:9.645103608637413E-5 5:0.002326583181174641 9:0.00174986076601176 12:0.0 14:0.0016228541050778496 20:0.38538367014703073 
-1.0 -0.0 0.0 1.0 1:0.013490870178706439 3:5.941290815467411E-5 4:0.0013962799953700837 5:0.016212645430959523 9:0.008731856260482243 12:0.0 14:0.001545615659310996 
-1.0 -0.0 0.0 1.0 3:7.320071384457739E-5 4:0.0010035148771225216 5:0.00955527443294059 12:0.0 14:7.617211350528452E-4 
-1.0 -0.0 0.0 1.0 1:0.031070205274634784 4:4.3030714873090384E-5 7:0.9802197188648535 12:0.0 14:0.002800817945707325 18:6.703546885161362E-4 20:0.2746874662976586 
-1.0 -0.0 0.05168567308054164 1.0 3:1.962916864327122E-4 4:0.0011052237638901554 5:0.13281248215916125 12:0.0 14:0.0023511137472166225 
-1.0 -0.0 0.0 1.0 1:0.011985806631681292 3:0.004450314514083049 4:0.009595625967576097 5:0.009096870770116632 7:0.03234931587398301 12:0.0 14:0.002996396905911054 
-0.7332305632368789 -0.0695793629441476 0.002729760405163796 1.0 1:0.0015138919475987393 3:0.005901033327286944 4:5.4513324145085466E-5 8:0.24307512558945102 10:0.017841125868375253 11:0.23931717804766325 12:0.0 13:0.36118537516334703 15:1.1193840573283453 19:0.004014178509632127 
-1.0 -0.0 0.0 1.0 3:4.4210056703985513E-4 4:0.03463311239214586 5:0.022259461032391067 9:0.0026180436139301914 12:0.0 14:0.0033864536412685255 18:0.01629837767276479 
-1.0 -0.015645443590037555 0.0 1.0 1:0.02815589169914087 4:2.864005255217844E-4 8:0.0031948713195008747 12:0.0 14:0.0013949398470338875 
-1.0 -0.0 0.16789272197090044 1.0 1:0.010907314118647331 3:5.751523073193597E-4 4:1.9267398748368367E-4 5:0.3174147888935381 9:2.4444639934622747E-4 12:0.0 14:0.0020803096319533454 18:4.6178074373767454E-4 
-1.0 -0.0 0.0 1.0 3:6.550424398949382E-4 4:1.6035773400499347E-4 5:0.012079438424604981 12:0.0 14:2.662625966048296E-4 
-1.0 -0.8696303537679017 1.0 1.0 3:3.466672895096918E-4 4:1.6973184518652987E-4 8:0.001577835222207487 12:0.0 14:0.004659550324514979 
-1.0 -0.0 1.0 1.0 1:0.0018839897778749424 4:0.0026166886626940032 12:0.0 14:0.0013195394940405105 18:0.0011323368530009468 
-1.0 -0.0 -1.0 1.0 5:0.003916700303490378 8:3.414139668390023E-4 12:0.0 14:0.00515909570992445 18:0.0057930075098612185 
-1.0 -0.0 -1.0 1.0 3:1.1541415071503221E-4 4:2.2603178729905534E-4 5:0.02510936086107113 12:0.0 14:0.007868993057557639 
-1.0 -1.0 -1.0 1.0 5:0.02504670612319473 8:0.0180665428614824 12:0.0 14:0.006318887594304361 18:7.921125580591584E-4 
-1.0 -0.0 -1.0 -0.0 3:6.815317159973782E-5 4:6.006327985872965E-4 5:4.2363772278784326E-5 12:0.0 14:1.5513679764551287E-4 
-1.0 -0.0 -1.0 -0.0 1:0.004168519442434764 3:0.013320229191696162 8:0.006575859661649959 12:0.0 14:0.003586699122259686 18:0.10764626751566682 
-1.0 -0.0 -1.0 -0.0 1:9.374350786166215E-4 3:0.0017925524316033115 5:0.004242699451580778 8:9.413877789890937E-4 12:0.0 14:0.002062609711260409 
-1.0 -0.0 -1.0 -0.0 3:0.009440524693596058 4:0.0015061027153062717 5:0.011604524439013969 12:0.0 14:0.009554690115714004 
-1.0 -0.0 -1.0 -0.0 3:0.0073673973426635455 4:8.906550559134962E-5 5:0.005427612837783852 12:0.0 14:0.0036873140906901556 15:0.01474905870238093 18:0.001560946973890585 
-1.0 -0.0 -1.0 -1.0 1:9.670941844080524E-4 5:0.0021000433218613447 12:0.0 14:0.004201767807985872 18:0.002542985764612039 
-1.0 -0.0 -1.0 -1.0 5:0.02436784536874861 9:0.0021769515835592334 12:0.0 14:0.004590224811938777 19:8.099489165286019E-4 
-1.0 -0.0 -1.0 -0.0 4:9.243224291610853E-4 5:0.06540283831524268 9:0.04288926412856097 12:0.0 14:0.002510204156684744 
-1.0 -0.0 -1.0 -0.0 1:6.517513976053419E-4 8:2.424072263341874E-4 9:1.7203275763328943E-4 12:0.0 14:9.929666993802673E-4 
-1.0 -0.0 -1.0 -0.0 3:0.03438978182171849 8:4.922107361490438E-4 12:0.0 14:0.020056805671497733 18:0.0037118581583854855 
-1.0 -0.0 -1.0 -0.0 3:0.002352768125925282 4:2.303878602876881E-4 5:0.01948013249980624 12:0.0 14:0.018372247556294536 
-1.0 -0.0 -1.0 -0.0 4:2.945550212292855E-4 5:0.027523415784812287 7:0.028056053594056475 8:0.0010952789368733607 12:0.0 14:0.004682198954113902 
-0.9260511508112276 -0.0 -1.0 -0.0 4:0.005791926725277745 5:0.1480650890993136 12:0.0 14:0.005017066634983354 20:0.026721591781569465 
-1.0 -1.0 -1.0 -0.0 4:3.623726726585741E-4 5:0.017686712425800232 9:3.320372784233856E-4 12:0.0 13:0.13895862708901957 14:7.666027446472243E-4 
-1.0 -0.0 -1.0 -1.0 3:1.7862104691032012E-4 4:2.1863672171174627E-5 5:0.02467646547894285 12:0.0 14:5.856895374815111E-4 
-1.0 -0.0 -1.0 -0.0 5:0.01117554509415341 7:0.05049071168169586 9:1.920404633657567E-4 12:0.0 14:0.0012992070216442807 
-1.0 -0.0 -1.0 -0.0 3:8.831153769380628E-5 5:0.015150783163260538 9:0.0012836432194148497 12:0.0 14:5.743520212898463E-5 
-1.0 -0.0 -1.0 -0.0 3:6.822370163347448E-5 5:0.046945228144749836 8:0.0031051605583820464 12:0.0 14:0.006182313348760557 
-1.0 -0.0 -1.0 -0.0 1:0.011970708284351908 4:0.0011072843645387686 5:1.0041283245593746E-4 9:0.0037829712537099263 12:0.0 14:0.007984633074211748 18:9.240989681253745E-4 
-1.0 -0.0 -1.0 -0.0 3:4.7866809140262404E-4 5:0.0013761151263704111 12:0.0 14:0.0013555022211171098 18:0.0019395901891339658 
-0.07394884918877241 -0.0 -1.0 -0.0 5:6.882732267700789E-4 12:0.0 14:0.013379623664896548 18:0.002111392083694919 20:1.075051619387621 
-1.0 -0.0 -1.0 -0.0 3:0.0010219422093752683 4:0.0050035334200867546 5:2.887434958093861E-4 8:0.0014094873391415686 12:0.0 14:8.962581446464077E-4 
