svm_type c_svc
kernel_type rbf
gamma 0.05
nr_class 6
total_sv 1736
rho 0.1702294901639246 -0.954901663341764 -0.993367972943529 -0.9628601712841887 -0.9920414647780015 -0.9625590579458339 -0.9944938535556971 -0.9691668687259188 -0.9933927045187204 -0.8529411764705882 -0.17647058823529413 -0.8235294117647058 0.8214285714285714 0.16666666666666666 -0.7857142857142857
label 0 5 4 3 1 2
nr_sv 754 909 34 5 28 6
SV
1.0 0.044921791120692056 0.005859368377941099 0.037109308779455896 0.007812491170588132 12:15338.0 
1.0 0.044921875 0.005859375 0.037109375 0.0078125 12:30805.0 14:110.0 
1.0 0.044921875 0.005859375 0.037109375 0.0078125 5:674.0 8:2.0 12:7260.0 14:342.0 
1.0 0.044921875 0.005859375 0.037109375 0.0078125 12:11591.0 14:22.0 
1.0 0.044921875 0.005859375 0.037109375 0.0078125 3:30.0 5:17.0 7:176.0 12:4239.0 14:2266.0 
1.0 0.044921875 0.005859375 0.037109375 0.0078125 3:40377.0 
1.0 0.044921875 0.005859375 0.037109375 0.0078125 12:134925.0 14:2775.0 
1.0 0.044921875 0.005859375 0.037109375 0.0078125 3:56.0 12:10872.0 14:8050.0 
1.0 0.044921875 0.005859375 0.037109375 0.0078125 8:37850.0 
1.0 0.044921875 0.005859375 0.037109375 0.0078125 8:1686.0 12:8072.0 14:1279.0 
1.0 0.044921875 0.005859375 0.037109375 0.0078125 8:2.0 12:7091.0 14:32.0 
1.0 0.044921875 0.005859375 0.037109375 0.0078125 1:125.0 5:55.0 8:2.0 12:21878.0 14:189.0 18:795.0 
1.0 0.044921875 0.005859375 0.037109375 0.0078125 5:56.0 12:103364.0 13:1.0 14:212.0 
1.0 0.044921875 0.005859375 0.037109375 0.0078125 12:13140.0 14:3510.0 
1.0 0.044921875 0.005859375 0.037109375 0.0078125 7:96275.0 12:92700.0 14:1625.0 
1.0 0.044921875 0.005859375 0.037109375 0.0078125 12:9889.0 14:170.0 
1.0 0.044921875 0.005859375 0.037109375 0.0078125 12:9017.0 14:2.0 
1.0 0.044921875 0.005859375 0.037109375 0.0078125 12:9831.0 
1.0 0.044921875 0.005859375 0.037109375 0.0078125 3:181.0 5:556.0 12:4989.0 
1.0 0.044921875 0.005859375 0.037109375 0.0078125 4:79.0 5:57.0 9:7.0 12:22251.0 14:375.0 
1.0 0.044921875 0.005859375 0.037109375 0.0078125 1:26.0 12:5713.0 14:6.0 
1.0 0.044921875 0.005859375 0.037109375 0.0078125 1:75.0 3:19975.0 4:50.0 7:50.0 12:235400.0 14:8275.0 18:250.0 
1.0 0.044921875 0.005859375 0.037109375 0.0078125 12:17380.0 14:386.0 
1.0 0.044921875 0.005859375 0.037109375 0.0078125 12:6334.0 
1.0 0.044921875 0.005859375 0.037109375 0.0078125 1:129.0 4:4.0 5:168.0 9:25.0 12:6125.0 13:186.0 14:423.0 
1.0 0.044921875 0.005859375 0.037109375 0.0078125 1:1600.0 3:1475.0 4:25.0 7:184850.0 9:625.0 12:39525.0 14:2750.0 
1.0 0.044921875 0.005859375 0.037109375 0.0078125 8:13158.0 12:60.0 14:20178.0 
1.0 0.044921875 0.005859375 0.037109375 0.0078125 3:1625.0 4:50.0 5:100.0 12:144200.0 14:3350.0 
1.0 0.044921875 0.005859375 0.037109375 0.0078125 1:6370.0 3:8320.0 4:2340.0 6:4680.0 7:687830.0 8:57590.0 9:6630.0 12:87880.0 15:34970.0 
1.0 0.044921875 0.005859375 0.037109375 0.0078125 4:50.0 12:533500.0 14:1275.0 
1.0 0.044921875 0.005859375 0.037109375 0.0078125 12:19466.0 
1.0 0.044921875 0.005859375 0.037109375 0.0078125 5:9.0 12:23139.0 14:6603.0 
1.0 0.044921875 0.005859375 0.037109375 0.0078125 5:8950.0 12:264725.0 14:8700.0 
1.0 0.044921875 0.005859375 0.037109375 0.0078125 4:142.0 12:648.0 14:12422.0 
1.0 0.044921875 0.005859375 0.037109375 0.0078125 4:2990.0 8:1040.0 12:811980.0 
1.0 0.044921875 0.005859375 0.037109375 0.0078125 5:7098.0 12:589050.0 14:28.0 
1.0 0.044921875 0.005859375 0.037109375 0.0078125 1:725.0 4:50.0 5:100.0 12:132625.0 14:4875.0 
1.0 0.044921875 0.005859375 0.037109375 0.0078125 12:11829.0 
1.0 0.044921875 0.005859375 0.037109375 0.0078125 1:2.0 3:3124.0 4:10.0 12:18082.0 14:184.0 
1.0 0.044921875 0.005859375 0.037109375 0.0078125 12:192976.0 14:3038.0 
1.0 0.044921875 0.005859375 0.037109375 0.0078125 1:275.0 3:975.0 7:69550.0 12:73300.0 14:13125.0 
1.0 0.044921875 0.005859375 0.037109375 0.0078125 12:6916.0 14:6574.0 
1.0 0.044921875 0.005859375 0.037109375 0.0078125 8:21392.0 12:48839.0 
1.0 0.044921875 0.005859375 0.037109375 0.0078125 2:64.0 4:2.0 8:4.0 12:15036.0 14:448.0 
1.0 0.044921875 0.005859375 0.037109375 0.0078125 4:12.0 12:7318.0 14:133.0 
1.0 0.044921875 0.005859375 0.037109375 0.0078125 8:45111.0 12:43461.0 14:88.0 
1.0 0.044921875 0.005859375 0.037109375 0.0078125 5:1450.0 12:9516.0 14:70.0 
1.0 0.044921875 0.005859375 0.037109375 0.0078125 9:140.0 12:104734.0 
1.0 0.044921875 0.005859375 0.037109375 0.0078125 3:56150.0 4:100.0 12:69325.0 14:15225.0 16:150.0 
1.0 0.044921875 0.005859375 0.037109375 0.0078125 12:11020.0 14:1048.0 
1.0 0.044921875 0.005859375 0.037109375 0.0078125 12:305354.0 
1.0 0.044921875 0.005859375 0.037109375 0.0078125 12:27340.0 
1.0 0.044921875 0.005859375 0.037109375 0.0078125 5:304.0 9:14.0 12:12568.0 14:284.0 18:58.0 
1.0 0.044921875 0.005859375 0.037109375 0.0078125 12:172975.0 14:200.0 
1.0 0.044921875 0.005859375 0.037109375 0.0078125 3:1314.0 5:910.0 12:9296.0 14:1198.0 
1.0 0.044921875 0.005859375 0.037109375 0.0078125 8:4.0 12:15632.0 14:162.0 
1.0 0.044921875 0.005859375 0.037109375 0.0078125 4:202.0 12:905394.0 14:996.0 
1.0 0.044921875 0.005859375 0.037109375 0.0078125 12:139950.0 14:5875.0 
1.0 0.044921874997447424 0.005859374999798521 0.03710937499818628 0.007812499999731326 12:5895.0 14:189.0 
1.0 0.044921875 0.005859375 0.037109375 0.0078125 8:2.0 12:9291.0 14:101.0 18:6.0 
1.0 0.044921875 0.005859375 0.037109375 0.0078125 12:19117.0 
1.0 0.044921875 0.005859375 0.037109375 0.0078125 12:146700.0 
1.0 0.044921875 0.005859375 0.037109375 0.0078125 7:185175.0 12:10300.0 14:5350.0 
1.0 0.044921875 0.005859375 0.037109375 0.0078125 3:675.0 4:1050.0 9:1250.0 12:105875.0 14:28100.0 18:950.0 
1.0 0.044921875 0.005859375 0.037109375 0.0078125 2:1.0 12:7843.0 
1.0 0.044921875 0.005859375 0.037109375 0.0078125 5:50.0 12:22034.0 14:358.0 18:4.0 
1.0 0.044921875 0.005859375 0.037109375 0.0078125 8:1308.0 12:94.0 14:13814.0 
1.0 0.044921875 0.005859375 0.037109375 0.0078125 1:11270.0 4:3738.0 9:126.0 12:59038.0 14:18382.0 
1.0 0.044921875 0.005859375 0.037109375 0.0078125 3:18783.0 12:459.0 
1.0 0.044921875 0.005859375 0.037109375 0.0078125 12:1347525.0 
1.0 0.044921875 0.005859375 0.037109375 0.0078125 3:89.0 4:29.0 5:176.0 12:5083.0 14:831.0 
1.0 0.044921875 0.005859375 0.037109375 0.0078125 4:214.0 5:562.0 12:18440.0 14:308.0 
1.0 0.044921875 0.005859375 0.037109375 0.0078125 12:7962.0 
1.0 0.044921875 0.005859375 0.037109375 0.0078125 12:136825.0 14:3275.0 
1.0 0.044921875 0.005859375 0.037109375 0.0078125 5:46.0 12:136100.0 14:23660.0 
1.0 0.044921875 0.005859375 0.037109375 0.0078125 3:8275.0 12:125325.0 14:4600.0 18:225.0 
1.0 0.044921875 0.005859375 0.037109375 0.0078125 5:264.0 12:10482.0 14:642.0 
1.0 0.04492187500000039 0.005859375 0.037109375 0.0078125 12:25347.0 
1.0 0.04492187500000039 0.005859375 0.037109375 0.0078125 1:408.0 4:300.0 8:38.0 9:46.0 12:40212.0 14:396.0 
1.0 0.0458984375 0.005859375 0.037109375 0.0078125 12:4304.0 14:12110.0 
1.0 0.0458984375 0.005859375 0.037109375 0.0078125 3:1825.0 12:374800.0 14:3700.0 
1.0 0.0458984375 0.005859375 0.037109375 0.0078125 4:266.0 8:31.0 12:6568.0 14:57.0 
1.0 0.0458984375 0.005859375 0.037109375 0.0078125 12:3962.0 14:9523.0 
1.0 0.0458984375 0.005859375 0.037109375 0.0078125 12:7670.0 
1.0 0.04492178891338411 0.005859368377948593 0.03710931319422178 0.0078125 4:2.0 12:15354.0 
1.0 0.0458984375 0.005859375 0.037109375 0.0078125 4:50.0 8:95050.0 9:275.0 12:29400.0 14:55300.0 
1.0 0.0458984375 0.005859375 0.037109375 0.0078125 7:122000.0 12:67325.0 14:11675.0 
1.0 0.0458984375 0.005859375 0.037109375 0.0078125 3:238.0 12:16034.0 14:236.0 18:68.0 
1.0 0.0458984375 0.005859375 0.037109375 0.0078125 5:275.0 9:450.0 12:153300.0 14:1475.0 
1.0 0.0458984375 0.005859375 0.037109375 0.0078125 8:50.0 12:95650.0 14:45700.0 
1.0 0.0458984375 0.005859375 0.037109375 0.0078125 12:29664.0 
1.0 0.0458984375 0.005859375 0.037109375 0.0078125 4:512.0 9:180.0 12:9488.0 14:6598.0 
1.0 0.0458984375 0.005859375 0.037109375 0.0078125 12:192300.0 
1.0 0.0458984375 0.005859375 0.037109375 0.0078125 1:12.0 3:1.0 4:8.0 7:165.0 12:2800.0 14:2991.0 
1.0 0.0458984375 0.005859375 0.037109375 0.0078125 5:1600.0 9:36.0 12:9966.0 14:262.0 
1.0 0.0458984375 0.005859375 0.037109375 0.0078125 12:4700.0 14:187275.0 
1.0 0.0458984375 0.005859375 0.037109375 0.0078125 8:2035.0 12:104357.0 14:33.0 
1.0 0.0458984375 0.005859375 0.037109375 0.0078125 8:1.0 12:969.0 14:5730.0 
1.0 0.0458984375 0.005859375 0.037109375 0.0078125 3:150.0 12:975.0 14:135400.0 
1.0 0.0458984375 0.005859375 0.037109375 0.0078125 7:33225.0 12:85150.0 14:68325.0 
1.0 0.0458984375 0.005859375 0.037109375 0.0078125 12:6551.0 14:55.0 
1.0 0.0458984375 0.005859375 0.037109375 0.0078125 5:3514.0 12:90790.0 14:728.0 
1.0 0.0458984375 0.005859375 0.037109375 0.0078125 4:142550.0 12:17775.0 14:1850.0 
1.0 0.0458984375 0.005859375 0.037109375 0.0078125 12:12431.0 
1.0 0.0458984375 0.005859375 0.037109375 0.0078125 8:15.0 12:7701.0 14:62.0 
1.0 0.0458984375 0.005859375 0.037109375 0.0078125 8:4.0 9:10.0 12:366.0 14:12190.0 
1.0 0.0458984375 0.005859375 0.037109375 0.0078125 12:7796.0 
1.0 0.0458984375 0.005859375 0.037109375 0.0078125 12:75920.0 14:20.0 
1.0 0.0458984375 0.005859375 0.037109375 0.0078125 12:27022.0 
1.0 0.0458984375 0.005859375 0.037109375 0.0078125 5:4.0 12:15294.0 14:38.0 
1.0 0.0458984375 0.005859375 0.037109375 0.0078125 5:384.0 9:20.0 12:18154.0 14:670.0 
1.0 0.0458984375 0.005859375 0.037109375 0.0078125 12:5482.0 
1.0 0.0458984375 0.0068359375 0.037109375 0.0078125 5:476.0 8:2.0 12:11242.0 14:724.0 
1.0 0.0458984375 0.0068359375 0.037109375 0.0078125 1:125.0 3:425.0 4:150.0 12:161475.0 14:102400.0 
1.0 0.0458984375 0.0068359375 0.037109375 0.0078125 12:69578.0 14:326.0 
1.0 0.0458984375 0.0068359375 0.037109375 0.0078125 5:48.0 9:7.0 12:11608.0 14:963.0 18:5.0 
1.0 0.0458984375 0.0068359375 0.037109375 0.0078125 12:101304.0 14:672.0 
1.0 0.0458984375 0.0068359375 0.037109375 0.0078125 2:10.0 10:2.0 12:42758.0 14:620.0 18:14.0 
1.0 0.04345052007710809 0.005779761318989405 0.03592937646798683 0.0076532726379801574 12:11104.0 
1.0 0.0458984375 0.0068359375 0.037109375 0.0078125 4:25.0 5:2100.0 9:225.0 12:132700.0 14:5150.0 18:150.0 
1.0 0.0458984375 0.0068359375 0.037109375 0.0078125 7:4104.0 12:8650.0 18:8.0 
1.0 0.0458984375 0.0068359375 0.037109375 0.0078125 8:6.0 12:12939.0 14:1.0 
1.0 0.0458984375 0.0068359375 0.037109375 0.0078125 8:10.0 12:38545.0 
1.0 0.0458984375 0.0068359375 0.037109375 0.0078125 8:11600.0 12:38192.0 14:96.0 
1.0 0.0458984375 0.0068359375 0.037109375 0.0078125 5:850.0 7:182550.0 12:33150.0 14:2025.0 
1.0 0.0458984375 0.0068359375 0.037109375 0.0078125 4:4475.0 5:3950.0 12:224400.0 14:3300.0 18:2025.0 
1.0 0.0458984375 0.0068359375 0.037109375 0.0078125 12:6703.0 14:85.0 
1.0 0.0458984375 0.0068359375 0.037109375 0.0078125 12:12281.0 14:86.0 
1.0 0.0458984375 0.0068359375 0.037109375 0.0078125 12:5824.0 
1.0 0.0458984375 0.0068359375 0.037109375 0.0078125 1:50.0 3:12225.0 9:25.0 12:143375.0 14:17400.0 
1.0 0.0458984375 0.0068359375 0.037109375 0.0078125 5:231.0 12:7595.0 
1.0 0.0458984375 0.0068359375 0.037109375 0.0078125 3:238.0 12:23122.0 14:108.0 
1.0 0.0458984375 0.0068359375 0.037109375 0.0078125 5:49.0 12:5934.0 
1.0 0.0458984375 0.0068359375 0.037109375 0.0078125 12:14278.0 14:1202.0 
1.0 0.0458984375 0.0068359375 0.037109375 0.0078125 8:4862.0 12:116325.0 14:209.0 
1.0 0.0458984375 0.0068359375 0.037109375 0.0078125 12:13576.0 14:426.0 
1.0 0.0458984375 0.0068359375 0.037109375 0.0078125 1:3900.0 2:1170.0 3:11180.0 4:1170.0 6:2080.0 8:123500.0 11:403260.0 12:188890.0 15:7540.0 17:13000.0 19:650.0 
1.0 0.0458984375 0.0068359375 0.037109375 0.0078125 1:8.0 4:3.0 9:3.0 12:8419.0 
1.0 0.0458984375 0.0068359375 0.037109375 0.0078125 3:50.0 5:75.0 12:178275.0 14:4575.0 
1.0 0.0458984375 0.0068359375 0.037109375 0.0078125 3:81.0 4:2.0 5:96.0 12:6645.0 14:374.0 15:34.0 18:9.0 
1.0 0.0458984375 0.0068359375 0.037109375 0.0078125 5:1324.0 12:42331.0 14:121.0 
1.0 0.0458984375 0.0068359375 0.037109375 0.0078125 5:825.0 12:135375.0 14:2475.0 
1.0 0.0458984375 0.0068359375 0.037109375 0.0078125 5:1130.0 9:30.0 12:26645.0 14:1275.0 18:80.0 
1.0 0.0458984375 0.0068359375 0.037109375 0.0078125 5:156.0 12:5538.0 14:68.0 
1.0 0.0458984375 0.0068359375 0.037109375 0.0078125 3:21700.0 5:725.0 8:175.0 9:850.0 12:555025.0 14:1875.0 
1.0 0.0458984375 0.0068359375 0.037109375 0.0078125 12:8892.0 14:197.0 
1.0 0.04467934284326436 0.005839679256772257 0.036912371439457026 0.007786179894537781 12:45190.0 
1.0 0.0458984375 0.0068359375 0.037109375 0.0078125 7:223800.0 12:8950.0 14:225.0 
1.0 0.04522296707835827 0.0068359375 0.037109375 0.0078125 8:8.0 12:57744.0 
1.0 0.045188551698225 0.0068359375 0.037109375 0.0078125 3:1.0 4:13.0 5:1425.0 12:8569.0 14:6.0 
1.0 0.045186407324218025 0.0068359375 0.037109375 0.0078125 12:116634.0 14:1512.0 
1.0 0.04511766397336414 0.0068359375 0.037109375 0.0078125 3:5175.0 9:250.0 12:130825.0 14:2125.0 
1.0 0.04511766397336414 0.0068359375 0.037109375 0.0078125 5:4548.0 12:16890.0 14:444.0 
1.0 0.04511766397336414 0.0068359375 0.037109375 0.0078125 1:38.0 3:252.0 8:4.0 9:12.0 12:19192.0 14:100.0 
1.0 0.04508110236201923 0.0068359375 0.037109375 0.0078125 4:182.0 5:5754.0 12:135198.0 
1.0 0.04508110236201923 0.0068359375 0.037109375 0.0078125 12:438.0 14:8393.0 
1.0 0.04497402974933423 0.0068359375 0.037109375 0.0078125 3:12825.0 5:2175.0 7:3000.0 12:197825.0 14:3775.0 
1.0 0.044967603561740344 0.0068359375 0.037109375 0.0078125 8:2.0 12:5213.0 14:295.0 
1.0 0.04496753839619577 0.0068359375 0.037109375 0.0078125 3:950.0 7:100800.0 12:167900.0 14:250.0 18:16875.0 
1.0 0.04495468646008999 0.0068359375 0.037109375 0.0078125 1:9790.0 9:75.0 12:51230.0 14:130.0 
1.0 0.04495468646008999 0.0068359375 0.037109375 0.0078125 1:390.0 3:26390.0 8:71630.0 9:11050.0 10:3120.0 11:43030.0 12:200980.0 13:2264470.0 15:8060.0 17:780.0 
1.0 0.04495468646008999 0.0068359375 0.037109375 0.0078125 1:1212.0 4:192.0 12:30108.0 14:7170.0 
1.0 0.04494819510546222 0.0068359375 0.037109375 0.0078125 1:24.0 12:6420.0 14:384.0 
1.0 0.04494819510546222 0.0068359375 0.037109375 0.0078125 1:2.0 12:51680.0 14:27.0 
1.0 0.0449218904514308 0.0068359375 0.037109375 0.0078125 4:725.0 7:102975.0 9:375.0 12:30825.0 14:9400.0 
1.0 0.04492188824409282 0.0068359375 0.037109375 0.0078125 3:354.0 8:48.0 12:20304.0 
1.0 0.0449218882440629 0.0068359375 0.037109375 0.0078125 12:125986.0 14:3542.0 
1.0 0.04492188603674985 0.0068359375 0.037109375 0.0078125 5:68.0 12:39078.0 
1.0 0.04492188603674985 0.0068359375 0.037109375 0.0078125 9:20.0 12:5831.0 14:166.0 
1.0 0.04492188382938689 0.0068359375 0.037109375 0.0078125 12:14378.0 14:106092.0 
1.0 0.044921879414705934 0.0068359375 0.037109375 0.0078125 12:15472.0 14:388.0 
1.0 0.044921879414705934 0.0068359375 0.037109375 0.0078125 12:23636.0 
1.0 0.044921879414705934 0.0068359375 0.037109375 0.0078125 4:112.0 9:23.0 12:20549.0 14:5.0 
1.0 0.044921879414705934 0.0068359375 0.037109375 0.0078125 12:504.0 14:189364.0 
1.0 0.044921879414705934 0.0068359375 0.037109375 0.0078125 1:50.0 4:250.0 5:1500.0 12:301450.0 14:300.0 
1.0 0.044921879414705934 0.0068359375 0.037109375 0.0078125 3:24.0 5:608.0 12:41304.0 
1.0 0.04492187500053735 0.0068359375 0.037109375 0.0078125 12:3951.0 14:1827.0 
1.0 0.04492187500047018 0.0068359375 0.037109375 0.0078125 12:80091.0 14:17202.0 
1.0 0.04492187500047018 0.0068359375 0.037109375 0.0078125 8:7051.0 12:162448.0 
1.0 0.04492187500033584 0.0068359375 0.0380859375 0.0078125 8:63008.0 14:152.0 
1.0 0.04492187500033584 0.0068359375 0.0380859375 0.0078125 8:45.0 12:50769.0 
1.0 0.04492187500033584 0.0068359375 0.0380859375 0.0078125 4:29.0 12:7394.0 
1.0 0.044921875000268674 0.0068359375 0.0380859375 0.0078125 4:351.0 12:21450.0 
1.0 0.044921875000268674 0.0068359375 0.0380859375 0.0078125 2:18.0 5:12.0 12:6693.0 14:32.0 
1.0 0.04492187500000111 0.0068359375 0.0380859375 0.0078125 12:44882.0 
1.0 0.04492187500000078 0.0068359375 0.0380859375 0.0078125 12:2440.0 14:13062.0 
1.0 0.044921875000000444 0.0068359375 0.0380859375 0.0078125 7:86175.0 12:80775.0 14:11375.0 
1.0 0.044921875000000444 0.0068359375 0.0380859375 0.0078125 1:5.0 3:22.0 7:214.0 12:21869.0 14:147.0 
1.0 0.044921875000000444 0.0068359375 0.0380859375 0.0078125 12:22836.0 
1.0 0.044921875000000444 0.0068359375 0.03749312942168859 0.0078125 5:72.0 9:24.0 12:7316.0 14:5406.0 
1.0 0.044921875000000444 0.0068359375 0.03745790087706158 0.0078125 8:2.0 12:6525.0 14:372.0 
1.0 0.044921875000000444 0.0068359375 0.03733400935989378 0.0078125 1:8840.0 3:18850.0 8:182260.0 12:653770.0 
1.0 0.044921875 0.0068359375 0.03726860236202001 0.0078125 7:106.0 12:4697.0 14:815.0 
1.0 0.044921875 0.0068359375 0.03726860236201984 0.0078125 8:1106.0 12:41461.0 
1.0 0.044921875 0.0068359375 0.03726860236201984 0.0078125 5:349.0 9:12.0 12:5123.0 14:377.0 19:1.0 
1.0 0.044921875 0.0068359375 0.03717477757909421 0.0078125 5:1775.0 9:325.0 12:331175.0 14:1875.0 18:175.0 
1.0 0.044921875 0.0068359375 0.03716832922207658 0.0078125 12:8543.0 14:76.0 
1.0 0.044921875 0.0068359375 0.03714845792776966 0.0078125 12:74431.0 
1.0 0.044921875 0.0068359375 0.03713569510546222 0.0078125 4:8025.0 12:176025.0 14:3775.0 
1.0 0.044921875 0.0068359375 0.03713569510546222 0.0078125 12:37614.0 
1.0 0.044921875 0.0068359375 0.03713569510546222 0.0078125 2:12.0 5:11012.0 12:2056.0 
1.0 0.044921875 0.0068359375 0.03710939707348471 0.0078125 1:1560.0 2:390.0 3:7020.0 4:54860.0 8:197990.0 11:115570.0 12:419510.0 15:39000.0 17:34060.0 
1.0 0.044921875 0.0068359375 0.03710939486614673 0.0078125 12:89866.0 
1.0 0.044921875 0.0068359375 0.037109388244072894 0.0078125 12:151250.0 14:14975.0 
1.0 0.044921875 0.0068359375 0.03710938382941187 0.0078125 3:5980.0 5:463.0 12:1665.0 14:137.0 
1.0 0.044921875 0.0068359375 0.03710938382941187 0.0078125 3:1.0 12:4823.0 14:720.0 
1.0 0.044921875 0.0068359375 0.03710938382941187 0.0078125 12:200400.0 14:1275.0 
1.0 0.044921875 0.0068359375 0.03710937500073891 0.0078125 8:1089.0 12:116699.0 
1.0 0.044921875 0.0068359375 0.03710937500060457 0.0078125 4:25.0 5:225.0 12:198850.0 14:1675.0 
1.0 0.044921875 0.0068359375 0.03710937500060457 0.0078125 12:26296.0 14:524.0 
1.0 0.044921875 0.0068359375 0.0371093750005374 0.0078125 5:131.0 12:5641.0 
1.0 0.044921875 0.0068359375 0.03710937500000194 0.0078125 3:5.0 5:2.0 12:7572.0 14:295.0 
1.0 0.044921875 0.0068359375 0.037109375000001554 0.0078125 5:1231675.0 12:85975.0 14:775.0 18:250.0 
1.0 0.044921875 0.0068359375 0.037109375 0.0078125 3:6600.0 5:117800.0 12:98650.0 14:25525.0 
1.0 0.044921875 0.0068359375 0.037109375 0.0078125 4:147.0 8:6.0 12:39198.0 14:705.0 
1.0 0.044921875 0.0068359375 0.037109375 0.0078125 5:254.0 12:47094.0 14:4688.0 
1.0 0.044921875 0.0068359375 0.037109375 0.0078125 3:107.0 5:26.0 12:12625.0 14:2213.0 
1.0 0.044921875 0.0068359375 0.037109375 0.0078125 5:4640.0 12:23825.0 14:615.0 
1.0 0.044921875 0.0068359375 0.037109375 0.0078125 5:752.0 12:6585.0 
1.0 0.044921875 0.0068359375 0.037109375 0.0078125 5:1774.0 12:14716.0 14:36.0 
1.0 0.044921875 0.0068359375 0.037109375 0.0078125 12:4129.0 14:2608.0 
1.0 0.044921875 0.0068359375 0.037109375 0.0078125 3:1300.0 5:2025.0 9:50.0 12:171250.0 14:100.0 
1.0 0.044921875 0.0068359375 0.037109375 0.0078125 12:185775.0 14:625.0 
1.0 0.044921875 0.0068359375 0.037109375 0.0078125 4:49.0 12:4128.0 14:2973.0 20:49.0 
1.0 0.044921875 0.0068359375 0.037109375 0.0078125 12:42973.0 
1.0 0.044921875 0.0068359375 0.037109375 0.0078125 5:8036.0 9:40.0 12:22220.0 18:154.0 
1.0 0.044921875 0.0068359375 0.037109375 0.0078125 8:2597.0 12:36106.0 14:7.0 
1.0 0.044921875 0.0068359375 0.037109375 0.0078125 7:9072.0 9:24.0 12:862.0 14:256.0 
1.0 0.044921875 0.0068359375 0.037109375 0.0078125 5:8433.0 9:1.0 12:2344.0 14:25.0 
1.0 0.044921875 0.0068359375 0.037109375 0.0078125 12:16968.0 14:249.0 
1.0 0.044921875 0.0068359375 0.037109375 0.0078125 1:50.0 4:12.0 12:20424.0 14:58.0 20:2.0 
1.0 0.044921875 0.0068359375 0.037109375 0.0078125 12:5539.0 14:734.0 
1.0 0.044921875 0.0068359375 0.037109375 0.0078125 5:2240.0 12:11280.0 14:220.0 
1.0 0.044921875 0.0068359375 0.037109375 0.0078125 5:1.0 8:1.0 12:14003.0 14:34.0 
1.0 0.044921875 0.0068359375 0.037109375 0.0078125 4:10.0 5:960.0 12:28665.0 14:585.0 
1.0 0.044921875 0.0068359375 0.037109375 0.0078125 1:5.0 4:1.0 7:131.0 12:1205.0 14:7547.0 
1.0 0.044921874999992395 0.005859374999999611 0.03710937499999489 0.0078125 5:10.0 12:11082.0 
1.0 0.044921875 0.0068359375 0.037109375 0.0078125 2:50.0 3:4.0 5:408.0 12:15844.0 14:186.0 
1.0 0.044921875 0.0068359375 0.037109375 0.0078125 12:12326.0 14:1634.0 
1.0 0.044921875 0.0068359375 0.037109375 0.0078125 12:11802.0 14:398.0 
1.0 0.044921875 0.0068359375 0.037109375 0.0078125 12:7623.0 
1.0 0.044921875 0.0068359375 0.037109375 0.0078125 5:5.0 9:13.0 12:7543.0 14:3091.0 
1.0 0.044921875 0.0068359375 0.037109375 0.0078125 12:121781.0 
1.0 0.044921875 0.0068359375 0.037109375 0.0078125 12:29220.0 
1.0 0.044921875 0.0068359375 0.037109375 0.0078125 12:8547.0 
1.0 0.044921875 0.0068359375 0.037109375 0.0078125 3:36.0 8:4.0 12:13120.0 
1.0 0.044921875 0.0068359375 0.037109375 0.0078125 3:157.0 12:9028.0 
1.0 0.044921875 0.0068359375 0.037109375 0.0078125 5:57600.0 12:7725.0 14:222.0 
1.0 0.044921875 0.0068359375 0.037109375 0.0078125 1:780.0 3:3770.0 4:910.0 6:1690.0 7:50180.0 8:100620.0 11:140140.0 12:372320.0 13:80080.0 15:780.0 
1.0 0.044921875 0.0068359375 0.037109375 0.0078125 8:1208.0 12:46664.0 14:32.0 
1.0 0.044921875 0.0068359375 0.037109375 0.0078125 1:42.0 2:84.0 4:274.0 5:356.0 7:3588.0 12:6432.0 14:232.0 
1.0 0.044921875 0.0068359375 0.037109375 0.0078125 5:1248.0 9:92.0 12:24928.0 14:4764.0 
1.0 0.044921875 0.0068359375 0.037109375 0.0078125 8:8008.0 12:72597.0 
1.0 0.044921875 0.0068359375 0.037109375 0.0078125 12:21748.0 14:58.0 
1.0 0.044921875 0.0068359375 0.037109375 0.0078125 9:38.0 12:90212.0 14:484.0 
1.0 0.044921875 0.0068359375 0.037109375 0.0078125 5:16.0 12:4960.0 14:8424.0 
1.0 0.044921875 0.0068359375 0.037109375 0.0078125 5:2658.0 8:4.0 9:56.0 12:10774.0 14:528.0 
1.0 0.044921875 0.0068359375 0.037109375 0.0078125 4:3848.0 12:6908.0 14:1.0 
1.0 0.044921875 0.0068359375 0.037109375 0.0078125 5:8.0 9:148.0 12:13314.0 14:906.0 
1.0 0.044921875 0.0068359375 0.037109375 0.0078125 1:3075.0 4:50.0 5:2475.0 12:117300.0 14:13650.0 
1.0 0.044921875 0.0068359375 0.037109375 0.0078125 12:73906.0 14:8428.0 
1.0 0.044921875 0.0068359375 0.037109375 0.0078125 1:2.0 5:34.0 12:72512.0 14:106.0 
1.0 0.044921875 0.0068359375 0.037109375 0.0078125 8:476.0 12:46102.0 
1.0 0.044921875 0.0068359375 0.037109375 0.0078125 1:10.0 3:90.0 4:55.0 12:25120.0 14:10900.0 
1.0 0.044921875 0.0068359375 0.037109375 0.0078125 12:29547.0 
1.0 0.044921875 0.0068359375 0.037109375 0.0078125 1:520.0 3:3380.0 4:260.0 6:6630.0 8:671320.0 10:1430.0 11:2340.0 12:73580.0 13:63310.0 15:4810.0 
1.0 0.044921875 0.0068359375 0.037109375 0.0078125 1:520.0 2:1300.0 3:29640.0 4:47060.0 5:5070.0 6:346190.0 7:691080.0 8:147030.0 9:179790.0 12:128830.0 13:30810.0 15:35360.0 18:82030.0 
1.0 0.044921875 0.0068359375 0.037109375 0.0078125 5:15.0 7:1206.0 12:16457.0 14:309.0 
1.0 0.044672982705336206 0.005846214947268891 0.03692606397675258 0.0078125 12:45200.0 
1.0 0.044921875 0.0068359375 0.037109375 0.0078125 12:20082.0 14:23.0 
1.0 0.044921875 0.0068359375 0.037109375 0.0078125 12:79336.0 
1.0 0.044921875 0.0068359375 0.037109375 0.0078125 12:11374.0 14:2.0 
1.0 0.044921875 0.0068359375 0.037109375 0.0078125 12:76888.0 
1.0 0.044921875 0.0068359375 0.037109375 0.0078125 4:18.0 12:45362.0 
1.0 0.044921875 0.0068359375 0.037109375 0.0078125 4:4.0 7:966.0 12:11623.0 14:626.0 
1.0 0.044921875 0.0068359375 0.037109375 0.0078125 5:1792.0 12:99106.0 14:14.0 
1.0 0.044921875 0.0068359375 0.037109375 0.0078125 5:30.0 7:597.0 12:4795.0 14:1217.0 
1.0 0.044921875 0.0068359375 0.037109375 0.0078125 12:209452.0 
1.0 0.044921875 0.0068359375 0.037109375 0.0078125 3:6.0 4:6.0 5:17.0 12:26825.0 
1.0 0.044921875 0.0068359375 0.037109375 0.0078125 5:108.0 12:15160.0 14:184.0 
1.0 0.044921875 0.0068359375 0.037109375 0.0078125 3:1.0 4:1.0 5:843.0 12:9617.0 14:227.0 
1.0 0.044921875 0.0068359375 0.037109375 0.0078125 4:4.0 7:365.0 12:8208.0 14:632.0 
1.0 0.044921875 0.0068359375 0.037109375 0.0078125 3:21.0 5:1143.0 8:36.0 12:83787.0 14:624.0 
1.0 0.044921875 0.0068359375 0.037109375 0.0078125 5:28.0 12:30740.0 14:38.0 
1.0 0.044921875 0.0068359375 0.037109375 0.0078125 4:70.0 12:91924.0 14:1414.0 
1.0 0.044921875 0.0068359375 0.037109375 0.0078125 12:45654.0 
1.0 0.044921875 0.0068359375 0.037109375 0.0078125 1:4.0 3:42.0 4:86.0 8:714.0 12:24574.0 
1.0 0.044921875 0.0068359375 0.037109375 0.0078125 8:1122.0 12:39660.0 
1.0 0.044921875 0.0068359375 0.037109375 0.0078125 3:4732.0 4:14.0 5:3276.0 7:11228.0 12:94948.0 14:9296.0 
1.0 0.044921875 0.0068359375 0.037109375 0.0078125 3:71925.0 7:25050.0 12:78325.0 14:7400.0 
1.0 0.044921875 0.0068359375 0.037109375 0.0078125 5:1356.0 12:8562.0 14:1988.0 
1.0 0.044921875 0.0068359375 0.037109375 0.0078125 12:92246.0 14:7000.0 
1.0 0.044921875 0.0068359375 0.037109375 0.0078125 3:150.0 8:100.0 12:202525.0 14:2500.0 
1.0 0.044921875 0.0068359375 0.037109375 0.0078125 8:56.0 12:330512.0 
1.0 0.044921875 0.0068359375 0.037109375 0.0078125 12:4964.0 14:616.0 
1.0 0.044921875 0.0068359375 0.037109375 0.0078125 7:2.0 12:45165.0 14:63.0 
1.0 0.044921875 0.0068359375 0.037109375 0.0078125 5:224.0 12:97902.0 14:2800.0 
1.0 0.044921875 0.0068359375 0.037109375 0.0078125 5:3206.0 12:102060.0 
1.0 0.04348260883560373 0.005741577093066366 0.03602856882418831 0.0078125 12:11112.0 
1.0 0.044921875 0.0068359375 0.037109375 0.0078125 12:42156.0 
1.0 0.044921875 0.0068359375 0.037109375 0.0078125 5:175.0 12:526100.0 14:200.0 
1.0 0.044921875 0.0068359375 0.037109375 0.0078125 12:13232.0 14:400.0 18:28.0 
1.0 0.044921875 0.0068359375 0.037109375 0.0078125 1:9.0 8:3.0 9:2.0 12:12185.0 14:172.0 
1.0 0.044921875 0.0068359375 0.037109375 0.0078125 12:14952.0 14:808.0 
1.0 0.044921875 0.0068359375 0.037109375 0.0078125 4:38.0 12:6274.0 14:7755.0 
1.0 0.044921875 0.0068359375 0.037109375 0.0078125 1:3.0 4:10.0 9:4.0 12:5608.0 14:64.0 
1.0 0.044921875 0.0068359375 0.037109375 0.0078125 8:10.0 12:27865.0 14:2040.0 
1.0 0.044921875 0.0068359375 0.037109375 0.0078125 5:538.0 12:3834.0 14:14084.0 
1.0 0.044921875 0.0068359375 0.037109375 0.0078125 3:1350.0 4:75.0 5:2800.0 12:229775.0 14:875.0 
1.0 0.044921875 0.0068359375 0.037109375 0.0078125 8:13608.0 12:8850.0 14:21798.0 
1.0 0.044921875 0.0068359375 0.037109375 0.0078125 3:288.0 5:2026.0 12:4049.0 14:161.0 
1.0 0.044921875 0.0068359375 0.037109375 0.0078125 1:30.0 4:19.0 12:5727.0 14:252.0 18:6.0 
1.0 0.044921875 0.0068359375 0.037109375 0.0078125 3:19083.0 5:3.0 12:75.0 14:9.0 
1.0 0.044921875 0.0068359375 0.037109375 0.0078125 5:56.0 12:161322.0 14:1876.0 
1.0 0.044921875 0.0068359375 0.037109375 0.0078125 5:1320.0 12:35830.0 
1.0 0.044921875 0.0068359375 0.037109375 0.0078125 4:8.0 5:124.0 12:14388.0 
1.0 0.044921875 0.0068359375 0.037109375 0.0078125 4:25.0 9:75.0 12:388200.0 14:1500.0 
1.0 0.044921875 0.0068359375 0.037109375 0.0078125 3:100.0 5:3675.0 7:27575.0 12:261300.0 14:125.0 
1.0 0.044921875 0.0068359375 0.037109375 0.0078125 4:3.0 12:21495.0 18:15.0 
1.0 0.044921875 0.0068359375 0.037109375 0.0078125 3:175.0 4:2575.0 5:700.0 7:6625.0 8:3200.0 9:375.0 11:500.0 12:334275.0 13:1050.0 14:1100.0 
1.0 0.044921875 0.0068359375 0.037109375 0.0078125 5:3154.0 12:5634.0 14:2144.0 
1.0 0.044921875 0.0068359375 0.037109375 0.0078125 8:135376.0 12:120.0 14:40.0 
1.0 0.044921875 0.0068359375 0.037109375 0.0078125 5:672.0 7:788.0 12:24516.0 14:214.0 
1.0 0.044921875 0.0068359375 0.037109375 0.0078125 3:1400.0 5:40375.0 9:25.0 12:191150.0 14:6400.0 
1.0 0.044921875 0.0068359375 0.037109375 0.0078125 3:12.0 4:7514.0 5:1632.0 8:4.0 12:7168.0 14:596.0 
1.0 0.044921875 0.0068359375 0.037109375 0.0078125 3:784.0 4:3722.0 5:3044.0 8:4.0 11:2.0 12:5602.0 18:48.0 
1.0 0.044921875 0.0068359375 0.037109375 0.0078125 8:319.0 12:209176.0 
1.0 0.044921875 0.0068359375 0.037109375 0.0078125 3:6.0 5:1256.0 7:1.0 12:6974.0 14:111.0 
1.0 0.044921875 0.0068359375 0.037109375 0.0078125 9:50.0 12:233900.0 14:3075.0 
1.0 0.044921875 0.0068359375 0.037109375 0.0078125 8:2.0 12:7636.0 14:94.0 
1.0 0.044921875 0.0068359375 0.037109375 0.0078125 4:2.0 12:22718.0 
1.0 0.044921875 0.0068359375 0.037109375 0.0078125 8:11429.0 12:74745.0 14:22.0 
1.0 0.044921875 0.0068359375 0.037109375 0.0078125 3:34825.0 5:14450.0 12:113475.0 14:6800.0 
1.0 0.044921874997514606 0.005859374999865636 0.03710937499818629 0.0078125 8:2.0 12:5915.0 14:181.0 
1.0 0.044921875 0.0068359375 0.037109375 0.0078125 12:10416.0 14:10659.0 
1.0 0.044921875 0.0068359375 0.037109375 0.0078125 4:76.0 5:37.0 12:7914.0 14:235.0 
1.0 0.044921875 0.0068359375 0.037109375 0.0078125 1:950.0 4:8.0 5:462.0 9:110.0 12:8496.0 14:1580.0 
1.0 0.044921875 0.0068359375 0.037109375 0.0078125 7:1040.0 12:14036.0 14:1220.0 
1.0 0.044921875 0.0068359375 0.037109375 0.0078125 1:90.0 8:30.0 12:89705.0 14:135.0 
1.0 0.044921875 0.0068359375 0.037109375 0.0078125 4:1775.0 7:200.0 12:189025.0 14:146100.0 20:725.0 
1.0 0.044921875 0.0068359375 0.037109375 0.0078125 12:36125.0 
1.0 0.044921875 0.0068359375 0.037109375 0.0078125 8:10912.0 12:36608.0 14:16.0 
1.0 0.044921875 0.0068359375 0.037109375 0.0078125 3:24.0 12:10304.0 14:75.0 
1.0 0.044921875 0.0068359375 0.037109375 0.0078125 12:3816.0 14:11862.0 
1.0 0.044921875 0.0068359375 0.037109375 0.0078125 8:24458.0 12:30037.0 14:161.0 
1.0 0.044921875 0.0068359375 0.037109375 0.0078125 8:198407.0 12:3091.0 
1.0 0.044921875 0.0068359375 0.037109375 0.0078125 8:114.0 12:75704.0 14:94.0 18:114.0 
1.0 0.044921875 0.0068359375 0.037109375 0.0078125 8:4257.0 14:58949.0 
1.0 0.044921875 0.0068359375 0.037109375 0.0078125 3:658.0 5:2422.0 12:179340.0 14:2996.0 
1.0 0.044921875 0.0068359375 0.037109375 0.0078125 12:44667.0 14:9051.0 
1.0 0.044921875 0.0068359375 0.037109375 0.0078125 4:2.0 5:1394.0 12:12036.0 14:1868.0 
1.0 0.044921875 0.0068359375 0.037109375 0.0078125 4:108.0 5:2.0 8:76.0 12:12960.0 14:518.0 
1.0 0.044921875 0.0068359375 0.037109375 0.0078125 5:383.0 7:1063.0 12:9233.0 14:162.0 
1.0 0.044921875 0.0068359375 0.037109375 0.0078125 12:8177.0 14:270.0 
1.0 0.044921875 0.0068359375 0.037109375 0.0078125 1:5300.0 4:675.0 7:97550.0 12:201700.0 14:5225.0 
1.0 0.044921875 0.0068359375 0.037109375 0.0078125 1:30.0 8:120.0 12:29930.0 14:945.0 20:10.0 
1.0 0.044921875 0.0068359375 0.037109375 0.0078125 4:1450.0 12:139675.0 14:7925.0 
1.0 0.044921875 0.0068359375 0.037109375 0.0078125 4:1250.0 5:25350.0 12:141650.0 14:925.0 
1.0 0.044921875 0.0068359375 0.037109375 0.0078125 3:36.0 4:44.0 12:210494.0 
1.0 0.044921875 0.0068359375 0.037109375 0.0078125 2:1.0 4:760.0 5:4855.0 12:719.0 14:14.0 18:210.0 
1.0 0.044921875 0.0068359375 0.037109375 0.0078125 5:588.0 12:86030.0 14:742.0 
1.0 0.044921875 0.0068359375 0.037109375 0.0078125 8:1140.0 12:30270.0 14:10.0 
1.0 0.044921875 0.0068359375 0.037109375 0.0078125 12:22288.0 14:12.0 
1.0 0.044921875 0.0068359375 0.037109375 0.0078125 8:620.0 12:5680.0 14:6.0 
1.0 0.044921875 0.0068359375 0.037109375 0.0078125 1:8.0 6:70.0 12:112782.0 14:140.0 
1.0 0.044921875 0.0068359375 0.037109375 0.0078125 3:1.0 5:58.0 12:5414.0 14:107.0 
1.0 0.044921875 0.0068359375 0.037109375 0.0078125 12:17031.0 
1.0 0.044921875 0.0068359375 0.037109375 0.0078125 4:36.0 5:1029.0 12:15789.0 14:321.0 18:63.0 
1.0 0.044921875 0.0068359375 0.037109375 0.0078125 12:72303.0 18:3.0 
1.0 0.044921875 0.0068359375 0.037109375 0.0078125 5:4875.0 12:423900.0 14:400.0 
1.0 0.044921875 0.0068359375 0.037109375 0.0087890625 3:12.0 12:51453.0 14:117.0 
1.0 0.044921875 0.0068359375 0.037109375 0.0087890625 5:27678.0 8:28.0 12:47880.0 14:2142.0 
1.0 0.044921875 0.0068359375 0.037109375 0.0087890625 5:74.0 12:7215.0 14:11.0 
1.0 0.044921875 0.0068359375 0.037109375 0.0087890625 12:243298.0 
1.0 0.044921875 0.0068359375 0.037109375 0.0087890625 3:25.0 4:5.0 5:333.0 12:4834.0 14:1801.0 
1.0 0.044921875 0.0068359375 0.037109375 0.0087890625 12:7995.0 14:555.0 18:8.0 
1.0 0.044921875 0.0068359375 0.037109375 0.0087890625 1:168.0 8:4.0 12:14488.0 14:108.0 
1.0 0.044921875 0.0068359375 0.037109375 0.0087890625 1:700.0 4:42.0 7:101696.0 12:3976.0 14:2380.0 
1.0 0.044921875 0.0068359375 0.037109375 0.0087890625 1:100.0 4:13.0 9:44.0 12:5294.0 14:22.0 20:18.0 
1.0 0.044921875 0.0068359375 0.037109375 0.0087890625 12:238175.0 
1.0 0.044921875 0.0068359375 0.037109375 0.0087890625 8:28.0 12:79114.0 14:2002.0 
1.0 0.044921875 0.0068359375 0.037109375 0.0087890625 3:504.0 5:1792.0 12:124292.0 14:2016.0 
1.0 0.044921875 0.0068359375 0.037109375 0.0087890625 4:32.0 5:108.0 8:12.0 9:80.0 12:14140.0 14:226.0 
1.0 0.044921875 0.0068359375 0.037109375 0.0087890625 12:232216.0 
1.0 0.044921875 0.0068359375 0.037109375 0.007971727362019843 3:278.0 4:1.0 12:2422.0 13:2674.0 14:170.0 
1.0 0.044921875 0.0068359375 0.037109375 0.007838820105462219 1:1.0 9:2.0 12:17674.0 
1.0 0.044921875 0.0068359375 0.037109375 0.007812508829411868 3:2076.0 12:4728.0 14:261.0 
1.0 0.044921875 0.0068359375 0.037109375 0.007812500000268674 7:12.0 12:34414.0 14:354.0 
1.0 0.044921875 0.0068359375 0.037109375 0.0078125 9:9.0 12:8169.0 
1.0 0.044921875 0.0068359375 0.037109375 0.0078125 3:900.0 12:386025.0 
1.0 0.044921875 0.0068359375 0.037109375 0.0078125 3:22.0 4:6.0 5:98.0 12:12658.0 14:78.0 
1.0 0.044921875 0.0068359375 0.037109375 0.0078125 7:10366.0 12:1858.0 14:366.0 
1.0 0.044921875 0.0068359375 0.037109375 0.0078125 4:25.0 5:1840.0 7:475.0 8:30.0 12:23195.0 14:1795.0 
1.0 0.044921875 0.0068359375 0.037109375 0.0078125 12:18726.0 
1.0 0.044921875 0.0068359375 0.037109375 0.0078125 12:8110.0 14:27.0 
1.0 0.044921875 0.0068359375 0.037109375 0.0078125 12:16056.0 14:245.0 
1.0 0.044921875 0.0068359375 0.037109375 0.0078125 12:26737.0 14:1.0 
1.0 0.044921875 0.0068359375 0.037109375 0.0078125 4:10.0 7:34.0 8:2.0 12:7205.0 14:21.0 
1.0 0.044921875 0.0068359375 0.037109375 0.0078125 12:6791.0 14:45.0 
1.0 0.044921875 0.0068359375 0.037109375 0.0078125 5:18472.0 12:14722.0 14:130.0 
1.0 0.044921875 0.0068359375 0.037109375 0.0078125 8:84.0 12:183036.0 
1.0 0.044921875 0.0068359375 0.037109375 0.0078125 1:520.0 3:3510.0 4:2210.0 8:1040.0 12:170300.0 15:650.0 17:4420.0 18:532610.0 
1.0 0.044921875 0.0068359375 0.037109375 0.0078125 12:13180.0 14:182.0 
1.0 0.044921875 0.0068359375 0.037109375 0.0078125 7:5191.0 12:874.0 
1.0 0.044921875 0.0068359375 0.037109375 0.0078125 4:315.0 5:354.0 12:16068.0 14:342.0 
1.0 0.044921875 0.0068359375 0.037109375 0.0078125 8:196504.0 12:13167.0 
1.0 0.044921875 0.0068359375 0.037109375 0.0078125 12:110055.0 
1.0 0.044921875 0.0068359375 0.037109375 0.0078125 1:2.0 7:12352.0 9:24.0 12:1342.0 14:3884.0 
1.0 0.044921875 0.0068359375 0.037109375 0.0078125 3:26.0 4:5.0 5:490.0 8:2.0 9:17.0 12:6306.0 14:988.0 20:12.0 
1.0 0.044921875 0.0068359375 0.037109375 0.0078125 12:155274.0 14:7140.0 
1.0 0.044921875 0.0068359375 0.037109375 0.0078125 12:32376.0 14:771.0 
1.0 0.044921875 0.0068359375 0.037109375 0.0078125 4:50.0 12:234750.0 
1.0 0.044921875 0.0068359375 0.037109375 0.0078125 3:24294.0 5:238.0 12:986.0 14:92.0 
1.0 0.044921875 0.0068359375 0.037109375 0.0078125 8:744.0 12:43408.0 14:832.0 
1.0 0.044921875 0.0068359375 0.037109375 0.0078125 8:127512.0 14:55.0 
1.0 0.044921875 0.0068359375 0.037109375 0.0078125 12:41634.0 
1.0 0.044921875 0.0059771729069345025 0.037109375 0.0078125 8:2556.0 12:19575.0 14:1296.0 
1.0 0.044921875 0.005938988681009727 0.037109375 0.0078125 4:103.0 5:2074.0 12:3093.0 14:403.0 20:60.0 
1.0 0.044921875 0.005879070743227743 0.037109375 0.0078125 8:105.0 12:45825.0 
1.0 0.044921875 0.005872535052731109 0.037109375 0.0078125 12:15.0 13:6332.0 14:1.0 
1.0 0.044921875 0.005859381622051407 0.037109375 0.0078125 12:298.0 14:6634.0 
1.0 0.044921875 0.005859377207352967 0.037109375 0.0078125 4:98.0 12:6848.0 14:342.0 
1.0 0.044921875 0.005859377207352967 0.037109375 0.0078125 12:6277.0 14:25.0 
1.0 0.044921875 0.0058593750002015055 0.037109375 0.0078125 3:2375.0 12:207875.0 14:675.0 18:750.0 
1.0 0.044921875 0.005859375000134337 0.037109375 0.0078125 8:7187.0 14:8.0 
1.0 0.044921875 0.005859375 0.037109375 0.0078125 1:125.0 5:2275.0 7:123475.0 12:19475.0 14:300.0 
1.0 0.044921875 0.005859375 0.037109375 0.0078125 12:183025.0 14:22200.0 
1.0 0.044921875 0.005859375 0.037109375 0.0078125 12:263050.0 14:6025.0 
1.0 0.044921875 0.005859375 0.037109375 0.0078125 5:54.0 12:12388.0 
1.0 0.044921875 0.005859375 0.037109375 0.0078125 4:482.0 5:308.0 12:43114.0 14:418.0 
1.0 0.044921875 0.005859375 0.037109375 0.0078125 1:2.0 4:10.0 9:3.0 12:13732.0 14:16.0 
1.0 0.044921875 0.005859375 0.037109375 0.0078125 12:5732.0 14:65.0 
1.0 0.044921875 0.005859375 0.037109375 0.0078125 1:19.0 4:1.0 12:6457.0 14:563.0 18:56.0 
1.0 0.044921875 0.005859375 0.037109375 0.0078125 3:66.0 12:23433.0 
1.0 0.044921875 0.005859375 0.037109375 0.0078125 12:17805.0 
1.0 0.044921875 0.005859375 0.037109375 0.0078125 12:142798.0 
1.0 0.044921875 0.005859375 0.037109375 0.0078125 9:47.0 12:7283.0 
1.0 0.044921875 0.005859375 0.037109375 0.0078125 5:445.0 12:46345.0 14:470.0 
1.0 0.044921875 0.005859375 0.037109375 0.0078125 12:279374.0 14:472.0 
1.0 0.044921875 0.005859375 0.037109375 0.0078125 4:12.0 12:72162.0 14:10.0 
1.0 0.044921875 0.005859375 0.037109375 0.0078125 1:224.0 4:16.0 5:232.0 8:16.0 9:92.0 12:15702.0 14:300.0 
1.0 0.044921875 0.005859375 0.037109375 0.0078125 3:82325.0 4:650.0 12:27325.0 14:53850.0 18:225.0 
1.0 0.044921875 0.005859375 0.037109375 0.0078125 3:1.0 4:158.0 8:19.0 12:11221.0 14:315.0 
1.0 0.044921875 0.005859375 0.037109375 0.0078125 4:550.0 5:20050.0 12:121775.0 14:250.0 
1.0 0.044921875 0.005859375 0.037109375 0.0078125 3:5.0 12:181665.0 14:945.0 
1.0 0.044921875 0.005859375 0.037109375 0.0078125 1:18.0 7:9812.0 12:9570.0 14:30.0 
1.0 0.044921875 0.005859375 0.037109375 0.0078125 1:1525.0 3:75.0 4:225.0 7:124800.0 9:3225.0 12:54750.0 14:3025.0 
1.0 0.044921875 0.005859375 0.037109375 0.0078125 12:5635.0 14:238.0 
1.0 0.044921875 0.005859375 0.037109375 0.0078125 12:12006.0 14:264.0 18:2.0 
1.0 0.044921875 0.005859375 0.03726860236201979 0.0078125 1:65.0 8:20.0 12:29645.0 14:350.0 
1.0 0.044921875 0.005859375 0.03713569510546222 0.0078125 12:73931.0 
1.0 0.044921875 0.005859375 0.03710938382941187 0.0078125 1:496.0 4:11.0 7:10517.0 12:1667.0 
1.0 0.044921875 0.005859375 0.037109375 0.0078125 12:39336.0 
1.0 0.044921875 0.005859375 0.037109375 0.0078125 1:12.0 12:1306.0 14:11318.0 
1.0 0.044921875 0.0068359375 0.037109375 0.0078125 4:3.0 5:7310.0 12:222.0 
1.0 0.044921875 0.0068359375 0.037109375 0.0078125 12:913.0 14:5765.0 
1.0 0.044921875 0.0068359375 0.037109375 0.0078125 3:422.0 4:8.0 12:9032.0 14:250.0 
1.0 0.044921875 0.0068359375 0.037109375 0.0078125 3:75.0 4:24.0 5:45.0 12:22842.0 14:33.0 
1.0 0.044921875 0.0068359375 0.037109375 0.0078125 4:54.0 12:12472.0 14:146.0 
1.0 0.044921875 0.0068359375 0.037109375 0.0078125 12:44240.0 
1.0 0.044921875 0.0068359375 0.037109375 0.0078125 5:51.0 12:18498.0 
1.0 0.044921875 0.0068359375 0.037109375 0.0078125 5:6440.0 12:70938.0 14:1050.0 
1.0 0.044921875 0.0068359375 0.037109375 0.0078125 3:25.0 5:4525.0 12:142100.0 14:4350.0 18:150.0 
1.0 0.044921875 0.0068359375 0.037109375 0.0078125 12:6816.0 
1.0 0.044921875 0.0068359375 0.037109375 0.0078125 1:1425.0 4:50.0 5:4275.0 12:135725.0 14:2975.0 
1.0 0.044921875 0.0068359375 0.037109375 0.0078125 12:57084.0 
1.0 0.044921875 0.0068359375 0.037109375 0.0078125 5:488.0 12:4868.0 14:230.0 18:8.0 
1.0 0.044921875 0.0068359375 0.037109375 0.0078125 4:18.0 5:692.0 9:5.0 12:13967.0 13:1172.0 14:172.0 
1.0 0.044921875 0.0068359375 0.037109375 0.0078125 1:22.0 8:4785.0 12:60830.0 14:55.0 
1.0 0.044921875 0.0068359375 0.037109375 0.0078125 8:2.0 9:16.0 12:25746.0 14:1584.0 
1.0 0.044921875 0.0068359375 0.037109375 0.0078125 8:99.0 12:125565.0 14:11.0 
1.0 0.044921875 0.0068359375 0.037109375 0.0078125 8:1365.0 12:45808.0 14:14.0 
1.0 0.044921875 0.0068359375 0.037109375 0.0078125 4:50.0 12:142625.0 14:11400.0 
1.0 0.044921875 0.0068359375 0.037109375 0.0078125 1:4.0 3:108.0 5:19.0 8:1123.0 9:3166.0 12:1859.0 13:302.0 15:418.0 
1.0 0.044921875 0.0068359375 0.037109375 0.0078125 5:31.0 12:10428.0 
1.0 0.044921875 0.0068359375 0.037109375 0.0078125 1:61625.0 3:25.0 4:250.0 9:275.0 12:87025.0 
1.0 0.044921875 0.0068359375 0.037109375 0.0078125 12:12392.0 14:48.0 
1.0 0.044921875 0.0068359375 0.037109375 0.0078125 3:325.0 4:50.0 5:1025.0 8:25.0 9:650.0 12:188400.0 14:3375.0 
1.0 0.044921875 0.0068359375 0.037109375 0.0078125 8:13277.0 12:93885.0 14:198.0 
1.0 0.044921875 0.0068359375 0.037109375 0.0078125 5:4150.0 12:377825.0 14:3225.0 
1.0 0.044921875 0.0068359375 0.037109375 0.0078125 3:1.0 4:10.0 5:287.0 12:7182.0 14:109.0 18:54.0 
1.0 0.044921875 0.0068359375 0.037109375 0.0078125 4:1559.0 5:2425.0 9:27.0 12:2755.0 
1.0 0.044921875 0.0068359375 0.037109375 0.0078125 1:22.0 3:24.0 4:32.0 9:160.0 12:15166.0 14:60.0 
1.0 0.044921875 0.0068359375 0.037109375 0.0078125 5:38225.0 8:75.0 12:352000.0 14:74350.0 
1.0 0.044921875 0.0068359375 0.037109375 0.0078125 1:76.0 3:19.0 9:6.0 12:6050.0 14:189.0 
1.0 0.044921875 0.0068359375 0.037109375 0.0078125 8:1792.0 9:140.0 12:93198.0 14:2184.0 
1.0 0.044921875 0.0068359375 0.037109375 0.0078125 1:175.0 4:275.0 5:15875.0 9:200.0 12:109300.0 14:75375.0 
1.0 0.044921875 0.0068359375 0.037109375 0.0078125 1:438.0 12:24866.0 14:100.0 
1.0 0.044921875 0.0068359375 0.037109375 0.0078125 3:2275.0 12:246550.0 14:16300.0 18:150.0 
1.0 0.044921875 0.0068359375 0.037109375 0.0078125 8:340356.0 12:738.0 14:180.0 
1.0 0.044921875 0.0068359375 0.037109375 0.0078125 8:11704.0 12:110517.0 14:99.0 
1.0 0.044921875 0.0068359375 0.037109375 0.0078125 12:7419.0 18:1.0 
1.0 0.044921875 0.0068359375 0.037109375 0.0078125 5:3246.0 12:5739.0 14:217.0 18:12.0 
1.0 0.044921875 0.0068359375 0.037109375 0.0078125 3:75.0 4:1125.0 5:30500.0 7:50675.0 12:87925.0 14:825.0 
1.0 0.044921875 0.0068359375 0.037109375 0.0078125 1:12.0 9:32.0 12:12552.0 14:506.0 
1.0 0.044921875 0.0068359375 0.037109375 0.0078125 3:123.0 5:90.0 12:26874.0 14:129.0 
1.0 0.045188551698225055 0.0068359375 0.037109375 0.0078125 12:482132.0 
1.0 0.0451176639733642 0.0068359375 0.037109375 0.0078125 4:100.0 5:1175.0 7:22950.0 9:400.0 12:309900.0 14:13200.0 18:1100.0 
1.0 0.0451176639733642 0.0068359375 0.037109375 0.0078125 5:45.0 12:18235.0 14:39.0 
1.0 0.045081102362019176 0.0068359375 0.037109375 0.0078125 4:17.0 5:445.0 12:5217.0 14:83.0 
1.0 0.044967603561740344 0.0068359375 0.037109375 0.0078125 12:40460.0 14:145026.0 
1.0 0.04495468646008999 0.0068359375 0.037109375 0.0078125 4:16225.0 5:474700.0 12:539675.0 14:1100.0 
1.0 0.04495468646008999 0.0068359375 0.037109375 0.0078125 1:9.0 3:671.0 7:3945.0 12:1176.0 14:353.0 
1.0 0.04494819510546222 0.0068359375 0.037109375 0.0078125 5:90.0 12:32435.0 14:140.0 
1.0 0.04492188824409282 0.0068359375 0.037109375 0.0078125 5:2072.0 7:59448.0 9:88.0 12:65504.0 14:32.0 18:376.0 
1.0 0.04492188603674985 0.0068359375 0.037109375 0.0078125 1:217.0 8:42441.0 12:7105.0 14:161.0 
1.0 0.044921883829386944 0.0068359375 0.037109375 0.0078125 3:282.0 5:1977.0 12:13665.0 14:648.0 
1.0 0.044921879414705934 0.0068359375 0.037109375 0.0078125 5:2966.0 12:9706.0 14:920.0 18:84.0 
1.0 0.044921879414705934 0.0068359375 0.037109375 0.0078125 12:268550.0 14:5950.0 
1.0 0.044921879414705934 0.0068359375 0.037109375 0.0078125 3:1585.0 5:1565.0 12:29930.0 14:255.0 
1.0 0.044921875000470235 0.0068359375 0.037109375 0.0078125 12:4606.0 14:1842.0 
1.0 0.0449218750003359 0.0068359375 0.037109375 0.0078125 12:111356.0 14:2926.0 
1.0 0.0449218750003359 0.0068359375 0.037109375 0.0078125 5:1089.0 9:24.0 12:19435.0 14:3580.0 
1.0 0.04492187500026873 0.0068359375 0.037109375 0.0078125 3:12.0 5:54.0 12:85554.0 
1.0 0.04492187500000078 0.0068359375 0.037109375 0.0078125 12:144800.0 14:4600.0 
1.0 0.04492187500000039 0.0068359375 0.037109375 0.0078125 12:5277.0 14:179.0 
1.0 0.04492187500000039 0.0068359375 0.037109375 0.0078125 8:1539.0 12:548150.0 14:266.0 
1.0 0.04492187500000039 0.0068359375 0.037109375 0.0078125 8:17157.0 12:111967.0 14:57.0 
1.0 0.044921875 0.0068359375 0.037109375 0.0078125 1:16.0 4:12.0 9:8.0 12:5971.0 14:41.0 
1.0 0.044921875 0.0068359375 0.037109375 0.0078125 8:6662.0 
1.0 0.044921875 0.0068359375 0.037109375 0.0078125 5:946.0 12:9900.0 14:870.0 18:50.0 
1.0 0.044921875 0.0068359375 0.037109375 0.0078125 12:14128.0 
1.0 0.044921875 0.0068359375 0.037109375 0.0078125 5:316.0 12:12572.0 14:72.0 
1.0 0.044921875 0.0068359375 0.037109375 0.0078125 3:25.0 4:175.0 5:525.0 8:1275.0 12:162525.0 14:5775.0 16:50.0 
1.0 0.044921875 0.0068359375 0.037109375 0.0078125 8:1056.0 12:106348.0 14:7898.0 
1.0 0.044921875 0.0068359375 0.037109375 0.0078125 12:595546.0 14:350.0 
1.0 0.044921875 0.0068359375 0.037109375 0.0078125 12:82150.0 
1.0 0.044921875 0.0068359375 0.037109375 0.0078125 1:3900.0 3:260.0 4:520.0 5:260.0 7:147680.0 8:172900.0 9:232830.0 10:2340.0 12:183690.0 15:1560.0 
1.0 0.044921875 0.0068359375 0.037109375 0.0078125 1:1300.0 3:6890.0 4:130.0 8:187070.0 10:3640.0 11:57330.0 12:92040.0 13:146250.0 15:274040.0 19:650.0 
1.0 0.044921875 0.0068359375 0.037109375 0.0078125 12:11186.0 14:604.0 
1.0 0.044921875 0.0068359375 0.037109375 0.0078125 12:60324.0 
1.0 0.044921875 0.0068359375 0.037109375 0.0078125 5:1014.0 12:11418.0 14:38.0 
1.0 0.044921875 0.0068359375 0.037109375 0.0078125 12:92092.0 
1.0 0.044921875 0.0068359375 0.037109375 0.0078125 4:675.0 12:153025.0 14:7625.0 
1.0 0.044921875 0.0068359375 0.037109375 0.0078125 3:1100.0 5:25.0 12:236000.0 14:3500.0 18:1750.0 
1.0 0.044921875 0.0068359375 0.037109375 0.0078125 4:75.0 5:6325.0 7:87150.0 8:50.0 12:73775.0 14:1350.0 
1.0 0.044921875 0.0068359375 0.037109375 0.0078125 8:2750.0 12:61193.0 14:44.0 
1.0 0.044921875 0.0068359375 0.037109375 0.0078125 3:1236.0 12:17982.0 
1.0 0.044921875 0.0068359375 0.037109375 0.0078125 12:13410.0 
1.0 0.044921875 0.0068359375 0.037109375 0.0078125 5:1247.0 12:6430.0 14:455.0 
1.0 0.044921875 0.0068359375 0.037109375 0.0078125 5:176.0 9:17.0 12:6975.0 
1.0 0.044921875 0.0068359375 0.037109375 0.0078125 8:3377.0 12:344960.0 14:66.0 
1.0 0.044921875 0.0068359375 0.037109375 0.0078125 3:14.0 5:1876.0 8:5929.0 12:16702.0 14:18074.0 18:133.0 
1.0 0.044921875 0.0068359375 0.037109375 0.0078125 3:12.0 5:825.0 12:7336.0 14:132.0 
1.0 0.044921875 0.0068359375 0.037109375 0.0078125 4:3.0 5:3.0 8:441.0 9:6.0 12:30204.0 
1.0 0.044921875 0.0068359375 0.037109375 0.0078125 5:156.0 12:49502.0 14:18.0 
1.0 0.044921875 0.0068359375 0.037109375 0.0078125 1:1142.0 4:94.0 9:198.0 12:6278.0 14:3990.0 
1.0 0.044921879414705934 0.0068359375 0.037109375 0.0078125 3:105.0 5:2247.0 12:21114.0 
1.0 0.044921875 0.0068359375 0.037109375 0.0078125 12:16306.0 
1.0 0.044921875 0.0068359375 0.037109375 0.0078125 1:825.0 4:21.0 5:6210.0 8:6.0 12:49992.0 14:948.0 
1.0 0.044921875 0.0068359375 0.037109375 0.0078125 8:12.0 12:14058.0 14:298.0 18:78.0 
1.0 0.044921875 0.0068359375 0.037109375 0.0078125 7:611175.0 12:729575.0 14:3025.0 
1.0 0.044921875 0.0068359375 0.037109375 0.0078125 12:390500.0 
1.0 0.044921875 0.0068359375 0.037109375 0.0078125 5:1390.0 12:25290.0 14:735.0 
1.0 0.044921875 0.0068359375 0.037109375 0.0078125 5:6.0 12:42284.0 
1.0 0.044921875 0.0068359375 0.037109375 0.0078125 5:3246.0 12:3579.0 14:89.0 
1.0 0.044921875 0.0068359375 0.037109375 0.0078125 5:162.0 12:6282.0 14:29.0 
1.0 0.044921875 0.0068359375 0.037109375 0.0078125 5:431.0 12:5110.0 14:214.0 
1.0 0.044921875 0.0068359375 0.037109375 0.0078125 5:18431.0 12:5768.0 14:141.0 
1.0 0.044921875 0.0068359375 0.037109375 0.0078125 12:17866.0 
1.0 0.044921875 0.0068359375 0.037109375 0.0078125 2:25.0 5:2060.0 12:7514.0 14:151.0 18:279.0 
1.0 0.044921875 0.0068359375 0.037109375 0.0078125 3:25.0 4:625.0 5:17325.0 12:172100.0 14:5650.0 
1.0 0.044921875 0.0068359375 0.037109375 0.0078125 4:14.0 5:140.0 8:714.0 12:101612.0 14:1330.0 
1.0 0.044921875 0.0068359375 0.037109375 0.0078125 4:1138.0 12:3512.0 14:2995.0 18:47.0 
1.0 0.044921875 0.0068359375 0.037109375 0.0078125 3:2.0 5:866.0 12:14928.0 
1.0 0.044921875 0.0068359375 0.037109375 0.0078125 3:4.0 5:94.0 8:4.0 12:15990.0 14:566.0 
1.0 0.044921875 0.0068359375 0.037109375 0.0078125 4:3710.0 7:103362.0 12:17626.0 14:2142.0 
1.0 0.044921875 0.0068359375 0.037109375 0.0078125 4:32.0 5:601.0 12:8380.0 14:174.0 
1.0 0.044921875 0.0068359375 0.03745790087706152 0.0078125 5:16715.0 12:36200.0 14:2605.0 18:90.0 
1.0 0.044921875 0.0068359375 0.037268602362020065 0.0078125 4:25.0 5:519500.0 9:525.0 12:563800.0 14:900.0 
1.0 0.044921875 0.0068359375 0.03726860236201984 0.0078125 4:9.0 9:75.0 12:30546.0 14:462.0 
1.0 0.044921875 0.0068359375 0.037168329222076635 0.0078125 12:128665.0 14:2205.0 
1.0 0.044921875 0.0068359375 0.03713569510546222 0.0078125 12:22794.0 14:2.0 
1.0 0.044921875 0.0068359375 0.03713569510546222 0.0078125 12:48038.0 14:506.0 
1.0 0.044921875 0.0068359375 0.03710939486614678 0.0078125 3:950.0 5:4950.0 12:831200.0 14:1950.0 
1.0 0.044921875 0.0068359375 0.03710938382941187 0.0078125 12:70374.0 
1.0 0.044921875 0.0068359375 0.03710938382941187 0.0078125 2:5.0 3:2.0 4:6605.0 12:1555.0 14:45.0 
1.0 0.044921875 0.0068359375 0.03710937500060457 0.0078125 5:32825.0 9:50.0 12:121950.0 14:5650.0 
1.0 0.044921875 0.0068359375 0.0371093750005374 0.0078125 7:3886.0 12:1551.0 14:176.0 
1.0 0.044921875 0.0068359375 0.03710937500000161 0.0078125 12:73744.0 
1.0 0.044921875 0.0068359375 0.037109375 0.0078125 1:14690.0 3:5070.0 4:520.0 6:1170.0 8:461110.0 12:334100.0 15:43030.0 
1.0 0.044921875 0.0068359375 0.037109375 0.0078125 4:72.0 5:234.0 12:11738.0 14:520.0 
1.0 0.044921875 0.0068359375 0.037109375 0.0078125 8:26766.0 12:11622.0 14:61968.0 
1.0 0.044921875 0.0068359375 0.037109375 0.0078125 4:6.0 5:10.0 12:5528.0 14:63.0 
1.0 0.044921875 0.0068359375 0.037109375 0.0078125 3:1246.0 4:130.0 5:312.0 12:16840.0 14:434.0 18:144.0 
1.0 0.044921875 0.0068359375 0.037109375 0.0078125 8:9449.0 12:52723.0 14:77.0 
1.0 0.044921875 0.0068359375 0.037109375 0.0078125 12:102564.0 14:3472.0 18:630.0 
1.0 0.044921875 0.0068359375 0.037109375 0.0078125 12:90.0 14:39660.0 
1.0 0.044921875 0.0068359375 0.037109375 0.0078125 14:62678.0 
1.0 0.044921875 0.0068359375 0.037109375 0.0078125 12:6585.0 14:205.0 
1.0 0.044921875 0.0068359375 0.037109375 0.0078125 5:18.0 12:12066.0 14:590.0 
1.0 0.044921875 0.0068359375 0.037109375 0.0078125 8:11016.0 12:33424.0 14:72.0 
1.0 0.044921875 0.0068359375 0.037109375 0.0078125 12:12563.0 14:12.0 
1.0 0.044921875 0.0068359375 0.037109375 0.0078125 3:12.0 5:14216.0 8:4.0 12:1274.0 14:12.0 
1.0 0.044921875 0.0068359375 0.037109375 0.0078125 4:1.0 5:590.0 8:2.0 12:10798.0 14:113.0 18:1481.0 
1.0 0.044921875 0.0068359375 0.037109375 0.0078125 1:1.0 3:9295.0 8:6.0 12:479.0 14:1.0 
1.0 0.044921875 0.0068359375 0.037109375 0.0078125 1:18.0 3:6534.0 4:14.0 12:16900.0 
1.0 0.044921875 0.0068359375 0.037109375 0.0078125 3:6500.0 4:50.0 12:122800.0 14:11000.0 
1.0 0.044921875 0.0068359375 0.037109375 0.0078125 3:78.0 4:259.0 5:271.0 12:4684.0 14:296.0 
1.0 0.044921875 0.0068359375 0.037109375 0.0078125 12:30608.0 
1.0 0.044921875 0.0068359375 0.037109375 0.0078125 5:197.0 12:6870.0 14:150.0 
1.0 0.044921875 0.0068359375 0.037109375 0.0078125 4:2.0 12:9065.0 
1.0 0.044921875 0.0068359375 0.037109375 0.0078125 5:425.0 9:375.0 12:117350.0 14:22675.0 
1.0 0.044921875 0.0068359375 0.037109375 0.0078125 12:12806.0 14:2572.0 
1.0 0.044921875 0.0068359375 0.037109375 0.0078125 8:2950.0 12:31450.0 
1.0 0.044921875 0.0068359375 0.037109375 0.0078125 3:64700.0 4:75.0 7:600.0 9:300.0 12:221050.0 14:8275.0 20:49050.0 
1.0 0.044921875 0.0068359375 0.037109375 0.0078125 1:125.0 4:550.0 9:150.0 12:537600.0 14:900.0 
1.0 0.044921875 0.0068359375 0.037109375 0.0078125 3:4.0 12:32550.0 14:4314.0 
1.0 0.044921875 0.0068359375 0.037109375 0.0078125 1:82.0 4:8.0 5:77.0 12:5657.0 13:1012.0 14:371.0 
1.0 0.044921875 0.0068359375 0.037109375 0.0078125 5:42.0 12:11516.0 14:92.0 
1.0 0.044921875 0.0068359375 0.037109375 0.0078125 4:420.0 12:101770.0 14:755.0 
1.0 0.044921875 0.0068359375 0.037109375 0.0078125 1:6.0 7:4989.0 12:9019.0 14:79.0 
1.0 0.044921875 0.0068359375 0.037109375 0.0078125 4:462.0 5:63.0 12:4581.0 14:237.0 20:14667.0 
1.0 0.044921875 0.0068359375 0.037109375 0.0078125 5:8.0 11:1.0 12:9323.0 14:159.0 
1.0 0.044921875 0.0068359375 0.037109375 0.0078125 1:340.0 12:6369.0 14:21.0 
1.0 0.044921875 0.0068359375 0.037109375 0.0078125 12:14398.0 
1.0 0.044921875 0.0068359375 0.037109375 0.0078125 12:17082.0 
1.0 0.044921875 0.0068359375 0.037109375 0.0078125 3:1150.0 12:187000.0 14:2075.0 
1.0 0.044921875 0.0068359375 0.037109375 0.0078125 3:84.0 5:1684.0 12:13864.0 14:3882.0 
1.0 0.044921875 0.0068359375 0.037109375 0.0078125 5:176.0 8:2.0 12:14988.0 14:103.0 
1.0 0.044921875 0.0068359375 0.037109375 0.0078125 9:9.0 12:5912.0 
1.0 0.044921875 0.0068359375 0.037109375 0.0078125 4:40.0 5:210.0 12:8050.0 14:172.0 18:4.0 
1.0 0.044921875 0.0068359375 0.037109375 0.0078125 5:1138.0 12:7667.0 14:151.0 18:7.0 
1.0 0.044921875 0.0068359375 0.037109375 0.0078125 3:105.0 12:1086.0 14:17949.0 
1.0 0.044921875 0.0068359375 0.037109375 0.0078125 3:282.0 12:66887.0 14:2.0 
1.0 0.044921875 0.0068359375 0.037109375 0.0078125 1:5.0 12:6036.0 14:78.0 
1.0 0.044921875 0.0068359375 0.037109375 0.0078125 1:95.0 3:5.0 4:5.0 12:26525.0 14:775.0 
1.0 0.044921875 0.0068359375 0.037109375 0.0078125 4:25.0 5:57000.0 8:1700.0 12:85150.0 14:6975.0 
1.0 0.044921875 0.0068359375 0.037109375 0.0078125 12:10194.0 14:796.0 
1.0 0.044921875 0.0068359375 0.037109375 0.0078125 8:882.0 12:48744.0 14:3474.0 
1.0 0.044921875 0.0068359375 0.037109375 0.0078125 1:109.0 4:28.0 5:2.0 9:29.0 12:7069.0 14:912.0 18:6.0 
1.0 0.044921875 0.0068359375 0.037109375 0.0078125 4:21.0 12:16173.0 14:1308.0 18:30.0 
1.0 0.044921875 0.0068359375 0.037109375 0.0078125 5:160.0 12:7343.0 14:112.0 
1.0 0.044921875 0.0068359375 0.037109375 0.0078125 3:45.0 4:215.0 5:245.0 12:39015.0 
1.0 0.044921875 0.0068359375 0.037109375 0.0078125 3:39.0 12:6369.0 
1.0 0.044921875 0.0068359375 0.037109375 0.0078125 3:180.0 5:309.0 12:21948.0 14:267.0 
1.0 0.044921875 0.0068359375 0.037109375 0.0078125 3:20.0 4:25.0 5:8165.0 9:70.0 12:19175.0 14:255.0 
1.0 0.044921875 0.0068359375 0.037109375 0.0078125 5:164.0 8:628.0 12:13932.0 
1.0 0.044921875 0.0068359375 0.037109375 0.0078125 4:2.0 12:15060.0 
1.0 0.044921875 0.0068359375 0.037109375 0.0078125 1:2.0 5:39851.0 12:13919.0 14:5890.0 
1.0 0.044921875 0.0068359375 0.037109375 0.0078125 12:87813.0 14:11011.0 
1.0 0.044921875 0.0068359375 0.037109375 0.0078125 5:35775.0 12:147075.0 14:4225.0 
1.0 0.044921875 0.0068359375 0.037109375 0.0078125 5:834.0 12:3755.0 14:1000.0 
1.0 0.044921875 0.005859377207352967 0.037109375 0.0078125 9:24.0 12:20169.0 14:534.0 
1.0 0.044921875 0.0068359375 0.037109375 0.0078125 12:16258.0 14:94.0 
1.0 0.044921875 0.0068359375 0.037109375 0.0078125 5:596.0 12:15028.0 14:148.0 
1.0 0.044921875 0.0068359375 0.037109375 0.0078125 4:2.0 5:168.0 9:208.0 12:10772.0 14:220.0 
1.0 0.044921875 0.0068359375 0.037109375 0.0078125 8:13934.0 13:4.0 
1.0 0.044921875 0.0068359375 0.037109375 0.0078125 8:630.0 12:34344.0 
1.0 0.044921875 0.0068359375 0.037109375 0.0078125 12:5517.0 14:162.0 
1.0 0.044921875 0.0068359375 0.037109375 0.0078125 1:476.0 5:7364.0 12:173418.0 14:2212.0 
1.0 0.044921875 0.0068359375 0.037109375 0.0078125 5:872.0 12:13966.0 14:268.0 
1.0 0.044921875 0.0068359375 0.037109375 0.0078125 12:12082.0 
1.0 0.044921875 0.0068359375 0.037109375 0.0078125 1:3.0 3:23.0 5:3892.0 8:27.0 12:2260.0 14:22.0 18:17.0 
1.0 0.044921875 0.0068359375 0.037109375 0.0078125 5:130.0 8:6.0 12:9838.0 14:202.0 
1.0 0.044921875 0.0068359375 0.037109375 0.0078125 12:47775.0 14:119475.0 
1.0 0.044921875 0.0068359375 0.037109375 0.0087890625 3:2427.0 4:36.0 5:326.0 12:3055.0 14:145.0 
1.0 0.044921875 0.0068359375 0.037109375 0.0087890625 12:5935.0 14:279.0 
1.0 0.044921875 0.0068359375 0.037109375 0.0087890625 12:28896.0 14:2562.0 
1.0 0.044921875 0.0068359375 0.037109375 0.0087890625 12:7150.0 14:3.0 
1.0 0.044921875 0.0068359375 0.037109375 0.0087890625 3:8.0 5:37.0 12:10740.0 14:209.0 18:17.0 
1.0 0.044921875 0.0068359375 0.037109375 0.0087890625 12:7689.0 14:168.0 
1.0 0.044921875 0.0068359375 0.037109375 0.0087890625 8:1165.0 12:33325.0 14:20.0 
1.0 0.044921875 0.0068359375 0.037109375 0.0087890625 8:32.0 12:47672.0 
1.0 0.044921875 0.0068359375 0.037109375 0.0087890625 3:3150.0 12:189300.0 14:4275.0 
1.0 0.044921875 0.0068359375 0.037109375 0.0087890625 12:6402.0 
1.0 0.044921875 0.0068359375 0.037109375 0.0087890625 5:83.0 12:11187.0 14:445.0 
1.0 0.044921875 0.0068359375 0.037109375 0.0087890625 5:177.0 12:6760.0 14:127.0 
1.0 0.044921875 0.0068359375 0.037109375 0.0087890625 12:83916.0 14:840.0 
1.0 0.0451176639733642 0.0068359375 0.037109375 0.0087890625 1:150.0 3:575.0 5:12750.0 12:180425.0 14:3450.0 18:250.0 
1.0 0.045081102362019176 0.0068359375 0.037109375 0.0087890625 4:7.0 5:33.0 7:3989.0 9:1530.0 12:1061.0 14:1274.0 
1.0 0.04495468646008993 0.0068359375 0.037109375 0.0087890625 5:370.0 12:53790.0 18:165.0 
1.0 0.04494819510546222 0.0068359375 0.037109375 0.0087890625 3:2.0 4:10.0 12:1928.0 14:17892.0 
1.0 0.0449218860367499 0.0068359375 0.037109375 0.0087890625 1:550.0 12:2313775.0 14:8700.0 
1.0 0.044921879414705934 0.0068359375 0.037109375 0.0087890625 12:209492.0 14:144.0 
1.0 0.044921879414705934 0.0068359375 0.037109375 0.0087890625 4:7299.0 5:4.0 12:698.0 14:1028.0 20:7.0 
1.0 0.0449218750003359 0.0068359375 0.037109375 0.0087890625 8:6.0 12:979.0 14:9207.0 
1.0 0.04492187500026873 0.0068359375 0.037109375 0.0087890625 3:20.0 12:21352.0 
1.0 0.044921875 0.0068359375 0.037109375 0.0087890625 5:22.0 7:14264.0 12:2170.0 14:248.0 18:12.0 
1.0 0.044921875 0.0068359375 0.037109375 0.0087890625 4:12.0 12:17277.0 14:300.0 
1.0 0.044921875 0.0068359375 0.037109375 0.0087890625 12:38750.0 
1.0 0.044921875 0.0068359375 0.037109375 0.0087890625 3:1445.0 12:4745.0 14:11.0 
1.0 0.044921875 0.0068359375 0.037109375 0.0087890625 4:1950.0 5:23550.0 9:250.0 12:172375.0 14:3100.0 18:725.0 
1.0 0.044921875 0.0068359375 0.037109375 0.0087890625 12:13492.0 14:906.0 
1.0 0.044921875 0.0068359375 0.037109375 0.0087890625 8:1530.0 12:16134.0 14:18.0 
1.0 0.044921875 0.0068359375 0.037109375 0.0087890625 3:150.0 4:4725.0 5:26925.0 8:25.0 12:179175.0 14:2475.0 18:250.0 
1.0 0.044921875 0.0068359375 0.037109375 0.0087890625 1:200.0 12:312050.0 14:2050.0 
1.0 0.0458984375 0.0068359375 0.037109375 0.0087890625 8:64.0 12:11192.0 
1.0 0.0458984375 0.0068359375 0.037109375 0.0087890625 12:15874.0 
1.0 0.0458984375 0.0068359375 0.037109375 0.0087890625 8:66.0 12:77715.0 
1.0 0.0458984375 0.0068359375 0.037109375 0.0087890625 12:5621.0 14:2459.0 
1.0 0.0458984375 0.0068359375 0.037109375 0.0087890625 1:4575.0 4:125.0 5:950.0 7:25.0 9:525.0 12:239175.0 14:12725.0 18:250.0 20:2400.0 
1.0 0.0458984375 0.0068359375 0.037109375 0.0087890625 3:6.0 4:28.0 12:34518.0 14:334.0 
1.0 0.0458984375 0.0068359375 0.037109375 0.0087890625 12:248290.0 14:3598.0 
1.0 0.0458984375 0.0068359375 0.037109375 0.0087890625 5:316.0 12:33042.0 14:172.0 
1.0 0.0458984375 0.0068359375 0.037109375 0.0087890625 8:3258.0 12:62.0 14:13664.0 
1.0 0.0458984375 0.0068359375 0.037109375 0.0087890625 8:1416.0 12:46328.0 
1.0 0.0458984375 0.0068359375 0.037109375 0.0087890625 8:6655.0 12:60797.0 14:55.0 
1.0 0.0458984375 0.0068359375 0.037109375 0.0087890625 4:9688.0 12:125622.0 14:756.0 
1.0 0.0458984375 0.0068359375 0.037109375 0.0087890625 5:1358.0 9:15.0 12:7339.0 14:503.0 18:27.0 
1.0 0.0458984375 0.0068359375 0.037109375 0.0087890625 1:154.0 4:98.0 9:826.0 12:122108.0 14:2072.0 
1.0 0.0458984375 0.0068359375 0.037109375 0.0087890625 8:12.0 12:19972.0 18:244.0 
1.0 0.0458984375 0.0068359375 0.037109375 0.0087890625 8:407.0 12:64581.0 14:165.0 
1.0 0.0458984375 0.0068359375 0.037109375 0.0087890625 12:85646.0 
1.0 0.0458984375 0.0068359375 0.037109375 0.0087890625 8:2046.0 12:152284.0 14:11.0 
1.0 0.0458984375 0.0068359375 0.037109375 0.0087890625 3:12390.0 12:224812.0 14:3612.0 
1.0 0.0458984375 0.0068359375 0.037109375 0.0087890625 5:21.0 12:4855.0 14:2341.0 18:21.0 20:5258.0 
1.0 0.0458984375 0.0068359375 0.037109375 0.0087890625 4:364.0 5:560.0 8:98.0 12:186732.0 14:2044.0 
1.0 0.0458984375 0.0068359375 0.037109375 0.0087890625 5:2.0 12:17792.0 14:120.0 
1.0 0.0458984375 0.0068359375 0.037109375 0.0087890625 1:1400.0 12:162675.0 14:5500.0 18:175.0 
1.0 0.0458984375 0.0068359375 0.037109375 0.0087890625 8:6984.0 12:50720.0 14:24.0 
1.0 0.0458984375 0.0068359375 0.037109375 0.0087890625 4:14.0 5:556.0 12:13590.0 14:564.0 
1.0 0.0458984375 0.0068359375 0.037109375 0.0087890625 1:15.0 12:12387.0 14:8463.0 
1.0 0.0458984375 0.0068359375 0.037109375 0.0087890625 12:20622.0 14:450.0 
1.0 0.0458984375 0.0068359375 0.037109375 0.0087890625 12:12050.0 14:202.0 
1.0 0.0458984375 0.0068359375 0.037109375 0.0087890625 3:98.0 12:24764.0 14:344.0 18:6.0 
1.0 0.0458984375 0.0068359375 0.037109375 0.0087890625 1:132.0 4:4.0 9:4.0 12:11794.0 14:140.0 20:2.0 
1.0 0.0458984375 0.0068359375 0.037109375 0.0087890625 8:22.0 12:67254.0 
1.0 0.0458984375 0.0068359375 0.037109375 0.0087890625 4:2.0 5:15558.0 8:20.0 12:3200.0 
1.0 0.0458984375 0.0068359375 0.037109375 0.0087890625 7:2626.0 12:8244.0 14:134.0 
1.0 0.0458984375 0.0068359375 0.037109375 0.0087890625 7:4113.0 12:1488.0 
1.0 0.0458984375 0.0068359375 0.037109375 0.0087890625 12:64519.0 
1.0 0.0458984375 0.0068359375 0.037109375 0.0087890625 12:8475.0 14:33.0 
1.0 0.0458984375 0.0068359375 0.037109375 0.0087890625 3:560.0 7:48286.0 9:434.0 12:39382.0 14:1428.0 
1.0 0.0458984375 0.0068359375 0.037109375 0.0087890625 1:75.0 7:449800.0 12:11150.0 14:205650.0 
1.0 0.0458984375 0.0068359375 0.037109375 0.0087890625 4:5.0 12:35635.0 14:1235.0 
1.0 0.0458984375 0.0068359375 0.037109375 0.0087890625 4:47.0 5:22708.0 12:578.0 14:40.0 
1.0 0.0458984375 0.0068359375 0.037109375 0.0087890625 12:6126.0 14:293.0 
1.0 0.0458984375 0.0068359375 0.037109375 0.0087890625 12:16660.0 14:480.0 
1.0 0.0458984375 0.0068359375 0.037109375 0.0087890625 12:13956.0 14:83.0 
1.0 0.0458984375 0.0068359375 0.037109375 0.0087890625 1:2000.0 2:50.0 3:7250.0 4:14400.0 8:50.0 9:1300.0 12:275550.0 14:7400.0 
1.0 0.0458984375 0.0068359375 0.037109375 0.0087890625 4:2.0 5:774.0 12:47952.0 14:554.0 
1.0 0.0458984375 0.0068359375 0.037109375 0.0087890625 3:370.0 4:30.0 12:17364.0 14:470.0 
1.0 0.0458984375 0.0068359375 0.037109375 0.0087890625 3:367.0 4:1.0 5:28.0 9:37.0 12:5418.0 14:276.0 
1.0 0.0458984375 0.0068359375 0.037109375 0.0087890625 9:10.0 12:9807.0 14:90.0 
1.0 0.0458984375 0.0068359375 0.037109375 0.0087890625 5:1509.0 12:4672.0 14:11.0 
1.0 0.0458984375 0.0068359375 0.037109375 0.0087890625 1:44.0 4:1134.0 12:12488.0 14:778.0 20:9010.0 
1.0 0.0458984375 0.0068359375 0.037109375 0.0087890625 3:11.0 4:110.0 5:5.0 8:10.0 12:6864.0 14:89.0 
1.0 0.0458984375 0.0068359375 0.037109375 0.0087890625 12:144200.0 14:125.0 
1.0 0.0458984375 0.0068359375 0.037109375 0.0087890625 3:1.0 4:223.0 5:145.0 9:24.0 12:7542.0 14:236.0 
1.0 0.0458984375 0.0068359375 0.037109375 0.0087890625 1:3.0 12:19158.0 14:132.0 
1.0 0.0458984375 0.0068359375 0.037109375 0.0087890625 4:66.0 12:25878.0 14:12021.0 
1.0 0.0458984375 0.0068359375 0.037109375 0.0087890625 12:46135.0 14:255.0 
1.0 0.0458984375 0.0068359375 0.037109375 0.0087890625 3:71.0 5:285.0 12:5093.0 14:357.0 18:10.0 
1.0 0.0458984375 0.0068359375 0.0380859375 0.0087890625 12:23391.0 14:510.0 
1.0 0.0458984375 0.0068359375 0.0380859375 0.0087890625 5:275.0 12:196175.0 
1.0 0.0458984375 0.0068359375 0.0380859375 0.0087890625 3:350.0 4:200.0 5:133300.0 12:24500.0 14:6350.0 18:200.0 
1.0 0.0458984375 0.0068359375 0.0380859375 0.0087890625 4:75.0 9:700.0 12:854425.0 14:20325.0 
1.0 0.0458984375 0.0068359375 0.0380859375 0.0087890625 5:38500.0 12:132725.0 14:8275.0 18:425.0 
1.0 0.0458984375 0.0068359375 0.0380859375 0.0087890625 1:121.0 3:334.0 9:32.0 12:5301.0 14:239.0 20:1948.0 
1.0 0.0458984375 0.0068359375 0.0380859375 0.0087890625 12:10113.0 14:161.0 18:63.0 
1.0 0.0458984375 0.0068359375 0.0380859375 0.0087890625 12:18873.0 14:1152.0 
1.0 0.0458984375 0.0068359375 0.0380859375 0.0087890625 12:13449.0 14:321.0 
1.0 0.04492187500000033 0.005859375000000389 0.0380859375 0.0087890625 8:380.0 12:49320.0 14:5.0 
-0.8291015731227186 0.037109375 0.0048828125 0.0302734375 0.005859375 12:47132.0 18:44.0 
-0.8291015731227186 0.037109375 0.0048828125 0.0302734375 0.005859375 1:22.0 3:44.0 9:44.0 12:134354.0 13:30008.0 14:5060.0 
-0.8291015731227186 0.037109375 0.0048828125 0.0302734375 0.005859375 12:30000.0 14:18564.0 
-0.8291015731227186 0.037109375 0.0048828125 0.0302734375 0.005859375 12:177738.0 14:3146.0 
-0.8291015731227186 0.037109375 0.0048828125 0.0302734375 0.005859375 5:29.0 12:9478.0 14:28.0 
-0.8291015695818129 0.037109375 0.0048828125 0.0302734375 0.005859375 4:861.0 12:52738.0 14:2793.0 16:259.0 
-0.8291015695818129 0.037109375 0.0048828125 0.0302734375 0.005859375 3:131.0 12:6928.0 
-0.8291015695818129 0.037109375 0.0048828125 0.0302734375 0.005859375 1:6.0 12:24078.0 14:99.0 
-0.8291015695818129 0.037109375 0.0048828125 0.0302734375 0.005859375 1:679.0 4:966.0 8:28.0 9:147.0 12:43281.0 13:146923.0 14:15792.0 16:322.0 
-0.8291015652693917 0.037109375 0.0048828125 0.03125 0.005859375 1:5178.0 4:160.0 12:2979.0 14:36.0 
-0.8291015652491772 0.037109375 0.0048828125 0.03125 0.005859375 5:639.0 12:50562.0 14:558.0 
-0.8291015650874609 0.037109375 0.0048828125 0.03125 0.005859375 3:3278.0 4:22.0 12:116666.0 14:2970.0 
-0.8291015647640284 0.037109375 0.0048828125 0.03125 0.005859375 12:389972.0 14:308.0 
-0.8291015647640284 0.037109375 0.0048828125 0.03125 0.005859375 8:30.0 12:41268.0 14:468.0 
-0.8291015647640284 0.037109375 0.0048828125 0.03125 0.005859375 5:532.0 12:43204.0 14:1428.0 16:161.0 
-0.8291015644405958 0.037109375 0.0048828125 0.03125 0.005859375 1:1.0 5:59.0 7:706.0 8:2.0 12:5936.0 14:10.0 
-0.8291015644405958 0.037109375 0.0048828125 0.03125 0.005859375 1:66.0 4:110.0 7:37466.0 9:748.0 12:108592.0 14:1694.0 16:308.0 
-0.8291015644405958 0.037109375 0.0048828125 0.03125 0.005859375 3:5.0 12:11344.0 
-0.8291015644405958 0.037109375 0.0048828125 0.03125 0.005859375 7:546.0 12:68187.0 14:735.0 
-0.8291015644405958 0.037109375 0.0048828125 0.03125 0.005859375 4:16.0 5:168.0 12:12321.0 14:282.0 
-0.8291015644405958 0.037109375 0.0048828125 0.03125 0.005859375 12:10238.0 14:18.0 
-0.8291015631468652 0.037109375 0.0048828125 0.03125 0.005859375 12:178508.0 14:1188.0 
-0.8291015631468652 0.037109375 0.0048828125 0.03125 0.005859375 3:22.0 4:550.0 5:1672.0 12:333542.0 13:22.0 14:5918.0 16:396.0 
-0.8291015631468652 0.037109375 0.0048828125 0.03125 0.005859375 3:294.0 5:63.0 8:126.0 12:93729.0 14:1557.0 18:108.0 
-0.8291015631468652 0.037109375 0.0048828125 0.03125 0.005859375 12:5291.0 14:206.0 
-0.8291013907660635 0.037109368360800865 0.004882811836080081 0.030273431524721284 0.0058593743360801365 9:1.0 12:5650.0 14:56.0 
-0.8291015631468652 0.037109375 0.0048828125 0.03125 0.005859375 1:9.0 4:5.0 7:5345.0 12:1382.0 14:231.0 
-0.8291015631468652 0.037109375 0.0048828125 0.03125 0.005859375 5:4158.0 12:140008.0 14:6864.0 16:1232.0 
-0.8291015631468652 0.037109375 0.0048828125 0.03125 0.005859375 5:1994.0 8:15.0 12:6363.0 14:242.0 16:4.0 18:113.0 
-0.8291015631468652 0.037109375 0.0048828125 0.03125 0.005859375 3:4.0 12:25260.0 14:456.0 
-0.8291015631468652 0.037109375 0.0048828125 0.03125 0.005859375 12:6564.0 
-0.8291015631468652 0.037109375 0.0048828125 0.03125 0.005859375 4:6.0 5:24.0 12:18447.0 14:963.0 
-0.8293080031284553 0.037109375 0.0048828125 0.03125 0.005859375 7:37051.0 12:16338.0 14:1183.0 16:133.0 
-0.8294412155519207 0.037109375 0.0048828125 0.03125 0.005859375 4:3.0 7:6861.0 8:2.0 12:2173.0 13:1298.0 14:140.0 
-0.8294412155519207 0.037109375 0.0048828125 0.03125 0.005859375 4:102.0 7:668.0 8:2.0 12:21458.0 13:108.0 14:117.0 
-0.8294412155519207 0.037109375 0.0048828125 0.03125 0.005859375 12:37440.0 14:9.0 
-0.8294412155519207 0.037109375 0.0048828125 0.03125 0.005859375 12:481668.0 16:176.0 
-0.8295057612704113 0.037109375 0.0048828125 0.03125 0.005859375 1:10.0 3:26.0 5:99.0 8:9.0 12:9135.0 14:276.0 
-0.8295057612704113 0.037109375 0.0048828125 0.03125 0.005859375 1:161.0 7:15477.0 9:14.0 12:14210.0 14:13559.0 18:7.0 
-0.8295057612704113 0.037109375 0.0048828125 0.03125 0.005859375 4:90.0 9:4.0 12:8102.0 14:355.0 
-0.8295057612704113 0.037109375 0.0048828125 0.03125 0.005859375 1:28.0 3:203.0 4:84.0 5:1211.0 9:35.0 12:98119.0 14:4585.0 16:7.0 
-0.8299728445781511 0.037109375 0.0048828125 0.03125 0.005859375 3:14.0 5:16793.0 12:71022.0 13:28.0 14:4004.0 18:763.0 
-0.8299728445781511 0.037109375 0.0048828125 0.03125 0.005859375 1:616.0 7:74316.0 9:484.0 12:114466.0 13:37004.0 14:3696.0 
-0.8299728445781511 0.037109375 0.0048828125 0.03125 0.005859375 4:220.0 12:208186.0 14:1122.0 
-0.8299728445781511 0.037109375 0.0048828125 0.03125 0.005859375 12:44.0 13:122320.0 
-0.8300780896823525 0.037109375 0.0048828125 0.03125 0.005859375 1:68.0 4:10.0 8:15.0 9:8.0 12:6079.0 14:68.0 18:9.0 
-0.8300780896823525 0.037109375 0.0048828125 0.03125 0.005859375 1:12.0 4:36.0 5:900.0 7:6702.0 9:27.0 12:44133.0 14:6.0 
-0.8300780896823525 0.037109375 0.0048828125 0.03125 0.005859375 1:220.0 4:22.0 8:1254.0 12:184250.0 14:13970.0 
-0.8300780896823525 0.037109375 0.0048828125 0.03125 0.005859375 1:3803.0 3:3.0 12:2000.0 
-0.830078091634249 0.037109375 0.0048828125 0.03125 0.005859375 1:360.0 12:84510.0 14:2520.0 
-1.0 0.037109375 0.0048828125 0.03125 0.005859375 12:7424.0 
-0.830078091634249 0.037109375 0.0048828125 0.03125 0.005859375 12:13130.0 
-0.830078091634249 0.037109375 0.0048828125 0.03125 0.005859375 4:42.0 5:119.0 8:28.0 12:51338.0 14:1302.0 16:637.0 
-0.8300781249989252 0.037109375 0.0048828125 0.03125 0.005859375 12:750376.0 16:616.0 
-0.8300781249989252 0.037109375 0.0048828125 0.03125 0.005859375 3:6270.0 4:22.0 12:132550.0 14:1034.0 
-0.8300781249989252 0.037109375 0.0048828125 0.03125 0.005859375 3:2068.0 5:792.0 8:418.0 9:352.0 12:125928.0 
-0.8300781249989252 0.037109375 0.0048828125 0.03125 0.005859375 4:1694.0 5:13816.0 12:117788.0 13:18282.0 14:1474.0 
-0.830078124999126 0.037109375 0.0048828125 0.03125 0.005859375 12:9230.0 14:118.0 
-0.830078124999126 0.037109375 0.0048828125 0.03125 0.005859375 1:33.0 3:876.0 4:1527.0 5:645.0 6:471.0 8:207.0 10:357.0 12:18396.0 14:1578.0 
-0.455658664159071 0.01845733169466257 0.0023071664618328214 0.01650007284308619 0.003460749692749232 12:6157.0 
-0.830078124999126 0.037109375 0.0048828125 0.03125 0.005859375 12:5229.0 13:88949.0 14:1246.0 16:210.0 18:133.0 
-0.830078124999126 0.037109375 0.0048828125 0.03125 0.005859375 3:1305.0 4:56.0 5:211.0 12:10349.0 14:158.0 
-0.8300781249997845 0.037109375 0.0048828125 0.03125 0.005859375 5:44.0 12:6174.0 14:6.0 16:2.0 
-0.8300781249997845 0.037109375 0.0048828125 0.03125 0.005859375 3:27.0 12:62898.0 
-0.8291989183053374 0.037109375 0.0048828125 0.03125 0.005859375 3:94.0 9:118.0 12:20566.0 14:450.0 
-0.8291989183053374 0.037109375 0.0048828125 0.03125 0.005859375 12:251834.0 14:418.0 
-0.8291989183053374 0.037109375 0.0048828125 0.03125 0.005859375 9:1144.0 12:142318.0 14:242.0 18:132.0 
-0.8294836122076958 0.037109375 0.0048828125 0.03125 0.005859375 1:506.0 4:44.0 5:12452.0 12:244244.0 14:4664.0 16:814.0 
-0.8294836122076958 0.037109375 0.0048828125 0.03125 0.005859375 5:129.0 12:7136.0 14:191.0 16:36.0 
-0.8293080031284553 0.037109375 0.0048828125 0.03125 0.005859375 3:1239.0 4:959.0 5:56.0 12:45626.0 16:140.0 18:42.0 
-0.8294412155519207 0.037109375 0.0048828125 0.03125 0.005859375 1:44.0 12:139502.0 14:1386.0 16:44.0 
-0.8294412155519207 0.037109375 0.0048828125 0.03125 0.005859375 12:469766.0 14:6226.0 
-0.8295057612704113 0.037109375 0.0048828125 0.03125 0.005859375 1:417.0 4:3996.0 8:6.0 12:17982.0 14:378.0 
-0.8295057612704113 0.037109375 0.0048828125 0.03125 0.005859375 4:150.0 5:33.0 8:63.0 12:74571.0 13:12660.0 14:969.0 18:315.0 
-0.8299728445781511 0.037109375 0.0048828125 0.03125 0.005859375 3:1.0 4:18.0 5:101.0 12:5676.0 14:179.0 18:32.0 
-0.8299728445781511 0.037109375 0.0048828125 0.03125 0.005859375 4:7.0 8:14.0 12:112987.0 14:15603.0 
-0.8300780896823525 0.037109375 0.0048828125 0.03125 0.005859375 12:126896.0 16:1232.0 
-0.8300780896823525 0.037109375 0.0048828125 0.03125 0.005859375 12:656480.0 14:110.0 16:44.0 
-0.830078091634249 0.037109375 0.0048828125 0.03125 0.005859375 5:3678.0 12:12777.0 14:942.0 
-0.830078091634249 0.037109375 0.0048828125 0.03125 0.005859375 3:2.0 4:38.0 5:134.0 8:3.0 12:3971.0 13:528.0 14:1663.0 
-0.8300781249989252 0.037109375 0.0048828125 0.03125 0.005859375 4:3.0 12:38061.0 14:294.0 
-0.8300781249989252 0.037109375 0.0048828125 0.03125 0.005859375 1:309.0 3:1020.0 8:6.0 12:24273.0 14:279.0 
-0.830078124999126 0.037109375 0.0048828125 0.03125 0.005859375 7:18.0 12:22566.0 14:90.0 
-0.830078124999126 0.037109375 0.0048828125 0.03125 0.005859375 1:938.0 4:92.0 8:22.0 9:9.0 12:10276.0 
-0.8300781249997845 0.037109375 0.0048828125 0.03125 0.005859375 12:17382.0 14:123.0 
-0.8300781249997845 0.037109375 0.0048828125 0.03125 0.005859375 3:858.0 12:151448.0 14:1540.0 
-0.8300781249999981 0.037109375 0.0048828125 0.03125 0.005859375 3:135.0 5:43.0 8:1.0 12:7613.0 14:410.0 
-0.8300781249999981 0.037109375 0.0048828125 0.03125 0.005859375 1:21.0 7:43813.0 12:1960.0 14:259.0 16:14.0 18:7.0 
-0.8300781249999992 0.037109375 0.0048828125 0.03125 0.005859375 12:435.0 14:22266.0 
-0.8300781249999992 0.037109375 0.0048828125 0.03125 0.005859375 3:108598.0 4:35.0 12:4165.0 
-0.8300781249997845 0.037109375 0.0048828125 0.03125 0.005859375 4:1.0 12:11619.0 14:60.0 
-0.8300781249997845 0.037109375 0.0048828125 0.03125 0.005859375 4:110.0 12:573298.0 
-0.8300781249999981 0.037109375 0.0048828125 0.03125 0.005859375 3:3762.0 12:154550.0 14:1166.0 
-0.8300781249999981 0.037109375 0.0048828125 0.03125 0.005859375 3:1028.0 12:8379.0 
-0.8300781249999981 0.037109375 0.0048828125 0.03125 0.005859375 12:43500.0 14:4842.0 
-0.8300781249999981 0.037109375 0.0048828125 0.03125 0.005859375 5:231.0 12:75887.0 13:1169.0 14:2002.0 16:28.0 
-0.8300781249999992 0.037109375 0.0048828125 0.03125 0.005859375 4:23.0 5:39.0 12:7009.0 
-0.8300781249999992 0.037109375 0.0048828125 0.03125 0.005859375 5:84.0 12:872.0 14:22940.0 
-0.8300781249999992 0.037109375 0.0048828125 0.03125 0.005859375 3:14.0 4:1269.0 9:57.0 12:3862.0 14:236.0 16:2.0 
-0.8300781249999992 0.037109375 0.0048828125 0.03125 0.005859375 3:30.0 12:8753.0 14:61.0 
-0.8291015631468652 0.037109375 0.0048828125 0.03125 0.005859375 1:49.0 12:44716.0 
-0.8291015631468652 0.037109375 0.0048828125 0.03125 0.005859375 12:55069.0 14:196.0 16:196.0 
-0.8291015625042992 0.037109375 0.0048828125 0.03125 0.005859375 3:543.0 12:71634.0 
-0.8291015625042992 0.037109375 0.0048828125 0.03125 0.005859375 1:686.0 9:7.0 12:3745.0 13:32669.0 14:1337.0 16:14.0 
-0.8291015625042992 0.037109375 0.0048828125 0.03125 0.005859375 4:1044.0 5:12.0 9:3.0 12:10072.0 14:36.0 16:4.0 
-0.8291015625042992 0.037109375 0.0048828125 0.03125 0.005859375 3:396.0 7:3586.0 12:699688.0 14:2860.0 16:440.0 
-0.8291015625 0.037109375 0.0048828125 0.03125 0.005859375 1:35.0 3:6083.0 8:224.0 9:112.0 12:30282.0 14:2786.0 
-0.8291015625 0.037109375 0.0048828125 0.03125 0.005859375 8:12.0 12:111.0 14:23967.0 
-0.8291015625 0.037109375 0.0048828125 0.03125 0.005859375 1:7.0 3:1.0 12:6689.0 14:848.0 
-0.8291015625 0.037109375 0.0048828125 0.03125 0.005859375 1:6.0 8:3.0 9:24.0 12:81399.0 14:153.0 
-0.8291015625 0.037109375 0.0048828125 0.03125 0.005859375 12:164010.0 13:836.0 14:748.0 16:264.0 
-0.8291015625 0.037109375 0.0048828125 0.03125 0.005859375 1:704.0 8:1012.0 12:388432.0 14:6732.0 
-0.8291015625 0.037109375 0.0048828125 0.03125 0.005859375 12:27184.0 14:88.0 16:24.0 
-0.8291015625 0.037109375 0.0048828125 0.03125 0.005859375 8:91.0 12:65233.0 14:294.0 
-0.8291015625 0.037109375 0.0048828125 0.03125 0.005859375 12:138663.0 
-0.8291015625 0.037109375 0.0048828125 0.03125 0.005859375 3:2464.0 9:286.0 12:114180.0 14:3322.0 16:308.0 
-0.8291015625 0.037109375 0.0048828125 0.03125 0.005859375 3:280.0 4:14.0 8:98.0 12:53298.0 14:448.0 
-0.8291015625 0.037109375 0.0048828125 0.03125 0.005859375 3:168.0 4:732.0 7:36984.0 8:12.0 12:3006.0 14:732.0 
-0.8291015625 0.037109375 0.0048828125 0.03125 0.005859375 8:6.0 12:17703.0 14:2013.0 
-0.8291015625 0.037109375 0.0048828125 0.03125 0.005859375 5:48.0 12:9565.0 14:793.0 
-0.8291015625 0.037109375 0.0048828125 0.03125 0.005859375 1:321.0 4:72.0 8:42.0 12:19380.0 
-0.8291015625 0.037109375 0.0048828125 0.03125 0.005859375 4:286.0 12:132088.0 14:1166.0 
-0.8291015625 0.037109375 0.0048828125 0.03125 0.005859375 8:242.0 12:126390.0 14:1386.0 16:308.0 
-0.830078125 0.037109375 0.0048828125 0.03125 0.005859375 8:2.0 12:5797.0 
-0.8291015625 0.037109375 0.0048828125 0.03125 0.005859375 1:135.0 4:6.0 12:135663.0 14:102.0 
-0.8291015625 0.037109375 0.0048828125 0.03125 0.005859375 1:78.0 3:17.0 4:71.0 12:5648.0 14:18.0 
-0.8291015625 0.037109375 0.0048828125 0.03125 0.005859375 3:308.0 4:1254.0 5:4004.0 12:131076.0 13:1364.0 14:11880.0 16:66.0 
-0.8291015625 0.037109375 0.0048828125 0.03125 0.005859375 1:70.0 5:350.0 12:40355.0 13:140.0 14:350.0 
-0.8291015625 0.037109375 0.0048828125 0.03125 0.005859375 1:2948.0 4:3036.0 5:1540.0 12:195712.0 14:4686.0 
-0.8291015625 0.037109375 0.0048828125 0.03125 0.005859375 3:80.0 12:32372.0 14:500.0 
-0.8291015625 0.037109375 0.0048828125 0.03125 0.005859375 12:167662.0 14:836.0 16:374.0 
-0.8291015625 0.037109375 0.0048828125 0.03125 0.005859375 1:5.0 7:6605.0 12:844.0 
-0.8291015625 0.037109375 0.0048828125 0.03125 0.005859375 5:534.0 12:4545.0 14:419.0 18:9.0 
-0.8291015625 0.037109375 0.0048828125 0.03125 0.005859375 12:24819.0 14:258.0 
-0.8291015625 0.037109375 0.0048828125 0.03125 0.005859375 5:1078.0 10:22.0 12:116886.0 13:13596.0 14:5412.0 16:418.0 
-0.8291015625 0.037109375 0.0048828125 0.03125 0.005859375 4:1.0 12:119066.0 14:31.0 
-0.8291015625 0.037109375 0.0048828125 0.03125 0.005859375 1:528.0 4:9.0 9:75.0 12:29394.0 14:6672.0 
-0.8291015625 0.037109375 0.0048828125 0.03125 0.005859375 4:4.0 5:18.0 12:16311.0 14:33.0 
-0.8291015625 0.037109375 0.0048828125 0.03125 0.005859375 8:12.0 12:22557.0 14:561.0 
-0.8291015625 0.037109375 0.0048828125 0.03125 0.005859375 3:7.0 5:37.0 12:13781.0 14:167.0 
-0.8291015625 0.037109375 0.0048828125 0.03125 0.0068359375 4:66.0 5:1342.0 8:14608.0 12:605176.0 
-0.8291015625 0.037109375 0.0048828125 0.03125 0.0068359375 7:3626.0 12:3450.0 14:59.0 
-0.8291015625 0.037109375 0.0048828125 0.03125 0.0068359375 4:6.0 12:56022.0 14:681.0 
-0.8291015625 0.037109375 0.0048828125 0.03125 0.0068359375 3:469.0 4:21.0 5:105.0 7:4347.0 12:40460.0 14:1463.0 16:56.0 
-0.8291015625 0.037109375 0.0048828125 0.03125 0.0068359375 8:18.0 12:21474.0 14:27.0 18:15.0 
-0.8291015625 0.037109375 0.0048828125 0.03125 0.0068359375 1:408.0 4:4.0 12:6407.0 14:2637.0 
-0.8291015625 0.037109375 0.0048828125 0.03125 0.0068359375 4:2.0 8:2.0 12:13212.0 14:168.0 
-0.8291015625 0.037109375 0.0048828125 0.03125 0.0068359375 6:31.0 12:6174.0 14:7.0 
-0.8291015625 0.037109375 0.0048828125 0.03125 0.0068359375 3:44.0 4:1628.0 5:2420.0 8:22.0 9:418.0 12:768416.0 13:88.0 14:6908.0 16:132.0 18:220.0 20:1034.0 
-0.8291015625 0.037109375 0.0048828125 0.03125 0.0068359375 12:20985.0 13:2055.0 14:1134.0 
-0.8291015625 0.037109375 0.0048828125 0.03125 0.0068359375 7:114048.0 12:12804.0 13:22.0 14:3366.0 16:440.0 
-0.8291015625 0.037109375 0.0048828125 0.03125 0.0068359375 5:13734.0 12:37065.0 14:1561.0 
-0.8291015625 0.037109375 0.0048828125 0.03125 0.0068359375 3:8.0 12:10626.0 13:1.0 14:353.0 
-0.830078091634249 0.037109375 0.0048828125 0.03125 0.0068359375 8:14.0 12:4835.0 14:2144.0 
-0.8291015731227186 0.037109375 0.0048828125 0.03125 0.0068359375 5:2596.0 9:242.0 12:137412.0 13:22.0 14:4774.0 16:110.0 
-0.8291015766636214 0.037109375 0.0048828125 0.03125 0.0068359375 12:5677.0 14:150.0 
-0.8294412155519207 0.037109375 0.0048828125 0.03125 0.0068359375 5:248.0 12:22056.0 14:8852.0 
-0.8299728445781511 0.037109375 0.0048828125 0.03125 0.0068359375 5:7.0 12:53886.0 13:154.0 14:70.0 
-0.8300780896823525 0.037109375 0.0048828125 0.03125 0.0068359375 2:70.0 4:259.0 9:1631.0 12:37212.0 14:1554.0 16:336.0 
-0.8300781249989252 0.037109375 0.0048828125 0.03125 0.0068359375 3:1.0 4:80.0 5:24.0 8:10.0 12:8831.0 14:357.0 18:5.0 
-0.8291015784340708 0.037109375 0.005859375 0.03125 0.0068359375 4:38.0 8:18.0 12:7562.0 13:11.0 14:233.0 
-0.8291015784340754 0.037109375 0.005859375 0.03125 0.0068359375 8:2.0 12:6644.0 14:7.0 
-0.8291015784340754 0.037109375 0.005859375 0.03125 0.0068359375 3:44.0 8:88.0 12:2860.0 13:178178.0 14:880.0 
-0.8291015793193004 0.037109375 0.005859375 0.03125 0.0068359375 5:49.0 12:44142.0 14:259.0 16:14.0 
-0.829101579429952 0.037109375 0.005859375 0.03125 0.0068359375 4:295.0 5:426.0 12:4612.0 14:179.0 
-0.8291017037705899 0.037109375 0.005859375 0.03125 0.0068359375 7:2460.0 12:882.0 14:60714.0 18:480.0 
-0.8291017037705899 0.037109375 0.005859375 0.03125 0.0068359375 1:14.0 3:2828.0 12:37052.0 14:2138.0 
-0.8291017037705899 0.037109375 0.005859375 0.03125 0.0068359375 3:3948.0 4:4.0 12:1362.0 14:390.0 
-0.8291017037705899 0.037109375 0.005859375 0.03125 0.0068359375 3:160.0 8:57.0 12:9343.0 14:247.0 
-0.8295226841873955 0.037109375 0.005859375 0.03125 0.0068359375 5:66.0 7:172920.0 8:550.0 12:17776.0 14:2948.0 
-0.8295226841873955 0.037109375 0.005859375 0.03125 0.0068359375 3:9.0 8:2.0 12:6357.0 14:26.0 
-0.8295226841873955 0.037109375 0.005859375 0.03125 0.0068359375 12:126280.0 14:21208.0 
-0.8295226841873955 0.037109375 0.005859375 0.03125 0.0068359375 5:175.0 12:38339.0 
-0.830078125 0.037109375 0.005859375 0.03125 0.0068359375 12:216700.0 16:572.0 
-0.830078125 0.037109375 0.005859375 0.03125 0.0068359375 12:3986.0 14:7598.0 
-0.830078125 0.037109375 0.005859375 0.03125 0.0068359375 3:22.0 4:22.0 5:33132.0 12:276386.0 14:3586.0 
-0.830078125 0.037109375 0.005859375 0.03125 0.0068359375 4:1.0 5:306.0 12:5222.0 
-0.830078125 0.037109375 0.005859375 0.03125 0.0068359375 12:143440.0 14:1122.0 
-0.830078125 0.037109375 0.005859375 0.03125 0.0068359375 12:18792.0 14:10660.0 18:28.0 
-0.830078125 0.037109375 0.005859375 0.03125 0.0068359375 12:7123.0 14:47.0 
-0.830078125 0.037109375 0.005859375 0.03125 0.0068359375 3:273.0 7:21959.0 12:16387.0 14:679.0 16:322.0 
-0.830078125 0.037109375 0.005859375 0.03125 0.0068359375 3:134.0 5:108.0 8:8.0 12:15274.0 14:846.0 
-0.830078125 0.037109375 0.005859375 0.03125 0.0068359375 4:28.0 5:525.0 12:43988.0 13:3465.0 14:581.0 
-0.830078125 0.037109375 0.005859375 0.03125 0.0068359375 12:261382.0 14:4114.0 16:264.0 
-0.830078125 0.037646334152668715 0.005859375 0.03125 0.0068359375 4:553.0 12:18641.0 13:21917.0 14:756.0 
-0.830078125 0.03795758385474257 0.005859375 0.03125 0.0068359375 12:123178.0 
-0.830078125 0.0380859375 0.005859375 0.03125 0.0068359375 1:2244.0 5:1958.0 12:214170.0 14:10736.0 16:1100.0 18:352.0 
-0.830078125 0.0380859375 0.005859375 0.03125 0.0068359375 8:36.0 12:16942.0 14:97.0 
-0.830078125 0.0380859375 0.005859375 0.03125 0.0068359375 1:4.0 9:3.0 12:7203.0 14:17.0 
-0.830078125 0.0380859375 0.005859375 0.03125 0.0068359375 12:212300.0 16:440.0 
-0.830078125 0.0380859375 0.005859375 0.03125 0.0068359375 1:4048.0 3:484.0 5:44.0 9:220.0 12:600292.0 13:1738.0 14:5676.0 16:902.0 
-0.830078125 0.0380859375 0.005859375 0.03125 0.0068359375 3:34.0 5:731.0 8:1.0 12:4864.0 14:57.0 
-0.830078125 0.0380859375 0.005859375 0.03125 0.0068359375 5:70.0 12:8132.0 14:132.0 
-0.830078125 0.0380859375 0.005859375 0.03125 0.0068359375 1:2177.0 3:21.0 4:287.0 12:169337.0 13:8260.0 14:1470.0 18:98.0 
-0.830078125 0.0380859375 0.005859375 0.03125 0.0068359375 5:190.0 12:10097.0 14:465.0 
-0.830078125 0.0380859375 0.005859375 0.03125 0.0068359375 3:223.0 12:5244.0 14:143.0 
-0.830078125 0.0380859375 0.005859375 0.03125 0.0068359375 12:10218.0 14:11256.0 
-0.830078125 0.0380859375 0.005859375 0.03125 0.0068359375 5:1011.0 12:11325.0 14:11562.0 
-0.830078125 0.0380859375 0.005859375 0.03125 0.0068359375 5:286.0 12:142670.0 14:1320.0 
-0.830078125 0.0380859375 0.005859375 0.03125 0.0068359375 1:574.0 3:7.0 4:140.0 5:336.0 8:133.0 12:47117.0 13:826.0 14:1099.0 
-0.830078125 0.0380859375 0.005859375 0.03125 0.0068359375 1:279.0 4:45.0 12:48021.0 14:276.0 
-0.830078125 0.0380859375 0.005859375 0.03125 0.0068359375 5:35.0 7:1841.0 12:15228.0 14:1.0 
-0.830078125 0.0380859375 0.005859375 0.03125 0.0068359375 4:6.0 5:387.0 8:6.0 9:54.0 12:29823.0 14:177.0 
-0.830078125 0.0380859375 0.005859375 0.03125 0.0068359375 1:22.0 5:21956.0 12:179542.0 14:4752.0 
-0.830078125 0.0380859375 0.005859375 0.03125 0.0068359375 8:2.0 12:6527.0 14:97.0 
-0.830078125 0.0380859375 0.005859375 0.03125 0.0068359375 5:1496.0 12:148192.0 14:1496.0 
-0.830078125 0.0380859375 0.005859375 0.03125 0.0068359375 5:32.0 12:8201.0 14:104.0 
-0.830078125 0.0380859375 0.005859375 0.03125 0.0068359375 12:133870.0 14:8514.0 16:154.0 
-0.830078125 0.0380859375 0.005859375 0.03125 0.0068359375 4:132.0 7:7029.0 9:36.0 12:37149.0 13:231.0 14:531.0 16:3.0 20:2109.0 
-0.830078125 0.0380859375 0.005859375 0.03125 0.0068359375 5:4.0 8:6.0 12:5518.0 14:222.0 
-0.829101391540642 0.0371093688034147 0.004882811946733401 0.030273431524721228 0.005859374557386721 1:4.0 12:5642.0 14:41.0 
-0.830078125 0.0380859375 0.005859375 0.03125 0.0068359375 1:30.0 9:42.0 12:18360.0 14:525.0 
-0.830078125 0.0380859375 0.005859375 0.03125 0.0068359375 4:17.0 5:3469.0 9:63.0 12:3859.0 14:199.0 18:23.0 
-0.830078125 0.0380859375 0.005859375 0.03125 0.0068359375 3:338.0 4:412.0 8:4.0 12:16892.0 14:3664.0 
-0.830078125 0.0380859375 0.005859375 0.03125 0.0068359375 5:5742.0 7:2508.0 8:264.0 12:114818.0 14:506.0 
-0.830078125 0.0380859375 0.005859375 0.03125 0.0068359375 1:2.0 3:190.0 5:62.0 12:14596.0 14:948.0 
-0.830078125 0.0380859375 0.005859375 0.03125 0.0068359375 12:4617.0 14:13212.0 
-0.830078125 0.0380859375 0.005859375 0.03125 0.0068359375 12:146674.0 14:2222.0 16:44.0 
-0.830078125 0.0380859375 0.005859375 0.03125 0.0068359375 12:8240.0 14:1483.0 
-0.830078125 0.0380859375 0.005859375 0.03125 0.0068359375 4:29232.0 5:145.0 9:5.0 12:1005.0 14:38.0 
-0.830078125 0.0380859375 0.005859375 0.03125 0.0068359375 1:83.0 4:5.0 9:5.0 12:5291.0 14:153.0 16:30.0 
-0.830078125 0.0380859375 0.005859375 0.03125 0.0068359375 1:126.0 5:735.0 7:6860.0 12:19047.0 13:11039.0 14:791.0 16:28.0 
-0.830078125 0.0380859375 0.005859375 0.03125 0.0068359375 1:21.0 3:119.0 9:21.0 12:21756.0 13:40635.0 14:42.0 
-0.830078125 0.0380859375 0.005859375 0.03125 0.0068359375 1:6316.0 3:220.0 12:7038.0 14:6508.0 
-0.830078125 0.0380859375 0.005859375 0.03125 0.0068359375 4:117.0 8:4.0 12:6286.0 14:10.0 16:2.0 
-0.830078125 0.0380859375 0.005859375 0.03125 0.0068359375 1:8.0 5:38.0 12:6911.0 14:436.0 18:15.0 
-0.830078125 0.0380859375 0.005859375 0.03125 0.0068359375 12:38190.0 14:19002.0 
-0.830078125 0.0380859375 0.005859375 0.03125 0.0068359375 5:4884.0 12:235554.0 14:3256.0 16:44.0 
-0.830078125 0.0380859375 0.005859375 0.03125 0.0068359375 4:1142.0 5:45.0 12:4991.0 14:57.0 16:4.0 
-0.830078125 0.0380859375 0.005859375 0.03125 0.0068359375 4:2640.0 8:44.0 12:181434.0 14:12386.0 18:264.0 
-0.830078125 0.0380859375 0.005859375 0.03125 0.0068359375 1:88.0 4:902.0 12:133320.0 14:440.0 
-0.830078125 0.0380859375 0.005859375 0.03125 0.0068359375 1:280.0 4:35.0 8:7.0 12:39760.0 13:406.0 14:364.0 16:35.0 
-0.8300781249999992 0.0380859375 0.005859375 0.03125 0.0068359375 1:13447.0 12:44800.0 13:7.0 14:217.0 
-0.8300781249999992 0.0380859375 0.005859375 0.03125 0.0068359375 4:44.0 5:374.0 7:58058.0 9:176.0 12:107998.0 16:110.0 
-0.8300781249999992 0.0380859375 0.005859375 0.03125 0.0068359375 3:65.0 12:6010.0 
-0.8300781249999992 0.0380859375 0.005859375 0.03125 0.0068359375 5:369.0 7:6378.0 9:6.0 12:25296.0 14:129.0 
-0.8300781249999992 0.0380859375 0.005859375 0.03125 0.0068359375 3:11484.0 7:88748.0 8:154.0 9:550.0 12:35420.0 14:2684.0 16:176.0 
-0.8300781249999992 0.0380859375 0.005859375 0.03125 0.0068359375 4:7.0 12:29617.0 13:9786.0 14:2142.0 18:315.0 
-0.8300781249999992 0.0380859375 0.005859375 0.03125 0.0068359375 1:2.0 12:19262.0 14:9.0 
-0.8300781249999992 0.0380859375 0.005859375 0.03125 0.0068359375 1:6.0 2:1.0 8:5.0 12:5115.0 14:985.0 
-0.8300781249999981 0.0380859375 0.005859375 0.03125 0.0068359375 4:14.0 5:86.0 7:549.0 12:25483.0 14:29.0 20:107.0 
-0.8300781249999981 0.0380859375 0.005859375 0.03125 0.0068359375 5:990.0 12:137654.0 
-0.8300781249999981 0.0380859375 0.005859375 0.03125 0.0068359375 4:36.0 8:25.0 9:25.0 12:12067.0 14:166.0 
-0.8300781249999981 0.0380859375 0.005859375 0.03125 0.0068359375 5:27.0 9:1.0 12:53584.0 14:7.0 
-0.8300781249999981 0.0380859375 0.005859375 0.03125 0.0068359375 4:3.0 5:41.0 12:6032.0 14:81.0 
-0.8300781249999981 0.0380859375 0.005859375 0.03125 0.0068359375 12:48921.0 14:396.0 
-0.8300781249999981 0.0380859375 0.005859375 0.03125 0.0068359375 1:448.0 3:180.0 5:136.0 9:154.0 12:11142.0 14:8172.0 20:1398.0 
-0.8300781249997845 0.0380859375 0.005859375 0.03125 0.0068359375 1:63.0 4:6.0 5:2834.0 12:2733.0 14:70.0 
-0.8300781249997845 0.0380859375 0.005859375 0.03125 0.0068359375 3:66.0 4:7502.0 5:418.0 9:506.0 12:115280.0 13:88.0 14:4136.0 18:154.0 
-0.8300781249997845 0.0380859375 0.005859375 0.03125 0.0068359375 4:506.0 12:143770.0 14:682.0 16:44.0 
-0.8300781249997845 0.0380859375 0.005859375 0.03125 0.0068359375 1:3.0 4:3.0 5:12.0 8:6.0 12:37209.0 14:102.0 
-0.8300781249997845 0.0380859375 0.005859375 0.03125 0.0068359375 12:57379.0 14:294.0 
-0.8300781249997845 0.0380859375 0.005859375 0.03125 0.0068359375 1:3.0 12:23205.0 14:123.0 
-0.8300781249997845 0.0380859375 0.005859375 0.03125 0.0068359375 4:7.0 12:41748.0 14:2821.0 16:42.0 
-0.830078124999126 0.0380859375 0.005859375 0.03125 0.0068359375 1:1.0 3:2.0 9:2.0 12:571.0 14:5734.0 
-0.830078124999126 0.0380859375 0.005859375 0.03125 0.0068359375 1:66.0 3:12936.0 9:110.0 12:209198.0 14:4686.0 18:132.0 
-0.830078124999126 0.0380859375 0.005859375 0.03125 0.0068359375 12:863918.0 16:132.0 
-0.830078124999126 0.0380859375 0.005859375 0.03125 0.0068359375 3:343.0 4:35.0 12:141848.0 13:12131.0 14:14560.0 18:252.0 
-0.830078124999126 0.0380859375 0.005859375 0.03125 0.0068359375 3:68.0 12:5603.0 
-0.830078124999126 0.0380859375 0.005859375 0.03125 0.0068359375 7:10144.0 12:14428.0 14:8.0 
-0.830078124999126 0.0380859375 0.005859375 0.03125 0.0068359375 3:124.0 5:126.0 7:376.0 12:6568.0 14:7928.0 
-0.830078124999126 0.0380859375 0.005859375 0.03125 0.0068359375 5:74.0 12:21300.0 14:1932.0 
-0.8300781249989252 0.0380859375 0.005859375 0.03125 0.0068359375 3:98120.0 5:2244.0 12:52668.0 14:3256.0 
-0.8300781249989252 0.0380859375 0.005859375 0.03125 0.0068359375 1:396.0 4:418.0 5:1188.0 9:66.0 12:165022.0 13:3806.0 14:550.0 16:176.0 
-0.8300781249989252 0.0380859375 0.005859375 0.03125 0.0068359375 5:4906.0 12:254826.0 16:220.0 
-0.8300781249989252 0.0380859375 0.005859375 0.03125 0.0068359375 4:43337.0 9:21.0 12:399.0 13:224.0 14:49.0 
-0.8300781249989252 0.0380859375 0.005859375 0.03125 0.0068359375 3:48.0 4:2.0 12:41770.0 14:23698.0 16:8.0 
-0.8300781249989252 0.0380859375 0.005859375 0.03125 0.0068359375 7:7189.0 12:31535.0 16:77.0 
-0.8300781249989252 0.0380859375 0.005859375 0.03125 0.0068359375 5:41.0 12:5239.0 14:613.0 
-0.8300781249989252 0.0380859375 0.005859375 0.03125 0.0068359375 3:3.0 5:1014.0 9:21.0 12:22992.0 14:1266.0 18:102.0 
-0.830078091634249 0.0380859375 0.005859375 0.03125 0.0068359375 5:330.0 12:128568.0 14:3740.0 16:88.0 
-0.830078091634249 0.0380859375 0.005859375 0.03125 0.0068359375 1:105.0 7:2355.0 9:15.0 12:49875.0 14:657.0 
-0.830078091634249 0.0380859375 0.005859375 0.03125 0.0068359375 1:44.0 9:88.0 12:245828.0 14:528.0 
-0.830078091634249 0.0380859375 0.005859375 0.03125 0.0068359375 3:70.0 12:47509.0 14:406.0 
-0.830078091634249 0.0380859375 0.005859375 0.03125 0.0068359375 1:105.0 3:42210.0 4:3.0 5:501.0 9:24.0 12:4812.0 14:18.0 
-0.8300781250000578 0.0380859375 0.005859375 0.03125 0.0068359375 9:11.0 12:9039.0 
-0.830078091634249 0.0380859375 0.005859375 0.03125 0.0068359375 4:14.0 5:5334.0 12:37723.0 14:637.0 16:42.0 
-0.830078091634249 0.0380859375 0.005859375 0.03125 0.0068359375 3:415.0 4:66.0 8:24.0 12:14135.0 14:546.0 18:24.0 
-0.8300780896823525 0.0380859375 0.005859375 0.03125 0.0068359375 4:12.0 5:1269.0 8:2268.0 12:13902.0 14:495.0 
-0.8300780896823525 0.0380859375 0.005859375 0.03125 0.0068359375 5:36.0 8:1.0 12:12387.0 14:55.0 
-0.8300780896823525 0.0380859375 0.005859375 0.03125 0.0068359375 7:89874.0 12:11082.0 
-0.8300780896823525 0.0380859375 0.005859375 0.03125 0.0068359375 3:1172.0 8:3.0 12:15744.0 14:109.0 
-0.8300780896823525 0.0380859375 0.005859375 0.03125 0.0068359375 5:695.0 8:7.0 12:10352.0 
-0.8300780896823525 0.0380859375 0.005859375 0.03125 0.0068359375 5:220.0 12:179168.0 14:638.0 
-0.8299728445781511 0.0380859375 0.005859375 0.03125 0.0068359375 3:44.0 4:5346.0 5:10362.0 9:4334.0 12:164252.0 13:2992.0 14:5302.0 16:352.0 18:528.0 
-0.8299728445781511 0.0380859375 0.005859375 0.03125 0.0068359375 7:5141.0 12:2987.0 14:75.0 
-0.8299728445781511 0.0380859375 0.005859375 0.03125 0.0068359375 3:1034.0 5:2508.0 12:13596.0 13:246840.0 14:572.0 18:220.0 
-0.8299728445781511 0.0380859375 0.005859375 0.03125 0.0068359375 3:73370.0 12:213180.0 14:8954.0 
-0.8299728445781511 0.0380859375 0.005859375 0.03125 0.0068359375 12:149952.0 14:638.0 16:308.0 
-0.8299728445781511 0.0380859375 0.005859375 0.03125 0.0068359375 4:9.0 5:528.0 12:31956.0 14:480.0 
-0.8299728445781511 0.0380859375 0.005859375 0.03125 0.0068359375 1:44.0 4:4.0 7:4434.0 9:5.0 12:3040.0 14:462.0 
-0.8299728445781511 0.0380859375 0.005859375 0.03125 0.0068359375 12:130746.0 
-0.8297674018315293 0.0380859375 0.005859375 0.03125 0.0068359375 4:28.0 12:6425.0 
-0.8295057612704113 0.0380859375 0.005859375 0.03125 0.0068359375 7:49214.0 12:167046.0 
-0.8295057612704113 0.0380859375 0.005859375 0.03125 0.0068359375 4:3.0 5:383.0 12:6318.0 14:99.0 
-0.8295057612704113 0.0380859375 0.005859375 0.03125 0.0068359375 3:1516.0 12:12244.0 
-0.8295057612704113 0.0380859375 0.005859375 0.03125 0.0068359375 3:22.0 12:829202.0 14:462.0 
-0.8295057612704113 0.0380859375 0.005859375 0.03125 0.0068359375 3:3.0 4:508.0 5:438.0 12:8250.0 14:348.0 
-0.8295057612704113 0.0380859375 0.005859375 0.03125 0.0068359375 3:98.0 4:511.0 5:1736.0 12:35154.0 14:2982.0 
-0.8295057612704113 0.0380859375 0.005859375 0.03125 0.0068359375 4:165.0 5:15.0 12:5890.0 14:11.0 
-0.8295057612704113 0.0380859375 0.005859375 0.03125 0.0068359375 8:3.0 12:17426.0 14:14.0 
-0.8294836122076958 0.0380859375 0.005859375 0.03125 0.0068359375 5:64.0 12:2232.0 14:32416.0 
-0.8294836122076958 0.0380859375 0.005859375 0.03125 0.0068359375 3:22.0 4:550.0 5:792.0 12:328900.0 14:4994.0 16:572.0 
-0.8294836122076958 0.0380859375 0.005859375 0.03125 0.0068359375 12:7031.0 14:11.0 
-0.8294412155519207 0.0380859375 0.005859375 0.03125 0.0068359375 1:64.0 4:6065.0 9:18.0 12:2922.0 14:78.0 16:10.0 
-0.8294412155519207 0.0380859375 0.005859375 0.03125 0.0068359375 5:401.0 7:2458.0 8:22.0 12:6099.0 14:99.0 
-0.8294412155519207 0.0380859375 0.005859375 0.03125 0.0068359375 4:50.0 12:10962.0 14:1228.0 
-0.8294412155519207 0.0380859375 0.005859375 0.03125 0.0068359375 3:2.0 4:8.0 5:700.0 12:9448.0 14:1258.0 
-0.8294412155519207 0.0380859375 0.005859375 0.03125 0.0068359375 12:13029.0 14:12633.0 
-0.8294412155519207 0.0380859375 0.005859375 0.03125 0.0068359375 3:1176.0 5:2317.0 12:43029.0 14:987.0 16:315.0 
-0.8294412155519207 0.0380859375 0.005859375 0.03125 0.0068359375 5:2398.0 12:157454.0 14:1364.0 18:1210.0 
-0.8294412155519207 0.0380859375 0.005859375 0.03125 0.0068359375 9:550.0 12:163240.0 14:6050.0 16:1122.0 18:528.0 
-0.8293988188961585 0.0380859375 0.005859375 0.03125 0.0068359375 4:48.0 8:4.0 12:12499.0 14:63.0 
-0.8293988188961585 0.0380859375 0.005859375 0.03125 0.0068359375 4:3.0 5:131.0 8:89.0 12:17748.0 14:261.0 
-0.8293988188961585 0.0380859375 0.005859375 0.03125 0.0068359375 3:931.0 9:168.0 12:70126.0 14:1071.0 16:119.0 
-0.8293988188961585 0.0380859375 0.005859375 0.03125 0.0068359375 5:21054.0 9:110.0 12:161744.0 14:3014.0 
-0.8293080031284553 0.0380859375 0.005859375 0.03125 0.0068359375 12:19020.0 14:48.0 
-0.8293080031284553 0.0380859375 0.005859375 0.03125 0.0068359375 1:28.0 3:1883.0 4:19.0 12:5240.0 
-0.8291989183053374 0.0380859375 0.005859375 0.03125 0.0068359375 12:7469.0 14:152.0 
-0.8291989183053374 0.0380859375 0.005859375 0.03125 0.0068359375 12:39696.0 14:105.0 
-0.8291989183053374 0.0380859375 0.005859375 0.03125 0.0068359375 2:176.0 3:5918.0 4:616.0 8:44.0 9:286.0 12:156244.0 14:3542.0 16:814.0 18:484.0 
-0.8291989183053374 0.0380859375 0.005859375 0.03125 0.0068359375 1:528.0 4:22.0 12:145046.0 13:88.0 14:1122.0 16:242.0 
-0.8291989183053374 0.0380859375 0.005859375 0.03125 0.0068359375 4:6.0 12:13744.0 14:2070.0 
-0.8291989183053374 0.0380859375 0.005859375 0.03125 0.0068359375 1:1307.0 5:1381.0 8:13.0 12:5411.0 14:1110.0 
-0.830078125 0.0380859375 0.005859375 0.03125 0.0068359375 1:6.0 3:477.0 4:27.0 5:579.0 7:138.0 12:48372.0 14:294.0 
-0.830078125 0.0380859375 0.005859375 0.03125 0.0068359375 1:9162.0 5:6.0 12:9792.0 
-0.830078125 0.0380859375 0.005859375 0.03125 0.0068359375 3:1029.0 12:39144.0 14:679.0 
-0.830078125 0.0380859375 0.005859375 0.03125 0.0068359375 3:22.0 4:218394.0 5:9130.0 8:176.0 9:286.0 12:23122.0 14:462.0 
-0.830078125 0.0380859375 0.005859375 0.03125 0.0068359375 12:30199.0 14:211.0 
-0.830078125 0.0380859375 0.005859375 0.03125 0.0068359375 1:132.0 3:483.0 4:21.0 5:684.0 12:20133.0 14:111.0 
-0.830078125 0.0380859375 0.005859375 0.03125 0.0068359375 3:7.0 4:7.0 5:63.0 12:60753.0 14:2450.0 16:7.0 18:98.0 
-0.830078125 0.0380859375 0.005859375 0.03125 0.0068359375 3:198.0 4:3.0 5:963.0 12:47295.0 14:1131.0 
-0.830078125 0.0380859375 0.005859375 0.03125 0.0068359375 4:12.0 5:156.0 12:37308.0 14:990.0 
-0.830078125 0.0380859375 0.005859375 0.03125 0.0068359375 9:15.0 12:7916.0 14:171.0 
-0.830078125 0.0380859375 0.005859375 0.03125 0.0068359375 1:32.0 5:538.0 9:20.0 12:9630.0 14:1242.0 
-0.830078125 0.0380859375 0.005859375 0.03125 0.0068359375 3:76.0 12:8498.0 
-0.830078125 0.0380859375 0.005859375 0.03125 0.0068359375 1:3432.0 4:1034.0 5:1254.0 8:110.0 12:82456.0 13:41316.0 14:3718.0 
-0.830078125 0.0380859375 0.005859375 0.03125 0.0068359375 1:21.0 3:1085.0 5:224.0 7:36281.0 12:32795.0 14:1078.0 16:140.0 
-0.830078125 0.0380859375 0.005859375 0.03125 0.0068359375 9:3.0 12:21432.0 14:111.0 
-0.830078125 0.03710937721306612 0.005859375 0.03125 0.0068359375 1:1.0 4:1.0 5:949.0 9:171.0 12:4102.0 14:701.0 16:6.0 18:20.0 
-0.830078125 0.03710937699175959 0.005859375 0.03125 0.0068359375 1:35.0 12:56462.0 14:364.0 16:7.0 
-0.830078125 0.03710937632783945 0.005859375 0.03125 0.0068359375 5:830.0 12:9408.0 14:112.0 
-0.830078125 0.037109375885226614 0.005859375 0.03125 0.0068359375 3:497.0 4:112.0 5:2604.0 12:44324.0 
-0.830078125 0.037109375885226614 0.005859375 0.03125 0.0068359375 3:110.0 12:94644.0 13:60324.0 14:6314.0 16:176.0 
-0.830078125 0.037109375885226614 0.005859375 0.03125 0.0068359375 5:1466.0 9:8.0 12:3493.0 14:1075.0 
-0.830078125 0.03710937540429077 0.005859375 0.03125 0.0068359375 3:33.0 4:3.0 8:12.0 12:7087.0 14:194.0 
-0.830078125 0.03710937536386172 0.005859375 0.03125 0.0068359375 2:9.0 5:1522.0 8:633.0 9:9.0 12:6935.0 14:227.0 18:7.0 
-0.830078125 0.03710937524257446 0.005859375 0.03125 0.0068359375 4:194.0 5:6.0 8:2.0 12:5867.0 14:74.0 
-0.830078125 0.03710937516171631 0.005859375 0.03125 0.0068359375 5:528.0 12:118382.0 14:4994.0 16:44.0 
-0.830078125 0.03710937516171631 0.005859375 0.03125 0.0068359375 5:8.0 12:7087.0 14:370.0 
-0.830078125 0.03710937516171631 0.005859375 0.03125 0.0068359375 1:88.0 11:22.0 12:130394.0 14:4224.0 16:726.0 18:154.0 
