svm_type c_svc
kernel_type rbf
gamma 0.05
nr_class 5
total_sv 1009
rho 0.4895870678892005 -0.7950202447461309 -0.8544757342604388 -0.9965329461167084 -0.8898386773350812 -0.9224568128129937 -0.9992618437823337 -0.303604896224304 -0.9845142316335537 -0.9777450171780628
label 0 4 1 3 2
nr_sv 316 582 65 45 1
SV
1.0 0.20495318147917252 0.14531414521373137 0.0039061776217081956 1:17.0 3:25.0 4:4.0 5:14.0 9:28.0 12:535.0 14:60.0 
1.0 0.20491513502030867 0.1458863750258907 0.0030249822872367702 12:74.0 14:83.0 
1.0 0.21220976065720631 0.14413045208803438 0.0029174815308960532 8:75.0 12:8.0 14:4.0 
1.0 0.20493744052224333 0.14530401710306295 0.0039061776217081956 5:4.0 12:800.0 14:14.0 
1.0 0.20505836243417458 0.1453972877621264 0.0039061773245012144 12:626.0 
1.0 0.20515695267213752 0.14521096544128875 0.0039061776217081956 3:170.0 8:272.0 12:12070.0 
1.0 0.20173400038145656 0.14340013104390287 0.0029066786296904484 9:3.0 12:51.0 14:165.0 
1.0 0.20493308746431238 0.14544841237820522 0.0039061776217081956 12:540.0 
1.0 0.20441894422684864 0.14552309843853317 0.0039061776217081956 8:2925.0 14:54.0 
1.0 0.20499120364116413 0.14539730736396167 0.0039061776217081956 4:32.0 8:2.0 12:46.0 
1.0 0.10726082999856655 0.2379030397040707 0.0017623341303926177 3:2.0 12:42.0 
1.0 0.2049594702123647 0.14540005343943851 0.0039061776217081956 1:1.0 12:1068.0 14:121.0 16:4.0 
1.0 0.27926564716395724 0.14541552074626268 0.0039061776217081956 8:120.0 12:40.0 
1.0 0.016164218488300137 0.032895698275198136 0.0 12:44.0 
0.4515741880753807 0.0 0.0 0.0 12:7.0 
1.0 0.20498936290200498 0.14591713926801025 0.0039061776217081956 8:12682.0 12:1768.0 14:17.0 
1.0 0.20497750651553442 0.14591908809783588 0.0039061776217081956 8:51.0 12:51.0 
1.0 0.20498577201187052 0.14532657930098852 0.0039061776217081956 12:2156.0 
1.0 0.20502817709564652 0.14588876453196348 0.0039061776217081956 12:1918.0 14:182.0 
1.0 0.2050188359036932 0.14576785967024253 0.0039061776217081956 4:1.0 8:4.0 12:215.0 14:219.0 
1.0 0.20501565031973906 0.14570379691392077 0.0039061776217081956 9:8.0 12:128.0 14:96.0 
1.0 0.20499836490375734 0.1456861257363804 0.0039061776217081956 3:52.0 8:200.0 12:141.0 14:13.0 
1.0 0.1226341173785838 0.44966116590877486 0.0017987725570848268 12:48.0 14:4.0 
1.0 0.2049536244504374 0.14535481349878382 0.002951184779532868 8:93.0 12:3.0 14:12.0 
1.0 0.013192620537219348 0.09386606934534075 0.0021963530430640366 12:279.0 
1.0 0.2050047932618428 0.14544832903577576 0.0039061776217081956 8:780.0 12:27.0 14:3306.0 
1.0 0.20506126708482608 0.14553031821113488 0.0039061776217081956 12:2071.0 
1.0 0.2051334932685236 0.1454676029742658 0.0039061776217081956 3:44.0 12:208.0 
1.0 0.0817250698642438 0.05821532741327021 0.001035673409436777 12:5.0 14:11.0 
0.8934776511965409 0.019095061947487793 0.0 0.0 12:6.0 16:1.0 
1.0 0.20503380869562243 0.1453762304855511 0.0039061776217081956 4:33.0 8:21.0 12:109.0 14:52.0 
1.0 0.7058805498016518 0.10121875165414346 0.0019530995951218327 12:490.0 
1.0 0.20501013404527935 0.14532110435872275 0.0039061776217081956 8:4518.0 12:153.0 14:36.0 
1.0 0.2049879869383141 0.14532661334562164 0.0039061776217081956 12:3015.0 14:81.0 
1.0 0.20495119266005146 0.14533282106728823 0.0039061776217081956 1:31.0 9:10.0 12:2078.0 14:41.0 
1.0 0.20490966994922633 0.14514245616012805 0.0039061776217081956 4:17.0 12:2125.0 14:561.0 
1.0 0.20515954027596295 0.14514206507825372 0.0039061776217081956 12:165.0 14:88.0 
1.0 0.19579871025622025 0.13943317136614258 0.0028673563721882444 12:117.0 
1.0 0.17018983311092112 0.12102632375333339 0.002671690926635759 8:6.0 12:6.0 14:12.0 
1.0 0.2046281627059943 0.14501161414852598 0.0030039153377553474 12:88.0 14:14.0 
1.0 0.2049909818664013 0.1454913762816087 0.0039061776217081956 8:2232.0 12:477.0 14:9.0 
0.4458582929821715 0.057913323108364556 0.041755409786598155 0.0019708559357646043 12:100.0 
1.0 0.20507352325247336 0.14571847553861106 0.0039061776217081956 8:64.0 12:1674.0 14:38.0 
1.0 0.20515880301326445 0.14574803440403217 0.0039061776217081956 8:308.0 12:448.0 
0.7819163099236152 0.1034828522336616 0.07334900432990153 0.0010379143535274615 12:99.0 14:3.0 
1.0 0.20513349214039628 0.14588311116118896 0.0039061991902435977 12:1617.0 14:396.0 
1.0 0.20516903408672432 0.14582148458688343 0.0039061991902435977 2:1300.0 3:650.0 12:165100.0 
1.0 0.20510319712347858 0.14570599423105607 0.0039061991902435977 5:210.0 12:7112.0 14:1876.0 
1.0 0.20316756501025163 0.14458368400025756 0.0029163667988250028 8:171.0 12:114.0 14:9.0 
1.0 0.2050332196988781 0.1457037969139207 0.0039061991902435977 5:1649.0 8:629.0 12:12597.0 14:544.0 
1.0 0.1056725585977893 0.07471169067576615 0.0017693445807754338 12:6.0 14:9.0 
1.0 0.0 0.0 0.0 12:8.0 
1.0 0.20505846946052492 0.14496613006117842 0.0039061991902435977 12:2839.0 14:68.0 
1.0 0.20500479326095505 0.1452233323537035 0.0039061991902435977 1:4030.0 3:780.0 4:21840.0 8:5850.0 9:1430.0 12:38870.0 13:1560.0 14:5980.0 
1.0 0.2017149267588827 0.14314329454322755 0.0029142546543288878 8:4.0 12:48.0 14:158.0 
1.0 0.19975150145324294 0.1417265354751644 0.002903550506184428 12:120.0 14:8.0 
1.0 0.20491870792563238 0.14521758640684895 0.0039061991902435977 3:14.0 5:14.0 8:2.0 9:2.0 12:719.0 14:73.0 
1.0 0.20491679604015167 0.14521758640302157 0.0029459701066558708 12:1000.0 
1.0 0.16621424295578052 0.18081151604896123 0.002587777604621806 12:42.0 14:8.0 
1.0 0.22783258993394434 0.14111374753269762 0.0028975904112776138 12:283.0 14:7.0 
1.0 1.0 0.13920390309574054 0.002865708847265467 12:84.0 
1.0 0.20503477003659087 0.14568049568843272 0.002927446880061355 12:221.0 14:68.0 
1.0 0.20500775300893825 0.14536684509351333 0.0039061991902435977 8:348.0 12:360.0 14:32.0 
1.0 0.20535848041250754 0.14533277879807033 0.0039061756380787127 12:10.0 16:16.0 
1.0 0.20510019532866275 0.14541695985410263 0.0039061991902435977 8:96.0 12:744.0 14:687.0 
1.0 0.20539851369334583 0.14571883873275582 0.0039061991902435977 12:1276.0 
1.0 0.20475230278697515 0.14589056511119103 0.0039061991902435977 8:306.0 12:1462.0 
1.0 0.20471628565518352 0.145713985876827 0.0039061991902435977 8:144.0 12:360.0 14:153.0 18:225.0 
1.0 0.0731871823988858 0.032011084705516835 0.0019437894944367984 12:48.0 
1.0 0.14486580900355028 0.10408399325264506 0.0021615928917940175 12:30.0 
1.0 0.20447766944882256 0.1455303182111347 0.0039061991902435977 4:91.0 8:4.0 9:1.0 12:81.0 
1.0 0.2049524805261062 0.14535790236592133 0.0039061991902435977 8:68.0 12:2686.0 
1.0 0.18746027957249567 0.13330948647388824 0.002774959730209081 3:7.0 8:2.0 12:35.0 14:3.0 
1.0 0.20491870792563238 0.14541707566611856 0.0039061991902435977 3:322.0 12:28.0 
1.0 0.20492267458644486 0.14532586331214636 0.0039061991902435977 8:1930.0 12:1695.0 14:15.0 
1.0 0.20502045557561605 0.14526712515960527 0.0029294379695127 12:145.0 14:15.0 
1.0 0.15986429293829704 0.11261949850432977 0.0024747626633744857 12:35.0 14:7.0 
0.8844014952007285 0.10984392571443896 0.07790135353409153 0.0020516170939748335 12:96.0 
1.0 0.16809195571483315 0.11810721259890873 0.002703360189119486 8:10.0 12:10.0 
1.0 0.20492249990018097 0.14580401405149374 0.0039061991902435977 8:140.0 12:2142.0 
1.0 0.2050172872693819 0.14591666173489498 0.0039061991902435977 5:2352.0 12:4648.0 14:266.0 
1.0 0.20506696749227232 0.14588876453196342 0.0039061991902435977 1:4.0 8:8.0 12:230.0 14:94.0 
1.0 0.15036373419169174 0.10715413687574975 0.002574793311603596 12:56.0 14:10.0 
1.0 0.0915433707959834 0.06960328192621663 0.0019536582086179853 8:3.0 12:33.0 
1.0 0.20506128021775605 0.14591666173489487 0.0039061991902435977 12:266.0 14:52.0 
1.0 0.04812117884120438 0.0 7.188357579390736E-4 12:42.0 
1.0 0.20502544878047013 0.1451424561601281 0.0039061991902435977 8:4.0 12:68.0 14:256.0 
0.3972917099559087 0.0 0.0 0.0 12:6.0 
1.0 1.0 0.14546960854513108 0.002928100524854778 12:248.0 
1.0 0.20503380869562238 0.1457977633835374 0.0039061991902435977 12:1086.0 
1.0 0.13697991593824982 0.09739086272785952 0.0022827889036301507 12:60.0 
1.0 0.20493491823578333 0.1453918347657579 0.0029292471080061703 8:20.0 12:96.0 14:4.0 
1.0 0.19730419002806637 0.1407270937205672 0.002857196912153603 12:108.0 
1.0 0.8314537768474292 0.10733191090432281 0.00245642829208087 12:19.0 
1.0 0.2050673171418304 0.14588576094887934 0.0039061991902435977 8:748.0 12:6391.0 14:1705.0 
1.0 0.2049110728039219 0.14541653599364573 0.003906177621683604 9:3.0 12:452.0 14:23.0 
1.0 0.0 0.0 0.0 12:10.0 
1.0 0.20505405927845594 0.14552033265218334 0.0039061991902435977 8:8.0 12:372.0 14:40.0 
1.0 0.20506214850540583 0.14540391402503788 0.0039061991902435977 5:969.0 12:4233.0 14:204.0 
1.0 0.17837176528476922 0.45224217448591986 0.002785178638363614 12:175.0 14:14.0 
1.0 0.20513349339708808 0.1456912087442342 0.0039061991902435977 12:9486.0 
1.0 0.342097429273022 0.09851244785857102 0.002247805787543966 8:72.0 
1.0 0.20507352323984135 0.14591882436835224 0.0039061991902435977 8:387.0 
1.0 0.20501807317322374 0.14570700079000903 0.003906170313428492 12:456.0 14:38.0 
0.6644848342748764 0.10351298030669702 0.07853847134181569 0.0039061776217000355 8:22.0 
1.0 0.0 0.9226099907552503 0.0 12:10.0 
1.0 0.20501728726938184 0.1459188241124858 0.0039061991902435977 12:1771.0 
1.0 0.2051568516893687 0.14569876908268625 0.0039061776215520982 12:223.0 14:39.0 
1.0 0.2049131126541145 0.14575234659229142 0.002933800633666994 12:15.0 14:19.0 
1.0 0.20498382769701207 0.14570213165915674 0.0039061991902435977 5:4248.0 9:32.0 12:6392.0 
1.0 0.2049603511065028 0.14521758640684912 0.0039061991902435977 8:2940.0 12:42.0 14:24.0 
1.0 0.2049827099428455 0.1457075068985692 0.0039061991902435977 5:64.0 12:342.0 14:166.0 
1.0 0.20529559111778056 0.14514206507825367 0.0034028257569989617 3:835.0 8:4.0 12:275.0 
1.0 0.20491967599599858 0.1449448546335339 0.0033883624855253758 8:488.0 14:16.0 
1.0 0.2050532645890707 0.14541440179840487 0.003146940895019934 14:26.0 
1.0 0.16321821566871159 0.10009369296939968 0.002406638401122818 7:1.0 8:4.0 12:51.0 
1.0 0.20492106728642961 0.14536531795707952 0.003387242013661862 8:44.0 12:154.0 14:10.0 
1.0 0.20515685170129977 0.14532661334562164 0.0033775785117251544 12:397.0 14:91.0 
1.0 0.20493735422833376 0.14553168264005828 0.0033684414966208553 5:594.0 12:3822.0 14:786.0 16:8.0 18:46.0 
1.0 0.2050641891279955 0.145886948512227 0.0031517373259259407 1:8.0 8:76.0 12:20.0 14:8.0 
1.0 0.20493744052224333 0.14512432080918525 0.003365970835020382 8:165.0 12:220.0 14:44.0 
1.0 0.20511892302442908 0.14495122830044332 0.003363446307776352 12:8248.0 14:664.0 
1.0 0.2046818215050546 0.14580755742637375 0.0033401571707869504 8:125.0 12:685.0 
1.0 0.20493267352949956 0.14588878986754406 0.0033117614843967136 7:462.0 14:33.0 
1.0 0.2049318793443945 0.14493688440538777 0.003069400741842058 4:14.0 12:14.0 
1.0 0.20501728726927065 0.14571847553853268 0.003906177621707141 12:140.0 14:45.0 
1.0 0.20446439484233309 0.14543190501936948 0.003271123251478658 5:308.0 8:2163.0 12:1428.0 14:210.0 
1.0 0.2050971608339221 0.14591666173489332 0.00390617762170814 12:834.0 14:21.0 
1.0 0.20493013121841286 0.14560379944573676 0.003270962567247404 8:216.0 14:72.0 
1.0 0.20497057194692175 0.14784606332204625 0.0032631125104152225 12:2187.0 
0.4680707802750892 0.0 0.0 0.0 12:144.0 
1.0 0.2105096610229476 0.14591494149678816 0.0039061776216909316 12:228.0 
1.0 0.20498270994284562 0.14514206507825383 0.0032597223125581665 8:786.0 12:822.0 14:474.0 
1.0 0.2049678791339506 0.1456978073278613 0.003271123250442154 12:605.0 
1.0 0.20499206834134437 0.1454047130472768 0.00325834975109629 8:56.0 9:70.0 12:43050.0 14:1148.0 
1.0 0.20498382769701196 0.1458214845868835 0.003257785581756323 8:10.0 12:24.0 14:186.0 
1.0 0.7065102730720585 0.09957642909073434 0.0024908572887445074 12:486.0 
1.0 0.2049905107120611 0.1454350066632688 0.0032315189828265867 12:32984.0 14:462.0 
1.0 0.05713165222693837 0.10071781889591698 0.0019515389993906957 8:68.0 
1.0 0.19670723489274405 0.3052150885202111 0.0028707460180714328 12:361.0 
0.9953431387459657 0.6477509486436219 0.139739331601008 0.0028898069732804727 12:144.0 
1.0 0.20499070945753622 0.14544841237820516 0.003218141405588071 8:1606.0 12:6193.0 
1.0 0.20488440985303996 0.14582568763524356 0.003906177621707807 12:24.0 14:45.0 
1.0 0.2049884630302552 0.14591666173489498 0.003209836264277788 12:207.0 14:168.0 
1.0 0.15541744703669846 1.0 0.002364732282261306 8:2.0 12:2.0 
1.0 0.20497428906394033 0.14591841931802185 0.003209487854832216 12:1740.0 
1.0 0.2050047932609551 0.14576989338646817 0.00319854321098223 8:10.0 12:2750.0 14:45.0 18:35.0 
1.0 0.17464463862185836 0.07887622286940896 0.0020897861901627013 12:16.0 14:3.0 
1.0 0.20496035110650268 0.14525212610215643 0.003192095253465088 12:3225.0 14:417.0 
1.0 0.20107770422193955 0.14221810497714393 0.002906375957901941 12:51.0 14:17.0 
1.0 0.2726970962551983 0.0 0.0 12:18.0 14:1.0 
1.0 0.2049970372145013 0.1453040171030629 0.003187363432304524 9:238.0 12:56610.0 14:2448.0 
1.0 0.16265407397878423 0.16342235421035653 0.002213663692731212 12:11.0 
1.0 0.0 0.08463990160650814 0.0 12:5.0 
1.0 0.20497750652748176 0.14570485987114795 0.003187296080140456 5:1344.0 12:29484.0 14:182.0 
1.0 0.18992827539671464 0.15508787375315838 0.00282691238820769 5:6.0 12:169.0 18:1.0 
1.0 0.20498577201187052 0.14579812838448586 0.003186289022027722 9:11.0 12:1595.0 14:110.0 
1.0 0.11213417769253846 0.07495458099445601 0.001376115628801966 12:57.0 14:6.0 
0.8289411030312628 0.0 0.0 0.0 12:102.0 14:24.0 
1.0 0.20497228164792197 0.14533282106728823 0.0031679780807093993 3:140.0 5:18.0 7:102.0 12:506.0 14:36.0 
1.0 0.2050085211256228 0.1451243208091852 0.003165159088865055 8:864.0 12:192.0 14:64.0 
1.0 0.20506784450877302 0.14494483568954525 0.003160905436046968 8:512.0 12:2548.0 14:24.0 
1.0 0.20502940891315719 0.14540011265066605 0.00315518964889272 3:220.0 8:176.0 12:297.0 
1.0 0.2050332196988781 0.14560103950374054 0.0030216068136499907 5:134.0 12:182.0 14:20.0 
1.0 0.2050612802177561 0.14571227381752044 0.003099355304795881 8:759.0 12:3486.0 14:105.0 
1.0 0.20510319712347863 0.14569601511586594 0.0031186463239716855 1:1690.0 3:520.0 4:130.0 12:9230.0 
1.0 0.2049264179335194 0.14574291124440086 0.003024982287236662 8:2.0 12:60.0 14:86.0 
1.0 0.2051001953286627 0.14575376765438142 0.0039061955239910184 8:20.0 12:730.0 14:90.0 
1.0 0.2047538912041038 0.14500410055431467 0.002928179869010896 12:232.0 14:65.0 
1.0 0.20505405927845594 0.14588893006423576 0.0039061875978496086 12:561.0 14:121.0 18:88.0 
0.2187116986884026 0.039880371823762556 0.02778362438880508 0.0 4:2.0 12:98.0 
1.0 0.17524161674457678 0.1268483322258705 0.0027060182332417915 8:4.0 14:8.0 
1.0 0.20516903408672432 0.14591560915823426 0.0039061849299878992 8:22.0 12:3366.0 
1.0 0.20502996298299137 0.14515194452086883 0.0039061840492819466 5:406.0 12:172018.0 18:126.0 
1.0 0.2049935705720748 0.14521758640303228 0.00390618123625347 8:546.0 12:882.0 14:42.0 
1.0 0.20499858918376412 0.14574554403312007 0.0039061798143614213 1:1.0 9:26.0 12:271.0 14:79.0 
1.0 0.20494702851725638 0.14529860408196793 0.0039061796053376785 8:112.0 12:10.0 14:2.0 
1.0 0.20496787918836123 0.14570810758749825 0.0039061793869901162 12:671.0 
1.0 0.21267347022107502 0.14491698515459012 0.0029214877242352364 4:2.0 12:69.0 14:3.0 
1.0 0.20513349208930387 0.14574803440404616 0.0039061785531628312 5:24.0 8:152.0 12:688.0 14:264.0 
1.0 0.2051897373960767 0.14570580160911217 0.0039061779495999094 3:390.0 8:7540.0 12:2470.0 
1.0 0.1792656206900119 0.13949572818329664 0.0028707583389949503 12:136.0 
1.0 0.20492125083862806 0.14542728244159592 0.0039061779336084235 3:34.0 5:102.0 12:2975.0 14:238.0 
1.0 0.2049228613230965 0.14591477822131782 0.003167951134375513 12:969.0 
1.0 0.20498395099041972 0.14591581132323952 0.0039061597194253728 12:204.0 
1.0 0.20532389499490705 0.144989404834239 0.0029273300444349988 12:250.0 14:5.0 16:10.0 
1.0 0.20509716079006346 0.14532110435872259 0.003906177918915177 5:42.0 12:10276.0 14:476.0 
1.0 0.2049226745864448 0.14560379944573665 0.003906177623707374 3:291.0 12:876.0 
1.0 0.20455199510511363 0.1451243208091853 0.0039061776222268363 12:108.0 14:130.0 
1.0 0.20498577201187052 0.14591668468769792 0.0039061776222267808 14:143.0 
1.0 0.2050648134835199 0.14591668468769792 0.0039061776221325784 12:4636.0 
1.0 0.20529559111778056 0.14579812838448575 0.003906177621864293 8:1071.0 12:306.0 14:21.0 
1.0 0.20515685170563774 0.14591668468769792 0.003906177621732787 12:9559.0 
1.0 0.2051334932663097 0.14492819702100596 0.0039061776216871014 4:10.0 5:24.0 12:616.0 
1.0 0.20506827305832503 0.14570580157055824 0.0039061776211896104 12:459.0 
1.0 0.2047344526720708 0.14549194731406795 0.00390617762172929 1:2.0 12:273.0 14:274.0 
1.0 0.2048917820897757 0.14493372798933185 0.0039061776217254596 8:305.0 12:20.0 14:10.0 
1.0 0.20496035110612426 0.1452175864027624 0.0039061776217045874 8:56.0 12:24.0 
1.0 0.20507448904446068 0.14549194728208265 0.003906177621283813 12:942.0 
1.0 0.2049603511065043 0.1456628481771003 0.0039061776217163557 5:40.0 8:117.0 12:819.0 14:16.0 
1.0 0.2049774883833257 0.14579774689120734 0.0039061776217082984 12:387.0 
1.0 0.20502544878047013 0.14588576094887928 0.003906177621711804 8:2227.0 
1.0 0.1969279591959981 0.13294971627810462 0.0028898376200470082 12:369.0 
1.0 0.20539079965899487 0.1459188241124858 0.0039061776217100275 3:889460.0 4:1170.0 5:1820.0 8:2860.0 12:56160.0 14:3640.0 17:520.0 
1.0 0.20515880301326456 0.14591882388567373 0.00390617762170975 8:7956.0 14:54.0 
1.0 0.20507352323984146 0.14540251741443888 0.0039061776217092503 4:68.0 5:3978.0 12:1156.0 
1.0 0.20481414727238217 0.14570297117826692 0.002928108403038049 8:57.0 
1.0 0.20491961942116915 0.1454483290357756 0.003906177621708473 8:462.0 12:93.0 
1.0 0.20511892302442908 0.14576785967024253 0.003153531582849256 14:245.0 
1.0 0.08939561165701698 0.04885613667662331 0.0011888754120405465 12:36.0 
1.0 0.20455313987367224 0.14591880415060832 0.0039061773098079677 8:2.0 12:305.0 14:36.0 
1.0 0.20497750339311333 0.1456485333634281 0.0032181413460971586 12:462.0 14:56.0 
1.0 0.20500309918864168 0.145918803383009 0.003906177293816482 5:50.0 12:64.0 
1.0 0.20513349339708797 0.14591908809783577 0.0031517752745179872 8:14008.0 
1.0 0.20494727676891228 0.1456978073665583 0.0033883624855250427 5:24.0 12:366.0 14:4.0 
1.0 0.20505396598328413 0.1452611233589179 0.0031549425104033246 12:45.0 14:33.0 
1.0 0.20506307060856876 0.1454019091700191 0.003146951273501619 8:66.0 12:450.0 14:18.0 
1.0 0.20311645517126897 0.1443793511748065 0.0029207674020567745 8:168.0 12:112.0 
1.0 0.20494727676893776 0.14515194452086888 0.003139978713401159 1:15.0 8:20.0 12:870.0 14:150.0 
1.0 0.20491961942116882 0.14521758640302157 0.003118646323971741 8:312.0 12:180.0 
1.0 0.20492249990018097 0.14522333235370355 0.0030993553047958255 8:95.0 12:849.0 14:6.0 18:2.0 
1.0 0.7016525956371051 0.1457977412162057 0.0032094872614580883 12:631.0 14:17.0 
1.0 0.20500313362700984 0.14570379691392088 0.003091762191884395 12:1326.0 
1.0 0.20498857747207183 0.1457480344040324 0.003076890037964408 3:136.0 8:2159.0 12:408.0 14:306.0 
1.0 0.20455199510511368 0.14580401405149374 0.003073420557658302 12:1666.0 
1.0 0.48465760381509 0.10271702351378559 0.001953099595121758 12:275.0 
1.0 0.1980709623287859 0.14034656666303724 0.0028812591723526007 12:102.0 14:24.0 
1.0 0.20489431441545097 0.14588855962742803 0.0030695371180564646 5:71.0 12:186.0 14:36.0 
1.0 0.20494727018011843 0.14514070501366666 0.003040907964133699 4:1.0 9:5.0 12:2118.0 
1.0 0.20872454087245396 0.1419826635157159 0.0028599970484197287 12:165.0 
1.0 0.20539079965883017 0.1454319050208614 0.0039061776217066413 12:1192.0 14:65.0 
1.0 0.20501565031973917 0.14579775770850167 0.003032384153748735 12:31569.0 
1.0 0.20497428906394027 0.14591668468769797 0.0030216068136499352 5:1722.0 9:14.0 12:6384.0 14:210.0 
1.0 0.2049313349032686 0.14536018026338227 0.002929381180197663 8:28.0 12:90.0 14:12.0 
1.0 0.2049905107120612 0.14521758640773536 0.0030083302578785553 8:57.0 12:9411.0 
1.0 0.2050630706085687 0.1457075449411197 0.0029993039803546395 5:104.0 12:32.0 
1.0 0.2050630020238034 0.14652537679637373 0.0029967607924087925 3:10.0 8:11.0 12:564.0 
1.0 0.2049678791881176 0.14495122830044332 0.0029926032351380583 12:5995.0 
1.0 0.20499473575055516 0.145704859871148 0.0029885542613100613 4:266.0 5:931.0 8:247.0 12:25859.0 14:152.0 
1.0 0.2049196759959987 0.1454141902837438 0.002988542170622943 5:54.0 12:7434.0 14:36.0 
1.0 0.20491513648387336 0.14565441529590395 0.0029598764276386746 12:116.0 14:20.0 
1.0 0.20492125083862817 0.14588879260679227 0.002984317536459835 12:167535.0 14:187.0 18:102.0 
1.0 0.20515685170129977 0.14569601511586583 0.0029780181528349936 1:8.0 7:290.0 8:140.0 12:2653.0 14:1037.0 
1.0 0.2050184577695363 0.14588879260677284 0.003906177621707918 8:68.0 12:136.0 14:51.0 
0.8746093560143826 0.10656206176494538 0.07050030369000976 0.0 8:21.0 
1.0 0.20510322352088733 0.14533282106728818 0.0029739445953482213 8:722.0 
1.0 0.20496578929281795 0.1453198000860883 0.002969456428091266 12:3768.0 14:552.0 
1.0 0.1780106736738174 0.28701540085494176 0.0027165268471842892 8:1.0 12:174.0 14:8.0 
1.0 0.2044643948423332 0.1457075068985692 0.002969450193453904 8:574.0 12:4830.0 14:490.0 
1.0 0.2049509113012286 0.14574803439855433 0.003906177621708473 12:434.0 14:36.0 
1.0 0.8426382720558012 0.1452006075767333 0.003906177621708251 12:438.0 
1.0 0.20500775300893825 0.14571883873275587 0.0039061776217081956 12:66196.0 14:9747.0 
1.0 0.20498433712872033 0.14579812838448575 0.0039061776217081956 3:4.0 5:41.0 8:59.0 12:81.0 
1.0 0.20491679604015178 0.14533317682277452 0.0039061776217081956 8:805.0 12:25.0 
1.0 0.20501565031973906 0.1453579023659214 0.0039061776217081956 8:240.0 12:1596.0 14:6.0 
1.0 0.20498862338630985 0.14569120814686265 0.0039061776217081956 1:10.0 3:10.0 4:425.0 5:2765.0 8:130.0 12:37445.0 14:640.0 
1.0 0.20506731728133165 0.14570213165913715 0.0039061776217081956 8:48.0 12:148.0 14:58.0 
1.0 0.20505846946052497 0.1459188241124858 0.0039061776217081956 4:28.0 5:14.0 12:504.0 14:112.0 
1.0 0.20497228164792097 0.14546760297426503 0.0039061776217081956 12:44.0 14:66.0 
1.0 0.20503001652938185 0.14591882388567373 0.0039061776217081956 8:357.0 12:527.0 14:85.0 
1.0 0.20495950088177445 0.14540005343943707 0.0039061776217081956 8:11.0 12:825.0 
1.0 0.20506818114594388 0.14539730736396178 0.0039061776217081956 8:156.0 12:804.0 
1.0 0.20468182150273795 0.1454019091551138 0.0039061776217081956 3:3.0 5:21.0 8:4.0 9:1.0 12:613.0 14:19.0 
1.0 0.24957302786852464 0.13877607032191142 0.0028821617671710787 1:1.0 3:4.0 12:81.0 14:6.0 
1.0 0.20496578929281806 0.14591908815410204 0.0039061776217081956 8:66.0 12:102.0 14:33.0 
1.0 0.20490649704935676 0.14588586622553162 0.0039061776217081956 4:803.0 5:110.0 8:506.0 12:1815.0 14:154.0 
1.0 0.20506481348352013 0.14570810758749836 0.0029675082555440935 12:755.0 
1.0 0.20491183683777436 0.14540372142824048 0.0029622578784999076 3:117.0 8:45.0 12:9711.0 
1.0 0.20494897809831875 0.14586037810323915 0.0029294624241896485 12:134.0 14:22.0 
1.0 0.03093458653653798 0.009954688818562929 9.386909346995043E-4 12:39.0 14:4.0 
1.0 0.20498582592018294 0.14522078794559157 0.0029617083740878236 4:16.0 12:656.0 14:16.0 
1.0 0.20506481348352013 0.14522312231557616 0.002960909173289117 12:36380.0 14:2550.0 
1.0 0.20502015779725602 0.1456960151029984 0.0033117614840499354 8:10.0 12:225.0 14:20.0 
1.0 0.2051690340867242 0.14564448990639728 0.0029553073408700725 12:15631.0 
1.0 0.2050630020238035 0.14570511679435488 0.0029550658886846604 5:94.0 12:334.0 14:34.0 
1.0 0.1984950347897572 0.14063523777157616 0.0028970623670432844 4:1.0 8:8.0 9:1.0 12:103.0 14:23.0 
1.0 0.20509128168218638 0.14569601511586056 0.0029526201556749343 5:208.0 12:1904.0 14:80.0 
1.0 0.20506731714183035 0.14588878986754406 0.0029450441310365227 8:223.0 12:10.0 14:4.0 
1.0 0.20507352279357338 0.14575376621960245 0.003258349722370879 5:17.0 12:247.0 14:9.0 
1.0 0.20490966994922644 0.14533282106728806 0.002943209334124286 8:40.0 12:450.0 14:35.0 
1.0 0.20499473575055505 0.14511230340534725 0.002942931986540387 8:924.0 12:22.0 14:11.0 
1.0 0.204896438187526 0.1458889300642357 0.002941822667292149 8:22.0 12:1202.0 14:18.0 
1.0 0.20515695263997014 0.1452175863905304 0.003387242013297872 3:23.0 4:3.0 12:88.0 
1.0 0.11642286086895123 0.08891144058634198 0.001994250516810625 8:6.0 12:8.0 14:2.0 
1.0 0.20498936290200492 0.1456078954460175 0.0039061776217081956 1:380.0 4:30.0 5:295.0 8:20.0 9:10.0 12:3165.0 14:90.0 
1.0 0.20491529766359345 0.14588575268634324 0.0039061776217081956 8:11.0 12:924.0 
1.0 0.2048980117847375 0.14512432080918525 0.0039061776217081956 12:4256.0 14:632.0 
1.0 0.20471628565518357 0.14550395363942348 0.0039061776217081956 8:37.0 14:108.0 
1.0 0.20495259650618558 0.14539387717612912 0.0039061776217081956 12:935.0 14:204.0 
1.0 0.20501728726938195 0.14521188634573262 0.0039061776217081956 8:570.0 12:3996.0 14:12.0 
1.0 0.20493744052207663 0.14521813058333322 0.0039061776217081956 12:1173.0 14:51.0 
1.0 0.20506481348352013 0.14579812838448586 0.0039061776217081956 12:5268.0 14:528.0 
0.8211142741999752 0.09190292363161234 0.05922533409391392 0.0019534113737109805 12:6.0 13:2.0 
1.0 0.20513345793614984 0.1456911842469848 0.0031679774249296355 5:50.0 8:4.0 12:78.0 14:10.0 
1.0 0.20455070478445292 0.14540073315011032 0.0030733795230846184 12:190.0 14:6.0 
1.0 0.20510319712347858 0.14540471304727676 0.002938531383308629 5:255.0 12:4885.0 14:155.0 
1.0 0.20516903408672432 0.14543190501936964 0.002937797831639055 8:88.0 12:2365.0 14:77.0 
1.0 0.2051334920893037 0.14555148320015576 0.002934784491194775 8:1024.0 12:8.0 14:8.0 
1.0 0.20505837667526605 0.14564448990639728 0.002932729409523438 8:1925.0 12:858.0 14:44.0 
1.0 0.20500083409191217 0.14541419028374375 0.002931957974881716 1:2.0 9:4.0 12:410.0 14:14.0 
1.0 0.20487749984715203 0.14540190917001922 0.0039061776217081956 5:61.0 12:305.0 
1.0 0.2047983768815949 0.14540201973566752 0.0029513043650781327 8:99.0 
0.8876864085200237 0.12213168583154044 0.08655465729208124 0.0019421757847054577 8:84.0 12:2.0 14:2.0 
0.8934216654067398 0.28803126907404364 0.08741068131954098 0.0019530726137635902 8:84.0 
1.0 0.20493744052224333 0.14492819702261633 0.0039061776217081956 8:1972.0 14:221.0 
1.0 0.20493308746431238 0.1456943797879503 0.0039061776217081956 12:7018.0 14:77.0 
1.0 0.20495517864797153 0.14570379691392077 0.002931849220327687 9:12.0 12:2224.0 14:82.0 
1.0 0.14349081480184644 0.10238022900665217 0.0019531128246129041 3:4.0 12:58.0 
1.0 0.20498857747207166 0.14574713440317638 0.0029311874560247198 14:80.0 
1.0 0.2049678791881176 0.1453973099484242 0.0029311162313780947 3:24.0 8:48.0 12:1560.0 
1.0 0.205000834091912 0.14496517965931371 0.0039061776217081956 3:176.0 4:4.0 12:504.0 
1.0 0.20503001652938158 0.1454149924743796 0.0039061776217081956 7:8.0 8:88.0 12:40.0 14:4.0 
1.0 0.2049857393457527 0.14569118484435628 0.0031920946296681296 1:2.0 12:298.0 14:52.0 
1.0 0.205015650319739 0.1458899468612645 0.0029300516765422002 8:7599.0 12:867.0 14:289.0 
1.0 0.2049858259194366 0.14588881242460594 0.0029299176059847665 12:14602.0 14:98.0 
1.0 0.20501845776956373 0.14540190915668144 0.0039061776217081956 12:1720.0 14:40.0 
-0.3892641801198359 0.0896650268171239 0.06302268885422771 0.0 1:1.0 8:2.0 12:110.0 14:8.0 
-0.5106200840863269 0.11040174896909882 0.07712186170990143 5.37764688488096E-4 4:104.0 7:324.0 12:1438.0 
-0.5105919343361588 0.11041422087398572 0.07711709609794332 5.37764688488096E-4 3:156.0 12:1166.0 14:34.0 
-0.5105916732435154 0.11039939729449721 0.07756440476744658 5.37764688488096E-4 1:3.0 7:42.0 12:636.0 13:24.0 14:57.0 
-0.510538068124744 0.10956544790351164 0.07791104309075192 5.37764688488096E-4 4:1.0 8:11.0 12:155.0 14:98.0 
-0.5105638829539583 0.11039530631054434 0.07760274149123214 5.37764688488096E-4 1:21.0 4:7.0 12:238.0 13:126.0 14:140.0 16:42.0 
-0.7039410265619993 0.0 0.0 0.0 1:1.0 12:12.0 14:2.0 
-0.5105237282432575 0.11039895167863589 0.07760210373917359 5.37764688488096E-4 4:63.0 8:133.0 12:1309.0 14:63.0 
-0.5105896468747503 0.11039522228545945 0.07760108846608704 5.37764688488096E-4 5:2728.0 12:2882.0 14:418.0 
-0.4637448980269144 0.09372610674264496 0.06568555822326644 5.373142621267757E-4 12:63.0 14:15.0 
-0.0 0.0036230886177555975 0.0014596789343103306 0.0 12:24.0 14:16.0 
-0.5099079828993376 0.11039034906698786 0.07759957123323863 5.37764688488096E-4 1:28.0 3:98.0 5:3437.0 8:182.0 12:32914.0 14:630.0 
-0.5106050286540871 0.11033670776039978 0.07759954961288346 5.37764688488096E-4 12:2492.0 14:840.0 16:28.0 
-0.510581705936677 0.1102460650866029 0.07759954961382731 5.37764688488096E-4 3:123.0 12:678.0 14:318.0 16:48.0 
-0.5512471509138539 0.3963092270139643 0.0771302842660811 5.37764688488096E-4 12:446.0 
-0.5105567317471214 0.11024593946722966 0.07759952986228463 5.37764688488096E-4 7:30.0 9:6.0 12:423.0 14:6.0 
-0.5104761818391114 0.1102076950121334 0.07759755284169528 5.37764688488096E-4 5:490.0 12:2828.0 13:1176.0 14:630.0 
-1.0 0.0 0.0 0.0 12:36.0 
-0.5103682652451269 0.11020770597724411 0.07759513953195796 5.37764688488096E-4 5:144.0 12:587.0 14:32.0 
-0.5101810667545301 0.11039334351912927 0.07739118564681273 5.377646884124343E-4 3:10.0 4:5.0 9:2.0 12:247.0 14:60.0 
-0.5108123575236616 0.11032950921053913 0.07734465924545911 5.377646884880973E-4 5:38.0 8:11.0 12:565.0 14:92.0 
-0.5101824725539243 0.11038904795895604 0.07740973999206155 5.37764688488094E-4 5:8.0 12:852.0 14:20.0 
-0.5102877716231331 0.11018071193456574 0.07759063134457272 5.37764688488096E-4 3:100.0 12:13925.0 14:2175.0 
-0.5104114135076284 0.10983814226282901 0.07755908375042936 5.377643002622556E-4 7:14.0 12:150.0 14:21.0 
-0.5104369627857006 0.1101886910018211 0.07757098795336342 5.37764688488096E-4 3:238.0 12:1155.0 14:203.0 
-0.5103573484607702 0.11018368840651765 0.07752628864873162 5.37764688488096E-4 8:44.0 12:330.0 14:88.0 
-0.5101804854499082 0.11016753012619501 0.07752350525411716 5.37764688488096E-4 3:4.0 4:210.0 12:361.0 14:19.0 
-1.0 0.06373098908151531 0.052782856373733034 5.376796434911624E-4 3:1.0 12:38.0 14:9.0 
-0.5101920442179706 0.11012997956788911 0.07752350564607019 5.37764688488096E-4 3:52.0 8:395.0 12:1876.0 14:226.0 
-0.5102887704406911 0.11011551200690506 0.07751086000171581 5.37764688488096E-4 12:1695.0 14:84.0 
-0.5103002270323812 0.11009417720220277 0.0775098753120596 5.37764688488096E-4 12:1498.0 13:14.0 
-0.5108377694004839 0.11057059316362605 0.0775078285863911 5.37764688488096E-4 12:1870.0 14:264.0 
-0.5105907031957875 0.11053783493124919 0.07752105568413226 5.37764688488096E-4 1:7.0 4:14.0 8:28.0 9:77.0 12:336.0 14:84.0 16:42.0 
-0.5104496711695684 0.10943634591839418 0.07679515602207859 5.356328434157342E-4 8:9.0 12:248.0 14:4.0 
-0.5105661278507196 0.11050850584853478 0.07773724726115372 5.37764688488096E-4 12:4634.0 14:126.0 16:161.0 
-0.5103517451731652 0.1104199816333909 0.07793675692088115 5.37764688488096E-4 12:15026.0 14:1276.0 
-0.5105995224897679 0.1104117427496289 0.07797245868219682 5.37764688488096E-4 2:7.0 5:7.0 9:14.0 12:13895.0 14:602.0 
-0.5106230093283903 0.11023183615101112 0.07752483939976296 5.37764688488096E-4 8:484.0 12:4708.0 14:506.0 
-0.5106191461372204 0.1101947301537789 0.07718151564762099 5.37764688488096E-4 8:275.0 12:13875.0 14:3575.0 18:50.0 
-0.5098539269019702 0.1102687670502649 0.07782799659014306 5.377646884877062E-4 12:336.0 14:56.0 
-0.5106088901366876 0.1101947301537789 0.07755920121142151 5.37764688488096E-4 1:60.0 12:972.0 
-0.5106109895135729 0.1101944123492456 0.07747148749676308 5.37764688488096E-4 12:5830.0 14:1496.0 
-0.5801087952903509 0.10920620466977725 0.07684257159908225 5.354354741463063E-4 12:123.0 14:18.0 
-0.5106052690317618 0.11017997025829723 0.07721361197554294 5.37764688488096E-4 12:1799.0 14:168.0 
-0.5106062662190727 0.11017864178572956 0.07760837306911489 5.37764688488096E-4 4:462.0 12:27258.0 14:968.0 16:88.0 
-0.5105663478477259 0.11017864178572956 0.07756162334408567 5.37764688488096E-4 5:396.0 8:308.0 12:14256.0 14:3828.0 18:66.0 
-0.5105641628956075 0.11015984634588277 0.07754096589554654 8.709795651195562E-4 12:840.0 14:56.0 18:175.0 
-1.0 0.9707884230406054 0.024064264640423376 0.0 12:19.0 
-0.5101822117003854 0.11035113614508801 0.07759390909433256 5.377646884855425E-4 12:169.0 14:41.0 
-0.5108751853294271 0.11011611933671729 0.07788991948113888 5.377306222965617E-4 4:6.0 8:54.0 14:12.0 
-0.5105577499868429 0.11015273029487971 0.07748531804995012 8.768773159517629E-4 3:4818.0 4:572.0 12:27544.0 14:1584.0 
-0.6742122067146112 0.06445907354342295 0.015078874189064118 0.0 8:4.0 12:7.0 14:6.0 
-0.5105723483607578 0.11015268460709426 0.07747675767767803 8.768773159517629E-4 1:44.0 12:572.0 14:44.0 
-0.5092906039093051 0.11028312268180407 0.07749834431782908 5.377646884867477E-4 3:9.0 12:246.0 14:39.0 16:18.0 
-0.5105834702332565 0.11013970505618687 0.07750053283908659 8.798420944379215E-4 4:52.0 7:276.0 8:116.0 12:1472.0 14:244.0 16:4.0 
-0.5105644138088773 0.1100786931514997 0.07751196087248258 8.798420944379215E-4 1:30.0 4:3.0 7:13.0 12:1149.0 14:5.0 18:2.0 
-0.5101473842574324 0.11108477194332522 0.07746700730421696 8.798420944379215E-4 12:300.0 
-0.5105644138088773 0.11007684940609408 0.07718507343522929 8.857698100506184E-4 1:2.0 7:86.0 12:93.0 14:75.0 
-0.510564413809943 0.11007684350685232 0.077467008825777 8.857698100506184E-4 12:3014.0 14:198.0 
-0.5104624196322902 0.11007684350685232 0.07759958036049974 8.857698100506184E-4 7:168.0 12:1792.0 14:490.0 
-0.5104697867500636 0.11005781728133646 0.0771302842660812 8.857698100506184E-4 7:2500.0 8:175.0 12:2975.0 14:350.0 
-0.5106783848696852 0.11004495217323396 0.07760274496229058 8.857698100506184E-4 3:18.0 12:2127.0 
-0.5104613272060141 0.10995796027610677 0.07760210003171775 8.857698100506184E-4 3:69.0 12:249.0 
-0.5103947711610078 0.10994840010950979 0.07721966273770003 8.887641351655873E-4 1:7.0 12:875.0 14:175.0 16:56.0 
-0.510232563824625 0.10980964538135835 0.07810438218312865 8.887641351655873E-4 3:13.0 8:5.0 12:321.0 
-0.5103735874600135 0.10994316675396065 0.07735184115862564 8.887641351655873E-4 8:13.0 12:1927.0 14:47.0 
-0.4567271124454053 0.09954707987785949 0.07002314488400846 5.102718987297639E-4 4:2.0 12:230.0 14:33.0 
-0.5103517451731653 0.1099279422883952 0.07735078656728078 8.887641351655873E-4 4:9.0 7:1323.0 12:1737.0 14:81.0 
-1.0 0.06076245471161643 0.03917743290705161 0.0 12:56.0 
-0.5113162268923439 0.11025631438985695 0.0776019779265625 5.377634491667838E-4 12:528.0 
-0.5102877716231331 0.1099279422883952 0.07752141269010299 8.887641351655873E-4 4:70.0 12:194.0 14:44.0 
-0.510296345574841 0.1098890727356529 0.0775628314509419 8.887641351655873E-4 8:6.0 12:1527.0 13:6.0 14:273.0 
-0.5103033772806749 0.10983895814834121 0.07756301907554247 8.887641351655873E-4 5:2.0 12:920.0 13:74.0 14:74.0 
-0.510306276898123 0.10983895814834121 0.07713480736541323 8.887641351655873E-4 4:2222.0 12:12738.0 14:1100.0 16:704.0 
-0.5171966907511507 0.11024548117449834 0.07777726260371787 5.374963951816913E-4 1:3.0 5:9.0 12:85.0 14:14.0 
-0.5103682034156989 0.109831096221856 0.07713419832211749 8.887944994871999E-4 4:1.0 5:35.0 8:45.0 12:1647.0 14:152.0 
-0.5103591272305402 0.109831096221856 0.07731151847300205 8.887944994871999E-4 4:286.0 5:462.0 9:22.0 12:6798.0 14:264.0 16:330.0 
-0.5103573499248761 0.10980462260617924 0.07735515434337253 8.887944994871999E-4 1:24.0 12:249.0 14:39.0 20:3.0 
-0.5102633856611954 0.1103447396931228 0.07748531797951835 5.377646884880596E-4 5:4.0 12:81.0 14:55.0 
-0.5103260759290538 0.10979974147394839 0.07735073637972861 8.887944994871999E-4 4:84.0 12:11512.0 14:684.0 
-0.5102187700205906 0.10979974147394839 0.07734050364055317 8.947829451239064E-4 7:1380.0 8:36.0 12:339.0 13:27.0 14:51.0 
-0.5105363248864854 0.11039956337442236 0.07739118564908776 8.947829451239064E-4 1:2.0 3:14.0 8:24.0 12:8.0 16:8.0 
-0.5102177069693739 0.10978096549911065 0.0773392271373316 8.947829451239064E-4 1:8.0 8:8.0 9:12.0 12:1664.0 13:440.0 14:68.0 
-0.510563984725296 0.11020761468569769 0.07756474358142201 5.377646884863752E-4 12:64.0 14:20.0 16:16.0 
-0.5102453470466857 0.10978096549911065 0.07740787478241651 8.947829451239064E-4 7:30.0 12:316.0 13:2.0 14:6.0 
-0.4920882550381246 0.10613436240810803 0.07467034550032448 5.290706414205482E-4 12:72.0 14:19.0 
-0.5102081658189598 0.10975254982633625 0.07740784390882793 8.947829451239064E-4 12:3297.0 13:21.0 14:910.0 
-0.22023670250910102 0.04505011084589111 0.03315327964226363 0.0 8:2.0 12:68.0 14:10.0 
-0.5069885566159813 0.1095671162933336 0.07699429863217494 5.377619646843579E-4 3:9.0 12:232.0 14:38.0 
-0.5101920442179706 0.10975114678838876 0.07745809376454432 8.947829451239064E-4 5:75.0 12:13650.0 14:9750.0 18:875.0 
-0.5160480467823636 0.11013025174173613 0.07755728134181233 8.947829451239064E-4 12:367.0 14:44.0 
-1.0 0.06720638289978315 0.09241569328728559 0.0 12:6.0 
-0.5101920442179706 0.10972738479581484 0.07744078515024089 8.947829451239064E-4 5:66.0 8:7.0 12:56.0 14:26.0 
-0.5101495948796949 0.10968851364063759 0.07747476228644468 8.947829451239064E-4 12:1760.0 14:154.0 
-0.5101496437944877 0.10967591186297365 0.07756237879049449 8.947829451239064E-4 4:1125.0 12:7100.0 14:350.0 
-0.5101473577945472 0.10964722459902987 0.077590681027227 8.947829451239064E-4 12:975.0 14:243.0 
-0.5101720461883144 0.10964568343718267 0.07785340505239652 8.947829451239064E-4 12:17250.0 14:525.0 
-0.510181036685817 0.10963440295900972 0.07785200433942369 8.947829451239064E-4 12:48200.0 
-0.5102785299468646 0.10965396925886234 0.07745224243465126 5.377646491246391E-4 12:196.0 14:32.0 
-0.5105673052674311 0.11035045606568927 0.07744726216556536 8.947829451239064E-4 5:11.0 7:1.0 8:6.0 12:169.0 14:47.0 18:18.0 
-0.5104828514233923 0.11034209805186451 0.077190089272547 8.947829451239064E-4 3:1.0 8:2.0 12:276.0 13:1.0 14:31.0 18:3.0 
-0.3245587054096084 0.0665964436475497 0.047265077454969495 0.0 4:6.0 12:150.0 14:11.0 
-0.5101810610099582 0.10963440295900972 0.07790835862407647 8.947829451239064E-4 12:280.0 13:7.0 14:91.0 
-0.31526435633551275 0.04977994163883026 0.026667947709888132 0.0 4:4.0 12:9.0 14:5.0 
-0.5103711097638262 0.11033526049984549 0.07790138034758565 5.377558197042775E-4 1:12.0 8:3.0 12:218.0 14:25.0 
-0.5101563592434386 0.10963401450272192 0.07790502614597145 8.947829451239064E-4 1:63.0 3:114.0 8:24.0 12:1098.0 13:60.0 14:561.0 
-0.510186553208131 0.1096294609314597 0.07790385723566162 8.947829451239064E-4 3:217.0 8:42.0 12:567.0 14:112.0 
-0.510171034393836 0.11200835795749037 0.07790377249671254 8.947829451239064E-4 12:1883.0 
-0.510704966175509 0.11034372754769106 0.07759798114842054 5.377482104391151E-4 12:784.0 14:24.0 16:8.0 
-0.29972938824882733 0.07185369491040705 0.03521628377402897 0.0 1:2.0 4:6.0 12:1.0 14:3.0 
-0.979974842199322 0.11036998357203309 0.07760192637846669 5.377645920458529E-4 8:63.0 
-0.5101804854499082 0.10961319069297815 0.07792646721866825 8.947829451239064E-4 5:61.0 8:27.0 12:49.0 14:2.0 
-0.5101809466644209 0.10960837091857129 0.07810941955672263 8.947829451239064E-4 12:375.0 14:275.0 
-0.510151000579246 0.10976990853835727 0.07789209510952838 5.377646884880814E-4 1:6.0 12:594.0 14:21.0 
-0.4848262259692232 1.0 0.07526423517793329 5.373839810659531E-4 12:154.0 
-0.5101809466801852 0.10958752426608909 0.07754099738617665 8.947829451239064E-4 1:816.0 12:4038.0 14:1743.0 
-0.5101824690132182 0.10958752426608909 0.07739118566425868 8.947829451239064E-4 1:70.0 5:245.0 8:42.0 9:35.0 12:4620.0 14:378.0 
-0.5094652182428548 0.10956711470859926 0.07784014827443914 5.377646385998358E-4 7:15.0 8:4.0 12:2.0 
-0.5110855153954396 0.11011633566302657 0.46412927447703206 8.947829451239064E-4 8:46.0 12:3.0 14:3.0 
-0.4587232106424119 0.09776044540499568 0.06975660484672411 5.36613029810673E-4 12:28.0 14:17.0 
-0.5107260607730738 0.11037860785922304 0.07713028426608587 8.978076352544884E-4 12:1043.0 
-0.510182469013257 0.10958654082398389 0.0773911856651015 8.978076352544884E-4 7:660.0 12:5390.0 14:330.0 18:682.0 
-0.9598998957211861 0.1100765186408666 0.07760188805891004 8.978076352544884E-4 12:544.0 
-0.5102356741149279 0.10957482176699612 0.07739118566539105 8.978076352544884E-4 16:616.0 
-0.5174427584326187 0.1102235169268598 0.07554050557356246 5.377646884880933E-4 12:477.0 
-0.47165226608256733 0.10187178802430165 0.07141472956973849 5.377642562204854E-4 3:2.0 4:4.0 12:255.0 14:78.0 
-0.5105919343360162 0.11034409679145285 0.07721361197552107 8.978076352544884E-4 7:30.0 12:18.0 14:9.0 
-0.510238330593247 0.10957407371612149 0.07739118566583492 8.978076352544884E-4 8:14.0 12:6699.0 
-1.0 0.10888557406080465 0.0769650728110256 5.358599678305098E-4 12:133.0 
-0.5282328485689504 0.11037547684897309 0.07748531795223623 5.377646881683235E-4 4:4.0 12:141.0 14:53.0 
-0.5102443224021092 0.10957324720066147 0.07751053526147494 8.978076352544884E-4 12:50.0 14:225.0 
-0.5102469034606466 0.10957144374066813 0.07722780646661054 8.978076352544884E-4 12:984.0 14:158.0 
-0.5102523698279902 0.10957096666170768 0.07744620784522355 8.978076352544884E-4 12:1012.0 14:110.0 
-0.18695168695466874 0.06929213252973086 0.4102846520377202 0.0 12:176.0 
-0.5104197948824758 0.11037879648769372 0.07792543062048135 8.978076352544884E-4 4:8.0 5:10.0 9:3.0 12:148.0 14:27.0 
-0.5108253148423118 0.11037916984429247 0.07745120511717912 5.377646884881195E-4 12:66.0 16:110.0 
-0.5105401466893946 0.1100939488414806 0.07789484795197721 8.978076352544884E-4 12:1738.0 14:22.0 
-0.4609073065715369 0.09573956137975237 0.07087799218767066 5.34720031712399E-4 4:8.0 12:22.0 
-0.5102646041495635 0.11008787048768776 0.07712777482112126 8.978076352544884E-4 12:35.0 14:21.0 16:56.0 
-0.4670725425572311 0.08486750170024714 0.05993667029076977 0.0 12:130.0 14:28.0 
-0.510313755198524 0.11011551200690506 0.07743657745242788 8.978076352544884E-4 8:220.0 12:550.0 
-0.5100330587363457 0.1104007350802152 0.07751083223587646 5.377646884881303E-4 12:1176.0 14:315.0 
-1.0 0.0 0.044442307642647644 5.084754329742203E-4 8:2.0 12:20.0 
-0.5103008646186233 0.11012997956788917 0.0775495555011399 8.978076352544884E-4 12:1414.0 13:182.0 14:21.0 
-0.5102999536425332 0.11013186338657482 0.07759447001832392 8.978076352544884E-4 3:3157.0 4:112.0 12:574.0 14:168.0 16:28.0 
-0.5102887704406911 0.1101304359439591 0.07720367228854264 8.978076352544884E-4 8:19.0 9:2.0 12:31.0 14:111.0 
-0.5101833799015235 0.11016956890814267 0.07751050582145402 5.377645871140202E-4 12:704.0 14:22.0 
-0.5103203300929086 0.11014683285678672 0.07769680321352851 0.001075529376976192 3:7.0 4:1029.0 5:343.0 8:91.0 12:22309.0 13:7105.0 14:553.0 
-0.5103478770672363 0.11015412144207937 0.08466233862025474 0.001075529376976192 12:572.0 
-0.5103199440682948 0.11016794575543787 0.0775995497220679 0.001075529376976192 4:105.0 12:1089.0 14:108.0 16:42.0 
-1.0 0.0785899821233208 0.08039926035650845 5.368316240227933E-4 7:2.0 8:4.0 14:6.0 
-0.510561908650831 0.1103557650372965 0.07719894781440773 0.001075529376976192 3:2.0 5:1.0 12:1020.0 14:12.0 
-0.5098921545582721 0.11016794575543787 0.0773507730534222 0.001075529376976192 5:225.0 12:507.0 14:15.0 
-0.5099005658758925 0.11016567054641918 0.07751051334596931 0.001075529376976192 7:36.0 12:48.0 14:18.0 
-0.5099079828993376 0.1101836884065176 0.07755967559083865 0.001075529376976192 5:4.0 12:1584.0 
-0.5099079828993376 0.11019059189146801 0.07713479250000665 0.001075529376976192 5:374.0 12:2838.0 14:154.0 
-0.5103249574872959 0.11038076479554343 0.07730866281539495 5.377646888078685E-4 12:128.0 14:72.0 
-0.51018094350534 0.11034809863094047 0.07751051286628996 5.377646884880687E-4 8:110.0 12:110.0 
-0.6762523661922408 0.7477371616983692 0.042411029906959115 0.0 12:273.0 
-0.5106336474507636 0.11036076933872657 0.07754894692107761 5.377646879607956E-4 12:105.0 16:14.0 
-0.9116073426154626 0.05832334151731183 0.04492276499099085 0.0 12:55.0 14:7.0 18:1.0 
-0.5101765366851689 0.11033634398167788 0.07791117376588119 5.377646882968046E-4 1:12.0 12:40.0 13:4.0 14:8.0 16:8.0 
-0.5101736282303313 0.10980440561423693 0.0775119489622883 5.377646882272491E-4 12:93.0 14:39.0 
-0.4673652063346311 0.0724654502745633 0.049569648277064504 5.351186495413107E-4 8:4.0 12:67.0 14:6.0 
-0.5099089839802342 0.11018869100182105 0.07729219586549163 0.001075529376976192 5:4725.0 12:6775.0 14:500.0 
-0.5116035306502502 0.16865540170619975 0.0774129250611938 5.370406276219986E-4 12:258.0 14:4.0 16:2.0 
-0.5099089839802342 0.11018071193456574 0.07729144289441392 0.001075529376976192 5:66.0 12:1122.0 
-0.501646553742064 0.7461760567871554 0.07627895185665845 5.377639619911778E-4 12:333.0 
-0.5099991171752045 0.11018200687083252 0.07740643174065548 0.001075529376976192 8:168.0 12:651.0 
-0.5106178219902098 0.11018493494647907 0.07754513837135069 5.377646884881155E-4 12:264.0 14:126.0 
-0.5100113499050963 0.11020290687321138 0.07743283771300358 0.001075529376976192 1:7.0 3:559.0 8:23.0 9:26.0 12:1353.0 14:119.0 
-1.0 0.0536960183258937 0.03462495794647382 5.354942698276299E-4 8:2.0 12:44.0 
-0.5100218119237949 0.11020770597724411 0.07754142891050714 0.001075529376976192 4:20.0 8:8.0 12:1704.0 14:824.0 
-0.5100292073209 0.11020768930066721 0.0775894134544104 0.001075529376976192 1:22.0 3:308.0 12:3344.0 14:968.0 16:44.0 
-0.5100332364402418 0.11020769501213346 0.07785157657337788 0.001075529376976192 9:25.0 12:500.0 14:75.0 
-0.5100332364402418 0.1102460650866029 0.07789825381454935 0.001075529376976192 1:22.0 9:22.0 12:21868.0 14:44.0 
-0.5101474366596682 0.11025805722616233 0.07789645070441137 0.001075529376976192 8:792.0 12:3718.0 14:594.0 
-0.3571595786224384 0.07701354094340107 0.05412566391864487 0.0 12:1252.0 
-0.46203406138856873 0.10430741587537706 0.055824398995750854 0.0 12:93.0 14:9.0 
-0.5102155568635893 0.11015232945460685 0.07791675518845037 5.377646788188861E-4 8:18.0 12:33.0 14:30.0 
-0.5101828320794362 0.11028084453700249 0.07792404479057541 0.001075529376976192 4:220.0 12:632.0 14:180.0 
-0.5101834415625941 0.11031383949651591 0.07792273850163989 0.001075529376976192 8:196.0 12:1561.0 13:4039.0 14:742.0 
-0.5101835684115898 0.11035318067872946 0.07792262357873558 0.001075529376976192 1:264.0 3:12.0 4:4.0 5:4.0 7:8.0 12:926.0 14:184.0 
-0.5100395877302794 0.11009726009883031 0.0780510643840116 5.377646884881106E-4 12:604.0 14:16.0 
-0.5100774694639102 0.11027848973269622 0.07735146275621935 5.377646884884858E-4 9:2.0 12:329.0 14:65.0 
-0.5101835684115898 0.11036969898124571 0.07810978320971995 0.001075529376976192 2:91.0 9:399.0 12:1862.0 14:203.0 16:126.0 
-0.5101835684115912 0.11039895167863584 0.0781097803516117 0.001075529376976192 7:1523.0 12:262.0 14:2211.0 
-0.4978724558051912 0.10750949424720158 0.07554036933952613 5.377646884018872E-4 3:2.0 5:8.0 12:74.0 14:16.0 
-0.510812176188885 0.11012377764416714 0.07759952206327164 5.377646884819898E-4 12:700.0 13:7.0 14:28.0 16:14.0 
-0.5101835684688141 0.11039349174983654 0.07754399536025308 0.001075529376976192 8:50.0 12:11875.0 
-0.5106321031308692 0.11040976955506493 0.07759957123084471 5.377646884880725E-4 12:66.0 16:132.0 
-0.5101840110106096 0.11040203241466057 0.07760109720895542 0.001075529376976192 1:30.0 4:9.0 12:3159.0 13:501.0 14:249.0 
-0.4715503348413317 0.10196391764022199 0.07129918528276341 5.15615149150328E-4 3:5.0 12:251.0 14:81.0 
-0.4874589041474794 0.10538476873569565 0.07407366409022541 5.377646883922838E-4 3:18.0 12:17.0 
-0.5101840110106097 0.11039956339696583 0.0776010897984944 0.001075529376976192 8:44.0 12:1914.0 14:22.0 
-0.510239625555379 0.1103953063105444 0.07755967559083865 0.001075529376976192 12:6754.0 
-0.6158366093721828 0.1101187005127024 0.07810151757528083 5.377413050226543E-4 12:159.0 14:91.0 
-0.5103831835356485 0.11039529435146173 0.07756283145094195 0.001075529376976192 12:725.0 14:140.0 
-0.5104056770020794 0.11041110293766154 0.07756301907554253 0.001075529376976192 5:91.0 8:28.0 12:56.0 14:28.0 
-0.5104143695545822 0.1104032314396563 0.07756440476744664 0.001075529376976192 3:3.0 5:92.0 12:1836.0 14:62.0 18:15.0 
-0.5104414004053814 0.11032421045073793 0.07754096610143435 0.001075529376976192 5:56.0 12:553.0 13:133.0 14:42.0 16:28.0 
-0.5104658107035464 0.11034788107266574 0.07747717065902249 0.001075529376976192 12:1462.0 14:334.0 
-0.5104777340999651 0.11035880982157986 0.0775214126901031 0.001075529376976192 12:2970.0 16:176.0 
-0.5602698189593354 0.09483571596175855 0.06657614324797345 5.145566492705256E-4 8:5.0 12:106.0 14:4.0 
-0.5104835898498744 0.11034209805188033 0.07745877843425397 0.001075529376976192 12:550.0 14:462.0 
-0.5104835898498744 0.11036163497006224 0.07747675767767798 0.001075529376976192 8:10.0 12:578.0 13:83.0 14:14.0 
-0.510507661890204 0.11037000950715992 0.07747675770451323 0.001075529376976192 1:63.0 7:3969.0 8:14.0 12:10668.0 14:798.0 16:140.0 
-0.5105117360699053 0.11038037646193727 0.07748233458950354 0.001075529376976192 4:12.0 5:90.0 8:54.0 12:1116.0 14:438.0 
-0.5105379733940221 0.11038248968592129 0.07736910019525639 0.001075529376976192 8:6.0 12:192.0 13:78.0 14:12.0 
-0.5105451859262982 0.11036841232652478 0.07739118567046605 0.001075529376976192 12:1197.0 14:294.0 
-0.5102192143744015 0.11038071438316638 0.07740755476097061 0.001075529376976192 8:16.0 12:742.0 
-0.5105496131530604 0.11012381702793317 0.07741366650675408 0.001075529376976192 1:22.0 8:44.0 9:66.0 12:4488.0 13:748.0 14:286.0 
-0.5105496657755008 0.11011557483422996 0.07715401248061698 0.001075529376976192 12:539.0 14:28.0 
-0.5105806124911743 0.11012412399273425 0.07722914303750184 0.001075529376976192 3:225.0 7:2600.0 12:22700.0 14:4500.0 
-0.5105806124911743 0.11012384098376948 0.0771915138710611 0.001075529376976192 8:98.0 12:1127.0 14:21.0 
-0.5105806124913526 0.11012769807758921 0.07719315419286421 0.001075529376976192 7:264.0 9:44.0 12:308.0 13:1914.0 14:594.0 
-0.510580625422463 0.11035774165467693 0.07711137301700505 0.001075529376976192 5:9.0 7:19.0 8:4.0 12:92.0 13:37.0 14:61.0 
-0.5102383321971854 0.10965398033158391 0.07759958036048586 5.377648241022219E-4 4:10.0 12:169.0 14:73.0 16:8.0 
-0.5105892558759741 0.10980442223315912 0.07756480270732408 0.001075529376976192 5:161.0 8:14.0 12:490.0 14:14.0 
-0.5105892558759741 0.10981020636231081 0.0775616233947638 0.001075529376976192 1:508.0 4:4.0 8:8.0 12:1448.0 13:92.0 14:204.0 16:16.0 
-0.5105892558759741 0.10981241431741667 0.07748531805189113 0.001075529376976192 3:36.0 12:244.0 14:156.0 
-0.5105892558759741 0.10981334813695326 0.07748233458904369 0.001075529376976192 1:14.0 3:413.0 5:1827.0 8:14.0 12:33033.0 13:4354.0 14:1169.0 18:77.0 
-0.5102321413254112 0.11037749346263642 0.07760144910938183 5.377569048083397E-4 5:8.0 12:376.0 14:11.0 
-0.5105904553708651 0.10981353861066412 0.07747915990960325 0.001075529376976192 1:42.0 8:14.0 12:616.0 14:161.0 
-0.5105906259318684 0.10981854232448857 0.07801793556783776 0.001075529376976192 4:42.0 5:115.0 12:1156.0 14:80.0 
-0.5105907031957875 0.1098383084574131 0.07730610400830057 0.001075529376976192 8:19.0 12:632.0 14:79.0 
-0.5105907031957875 0.10978681737773671 0.07759513953196473 0.001075529376976192 4:2.0 12:432.0 14:272.0 
-1.0 0.08145343823966572 0.0573537246414987 0.0 12:115.0 14:2.0 
-0.5111631348464668 0.10973865755400852 0.07719008927255738 0.001075529376976192 12:1323.0 14:12.0 
-0.43092268234437126 0.09390760142246116 0.06580470920538989 5.377599623248575E-4 5:6.0 12:132.0 14:32.0 
-1.0 0.0757636586223075 0.09524726155981172 5.033789489398144E-4 8:2.0 12:51.0 
-0.27673433597816943 0.05086414926119373 0.22481744820719474 5.377646884883713E-4 12:349.0 14:1.0 
-0.5106830298602698 0.1096829153629133 0.07752350564607013 0.001075529376976192 1:77.0 4:140.0 8:42.0 12:3143.0 13:35.0 14:175.0 
-0.510588283134215 0.11012390964246777 0.07755725507262945 5.377638180953936E-4 1:9.0 4:3.0 12:630.0 13:6.0 14:48.0 
-0.5107946141602333 0.10965398033160195 0.07748662454389721 0.001075529376976192 8:280.0 12:175.0 14:35.0 
-0.5108372021298702 0.11010404730031115 0.0776010897984944 0.001075529376976192 7:88.0 8:176.0 14:330.0 
-0.4873267203418633 0.07963758157087641 0.055591339485995525 5.377450818236373E-4 12:17.0 14:9.0 
-1.0 0.2590256067523949 0.007333863822959466 0.0 12:14.0 
-0.5108377694004839 0.1101833820562767 0.0774522502415595 0.001075529376976192 1:3.0 12:624.0 14:483.0 
-0.5108677164926001 0.11018474150353041 0.07723954721978016 0.001075529376976192 3:79.0 8:140.0 12:292.0 
-0.5103599676125059 0.11040077448515928 0.07747179312106733 0.001075529376976192 12:234.0 14:206.0 20:10.0 
-1.0 0.04276191879977274 0.02370182774376224 5.274081790282437E-4 12:6.0 14:10.0 
-0.5103582369058093 0.11041193873662847 0.07742167404825712 0.001075529376976192 8:242.0 12:176.0 14:242.0 16:132.0 
-0.5103625367114105 0.11040514849163491 0.07722914303750189 0.001075529376976192 12:8052.0 16:792.0 
-0.5103587693657652 0.11040174896909882 0.077172711381575 0.001075529376976192 1:105.0 7:700.0 9:7.0 12:1785.0 13:434.0 14:364.0 
-0.510358770754103 0.11037480438681402 0.07755740706076175 0.001075529376976192 4:154.0 12:2310.0 14:572.0 16:264.0 
-0.5103249574880186 0.11037547698633748 0.07792573824380616 0.001075529376976192 5:63.0 12:371.0 14:56.0 
-0.5093799945010844 0.11000472894110497 0.07728507406495416 5.371298130398827E-4 9:4.0 12:372.0 14:29.0 
-0.5103322244689336 0.11032950539932213 0.07712777482112121 0.001075529376976192 8:59.0 12:94.0 14:10.0 
-0.5102835470648358 0.11033006952721147 0.07756424257174238 0.001075529376976192 8:132.0 12:3454.0 13:22.0 14:440.0 
-0.5102474958188994 0.11033779731743265 0.07736910019387294 0.001075529376976192 12:1100.0 
-0.2749907925401053 0.06395226086359684 0.04165731155779927 0.0 4:9.0 12:6.0 14:2.0 
-0.5102887704404113 0.110359512726864 0.07760108979849445 0.001075529376976192 5:63.0 12:2520.0 14:175.0 16:161.0 
-0.5102842341516038 0.11038270813754752 0.07750868864631949 0.001075529376976192 8:126.0 14:343.0 
-0.5101499100750047 0.11035723677147297 0.07753525912431097 0.001075529376976192 8:26.0 12:854.0 14:45.0 
-0.5101563592434386 0.1099279422883952 0.0775972844398598 0.001075529376976192 1:14.0 3:42.0 8:168.0 12:322.0 13:3549.0 14:42.0 17:182.0 
-0.5101441078144023 0.11020769943709124 0.07720737864919736 0.001075529376976192 4:103.0 8:5.0 12:1152.0 14:4.0 
-0.5108238145714636 0.11055795639856475 0.07739410918102038 5.37764688488098E-4 5:5.0 12:833.0 14:10.0 
-0.5101920442179706 0.11031553286222356 0.0772278064666106 0.001075529376976192 8:44.0 12:2200.0 14:1826.0 
-0.5101920442179706 0.11039535798533656 0.07749981555560354 0.001075529376976192 5:245.0 12:1725.0 14:104.0 
-0.5103173004084016 0.11004969649651813 0.07755009047611872 5.37764688488082E-4 1:9.0 12:245.0 14:15.0 
-0.5313831259551265 0.10815710350266805 0.07604529987819836 5.299437181356392E-4 9:3.0 12:429.0 14:30.0 
-0.768212912742726 0.10759858411089498 0.07583593794221338 5.377646533323843E-4 12:191.0 14:11.0 
-0.5102453470466857 0.11040174896909871 0.07748233458950349 0.001075529376976192 12:6275.0 14:3350.0 18:400.0 
-0.05419507804615331 0.020609499099201734 0.014133138587397818 0.0 12:66.0 14:12.0 
-0.5102177068642637 0.11038071438316632 0.07752628868143124 0.001075529376976192 5:324.0 8:8.0 12:1148.0 14:196.0 
-0.5102633861346724 0.11034809932521539 0.0775235056460703 0.001075529376976192 1:22.0 12:7876.0 13:198.0 14:176.0 16:44.0 
-0.5103037404882649 0.10981241431741662 0.07759957123324901 0.001075529376976192 7:2450.0 12:2175.0 14:1750.0 
-0.515029276980789 0.1085040375148037 0.0765785390718206 5.36110920330124E-4 3:7.0 12:77.0 14:14.0 
-0.5195296766561702 0.10852912617167564 0.07605407242974804 5.377390004292493E-4 1:8.0 4:5.0 12:41.0 
-1.0 0.12076436018741016 0.0778052201999555 5.37360429627709E-4 3:1.0 9:1.0 12:283.0 14:8.0 
-0.5103260759290538 0.10981353861066423 0.07711137301700505 0.001075529376976192 8:809.0 9:1.0 12:102.0 14:12.0 
-0.5103573499248761 0.11011557483422996 0.07759954972294636 0.001075529376976192 1:22.0 12:4906.0 14:132.0 16:88.0 
-0.5103682034156989 0.11012381702797985 0.07715401248061698 0.001075529376976192 5:858.0 12:13376.0 14:1870.0 16:308.0 18:66.0 
-0.510315925879907 0.11040479895931393 0.07721966273770026 0.001075529376976192 7:658.0 8:1.0 12:9.0 18:2.0 
-0.49953263141412396 0.10781107583118613 0.07561304236554578 5.377646884880987E-4 4:2.0 12:474.0 14:8.0 
-0.5103033772806749 0.1103736712011143 0.07735077305342364 0.001075529376976192 12:371.0 13:14.0 16:70.0 
-1.0 0.0 0.042579569333342636 5.377673664344608E-4 12:275.0 
-0.510295673678166 0.11018617006488318 0.0773060253233438 0.001075529376976192 12:330.0 14:198.0 
-0.5102877716231331 0.11018620099727161 0.07734465924545936 0.001075529376976192 4:8.0 8:16.0 12:440.0 14:92.0 
-0.5103452390759402 0.1100496321827572 0.07742995371637568 0.001075529376976192 3:58.0 12:358.0 14:32.0 
-1.0 0.0 0.6992746164926003 0.0 12:2.0 14:1.0 
-0.5103735874600135 0.11015268477389062 0.07756283145094195 0.001075529376976192 3:50.0 8:625.0 12:2900.0 14:400.0 16:50.0 
-0.4322713247441733 0.0972584482326124 0.06787940505630469 5.377646884699439E-4 12:6.0 14:20.0 
-0.5107026627070353 0.11038248968592129 0.07713480736541328 0.001075529376976192 12:736.0 14:88.0 
-0.5567289069806994 0.07193320047561563 0.047447460629654215 0.0 12:34.0 14:10.0 
-0.5105892558759741 0.11036841232652472 0.07713419832246227 0.001075529376976192 12:92.0 14:268.0 
-0.5103770893688757 0.11038071438316643 0.0773086628155038 0.001075529376976192 3:24.0 12:17184.0 13:24.0 14:1338.0 16:18.0 
-0.5103770942824546 0.11034796919192447 0.07735515434337253 0.001075529376976192 4:1.0 5:603.0 8:244.0 12:878.0 
-0.5102707025024127 0.1103377973172785 0.07716176334024272 5.377646884874299E-4 5:4.0 12:364.0 14:124.0 
-0.9354201524604666 0.07609740282905703 0.05317581289775384 0.0 12:16.0 14:16.0 
-0.5104363147336781 0.1098133481369532 0.07735073637972861 0.001075529376976192 3:44.0 7:66.0 12:3344.0 14:616.0 
-0.5105921733711415 0.10981032062594576 0.07729144289441386 0.001075529376976192 1:44.0 7:132.0 8:968.0 12:7238.0 14:418.0 16:132.0 
-0.5106200840863269 0.11040174896909882 0.07727924253689766 0.001075529376976192 8:792.0 12:4972.0 14:858.0 20:22.0 
-0.5101367192067608 0.11035705461723244 0.07740784390882793 0.001075529376976192 12:1431.0 14:1.0 18:1.0 
-0.6235037206398621 0.11848590502010219 0.07302095987815205 5.345364477246095E-4 9:1.0 12:147.0 14:9.0 
-0.5104389807912304 0.1104051484916348 0.07740243927462337 0.001075529376976192 1:925.0 5:625.0 9:50.0 12:5550.0 14:2175.0 
-0.5103714812330061 0.11037096788081496 0.07734465924545916 5.377646884880947E-4 1:14.0 5:21.0 8:21.0 12:560.0 14:84.0 
-0.510238330592067 0.11038064947334708 0.07744078515024094 0.001075529376976192 3:266.0 5:539.0 8:126.0 9:84.0 12:19936.0 14:1365.0 
-0.5104389807912304 0.11032950921053936 0.07743283771300358 0.001075529376976192 12:1518.0 14:396.0 
-0.5101496437944877 0.10981241431741673 0.07756237879049444 0.001075529376976192 5:225.0 12:1550.0 14:125.0 
-0.5106998923253208 0.11034933988256102 0.07754365781526662 5.377646884880765E-4 4:1.0 8:2.0 12:279.0 14:126.0 
-0.5101835652011215 0.1103827074542667 0.07746700834456455 5.377646884881233E-4 8:111.0 12:91.0 14:4.0 
-0.5140986760619342 0.10889972539005136 0.07702795702178628 0.16314385681155139 12:990.0 
-0.5105892558759741 0.11038482286426726 0.07754142891050714 0.001075529376976192 9:352.0 12:4158.0 14:1958.0 16:44.0 
-0.5096743845351538 0.11027325871821242 0.07777839659968118 5.377646884894443E-4 12:252.0 14:42.0 16:21.0 
-0.5105312779727327 0.11035234297481011 0.07773356236013662 0.001075529376976192 3:360.0 12:2604.0 14:186.0 
-0.5105806124911743 0.11035463751507352 0.07785340505239652 0.001075529376976192 8:36.0 12:2197.0 14:444.0 
-0.5106380335103933 0.11033006951533081 0.07739118565667334 5.377646884591192E-4 8:9.0 12:318.0 14:27.0 
-0.5101748415010612 0.11033172433100824 0.07785200433942369 0.001075529376976192 5:795.0 12:1185.0 
-0.5105637074000583 0.1103502456824621 0.07790385723566162 0.001075529376976192 8:147.0 12:308.0 14:14.0 
-0.932039386449251 0.21762175981835807 0.0552609914854601 0.0 12:162.0 14:1.0 
-0.8882852344745433 0.11002371121977435 0.07781959004238692 5.377646884880435E-4 12:112.0 14:22.0 
-0.51018375883236 0.11011551844100836 0.07753521972202415 5.377645528739701E-4 12:180.0 14:54.0 
-0.38477524651068473 0.09067543745423179 0.04343671913819405 0.0 7:6.0 9:2.0 12:3.0 14:4.0 
-0.5103947711610078 0.11037547698633737 0.0779037724967126 0.001075529376976192 3:354.0 12:509.0 14:1018.0 
-0.5103089128494303 0.11040174896909888 0.07789825381454935 0.001075529376976192 4:29.0 12:851.0 14:146.0 
-0.5105744339967768 0.11040323143965636 0.07789645070441137 0.001075529376976192 7:210.0 12:560.0 14:154.0 16:49.0 18:42.0 
-0.510165298664595 0.1103464300415003 0.07711606978687402 5.377646884878207E-4 12:354.0 14:24.0 
-0.5106830298602718 0.11039529435146173 0.07789444593838152 0.001075529376976192 5:60.0 12:315.0 14:24.0 
-0.510754533298277 0.11040077448515939 0.07792439162192677 0.001075529376976192 3:35.0 4:98.0 5:98.0 12:2968.0 13:4326.0 14:679.0 18:70.0 
-0.5104624196322902 0.11031553286222356 0.07791954073371216 5.726805676470326E-4 1:75.0 9:5.0 12:412.0 14:100.0 
-1.0 0.044393659394187435 0.035933910836846494 0.0 12:6.0 14:13.0 
-1.0 0.08716591490495842 0.056319593110493504 5.049829573036679E-4 12:36.0 
-0.8203060695783688 0.0 0.050348491973724936 0.0 12:70.0 
-0.5051245591450777 0.10859679137321887 0.07641478910128102 5.347776752896438E-4 12:420.0 
-0.5108013715264524 0.11026360712921568 0.07792260678266727 5.723912656992458E-4 3:1.0 4:2.0 12:969.0 14:40.0 
-0.5106396018806884 0.11020491128306059 0.07791980288858474 5.721504280363776E-4 12:602.0 14:294.0 
-0.5105644138088773 0.11018200687083246 0.07801793556783782 5.705464196725241E-4 4:2.0 12:1714.0 14:110.0 
-0.5104876458420996 0.11016794575543798 0.07807100190324823 5.670539440019717E-4 5:322.0 8:14.0 12:2996.0 
-0.5104835898498744 0.11016794575543798 0.0780881295034414 8.768773159517629E-4 9:91.0 12:1218.0 14:161.0 
-0.5099089839802342 0.11057057852012092 0.07808774355981407 8.798420944379215E-4 5:81.0 9:4.0 12:485.0 14:40.0 
-1.0 0.0 0.09309322149669855 0.0 8:2.0 12:5.0 14:3.0 
-0.5106383882710528 0.11056194232163996 0.07755991706108462 8.798420944379215E-4 1:24.0 12:2600.0 14:28.0 
-0.9480667662385105 0.5429312697671156 0.07223951361892106 5.031381112769462E-4 12:88.0 14:1.0 
-0.629984490899468 0.09244996544081174 0.05535111174860824 0.0 4:5.0 12:16.0 14:3.0 
-0.5099120468731344 0.10963725746251662 0.07762005586811532 5.377597825548253E-4 12:342.0 14:15.0 
-0.5102525143260215 0.11034626239730533 0.07810978035161165 8.857698100505629E-4 4:74.0 12:84.0 
-0.5101999861082286 0.11031351249958227 0.07810948350591745 8.857698100505629E-4 12:11308.0 14:242.0 16:418.0 
-0.510591772180517 0.11035024568246199 0.07754275645121922 8.857698100505629E-4 1:1.0 3:523.0 9:2.0 12:427.0 14:69.0 
-0.5105362419652015 0.11037860785922304 0.07759958036049974 8.887641351655873E-4 3:150.0 12:425.0 14:125.0 
-0.3802129615251779 0.10225703099118211 0.0 0.0 12:345.0 
-0.5106088901366876 0.11009965209124795 0.07759957123324907 8.887641351655873E-4 3:528.0 12:15136.0 16:44.0 
-0.5109231564534256 0.10973860772961602 0.07757687983811096 5.377646849190065E-4 12:220.0 14:56.0 
-0.5119600084026709 0.10978828647016503 0.0779071712275427 5.377620105417314E-4 12:252.0 14:10.0 16:6.0 18:9.0 
-0.5105644138088773 0.1102566182860858 0.07760107811021155 8.887641351655873E-4 5:4.0 12:607.0 13:50.0 14:22.0 
-0.510306276898123 0.11006595301405359 0.07760108979849434 8.887641351655873E-4 1:7.0 5:56.0 12:1757.0 14:154.0 
-0.5102181204593352 0.10983893224107705 0.07760163768207945 8.887944994871444E-4 12:500.0 14:850.0 
-0.5104697867500636 0.11038248968592135 0.07756283145094184 8.887944994871444E-4 5:27.0 12:346.0 14:40.0 
-0.5104876458420996 0.11011557483423007 0.07757518397728819 8.94782945123962E-4 1:14.0 12:868.0 13:14.0 14:119.0 
-0.5104817264914834 0.11012381702797985 0.07756424257174238 8.94782945123962E-4 7:413.0 12:273.0 14:168.0 
-0.5105916918064655 0.10980442192582252 0.07759513953189573 8.94782945123962E-4 7:23.0 12:337.0 14:51.0 
-0.5104769789687302 0.1101318633888706 0.07759755284169528 8.94782945123962E-4 3:27.0 4:3.0 12:270.0 14:11.0 
-0.5102310682450613 0.1105461709645641 0.07790916133824417 8.94782945123962E-4 3:2.0 8:2.0 12:239.0 14:77.0 
-0.5105644138088773 0.110312810799016 0.07753962115382862 8.94782945123962E-4 4:66.0 12:30184.0 
-0.5101898680830157 0.1098064060074867 0.07806373553030233 5.377346635233038E-4 8:2.0 12:115.0 14:48.0 
-0.36374721845217656 0.07101168653999232 0.05066068778284187 5.130420115722623E-4 12:21.0 14:18.0 
-0.510564413809943 0.11003212148751468 0.07754104211132018 8.94782945123962E-4 1:97.0 5:10.0 7:37.0 12:801.0 14:237.0 18:8.0 20:265.0 
-0.5105834702332565 0.1096829153629133 0.07751839487307582 8.94782945123962E-4 4:44.0 5:220.0 12:58630.0 14:550.0 
-0.5105744339967768 0.11041215277039917 0.07752350564607025 8.94782945123962E-4 8:117.0 9:12.0 12:600.0 14:18.0 
-0.5105577499868429 0.10978681737773666 0.07746370435130684 8.94782945123962E-4 3:14.0 5:245.0 12:14847.0 14:1771.0 
-0.3964200302499086 0.08726481006688112 0.061785071866996166 5.028488093291594E-4 12:134.0 14:33.0 
-0.5102071724778704 0.1101784026558354 0.07760219893786496 8.94782945123962E-4 5:6.0 8:2.0 12:634.0 14:57.0 
-0.5105574617059887 0.10981353861066412 0.07753155393802852 8.94782945123962E-4 3:21.0 4:47.0 5:51.0 9:4.0 12:5407.0 14:16.0 18:17.0 
-0.5101930103165531 0.11038229128123456 0.07753237145710784 8.978076352544329E-4 12:14.0 14:152.0 
-0.5014334648137312 0.1081605986287063 0.07627746014310971 8.978076352544329E-4 4:3.0 9:9.0 12:423.0 14:30.0 
-0.4475657609505516 0.07255304573411642 0.050477933427210464 0.0 8:3.0 12:9.0 14:15.0 
-0.5105623216431515 0.11040514849163485 0.07747675767767809 8.978076352544329E-4 1:24.0 3:520.0 5:76.0 8:20.0 12:4504.0 13:120.0 14:236.0 
-0.44004332696062254 0.07239041601471535 0.04927222232769734 0.0 8:4.0 12:56.0 14:7.0 
-0.5105907332798114 0.1101055427553066 0.07747179312106739 8.978076352544329E-4 5:3570.0 12:11095.0 14:1526.0 
-0.5105641628968058 0.11037916984774182 0.0774897792658136 8.978076352544329E-4 4:10.0 12:377.0 14:84.0 
-0.5106062662190727 0.1103317243310083 0.07810941955672268 8.978076352544329E-4 5:575.0 9:75.0 12:3125.0 14:500.0 
-0.4571231863261412 0.09927586475816738 0.06677642826924712 0.0 12:350.0 14:7.0 
-0.5106052690317618 0.11032950921067985 0.07744620784522355 8.978076352544329E-4 12:1855.0 14:329.0 
-0.5106109895135729 0.10981241431741673 0.07739118566719949 8.978076352544329E-4 1:20.0 9:4.0 12:1880.0 13:8.0 14:908.0 
-0.5106088901366876 0.10981020636231076 0.07739118566908004 5.663403596499195E-4 1:9.0 5:44.0 8:2.0 12:493.0 14:5.0 
-0.29116274227923533 0.06782469435807992 0.051916125074315825 0.0 1:3.0 12:11.0 14:7.0 
-0.5106230093283903 0.11012656443917712 0.07720367228854264 5.658055811639806E-4 3:216.0 5:112.0 8:104.0 9:8.0 12:5168.0 14:624.0 
-0.5105995224897679 0.11037096788081541 0.07809426228187044 5.652574782464281E-4 12:6168.0 14:60.0 
-0.5105362450679545 0.11038037646193732 0.07755657219838558 5.624873654039297E-4 1:6.0 9:3.0 12:454.0 14:328.0 
-0.5105896716438318 0.11037000950715992 0.07736910019525645 5.609727277056664E-4 8:413.0 12:1869.0 14:483.0 
-0.5105361184302352 0.11038229128123467 0.07793675692088109 5.59914227825864E-4 3:2178.0 12:15290.0 14:4796.0 18:154.0 
-0.5105411767633783 0.11038064947334703 0.07791591101516093 5.535734053582209E-4 3:1550.0 4:50.0 9:1550.0 12:31575.0 14:2175.0 18:375.0 
-0.38906746715386337 0.04785135761351145 0.03345958770602886 5.37762173303924E-4 8:2.0 12:112.0 14:2.0 
-0.5105434509820418 0.11035371458798443 0.07734465924545936 5.509728815231707E-4 5:2112.0 12:8052.0 14:242.0 16:88.0 
-0.5102443223795755 0.11040076820278599 0.0771341983190148 5.377646884881324E-4 8:18.0 12:96.0 14:51.0 
-0.5105906259318687 0.11033742552112019 0.0772866651906558 5.481211979479483E-4 3:3.0 4:3.0 8:54.0 12:474.0 14:18.0 
-0.36455056998182617 0.08010720906012875 0.05666202218907784 5.377646537941816E-4 4:8.0 12:152.0 14:8.0 
-0.5105722969073143 0.11035774165467704 0.07740243927462331 5.464587355556438E-4 3:55.0 8:2.0 12:1636.0 14:25.0 
-0.5042911091691833 0.10901709348019728 0.07651382046576544 5.343574686748065E-4 1:2.0 9:2.0 12:212.0 14:22.0 
-0.5105661278507196 0.11036737849037881 0.0778486465231728 5.455856588405528E-4 1:41.0 12:1251.0 13:158.0 14:63.0 
-1.0 0.0 0.0 0.0 12:44.0 
-0.5105638832257571 0.11034083705150072 0.07789444593838141 5.444127762660456E-4 4:98.0 5:203.0 12:1869.0 14:679.0 16:70.0 
-0.5093327132558025 0.10994783846963158 0.07732771397500621 5.371307009693904E-4 1:3.0 12:388.0 14:26.0 
-0.5105916732435153 0.11032421045073787 0.07792260678266727 5.434865508776587E-4 1:440.0 3:3564.0 12:42900.0 14:1738.0 
-0.5105917721805223 0.11032950539932201 0.07792151638409262 5.432723707389786E-4 12:3278.0 14:814.0 
-0.5105921733711415 0.1103754769863367 0.07808812950344146 5.42640344981915E-4 8:199.0 12:143.0 14:23.0 
-0.5105637074000583 0.11037509420329322 0.07792139584922031 5.424666157256564E-4 12:805.0 14:49.0 
-0.4714537068512075 0.10275575879956333 0.0722395461982328 5.372119616855464E-4 12:123.0 14:29.0 
-0.5105919343361578 0.11037480438681396 0.0781097803516117 5.411719083013855E-4 1:150.0 12:17500.0 14:350.0 
-0.5105789370049202 0.11040174896909877 0.07755657219838547 5.410654254633385E-4 12:271.0 14:493.0 
-0.5105916918069164 0.1104051484916348 0.07760108846608704 5.409929292515825E-4 4:1.0 5:30272.0 9:5.0 12:1193.0 14:73.0 
-0.5106321031466577 0.11040782785301506 0.07757098795336342 5.40809345263793E-4 5:40.0 12:1520.0 14:80.0 
-0.5106383882710527 0.11041193873662841 0.07759063134457284 5.407517016865482E-4 2:176.0 3:44.0 4:242.0 12:52668.0 14:1760.0 
-0.5106968888588875 0.11038747903034624 0.0775409658955466 5.404107274348813E-4 3:145.0 12:433.0 
-0.5107026624280885 0.11039530631054434 0.0775235056460703 5.402102478104798E-4 3:10900.0 5:900.0 12:51675.0 14:3050.0 
-0.5107037155930692 0.11040203241466051 0.07747915990960325 5.400939028298857E-4 4:66.0 5:27.0 8:4.0 12:1818.0 14:192.0 
-0.3075587627734976 0.07463225569618953 0.052091087864564324 0.0 12:208.0 
-0.584928524949621 0.11041215277032307 0.07750782858633753 5.400351071485621E-4 8:26.0 12:96.0 
-0.5106830116866532 0.11039349174983654 0.07739118566719955 5.398965335604577E-4 4:1.0 5:477.0 9:7.0 12:1664.0 14:97.0 
-0.5106816652768952 0.11038887527970087 0.07742995371644901 5.396694091456822E-4 7:305.0 12:147.0 14:30.0 
-1.0 0.0 0.806385008101269 0.0 12:10.0 
-0.5107303514938868 0.11026198812083848 0.07722052448368755 5.394949023331819E-4 12:1364.0 14:44.0 
-0.34326514074297776 0.0727014605559298 0.05079132696290395 0.0 12:66.0 13:4.0 14:8.0 
-0.5107243300162703 0.1102460650866029 0.07719895047310732 5.39418456646068E-4 12:1173.0 14:139.0 18:1.0 
-0.7049788729447611 0.10750295901117438 0.07519751717219791 5.322570062372134E-4 3:9.0 12:31.0 
-0.5017230068968112 0.0980001935205187 0.07591016473711237 5.330627612505356E-4 12:324.0 
-0.5107651770091277 0.11020768930066721 0.0776023503753322 5.38916347165519E-4 3:16.0 4:68.0 12:1468.0 14:72.0 20:30.0 
-0.5108171967228119 0.11020290687321138 0.07755741075517963 5.386977529533987E-4 1:57.0 4:9.0 5:111.0 8:3.0 9:3.0 12:2127.0 14:159.0 18:6.0 20:306.0 
-0.5108158145972395 0.11018474150353047 0.07773356236013657 5.38589748853735E-4 5:268.0 12:3392.0 14:108.0 
-0.5108013774083617 0.11018338205627676 0.0774299537164489 5.384887493541934E-4 1:7.0 5:21.0 8:112.0 12:658.0 13:7.0 14:56.0 
-0.5108104748708865 0.1101886910018211 0.07745877839223586 5.383995639363093E-4 12:1386.0 14:264.0 18:132.0 
-0.5102702556242663 0.11018368840651771 0.07754156112968646 5.383986760068016E-4 3:38.0 12:299.0 14:128.0 
-0.5102572737467932 0.11016567054641924 0.07750868866316546 5.383174152906456E-4 1:22.0 4:1.0 5:6.0 8:34.0 9:5.0 12:418.0 14:99.0 
-0.5102282898703379 0.11016794575543798 0.07745877843425408 5.382151148494163E-4 5:3.0 8:47.0 12:17799.0 
-0.5101824690132178 0.1104051484916348 0.07791980288858469 5.38168947348483E-4 12:12.0 14:3.0 18:27.0 
-0.5468765755389267 0.11031426847438305 0.07789541234639963 5.375877078778735E-4 8:4.0 12:40.0 14:28.0 
-1.0 0.04370630522756725 0.031241161877286372 0.0 12:36.0 14:5.0 
-0.5101767518256712 0.11013228788905188 0.0775061322529979 5.381453959102389E-4 4:6.0 5:171.0 12:8406.0 14:7137.0 
-0.5102000971129188 0.11011551200690511 0.0775086886631654 5.381082518041147E-4 1:8.0 3:30.0 8:516.0 9:6.0 12:1814.0 
-0.5101725644222596 0.11008787048768787 0.07735335705814222 5.380329817945007E-4 8:117.0 12:60.0 13:9.0 14:12.0 
-0.5102443224021092 0.11057057852012092 0.07736910019387294 5.379416690983185E-4 1:38.0 12:406.0 14:24.0 
-0.34413062717086507 0.48297974043381997 0.058516946247364254 5.37764651523831E-4 3:2.0 12:74.0 
-0.5101807653946977 0.11019055265418654 0.0775995220658735 5.377646884880617E-4 4:8.0 8:8.0 9:4.0 12:1164.0 14:312.0 
-0.5101824690132182 0.1105594926028362 0.07742167404825712 5.378497334850296E-4 3:258.0 4:6.0 5:318.0 8:45.0 12:2142.0 14:252.0 
-0.510347229472434 0.11054606634382974 0.07743134711778421 5.377987546796303E-4 4:21.0 12:2106.0 
-0.5101809466644209 0.110419981633391 0.07744620784522349 5.377947134528882E-4 1:1.0 4:39.0 5:251.0 12:4792.0 14:82.0 18:2.0 
-0.510256705339894 0.11032149498528143 0.07721966273769698 5.377646884880405E-4 1:16.0 9:10.0 12:410.0 14:80.0 
-0.5101720382796586 0.10983109622185594 0.07713819120681442 5.377903765469427E-4 1:3.0 3:120.0 12:1077.0 14:159.0 18:24.0 
-0.5101808534024169 0.11038782817584508 0.07721966273769998 5.377880719535377E-4 1:31.0 3:2.0 4:10.0 8:4.0 12:100.0 14:6.0 
-0.5101496437944877 0.11040514849163474 0.07735077305342358 5.377842951525547E-4 3:80.0 5:36.0 8:12.0 12:1238.0 14:224.0 
-0.5101484647422312 0.11038550991619317 0.07735078656728084 5.377819994304978E-4 4:1.0 12:1243.0 14:133.0 
-0.079689316359426 0.0 0.02567838132888539 0.0 12:26.0 
-0.5105798660016567 0.11019455300194309 0.07760705593055045 5.377646893372128E-4 7:24.0 12:138.0 14:16.0 
-0.5102999536425332 0.1098389322410771 0.07723029620652055 5.377811665370769E-4 3:38.0 4:1.0 5:1.0 8:44.0 12:390.0 
-0.510737832372806 0.11018599774735521 0.07730602532334407 5.3777976199465E-4 1:594.0 3:3.0 4:78.0 5:273.0 8:42.0 12:5565.0 14:87.0 
-1.0 1.0 0.07655808167152481 5.377646884881098E-4 12:248.0 
-0.510687009405913 0.1102355319068214 0.07791971697436045 5.377735572719144E-4 5:1000.0 8:775.0 12:21675.0 14:175.0 
-0.5103089128494303 0.11055949260314696 0.07791954073371216 5.377724721678523E-4 12:417.0 14:135.0 
-0.5101429120806096 0.11012384098376954 0.07791783522185258 5.377695944213667E-4 3:12452.0 12:3674.0 14:308.0 
-0.5057624779822035 0.10873742720173274 0.07671854220600297 5.353191291657122E-4 5:91.0 12:147.0 
-0.5101808527951054 0.11035463738265916 0.0773518410657209 5.377646881682963E-4 4:46.0 12:192.0 14:12.0 
-0.5103587693657652 0.11029143630964267 0.07791723921541815 5.377694146513345E-4 8:7650.0 12:21525.0 14:200.0 
-1.0 0.0 0.16594804433852958 5.360344746430101E-4 12:11.0 
-0.5103770942824546 0.11018474150353041 0.07791689400067409 5.377674122918341E-4 5:107.0 12:1167.0 14:29.0 
-0.5105574617059887 0.11038076479569564 0.0780707146736086 5.37767203672268E-4 12:154.0 14:462.0 
-0.5107187001735568 0.11037121394287536 0.07808774355981402 5.377659278094082E-4 8:528.0 9:242.0 12:147488.0 14:2640.0 16:44.0 
-0.5318201752234164 0.10281650297955491 0.07201927483021314 5.091890173262725E-4 12:202.0 14:6.0 
-0.5105896468747503 0.10981863948335907 0.07810680597536851 5.377657404871394E-4 7:600.0 12:6150.0 14:200.0 
-0.5096885085486154 0.10890025392491123 0.07683722326351838 0.44910071302969606 12:980.0 
-0.43902497128728113 0.0970203974965821 0.06584008329991012 5.377473775456942E-4 3:12.0 12:4.0 
-0.5105361184302352 0.11038064906198808 0.07810972531610466 5.377655588807984E-4 1:1050.0 4:2075.0 8:225.0 9:350.0 12:2825.0 14:575.0 
-1.0 0.09336409124359196 0.049987648078334064 8.79842094437866E-4 12:28.0 
-0.5105711852374355 0.11035705461723233 0.07810948350591757 8.857698100505629E-4 3:72.0 12:4016.0 14:248.0 
-0.5107026624280885 0.1103471089976768 0.07810941955672268 8.857698100505629E-4 8:66.0 12:2156.0 
-0.5107243300162703 0.11036919594629985 0.07810941955672268 8.887641351655318E-4 5:66.0 7:7238.0 8:2244.0 12:11682.0 14:418.0 
-0.5108171967228119 0.11040514849163491 0.07754507126694804 8.887641351655318E-4 1:72.0 4:10.0 12:164.0 14:76.0 
-0.5102356741149279 0.11040077448354868 0.07756162334408573 8.887944994871444E-4 5:204.0 8:6.0 12:846.0 14:48.0 
-0.5108013715264524 0.11024635841418073 0.07759958036049974 8.94782945123962E-4 5:220.0 8:66.0 12:5632.0 14:572.0 
-0.5108009251404386 0.11018474150353041 0.07760210075180163 8.94782945123962E-4 3:24.0 12:1836.0 14:288.0 
-0.5105736173588875 0.11035568302807808 0.07712355616903938 5.37764688487874E-4 8:20.0 12:156.0 14:4.0 
-0.5102646041495633 0.11007277555909228 0.07760235037533217 8.94782945123962E-4 1:24.0 12:381.0 14:90.0 
-0.5105789370042108 0.11013239457278923 0.07717490723751624 8.94782945123962E-4 1:10.0 8:14.0 12:361.0 14:139.0 
-0.5730574632303557 0.10763471754006795 0.07561641323330359 5.311166007101464E-4 1:7.0 12:191.0 14:6.0 
-0.5091045915562615 0.1100459824081772 0.07725930934395198 8.94782945123962E-4 12:28.0 14:28.0 
-0.510181036685817 0.1105460663438298 0.07760249436932876 8.94782945123962E-4 12:1144.0 14:198.0 
-0.5042762628704337 0.10905786051750804 0.07625899570500055 5.377645459105351E-4 1:2.0 3:8.0 12:214.0 14:18.0 
-0.5108157657588055 0.11018580867300504 0.0775262812714888 8.978076352544329E-4 12:202.0 14:49.0 
-1.0 0.11037135645853058 0.07790981278415676 5.377496149815419E-4 12:98.0 14:22.0 
-0.510186553208131 0.11041174274962884 0.07760274496229058 8.978076352544329E-4 12:15290.0 14:374.0 
-0.5101809466801852 0.1101947301537789 0.07756162339476386 8.978076352544329E-4 4:16.0 5:44.0 8:160.0 12:4076.0 14:164.0 
-0.5108091835169808 0.11017997025829723 0.07756480258660675 8.978076352544329E-4 4:10.0 5:188.0 12:5787.0 14:100.0 
-0.510704785975167 0.11017864178572956 0.07759447001832398 5.377654149850142E-4 4:66.0 12:1012.0 14:264.0 
-0.5105919343361578 0.11015268460709426 0.0775951395319579 5.377651207557066E-4 4:66.0 12:66286.0 14:8778.0 16:946.0 
-0.510591772180517 0.1100786931514997 0.0775972844398598 5.377650767139364E-4 8:44.0 12:572.0 13:1870.0 14:132.0 
-0.5105638832257571 0.11007684940609413 0.07759952986228469 5.377648310656569E-4 4:38.0 12:2559.0 14:100.0 
-0.6349919006323768 0.06178418941824759 0.04320652943096823 0.0 12:61.0 14:7.0 
-0.5106066106088767 0.11007684350685237 0.0775995497229463 5.377647898621718E-4 1:14.0 3:35.0 8:28.0 12:1645.0 13:28.0 14:203.0 
-1.0 0.0 0.0 0.0 12:7.0 
-0.4805108217364708 0.0880295265911527 0.07856532767629856 0.0 3:7.0 4:3.0 8:2.0 12:4.0 
-0.5106088901366876 0.11005781728133651 0.07754099738617654 5.377647849303391E-4 1:2134.0 4:44.0 7:2530.0 8:352.0 12:6842.0 14:1298.0 16:44.0 
-0.5106109895134512 0.10994840010950974 0.07739118567046605 5.377647528993501E-4 12:4718.0 14:322.0 
-0.5044350987312898 0.10858361394965366 0.07652907473464633 5.374211251720773E-4 3:9.0 12:14.0 14:16.0 
-0.5105862001658625 0.1099279422883952 0.07799633198467931 5.377647383763562E-4 4:448.0 12:42.0 
-0.504638021354801 0.10859822124756247 0.07711484057305656 5.377647278515529E-4 8:3.0 12:411.0 
-0.06650456675964092 0.011468283320116124 0.0 0.0 12:53.0 
-0.5105623216431515 0.1098890727356529 0.07800793468521161 5.37764725452361E-4 1:44.0 12:2090.0 14:88.0 
-0.3926631960974114 0.09374102862652862 0.06367844232036093 5.377636364890526E-4 8:13.0 
-0.5105567317471214 0.10968851364063759 0.07727924253689777 5.377647236438077E-4 12:4730.0 16:44.0 
-0.5105619086496336 0.10983895814834121 0.07743226170319117 5.377647231820104E-4 8:28.0 12:1848.0 14:427.0 
-0.5105644138088773 0.11036737849037881 0.07789319554487728 5.377646981573059E-4 4:22.0 5:1606.0 8:1826.0 12:7590.0 14:3432.0 
-0.5104761818391115 0.109831096221856 0.07791714470310751 5.377646920571855E-4 12:944.0 13:132.0 14:116.0 
-0.5104589691703296 0.10979974147394839 0.0776027414912322 5.377646890153964E-4 3:21.0 4:348.0 5:1677.0 7:3.0 12:11532.0 14:825.0 
-0.5103682652451269 0.11038248968592135 0.07759954972206784 5.377646888078957E-4 4:3.0 5:111.0 12:2568.0 14:612.0 
-0.6681513572072963 0.11032407952255868 0.07783903639581685 5.377646240768419E-4 12:52.0 14:23.0 
-0.5103452390759402 0.10978096549911065 0.0775235056460703 5.377646887489429E-4 8:15.0 12:810.0 14:408.0 
-0.5102877716231331 0.10975254982633625 0.07742995371637562 5.377646886793874E-4 5:594.0 12:3542.0 14:88.0 
-0.5103573484607702 0.1096759118629736 0.0772294687463615 5.377646885839082E-4 5:21.0 12:490.0 14:28.0 
-0.5103037404882649 0.10964722459902987 0.07755023378466497 5.377646885743048E-4 5:66.0 12:2332.0 14:110.0 
-0.5102177068642637 0.10963440295900978 0.07730602532334407 5.377646885637577E-4 3:140.0 5:385.0 12:259.0 14:287.0 
-0.5057634723979836 0.10873838780712514 0.07642695469599944 5.377646885170728E-4 5:94.0 12:149.0 14:9.0 
-1.0 0.055624862744323114 0.20429727384134355 0.0 12:44.0 
-0.5101920442179706 0.1096294609314597 0.07799621284890446 5.377646885062481E-4 4:7.0 8:56.0 12:588.0 13:238.0 
-1.0 0.10664831777457387 0.07472437102732188 5.36939628122457E-4 12:226.0 14:40.0 
-0.5082184136749863 0.10964571709688453 0.07703961503995005 5.377646885018073E-4 1:4.0 4:2.0 12:378.0 14:22.0 
-0.5113469280464905 0.10979332957678978 0.07791210739530713 5.377646884942022E-4 9:3.0 12:795.0 14:24.0 
-0.5101770831702241 0.10958752426608909 0.07754156112968646 5.377646884906495E-4 1:132.0 12:6402.0 13:836.0 14:198.0 
-0.5108090684488804 0.1101276732013316 0.07753630735059854 5.377646884898168E-4 8:12.0 12:333.0 13:9.0 14:15.0 
-0.25105904672431056 0.0 0.0343639540477478 5.377646884881485E-4 12:92.0 14:6.0 
-0.5101367192067608 0.10958654082398395 0.07752350525411722 5.377646884887621E-4 1:11.0 4:1.0 8:53.0 12:198.0 14:23.0 15:16.0 
-0.5101496437944877 0.10957407371612155 0.07752628864873173 5.37764688488318E-4 5:51.0 8:12.0 12:1377.0 14:1728.0 
-0.5101441078144023 0.10957144374066813 0.07752722854169047 5.377646884881515E-4 4:110.0 5:506.0 8:3872.0 12:48972.0 14:2882.0 16:44.0 18:1408.0 
-0.9385217448256951 0.08967481580823532 0.08439882940148483 0.0 8:10.0 12:5.0 
-0.5107668186497216 0.11009417720220283 0.07753155398347711 5.37764688488096E-4 12:1289.0 14:2.0 
-0.7299707140453796 0.1090121273186121 0.07688428784812512 5.377646876389792E-4 12:133.0 14:17.0 16:2.0 
-0.5105638829539583 0.11011551200690511 0.07745877839223597 8.857698100506184E-4 12:590.0 14:47.0 
-0.5101720382796586 0.11013239457294288 0.07750868864631932 8.887641351655318E-4 5:28.0 8:426.0 9:10.0 12:906.0 14:110.0 
-0.5107071011544941 0.11032950920810192 0.07741977508314718 8.887944994871444E-4 9:4.0 12:271.0 14:64.0 
-0.3576455304992982 0.07750527206865004 0.05405095691006229 8.94782945123962E-4 4:1.0 12:1248.0 
-0.5101810366857132 0.1101833820562767 0.07750987531205955 8.94782945123962E-4 1:26.0 5:22.0 12:108.0 13:8.0 14:12.0 
-0.5102230370631018 0.11013198829391502 0.07748662454389732 8.94782945123962E-4 12:1605.0 14:117.0 
-0.5101499100750047 0.11016589565252316 0.0774998155556037 8.978076352543773E-4 3:77.0 8:490.0 12:749.0 14:42.0 15:469.0 
-0.8018142994078771 0.10703113199343019 0.10645811977560937 5.32889031994277E-4 12:48.0 14:11.0 
-0.6220667048669938 0.07225332456159812 0.058081548435076846 5.320428260985333E-4 8:2.0 12:176.0 14:3.0 
-0.5101733654750386 0.11016794575543787 0.0775005328390867 8.978076352543773E-4 12:308.0 14:308.0 
-0.5107664516987159 0.10955390255261976 0.07790736192851189 5.37764688488096E-4 8:7.0 12:126.0 14:42.0 
-0.32390694574253587 0.07928979940123398 0.05616899284273512 0.0 8:2.0 12:22.0 14:12.0 
-0.5101748415010612 0.1101836884065176 0.077507829063103 5.37764688488096E-4 7:1122.0 8:22.0 12:1210.0 14:264.0 
-0.0 0.023982895707689578 0.0 0.0 14:4.0 
-0.5102356714365507 0.11018869100182105 0.0773518411493353 5.37764688488096E-4 12:308.0 14:392.0 
-0.5102443224020887 0.11018581915683096 0.077391185665391 5.37764688488096E-4 5:154.0 12:6182.0 14:1496.0 
-0.5106968882534053 0.1104081665219524 0.07748233449705838 5.37764688488096E-4 3:3.0 4:39.0 5:15.0 12:184.0 14:4.0 
-0.4574823539684586 0.06887517141941984 0.09051050823944695 5.097237958122114E-4 14:1.0 16:2.0 
-0.5102521921466957 0.11040900840243528 0.07739118566425868 5.37764688488096E-4 12:1812.0 14:15.0 
-0.5103135869838852 0.11018683262338952 0.07743200673424239 5.37764688488096E-4 3:25.0 12:1175.0 14:175.0 
-1.0 0.09154592660203861 0.06282874596470187 5.245564954530213E-4 12:62.0 
-0.19518033278407013 0.0 0.0 0.0 12:168.0 
-1.0 0.0 0.06081412646827988 0.0 8:2.0 12:10.0 
-0.4811467199995596 0.10357122218121703 0.07279362225601527 5.37764688488096E-4 12:225.0 14:28.0 
-0.510278581062648 0.11020417402474042 0.07743657745242782 5.37764688488096E-4 1:21.0 12:2097.0 13:444.0 14:69.0 
-1.0 0.051567603184013155 0.03657385160159695 5.37764688488096E-4 12:205.0 
-0.4790921890310982 0.10400376915353392 0.07320883217932417 5.219559716179711E-4 3:12.0 12:22.0 
-0.9417532999635259 0.07247602589942409 0.12536427348181722 5.37764688488096E-4 12:168.0 
-0.5102887704404113 0.11024593946722966 0.07744620784522355 5.37764688488096E-4 8:3454.0 12:13860.0 14:2904.0 
-0.5103179442495198 0.1102460650866029 0.07744795167130936 5.37764688488096E-4 1:88.0 3:8.0 8:16.0 12:1376.0 
-0.5105731811077615 0.11032298668026252 0.0781078097432154 5.377646884743847E-4 3:14.0 12:118.0 
-0.7117054589128277 0.0 0.0 5.37764688488096E-4 12:56.0 14:6.0 
-0.5099005658758925 0.11026360712921579 0.07717271138157494 5.37764688488096E-4 1:420.0 12:1904.0 14:721.0 16:14.0 
-0.5099079828993376 0.11033670776039978 0.07734604506943593 5.37764688488096E-4 3:94.0 12:492.0 
-0.5099089839802342 0.1103903490669878 0.0773507730534223 8.887641351655318E-4 1:440.0 3:88.0 9:242.0 12:2618.0 14:396.0 
-0.5100218119237949 0.1104007682076314 0.07727821647411137 8.94782945123962E-4 8:149.0 12:225.0 14:479.0 
-0.5100332364402418 0.1103953063105444 0.07726934384934148 8.94782945123962E-4 5:1568.0 12:532.0 14:22.0 
-0.5101474366596682 0.11039921504346278 0.07730610400830057 8.978076352543773E-4 9:19.0 12:2985.0 
-0.5101834415625941 0.11040323143966058 0.0773060253233438 5.37764688488096E-4 4:4.0 8:216.0 12:294.0 14:8.0 
-0.5105917721805008 0.11040174896909422 0.07719894781440456 5.37764688488096E-4 12:418.0 14:66.0 
-0.5101835684115898 0.11038071438316632 0.07712601982295364 5.37764688488096E-4 1:14.0 3:25.0 5:40.0 8:6.0 12:1413.0 14:142.0 
-0.5101835684688141 0.10968549474629957 0.07760838899876599 5.37764688488096E-4 3:13178.0 4:418.0 8:418.0 12:25894.0 14:3542.0 
-0.5101840110106097 0.10965398033160328 0.07760210075180157 5.37764688488096E-4 4:11.0 8:126.0 12:1148.0 14:84.0 
-0.5107260497351063 0.11035045366899543 0.07746403803434448 5.37764688488096E-4 4:14.0 12:693.0 14:28.0 
-0.5104414004053814 0.11040514849163491 0.07760109720895547 5.37764688488096E-4 1:66.0 3:66.0 4:11484.0 5:34078.0 12:94600.0 14:7348.0 18:462.0 
-0.5297019113177537 0.10904010230894043 0.0765891549208898 5.37764688488096E-4 3:7.0 4:5.0 12:138.0 
-0.5163232693835875 0.10920348437109112 0.07631462828992436 5.344639515128535E-4 3:4.0 8:9.0 12:27.0 
-0.5104835898498744 0.11040174896909877 0.07754275645121911 8.94782945123962E-4 4:28.0 12:1967.0 13:518.0 14:224.0 
-0.510507661890204 0.11034710899767708 0.0775409661014343 8.978076352543773E-4 12:1900.0 14:75.0 
-0.5105379733940221 0.11033742552112025 0.07753155393802841 5.37764688488096E-4 8:2838.0 12:1672.0 13:3234.0 14:154.0 
-0.5105451859262982 0.11035234297481006 0.07752722854169036 5.37764688488096E-4 4:32.0 8:342.0 12:510.0 14:158.0 18:84.0 
-0.5105496657755008 0.11040976955847642 0.07747675770451312 5.37764688488096E-4 5:1914.0 12:15092.0 14:176.0 
-0.5105711853566617 0.10996403712911379 0.0774670088283183 5.37764688488096E-4 12:129.0 14:126.0 
-0.2862241623051746 0.04518960345352601 0.039485923093373884 5.37764688488096E-4 4:8.0 12:4.0 20:1.0 
-0.5105806124911743 0.1100496321827571 0.07747675767767798 5.37764688488096E-4 1:616.0 4:88.0 7:25080.0 9:44.0 12:64702.0 13:176.0 14:2090.0 16:44.0 18:330.0 
-0.510580625422463 0.11018338205627665 0.07747148749676303 5.37764688488096E-4 1:14.0 3:980.0 12:23877.0 13:7.0 14:287.0 
-0.5105892558759741 0.10981342753569417 0.07760838899876604 5.37764688488096E-4 12:2051.0 14:3682.0 
-1.0 -1.0 0.6965835163709837 0.015625 8:740.0 14:5.0 
-1.0 -1.0 0.6962045021673567 0.015625 8:90.0 12:144.0 14:414.0 
-1.0 -1.0 0.6689569568809016 0.014103192317920399 12:244.0 
-1.0 -1.0 0.6965835219709828 0.015625 8:3420.0 14:54.0 
-1.0 -1.0 0.6964589681795108 0.015625 5:26.0 12:3172.0 14:2756.0 
-1.0 -1.0 0.6966800607869085 0.015625 3:654.0 5:8.0 8:12.0 12:1808.0 14:2.0 
-1.0 -1.0 0.6966563645231866 0.015625 12:1800.0 
-1.0 -1.0 0.6966304123115761 0.015625 12:25118.0 14:76.0 
-1.0 -1.0 0.6960988254346616 0.015625 4:114.0 12:3914.0 
-1.0 -1.0 0.6966550845982715 0.015625 12:91494.0 
-1.0 -1.0 0.6962946277216366 0.015625 8:126.0 12:924.0 14:294.0 
-1.0 -1.0 0.696294621883673 0.015625 8:72.0 12:972.0 
-1.0 -1.0 0.6965578342621646 0.015625 8:924.0 12:72.0 
-1.0 -1.0 0.6960118205735835 0.015625 3:36.0 12:1054.0 14:14.0 
-1.0 -1.0 0.6960118205735417 0.015625 8:216.0 12:3096.0 14:126.0 
-1.0 -1.0 0.6962946277216366 0.015625 8:10.0 12:1425.0 14:25.0 
-1.0 -1.0 0.6966563645227183 0.015625 12:616.0 14:112.0 
-1.0 -1.0 0.6960118205735835 0.015625 8:126.0 12:36.0 
-1.0 -1.0 0.7374238005570561 0.015625 12:18.0 
-1.0 -1.0 0.6966800607869085 0.015625 8:924.0 12:12.0 14:48.0 
-1.0 -1.0 0.6965835163709837 0.015625 8:72.0 12:576.0 
-1.0 -1.0 0.6965835219709828 0.015625 12:441.0 14:135.0 
-1.0 -1.0 0.6965835219709826 0.015625000000000007 1:6.0 3:23.0 4:3.0 12:292.0 14:11.0 
-1.0 -1.0 0.6965835163709837 0.015625 3:40.0 7:150.0 8:40.0 12:1380.0 14:110.0 
-1.0 -1.0 0.6960118205735835 0.015625 12:3420.0 14:306.0 
-1.0 -1.0 0.6966304123115761 0.015625 12:15048.0 
-1.0 -1.0 0.6966563645231866 0.015625 8:988.0 12:228.0 
-1.0 -1.0 0.6960118205638687 0.015624999999891531 8:270.0 
-1.0 -1.0 0.6687042521814076 0.0144466407795254 12:148.0 
-1.0 -1.0 0.6960613462443443 0.015625 12:483.0 14:8274.0 
-1.0 -1.0 0.6962946277216366 0.01496746856329606 8:3078.0 12:8766.0 14:378.0 
-1.0 -1.0 0.6692048174801738 0.014368066226389229 12:252.0 
-1.0 -1.0 0.6965578371407811 0.015041283569240338 4:8.0 5:16.0 9:2.0 12:708.0 18:64.0 
-1.0 -1.0 0.5973603502766367 0.013041641820398076 12:84.0 
-1.0 -1.0 0.6965578342621646 0.014967468563296116 8:78.0 
-1.0 -1.0 0.6965835219709828 0.015122484824550642 4:378.0 8:1026.0 12:11880.0 14:504.0 18:252.0 
-1.0 -1.0 0.6960613462443443 0.01562500000000161 8:140.0 12:700.0 14:40.0 
-1.0 -1.0 0.6960613462443443 0.015625 12:705.0 
-1.0 -1.0 0.6966563645227183 0.015625 12:3939.0 
-1.0 -1.0 0.6965835163709837 0.015625 8:2.0 12:634.0 14:16.0 
-1.0 -1.0 0.696659209184189 0.015035525390916404 12:270.0 
-1.0 -1.0 0.6966799970214624 0.015011742934783683 12:288.0 
-1.0 -1.0 0.6966563645227183 0.015625 8:1790.0 14:50.0 
-1.0 -1.0 0.6966304123115762 0.015625 8:42.0 12:856.0 14:116.0 
-1.0 -1.0 0.6965578342621646 0.015625 12:1872.0 
-1.0 -1.0 0.696294621883673 0.015625 12:10416.0 
-1.0 -1.0 0.6962045021673567 0.015625 12:2493.0 14:39.0 
-1.0 -1.0 0.5973329455843119 0.01258836616022213 12:78.0 
-1.0 -1.0 0.6965578342621646 0.015625 4:152.0 5:256.0 12:1240.0 
-1.0 -1.0 0.6967314517468831 0.015625 12:488.0 
-1.0 -1.0 0.6960613462443443 0.015625 5:160.0 8:92.0 9:4.0 12:272.0 14:22.0 
-1.0 -1.0 0.6962946277216366 0.015625 7:2856.0 12:40320.0 14:63.0 
-1.0 -1.0 0.6965578371407811 0.015625 12:1148.0 14:23.0 
-1.0 -1.0 0.668775827687373 0.014446895672045545 12:156.0 
-1.0 -1.0 0.6960118205735417 0.015625 12:441.0 
-1.0 -1.0 0.6960118205735417 0.015625 8:680.0 12:250.0 14:590.0 18:40.0 
-1.0 -1.0 0.6964589681795108 0.015625 5:132.0 8:328.0 12:136.0 14:40.0 
-1.0 -1.0 0.6966590852721763 0.014942939608499541 12:230.0 14:10.0 
-1.0 -1.0 0.6966563645227183 0.015625 8:8118.0 12:54.0 14:36.0 
-1.0 -1.0 0.6966800612088594 0.015625 12:21504.0 14:1260.0 
-1.0 -1.0 0.6960336603400014 0.015625 12:336.0 
-1.0 -1.0 0.6962354809144705 0.015625 8:130.0 14:30.0 
-1.0 -1.0 0.6960118205735835 0.015625 3:738.0 8:450.0 12:7884.0 14:1242.0 
-1.0 -1.0 0.6966593351556888 0.015625 12:840.0 
-1.0 -1.0 0.6965095032277647 0.01504128356902329 4:20.0 8:260.0 
-1.0 -1.0 -1.0 0.022493528584172973 3:4.0 12:46.0 14:4.0 
-1.0 -1.0 -1.0 0.022464493858378065 3:14.0 8:58.0 12:790.0 
-1.0 -1.0 -1.0 0.02246429611339512 8:144.0 14:837.0 
-1.0 -1.0 -1.0 0.02246393252112544 8:3897.0 12:495.0 14:3285.0 
-1.0 -1.0 -1.0 0.022463607000051233 8:45.0 
-1.0 -1.0 -1.0 0.022463607000051233 8:32.0 12:142.0 
-1.0 -1.0 -1.0 0.022463486692909762 1:54.0 12:150.0 14:2.0 
-1.0 -1.0 -1.0 0.022447454259845123 3:4.0 12:174.0 14:12.0 
-1.0 -1.0 -1.0 0.02246316275930632 3:2.0 12:2176.0 
-1.0 -1.0 -1.0 0.02246316275930632 12:23307.0 14:16728.0 
-1.0 -1.0 -1.0 0.022462840930330685 3:66.0 12:6.0 
-1.0 -1.0 -1.0 0.022463162759306377 8:2232.0 12:36.0 14:873.0 
-1.0 -1.0 -1.0 0.022462759841040403 1:8.0 3:18.0 4:4.0 12:12.0 14:10.0 
-1.0 -1.0 -1.0 0.021549557168355105 12:918.0 14:102.0 
-1.0 -1.0 -1.0 0.022463161745173266 4:123.0 12:30.0 14:3.0 
-1.0 -1.0 -1.0 0.022462840930330685 12:2295.0 
-1.0 -1.0 -1.0 0.022462840930330685 3:634.0 12:630.0 
-1.0 -1.0 -1.0 0.022462759841236912 3:8.0 12:566.0 
-1.0 -1.0 -1.0 0.022462759841228364 12:5904.0 
-1.0 -1.0 -1.0 0.022462759841219482 8:1413.0 12:13392.0 
-1.0 -1.0 -1.0 0.022462273264608257 4:9.0 5:6057.0 8:3177.0 9:72.0 12:27207.0 14:594.0 18:9.0 
-1.0 -1.0 -1.0 0.022462273264608257 12:2004.0 
-1.0 -1.0 -1.0 0.02167457208041368 8:567.0 12:13815.0 14:27.0 
-1.0 -1.0 -1.0 0.02164406740764646 4:118.0 8:4602.0 12:708.0 
-1.0 -1.0 -1.0 0.021609409878825148 4:16.0 12:86.0 14:14.0 
-1.0 -1.0 -1.0 0.02154955716835505 3:44.0 12:1496.0 14:94.0 
-1.0 -1.0 -1.0 0.021549557168345945 8:42.0 12:1608.0 14:492.0 
-1.0 -1.0 -1.0 0.021549557168345945 3:30.0 12:420.0 
-1.0 -1.0 -1.0 0.022447537161986608 3:4.0 12:174.0 
-1.0 -1.0 -1.0 0.022444027553887025 12:510.0 
-1.0 -1.0 -1.0 0.02096824711108125 12:10.0 
-1.0 -1.0 -1.0 0.02246393252112544 4:198.0 5:1278.0 8:153.0 12:5355.0 14:270.0 16:27.0 18:72.0 
-1.0 -1.0 -1.0 0.022463607000051178 8:2091.0 12:16218.0 
-1.0 -1.0 -1.0 0.021549557168346 3:2499.0 5:66402.0 8:21318.0 12:296055.0 
-1.0 -1.0 -1.0 0.022462273264608257 12:1130.0 
-1.0 -1.0 -1.0 0.022493528584173028 8:900.0 12:2673.0 14:3177.0 
-1.0 -1.0 -1.0 0.02246316275930632 3:18.0 5:180.0 12:276.0 14:9.0 
-1.0 -1.0 -1.0 0.022444027962692736 9:2.0 12:500.0 14:6.0 
-1.0 -1.0 -1.0 0.022463161745173266 12:24429.0 
-1.0 -1.0 -1.0 0.022462840930330685 7:594.0 12:1224.0 14:294.0 
-1.0 -1.0 -1.0 0.022462759841228308 5:765.0 12:11679.0 14:2346.0 
-1.0 -1.0 -1.0 0.020974793104293454 8:2.0 12:2.0 
-1.0 -1.0 -1.0 0.022462759841219482 5:8874.0 12:72216.0 14:6375.0 18:51.0 
-1.0 -1.0 -1.0 0.022462273264608257 12:355.0 
-1.0 -1.0 -1.0 0.021644067407646406 5:412.0 8:8.0 12:1120.0 14:28.0 
-1.0 -1.0 -1.0 -1.0 12:984.0 
