svm_type c_svc
kernel_type rbf
gamma 0.05
nr_class 5
total_sv 971
rho -0.529933357673334 -0.9828784686056515 -0.9797653484208384 -0.9968867038175346 -0.9635761589403974 -0.956953642384106 -0.9933774834437086 0.15384615384615385 -0.8181818181818182 -0.8461538461538461
label 1 5 2 3 4
nr_sv 643 302 11 13 2
SV
0.4697265625 0.0166015625 0.01953125 0.0029296875 12:120239.0 
0.4697265625 0.0166015625 0.01953125 0.0029296875 4:15.0 5:462.0 12:28137.0 14:570.0 18:15.0 
0.4697265625 0.0166015625 0.01953125 0.0029296875 3:915.0 5:27.0 9:15.0 12:29177.0 14:251.0 
0.4697265625 0.0166015625 0.01953125 0.0029296875 1:7.0 4:7.0 7:53571.0 12:10101.0 14:924.0 16:280.0 
0.4697265625 0.0166015625 0.01953125 0.0029296875 12:56294.0 14:441.0 16:175.0 
0.4697265625 0.0166015625 0.01953125 0.0029296875 4:1.0 5:27.0 12:9695.0 14:13.0 
0.4697265625 0.0166015625 0.01953125 0.0029296875 1:2226.0 4:140.0 5:105.0 12:92484.0 14:322.0 18:14.0 
0.4697265625 0.0166015625 0.01953125 0.0029296875 4:17.0 8:10.0 12:10796.0 13:3646.0 14:509.0 18:24.0 
0.4697265625 0.0166015625 0.01953125 0.0029296875 1:553.0 3:49.0 4:2877.0 6:77.0 8:105.0 9:77.0 11:84.0 12:36834.0 13:16219.0 14:854.0 16:14.0 
0.4697265625 0.0166015625 0.01953125 0.0029296875 3:399.0 5:490.0 12:62272.0 14:2443.0 16:245.0 18:322.0 
0.4697265625 0.0166015625 0.01953125 0.0029296875 3:6974.0 5:110.0 12:861234.0 14:61952.0 
0.4697265625 0.0166015625 0.01953125 0.0029296875 1:924.0 4:77.0 5:175.0 8:84.0 12:40712.0 14:29225.0 
0.4697265625 0.0166015625 0.01953125 0.0029296875 5:250.0 12:392900.0 
0.4697265625 0.0166015625 0.01953125 0.0029296875 3:20375.0 12:49725.0 14:176900.0 
0.4697265625 0.0166015625 0.01953125 0.0029296875 4:3.0 7:18786.0 12:18303.0 14:6510.0 20:96.0 
0.4697265625 0.0166015625 0.01953125 0.0029296875 1:24.0 3:8.0 7:14638.0 12:4480.0 14:778.0 
0.4697265625 0.0166015625 0.01953125 0.0029296875 8:8.0 12:44781.0 14:271.0 18:48.0 
0.4697265625 0.0166015625 0.01953125 0.0029296875 8:2.0 12:3367.0 14:6474.0 
0.4697265625 0.0166015625 0.01953125 0.0029296875 2:26.0 5:467.0 8:8.0 12:7704.0 14:293.0 16:1.0 18:7.0 
0.4697265625 0.0166015625 0.01953125 0.0029296875 12:84150.0 14:166716.0 
0.4697265625 0.0166015625 0.01953125 0.0029296875 5:1884.0 12:67896.0 14:420.0 18:282.0 
0.4697265625 0.0166015625 0.01953125 0.0029296875 5:79.0 12:8199.0 14:8.0 
0.4697265625 0.0166015625 0.01953125 0.0029296875 3:15.0 4:12.0 5:1227.0 12:53919.0 14:777.0 
0.4697265625 0.0166015625 0.01953125 0.0029296875 3:1.0 4:18.0 5:1.0 12:9625.0 14:21.0 
0.4697265625 0.0166015625 0.01953125 0.0029296875 3:10.0 5:1.0 7:1547.0 8:41.0 9:11.0 12:14522.0 14:12.0 
0.4697265625 0.0166015625 0.01953125 0.0029296875 3:3300.0 4:154.0 12:177584.0 13:3938.0 
0.4697265625 0.0166015625 0.01953125 0.0029296875 3:14.0 5:336.0 12:112357.0 14:2219.0 16:56.0 18:7.0 
0.4697265625 0.0166015625 0.01953125 0.0029296875 12:26734.0 14:69.0 
0.4697265625 0.0166015625 0.01953125 0.0029296875 4:254.0 5:187.0 8:11.0 12:9141.0 14:381.0 
0.4697265625 0.0166015625 0.01953125 0.0029296875 3:2920.0 4:53.0 12:6333.0 14:129.0 
0.4697265625 0.0166015625 0.01953125 0.0029296875 9:44.0 12:16170.0 13:176374.0 14:352.0 18:22.0 
0.4697265625 0.0166015625 0.01953125 0.0029296875 5:3080.0 12:232892.0 14:3036.0 16:88.0 
0.4697265625 0.0166015625 0.01953125 0.0029296875 1:3.0 4:25.0 8:12.0 12:8661.0 14:256.0 
0.4697265625 0.0166015625 0.01953125 0.0029296875 8:44.0 12:300014.0 14:1980.0 16:858.0 
0.4697265625 0.0166015625 0.01953125 0.0029296875 4:1804.0 8:168.0 9:76.0 12:75688.0 14:56.0 
0.4697265625 0.0166015625 0.01953125 0.0029296875 4:200.0 12:776625.0 14:1350.0 
0.4697265625 0.0166015625 0.01953125 0.0029296875 5:1.0 12:11947.0 14:1041.0 
0.4707031249999981 0.0166015625 0.01953125 0.0029296875 1:6.0 8:2.0 12:8437.0 14:121.0 
0.470703125 0.0166015625 0.01953125 0.0029296875 8:396.0 12:362076.0 14:1188.0 
0.470703125 0.0166015625 0.01953125 0.0029296875 12:84217.0 14:476.0 16:238.0 
0.470703125 0.0166015625 0.01953125 0.0029296875 4:352.0 5:11154.0 8:132.0 12:172634.0 14:2354.0 
0.470703125 0.0166015625 0.01953125 0.0029296875 12:8578.0 14:2085.0 
0.470703125 0.0166015625 0.01953125 0.0029296875 5:21.0 12:65177.0 14:1127.0 16:70.0 18:518.0 
0.470703125 0.0166015625 0.01953125 0.0029296875 12:11932.0 14:44.0 
0.470703125 0.0166015625 0.01953125 0.0029296875 12:57848.0 
0.470703125 0.0166015625 0.01953125 0.0029296875 3:3036.0 12:260502.0 14:286.0 16:220.0 
0.470703125 0.0166015625 0.01953125 0.0029296875 3:644.0 12:18438.0 14:3.0 
0.470703125 0.0166015625 0.01953125 0.0029296875 5:345.0 8:177.0 12:46776.0 14:918.0 
0.470703125 0.0166015625 0.01953125 0.0029296875 12:232725.0 
0.470703125 0.0166015625 0.01953125 0.0029296875 4:1.0 5:465.0 12:8277.0 14:327.0 
0.470703125 0.0166015625 0.01953125 0.0029296875 4:3.0 5:750.0 12:14560.0 14:192.0 
0.470703125 0.0166015625 0.01953125 0.0029296875 12:9744.0 14:130.0 
0.470703125 0.0166015625 0.01953125 0.0029296875 1:1183.0 2:42.0 3:7.0 4:196.0 7:63.0 8:434.0 12:70924.0 13:4298.0 14:1890.0 
0.470703125 0.0166015625 0.01953125 0.0029296875 1:7.0 3:278796.0 12:13965.0 14:13426.0 
0.470703125 0.0166015625 0.01953125 0.0029296875 3:8.0 4:12.0 12:39660.0 14:32.0 
0.470703125 0.0166015625 0.01953125 0.0029296875 3:7.0 4:6055.0 5:3164.0 12:147014.0 13:1750.0 14:658.0 16:56.0 18:63.0 
0.470703125 0.0166015625 0.01953125 0.0029296875 9:91.0 12:24164.0 13:34202.0 14:1736.0 16:217.0 
0.470703125 0.0166015625 0.01953125 0.0029296875 1:2.0 7:2720.0 12:26828.0 14:332.0 
0.47050905354688594 0.0166015625 0.01953125 0.0029296875 3:238.0 4:27.0 5:1964.0 8:100.0 12:15140.0 14:512.0 18:32.0 
0.47050905354688594 0.0166015625 0.01953125 0.0029296875 12:181918.0 14:6578.0 16:440.0 
0.47025842400235224 0.0166015625 0.01953125 0.0029296875 3:66.0 5:2090.0 12:379676.0 13:13816.0 14:2002.0 
0.4701870291028711 0.0166015625 0.01953125 0.0029296875 12:42749.0 14:62804.0 16:14.0 18:154.0 
0.4701870291028711 0.0166015625 0.01953125 0.0029296875 3:4925.0 5:22575.0 7:1800.0 8:100.0 9:325.0 12:322900.0 14:3475.0 
0.47018702910284416 0.0166015625 0.01953125 0.0029296875 3:125.0 4:125.0 12:310900.0 14:3450.0 18:625.0 
0.47018702910284416 0.0166015625 0.01953125 0.0029296875 12:9349.0 14:52.0 
0.47018702910284416 0.0166015625 0.01953125 0.0029296875 3:5600.0 5:9500.0 8:500.0 12:181950.0 14:2100.0 
0.47018702910284416 0.0166015625 0.01953125 0.0029296875 12:495176.0 14:3718.0 16:770.0 
0.46973793600750474 0.0166015625 0.01953125 0.0029296875 9:400.0 12:378800.0 14:8325.0 
0.4697265625002421 0.0166015625 0.01953125 0.0029296875 1:136.0 8:7.0 12:13390.0 14:2109.0 
0.4697265625001759 0.0166015625 0.01953125 0.0029296875 8:1056.0 12:291962.0 14:1166.0 
0.469726562500088 0.0166015625 0.01953125 0.0029296875 12:13081.0 14:8.0 
0.469726562500088 0.0166015625 0.01953125 0.0029296875 1:49.0 3:2373.0 5:1624.0 12:17227.0 13:532560.0 14:8295.0 16:154.0 18:42.0 
0.4697265625 0.0166015625 0.01953125 0.0029296875 3:21.0 12:9955.0 14:6.0 16:13.0 
0.4697265625 0.0166015625 0.01953125 0.0029296875 1:352.0 3:7.0 5:13.0 7:3868.0 12:3235.0 14:563.0 18:5.0 
0.4697265625 0.0166015625 0.01953125 0.0029296875 2:21.0 8:14.0 12:70168.0 14:7.0 16:182.0 
0.4697265625 0.0166015625 0.01953125 0.0029296875 1:1.0 3:198.0 5:6.0 8:12.0 12:18105.0 14:141.0 
0.4697265625 0.0166015625 0.01953125 0.0029296875 12:47132.0 18:44.0 
0.4697265625 0.0166015625 0.01953125 0.0029296875 12:30000.0 14:18564.0 
0.4697265625 0.0166015625 0.01953125 0.0029296875 12:177738.0 14:3146.0 
0.4697265625 0.0166015625 0.01953125 0.0029296875 5:29.0 12:9478.0 14:28.0 
0.4697265625 0.0166015625 0.01953125 0.0029296875 4:861.0 12:52738.0 14:2793.0 16:259.0 
0.4697265625 0.0166015625 0.01953125 0.0029296875 1:6.0 12:24078.0 14:99.0 
0.4697265625 0.0166015625 0.01953125 0.0029296875 1:679.0 4:966.0 8:28.0 9:147.0 12:43281.0 13:146923.0 14:15792.0 16:322.0 
0.4697265625 0.0166015625 0.01953125 0.0029296875 1:5178.0 4:160.0 12:2979.0 14:36.0 
0.4697265625 0.0166015625 0.01953125 0.0029296875 5:639.0 12:50562.0 14:558.0 
0.4697265625 0.0166015625 0.01953125 0.0029296875 5:674.0 8:2.0 12:7260.0 14:342.0 
0.4697265625 0.0166015625 0.01953125 0.0029296875 12:389972.0 14:308.0 
0.4697265625 0.0166015625 0.01953125 0.0029296875 12:11591.0 14:22.0 
0.4697265625 0.0166015625 0.01953125 0.0029296875 8:30.0 12:41268.0 14:468.0 
0.4697265625 0.0166015625 0.01953125 0.0029296875 3:5.0 12:11344.0 
0.4697265625 0.0166015625 0.01953125 0.0029296875 7:546.0 12:68187.0 14:735.0 
0.4697265625 0.0166015625 0.01953125 0.0029296875 4:16.0 5:168.0 12:12321.0 14:282.0 
0.4697265625 0.0166015625 0.01953125 0.0029296875 12:10238.0 14:18.0 
0.4697265625 0.0166015625 0.01953125 0.0029296875 12:178508.0 14:1188.0 
0.4697265625 0.0166015625 0.01953125 0.0029296875 3:22.0 4:550.0 5:1672.0 12:333542.0 13:22.0 14:5918.0 16:396.0 
0.4697265625 0.0166015625 0.01953125 0.0029296875 3:294.0 5:63.0 8:126.0 12:93729.0 14:1557.0 18:108.0 
0.4697265625 0.0166015625 0.01953125 0.0029296875 5:1994.0 8:15.0 12:6363.0 14:242.0 16:4.0 18:113.0 
0.4697265625 0.0166015625 0.01953125 0.0029296875 4:79.0 5:57.0 9:7.0 12:22251.0 14:375.0 
0.4697265625 0.0166015625 0.01953125 0.0029296875 4:3.0 7:6861.0 8:2.0 12:2173.0 13:1298.0 14:140.0 
0.4697265625 0.0166015625 0.01953125 0.0029296875 4:102.0 7:668.0 8:2.0 12:21458.0 13:108.0 14:117.0 
0.4697265625 0.0166015625 0.01953125 0.0029296875 1:75.0 3:19975.0 4:50.0 7:50.0 12:235400.0 14:8275.0 18:250.0 
0.4697265625 0.0166015625 0.01953125 0.0029296875 12:37440.0 14:9.0 
0.4697265625 0.0166015625 0.01953125 0.0029296875 12:481668.0 16:176.0 
0.4697265625 0.0166015625 0.01953125 0.0029296875 1:10.0 3:26.0 5:99.0 8:9.0 12:9135.0 14:276.0 
0.4697265625 0.0166015625 0.01953125 0.0029296875 4:90.0 9:4.0 12:8102.0 14:355.0 
0.4697265625 0.0166015625 0.01953125 0.0029296875 1:28.0 3:203.0 4:84.0 5:1211.0 9:35.0 12:98119.0 14:4585.0 16:7.0 
0.4697265625 0.0166015625 0.01953125 0.0029296875 1:1600.0 3:1475.0 4:25.0 7:184850.0 9:625.0 12:39525.0 14:2750.0 
0.4697265625 0.0166015625 0.01953125 0.0029296875 3:14.0 5:16793.0 12:71022.0 13:28.0 14:4004.0 18:763.0 
0.4697265625 0.0166015625 0.01953125 0.0029296875 1:616.0 7:74316.0 9:484.0 12:114466.0 13:37004.0 14:3696.0 
0.4697265625 0.0166015625 0.01953125 0.0029296875 4:220.0 12:208186.0 14:1122.0 
0.4697265625 0.0166015625 0.01953125 0.0029296875 4:50.0 12:533500.0 14:1275.0 
0.4697265625 0.0166015625 0.01953125 0.0029296875 1:12.0 4:36.0 5:900.0 7:6702.0 9:27.0 12:44133.0 14:6.0 
0.4697265625 0.0166015625 0.01953125 0.0029296875 1:220.0 4:22.0 8:1254.0 12:184250.0 14:13970.0 
0.4697265625 0.0166015625 0.01953125 0.0029296875 5:8950.0 12:264725.0 14:8700.0 
0.4697265625 0.0166015625 0.01953125 0.0029296875 1:360.0 12:84510.0 14:2520.0 
0.4697265625 0.0166015625 0.01953125 0.0029296875 12:13130.0 
0.4697265625 0.0166015625 0.01953125 0.0029296875 12:750376.0 16:616.0 
0.4697265625 0.0166015625 0.01953125 0.0029296875 12:9230.0 14:118.0 
0.4697265625 0.0166015625 0.01953125 0.0029296875 1:33.0 3:876.0 4:1527.0 5:645.0 6:471.0 8:207.0 10:357.0 12:18396.0 14:1578.0 
0.4697265625 0.0166015625 0.01953125 0.0029296875 12:5229.0 13:88949.0 14:1246.0 16:210.0 18:133.0 
0.4697265625 0.0166015625 0.01953125 0.0029296875 3:1305.0 4:56.0 5:211.0 12:10349.0 14:158.0 
0.4697265625 0.0166015625 0.01953125 0.0029296875 3:27.0 12:62898.0 
0.4697265625 0.0166015625 0.01953125 0.0029296875 3:94.0 9:118.0 12:20566.0 14:450.0 
0.4697265625 0.0166015625 0.01953125 0.0029296875 12:251834.0 14:418.0 
0.4697265625 0.0166015625 0.01953125 0.0029296875 1:506.0 4:44.0 5:12452.0 12:244244.0 14:4664.0 16:814.0 
0.4697265625 0.0166015625 0.01953125 0.0029296875 12:469766.0 14:6226.0 
0.4697265625 0.0166015625 0.01953125 0.0029296875 4:150.0 5:33.0 8:63.0 12:74571.0 13:12660.0 14:969.0 18:315.0 
0.4697265625 0.0166015625 0.01953125 0.0029296875 7:185175.0 12:10300.0 14:5350.0 
0.4697265625 0.0166015625 0.01953125 0.0029296875 4:7.0 8:14.0 12:112987.0 14:15603.0 
0.4697265625 0.0166015625 0.01953125 0.0029296875 5:50.0 12:22034.0 14:358.0 18:4.0 
0.4697265625 0.0166015625 0.01953125 0.00390625 12:656480.0 14:110.0 16:44.0 
0.4697265625 0.0166015625 0.01953125 0.00390625 4:3.0 12:38061.0 14:294.0 
0.4697265625 0.0166015625 0.01953125 0.00390625 1:309.0 3:1020.0 8:6.0 12:24273.0 14:279.0 
0.4697265625 0.0166015625 0.01953125 0.00390625 1:938.0 4:92.0 8:22.0 9:9.0 12:10276.0 
0.4697265625 0.0166015625 0.01953125 0.00390625 12:1347525.0 
0.4697265625 0.0166015625 0.01953125 0.00390625 3:135.0 5:43.0 8:1.0 12:7613.0 14:410.0 
0.4697265625 0.0166015625 0.01953125 0.00390625 3:108598.0 4:35.0 12:4165.0 
0.4697265625 0.0166015625 0.01953125 0.00390625 4:1.0 12:11619.0 14:60.0 
0.4697265625 0.0166015625 0.01953125 0.00390625 4:110.0 12:573298.0 
0.4697265625 0.0166015625 0.01953125 0.00390625 3:1028.0 12:8379.0 
0.4697265625 0.0166015625 0.01953125 0.00390625 1:408.0 4:300.0 8:38.0 9:46.0 12:40212.0 14:396.0 
0.4697265625 0.0166015625 0.01953125 0.00390625 12:43500.0 14:4842.0 
0.4697265625 0.0166015625 0.01953125 0.00390625 5:231.0 12:75887.0 13:1169.0 14:2002.0 16:28.0 
0.4697265625 0.0166015625 0.01953125 0.00390625 3:1825.0 12:374800.0 14:3700.0 
0.4697265625 0.0166015625 0.01953125 0.00390625 3:30.0 12:8753.0 14:61.0 
0.4697265625 0.0166015625 0.01953125 0.00390625 12:55069.0 14:196.0 16:196.0 
0.4697265625 0.0166015625 0.01953125 0.00390625 3:543.0 12:71634.0 
0.4697265625 0.016797702364608202 0.01953125 0.00390625 4:1044.0 5:12.0 9:3.0 12:10072.0 14:36.0 16:4.0 
0.4697265625 0.016797702364608202 0.01953125 0.00390625 3:396.0 7:3586.0 12:699688.0 14:2860.0 16:440.0 
0.4697265625 0.01706202910283061 0.01953125 0.00390625 7:122000.0 12:67325.0 14:11675.0 
0.4697265625 0.017578125 0.01953125 0.00390625 8:12.0 12:111.0 14:23967.0 
0.4697265625 0.017578125 0.01953125 0.00390625 1:6.0 8:3.0 9:24.0 12:81399.0 14:153.0 
0.4697265625 0.017578125 0.01953125 0.00390625 1:704.0 8:1012.0 12:388432.0 14:6732.0 
0.4697265625 0.017578125 0.01953125 0.00390625 8:91.0 12:65233.0 14:294.0 
0.4697265625 0.017578125 0.01953125 0.00390625 12:138663.0 
0.4697265625 0.017578125 0.01953125 0.00390625 5:48.0 12:9565.0 14:793.0 
0.4697265625 0.017578125 0.01953125 0.00390625 1:135.0 4:6.0 12:135663.0 14:102.0 
0.4697265625 0.017578125 0.01953125 0.00390625 1:2948.0 4:3036.0 5:1540.0 12:195712.0 14:4686.0 
0.4697265625 0.017578125 0.01953125 0.00390625 3:80.0 12:32372.0 14:500.0 
0.4697265625 0.017578125 0.01953125 0.00390625 12:24819.0 14:258.0 
0.4697265625 0.017578125 0.01953125 0.00390625 4:1.0 12:119066.0 14:31.0 
0.4697265625 0.017578125 0.01953125 0.00390625 1:528.0 4:9.0 9:75.0 12:29394.0 14:6672.0 
0.4697265625 0.017578125 0.01953125 0.00390625 4:4.0 5:18.0 12:16311.0 14:33.0 
0.4697265625 0.017578125 0.01953125 0.00390625 3:7.0 5:37.0 12:13781.0 14:167.0 
0.4697265625 0.017578125 0.01953125 0.00390625 4:66.0 5:1342.0 8:14608.0 12:605176.0 
0.4697265625 0.017578125 0.01953125 0.00390625 4:6.0 12:56022.0 14:681.0 
0.4697265625 0.017578125 0.01953125 0.00390625 1:408.0 4:4.0 12:6407.0 14:2637.0 
0.4697265625 0.017578125 0.01953125 0.00390625 3:44.0 4:1628.0 5:2420.0 8:22.0 9:418.0 12:768416.0 13:88.0 14:6908.0 16:132.0 18:220.0 20:1034.0 
0.4697265625 0.017578125 0.01953125 0.00390625 12:20985.0 13:2055.0 14:1134.0 
0.4697265625 0.017578125 0.01953125 0.00390625 1:125.0 3:425.0 4:150.0 12:161475.0 14:102400.0 
0.4697265625 0.017578125 0.01953125 0.00390625 3:8.0 12:10626.0 13:1.0 14:353.0 
0.4697265625 0.017578125 0.01953125 0.00390625 3:1.0 4:80.0 5:24.0 8:10.0 12:8831.0 14:357.0 18:5.0 
0.4697265625 0.017578125 0.01953125 0.00390625 5:850.0 7:182550.0 12:33150.0 14:2025.0 
0.4697265625 0.017578125 0.01953125 0.00390625 3:44.0 8:88.0 12:2860.0 13:178178.0 14:880.0 
0.4697265625 0.017578125 0.01953125 0.00390625 4:4475.0 5:3950.0 12:224400.0 14:3300.0 18:2025.0 
0.4697265625 0.017578125 0.020282787004902214 0.00390625 7:2460.0 12:882.0 14:60714.0 18:480.0 
0.4697265625 0.017578125 0.0204521832056882 0.00390625 1:14.0 3:2828.0 12:37052.0 14:2138.0 
0.4697265625 0.017578125 0.0205078125 0.00390625 3:160.0 8:57.0 12:9343.0 14:247.0 
0.4697265625 0.017578125 0.0205078125 0.00390625 5:66.0 7:172920.0 8:550.0 12:17776.0 14:2948.0 
0.4697265625 0.017578125 0.0205078125 0.00390625 12:216700.0 16:572.0 
0.4697265625 0.017578125 0.0205078125 0.00390625 3:22.0 4:22.0 5:33132.0 12:276386.0 14:3586.0 
0.4697265625 0.017578125 0.0205078125 0.00390625 12:18792.0 14:10660.0 18:28.0 
0.4697265625 0.017578125 0.0205078125 0.00390625 3:134.0 5:108.0 8:8.0 12:15274.0 14:846.0 
0.4697265625 0.017578125 0.0205078125 0.00390625 12:261382.0 14:4114.0 16:264.0 
0.4697265625 0.017578125 0.0205078125 0.00390625 1:2244.0 5:1958.0 12:214170.0 14:10736.0 16:1100.0 18:352.0 
0.4697265625 0.017578125 0.0205078125 0.00390625 8:36.0 12:16942.0 14:97.0 
0.4697265625 0.017578125 0.0205078125 0.00390625 12:212300.0 16:440.0 
0.4697265625 0.017578125 0.0205078125 0.00390625 1:4048.0 3:484.0 5:44.0 9:220.0 12:600292.0 13:1738.0 14:5676.0 16:902.0 
0.4697265625 0.017578125 0.0205078125 0.00390625 1:8.0 4:3.0 9:3.0 12:8419.0 
0.4697265625 0.017578125 0.0205078125 0.00390625 5:70.0 12:8132.0 14:132.0 
0.4697265625 0.017578125 0.0205078125 0.00390625 1:2177.0 3:21.0 4:287.0 12:169337.0 13:8260.0 14:1470.0 18:98.0 
0.4697265625 0.017578125 0.0205078125 0.00390625 5:190.0 12:10097.0 14:465.0 
0.4697265625 0.017578125 0.0205078125 0.00390625 5:1011.0 12:11325.0 14:11562.0 
0.4697265625 0.017578125 0.0205078125 0.00390625 1:279.0 4:45.0 12:48021.0 14:276.0 
0.4697265625 0.017578125 0.0205078125 0.00390625 3:21700.0 5:725.0 8:175.0 9:850.0 12:555025.0 14:1875.0 
0.4697265625 0.017578125 0.0205078125 0.00390625 5:35.0 7:1841.0 12:15228.0 14:1.0 
0.4697265625 0.017578125 0.0205078125 0.00390625 4:6.0 5:387.0 8:6.0 9:54.0 12:29823.0 14:177.0 
0.4697265625 0.017578125 0.0205078125 0.00390625 7:223800.0 12:8950.0 14:225.0 
0.4697265625 0.017578125 0.0205078125 0.00390625 1:22.0 5:21956.0 12:179542.0 14:4752.0 
0.4697265625 0.017578125 0.0205078125 0.00390625 5:32.0 12:8201.0 14:104.0 
0.4697265625 0.017578125 0.0205078125 0.00390625 4:132.0 7:7029.0 9:36.0 12:37149.0 13:231.0 14:531.0 16:3.0 20:2109.0 
0.4697265625 0.017578125 0.0205078125 0.00390625 3:338.0 4:412.0 8:4.0 12:16892.0 14:3664.0 
0.4697265625 0.017578125 0.0205078125 0.00390625 3:12825.0 5:2175.0 7:3000.0 12:197825.0 14:3775.0 
0.4697265625 0.017578125 0.0205078125 0.00390625 1:2.0 3:190.0 5:62.0 12:14596.0 14:948.0 
0.4697265625 0.017578125 0.0205078125 0.00390625 12:8240.0 14:1483.0 
0.4697265625 0.017578125 0.0205078125 0.00390625 3:950.0 7:100800.0 12:167900.0 14:250.0 18:16875.0 
0.4697265625 0.017578125 0.0205078125 0.00390625 4:29232.0 5:145.0 9:5.0 12:1005.0 14:38.0 
0.4697265625 0.017578125 0.0205078125 0.00390625 1:21.0 3:119.0 9:21.0 12:21756.0 13:40635.0 14:42.0 
0.4697265625 0.017578125 0.0205078125 0.00390625 1:6316.0 3:220.0 12:7038.0 14:6508.0 
0.4697265625 0.017578125 0.0205078125 0.00390625 12:38190.0 14:19002.0 
0.4697265625 0.017578125 0.0205078125 0.00390625 5:4884.0 12:235554.0 14:3256.0 16:44.0 
0.4697265625 0.017578125 0.0205078125 0.00390625 4:2640.0 8:44.0 12:181434.0 14:12386.0 18:264.0 
0.4697265625 0.017578125 0.0205078125 0.00390625 1:13447.0 12:44800.0 13:7.0 14:217.0 
0.4697379360075047 0.017578125 0.0205078125 0.00390625 1:50.0 4:250.0 5:1500.0 12:301450.0 14:300.0 
0.4697379360075047 0.017578125 0.0205078125 0.00390625 5:369.0 7:6378.0 9:6.0 12:25296.0 14:129.0 
0.4697379360075047 0.017578125 0.0205078125 0.00390625 1:2.0 12:19262.0 14:9.0 
0.4698501843640143 0.017578125 0.0205078125 0.00390625 4:14.0 5:86.0 7:549.0 12:25483.0 14:29.0 20:107.0 
0.4701870291028441 0.017578125 0.0205078125 0.00390625 4:36.0 8:25.0 9:25.0 12:12067.0 14:166.0 
0.4701870291028441 0.017578125 0.0205078125 0.00390625 5:27.0 9:1.0 12:53584.0 14:7.0 
0.4701870291028441 0.017578125 0.0205078125 0.00390625 12:48921.0 14:396.0 
0.4701870291028441 0.017578125 0.0205078125 0.00390625 1:448.0 3:180.0 5:136.0 9:154.0 12:11142.0 14:8172.0 20:1398.0 
0.4701870291028441 0.017578125 0.0205078125 0.00390625 1:3.0 4:3.0 5:12.0 8:6.0 12:37209.0 14:102.0 
0.4701870291028441 0.017578125 0.0205078125 0.00390625 12:57379.0 14:294.0 
0.4701870291028441 0.017578125 0.0205078125 0.00390625 1:66.0 3:12936.0 9:110.0 12:209198.0 14:4686.0 18:132.0 
0.4701870291028441 0.017578125 0.0205078125 0.00390625 12:863918.0 16:132.0 
0.4701870291028441 0.017578125 0.0205078125 0.00390625 3:343.0 4:35.0 12:141848.0 13:12131.0 14:14560.0 18:252.0 
0.4701870291028441 0.017578125 0.0205078125 0.00390625 5:74.0 12:21300.0 14:1932.0 
0.4701870291028441 0.017578125 0.0205078125 0.00390625 5:1775.0 9:325.0 12:331175.0 14:1875.0 18:175.0 
0.4701870291028441 0.017578125 0.0205078125 0.00390625 12:8543.0 14:76.0 
0.4701870291028441 0.017578125 0.0205078125 0.00390625 5:4906.0 12:254826.0 16:220.0 
0.4701870291028441 0.017578125 0.0205078125 0.00390625 3:48.0 4:2.0 12:41770.0 14:23698.0 16:8.0 
0.4701870291028441 0.017578125 0.0205078125 0.00390625 3:3.0 5:1014.0 9:21.0 12:22992.0 14:1266.0 18:102.0 
0.4701870291028441 0.017578125 0.0205078125 0.00390625 1:105.0 7:2355.0 9:15.0 12:49875.0 14:657.0 
0.470187029102871 0.017578125 0.0205078125 0.00390625 1:44.0 9:88.0 12:245828.0 14:528.0 
0.470187029102871 0.017578125 0.0205078125 0.00390625 1:105.0 3:42210.0 4:3.0 5:501.0 9:24.0 12:4812.0 14:18.0 
0.470187029102871 0.017578125 0.0205078125 0.00390625 12:200400.0 14:1275.0 
0.47070312500005784 0.017578125 0.0205078125 0.00390625 9:11.0 12:9039.0 
0.470187029102871 0.017578125 0.0205078125 0.00390625 3:415.0 4:66.0 8:24.0 12:14135.0 14:546.0 18:24.0 
0.470187029102871 0.017578125 0.0205078125 0.00390625 5:36.0 8:1.0 12:12387.0 14:55.0 
0.470187029102871 0.017578125 0.0205078125 0.00390625 7:89874.0 12:11082.0 
0.470187029102871 0.017578125 0.0205078125 0.00390625 3:1172.0 8:3.0 12:15744.0 14:109.0 
0.470187029102871 0.017578125 0.0205078125 0.00390625 5:695.0 8:7.0 12:10352.0 
0.47025842400235224 0.017578125 0.0205078125 0.00390625 4:25.0 5:225.0 12:198850.0 14:1675.0 
0.47025842400235224 0.017578125 0.0205078125 0.00390625 5:220.0 12:179168.0 14:638.0 
0.47025842400235224 0.017578125 0.0205078125 0.00390625 3:44.0 4:5346.0 5:10362.0 9:4334.0 12:164252.0 13:2992.0 14:5302.0 16:352.0 18:528.0 
0.47025842400235224 0.017578125 0.0205078125 0.00390625 7:5141.0 12:2987.0 14:75.0 
0.47025842400235224 0.017578125 0.0205078125 0.00390625 3:1034.0 5:2508.0 12:13596.0 13:246840.0 14:572.0 18:220.0 
0.47025842400235224 0.017578125 0.0205078125 0.00390625 3:73370.0 12:213180.0 14:8954.0 
0.47025842400235224 0.017578125 0.0205078125 0.00390625 5:1231675.0 12:85975.0 14:775.0 18:250.0 
0.47025842400235224 0.017578125 0.0205078125 0.003402491729007584 4:9.0 5:528.0 12:31956.0 14:480.0 
0.4705090535468859 0.017578125 0.0205078125 0.0032889447757076806 3:6600.0 5:117800.0 12:98650.0 14:25525.0 
0.4705090535468859 0.017578125 0.0205078125 0.0029296875 1:44.0 4:4.0 7:4434.0 9:5.0 12:3040.0 14:462.0 
0.4705090535468859 0.017578125 0.0205078125 0.0029296875 7:49214.0 12:167046.0 
0.4705090535468859 0.017578125 0.0205078125 0.0029296875 3:22.0 12:829202.0 14:462.0 
0.4705090535468859 0.017578125 0.0205078125 0.0029296875 3:3.0 4:508.0 5:438.0 12:8250.0 14:348.0 
0.4705090535468859 0.017578125 0.0205078125 0.0029296875 3:107.0 5:26.0 12:12625.0 14:2213.0 
0.4705090535468859 0.017578125 0.0205078125 0.0029296875 8:3.0 12:17426.0 14:14.0 
0.4705090535468859 0.017578125 0.0205078125 0.0029296875 5:64.0 12:2232.0 14:32416.0 
0.4705090535468859 0.017578125 0.0205078125 0.0029296875 3:22.0 4:550.0 5:792.0 12:328900.0 14:4994.0 16:572.0 
0.4705090535468859 0.017578125 0.0205078125 0.0029296875 1:64.0 4:6065.0 9:18.0 12:2922.0 14:78.0 16:10.0 
0.4705090535468859 0.017578125 0.0205078125 0.0029296875 5:401.0 7:2458.0 8:22.0 12:6099.0 14:99.0 
0.4705090535468859 0.017578125 0.0205078125 0.0029296875 12:13029.0 14:12633.0 
0.4705090535468859 0.017578125 0.0205078125 0.0029296875 5:8433.0 9:1.0 12:2344.0 14:25.0 
0.4705090535468859 0.017578125 0.0205078125 0.0029296875 4:48.0 8:4.0 12:12499.0 14:63.0 
0.4705090535468859 0.017578125 0.0205078125 0.0029296875 4:3.0 5:131.0 8:89.0 12:17748.0 14:261.0 
0.4705090535468859 0.017578125 0.0205078125 0.0029296875 3:931.0 9:168.0 12:70126.0 14:1071.0 16:119.0 
0.4707031249999981 0.017578125 0.0205078125 0.0029296875 5:21054.0 9:110.0 12:161744.0 14:3014.0 
0.4707031249999981 0.017578125 0.0205078125 0.0029296875 5:1.0 8:1.0 12:14003.0 14:34.0 
0.4707031249999981 0.017578125 0.0205078125 0.0029296875 12:39696.0 14:105.0 
0.4707031249999981 0.017578125 0.0205078125 0.0029296875 4:6.0 12:13744.0 14:2070.0 
0.4707031249999981 0.017578125 0.0205078125 0.0029296875 1:1307.0 5:1381.0 8:13.0 12:5411.0 14:1110.0 
0.4707031249999981 0.017578125 0.0205078125 0.0029296875 1:6.0 3:477.0 4:27.0 5:579.0 7:138.0 12:48372.0 14:294.0 
0.4707031249999981 0.017578125 0.0205078125 0.0029296875 3:22.0 4:218394.0 5:9130.0 8:176.0 9:286.0 12:23122.0 14:462.0 
0.4707031249999981 0.017578125 0.0205078125 0.0029296875 12:30199.0 14:211.0 
0.4707031249999981 0.017578125 0.0205078125 0.0029296875 3:7.0 4:7.0 5:63.0 12:60753.0 14:2450.0 16:7.0 18:98.0 
0.4707031249999981 0.017578125 0.0205078125 0.0029296875 3:198.0 4:3.0 5:963.0 12:47295.0 14:1131.0 
0.4707031249999981 0.017578125 0.0205078125 0.0029296875 4:12.0 5:156.0 12:37308.0 14:990.0 
0.4707031249999981 0.017578125 0.0205078125 0.0029296875 9:15.0 12:7916.0 14:171.0 
0.4707031249999981 0.017578125 0.0205078125 0.0029296875 3:76.0 12:8498.0 
0.4707031249999981 0.017578125 0.0205078125 0.0029296875 1:21.0 3:1085.0 5:224.0 7:36281.0 12:32795.0 14:1078.0 16:140.0 
0.4707031249999981 0.017578125 0.0205078125 0.0029296875 1:35.0 12:56462.0 14:364.0 16:7.0 
0.4707031249999981 0.017578125 0.0205078125 0.0029296875 5:830.0 12:9408.0 14:112.0 
0.470703125 0.017578125 0.0205078125 0.0029296875 2:9.0 5:1522.0 8:633.0 9:9.0 12:6935.0 14:227.0 18:7.0 
0.470703125 0.017578125 0.0205078125 0.0029296875 12:173998.0 14:638.0 16:44.0 
0.470703125 0.017578125 0.0205078125 0.0029296875 3:560.0 7:32264.0 12:696.0 14:212.0 
0.470703125 0.017578125 0.0205078125 0.0029296875 4:4136.0 7:150524.0 12:23100.0 14:176.0 
0.470703125 0.017578125 0.0205078125 0.0029296875 3:579.0 5:496.0 12:8312.0 14:521.0 
0.470703125 0.017578125 0.0205078125 0.0029296875 12:66479.0 14:7.0 
0.470703125 0.017578125 0.0205078125 0.0029296875 5:15.0 7:1206.0 12:16457.0 14:309.0 
0.470703125 0.017578125 0.0205078125 0.0029296875 5:7.0 12:79499.0 14:52990.0 16:42.0 
0.470703125 0.017578125 0.0205078125 0.0029296875 5:44.0 8:4972.0 12:169004.0 16:176.0 
0.470703125 0.017578125 0.0205078125 0.0029296875 4:11827.0 9:5.0 12:110.0 14:40.0 
0.470703125 0.017578125 0.0205078125 0.0029296875 1:33.0 4:1.0 7:48.0 9:2.0 12:13775.0 14:54.0 20:6.0 
0.470703125 0.017578125 0.0205078125 0.0029296875 4:2024.0 5:3014.0 12:573650.0 13:1144.0 14:1738.0 
0.470703125 0.017578125 0.0205078125 0.0029296875 5:8228.0 12:289652.0 14:7766.0 16:308.0 
0.470703125 0.017578125 0.0205078125 0.0029296875 3:1122.0 4:22.0 12:392832.0 16:594.0 
0.470703125 0.017578125 0.0205078125 0.0029296875 12:91595.0 14:161.0 16:35.0 
0.3432876346614012 0.012106892906090209 0.014873462994927332 0.0025704302242709797 12:11374.0 14:2.0 
0.470703125 0.017578125 0.0205078125 0.0029296875 12:31404.0 13:3.0 14:1851.0 
0.470703125 0.017578125 0.0205078125 0.0029296875 3:1.0 4:2066.0 5:26.0 9:17.0 12:5753.0 14:528.0 
0.470703125 0.017578125 0.0205078125 0.0029296875 5:225.0 8:2.0 12:8927.0 14:472.0 
0.470703125 0.017578125 0.0205078125 0.0029296875 3:112.0 4:3.0 12:15740.0 
0.470703125 0.017578125 0.0205078125 0.0029296875 12:54864.0 14:15.0 
0.470703125 0.017578125 0.0205078125 0.0029296875 1:9.0 3:282.0 12:34095.0 14:66.0 
0.470703125 0.017578125 0.0205078125 0.0029296875 5:2706.0 12:210936.0 14:10956.0 
0.470703125 0.017578125 0.0205078125 0.0029296875 4:88.0 5:2200.0 12:196504.0 14:2068.0 
0.470703125 0.017578125 0.0205078125 0.0029296875 5:4708.0 12:169070.0 14:2002.0 
0.470703125 0.017578125 0.0205078125 0.0029296875 3:6.0 12:145581.0 
0.3440326704546229 0.012750941794423903 0.014704066794482253 0.0024568832710137557 12:11378.0 
0.470703125 0.017578125 0.0205078125 0.0029296875 3:42.0 12:42564.0 14:608.0 
0.470703125 0.017578125 0.0205078125 0.0029296875 3:1.0 4:29.0 5:293.0 8:20.0 12:7731.0 14:125.0 
0.470703125 0.017578125 0.0205078125 0.0029296875 3:357.0 4:12.0 7:18978.0 8:72.0 12:12057.0 
0.470703125 0.017578125 0.0205078125 0.0029296875 12:294426.0 16:352.0 
0.470703125 0.017578125 0.0205078125 0.0029296875 12:7750.0 14:1549.0 
0.470703125 0.017578125 0.0205078125 0.0029296875 5:560.0 12:58982.0 14:126.0 
0.470703125 0.017578125 0.0205078125 0.0029296875 1:192.0 4:3.0 12:36099.0 14:605.0 
0.470703125 0.017578125 0.0205078125 0.0029296875 3:1.0 4:1.0 5:843.0 12:9617.0 14:227.0 
0.470703125 0.017578125 0.0205078125 0.0029296875 8:28.0 12:7147.0 14:52542.0 
0.470703125 0.017578125 0.0205078125 0.0029296875 12:14532.0 14:201.0 
0.470703125 0.017578125 0.0205078125 0.0029296875 3:13046.0 12:173426.0 
0.470703125 0.017578125 0.0205078125 0.0029296875 4:4.0 7:365.0 12:8208.0 14:632.0 
0.470703125 0.017578125 0.0205078125 0.0029296875 1:19.0 3:2.0 4:30.0 5:2433.0 9:23.0 12:5889.0 14:255.0 
0.470703125 0.017578125 0.0205078125 0.0029296875 3:21.0 5:1143.0 8:36.0 12:83787.0 14:624.0 
0.470703125 0.017578125 0.0205078125 0.0029296875 3:62.0 4:4.0 5:110.0 9:6.0 12:38176.0 14:60.0 
0.470703125 0.017578125 0.0205078125 0.0029296875 12:198198.0 14:5170.0 16:88.0 
0.470703125 0.017578125 0.0205078125 0.0029296875 3:242.0 4:123.0 5:91.0 8:2.0 12:10324.0 14:40.0 18:4.0 
0.470703125 0.017578125 0.0205078125 0.0029296875 3:1056.0 5:726.0 9:88.0 12:299706.0 14:2046.0 16:88.0 
0.470703125 0.017578125 0.0205078125 0.0029296875 8:24.0 12:59034.0 14:1308.0 
0.470703125 0.017578125 0.0205078125 0.0029296875 3:150.0 8:100.0 12:202525.0 14:2500.0 
0.470703125 0.017578125 0.0205078125 0.0029296875 7:2.0 12:45165.0 14:63.0 
0.470703125 0.017578125 0.0205078125 0.0029296875 12:4013.0 14:4934.0 
0.470703125 0.017578125 0.0205078125 0.0029296875 7:46684.0 8:176.0 12:4048.0 13:252208.0 14:462.0 
0.470703125 0.017578125 0.0205078125 0.0029296875 8:7.0 12:9311.0 14:35.0 
0.470703125 0.017578125 0.0205078125 0.0029296875 5:175.0 12:526100.0 14:200.0 
0.470703125 0.017578125 0.0205078125 0.0029296875 1:9.0 8:3.0 9:2.0 12:12185.0 14:172.0 
0.470703125 0.017578125 0.0205078125 0.0029296875 5:52.0 12:32708.0 14:540.0 16:40.0 
0.470703125 0.017578125 0.0205078125 0.0029296875 3:726.0 4:1914.0 5:11000.0 7:256344.0 8:44.0 9:66.0 12:114554.0 14:3938.0 16:176.0 
0.470703125 0.017578125 0.0205078125 0.0029296875 4:38.0 12:6274.0 14:7755.0 
0.470703125 0.017578125 0.0205078125 0.0029296875 4:18.0 12:16818.0 14:28.0 
0.470703125 0.017578125 0.0205078125 0.0029296875 1:3801.0 4:245.0 5:77.0 12:270263.0 13:1414.0 14:735.0 16:98.0 
0.470703125 0.017578125 0.0205078125 0.0029296875 3:1350.0 4:75.0 5:2800.0 12:229775.0 14:875.0 
0.470703125 0.017578125 0.0205078125 0.0029296875 5:224.0 8:4.0 12:8909.0 14:240.0 
0.470703125 0.017578125 0.0205078125 0.0029296875 1:15.0 5:537.0 12:10004.0 14:76.0 16:29.0 18:6.0 
0.470703125 0.017578125 0.0205078125 0.0029296875 4:25.0 9:75.0 12:388200.0 14:1500.0 
0.470703125 0.017578125 0.0205078125 0.0029296875 4:438.0 7:324.0 12:38622.0 14:1095.0 16:27.0 17:3.0 
0.470703125 0.017578125 0.0205078125 0.0029296875 4:31.0 12:19837.0 14:203.0 
0.470703125 0.017578125 0.0205078125 0.0029296875 12:45364.0 14:24.0 
0.470703125 0.017578125 0.0205078125 0.0029296875 4:12.0 12:34437.0 14:3816.0 
0.470703125 0.017578125 0.0205078125 0.0029296875 3:58.0 12:18388.0 14:528.0 
0.470703125 0.017578125 0.0205078125 0.0029296875 3:100.0 5:3675.0 7:27575.0 12:261300.0 14:125.0 
0.470703125 0.017578125 0.0205078125 0.0029296875 3:175.0 4:2575.0 5:700.0 7:6625.0 8:3200.0 9:375.0 11:500.0 12:334275.0 13:1050.0 14:1100.0 
0.470703125 0.017578125 0.0205078125 0.0029296875 12:72576.0 14:588.0 16:161.0 
0.470703125 0.017578125 0.0205078125 0.0029296875 3:308.0 5:51898.0 12:310794.0 14:2486.0 
0.470703125 0.017578125 0.0205078125 0.0029296875 3:1400.0 5:40375.0 9:25.0 12:191150.0 14:6400.0 
0.470703125 0.017578125 0.0205078125 0.0029296875 3:6.0 5:1256.0 7:1.0 12:6974.0 14:111.0 
0.470703125 0.017578125 0.0205078125 0.0029296875 3:152.0 5:142.0 12:36282.0 14:1240.0 
0.470703125 0.017578125 0.0205078125 0.0029296875 9:50.0 12:233900.0 14:3075.0 
0.470703125 0.017578125 0.0205078125 0.0029296875 1:40.0 4:6.0 5:1.0 12:9019.0 14:81.0 
0.470703125 0.017578125 0.0205078125 0.0029296875 8:44.0 12:706904.0 
0.470703125 0.017578125 0.0205078125 0.0029296875 1:819.0 4:301.0 5:287.0 12:95823.0 13:22792.0 14:77.0 
0.470703125 0.017578125 0.0205078125 0.0029296875 4:396.0 12:458040.0 14:242.0 
0.470703125 0.017578125 0.0205078125 0.0029296875 4:462.0 7:75570.0 11:44.0 12:124168.0 14:2266.0 16:132.0 20:44.0 
0.470703125 0.017578125 0.0205078125 0.0029296875 4:2.0 5:172.0 9:2.0 12:17322.0 14:250.0 
0.470703125 0.017578125 0.0205078125 0.0029296875 1:133553.0 4:26551.0 9:14.0 12:2303.0 14:98.0 16:42.0 
0.470703125 0.017578125 0.0205078125 0.0029296875 12:13664.0 14:189.0 
0.470703125 0.017578125 0.0205078125 0.0029296875 5:330.0 9:550.0 12:289366.0 14:4708.0 
0.470703125 0.017578125 0.0205078125 0.0029296875 4:1775.0 7:200.0 12:189025.0 14:146100.0 20:725.0 
0.470703125 0.017578125 0.0205078125 0.0029296875 3:6.0 4:39.0 5:4428.0 12:19440.0 14:552.0 18:144.0 
0.470703125 0.017578125 0.0205078125 0.0029296875 3:24.0 12:10304.0 14:75.0 
0.470703125 0.017578125 0.0205078125 0.0029296875 12:288442.0 14:1650.0 
0.470703125 0.017578125 0.0205078125 0.0029296875 4:497.0 5:105.0 8:56.0 12:71498.0 13:2821.0 14:91.0 16:63.0 
0.4705090535468859 0.017578125 0.0205078125 0.0029296875 5:12453.0 9:39.0 12:11823.0 14:450.0 
0.4702584240023522 0.017578125 0.0205078125 0.0029296875 1:167.0 3:1.0 4:48.0 5:439.0 9:91.0 12:10107.0 14:240.0 
0.47018702910287113 0.017578125 0.0205078125 0.0029296875 3:27.0 5:3.0 12:23575.0 
0.47018702910284416 0.017578125 0.0205078125 0.0029296875 2:3.0 4:2.0 5:339.0 8:2.0 12:10691.0 14:91.0 
0.47018702910284416 0.017578125 0.0205078125 0.0029296875 4:5.0 5:680.0 8:8.0 9:10.0 12:7357.0 14:151.0 18:10.0 
0.46972656249787026 0.01660156249995831 0.01953124999991923 0.002929687499993283 8:3.0 12:11366.0 14:23.0 
0.4697265625001759 0.017578125 0.0205078125 0.0029296875 12:199164.0 16:154.0 
0.469726562500088 0.017578125 0.0205078125 0.0029296875 4:748.0 12:11968.0 13:216304.0 14:1452.0 18:88.0 20:506.0 
0.470703125 0.017578125 0.0205078125 0.0029296875 1:5300.0 4:675.0 7:97550.0 12:201700.0 14:5225.0 
0.470703125 0.017578125 0.0205078125 0.0029296875 2:66.0 4:132.0 12:130680.0 13:95260.0 14:5698.0 16:154.0 18:88.0 
0.470703125 0.017578125 0.0205078125 0.0029296875 4:4334.0 12:677490.0 14:66.0 
0.470703125 0.017578125 0.0205078125 0.0029296875 4:3.0 12:47397.0 14:11652.0 
0.470703125 0.017578125 0.0205078125 0.0029296875 12:6803.0 14:8976.0 
0.470703125 0.017578125 0.0205078125 0.0029296875 12:15390.0 14:56.0 
0.470703125 0.017578125 0.0205078125 0.0029296875 1:4774.0 4:1012.0 5:2464.0 9:748.0 12:84524.0 13:77616.0 14:5984.0 16:1518.0 18:462.0 
0.470703125 0.017578125 0.0205078125 0.0029296875 3:889.0 5:203.0 12:220101.0 14:147.0 
0.470703125 0.017578125 0.0205078125 0.0029296875 5:4875.0 12:423900.0 14:400.0 
0.470703125 0.017578125 0.0205078125 0.0029296875 5:12726.0 12:46774.0 14:763.0 16:70.0 
0.470703125 0.017578125 0.0205078125 0.0029296875 3:92.0 4:14.0 5:5904.0 12:38840.0 14:532.0 18:12.0 
0.470703125 0.017578125 0.0205078125 0.0029296875 1:2.0 4:96.0 5:4732.0 12:19040.0 14:670.0 18:16.0 
0.470703125 0.017578125 0.0205078125 0.0029296875 2:3.0 3:3636.0 4:2994.0 5:4971.0 12:13542.0 14:819.0 16:9.0 18:33.0 
0.470703125 0.017578125 0.0205078125 0.0029296875 4:298.0 8:17.0 12:8155.0 14:144.0 
0.470703125 0.017578125 0.0205078125 0.0029296875 5:7348.0 8:154.0 12:177034.0 13:25014.0 14:5126.0 18:660.0 
0.470703125 0.017578125 0.0205078125 0.0029296875 12:18675.0 
0.470703125 0.017578125 0.0205078125 0.0029296875 12:238175.0 
0.470703125 0.017578125 0.0205078125 0.0029296875 3:14.0 5:63.0 7:1299.0 8:16.0 12:10476.0 13:190.0 14:26.0 
0.470703125 0.017578125 0.0205078125 0.0029296875 4:32.0 5:108.0 8:12.0 9:80.0 12:14140.0 14:226.0 
0.470703125 0.017578125 0.0205078125 0.0029296875 4:532.0 5:15512.0 12:17844.0 14:1240.0 18:28.0 
0.470703125 0.017578125 0.0205078125 0.0029296875 1:3806.0 4:5764.0 7:260656.0 11:22.0 12:73084.0 13:20526.0 14:13222.0 
0.470703125 0.017578125 0.0205078125 0.0029296875 1:1452.0 4:88.0 5:29150.0 9:110.0 12:216282.0 14:6820.0 18:264.0 
0.470703125 0.017578125 0.0205078125 0.0029296875 5:81.0 8:42.0 12:8616.0 14:115.0 
0.470703125 0.017578125 0.0205078125 0.0029296875 12:17103.0 14:22707.0 
0.470703125 0.017578125 0.0205078125 0.0029296875 3:900.0 12:386025.0 
0.470703125 0.017578125 0.0205078125 0.0029296875 4:325.0 8:24.0 12:61451.0 14:10.0 
0.470703125 0.017578125 0.0205078125 0.0029296875 3:22.0 4:6.0 5:98.0 12:12658.0 14:78.0 
0.46972656250024203 0.017578125 0.0205078125 0.0029296875 4:176.0 5:1958.0 12:243452.0 13:57486.0 14:11550.0 16:132.0 18:3168.0 
0.46972656250023825 0.017578125 0.0205078125 0.0029296875 12:16056.0 14:245.0 
0.4697265625001759 0.017578125 0.0205078125 0.0029296875 12:26737.0 14:1.0 
0.4697265625001759 0.017578125 0.0205078125 0.0029296875 2:35.0 4:483.0 5:6125.0 8:56.0 12:51793.0 14:1225.0 
0.46972656250008793 0.017578125 0.0205078125 0.0029296875 3:40.0 4:1.0 8:5.0 12:15364.0 14:68.0 
0.46972656250008793 0.017578125 0.0205078125 0.0029296875 1:4.0 4:3.0 7:5196.0 9:23.0 12:12758.0 14:1931.0 
0.46972656250008793 0.017578125 0.0205078125 0.0029296875 3:1.0 4:28.0 5:210.0 12:8668.0 14:96.0 
0.46972656250008793 0.017578125 0.0205078125 0.0029296875 5:2.0 12:21496.0 14:22.0 
0.4697265625 0.017578125 0.0205078125 0.0029296875 3:10.0 12:9424.0 
0.4697265625 0.017578125 0.0205078125 0.0029296875 4:44.0 12:470492.0 13:42482.0 14:1188.0 
0.4697265625 0.017578125 0.0205078125 0.0029296875 3:14.0 4:6.0 5:1553.0 12:10783.0 14:79.0 
0.4697265625 0.017578125 0.0205078125 0.0029296875 5:147.0 7:23856.0 8:9.0 9:6.0 12:7386.0 13:18.0 14:381.0 
0.4697265625 0.017578125 0.0205078125 0.0029296875 1:847.0 3:3241.0 4:1890.0 7:24780.0 9:1274.0 12:46151.0 14:1519.0 18:350.0 
0.4697265625 0.017578125 0.0205078125 0.0029296875 4:50.0 12:234750.0 
0.4697265625 0.017578125 0.0205078125 0.0029296875 12:8853.0 14:44.0 
0.4697265625 0.017578125 0.0205078125 0.0029296875 4:682.0 12:178904.0 
0.4697265625 0.017578125 0.0205078125 0.0029296875 3:364.0 4:28.0 5:3934.0 6:14.0 12:70287.0 14:1498.0 
0.4697265625 0.017578125 0.0205078125 0.0029296875 12:80796.0 14:65.0 
0.4697265625 0.017578125 0.0205078125 0.0029296875 4:98.0 7:52122.0 12:8099.0 13:9184.0 14:3339.0 18:203.0 
0.4697265625 0.017578125 0.0205078125 0.0029296875 3:2375.0 12:207875.0 14:675.0 18:750.0 
0.4697265625 0.017578125 0.0205078125 0.0029296875 3:441.0 4:9.0 5:57.0 12:60180.0 14:1293.0 
0.4697265625 0.017578125 0.0205078125 0.0029296875 12:183025.0 14:22200.0 
0.4697265625 0.017578125 0.0205078125 0.0029296875 12:263050.0 14:6025.0 
0.4697265625 0.017578125 0.0205078125 0.0029296875 1:9.0 4:6.0 5:168.0 12:40890.0 13:1272.0 14:783.0 16:36.0 
0.4697265625 0.017578125 0.0205078125 0.0029296875 1:2.0 4:10.0 9:3.0 12:13732.0 14:16.0 
0.4697265625 0.017578125 0.0205078125 0.0029296875 5:33.0 12:8554.0 
0.4697265625 0.017578125 0.0205078125 0.0029296875 3:12.0 12:46296.0 
0.4697265625 0.017578125 0.0205078125 0.0029296875 4:41.0 5:307.0 7:4621.0 8:36.0 12:4414.0 13:1257.0 14:2210.0 
0.4697265625 0.017578125 0.0205078125 0.0029296875 4:2.0 9:2.0 12:28468.0 
0.4697265625 0.017578125 0.0205078125 0.0029296875 3:178.0 5:85.0 7:4797.0 9:2.0 12:6574.0 14:96.0 20:4481.0 
0.4697265625 0.017578125 0.0205078125 0.0029296875 12:64802.0 14:350.0 
0.4697265625 0.017578125 0.0205078125 0.0029296875 3:3344.0 8:220.0 12:216722.0 14:1848.0 18:3498.0 
0.4697265625 0.017578125 0.0205078125 0.0029296875 1:119.0 3:358.0 4:3.0 9:7.0 12:8935.0 14:2815.0 18:50.0 
0.4697265625 0.017578125 0.0205078125 0.0029296875 12:7916.0 14:632.0 
0.4697265625 0.017578125 0.0205078125 0.0029296875 1:47.0 4:4.0 8:92.0 12:4357.0 14:7628.0 
0.4697265625 0.017578125 0.0205078125 0.0029296875 3:12030.0 12:5478.0 14:1202.0 
0.4697265625 0.017578125 0.0205078125 0.0029296875 4:111.0 5:507.0 8:81.0 9:102.0 12:23271.0 14:687.0 
0.4697265625 0.017578125 0.0205078125 0.0029296875 3:422.0 4:8.0 12:9032.0 14:250.0 
0.4697265625 0.017578125 0.0205078125 0.0029296875 3:19.0 12:17939.0 
0.4697265625 0.017578125 0.0205078125 0.0029296875 4:44.0 5:550.0 9:330.0 12:651090.0 14:286.0 
0.4697265625 0.017578125 0.0205078125 0.0029296875 8:44.0 12:328548.0 14:9350.0 18:902.0 
0.4697265625 0.017578125 0.0205078125 0.0029296875 12:743490.0 16:308.0 
0.4697265625 0.017578125 0.0205078125 0.0029296875 4:44.0 12:33280.0 14:524.0 18:236.0 
0.4697265625 0.017578125 0.0205078125 0.0029296875 12:200486.0 16:154.0 
0.4697265625 0.017578125 0.0205078125 0.0029296875 5:881.0 12:10093.0 14:929.0 18:8.0 
0.4697265625 0.017578125 0.0205078125 0.0029296875 1:1.0 5:664.0 8:2.0 12:9608.0 14:90.0 18:10.0 
0.4697379360075047 0.017578125 0.019531250000026923 0.0029296875 1:8.0 4:9.0 5:656.0 7:2433.0 8:197.0 9:12.0 12:8394.0 
0.4697379360075047 0.017578125 0.019531250000026923 0.0029296875 3:29.0 5:75.0 8:9.0 12:8460.0 14:144.0 
0.4701870291028441 0.017578125 0.0205078125 0.0029296875 5:4150.0 12:377825.0 14:3225.0 
0.4701870291028441 0.017578125 0.0205078125 0.0029296875 1:948.0 4:51.0 12:28005.0 14:12.0 
0.4701870291028441 0.017578125 0.0205078125 0.0029296875 4:63.0 5:4529.0 8:14.0 12:177093.0 13:37170.0 14:2212.0 16:294.0 18:350.0 
0.4701870291028441 0.017578125 0.0205078125 0.0029296875 5:38225.0 8:75.0 12:352000.0 14:74350.0 
0.4701870291028441 0.016797702364608202 0.0205078125 0.0029296875 1:175.0 4:275.0 5:15875.0 9:200.0 12:109300.0 14:75375.0 
0.4701870291028441 0.017062029102830667 0.0205078125 0.0029296875 8:550.0 12:190762.0 14:2222.0 
0.4701870291028441 0.017578125 0.0205078125 0.0029296875 7:15556.0 8:4.0 12:19620.0 14:6640.0 
0.4701870291028441 0.017578125 0.0205078125 0.0029296875 4:9922.0 12:2028466.0 14:3410.0 16:44.0 
0.4701870291028711 0.017578125 0.0205078125 0.0029296875 5:14861.0 12:854.0 14:75.0 
0.4701870291028711 0.017578125 0.0205078125 0.0029296875 3:19.0 4:353.0 5:263.0 12:7585.0 14:96.0 
0.4701870291028711 0.017578125 0.0205078125 0.0029296875 12:103083.0 14:3.0 
0.4701870291028711 0.017578125 0.0205078125 0.0029296875 2:6.0 5:62.0 8:38.0 12:27334.0 14:1336.0 
0.47025842400235224 0.017578125 0.0205078125 0.0029296875 3:26691.0 9:63.0 12:46879.0 14:224.0 16:7.0 20:14.0 
0.47025842400235224 0.017578125 0.0205078125 0.0029296875 4:49.0 8:28.0 12:68705.0 14:658.0 18:126.0 
0.47025842400235224 0.017578125 0.0205078125 0.0029296875 3:65934.0 4:44.0 5:1298.0 8:44.0 12:1117512.0 14:2904.0 
0.47025842400235224 0.017578125 0.0205078125 0.0029296875 3:2275.0 12:246550.0 14:16300.0 18:150.0 
0.47050905354688594 0.017578125 0.0205078125 0.0029296875 3:123.0 5:90.0 12:26874.0 14:129.0 
0.47050905354688594 0.017578125 0.0205078125 0.0029296875 12:26665.0 14:26.0 18:30.0 
0.47050905354688594 0.017578125 0.0205078125 0.0029296875 4:100.0 5:1175.0 7:22950.0 9:400.0 12:309900.0 14:13200.0 18:1100.0 
0.47050905354688594 0.017578125 0.0205078125 0.0029296875 5:45.0 12:18235.0 14:39.0 
0.47050905354688594 0.017578125 0.0205078125 0.0029296875 3:4.0 4:1.0 5:889.0 12:13741.0 14:121.0 
0.47050905354688594 0.017578125 0.0205078125 0.0029296875 3:6864.0 5:22.0 12:167816.0 14:3608.0 16:550.0 
0.47050905354688594 0.017578125 0.0205078125 0.0029296875 3:4488.0 4:22.0 5:18502.0 12:193160.0 14:3300.0 16:176.0 
0.47050905354688594 0.017578125 0.0205078125 0.0029296875 4:16225.0 5:474700.0 12:539675.0 14:1100.0 
0.47070312499999817 0.017578125 0.0205078125 0.0029296875 12:41466.0 14:75.0 16:30.0 
0.47070312499999817 0.017578125 0.0205078125 0.0029296875 1:49.0 5:371.0 7:9646.0 12:55916.0 14:1603.0 16:42.0 
0.47070312499999817 0.017578125 0.0205078125 0.0029296875 4:41646.0 5:1232.0 12:346104.0 14:1518.0 16:418.0 
0.47070312499999817 0.017578125 0.0205078125 0.0029296875 12:268550.0 14:5950.0 
0.47070312499999817 0.017578125 0.0205078125 0.0029296875 5:372.0 12:49222.0 14:206.0 
0.47070312499999817 0.017578125 0.0205078125 0.0029296875 3:27.0 4:54.0 5:528.0 8:2.0 12:17082.0 14:943.0 
0.47070312499999817 0.017578125 0.0205078125 0.0029296875 1:35.0 3:280.0 4:343.0 5:3955.0 12:102760.0 13:6629.0 14:1869.0 18:70.0 
0.47070312499999817 0.017578125 0.0205078125 0.0029296875 12:3204.0 14:31056.0 
0.4697265625 0.017578125 0.0205078125 0.0029296875 8:4.0 12:9474.0 14:4.0 
0.4697265625 0.017578125 0.0205078125 0.0029296875 5:503.0 9:18.0 12:18786.0 14:247.0 
0.4697265625 0.017578125 0.0205078125 0.0029296875 5:5820.0 12:7886.0 14:9.0 18:3.0 
0.4697265625 0.017578125 0.0205078125 0.0029296875 3:1100.0 5:25.0 12:236000.0 14:3500.0 18:1750.0 
0.4697265625 0.017578125 0.0205078125 0.0029296875 1:22.0 3:374.0 5:12694.0 9:726.0 12:192698.0 14:220.0 
0.4697265625 0.017578125 0.0205078125 0.0029296875 1:1400.0 2:189.0 4:35.0 8:7.0 12:61782.0 14:763.0 
0.4697265625 0.017578125 0.0205078125 0.0029296875 5:1247.0 12:6430.0 14:455.0 
0.4697265625 0.017578125 0.0205078125 0.0029296875 5:5709.0 12:3348.0 14:249.0 18:12.0 
0.4697265625 0.017578125 0.0205078125 0.0029296875 5:2968.0 12:62944.0 13:21392.0 14:1869.0 18:644.0 
0.4697265625 0.01660156250004169 0.0205078125 0.0029296875 4:119.0 5:3675.0 12:177436.0 14:973.0 16:14.0 18:70.0 
0.4697265625 0.0166015625 0.0205078125 0.0029296875 4:3.0 5:3.0 8:441.0 9:6.0 12:30204.0 
0.4697265625 0.0166015625 0.0205078125 0.0029296875 3:4.0 4:28.0 9:4.0 12:32636.0 14:200.0 18:12.0 
0.4697265625 0.0166015625 0.0205078125 0.0029296875 1:825.0 4:21.0 5:6210.0 8:6.0 12:49992.0 14:948.0 
0.4697265625 0.0166015625 0.0205078125 0.0029296875 7:611175.0 12:729575.0 14:3025.0 
0.4697265625 0.0166015625 0.0205078125 0.0029296875 8:2.0 12:14256.0 14:306.0 18:94.0 
0.4697265625 0.0166015625 0.0205078125 0.0029296875 1:126.0 4:14.0 12:109158.0 13:3759.0 14:791.0 
0.4697265625 0.0166015625 0.0205078125 0.0029296875 2:15.0 3:276.0 12:24636.0 14:1377.0 18:144.0 
0.4697265625 0.0166015625 0.0205078125 0.0029296875 4:36.0 5:26.0 12:9914.0 
0.4697265625 0.0166015625 0.0205078125 0.0029296875 12:143394.0 13:3.0 14:5628.0 
0.4697265625 0.0166015625 0.0205078125 0.0029296875 3:6.0 4:960.0 5:486.0 9:22.0 12:6930.0 14:424.0 18:116.0 
0.4697265625 0.0166015625 0.0205078125 0.0029296875 5:756.0 7:865.0 9:5.0 12:25584.0 14:504.0 
0.4697265625 0.0166015625 0.0205078125 0.0029296875 5:18431.0 12:5768.0 14:141.0 
0.4697265625 0.0166015625 0.0205078125 0.0029296875 5:6446.0 12:494340.0 14:5522.0 16:396.0 18:286.0 
0.4697265625 0.0166015625 0.0205078125 0.0029296875 2:25.0 5:2060.0 12:7514.0 14:151.0 18:279.0 
0.4697265625 0.0166015625 0.0205078125 0.0029296875 12:106452.0 14:32.0 
0.4697265625 0.0166015625 0.0205078125 0.0029296875 3:14718.0 4:924.0 5:22132.0 12:215952.0 14:1892.0 
0.4697265625 0.0166015625 0.0205078125 0.0029296875 4:32.0 5:601.0 12:8380.0 14:174.0 
0.4697265625 0.0166015625 0.0205078125 0.0029296875 4:25.0 5:519500.0 9:525.0 12:563800.0 14:900.0 
0.4697265625 0.0166015625 0.0205078125 0.0029296875 3:56.0 4:252.0 5:4781.0 12:43036.0 13:14903.0 14:3472.0 
0.4697265625 0.0166015625 0.0205078125 0.0029296875 5:3145.0 12:27269.0 14:41.0 
0.4697265625 0.0166015625 0.0205078125 0.0029296875 3:3.0 4:18.0 5:7199.0 12:10374.0 14:178.0 18:10.0 
0.4697265625 0.0166015625 0.0205078125 0.0029296875 4:1.0 5:7.0 12:7759.0 14:332.0 
0.4697265625 0.0166015625 0.0205078125 0.0029296875 3:950.0 5:4950.0 12:831200.0 14:1950.0 
0.4697265625 0.0166015625 0.0205078125 0.0029296875 3:2838.0 12:264330.0 14:7700.0 
0.4697265625 0.0166015625 0.0205078125 0.0029296875 1:18.0 3:138.0 4:6.0 5:3222.0 12:113967.0 14:252.0 18:72.0 
0.4697265625 0.0166015625 0.0205078125 0.0029296875 5:9812.0 8:440.0 12:164670.0 14:6226.0 18:44.0 
0.4697265625 0.0166015625 0.0205078125 0.0029296875 12:179762.0 14:748.0 
0.4697265625 0.0166015625 0.0205078125 0.0029296875 5:9.0 12:10028.0 14:404.0 
0.4697265625 0.0166015625 0.0205078125 0.0029296875 5:46.0 7:270.0 12:2413.0 14:10957.0 
0.4697265625 0.0166015625 0.0205078125 0.0029296875 3:44.0 4:66.0 5:11176.0 8:44.0 12:197912.0 13:33814.0 14:2860.0 
0.4697265625 0.0166015625 0.0205078125 0.0029296875 4:3.0 12:11469.0 
0.4705090535468859 0.0166015625 0.0205078125 0.0029296875 7:104.0 12:35928.0 14:48.0 16:8.0 
0.47018702910287113 0.0166015625 0.0205078125 0.0029296875 5:217.0 12:426881.0 14:476.0 16:28.0 
0.4701870291028442 0.0166015625 0.0205078125 0.0029296875 5:78.0 12:15422.0 14:20.0 
0.46972656250008804 0.0166015625 0.0205078125 0.0029296875 12:1005554.0 
0.4697265625 0.0166015625 0.0205078125 0.0029296875 1:51.0 4:57.0 5:873.0 8:108.0 12:12801.0 13:33225.0 14:576.0 
0.4697265625 0.0166015625 0.0205078125 0.0029296875 4:2.0 12:9083.0 14:20.0 18:82.0 
0.4697265625 0.0166015625 0.0205078125 0.0029296875 4:1.0 5:590.0 8:2.0 12:10798.0 14:113.0 18:1481.0 
0.4697265625 0.0166015625 0.0205078125 0.0029296875 3:7.0 4:28.0 5:1162.0 9:609.0 12:100492.0 14:4053.0 
0.4697265625 0.0166015625 0.0205078125 0.0029296875 3:14.0 5:5047.0 8:56.0 12:95088.0 14:1442.0 
0.4697265625 0.0166015625 0.0205078125 0.0029296875 12:197890.0 14:2046.0 
0.4697265625 0.0166015625 0.0205078125 0.0029296875 3:2.0 5:2541.0 8:6.0 9:3.0 12:5296.0 14:340.0 
0.4697265625 0.0166015625 0.0205078125 0.0029296875 5:1568.0 12:6928.0 14:502.0 
0.4697265625 0.0166015625 0.0205078125 0.0029296875 3:1.0 4:1092.0 5:100.0 12:8375.0 14:264.0 
0.4697265625 0.0166015625 0.0205078125 0.0029296875 1:119.0 5:147.0 8:28.0 12:1033515.0 13:1421.0 18:49.0 
0.4697265625 0.0166015625 0.0205078125 0.0029296875 3:1.0 5:1107.0 8:30.0 12:7682.0 14:836.0 
0.4697265625 0.0166015625 0.0205078125 0.0029296875 4:3.0 12:11168.0 
0.4697265625 0.0166015625 0.0205078125 0.0029296875 7:34160.0 12:112.0 14:232.0 
0.4697265625 0.0166015625 0.0205078125 0.0029296875 3:285.0 4:6.0 9:159.0 12:15438.0 14:9678.0 18:171.0 
0.4697265625 0.0166015625 0.0205078125 0.0029296875 4:5.0 12:9666.0 14:160.0 
0.4697265625 0.0166015625 0.0205078125 0.0029296875 1:308.0 3:242.0 4:88.0 9:330.0 12:554268.0 14:26664.0 16:1188.0 
0.4697265625 0.0166015625 0.0205078125 0.0029296875 4:814.0 8:308.0 12:251064.0 14:3916.0 
0.4697265625 0.0166015625 0.0205078125 0.0029296875 3:64700.0 4:75.0 7:600.0 9:300.0 12:221050.0 14:8275.0 20:49050.0 
0.4697265625 0.0166015625 0.0205078125 0.0029296875 1:125.0 4:550.0 9:150.0 12:537600.0 14:900.0 
0.4697265625 0.0166015625 0.0205078125 0.0029296875 1:112864.0 4:9060.0 12:10104.0 14:13616.0 
0.4697265625 0.0166015625 0.0205078125 0.0029296875 3:9484.0 7:69.0 8:2.0 12:129.0 
0.4697265625 0.0166015625 0.0205078125 0.0029296875 3:142.0 4:51.0 12:18328.0 14:66.0 
0.4697265625 0.0166015625 0.0205078125 0.0029296875 1:6.0 7:4989.0 12:9019.0 14:79.0 
0.4697265625 0.0166015625 0.0205078125 0.0029296875 5:3660.0 7:1374.0 12:4618.0 14:1250.0 20:10.0 
0.4697265625 0.0166015625 0.0205078125 0.0029296875 5:56.0 7:27076.0 12:3624.0 14:1472.0 
0.4697265625 0.0166015625 0.0205078125 0.0029296875 5:8.0 11:1.0 12:9323.0 14:159.0 
0.4697265625 0.0166015625 0.0205078125 0.0029296875 4:455.0 12:207809.0 14:70.0 
0.4697265625 0.0166015625 0.0205078125 0.0029296875 4:109.0 5:1533.0 12:7257.0 14:130.0 18:30.0 
0.4697265625 0.0166015625 0.0205078125 0.0029296875 4:40.0 5:210.0 12:8050.0 14:172.0 18:4.0 
0.4697265625 0.0166015625 0.0205078125 0.0029296875 12:44667.0 
0.4697265625 0.0166015625 0.0205078125 0.0029296875 3:8.0 4:335.0 5:1213.0 12:8493.0 14:265.0 
0.4697265625 0.0166015625 0.0205078125 0.0029296875 1:220.0 4:748.0 7:189464.0 9:308.0 12:24684.0 14:12342.0 20:308.0 
0.4697265625 0.0166015625 0.0205078125 0.0029296875 12:9522.0 
0.4697265625 0.0166015625 0.0205078125 0.0029296875 1:265.0 3:19.0 4:13.0 5:16869.0 9:5.0 12:3962.0 14:634.0 18:8.0 
0.4697265625 0.0166015625 0.0205078125 0.0029296875 4:22.0 5:1606.0 12:216106.0 14:616.0 16:880.0 
0.4697265625 0.0166015625 0.0205078125 0.0029296875 1:1.0 3:136.0 4:3.0 5:28.0 12:19040.0 14:93.0 15:72.0 18:1.0 
0.4697265625 0.0166015625 0.0205078125 0.0029296875 4:8230.0 8:6.0 12:230.0 14:143.0 
0.4697265625 0.0166015625 0.0205078125 0.0029296875 1:109.0 4:28.0 5:2.0 9:29.0 12:7069.0 14:912.0 18:6.0 
0.4697265625 0.0166015625 0.0205078125 0.0029296875 1:770.0 4:968.0 5:6974.0 12:175736.0 14:33374.0 16:198.0 
0.47025842400235224 0.0166015625 0.0205078125 0.0029296875 1:47.0 4:34.0 7:6413.0 9:14.0 12:7025.0 14:202.0 
0.47025842400235224 0.0166015625 0.0205078125 0.0029296875 3:35.0 8:8.0 12:8501.0 14:183.0 
0.47050905354688594 0.0166015625 0.0205078125 0.0029296875 3:9.0 4:203.0 8:9.0 12:10655.0 
0.47050905354688594 0.0166015625 0.0205078125 0.0029296875 1:11.0 4:3.0 12:6656.0 14:1721.0 
0.47050905354688594 0.0166015625 0.0205078125 0.0029296875 12:10868.0 
0.47050905354688594 0.0166015625 0.0205078125 0.0029296875 5:86.0 12:11852.0 14:61.0 
0.47070312499999817 0.0166015625 0.0205078125 0.0029296875 1:15.0 3:2.0 4:44.0 5:236.0 8:6.0 9:25.0 12:8294.0 14:419.0 
0.47070312499999817 0.0166015625 0.0205078125 0.0029296875 12:18099.0 14:5787.0 
0.47070312499999817 0.0166015625 0.0205078125 0.0029296875 5:90.0 8:42.0 12:19956.0 13:993.0 14:1080.0 18:5691.0 
0.47070312499999817 0.0166015625 0.0205078125 0.0029296875 3:8.0 5:37.0 12:10740.0 14:209.0 18:17.0 
0.4697265625 0.0166015625 0.0205078125 0.0029296875 12:15417.0 
0.4697265625 0.0166015625 0.0205078125 0.0029296875 5:1854.0 12:10278.0 14:13170.0 18:54.0 
0.4697265625 0.0166015625 0.0205078125 0.0029296875 7:74452.0 8:21.0 12:27489.0 18:16926.0 
0.4697265625 0.0166015625 0.0205078125 0.0029296875 1:14.0 5:840.0 12:61152.0 14:392.0 16:42.0 
0.4697265625 0.0166015625 0.0205078125 0.0029296875 1:150.0 3:575.0 5:12750.0 12:180425.0 14:3450.0 18:250.0 
0.4697265625 0.0166015625 0.0205078125 0.0029296875 4:180.0 12:27507.0 14:366.0 20:318.0 
0.4697265625 0.0166015625 0.0205078125 0.0029296875 1:6.0 5:2376.0 7:2169.0 8:18.0 12:21669.0 14:1167.0 18:642.0 
0.4697265625 0.0166015625 0.0205078125 0.0029296875 2:22.0 4:1078.0 5:24662.0 7:137962.0 12:125708.0 13:53284.0 14:5346.0 16:220.0 18:726.0 
0.4697265625 0.0166015625 0.0205078125 0.0029296875 5:15026.0 12:208428.0 14:4884.0 
0.4697265625 0.0166015625 0.0205078125 0.0029296875 3:10.0 4:3.0 5:5403.0 12:5170.0 14:228.0 18:14.0 
0.4697265625 0.0166015625 0.0205078125 0.0029296875 3:36.0 4:18.0 5:1068.0 12:34965.0 14:135.0 
0.4697265625 0.0166015625 0.0205078125 0.0029296875 1:550.0 12:2313775.0 14:8700.0 
0.4697265625 0.0166015625 0.0205078125 0.0029296875 5:6804.0 12:86765.0 13:117033.0 14:4221.0 16:133.0 
0.4697265625 0.0166015625 0.0205078125 0.0029296875 4:7299.0 5:4.0 12:698.0 14:1028.0 20:7.0 
0.4697265625 0.0166015625 0.0205078125 0.0029296875 4:8.0 5:346.0 12:10496.0 14:132.0 
0.4697265625 0.0166015625 0.0205078125 0.0029296875 4:7.0 5:2744.0 12:92974.0 14:1064.0 
0.4697265625 0.0166015625 0.0205078125 0.0029296875 1:174.0 12:25908.0 14:591.0 
0.4697265625 0.0166015625 0.0205078125 0.0029296875 5:532.0 9:91.0 12:50029.0 14:9471.0 
0.4697265625 0.0166015625 0.0205078125 0.0029296875 3:24.0 12:44550.0 
0.4697265625 0.0166015625 0.0205078125 0.0029296875 4:22.0 5:16170.0 12:158422.0 14:7634.0 18:176.0 
0.4697265625 0.0166015625 0.0205078125 0.0029296875 4:2317.0 5:2380.0 12:61075.0 14:3871.0 16:14.0 
0.4697265625 0.0166015625 0.0205078125 0.0029296875 4:1950.0 5:23550.0 9:250.0 12:172375.0 14:3100.0 18:725.0 
0.4697265625 0.0166015625 0.0205078125 0.0029296875 3:150.0 4:4725.0 5:26925.0 8:25.0 12:179175.0 14:2475.0 18:250.0 
0.4697265625 0.0166015625 0.0205078125 0.0029296875 1:200.0 12:312050.0 14:2050.0 
0.4697265625 0.0166015625 0.0205078125 0.0029296875 1:110.0 4:3.0 5:61.0 12:42740.0 14:256.0 20:102.0 
0.4701870291028442 0.0166015625 0.0205078125 0.0029296875 4:20.0 12:69120.0 
0.4697265625 0.0166015625 0.0205078125 0.0029296875 1:3564.0 4:264.0 8:44.0 12:242264.0 13:66506.0 14:7370.0 
0.4697265625 0.0166015625 0.0205078125 0.0029296875 5:1184.0 12:106516.0 14:1088.0 
0.4697265625 0.0166015625 0.0205078125 0.0029296875 3:204.0 5:154.0 9:7.0 12:75589.0 14:54.0 18:1.0 
0.4697265625 0.0166015625 0.0205078125 0.0029296875 3:66.0 5:352.0 8:330.0 12:506110.0 14:2134.0 
0.4697265625 0.0166015625 0.0205078125 0.0029296875 3:6.0 4:12.0 5:10.0 12:13063.0 14:310.0 18:1.0 
0.4697265625 0.0166015625 0.0205078125 0.0029296875 1:4575.0 4:125.0 5:950.0 7:25.0 9:525.0 12:239175.0 14:12725.0 18:250.0 20:2400.0 
0.4697265625 0.0166015625 0.0205078125 0.0029296875 4:40.0 12:9621.0 
0.4697265625 0.0166015625 0.0205078125 0.0029296875 1:24.0 4:3321.0 9:6.0 12:19506.0 14:972.0 18:66.0 
0.4697265625 0.0166015625 0.0205078125 0.0029296875 3:22.0 4:97944.0 5:264.0 12:170676.0 14:3454.0 
0.4697265625 0.0166015625 0.0205078125 0.0029296875 4:18.0 5:78.0 12:23805.0 14:606.0 
0.4697265625 0.0166015625 0.0205078125 0.0029296875 4:112.0 8:7.0 9:101.0 12:11058.0 14:10.0 
0.4697265625 0.0166015625 0.0205078125 0.0029296875 4:22.0 9:44.0 12:75856.0 13:97372.0 14:6204.0 18:198.0 
0.4697265625 0.0166015625 0.0205078125 0.0029296875 12:8208.0 14:81.0 18:4.0 
0.4697265625 0.0166015625 0.0205078125 0.0029296875 4:18.0 7:15459.0 12:7500.0 14:867.0 
0.4697265625 0.0166015625 0.0205078125 0.0029296875 3:22.0 4:24.0 12:2872.0 14:16930.0 
0.4707031249999981 0.0166015625 0.0205078125 0.0029296875 1:75.0 7:449800.0 12:11150.0 14:205650.0 
0.4707031249999981 0.0166015625 0.0205078125 0.0029296875 3:203.0 4:17.0 5:943.0 12:16598.0 14:675.0 
0.4697265625 0.0166015625 0.0205078125 0.0029296875 1:118.0 4:78.0 5:534.0 9:20.0 12:8746.0 14:879.0 
0.4697265625 0.0166015625 0.0205078125 0.0029296875 1:2000.0 2:50.0 3:7250.0 4:14400.0 8:50.0 9:1300.0 12:275550.0 14:7400.0 
0.4697265625 0.0166015625 0.0205078125 0.0029296875 12:24787.0 
0.4697265625 0.0166015625 0.0205078125 0.0029296875 4:932.0 5:2664.0 9:4520.0 12:37156.0 14:1976.0 18:36.0 
0.4697265625 0.0166015625 0.0205078125 0.0029296875 5:123.0 9:4.0 12:7753.0 14:96.0 
0.4697265625 0.0166015625 0.0205078125 0.0029296875 4:95.0 5:682.0 12:8496.0 14:174.0 18:12.0 
0.4697265625 0.0166015625 0.0205078125 0.0029296875 1:572.0 4:2728.0 5:149006.0 12:85690.0 14:5962.0 18:2926.0 
0.4697265625 0.0166015625 0.0205078125 0.0029296875 1:5720.0 4:902.0 5:5148.0 9:220.0 12:147862.0 13:113806.0 14:2068.0 
0.4697265625 0.0166015625 0.0205078125 0.0029296875 3:1809.0 4:39.0 5:3810.0 12:47484.0 14:366.0 18:117.0 
0.4697265625 0.0166015625 0.0205078125 0.0029296875 3:217.0 12:33649.0 14:276.0 
0.4697265625 0.0166015625 0.0205078125 0.0029296875 1:198.0 9:66.0 12:274890.0 14:660.0 
0.4697265625 0.0166015625 0.0205078125 0.0029296875 4:4.0 9:1.0 12:16899.0 14:3853.0 
0.4697265625 0.0166015625 0.0205078125 0.0029296875 3:1376.0 4:236.0 12:24080.0 14:35656.0 
0.4697265625 0.0166015625 0.0205078125 0.0029296875 4:75.0 9:700.0 12:854425.0 14:20325.0 
0.4697265625 0.0166015625 0.0205078125 0.0029296875 3:42272.0 5:46.0 12:5396.0 14:516.0 
0.4697265625 0.0166015625 0.0205078125 0.0029296875 4:792.0 5:18480.0 9:440.0 12:411774.0 14:4774.0 
0.4697265625 0.0166015625 0.0205078125 0.0029296875 3:792.0 4:22.0 5:6446.0 9:1122.0 12:274758.0 14:4488.0 18:132.0 
0.4697265625 0.0166015625 0.0205078125 0.0029296875 1:181.0 3:76.0 4:10.0 7:31.0 9:31.0 12:10267.0 14:160.0 
0.4697265625 0.0166015625 0.0205078125 0.0029296875 4:124.0 5:614.0 8:410.0 12:6693.0 18:68.0 
0.4697265625 0.0166015625 0.019531250000026923 0.002929687500006717 12:10155.0 14:165.0 
-1.0 0.0361328125 0.04296875 0.005859375 3:96.0 12:39430.0 
-1.0 0.0361328125 0.04296875 0.005859375 4:465.0 12:6116.0 13:91208.0 14:83.0 20:1.0 
-1.0 0.0361328125 0.04296875 0.005859375 2:20.0 7:7048.0 12:575.0 14:1174.0 18:71.0 
-1.0 0.0361328125 0.04296875 0.005859375 12:15328.0 14:546.0 
-1.0 0.0361328125 0.04296875 0.005859375 12:27954.0 14:480.0 
-1.0 0.0361328125 0.04296875 0.005859375 5:46.0 8:26.0 12:23698.0 14:184.0 
-1.0 0.0361328125 0.04296875 0.005859375 8:2592.0 12:80508.0 
-1.0 0.0361328125 0.04296875 0.005859375 4:6.0 12:29323.0 18:6.0 
-1.0 0.0361328125 0.04296875 0.005859375 4:4.0 8:8.0 12:18064.0 14:130.0 
-1.0 0.0361328125 0.04296875 0.005859375 12:26480.0 14:268.0 
-1.0 0.0361328125 0.04296875 0.005859375 4:22.0 12:18770.0 14:62.0 
-1.0 0.0361328125 0.04296875 0.005859375 3:2.0 5:762.0 8:31.0 12:4756.0 14:2568.0 18:2.0 
-1.0 0.0361328125 0.04296875 0.005859375 4:273.0 12:326148.0 14:1017.0 
-1.0 0.0361328125 0.04296875 0.005859375 5:3010.0 12:515130.0 14:1176.0 
-1.0 0.0361328125 0.04296875 0.005859375 8:726.0 12:191389.0 14:44.0 
-1.0 0.0361328125 0.04296875 0.005859375 8:18780.0 12:8790.0 14:47772.0 
-1.0 0.0361328125 0.04296875 0.005859375 12:131043.0 
-1.0 0.0361328125 0.04296875 0.005859375 12:15824.0 
-1.0 0.0361328125 0.04296875 0.005859375 12:9365.0 14:163.0 
-1.0 0.0361328125 0.04296875 0.005859375 12:62290.0 
-1.0 0.0361328125 0.04296875 0.005859375 5:70.0 12:93030.0 14:250698.0 
-1.0 0.0361328125 0.04296875 0.005859375 12:36176.0 14:31.0 
-1.0 0.0361328125 0.04296875 0.005859375 8:2240.0 12:178784.0 14:16.0 
-1.0 0.0361328125 0.04296875 0.005859375 3:40377.0 
-1.0 0.0361328125 0.04296875 0.005859375 12:266254.0 
-1.0 0.0361328125 0.04296875 0.005859375 3:56.0 12:10872.0 14:8050.0 
-1.0 0.0361328125 0.04296875 0.005859375 8:1686.0 12:8072.0 14:1279.0 
-1.0 0.0361328125 0.04296875 0.005859375 1:125.0 5:55.0 8:2.0 12:21878.0 14:189.0 18:795.0 
-1.0 0.0361328125 0.04296875 0.005859375 5:56.0 12:103364.0 13:1.0 14:212.0 
-1.0 0.0361328125 0.04296875 0.005859375 12:9889.0 14:170.0 
-1.0 0.0361328125 0.04296875 0.005859375 12:9017.0 14:2.0 
-1.0 0.0361328125 0.04296875 0.005859375 12:9831.0 
-1.0 0.0361328125 0.04296875 0.005859375 12:33633.0 
-1.0 0.0361328125 0.04296875 0.005859375 12:17380.0 14:386.0 
-1.0 0.0361328125 0.04296875 0.005859375 12:19466.0 
-1.0 0.0361328125 0.04296875 0.005859375 5:9.0 12:23139.0 14:6603.0 
-1.0 0.0361328125 0.04296875 0.005859375 5:7098.0 12:589050.0 14:28.0 
-1.0 0.0361328125 0.04296875 0.005859375 12:11829.0 
-1.0 0.0361328125 0.04296875 0.005859375 1:2.0 3:3124.0 4:10.0 12:18082.0 14:184.0 
-1.0 0.0361328125 0.04296875 0.005859375 12:192976.0 14:3038.0 
-1.0 0.0361328125 0.04296875 0.005859375 12:90531.0 
-1.0 0.0361328125 0.04296875 0.005859375 8:21392.0 12:48839.0 
-1.0 0.0361328125 0.04296875 0.005859375 8:45111.0 12:43461.0 14:88.0 
-1.0 0.0361328125 0.04296875 0.005859375 8:68192.0 12:156.0 
-1.0 0.0361328125 0.04296875 0.005859375 12:305354.0 
-1.0 0.0361328125 0.04296875 0.005859375 8:4.0 12:15632.0 14:162.0 
-1.0 0.0361328125 0.04296875 0.0068359375 4:202.0 12:905394.0 14:996.0 
-1.0 0.0361328125 0.04296875 0.0068359375 8:2.0 12:9291.0 14:101.0 18:6.0 
-1.0 0.0361328125 0.04296875 0.0068359375 12:19117.0 
-1.0 0.0361328125 0.04296875 0.0068359375 12:66258.0 
-1.0 0.0361328125 0.04296875 0.0068359375 4:214.0 5:562.0 12:18440.0 14:308.0 
-1.0 0.0361328125 0.04296875 0.0068359375 12:7962.0 
-1.0 0.0361328125 0.04296875 0.0068359375 5:46.0 12:136100.0 14:23660.0 
-1.0 0.0361328125 0.04296875 0.0068359375 12:25347.0 
-1.0 0.0361328125 0.04296875 0.0068359375 12:4304.0 14:12110.0 
-1.0 0.0361328125 0.04296875 0.0068359375 12:3962.0 14:9523.0 
-1.0 0.0361328125 0.04296875 0.0068359375 3:238.0 12:16034.0 14:236.0 18:68.0 
-1.0 0.0361328125 0.04296875 0.0068359375 12:29664.0 
-1.0 0.0361328125 0.04296875 0.0068359375 4:512.0 9:180.0 12:9488.0 14:6598.0 
-1.0 0.0361328125 0.04296875 0.0068359375 8:2035.0 12:104357.0 14:33.0 
-1.0 0.0361328125 0.04296875 0.0068359375 12:12431.0 
-1.0 0.0361328125 0.04296875 0.0068359375 12:75920.0 14:20.0 
-1.0 0.0361328125 0.04296875 0.0068359375 12:27022.0 
-1.0 0.0361328125 0.04296875 0.0068359375 5:384.0 9:20.0 12:18154.0 14:670.0 
-1.0 0.0361328125 0.04296875 0.0068359375 12:69578.0 14:326.0 
-1.0 0.0361328125 0.04296875 0.0068359375 5:48.0 9:7.0 12:11608.0 14:963.0 18:5.0 
-1.0 0.0361328125 0.04296875 0.0068359375 2:10.0 10:2.0 12:42758.0 14:620.0 18:14.0 
-1.0 0.0361328125 0.04296875 0.0068359375 8:6.0 12:12939.0 14:1.0 
-1.0 0.0361328125 0.04296875 0.0068359375 12:12281.0 14:86.0 
-1.0 0.0361328125 0.04296875 0.0068359375 3:238.0 12:23122.0 14:108.0 
-1.0 0.0361328125 0.04296875 0.0068359375 8:4862.0 12:116325.0 14:209.0 
-1.0 0.0361328125 0.04296875 0.0068359375 5:1324.0 12:42331.0 14:121.0 
-1.0 0.0361328125 0.04296875 0.0068359375 12:8892.0 14:197.0 
-1.0 0.0361328125 0.04296875 0.0068359375 12:45190.0 
-1.0 0.0361328125 0.0439453125 0.0068359375 8:1769479.0 12:34289.0 
-1.0 0.0361328125 0.0439453125 0.0068359375 3:1.0 4:13.0 5:1425.0 12:8569.0 14:6.0 
-1.0 0.0361328125 0.0439453125 0.0068359375 12:116634.0 14:1512.0 
-1.0 0.0361328125 0.0439453125 0.0068359375 1:38.0 3:252.0 8:4.0 9:12.0 12:19192.0 14:100.0 
-1.0 0.0361328125 0.0439453125 0.0068359375 4:182.0 5:5754.0 12:135198.0 
-1.0 0.0361328125 0.0439453125 0.0068359375 12:438.0 14:8393.0 
-1.0 0.0361328125 0.04296875 0.0068359375 1:9790.0 9:75.0 12:51230.0 14:130.0 
-1.0 0.0361328125 0.04296875 0.0068359375 1:390.0 3:26390.0 8:71630.0 9:11050.0 10:3120.0 11:43030.0 12:200980.0 13:2264470.0 15:8060.0 17:780.0 
-1.0 0.0361328125 0.04296875 0.0068359375 1:1212.0 4:192.0 12:30108.0 14:7170.0 
-1.0 0.0361328125 0.04296875 0.0068359375 1:2.0 12:51680.0 14:27.0 
-1.0 0.0361328125 0.04296875 0.0068359375 12:125986.0 14:3542.0 
-1.0 0.0361328125 0.04296875 0.0068359375 5:68.0 12:39078.0 
-1.0 0.0361328125 0.04296875 0.0068359375 12:14378.0 14:106092.0 
-1.0 0.0361328125 0.04296875 0.0068359375 12:15472.0 14:388.0 
-1.0 0.0361328125 0.04296875 0.0068359375 12:23636.0 
-1.0 0.0361328125 0.04296875 0.0068359375 4:112.0 9:23.0 12:20549.0 14:5.0 
-1.0 0.0361328125 0.04296875 0.0068359375 12:504.0 14:189364.0 
-1.0 0.0361328125 0.04296875 0.0068359375 3:24.0 5:608.0 12:41304.0 
-1.0 0.0361328125 0.04296875 0.0068359375 12:80091.0 14:17202.0 
-1.0 0.0361328125 0.04296875 0.0068359375 8:7051.0 12:162448.0 
-1.0 0.0361328125 0.04296875 0.0068359375 8:63008.0 14:152.0 
-1.0 0.0361328125 0.04296875 0.0068359375 8:45.0 12:50769.0 
-1.0 0.0361328125 0.04296875 0.0068359375 12:44882.0 
-1.0 0.0361328125 0.04296875 0.0068359375 1:5.0 3:22.0 7:214.0 12:21869.0 14:147.0 
-1.0 0.0361328125 0.04296875 0.0068359375 12:74431.0 
-1.0 0.0361328125 0.04296875 0.0068359375 12:37614.0 
-1.0 0.0361328125 0.04296875 0.0068359375 3:5980.0 5:463.0 12:1665.0 14:137.0 
-1.0 0.0361328125 0.04296875 0.0068359375 8:1089.0 12:116699.0 
-1.0 0.037109375 0.04296875 0.0068359375 12:26296.0 14:524.0 
-1.0 0.037109375 0.04296875 0.0068359375 4:147.0 8:6.0 12:39198.0 14:705.0 
-1.0 0.037109375 0.04296875 0.0068359375 5:254.0 12:47094.0 14:4688.0 
-1.0 0.037109375 0.04296875 0.0068359375 5:1774.0 12:14716.0 14:36.0 
-1.0 0.037109375 0.04296875 0.0068359375 5:8036.0 9:40.0 12:22220.0 18:154.0 
-1.0 0.037109375 0.04296875 0.0068359375 7:9072.0 9:24.0 12:862.0 14:256.0 
-1.0 0.037109375 0.04296875 0.0068359375 1:50.0 4:12.0 12:20424.0 14:58.0 20:2.0 
-1.0 0.037109375 0.04296875 0.0068359375 1:5.0 4:1.0 7:131.0 12:1205.0 14:7547.0 
-1.0 0.037109375 0.04296875 0.0068359375 2:50.0 3:4.0 5:408.0 12:15844.0 14:186.0 
-1.0 0.037109375 0.04296875 0.0068359375 5:5.0 9:13.0 12:7543.0 14:3091.0 
-1.0 0.037109375 0.04296875 0.0068359375 8:587554.0 14:102.0 
-1.0 0.037109375 0.04296875 0.0068359375 12:121781.0 
-1.0 0.037109375 0.04296875 0.0068359375 12:8547.0 
-1.0 0.037109375 0.04296875 0.0068359375 3:157.0 12:9028.0 
-1.0 0.037109375 0.04296875 0.0068359375 5:57600.0 12:7725.0 14:222.0 
-1.0 0.037109375 0.04296875 0.0068359375 8:8008.0 12:72597.0 
-1.0 0.037109375 0.04296875 0.0068359375 12:21748.0 14:58.0 
-1.0 0.037109375 0.04296875 0.0068359375 9:38.0 12:90212.0 14:484.0 
-1.0 0.037109375 0.04296875 0.0068359375 4:3848.0 12:6908.0 14:1.0 
-1.0 0.037109375 0.04296875 0.0068359375 1:2.0 5:34.0 12:72512.0 14:106.0 
-1.0 0.037109375 0.04296875 0.0068359375 12:140692.0 
-1.0 0.037109375 0.04296875 0.0068359375 12:29547.0 
-1.0 0.037109375 0.04296875 0.0068359375 1:520.0 2:1300.0 3:29640.0 4:47060.0 5:5070.0 6:346190.0 7:691080.0 8:147030.0 9:179790.0 12:128830.0 13:30810.0 15:35360.0 18:82030.0 
-1.0 0.037109375 0.04296875 0.0068359375 12:20082.0 14:23.0 
-1.0 0.037109375 0.04296875 0.0068359375 12:79336.0 
-1.0 0.037109375 0.04296875 0.0068359375 12:76888.0 
-1.0 0.037109375 0.04296875 0.0068359375 4:18.0 12:45362.0 
-1.0 0.037109375 0.04296875 0.0068359375 4:4.0 7:966.0 12:11623.0 14:626.0 
-1.0 0.037109375 0.04296875 0.0068359375 12:209452.0 
-1.0 0.037109375 0.04296875 0.0068359375 3:6.0 4:6.0 5:17.0 12:26825.0 
-1.0 0.037109375 0.04296875 0.0068359375 5:28.0 12:30740.0 14:38.0 
-1.0 0.037109375 0.04296875 0.0068359375 8:1704.0 12:308304.0 14:9.0 
-1.0 0.037109375 0.04296875 0.0068359375 1:4.0 3:42.0 4:86.0 8:714.0 12:24574.0 
-1.0 0.037109375 0.04296875 0.0068359375 3:4732.0 4:14.0 5:3276.0 7:11228.0 12:94948.0 14:9296.0 
-1.0 0.037109375 0.04296875 0.0068359375 8:56.0 12:330512.0 
-1.0 0.037109375 0.04296875 0.0068359375 5:538.0 12:3834.0 14:14084.0 
-1.0 0.037109375 0.04296875 0.0068359375 5:56.0 12:161322.0 14:1876.0 
-1.0 0.037109375 0.04296875 0.0068359375 8:135376.0 12:120.0 14:40.0 
-1.0 0.037109375 0.04296875 0.0068359375 5:672.0 7:788.0 12:24516.0 14:214.0 
-1.0 0.037109375 0.04296875 0.0068359375 3:12.0 4:7514.0 5:1632.0 8:4.0 12:7168.0 14:596.0 
-1.0 0.037109375 0.04296875 0.0068359375 8:319.0 12:209176.0 
-1.0 0.037109375 0.04296875 0.0068359375 4:2.0 12:22718.0 
-1.0 0.037109375 0.04296875 0.0068359375 4:76.0 5:37.0 12:7914.0 14:235.0 
-1.0 0.037109375 0.04296875 0.0068359375 7:1040.0 12:14036.0 14:1220.0 
-1.0 0.037109375 0.04296875 0.0068359375 1:90.0 8:30.0 12:89705.0 14:135.0 
-1.0 0.037109375 0.04296875 0.0068359375 8:198407.0 12:3091.0 
-1.0 0.037109375 0.04296875 0.0068359375 8:114.0 12:75704.0 14:94.0 18:114.0 
-1.0 0.037109375 0.04296875 0.0068359375 3:658.0 5:2422.0 12:179340.0 14:2996.0 
-1.0 0.037109375 0.04296875 0.0068359375 12:44667.0 14:9051.0 
-1.0 0.037109375 0.04296875 0.0068359375 12:235232.0 
-1.0 0.037109375 0.04296875 0.0068359375 5:383.0 7:1063.0 12:9233.0 14:162.0 
-1.0 0.037109375 0.04296875 0.0068359375 12:8177.0 14:270.0 
-1.0 0.037109375 0.04296875 0.0068359375 3:36.0 4:44.0 12:210494.0 
-1.0 0.037109375 0.04296875 0.0068359375 12:22288.0 14:12.0 
-1.0 0.037109375 0.04296875 0.0068359375 1:8.0 6:70.0 12:112782.0 14:140.0 
-1.0 0.037109375 0.04296875 0.0068359375 12:72303.0 18:3.0 
-1.0 0.037109375 0.04296875 0.0068359375 3:12.0 12:51453.0 14:117.0 
-1.0 0.037109375 0.04296875 0.0068359375 12:243298.0 
-1.0 0.037109375 0.04296875 0.0068359375 12:7995.0 14:555.0 18:8.0 
-1.0 0.037109375 0.04296875 0.0068359375 3:504.0 5:1792.0 12:124292.0 14:2016.0 
-1.0 0.037109375 0.04296875 0.0068359375 12:10726.0 
-1.0 0.037109375 0.04296875 0.0068359375 12:232216.0 
-1.0 0.037109375 0.04296875 0.005859375 1:1.0 9:2.0 12:17674.0 
-1.0 0.037109375 0.04296875 0.005859375 7:12.0 12:34414.0 14:354.0 
-1.0 0.037109375 0.04296875 0.005859375 9:9.0 12:8169.0 
-1.0 0.037109375 0.04296875 0.005859375 12:18726.0 
-1.0 0.037109375 0.04296875 0.005859375 12:8110.0 14:27.0 
-1.0 0.037109375 0.04296875 0.005859375 5:18472.0 12:14722.0 14:130.0 
-1.0 0.037109375 0.04296875 0.005859375 8:84.0 12:183036.0 
-1.0 0.037109375 0.04296875 0.005859375 8:196504.0 12:13167.0 
-1.0 0.037109375 0.04296875 0.005859375 12:110055.0 
-1.0 0.037109375 0.04296875 0.005859375 1:2.0 7:12352.0 9:24.0 12:1342.0 14:3884.0 
-1.0 0.037109375 0.04296875 0.005859375 12:155274.0 14:7140.0 
-1.0 0.037109375 0.04296875 0.005859375 12:32376.0 14:771.0 
-1.0 0.037109375 0.04296875 0.005859375 3:24294.0 5:238.0 12:986.0 14:92.0 
-1.0 0.037109375 0.04296875 0.005859375 8:127512.0 14:55.0 
-1.0 0.037109375 0.04296875 0.005859375 12:41634.0 
-1.0 0.037109375 0.04296875 0.005859375 8:105.0 12:45825.0 
-1.0 0.037109375 0.04296875 0.005859375 5:469.0 8:2.0 12:19129.0 14:113.0 
-1.0 0.037109375 0.04296875 0.005859375 8:455396.0 12:170.0 14:34.0 
-1.0 0.037109375 0.04296875 0.005859375 4:482.0 5:308.0 12:43114.0 14:418.0 
-1.0 0.037109375 0.04296875 0.005859375 12:142798.0 
-1.0 0.037109375 0.04296875 0.0068359375 5:445.0 12:46345.0 14:470.0 
-1.0 0.037109375 0.04296875 0.0068359375 12:279374.0 14:472.0 
-1.0 0.037109375 0.04296875 0.0068359375 4:12.0 12:72162.0 14:10.0 
-1.0 0.037109375 0.04296875 0.0068359375 1:224.0 4:16.0 5:232.0 8:16.0 9:92.0 12:15702.0 14:300.0 
-1.0 0.037109375 0.04296875 0.0068359375 3:1.0 4:158.0 8:19.0 12:11221.0 14:315.0 
-1.0 0.037109375 0.04296875 0.0068359375 3:5.0 12:181665.0 14:945.0 
-1.0 0.037109375 0.04296875 0.0068359375 1:18.0 7:9812.0 12:9570.0 14:30.0 
-1.0 0.037109375 0.04296875 0.0068359375 1:496.0 4:11.0 7:10517.0 12:1667.0 
-1.0 0.0361328125 0.04296875 0.0068359375 12:57084.0 
-1.0 0.0361328125 0.04296875 0.0068359375 4:18.0 5:692.0 9:5.0 12:13967.0 13:1172.0 14:172.0 
-1.0 0.0361328125 0.04296875 0.0068359375 8:2.0 9:16.0 12:25746.0 14:1584.0 
-1.0 0.0361328125 0.04296875 0.0068359375 8:99.0 12:125565.0 14:11.0 
-1.0 0.0361328125 0.04296875 0.0068359375 5:31.0 12:10428.0 
-1.0 0.0361328125 0.04296875 0.0068359375 8:13277.0 12:93885.0 14:198.0 
-1.0 0.0361328125 0.04296875 0.0068359375 1:438.0 12:24866.0 14:100.0 
-1.0 0.0361328125 0.04296875 0.0068359375 8:340356.0 12:738.0 14:180.0 
-1.0 0.0361328125 0.04296875 0.0068359375 8:11704.0 12:110517.0 14:99.0 
-1.0 0.0361328125 0.04296875 0.0068359375 5:3246.0 12:5739.0 14:217.0 18:12.0 
-1.0 0.0361328125 0.04296875 0.0068359375 12:482132.0 
-1.0 0.0361328125 0.04296875 0.0068359375 12:40460.0 14:145026.0 
-1.0 0.0361328125 0.04296875 0.0068359375 5:2072.0 7:59448.0 9:88.0 12:65504.0 14:32.0 18:376.0 
-1.0 0.0361328125 0.04296875 0.0068359375 12:111356.0 14:2926.0 
-1.0 0.0361328125 0.04296875 0.0068359375 5:1089.0 9:24.0 12:19435.0 14:3580.0 
-1.0 0.0361328125 0.04296875 0.0068359375 8:51.0 12:697.0 14:162928.0 
-1.0 0.0361328125 0.04296875 0.0068359375 3:12.0 5:54.0 12:85554.0 
-1.0 0.0361328125 0.04296875 0.0068359375 8:1539.0 12:548150.0 14:266.0 
-1.0 0.0361328125 0.04296875 0.0068359375 8:120.0 12:58056.0 
-1.0 0.0361328125 0.04296875 0.0068359375 8:1056.0 12:106348.0 14:7898.0 
-1.0 0.0361328125 0.04296875 0.0068359375 12:595546.0 14:350.0 
-1.0 0.0361328125 0.04296875 0.0068359375 12:82150.0 
-1.0 0.0361328125 0.04296875 0.0068359375 12:92092.0 
-1.0 0.0361328125 0.04296875 0.0068359375 8:3377.0 12:344960.0 14:66.0 
-1.0 0.0361328125 0.04296875 0.0068359375 3:12.0 5:825.0 12:7336.0 14:132.0 
-1.0 0.0361328125 0.04296875 0.0068359375 5:156.0 12:49502.0 14:18.0 
-1.0 0.0361328125 0.04296875 0.0068359375 3:105.0 5:2247.0 12:21114.0 
-1.0 0.0361328125 0.04296875 0.0068359375 12:16306.0 
-1.0 0.0361328125 0.04296875 0.0068359375 12:390500.0 
-1.0 0.0361328125 0.04296875 0.0068359375 5:6.0 12:42284.0 
-1.0 0.0361328125 0.04296875 0.0068359375 12:17866.0 
-1.0 0.0361328125 0.04296875 0.0068359375 3:2.0 5:866.0 12:14928.0 
-1.0 0.0361328125 0.04296875 0.0068359375 3:4.0 5:94.0 8:4.0 12:15990.0 14:566.0 
-1.0 0.0361328125 0.04296875 0.0068359375 4:3710.0 7:103362.0 12:17626.0 14:2142.0 
-1.0 0.0361328125 0.04296875 0.0068359375 5:16715.0 12:36200.0 14:2605.0 18:90.0 
-1.0 0.0361328125 0.04296875 0.0068359375 4:9.0 9:75.0 12:30546.0 14:462.0 
-1.0 0.0361328125 0.04296875 0.0068359375 12:128665.0 14:2205.0 
-1.0 0.0361328125 0.04296875 0.0068359375 12:22794.0 14:2.0 
-1.0 0.0361328125 0.04296875 0.0068359375 12:48038.0 14:506.0 
-1.0 0.0361328125 0.04296875 0.0068359375 12:70374.0 
-1.0 0.0361328125 0.04296875 0.0068359375 2:5.0 3:2.0 4:6605.0 12:1555.0 14:45.0 
-1.0 0.0361328125 0.04296875 0.0068359375 8:26766.0 12:11622.0 14:61968.0 
-1.0 0.0361328125 0.04296875 0.0068359375 3:1246.0 4:130.0 5:312.0 12:16840.0 14:434.0 18:144.0 
-1.0 0.0361328125 0.04296875 0.0068359375 12:90.0 14:39660.0 
-1.0 0.0361328125 0.04296875 0.0068359375 12:12563.0 14:12.0 
-1.0 0.0361328125 0.04296875 0.0068359375 1:1.0 3:9295.0 8:6.0 12:479.0 14:1.0 
-1.0 0.0361328125 0.04296875 0.0068359375 1:18.0 3:6534.0 4:14.0 12:16900.0 
-1.0 0.0361328125 0.04296875 0.0068359375 12:30608.0 
-1.0 0.0361328125 0.04296875 0.0068359375 8:204.0 12:337331.0 14:17.0 
-1.0 0.0361328125 0.04296875 0.0068359375 4:2.0 12:9065.0 
-1.0 0.0361328125 0.04296875 0.0068359375 12:12806.0 14:2572.0 
-1.0 0.0361328125 0.04296875 0.0068359375 3:4.0 12:32550.0 14:4314.0 
-1.0 0.0361328125 0.04296875 0.0068359375 4:420.0 12:101770.0 14:755.0 
-1.0 0.0361328125 0.04296875 0.0068359375 8:3204.0 12:119547.0 14:54.0 
-1.0 0.0361328125 0.04296875 0.0068359375 12:17082.0 
-1.0 0.0361328125 0.04296875 0.0068359375 3:84.0 5:1684.0 12:13864.0 14:3882.0 
-1.0 0.0361328125 0.04296875 0.0068359375 5:176.0 8:2.0 12:14988.0 14:103.0 
-1.0 0.0361328125 0.04296875 0.0068359375 5:1138.0 12:7667.0 14:151.0 18:7.0 
-1.0 0.0361328125 0.04296875 0.0068359375 3:282.0 12:66887.0 14:2.0 
-1.0 0.0361328125 0.04296875 0.0068359375 8:882.0 12:48744.0 14:3474.0 
-1.0 0.0361328125 0.04296875 0.0068359375 3:45.0 4:215.0 5:245.0 12:39015.0 
-1.0 0.0361328125 0.04296875 0.0068359375 1:2.0 5:39851.0 12:13919.0 14:5890.0 
-1.0 0.0361328125 0.04296875 0.0068359375 12:87813.0 14:11011.0 
-1.0 0.0361328125 0.04296875 0.0068359375 12:16258.0 14:94.0 
-1.0 0.0361328125 0.04296875 0.0068359375 1:476.0 5:7364.0 12:173418.0 14:2212.0 
-1.0 0.0361328125 0.04296875 0.0068359375 5:130.0 8:6.0 12:9838.0 14:202.0 
-1.0 0.0361328125 0.04296875 0.0068359375 12:28896.0 14:2562.0 
-1.0 0.0361328125 0.04296875 0.0068359375 5:83.0 12:11187.0 14:445.0 
-1.0 0.0361328125 0.04296875 0.0068359375 5:370.0 12:53790.0 18:165.0 
-1.0 0.0361328125 0.04296875 0.0068359375 3:2.0 4:10.0 12:1928.0 14:17892.0 
-1.0 0.0361328125 0.04296875 0.0068359375 12:209492.0 14:144.0 
-1.0 0.0361328125 0.04296875 0.0068359375 8:6.0 12:979.0 14:9207.0 
-1.0 0.0361328125 0.04296875 0.0068359375 3:20.0 12:21352.0 
-1.0 0.0361328125 0.04296875 0.0068359375 5:22.0 7:14264.0 12:2170.0 14:248.0 18:12.0 
-1.0 0.0361328125 0.04296875 0.0068359375 12:38750.0 
-1.0 0.0361328125 0.04296875 0.0068359375 12:15874.0 
-1.0 0.0361328125 0.04296875 0.0068359375 12:5621.0 14:2459.0 
-1.0 0.0361328125 0.04296875 0.0068359375 3:6.0 4:28.0 12:34518.0 14:334.0 
-1.0 0.0361328125 0.04296875 0.0068359375 12:248290.0 14:3598.0 
-1.0 0.0361328125 0.04296875 0.0068359375 5:316.0 12:33042.0 14:172.0 
-1.0 0.0361328125 0.04296875 0.0068359375 8:3258.0 12:62.0 14:13664.0 
-1.0 0.0361328125 0.04296875 0.0068359375 4:9688.0 12:125622.0 14:756.0 
-1.0 0.0361328125 0.04296875 0.0068359375 5:1358.0 9:15.0 12:7339.0 14:503.0 18:27.0 
-1.0 0.0361328125 0.04296875 0.0068359375 1:154.0 4:98.0 9:826.0 12:122108.0 14:2072.0 
-1.0 0.0361328125 0.04296875 0.0068359375 8:12.0 12:19972.0 18:244.0 
-1.0 0.0361328125 0.04296875 0.0068359375 8:1581.0 12:358020.0 14:17.0 
-1.0 0.0361328125 0.04296875 0.0068359375 8:2046.0 12:152284.0 14:11.0 
-1.0 0.0361328125 0.04296875 0.0068359375 3:12390.0 12:224812.0 14:3612.0 
-1.0 0.0361328125 0.04296875 0.0068359375 5:21.0 12:4855.0 14:2341.0 18:21.0 20:5258.0 
-1.0 0.0361328125 0.04296875 0.0068359375 4:364.0 5:560.0 8:98.0 12:186732.0 14:2044.0 
-1.0 0.0361328125 0.04296875 0.0068359375 5:2.0 12:17792.0 14:120.0 
-1.0 0.0361328125 0.04296875 0.0068359375 3:98.0 12:24764.0 14:344.0 18:6.0 
-1.0 0.0361328125 0.0439453125 0.0068359375 4:2.0 5:15558.0 8:20.0 12:3200.0 
-1.0 0.0361328125 0.0439453125 0.0068359375 12:64519.0 
-1.0 0.0361328125 0.0439453125 0.0068359375 12:8475.0 14:33.0 
-1.0 0.0361328125 0.0439453125 0.0068359375 4:47.0 5:22708.0 12:578.0 14:40.0 
-1.0 0.0361328125 0.0439453125 0.0068359375 12:16660.0 14:480.0 
-1.0 0.0361328125 0.0439453125 0.0068359375 12:13956.0 14:83.0 
-1.0 0.0361328125 0.0439453125 0.0068359375 4:2.0 5:774.0 12:47952.0 14:554.0 
-1.0 0.0361328125 0.0439453125 0.0068359375 3:370.0 4:30.0 12:17364.0 14:470.0 
-1.0 0.0361328125 0.0439453125 0.0068359375 9:10.0 12:9807.0 14:90.0 
-1.0 0.0361328125 0.0439453125 0.0068359375 1:44.0 4:1134.0 12:12488.0 14:778.0 20:9010.0 
-1.0 0.0361328125 0.0439453125 0.0068359375 3:1.0 4:223.0 5:145.0 9:24.0 12:7542.0 14:236.0 
-1.0 0.0361328125 0.0439453125 0.0068359375 4:66.0 12:25878.0 14:12021.0 
-1.0 0.0361328125 0.0439453125 0.0068359375 12:46135.0 14:255.0 
-1.0 0.0361328125 0.0439453125 0.0068359375 12:23391.0 14:510.0 
-1.0 0.0361328125 0.0439453125 0.0068359375 1:121.0 3:334.0 9:32.0 12:5301.0 14:239.0 20:1948.0 
-1.0 0.0361328125 0.0439453125 0.0068359375 12:10113.0 14:161.0 18:63.0 
-1.0 0.0361328125 0.0439453125 0.0068359375 12:13449.0 14:321.0 
-1.0 0.0361328125 0.0439453125 0.0068359375 8:380.0 12:49320.0 14:5.0 
-1.0 -1.0 1.0 0.181640625 8:15381.0 12:70956.0 14:27.0 
-1.0 -1.0 1.0 0.1826171875 12:378360.0 
-1.0 -1.0 1.0 0.181640625 12:30438.0 14:198.0 
-1.0 -1.0 1.0 0.181640625 12:31528.0 14:780.0 
-1.0 -1.0 1.0 0.181640625 7:1188.0 8:8.0 12:80700.0 18:16.0 
-1.0 -1.0 1.0 0.181640625 4:9.0 12:42900.0 14:360.0 
-1.0 -1.0 1.0 0.181640625 8:4005.0 12:272484.0 14:36.0 
-1.0 -1.0 1.0 0.181640625 12:118071.0 
-1.0 -1.0 1.0 0.181640625 8:8109.0 12:215694.0 14:54.0 
-1.0 -1.0 1.0 0.181640625 4:104.0 5:1024.0 12:32588.0 14:500.0 
-1.0 -1.0 1.0 0.1826171875 8:8.0 12:41552.0 14:396.0 
-1.0 -1.0 -0.8466796875 0.1533203125 1:144.0 12:24805.0 
-1.0 -1.0 -0.8466796875 0.154296875 8:172998.0 14:360.0 
-1.0 -1.0 -0.8466796875 0.154296875 8:34200.0 12:72.0 14:207738.0 
-1.0 -1.0 -0.845703125 0.154296875 12:79182.0 
-1.0 -1.0 -0.845703125 0.154296875 12:56830.0 
-1.0 -1.0 -0.8466796875 0.154296875 4:987.0 5:13083.0 8:147.0 12:240450.0 14:8673.0 
-1.0 -1.0 -0.8466796875 0.1533203125 8:884.0 12:357032.0 14:8762.0 
-1.0 -1.0 -0.845703125 0.1533203125 12:45022.0 
-1.0 -1.0 -0.845703125 0.154296875 12:125400.0 
-1.0 -1.0 -0.845703125 0.154296875 8:816.0 12:90288.0 
-1.0 -1.0 -0.8466796875 0.1533203125 8:817.0 12:6160.0 14:2658.0 
-1.0 -1.0 -0.845703125 0.1533203125 8:60048.0 12:54.0 14:104688.0 
-1.0 -1.0 -0.845703125 0.1533203125 8:25614.0 12:234.0 14:120366.0 
-1.0 -1.0 -1.0 -1.0 3:24.0 12:18518.0 
-1.0 -1.0 -1.0 -1.0 12:1421982.0 
